246 128
0 -0.2322247 -0.08076376 0.25366628 0.09162866 -0.21726526 0.28959158 -0.0011593838 -0.010567664 -0.38508153 -0.016480576 -0.41232044 0.03202279 -0.113409996 0.37313443 0.026020104 0.07658122 0.3295416 0.22465259 -0.040583607 -0.058937084 -0.08779286 0.4757475 -0.705735 0.19259427 -0.4041068 -0.022502754 -0.14139263 -0.47437584 0.26898333 0.12656173 -0.017149871 -0.11757362 0.2618327 0.20286405 0.0021733958 0.2827362 0.49048033 -0.20508228 -0.17438705 0.06438395 0.33686757 0.26318225 0.49844033 -0.009805557 0.23582081 -0.060059737 0.4550599 -0.18252197 0.09625895 -0.049197175 0.1846056 0.10644682 -0.25993437 -0.14308435 -0.063209414 -0.19531322 0.13602196 -0.4043335 0.2858754 -0.090932734 0.017309422 0.04210535 0.33931622 0.18226384 0.3891161 0.11686475 -0.12480046 -0.07474807 -0.10684245 -0.18744132 0.40978527 -0.14631706 -0.28625578 -0.24970429 0.20153372 -0.32389224 0.09800518 -0.32457927 0.25191876 -0.17007448 0.23319112 0.2546459 -0.19054772 0.14622499 0.12210579 0.25689325 -0.16271281 0.045390695 0.13218334 -0.12759778 0.1917097 0.1325993 -0.090586044 0.14114004 0.026441306 0.37393633 -0.24999201 0.052127328 -0.22255276 -0.11775759 -0.29366305 0.21544999 0.09069766 -0.11638972 -0.088480845 -0.01608756 -0.051046263 0.508439 0.12332726 -0.07620273 -0.118167676 0.3181448 0.08355051 -0.24638973 -0.14596334 -0.082122065 0.09402091 -0.23700853 -0.3173448 0.061927203 -0.08884435 -0.31448382 0.14081298 -0.5786432 0.12591067 -0.023148121 0.4408111 -0.12397106
1 -0.35201067 0.17200112 -0.25257486 0.10918688 -0.13301256 0.11214375 -0.03584114 0.055838704 -0.0007247374 0.1931986 -0.4369372 0.027238313 -0.22390833 0.2564765 -0.048063375 0.07174754 0.14879905 0.24099368 -0.004496139 -0.04427575 -0.15598322 0.5237497 -0.5992897 0.16987808 0.15222578 0.09777187 -0.240458 -0.10392134 -0.019888632 -0.029796688 0.07090474 -0.01294821 0.29234692 -0.11239629 -0.02648482 0.25229612 0.22259729 -0.5464945 -0.081525415 -0.03356594 0.44080418 0.20559324 0.42798278 0.06350906 0.32525048 -0.16530868 0.32240373 -0.007529842 -0.09376169 -0.04143049 -0.01335177 -0.10324027 -0.11550766 -0.13487214 0.019742485 0.111007184 0.042774305 -0.41249403 0.26990825 -0.13612731 -0.12347678 -0.26061642 0.19381483 0.07763025 0.21386467 0.18658553 -0.39565507 0.088845596 -0.1593583 -0.019371597 0.43342477 -0.2257887 -0.298704 0.048669703 0.14934824 -0.1693369 0.501785 -0.23457465 0.46433672 -0.063185304 0.11351655 -0.027310753 0.0052255644 -0.2623433 0.09314711 0.24854143 -0.06648129 -0.062616564 0.10934092 -0.47570765 0.057449326 -0.21817972 -0.027914856 0.24980938 0.08759739 0.3388325 -0.1852957 0.023843715 -0.29967567 -0.2607275 -0.22276302 0.28732938 0.14915158 -0.009958507 -0.06373151 -0.37466308 -0.09074987 0.65383685 0.034697272 0.090783246 -0.10252769 0.11592841 0.21861562 0.07256447 -0.0740565 -0.23070331 -0.0872021 -0.4045459 -0.41626492 0.3229662 0.096635684 -0.38717866 0.21516187 -0.42932114 0.4398597 -0.054038327 0.3914632 0.11714718
2 -0.14563574 -0.07859046 -0.06118907 -0.01362378 -0.25342754 0.12440725 0.0617913 0.03427539 -0.136127 -0.009598158 -0.18367222 -0.041384853 0.01763029 0.17941393 0.051849443 0.09678614 0.22096434 0.1707355 -0.034551706 -0.11584492 -0.01902973 0.20817257 -0.3173234 0.030766256 -0.26253128 0.018785218 -0.13148123 -0.2187729 0.09226296 0.03600372 0.03612651 -0.040310916 0.17429638 0.278945 -0.095601365 0.22556002 0.33620462 -0.08908935 -0.18403059 -0.0006845017 0.18124703 -0.021954121 0.27329108 0.107308105 0.19514903 -0.26815325 0.28246945 0.051868055 0.2207361 -0.05570646 0.02423932 -0.02001133 -0.09349155 -0.06789933 -0.08635083 -0.14926706 0.18785515 -0.17704636 0.26864278 -0.13702646 -0.2040633 -0.029627958 0.36104387 0.08095813 0.27459332 0.13216072 -0.1491654 0.04072556 -0.064585954 0.18719846 0.34709674 -0.21378982 -0.09152047 -0.3405219 0.3571798 -0.3430688 0.09815856 -0.098530985 0.2447717 -0.039477766 0.121620014 0.05413003 -0.20404296 -0.100709565 -0.103805766 0.08194135 -0.06396828 -0.12327056 0.094562106 -0.15991056 0.24686271 0.06353712 -0.062750556 0.10760368 0.014820375 0.13850205 -0.1620006 0.09072125 -0.071007825 -0.17128937 -0.26901683 0.13687445 0.08365126 0.12429576 0.01659114 -0.20643626 0.018235946 0.2758566 -0.10354132 0.02514035 -0.1339401 0.027934963 0.04720475 -0.058930017 0.054011956 -0.08674767 -0.10369811 -0.12309388 -0.09590933 -0.13927847 0.00040120076 -0.12385832 0.18235163 -0.30967984 0.2945938 -0.002905812 0.25915945 -0.10340513
79 -0.37207142 0.011003151 -0.054030705 -0.023252657 -0.15488693 -0.008445816 0.30492988 -0.12352358 0.2910221 -0.033841003 -0.8914286 0.10517811 -0.25563073 0.100734666 0.10710064 -0.38382253 0.44715446 0.29774025 -0.42662752 0.07644017 -0.4267833 0.42536432 -0.31629217 -0.3663584 -0.2804277 -0.20440216 -0.31637436 -0.2038251 0.18134575 -0.2003635 -0.15754741 -0.5297887 0.6931789 0.113453686 -0.0026836894 0.50990355 0.06918097 -0.5324708 -0.4851687 0.20502426 0.28485414 -0.09159428 0.3790209 -0.13310945 0.61306614 0.0517214 0.70156354 -0.37642348 0.09485978 -0.04561759 0.15884256 -0.64348644 0.10234306 0.15958688 -0.1848107 -0.5912261 0.57100075 -0.22414799 0.19933227 -0.09768871 0.21132617 -0.21768667 0.22008546 0.06888037 0.057204764 -0.09055453 -0.20289749 -0.09512073 0.18861994 0.10634964 0.48188865 -0.5652956 -0.71453834 -0.031468242 0.01989593 -0.18230514 0.37904343 0.060115095 0.02437442 0.19150074 0.12531759 -0.35744533 -0.24765638 -0.08366452 0.050645296 0.2056736 -0.43469042 -0.13573796 0.18989733 -0.112272985 0.68096185 -0.09426552 0.073075555 0.010199845 -0.31460026 0.5310381 -0.03247891 0.06569897 -0.43541938 -0.15599045 -0.36150935 0.35334927 0.276106 0.17112224 0.166664 0.18609335 0.2686783 0.14559314 0.084106766 0.10979222 -0.109354 0.20392041 -0.085067466 -0.17123474 0.42468715 -0.46328464 -0.20882155 -0.22740321 0.17396766 0.4083525 -0.24560757 -0.27386045 -0.16390485 -0.33059195 0.19562922 0.3237436 0.28711855 0.16596708
55 -0.10119168 0.23337422 0.14182043 -0.085405424 -0.2672005 0.14435376 -0.13354911 -0.043599814 0.19620296 0.13632867 -0.26663107 0.07282113 -0.03424353 0.19576503 -3.4386176e-06 0.29599458 0.18171582 0.07454077 0.0995339 -0.08720934 -0.22503605 0.12159515 -0.3728766 0.2046045 0.13703428 0.1920734 0.03955549 0.042184483 -0.005303392 0.22407696 -0.06114425 0.11811376 0.37794563 0.15228355 -0.07761768 0.30825698 0.04631232 -0.38181058 0.11788823 0.016748 0.430992 -0.091128945 0.701198 0.08966428 0.36690825 -0.16830248 0.6342966 0.0052359146 0.17503087 -0.30862147 -0.09339342 0.15870781 0.080775924 -0.06831805 0.19397762 0.06725647 -0.039742216 -0.26369742 0.19243118 -0.054384604 -0.42863086 -0.2873793 0.09587499 0.20829555 -0.06390218 0.4144019 0.06270734 0.19909438 -0.4385826 0.13745442 0.5921946 -0.22160934 -0.10261098 -0.43545878 0.025973877 -0.36224106 0.39684555 -0.4802688 0.2510802 -0.14951906 0.50407654 0.20604582 0.1452312 -0.15177928 -0.038176127 0.115856186 -0.101830594 -0.16585921 -0.3747639 -0.059778873 -0.012438962 -0.053645942 0.091371424 0.16569778 0.036026802 0.40333417 -0.26093873 0.48502955 -0.062859856 -0.25952283 -0.3649119 0.14852645 0.029331254 0.10413798 0.06404068 -0.20444381 -0.076399274 0.48402083 0.16702376 0.13581322 -0.09423377 0.5030173 0.082217135 -0.3368716 0.15480134 0.008263648 0.13351074 -0.31544414 -0.45565757 -0.2920769 0.31857517 -0.13107397 -0.033688422 -0.19984685 0.2679659 -0.06221887 0.54380953 0.040143404
57 -0.28234407 0.2552808 0.2187995 -0.032642737 -0.33024895 0.2315879 0.048371788 -0.2093297 0.19253655 -0.042304784 -0.48930743 -0.04806228 -0.04362988 0.2538987 -0.04371217 0.11829517 0.25254673 0.1505868 0.015494407 -0.012109984 -0.29728505 0.27103397 -0.47885907 0.29609847 -0.16252354 -0.09675883 -0.08617685 -0.13678561 0.07113208 0.16599903 -0.020179285 -0.04929437 0.47537264 0.206061 -0.16990098 0.27784052 -0.0059346952 -0.4827645 0.012770583 -0.020742428 0.41336828 -0.032181032 0.89634347 0.15199456 0.43530476 0.11326476 0.9148777 -0.08979447 0.10540464 -0.0070278444 0.07597013 0.13151596 -0.040378325 -0.02348028 0.14356652 -0.12623173 0.071036674 -0.44319966 0.2236608 0.02088725 -0.39044946 -0.23761374 0.020051068 0.27631706 -0.0015811851 0.49256983 0.10230095 0.071731724 -0.48821375 -0.11970519 0.58552605 -0.16131057 -0.27464867 -0.59543306 0.19269292 -0.32747975 0.38916397 -0.4821818 0.28899997 0.048043 0.4756441 0.12913576 -0.10859521 -0.040037423 -0.044641253 0.11091213 -0.20588951 -0.06014177 -0.22311087 -0.29032674 0.20544662 0.059528902 0.08038507 0.19823456 -0.01127978 0.67879 -0.019761551 0.43036833 -0.092908435 -0.10766444 -0.4909949 0.032550354 0.25018644 -0.18936825 0.12106017 0.009951268 0.024825959 0.5439465 0.20169076 0.11987606 -0.16161682 0.5740018 0.10351395 -0.39070356 -0.100340396 0.12994288 0.060755957 -0.14559774 -0.5561194 -0.022629747 0.26229328 -0.09898991 -0.28491843 -0.30143577 0.017507525 -0.062090736 0.4814585 0.21354309
59 -0.17966191 0.29681578 -0.20501038 0.21993749 -0.36536688 0.18474843 0.032929834 0.19598085 0.03428931 0.31933308 -0.35626075 -0.065132074 0.33971944 0.40549272 0.17947698 0.37487513 0.15807626 0.22142373 0.06310661 -0.026143368 -0.35915357 0.27444845 -0.5698776 0.12645268 -0.12362228 0.19725643 0.009323857 -0.25929812 0.22539005 0.16188829 0.08094038 0.13342708 0.28842142 0.2324344 0.01828629 0.51289415 -0.018577961 -0.45595834 -0.00057235005 0.101860665 0.53575325 0.012572663 0.7710439 -0.101543 0.22713122 -0.3538665 0.61959136 0.19434255 0.20713922 -0.13490829 -0.18192938 0.08233863 -0.006612129 -0.07187478 -0.0399751 -0.14834966 0.21529168 -0.2595806 0.29810765 -0.26175034 -0.09376101 -0.39539894 0.091657184 0.21247384 0.24877101 0.29107478 -0.20774989 -0.012166477 -0.18869331 0.13688654 0.35676542 -0.42869678 -0.40167165 -0.2266058 0.0043698517 -0.13159889 0.72852504 -0.4686994 0.50884646 -0.28567463 0.45856488 -0.29053482 0.21002206 -0.2408937 -0.019335482 0.26519194 -0.006507085 -0.15711881 -0.063826375 -0.32964975 0.25598374 0.012323342 0.15234831 0.2142087 0.04503654 0.4997732 -0.40886262 0.37570363 -0.16894332 -0.1805795 -0.26949763 0.20151885 0.04453958 0.10346801 0.05313444 -0.2528493 -0.039063327 0.30038208 -0.09000259 -0.048619527 -0.05699165 0.4259877 0.18791512 -0.16852064 0.21280156 -0.02850426 0.06777099 -0.56822217 -0.39136437 -0.08434164 0.23442523 -0.21832527 0.07518365 -0.522984 0.2998901 0.08310997 0.42801785 0.040312327
65 -0.6187493 -0.1805591 -0.2681633 0.0695492 -0.56297815 0.45265853 0.13344422 0.38985223 0.22023349 0.032314416 -0.66508377 -0.44933698 0.27298534 0.16227381 -0.19102046 0.27764982 0.39149806 0.18766883 0.3224939 -0.04426455 -0.21404746 0.38344344 -0.7471074 0.21251203 -0.44410524 -0.1031229 0.006662454 -0.5920788 0.3214012 0.10703177 0.3309317 -0.090031214 0.4925212 0.5158482 -0.14560601 0.47643173 0.1602238 -0.70641726 -0.56806993 0.07015219 0.33211365 -0.27946848 0.72541034 -0.07958398 0.6709058 -0.15016271 0.5888349 0.028934203 0.038417153 -0.33316776 0.32698 -0.09429794 -0.34299272 -0.0012333927 0.179328 -0.37455264 0.2902754 -0.042219114 0.37252048 0.04930338 -0.6881777 -0.2266352 0.050707415 0.3142801 0.56367224 0.5658648 0.033649925 0.3350602 -0.34837267 0.5184924 0.11778755 -0.43423995 -0.12332578 -0.99427164 0.25490183 -0.5061527 0.87424886 -0.3655239 0.49536866 -0.16745399 0.66010827 -0.16439277 -0.045006577 -0.36229584 -0.099174194 0.4410408 0.08438479 -0.09765841 -0.61593056 -0.3150747 0.47826764 0.23280108 0.10752576 0.7389123 0.3256727 0.9871008 0.07961922 0.6940228 -0.27572614 -0.2903198 -0.7893497 -0.21220313 0.10812259 0.56302595 -0.26851398 0.23867907 0.1349418 0.6931835 -0.082618855 0.09238983 0.050979294 0.45661432 0.030868992 -0.37799525 -0.18460596 0.25841898 -0.032586172 0.18421589 -0.38471067 -0.6660399 0.5681861 -0.21439627 -0.30657464 -0.075446784 0.04384364 -0.20961653 0.3968237 0.2833317
67 -0.48674893 0.07286951 0.13380106 -0.05822324 -0.58007884 0.39315984 -0.16871993 0.36379915 0.32398245 0.020720778 -0.66534775 -0.08012373 0.10213339 0.21751565 -0.32115132 0.3402231 0.10785069 0.115068145 0.21233879 -0.10032313 -0.15151937 0.29821125 -0.7964346 0.34199813 -0.31737524 -0.22359432 -0.3427466 -0.2956669 0.45932886 0.34000075 0.39614868 0.21674207 0.48549035 0.20871407 -0.5129568 0.36214912 -0.25432315 -0.7334428 -0.077980235 0.17859559 0.19944328 -0.12087301 1.1806756 0.02339807 0.6957075 0.044613507 0.8138742 0.06762768 -0.03837198 -0.31591886 0.27609366 0.02662504 -0.3446855 -0.23340806 -0.022744194 -0.30664364 0.26855478 0.003075971 -0.057326987 0.017168919 -0.85372764 -0.23020755 -0.15327744 0.57927066 0.23182671 0.30912703 0.21676521 -0.2080335 -0.3563846 0.24662094 0.6820815 0.0023138125 0.24461383 -1.0037618 0.12716006 -0.47972175 0.58871984 -0.3149232 0.50480944 -0.29568055 0.581119 0.29271647 -0.16064683 -0.1678025 -0.14303403 0.29387268 0.10346912 0.018983036 -0.33569553 -0.32810777 0.31705186 0.36375183 0.039754797 1.017099 0.2050417 0.87701327 0.07188394 0.5244727 0.07502291 -0.057292894 -0.6586934 -0.20703356 -0.13939029 0.22185412 0.011649761 0.2687091 0.39500383 0.24116585 0.27867067 0.33736768 0.052104913 0.5528292 -0.056474138 -0.47325116 0.054637477 0.29072213 -0.16921617 0.1990388 -0.3551771 -0.34390527 0.36795884 -0.16988665 -0.16361174 -0.3708403 -0.2927946 0.13543174 0.18648651 0.27175033
36 0.052372836 -0.5863967 0.13078356 0.058744986 -0.25588194 0.30633786 0.3117283 0.3128446 -0.7396959 0.2577697 -0.09870367 0.07584637 -0.08412116 0.2038994 -0.111039124 -0.26606762 0.25423563 0.5669055 0.07726326 0.045537584 0.07175451 0.649135 -0.8219994 0.27135321 -0.50742733 -0.0841089 -0.3930626 -0.7597889 0.18950717 -0.04210331 0.026264533 0.066944994 0.07665491 0.51794523 -0.2922329 0.20841168 0.7558013 -0.085042715 -0.14666308 0.13155487 0.28864324 0.6280767 0.2779341 0.06220802 0.28328192 -0.10433093 0.074335925 -0.13210294 -0.04602927 -0.22542718 0.25726852 0.32030737 -0.33421782 -0.08048823 -0.36317685 -0.5362229 0.05699216 -0.5946494 0.29017612 -0.14178991 -0.35848787 0.71841955 0.48359558 0.5483936 0.7613064 -0.3047282 -0.29827532 -0.094936386 0.31364003 -0.32401735 0.06703702 -0.5058753 -0.39768705 -0.55829054 0.65037596 -0.42680222 -0.14329761 0.061729595 0.12941715 -0.25082532 0.12230257 0.18186319 -0.38432834 0.019346913 -0.015517988 0.4611812 -0.2898802 0.13676701 0.40687364 -0.16260414 0.21690615 0.29218352 -0.34476313 0.7118141 -0.19828558 0.8523591 -0.24451461 -0.22564209 -0.34911066 -0.018465577 0.14044361 0.24778387 -0.06250507 0.05254345 -0.28269997 -0.2869245 0.20886223 0.3544087 -0.14413989 -0.20419475 0.19766937 0.17349945 -0.3317799 -0.15512691 -0.19213393 0.10881004 0.14529674 0.09074939 -0.19630776 -0.18337202 -0.15613607 -0.23388106 0.65136844 -0.74347293 0.4586092 0.06535728 0.2597076 -0.038198236
37 0.27662697 -0.55779296 0.28780225 0.3827326 -0.26401776 0.066185005 0.526716 0.048397887 -0.8099997 0.3892892 -0.23822498 0.09900971 0.116352975 0.32572582 0.2733275 -0.13083296 0.15960336 0.423969 -0.10605349 -0.064528644 0.15801546 0.4961952 -0.526516 0.3145308 -0.29698595 -0.09674912 -0.09527759 -0.59567165 0.036954843 -0.009324104 -0.06192912 0.27481464 0.042283043 0.4296685 -0.13083021 0.20886165 0.34496623 -0.063491285 -0.0504744 0.22635397 0.50660056 0.5155048 0.37727833 -0.056939162 0.4524732 -0.11381658 0.070570394 -0.20232232 -0.030243432 0.020937199 0.23193538 0.20831484 -0.049752392 0.14293645 -0.08892685 -0.71089065 0.19866543 -0.56071794 0.20278302 -0.26715234 -0.21797912 0.61799735 0.42829552 0.31404307 0.50777197 -0.097587876 -0.590041 -0.064635724 0.23308526 -0.2364854 0.04960249 -0.4824191 -0.46141905 -0.39589033 0.76534754 -0.30125263 0.21363953 0.07097851 0.3361662 0.0030824952 0.21872874 -0.19356431 -0.24530967 -0.10946051 -0.121623285 0.51366615 -0.120346405 0.113739945 0.36229193 -0.24768306 0.18341583 0.185537 -0.22002566 0.45494112 -0.33263314 0.9245842 -0.19625579 -0.043565847 -0.4322022 0.1316877 0.09143362 0.19446325 -0.009875715 0.1709389 -0.1321974 -0.40285778 0.16098331 0.23580168 -0.1356519 -0.2095049 0.20022309 0.2435059 -0.24035886 -0.29154566 0.10641682 0.09460346 0.09349424 -0.19190605 -0.118038744 -0.062153805 -0.12523751 -0.32193658 0.50020534 -0.6451101 0.3761836 0.18318173 0.30223316 -0.05500014
38 0.18113609 -0.5932331 0.22243251 0.11189366 -0.4915607 0.28524548 0.14615129 0.14172843 -0.67270947 -0.09549801 -0.2114375 0.31439283 0.05751343 0.19675347 0.06603158 -0.31003454 0.16802767 0.53148675 -0.29485303 0.019151075 0.21840489 0.68883824 -0.94637924 0.57800025 -0.6843741 -0.027696753 -0.49229345 -1.1165168 0.2756243 0.16094498 0.3540489 0.12319217 0.28484038 0.6980595 -0.23321354 0.116324075 0.5201659 -0.33875448 -0.1424155 0.00673202 0.2020646 0.4661759 0.71345717 -0.13555998 0.46974373 -0.00031630922 0.18393679 0.021096094 -0.09963923 0.083519146 0.41126034 0.21058716 -0.2248343 -0.14331165 -0.3799594 -0.7723935 0.40033433 -0.25097117 0.47531074 0.022867842 -0.69601315 0.8114664 0.19788788 0.51055217 0.7358217 -0.02607445 -0.18290126 -0.2223091 0.47593006 -0.15986127 0.20208068 -0.37667477 -0.3638135 -0.894557 0.7730398 -0.53948927 -0.14885686 0.15758531 0.26971713 0.09096871 0.44954726 0.21565476 -0.57896465 0.067047566 -0.17485875 0.3314214 -0.0893585 0.14187756 0.31136256 -0.31956288 0.13860372 0.43523172 -0.30218872 0.5905836 -0.30280128 1.1161226 -0.1337705 -0.12835243 -0.28661662 0.09230949 0.025575697 0.084107935 0.03009213 -0.076212436 -0.23011516 -0.08420853 0.33765936 0.37838092 -0.014261601 -0.17071491 0.3096756 0.24124442 -0.1927668 -0.452108 -0.44695023 -0.08182231 -0.06634846 0.2576205 -0.12035474 -0.09104421 0.0387987 -0.2250678 0.2969762 -0.8295169 0.0010695629 0.0044415635 0.11354667 0.01946661
39 0.04557782 -0.78332615 -0.036291976 0.09728085 -0.12437393 0.24013321 0.4849927 0.12615456 -0.7526957 -0.008255846 -0.15424478 -0.052797616 -0.16051619 0.11280081 -0.033810884 -0.31954515 0.3449774 0.5272519 -0.0831161 -0.067785844 0.02165318 0.6762361 -0.6840904 0.3399417 -0.7204527 -0.09764245 -0.5609729 -0.98283124 0.32435 -0.18765615 0.022427617 -0.16934595 0.30063733 0.7901285 -0.29616725 0.15185203 0.7068331 -0.33267805 -0.33770618 0.2715758 0.33708024 0.571732 0.3257616 -0.12873805 0.18947749 -0.033133034 0.17558347 -0.18524587 -0.18140163 -0.3977077 0.5908762 0.24907626 -0.47703063 0.34025413 -0.22798723 -0.73921484 0.18399821 -0.50949377 0.30420765 -0.13354018 -0.31831083 0.77142376 0.57853717 0.47583383 0.8083981 -0.13822165 -0.22068779 0.017870137 0.2901499 -0.2452453 -0.12529641 -0.5377059 -0.48295742 -0.8667667 0.9941055 -0.47174186 -0.17165083 0.023410691 0.036608588 -0.12511715 0.3015678 0.10026147 -0.347777 -0.13925749 0.058843695 0.41094598 -0.23466891 0.16572638 0.3798937 -0.44377378 0.16836397 0.29499966 -0.25551045 0.76523554 -0.20972088 1.1746817 -0.10003596 -0.21852997 -0.43905273 0.05480987 0.25259072 0.19792216 0.060762025 0.24332902 -0.35383278 -0.14938635 0.33822528 0.5445476 -0.14219002 -0.34938958 0.2137648 0.022205561 -0.26037 -0.06369764 -0.45482025 0.0261375 0.009282988 0.25385734 -0.09667905 -0.12174832 0.07887031 -0.119815946 0.23324692 -0.7564993 0.19399868 -0.20304239 0.073051825 0.13687737
80 -0.013654463 0.28519437 -0.35003662 -0.1177061 -0.017797044 -0.022831516 -0.07507458 0.21302585 0.20471998 0.19629401 -0.29293057 0.24436577 0.17503117 0.105697565 0.074144185 0.12159323 0.2708681 0.18813169 -0.17156897 0.0009791638 -0.51429564 0.18966848 -0.41773686 -0.23037662 0.018733121 0.40991658 -0.01765496 -0.23825063 0.2377934 0.067543186 0.05070091 0.047086436 0.50736034 0.014825141 0.36334503 0.42543516 0.06199727 -0.19557026 -0.0049296324 0.12412409 0.05585582 -0.08500739 0.4494678 -0.50964445 0.3132449 -0.5819832 0.525707 -0.0043149097 0.15272951 -0.11175606 -0.17542362 -0.28177172 0.14214171 0.12070639 -0.025211066 -0.21737024 0.31910628 -0.3468824 0.40411603 -0.364919 0.10922577 -0.2291474 0.03822494 -0.29384598 0.24369527 0.37755314 -0.41365144 -0.024201754 0.22459745 0.44932196 0.6792207 -0.81233907 -0.5118174 0.35065436 -0.0142629575 -0.017663455 0.41317213 -0.062260732 0.3457116 -0.21885322 0.26447588 -0.29424518 0.2425373 -0.36197627 -0.05333748 0.15057458 -0.06598235 -0.25590226 0.3630927 -0.350548 0.14791231 -0.21200383 0.097236976 -0.117380664 -0.20861827 0.20089518 -0.6974829 0.1181118 -0.3317537 -0.030253837 -0.12896411 0.28619978 0.016101766 0.2731564 0.20791969 -0.56533027 -0.15478854 0.26601505 -0.2524649 -0.33771554 0.16482794 0.18210156 0.105195165 -0.14445288 0.31465647 -0.74846846 -0.15191044 -0.6868266 -0.12156452 0.24681932 0.07060316 -0.34221464 0.18808244 -0.5954433 0.55151826 -0.07500954 0.44371158 0.03352877
64 0.104715675 0.18364547 -0.06192478 -0.15714623 -0.27492696 0.26001686 -0.23341697 -0.11350918 -0.004768556 0.08037782 -0.2756685 -0.10833309 0.09854479 0.22991069 0.025478147 0.43884712 0.19205138 0.020890506 0.023584409 -0.06826093 -0.018994197 0.026129795 -0.42559317 0.26486373 0.089977525 0.35812426 0.22368707 -0.16378015 -0.28574398 0.22810614 -0.22183296 0.21175553 0.1539799 0.033831775 -0.05179767 0.2540559 0.08504811 -0.013654605 0.2157665 0.059832625 0.28726998 -0.11739241 0.56110954 -0.0035463453 0.3671495 -0.061453123 0.5656424 -0.21881534 0.20377332 -0.32369956 -0.1724936 0.2691872 -0.036532566 0.038023356 0.17997219 -0.1475555 0.2391331 -0.17671841 0.38630116 -0.1048866 -0.4993418 -0.3467546 0.22730261 0.15245667 0.0144784665 0.68697155 -0.17155962 0.19766538 -0.4114756 0.1690828 0.5149436 -0.30855125 -0.05977156 -0.40323266 0.26334026 -0.42808506 0.481977 -0.46306902 0.52620524 0.012667714 0.4509028 0.18316753 0.20501849 -0.04283987 -0.11974495 0.22777203 0.051446576 -0.30998167 -0.3368107 -0.2104165 -0.02755197 0.029233418 0.1489329 -0.16221306 0.012219538 0.16958714 -0.46981633 0.5435004 -0.23626998 -0.5169244 -0.30266267 0.13867623 -0.10855624 0.09444044 0.056370795 -0.28996485 -0.060403734 0.4700183 -0.093916506 -0.10882915 -0.13046096 0.4169951 0.09667076 -0.57911706 0.16968088 -0.06183238 0.060741413 -0.40827635 -0.4595843 -0.2674481 0.13961633 -0.36847627 0.1824519 -0.29966298 0.3827298 -0.061959833 0.5074032 -0.19916457
231 0.019071924 -0.34078488 0.14250728 0.28358498 -0.12540431 -0.060580686 0.14445224 -0.20157644 -0.11045268 -0.034016974 -0.112996966 0.4461309 -0.11833508 0.060313094 0.1982032 -0.12540813 0.45443043 0.3162109 -0.49556285 -0.07636225 0.27758688 0.11067958 0.00791244 -0.011777771 0.19832039 -0.32956815 -0.39189368 0.16181618 0.07195008 0.16818549 0.09685396 -0.035999294 0.48359385 0.07861713 -0.065925814 0.019302867 0.13681532 -0.08243727 -0.0045628888 -0.1434483 -0.0676136 0.03626437 0.2903079 0.073829636 0.46867138 -0.7085215 0.287894 -0.031104513 0.20278947 0.41580096 0.3129394 -0.4357664 0.3719677 0.093849234 0.23398672 0.2474529 -0.20490867 -0.11697791 0.21664639 -0.14844535 -0.5612513 0.4381393 0.4040039 -0.2137031 0.26348135 0.14256781 -0.42974368 0.09138047 -0.12241802 0.4985713 0.66485304 -0.17017588 0.24758066 -0.4378179 0.9900062 -0.478905 -0.27140245 0.6692803 0.36154622 0.2701057 -0.26322424 0.026073812 -0.4284129 -0.56787324 -0.37492537 -0.2931557 -0.124593675 -0.5266747 0.1641325 -0.06512126 0.2059874 -0.36033055 -0.43187383 0.10407824 -0.1120624 0.38132554 0.18989205 -0.4776024 0.26331255 -0.026006173 -0.051684055 0.18408544 0.41055474 -0.114333555 0.4399464 -0.7470544 -0.033838097 0.59243023 0.08566964 0.11423455 -0.512852 -0.55894053 -0.1680298 0.36538815 0.14129606 -0.5857677 -0.53129077 -0.08594425 0.2782629 0.22146516 0.08473925 -0.14740838 0.3156182 -0.33060777 0.49177638 -0.2517487 0.5687815 0.0065457746
237 -0.23085725 -0.08353722 0.09302314 0.32347867 -0.437023 0.18704961 0.14332512 0.3538452 -0.2377729 0.44171074 -0.20109239 -0.14848797 -0.31027028 0.50850123 -0.018288637 -0.42522022 0.21522483 0.24650547 0.19160092 -0.43651757 0.6310479 0.3777503 -0.06201655 -0.35819486 0.071430646 -0.263188 -0.17056143 0.15620416 -0.062044587 -0.02639286 0.33903754 0.2519897 -0.047890432 -0.14255743 -0.24027957 0.36263117 -0.14559829 -0.10269234 0.124782525 0.2677674 0.1557101 0.08672647 -0.13953191 -0.0097289225 0.2977756 -0.23672299 0.30757776 -0.10464894 0.251923 0.2808029 -0.22020073 -0.29408982 -0.006246358 0.1470238 -0.1099703 -0.03471115 -0.5290471 0.032137133 -0.28352106 -0.64201033 0.08762958 0.24619173 -0.027789434 0.46750274 0.3493777 -0.13067172 -0.34938145 -0.21333857 0.11770756 -0.30987853 -0.11831318 -0.18418816 0.17260934 -0.26621172 0.06750141 0.081938446 -0.216233 0.4249113 0.16531837 -0.043151658 0.032468088 0.05378761 -0.16630793 -0.6993862 -0.39914986 -0.097899765 0.07635686 -0.23264709 0.19494483 -0.0041370573 0.09604517 -0.11868729 -0.18337832 0.20585877 -0.091393486 0.10532859 0.19323672 -0.37183496 -0.0698156 0.21758829 -0.34829792 0.097443216 0.36912885 0.09280344 0.43631607 -0.452193 -0.05849803 0.0925629 -0.36780137 -0.12042472 -0.6089566 -0.38148394 -0.2330447 0.2645548 0.20841235 -0.1771885 -0.06281504 -0.23094924 0.34407642 0.13708211 0.0059483373 -0.4924533 0.31363648 -0.15531243 0.29823261 0.1791332 0.25450525 -0.26081598
238 -0.2347369 -0.41369575 0.057081632 0.29807323 0.24346265 0.19459033 -0.0034537225 0.16655385 -0.39975178 0.15064053 -0.4469022 -0.36605814 -0.489644 0.32061058 -0.018976826 0.08405894 0.32871512 0.28520712 -0.11443217 -0.3927051 0.35299993 0.22063112 -0.34271756 -0.1458624 -0.18893808 -0.3286503 -0.1210977 -0.055242423 0.20532998 0.033532266 0.117604315 0.09930908 0.40527079 -0.20597586 -0.24770196 0.36982316 -0.03399924 -0.070607 0.2640014 0.18427467 0.38894102 0.10566062 -0.003234097 -0.34121838 0.057021406 -0.096506335 0.19729403 -0.14349344 0.15696037 -0.006077041 0.37058356 -0.50081646 -0.049147725 0.23123857 0.4559045 -0.058163427 -0.19849998 0.45973384 -0.11212177 -0.5153693 0.5606812 -0.19958803 0.20704564 0.27498642 0.29839808 -0.040339362 -0.5205327 -0.011347143 -0.0717191 0.16823693 0.25918248 -0.4703034 0.23284996 -0.03831607 0.3449054 -0.16457656 0.12309101 0.42924088 0.27140313 -0.07344171 -0.14351422 0.07700169 -0.09292551 -0.42656165 -0.13202348 0.085082754 0.11706357 -0.5614616 0.124582075 -0.20559566 0.06945151 -0.42767382 0.1068377 -0.019599611 -0.049443264 0.24162453 -0.18121715 -0.22924837 0.10096 0.09758841 0.09439373 0.3802946 -0.031963076 0.13818641 0.45373455 -0.5566876 -0.096091546 0.38558713 -0.18811207 -0.24699333 -0.6700741 -0.5673494 0.14104664 0.10559388 0.42849013 -0.30190092 -0.5478455 -0.4977845 0.34795433 0.40623754 -0.19368358 -0.3290763 0.16765696 -0.5654035 0.2252064 0.18358329 0.13749279 -0.62796557
243 0.14856964 -0.102357656 -0.035724524 -0.17502993 0.07092577 0.07324134 -0.04790763 -0.1459913 -0.0010726493 0.04058098 -0.14965208 -0.06538564 -0.41668802 0.1537237 -0.033789873 0.3421022 0.109834194 0.18610542 -0.13212918 -0.3339211 0.2684273 0.45757696 -0.065450184 0.16032894 0.23380521 -0.27168223 -0.01593811 0.11920612 -0.08999877 -0.27818787 -0.42897382 -0.048899975 0.24269822 -0.06068633 -0.053987063 0.3948731 0.11676094 -0.11951314 0.042632308 -0.11998749 0.22288664 -0.09759116 -0.30306333 -0.14320193 0.120318875 0.124561235 0.4250558 -0.13385059 -0.20466565 0.34209406 0.04969379 -0.10003432 -0.50236917 0.38150162 0.12572686 -0.13489549 0.11198741 -0.053902853 -0.396832 -0.09100618 0.02164086 0.05688638 0.26845556 0.2682533 -0.015994472 -0.43999222 -0.41452247 0.5163892 -0.31163728 -0.195803 0.24029136 -0.304356 0.12702906 -0.22963354 0.5465776 -0.20085113 -0.3449454 0.27925065 0.16747083 0.52046174 -0.1770313 0.34168267 -0.54042125 -0.15159748 0.057945896 -0.22892392 6.794257e-05 0.278986 0.061810415 -0.003973289 -0.18738995 -0.17878108 -0.13241759 -0.19178231 0.072342604 0.16859207 0.12721045 -0.28681383 -0.32388332 0.036870997 -0.3021453 0.13513088 0.25824222 0.34306887 0.19017772 -0.47810653 -0.01900624 0.111828 -0.18739194 -0.32944134 -0.19369483 -0.189439 0.19977222 -0.16799653 0.1258667 -0.008453059 -0.24071176 0.06212722 0.26177782 -0.065339796 -0.043137185 -0.34888208 0.123036 0.15513232 -0.10830809 0.11957473 0.1261872 -0.024746818
244 0.057132773 -0.19776526 0.09717517 -0.2363418 -0.34453264 0.30743033 -0.0143030295 -0.24275425 -0.1487834 -0.13202967 -0.09966859 -0.11861444 -0.5021526 0.14208856 -0.0034049372 0.071362294 0.14567773 0.060662217 -0.25781333 -0.3476629 0.23531972 0.30678657 -0.02708902 -0.05461926 0.13356002 -0.3266841 -0.04869508 0.041282948 0.08569829 0.066659845 -0.24655212 -0.11254435 0.08301463 -0.092028715 -0.16959415 0.22976719 0.16833746 -0.0497483 -0.0053702076 0.033361778 0.3290685 -0.048686083 -0.100347236 -0.06523889 0.100355744 -0.08951714 0.3220114 -0.33847928 0.006687328 0.32263032 0.052704792 -0.18555108 -0.1202515 0.28576535 0.2632959 -0.2195252 -0.043727506 0.10201528 -0.24356103 -0.29515585 -0.08107946 0.008641774 0.26830658 0.13595356 0.14556697 -0.13249817 -0.28604853 -0.026802476 -0.15636256 -0.195153 0.3651114 -0.09686853 0.168916 -0.12151107 0.3551696 -0.17954364 -0.2762724 0.5162578 0.08790031 0.49240977 0.0734209 0.2286826 -0.26733416 -0.053596698 -0.05355645 -0.29119238 0.018672494 0.08733711 0.21058996 0.032359585 -0.13292724 -0.18036985 -0.19531016 -0.14464664 -0.16507113 -0.05458844 -0.003093243 -0.30006737 -0.13031101 0.16699855 -0.20475541 -0.023511527 0.057038587 0.21221834 0.356451 -0.39359432 0.08480329 0.04855901 -0.3538969 -0.025578525 -0.6079769 -0.24283971 -0.012817726 -0.20358512 0.2016851 -0.21211566 -0.4288228 -0.40280968 0.19502477 0.1448301 -0.22028501 -0.5052697 0.46231586 0.17225601 0.04006874 -0.06703592 0.08653537 -0.23778638
3 0.048260458 -0.24304129 -0.053070195 -0.38886774 0.021146152 0.04163041 -0.37288317 -0.24098805 -0.20359683 0.11138072 0.20623074 -0.017012125 -0.04472474 0.15593328 0.03308238 0.025365705 0.53501064 0.07615376 0.025135038 0.065583214 0.098289095 -0.044790722 -0.04649346 0.094897464 0.24889722 0.19794698 0.1276985 -0.09380733 -0.43233806 -0.10358226 -0.09701556 0.29727876 0.13424271 0.29949477 -0.06258018 -0.14606744 0.095299065 -0.024414774 0.072277606 -0.25489885 -0.16760561 -0.087063335 0.06279555 -0.4573461 0.56152856 -0.096564345 0.32168925 -0.2707972 -0.010854228 0.005488257 0.12725401 -0.23299342 0.19229262 -0.08844142 -0.020393057 -0.0030162344 -0.19237188 -0.20886853 0.1493339 -0.28800377 0.016172232 0.108511016 -0.13189666 -0.17152411 0.16711503 0.4313032 -0.22800496 0.40018815 0.035056427 0.44102532 0.22153634 -0.33319762 -0.014141136 -0.18912154 0.2993514 -0.4213278 -0.048830643 -0.009381873 -0.112105004 0.3533818 0.39516675 0.2992494 -0.30153206 -0.43511537 -0.08322068 -0.07276944 0.012104106 -0.23456824 0.095463686 0.011150109 -0.43340546 0.054729577 -0.014366529 -0.08471696 -0.22973618 0.13120733 -0.12985373 0.24031718 -0.04778661 -0.06779433 -0.23349582 -0.0501612 0.05287041 0.47157666 0.08169771 -0.18356664 -0.3357517 0.32779664 -0.20702839 -0.22376321 0.40018627 0.017456608 -0.031719953 -0.35515845 0.1217958 -0.51494974 -0.14106661 -0.12798864 -0.48399585 -0.12309924 0.15719154 -0.33050957 -0.0066612433 0.079854146 0.10965048 -0.19949195 -0.00071172207 -0.22766466
4 -0.072374195 -0.4146637 -0.13460049 -0.3586896 -0.040111646 -0.09288355 -0.23500809 -0.16136894 -0.37121326 0.0986748 0.20318672 -0.25040847 -0.2611277 0.039881837 -0.16371815 -0.21060781 0.6474581 0.1302086 0.13537678 0.054343507 0.13928033 -0.024606604 -0.016374122 -0.0831417 0.1313232 0.08986683 0.14262211 -0.2202598 -0.5581421 -0.10641427 -0.043715157 0.32370389 0.10913301 0.3841645 -0.35959843 -0.23214218 0.253653 -0.0016048868 -0.06342749 -0.2702306 -0.21485086 -0.07915593 -0.028871492 -0.33856916 0.8003556 0.10454833 0.2499144 -0.36839002 0.076824054 -0.23741603 0.18810102 -0.32073116 0.16722888 -0.14738856 -0.08448055 -0.11937061 -0.15592678 -0.18992268 0.19013308 -0.35403788 0.059613604 0.12947476 -0.12393049 -0.12511967 0.23062658 0.43695527 -0.3048832 0.3992389 0.15098797 0.5204657 0.036707193 -0.3038111 -0.0136518385 -0.3522825 0.3488407 -0.48717067 -0.12655245 -0.036088273 -0.39192602 0.3581591 0.39620626 0.2918954 -0.56653666 -0.5089627 -0.024931502 0.10868841 0.07333418 -0.34120935 0.19251622 -0.0015161327 -0.17320019 0.10797407 0.044567928 0.07741041 -0.26913682 0.039799556 0.071544826 0.33779123 -0.0037047025 -0.025718503 -0.28557688 -0.058538925 0.061087783 0.4256769 -0.01627911 -0.09546066 -0.18695045 0.36544 -0.24242021 -0.03276726 0.4339991 -0.1324161 -0.14522542 -0.32882622 0.17752889 -0.28198698 -0.14367108 0.018530356 -0.42264527 -0.21366073 0.14227442 -0.31462738 -0.15653335 0.10152318 0.09937532 -0.21529824 -0.2278488 -0.2407913
5 0.0027702865 -0.42543557 -0.021941785 -0.39487186 0.06916395 -0.12613189 -0.13936345 -0.23320243 -0.2837439 -0.040288553 0.002026729 -0.22478442 -0.0913935 0.04283133 -0.10188088 -0.029405778 0.805629 0.144205 -0.041124884 0.09852064 0.18820745 0.044843756 -0.009106889 -0.056774758 0.041336697 0.028336942 0.15154706 -0.077063136 -0.53831124 -0.24864699 -0.19322492 0.3122607 0.16986346 0.39926314 -0.22630368 -0.33040696 0.07437116 0.12881273 -0.038002454 -0.30178222 -0.25010866 -0.013275776 -0.022692643 -0.2751984 0.73333526 0.21677421 0.27543095 -0.5237206 0.077955596 -0.11123766 0.42684692 -0.42327046 0.027753651 0.02050515 -0.011231454 -0.08471131 -0.10036173 -0.28883168 -0.039263826 -0.28605336 0.37741917 0.1716556 0.09357085 -0.32174554 0.14690816 0.36738983 -0.25989848 0.46948352 0.07328664 0.41427052 0.19571665 -0.2580366 -0.16631992 -0.24269061 0.59082234 -0.5237483 0.042684317 -0.15898944 -0.39537102 0.56197375 0.28411102 0.28060064 -0.4942234 -0.28170183 0.035387967 0.14912918 -0.13521962 -0.37562552 0.19823392 0.008871665 -0.23027189 0.15189247 -0.02212736 -0.15498519 -0.23632093 0.09093349 -0.033121407 0.36550695 -0.09370704 -0.0127081815 -0.30881774 0.11150842 0.030854484 0.49755013 0.08301242 -0.082493275 -0.22995283 0.56970394 -0.18676263 -0.049669273 0.45586222 -0.03815612 -0.19299787 -0.3892612 0.3831011 -0.32246885 -0.21130086 -0.036853824 -0.43870422 -0.09687782 0.08499325 -0.35608318 -0.1920996 -0.0931456 0.14949562 -0.1166751 -0.060189646 -0.3232928
6 0.044775743 -0.25423408 -0.12636468 -0.2680509 0.09480132 0.0096953055 -0.3918676 -0.15178394 -0.3672531 0.18440928 0.04808182 -0.14988117 -0.027476732 0.05110785 0.05620426 0.12665729 0.6288077 0.07944969 0.00940623 -0.041220877 0.10643029 0.07853235 -0.12747683 0.09189691 0.08157923 0.039629932 0.23877633 -0.24482214 -0.41046503 0.058930535 -0.067845285 0.32181373 0.18093164 0.24633348 0.01474599 -0.097441174 -0.023533802 -0.0019373941 0.15587196 -0.30656937 -0.111012965 -0.056438226 -0.029466443 -0.68894935 0.5604883 -0.01989685 0.22775595 -0.4399993 -0.07758131 -0.039359525 0.2724163 -0.4732031 0.059896752 -0.03446587 0.06573236 -0.07668297 -0.05151644 -0.11033831 0.022703527 -0.4122768 0.23218358 0.059837636 -0.085221305 -0.19738641 0.34311134 0.2944388 -0.3765443 0.3410101 0.13955605 0.42310947 0.16967477 -0.4312783 -0.0026393286 -0.11610674 0.2953887 -0.45748276 0.039806332 0.055620845 -0.19133593 0.3443402 0.43227145 0.16995527 -0.40295675 -0.37181616 0.0071670315 -0.020103224 0.022754136 -0.24513784 0.23393646 -0.07698627 -0.39624336 -0.08310085 -0.059989076 -0.08986503 -0.20644036 0.15303619 -0.20303005 0.26826563 -0.0525656 0.0013786149 -0.106795214 0.049084745 -0.05608458 0.5129096 0.0895724 -0.17209883 -0.29270446 0.29956877 -0.3587026 -0.29475933 0.32042745 -0.02264782 0.06863367 -0.37345752 0.33050767 -0.51948035 -0.32337552 -0.22320192 -0.32389027 0.033759892 0.033044882 -0.47449714 -0.064090036 -0.004180102 0.006642144 -0.18354878 -0.12612464 -0.26225358
7 0.06941904 -0.3500077 0.09843312 -0.4110203 0.10283677 0.049443986 -0.41751358 -0.1471645 -0.27145427 0.26303536 0.13455112 0.098256774 -0.109906964 0.10763617 0.15339765 0.06459066 0.45938674 -0.09326157 0.066726424 -0.028529597 0.17002407 -0.022908162 -0.06366451 0.16218272 0.29287043 0.2804638 0.23980652 -0.060093403 -0.1836364 -0.011724215 0.009682797 0.22327618 0.068408035 0.42504525 -0.0773995 -0.16684388 0.19739178 0.029839827 0.04380232 -0.13111453 -0.04851505 -0.1780082 0.052268196 -0.3705828 0.53346103 -0.17180654 0.052383237 -0.31750712 0.0027650553 -0.29816714 0.16424325 -0.13761586 0.13946281 -0.07711675 0.11440935 -0.10776312 -0.13407782 0.028088061 0.154554 -0.29551548 -0.045414742 0.0999635 -0.023168331 -0.1703115 0.09780998 0.42084292 0.13635086 0.6011972 -0.01092634 0.5038017 0.10587955 -0.23890147 0.045216806 -0.50083417 0.18573225 -0.52186644 0.060491644 -0.13844796 -0.12366616 0.13043857 0.4550149 0.46711248 -0.16196592 -0.5161016 -0.082136445 0.09049342 0.12644325 -0.27833778 -0.31983668 0.20015514 -0.51944953 0.12596233 0.0044403155 -0.05136124 -0.18338555 0.11926522 -0.1336747 0.35043758 -0.052006193 -0.35634908 -0.19168131 -0.13285539 -0.07505938 0.6551103 -0.02923159 -0.10473071 -0.30660513 0.39345545 0.01116529 0.0674173 0.32622084 0.0119244745 -0.1543144 -0.37648213 0.22165659 -0.5475346 0.055894114 0.0011974708 -0.45283684 -0.4646386 0.24758059 -0.16235855 0.037550386 0.1698678 -0.022922922 -0.23821405 0.08119738 -0.3850393
8 0.1282875 -0.30135408 -0.2477 -0.50917983 -0.32674146 -0.19934632 -0.32549855 0.1440133 -0.087379284 0.3290954 0.14218274 -0.26204476 0.015760293 -0.24155135 -0.33425042 -0.3766318 0.46387008 0.20558731 0.27552414 0.19109267 0.14509065 0.095561 -0.10952181 -0.113302514 0.37759972 -0.048272803 0.24558982 -0.09446468 -0.61416036 -0.01111681 -0.07508877 0.60186076 -0.038290605 0.32710764 -0.41930348 -0.29005456 -0.013173297 0.0071049896 0.0025972463 -0.57076055 -0.09925229 0.09678547 -0.1020924 -0.15727665 0.9697246 0.29075044 0.10939062 -0.6346827 -0.040327337 -0.084705055 0.26079994 -0.18677539 0.17482534 -0.19022515 -0.033199836 -0.32748616 -0.3160648 -0.09123217 -0.059823196 -0.51728886 0.025603065 0.18084003 -0.28323475 0.0067436406 0.06347651 0.16375718 -0.075821 0.4488251 0.3180883 0.4732347 -0.26083744 -0.6598972 -0.23681593 -0.44742385 0.30466804 -0.43471372 0.050861925 0.20747423 -0.4327184 0.5067115 0.49229494 0.17889147 -0.56316924 -0.58610636 -0.06769937 0.2145492 -0.09392284 -0.21183845 0.04498588 -0.096888624 -0.31292146 0.25339139 -0.22870709 0.34456876 -0.51810473 -0.019464929 0.15341178 0.5267494 -0.2534361 -0.1189501 -0.2691374 0.15103433 0.11658481 0.74637413 -0.00327492 -0.2545027 -0.20542558 0.35558903 -0.4246193 0.019861326 0.4422321 -0.05205209 -0.26081723 -0.48359627 0.18206389 -0.37693065 -0.18045771 0.1957655 -0.43107352 -0.24984345 0.24084376 -0.44239983 0.045062345 0.3089341 0.18849984 -0.16465008 -0.3255974 -0.12179079
9 -0.08166161 -0.3207547 -0.03610493 -0.3102165 -0.12797567 -0.27596816 -0.3230279 -0.13208927 -0.2677074 0.2221404 0.08565931 0.027666587 0.06606694 0.1411697 0.03359797 -0.10887511 0.5372358 0.20502435 0.03662619 0.105152786 0.11902331 0.19430968 -0.16994329 -0.04754408 0.26861477 0.09286342 0.14107694 -0.10181705 -0.51115865 -0.21282628 -0.09392869 0.44476402 0.13891037 0.39906955 -0.2228245 -0.22629058 0.032667637 -0.07359095 -0.06121118 -0.2517855 -0.22012168 -0.05997342 0.04615333 -0.42070413 0.89208513 0.09976645 0.28652933 -0.37884334 -0.15266202 -0.07356278 0.32358962 -0.4791726 0.0706556 -0.20851064 -0.20672189 -0.11607823 -0.013563735 -0.23854674 0.023443418 -0.3700522 0.2419924 0.17415018 -0.21821035 -0.25184488 0.15270111 0.24289255 -0.3779221 0.41399112 0.29991448 0.51035374 0.12663107 -0.39292818 -0.035186302 -0.21704577 0.35127845 -0.51532274 0.030066743 -0.07771322 -0.20702805 0.48864704 0.48628557 0.35933003 -0.52042675 -0.46853435 -0.08571281 0.1557203 0.07969859 -0.15088324 0.24926086 -0.0143415 -0.5019902 0.10024459 -0.04435909 0.057010315 -0.2614591 0.21861538 0.01666058 0.2648088 -0.12361121 0.024369383 -0.33176532 0.048528723 -0.029571239 0.54702216 0.026355758 0.004768113 -0.20871097 0.3596791 -0.17172834 -0.07356847 0.57830364 0.0020377084 -0.19254503 -0.4322835 0.37423143 -0.5621613 -0.1814913 0.04518133 -0.41966847 -0.27657297 0.23668665 -0.5368229 -0.23500772 0.0056385444 -0.029975023 -0.067638904 -0.12936701 -0.20087029
10 -0.069127716 -0.29623136 -0.106575474 -0.23994431 -0.08790283 0.006182565 -0.11869213 0.0064100684 -0.29254442 0.37176114 0.17425157 0.05487986 0.08809569 0.14406312 0.13099512 -0.303324 0.6610472 0.31465906 0.15513782 -0.040506132 -0.025488444 0.12095539 -0.087522574 -0.31845674 0.21285516 0.16058056 -0.008768842 -0.12458425 -0.20429501 -0.13875557 0.00838141 0.38424894 -0.019700672 0.28500754 -0.12805903 -0.04145161 0.20982082 0.063034885 -0.16916308 -0.09359984 -0.21077564 0.12234778 -0.03872345 -0.54351246 0.50454324 -0.21254744 0.30534706 -0.29758275 -0.02051096 0.02512252 0.095878035 -0.24184868 0.18029472 -0.16225916 -0.13730824 -0.138093 -0.33038026 -0.24375296 0.05891403 -0.7451441 0.47351 0.21039698 -0.25550863 -0.14094605 0.57035017 0.040058356 -0.3496609 0.08406651 0.43676668 0.3449878 0.049958736 -0.63393676 -0.15620895 0.0033359034 0.057460178 -0.13117357 -0.03619812 -0.0154566355 -0.1749217 0.20208272 0.48054713 0.1864873 -0.4604293 -0.6202201 -0.021510672 0.039386496 0.07071005 -0.14948495 0.32642815 -0.06680314 -0.4048897 0.022769768 -0.073091775 0.21050303 -0.2800144 0.099403314 -0.108490944 0.15627071 0.105018035 0.18269597 0.085408285 -0.016450675 -0.1029177 0.4524829 0.15848851 -0.104446195 -0.45447326 0.23000361 -0.4690112 -0.37287775 0.52698785 -0.23748271 -0.30610424 -0.32305673 0.107207164 -0.6471279 -0.13106892 -0.31780434 -0.2983236 -0.15104082 0.12141708 -0.42168918 0.03164072 -0.15749715 0.261859 -0.15419544 -0.2167994 -0.29526496
11 -0.09999141 -0.58373076 0.077745594 -0.26214293 -0.017169584 0.0057427413 -0.37507617 -0.112274304 -0.5920115 0.2900856 0.19266394 -0.15415496 -0.2503325 0.08789805 0.0026487072 0.04761378 0.5817838 0.02016713 0.14098398 0.05477211 0.32643035 0.20449018 -0.039790213 -0.033857774 0.33522338 -0.07126584 0.23969902 -0.08652282 -0.48849204 -0.07345785 0.061387453 0.43261972 0.059919644 0.48415384 -0.14269583 -0.057122454 0.24144161 0.072009064 -0.02812103 -0.17764974 -0.051579855 -0.07271819 -0.18644604 -0.6606805 0.79095644 -0.01922824 0.15121965 -0.49204868 0.053188812 -0.21195512 0.29089332 -0.43391034 0.15832493 -0.03901332 0.16354527 -0.09690596 -0.16847137 -0.05261537 -0.010867151 -0.45961392 -0.096613 0.28803974 -0.1677675 -0.17630798 0.2962299 0.31024566 -0.33430883 0.5139934 0.18441458 0.5437606 -0.11739556 -0.523926 0.06980702 -0.2976913 0.40508154 -0.6044893 -0.00408725 0.08066396 -0.35008258 0.50581676 0.5607007 0.32015643 -0.58206844 -0.76294506 -0.1606931 0.16644792 0.07197623 -0.39283037 0.1897834 0.123522505 -0.5096583 -0.019578516 -0.17701475 0.07363848 -0.24138057 0.2502578 0.11109791 0.30274642 -0.13077025 -0.067561164 0.06618821 -0.059921294 -0.17544314 0.67730683 -0.19375241 0.011873125 -0.33832234 0.5341378 -0.3059998 -0.050049633 0.32089645 -0.13459465 -0.20014505 -0.34065425 0.2520217 -0.50316787 -0.10968262 0.16318403 -0.2976509 -0.38089797 0.022315336 -0.37285402 0.005490563 0.4037329 0.07262164 -0.1539718 -0.30797106 -0.21881105
12 -0.22891855 -0.33878082 -0.26912972 -0.50203204 0.24889116 -0.1615612 -0.37365407 -0.38364893 -0.079662755 0.01806038 -0.07042765 0.051380783 -0.4533016 -0.028475525 0.054459114 -0.42324466 1.0056981 0.17287369 0.00084004726 -0.23147795 0.38952526 0.13648963 -0.03679771 -0.054577883 0.50247383 0.15464458 0.12359454 0.12128681 -0.7478692 -0.56467295 -0.10932398 0.32838163 0.22187863 0.03546866 -0.35419667 -0.19468303 0.09993275 -0.27303398 0.052761793 -0.036365636 -0.36917686 -0.21699847 -0.04600249 -0.5836307 0.9412788 0.2664495 0.5024395 -0.6389477 -0.2328117 -0.48967373 0.2557727 -0.5524548 -0.042974904 0.0460067 -0.017435506 0.064930014 -0.19662018 -0.112931125 0.094509944 -0.32029226 0.27157012 0.07488913 -0.1360256 -0.1805525 0.37319267 0.40937164 -0.33088428 0.44823465 -0.09120805 0.2916247 0.08447242 -0.24592897 0.11310443 -0.33342078 0.2198764 -0.38916898 0.21635465 -0.347595 -0.29766196 0.49399042 0.35604504 0.7495056 -0.2975097 -0.5360939 0.057117913 0.30452555 0.47345906 -0.45202497 -0.2518938 -0.039998487 -0.5965109 -0.0897257 0.22290167 -0.32847694 0.07369393 -0.051759396 -0.15966555 0.32214752 -0.09463456 -0.17989247 -0.3484639 -0.1586531 -0.03794636 0.6203079 0.15068348 -0.08888041 -0.3166498 0.59812135 -0.15975636 -0.12467517 0.4580498 -0.25681755 -0.2652154 -0.52550524 0.5202206 -0.52398103 -0.17616124 -0.20219414 -0.32988557 -0.17852749 0.43124852 -0.63184476 -0.5282414 -0.07113044 0.020472063 -0.22291106 -0.2331747 -0.36768723
14 0.16943783 -0.13416074 0.048692957 -0.48475093 -0.21178293 0.110594384 -0.52729607 -0.17733848 -0.20459814 0.032910857 0.23477422 -0.021357061 0.073570035 0.055716366 0.06006267 0.06215331 0.5072229 -0.13232313 0.022164587 0.068755835 -0.10104786 -0.08904403 -0.0035601463 -0.040954307 0.22095363 0.28191245 0.024016391 -0.17991284 -0.2301521 0.1960395 -0.15217902 0.21778457 -0.04223462 0.43108132 0.04094654 -0.22026277 0.1629105 0.16182186 0.012047723 -0.0023352164 -0.15081257 0.10163325 0.08747877 -0.47173306 0.2366912 -0.28241107 0.34771672 -0.43310425 0.14241247 -0.1746034 0.10758079 0.04910291 0.18288022 -0.15992774 -0.09958108 -0.038672432 -0.074213706 -0.33472705 0.27734414 -0.46003515 -0.17214297 0.113427915 -0.070466325 -0.23958068 0.2177327 0.45254424 -0.05136932 0.21822949 0.3438415 0.41454875 0.35574204 -0.273117 0.0057965685 -0.2350391 0.26696476 -0.49197868 -0.117952615 -0.12195852 -0.047335766 0.12313694 0.7135781 0.375371 -0.33597806 -0.5300657 0.041143518 -0.06509803 0.088421136 -0.008664257 0.29858962 -0.1854075 -0.7262795 0.098442726 -0.11933851 0.15634131 -0.23027995 -0.0030059991 -0.38876408 0.33740535 -0.03293214 -0.16117509 -0.11079003 -0.013789913 -0.19529712 0.5888436 -0.0260683 -0.095575884 -0.21119986 0.1172374 -0.3450053 -0.112538695 0.3014463 0.17944224 0.0083877165 -0.40614116 -0.21197954 -0.81165254 -0.18444474 -0.13887213 -0.4563351 0.050008453 0.14817216 -0.26623827 0.05571664 0.050231915 0.09062068 -0.5901298 -0.06680489 -0.10824273
15 0.0033789568 -0.44140738 0.1722749 -0.48066774 -0.03182161 -0.31107157 -0.28986064 -0.19899528 -0.25125355 -0.12305149 0.114962436 0.16428603 -0.07105263 0.049080845 -0.010221762 -0.34531632 0.6335359 0.15439793 0.14556809 0.0075164577 0.11647336 0.043175668 -0.19244088 -0.10237028 0.22057226 0.24612428 0.12373867 -0.25291765 -0.5323139 -0.29893923 -0.2515625 0.05591958 0.03334875 0.24059089 0.03313005 -0.22072199 0.4695542 -0.015714671 -0.18575253 -0.08288879 -0.43166173 -0.051567845 -0.08910514 -0.44191873 0.71144414 -0.08444543 0.23981711 -0.4473017 0.007073085 -0.2658875 0.1363192 -0.37035292 -0.07820313 -0.09169035 -0.020868119 -0.003728188 -0.41087398 -0.2627138 0.37797356 -0.21382877 -0.22068992 0.29628977 -0.11082715 -0.1403931 0.2735509 0.45694354 -0.39779592 0.5968181 0.2427074 0.691166 0.03944981 -0.42988136 0.087516405 -0.21957307 0.39189658 -0.6525041 -0.4228278 0.055634927 -0.10865889 0.22589514 0.63914233 0.7102851 -0.3134773 -0.21335855 -0.10419516 0.09361516 0.29523683 -0.1377608 -0.1503339 0.1516489 -0.58078176 -0.010838227 -0.029335804 0.14109568 -0.2687867 0.120412655 -0.1310097 0.10198165 -0.35928902 -0.07331225 -0.32822976 -0.1940534 0.056996725 0.6277435 -0.08301662 -0.30737975 -0.24539864 0.45297793 0.0065855314 -0.25845703 0.5140753 0.23523213 -0.1368755 -0.4256034 -0.028548408 -0.6173913 -0.011255819 0.0132768145 -0.45363453 -0.44393212 0.34666544 -0.6062779 -0.12838991 0.07873694 0.14047666 -0.52310604 0.16877791 -0.14556392
17 -0.7176572 -0.3557293 -0.4435739 -0.44655725 -0.29653117 0.24880962 -0.7648012 -0.26662078 -0.6317723 0.12388813 0.31363022 -0.08909668 -0.3029239 -0.008613257 -0.17987995 -0.13850395 1.1205194 0.3651348 -0.07176052 0.013758755 0.37980145 0.35738832 -0.63970983 0.10970799 0.06848094 0.2889004 0.0877005 -0.6636425 -0.94339734 -0.23582037 0.32342827 0.7128196 0.26672974 0.6133783 -0.27454686 -0.44815245 0.35881945 -0.3731667 -0.2005599 -0.8316182 -0.44821525 -0.32894668 0.08602142 -0.6910747 1.274409 0.124880716 0.25704208 -0.39866343 -0.19793092 -0.4763604 0.31980935 -0.88676775 0.14623728 -0.7493513 -0.56996024 0.33646828 0.0458646 -0.24319144 0.26407948 -0.34390807 -0.04705922 0.524622 -0.29590786 -0.3697563 0.70208627 0.44116238 -0.48854965 0.5006388 0.38258782 0.84128356 0.0008421076 -0.27730995 0.37783563 -0.5302281 0.5008166 -0.99375504 -0.061394155 -0.20870773 -0.40203443 0.6200448 0.7565062 0.4224253 -1.2832186 -0.9550715 0.04854114 0.36321175 0.016130585 -0.6829653 0.32470602 0.06576625 -0.6007508 0.04822534 -0.1192893 0.013464805 -0.12907313 0.16024612 -0.11096795 0.45840836 0.47994408 0.05665847 -0.7513717 -0.2769711 -0.19425572 0.4288813 -0.027556926 0.2855508 0.0075921635 0.5136384 -0.66608286 0.10400596 0.7398459 -0.20360276 -0.2919319 -0.5329685 0.26948133 -0.7862875 -0.17484866 0.3937095 -0.5721659 -0.53758466 0.24807394 -0.97286683 -0.28165743 0.0515873 -0.008997059 -0.385415 -0.13414274 -0.6721735
170 0.017997328 -0.16033648 -0.5577805 -0.42760035 -0.07282618 0.3054067 -0.047881987 0.40777302 -0.25469026 0.11009623 0.04063521 -0.21778566 -0.044906504 0.2567953 -0.5399819 0.8992811 0.06615011 0.31856513 0.27555883 -0.21264142 -0.07925521 0.33030993 -0.45366544 0.103460394 -0.20618868 0.8797801 -0.20187372 -0.08362388 -0.22689153 0.34515524 0.03745038 0.23627082 -0.036215894 -0.037066504 -0.3393945 0.44040734 -0.08370807 -0.0007303752 0.18380739 -0.023007566 -0.1551574 0.23536806 0.053789135 -0.43372202 0.17391178 -0.51651204 0.31256205 0.2673865 -0.2518608 -0.70208025 -0.11658764 0.13970551 -0.20309997 -0.092665024 -0.43415046 0.11578216 0.16471812 -0.22622754 0.0175519 -0.38301533 -0.41388687 0.03710717 0.34662792 0.6468178 0.45082694 0.038054157 -0.38071358 0.10241379 -0.18365803 0.31326327 0.3594619 -0.056904685 0.42566836 0.07323334 0.038961537 -0.46957284 0.22250335 0.022997886 0.33443463 -0.5417007 -0.050834995 0.14415564 -0.20017074 -0.27620444 0.115534395 -0.1381357 0.104420505 -0.1184975 0.28825974 -0.3268195 -0.3439546 -0.35271943 0.28167906 0.58147657 -0.27718133 0.54411155 -0.40694746 0.3960898 0.1392595 0.01690576 0.26196143 0.09740774 -0.41900733 0.023597248 -0.03359028 -0.4568458 0.121341884 0.40076876 -0.3373116 -0.17955674 0.30236295 0.0013513054 0.14032471 0.21175726 -0.023480184 0.49549127 -0.21295844 -0.3864497 -0.41185048 0.0048898375 0.09879075 0.11281869 0.49789107 -0.5273941 0.28682116 0.0830679 -0.2635869 -0.3187687
209 0.016385362 0.3011832 -0.5977539 -0.6012562 -0.34337 0.5960816 -0.34470883 0.080222376 -0.1447514 0.12222283 0.5330326 -0.31954306 0.03163025 0.28345996 -0.6376948 0.55881363 0.0004998562 -0.035107166 0.14790909 0.074013695 0.1189276 -0.09246697 -0.37368792 0.024995934 0.21676973 0.89509237 -0.14487304 -0.13092041 -0.57863975 0.22878024 -0.15301092 0.3164086 0.008094688 -0.11501171 -0.23495685 0.20666319 0.22400618 0.26123324 0.05185659 0.09771528 -0.29756653 0.07540412 -0.09486098 -0.31789243 0.39360392 -0.2837767 0.3502065 0.060249634 -0.23680258 -0.5523944 -0.30522135 0.2247263 0.19231355 0.038134187 -0.463644 0.27559778 0.1557523 -0.20812273 0.2163376 -0.16540557 -0.42638078 0.15611306 0.20326567 0.21500292 -0.17014517 0.5767359 -0.16079426 0.31572342 -0.15395395 0.48836887 0.109162435 -0.0711912 0.36603445 0.06180071 0.24061568 -0.23547378 0.07001292 -0.17657581 0.5376263 -0.2500388 0.083161555 0.030314699 0.11139997 -0.62326926 0.14418663 -0.15370327 0.043745957 -0.3596499 0.15612891 -0.26251775 -0.8854402 -0.22966893 0.08034808 0.23583312 -0.2573493 0.16172238 -0.36471745 0.43104342 0.2540644 -0.19551243 -0.23856515 0.05340866 -0.24055487 0.099537164 0.07031703 -0.026578454 -0.12390638 0.3416268 -0.7789135 -0.44536737 0.4264577 -0.15136147 -0.16888928 -0.024566656 -0.3265756 -0.25083452 0.04355903 0.0028035408 -0.44747925 -0.23278557 0.2694261 -0.14954314 0.48025423 0.0832772 0.66755134 -0.39095798 0.26716232 -0.35534412
45 -0.019322447 0.16808052 -0.1325242 -0.21994966 0.075392224 0.43739974 -0.09293628 -0.30984885 -0.40834504 0.164011 0.45794263 0.2673733 -0.04635608 -0.15189831 0.013588406 0.060944173 0.6787747 0.04682143 -0.21287052 -0.2872414 0.031489413 0.06496954 -0.06193335 0.08655421 -0.20890339 0.21135476 -0.096291624 -0.21330872 -0.1895554 0.057159938 0.03855629 0.13812283 0.28393245 0.54574203 0.15155591 0.55793476 0.55523574 0.052474998 -0.056762137 -0.14969984 -0.18988991 0.33151573 -0.12731872 -0.67985976 0.17178886 -0.5340238 0.55818635 -0.083177894 -0.09743791 0.21525842 -0.15473938 -0.39017105 0.541797 -0.17564397 -0.31476575 -0.16988513 -0.1905134 -0.38754582 0.035288133 -0.79041237 -0.13402149 0.58655286 0.2043311 0.18568549 0.5299112 -0.14360589 -0.41269815 0.08340903 0.2979534 0.2214867 0.11357209 -0.6139456 -0.16283104 0.15605168 0.19986622 -0.14144726 -0.08030943 0.1755138 -0.17807896 -0.039518647 0.42031989 -0.056790568 -0.53301656 -0.42167518 0.14099395 -0.38418475 -0.1719289 -0.3181848 0.5833761 -0.15077038 -0.32603046 -0.48542494 -0.21462514 -0.017864797 -0.34931177 0.1002298 -0.44882098 0.2826438 0.1495998 0.30265993 0.1232156 0.09984783 0.038133405 0.090253755 -0.014837054 -0.26894313 -0.14598703 0.22138762 -0.7453151 -0.74755377 0.4726506 0.0956901 0.26626208 -0.043036185 -0.3843745 -0.7533757 -0.13657832 -0.23367946 -0.22807346 0.2202333 -0.051007055 0.13604657 0.049137738 -0.042172235 0.557204 -0.2001081 -0.3219036 -0.04123977
100 0.36017242 -0.31091207 0.408792 -0.48833865 -0.050731447 0.49128678 -0.34095904 -0.4006086 -0.18956307 0.12734081 -0.16505155 0.1287127 -0.40141016 0.4354658 -0.091184616 0.73943293 0.038570784 0.05751281 -0.3769224 -0.23247804 -0.055195455 -0.06777238 -0.018768655 0.11301844 0.14014833 0.4539452 -0.20957582 0.10374507 -0.036704686 0.61313015 -0.4074305 -0.5807666 -0.15862006 -0.12514363 -0.34328946 0.02405014 -0.0861793 0.10676332 0.05837511 0.035824496 0.089393154 -0.11664781 -0.05041668 -0.2418466 0.2956399 -0.5263279 0.04902014 -0.01503014 -0.2041884 -0.5413064 0.1455182 0.08086834 0.23470013 0.030366011 -0.1786885 0.31661704 0.5414411 0.016429886 -0.018986542 0.16345486 -0.4683201 -0.027952777 0.6223959 0.20336132 -0.4324146 -0.038708646 0.16314963 0.44790342 -0.38051647 0.8107812 0.7257247 0.3056983 0.7227144 -0.35046434 0.49986294 -0.51640254 0.05602043 -0.011654413 0.3817527 -0.06093077 -0.11110023 0.20767342 0.010663258 -0.13847935 0.22359139 -0.2592627 -0.3491897 0.2945921 -0.28650525 0.1545798 -0.41513953 -0.096900724 0.18753764 0.4433994 -0.29923907 0.60683894 0.102495946 0.1318667 0.6300376 -0.51684225 -0.29897586 -0.04640394 -0.3368713 0.45659268 0.23749581 0.055118296 0.24860571 -0.08545522 0.3981404 0.5007855 0.20092942 -0.21340486 -0.18042403 -0.3018004 0.22934826 -0.20623226 -0.19209799 0.07040985 -0.31591988 0.080338955 0.008137003 0.21783268 0.70337284 0.18141022 0.006736124 -0.120560795 0.23745564 -0.60594326
42 -0.3251171 0.15904623 -0.43071574 -0.44382128 0.08184875 0.28125322 -0.20387612 -0.07634091 -0.06723246 0.41448843 0.039120227 -0.13095951 0.02422905 0.5193046 -0.27085507 0.2116356 0.1890507 0.069297574 0.31822613 -0.09013794 -0.077078074 0.25384524 -0.25286484 0.05555781 -0.0952538 0.19343844 -0.3530912 0.041296363 -0.28159535 -0.014171802 -0.09964359 -0.23781152 0.278474 0.3706662 -0.3028285 -0.2419915 -0.22290441 -0.13143262 0.1314957 -0.42035463 -0.22903642 -0.39535964 -0.11901632 -0.09036611 0.165316 -0.35175714 0.16372612 0.24485575 -0.16053045 -0.11973541 0.038687877 -0.34777093 -0.18003668 -0.24390179 -0.4706923 0.36535892 -0.023960676 -0.19127709 -0.104338154 -0.10637723 -0.12934352 -0.06819761 0.120107956 0.02222664 -0.11059286 0.21522987 0.25768387 0.45502886 -0.12048881 0.21143293 0.14694986 0.12600343 0.3271683 -0.43166846 0.40371072 -0.615095 -0.19162573 -0.024827318 0.25003183 0.032271765 -0.12599027 0.30045113 -0.39826703 -0.601519 -0.15675615 -0.29866815 -0.44058093 -0.1908436 -0.05427938 -0.20515814 -0.70269084 -0.17953223 -0.09522285 0.21854396 -0.30135417 0.3736475 0.21172464 0.01925549 0.22276647 -0.45066604 -0.31660876 -0.07192894 0.09918436 0.1022556 0.30655447 -0.28066644 0.022127705 0.44553366 -0.27027678 0.14776866 -0.18399987 -0.3213887 -0.059053622 0.5085276 -0.08784372 -0.55335104 -0.25229675 0.110603034 -0.47800398 0.04829001 0.29376563 0.08286567 0.29423606 0.13778938 -0.16224138 -0.19607864 0.3525928 -0.34636086
13 0.12144768 -0.51001483 -0.090897754 -0.530358 0.03488246 -0.3180522 -0.32039663 -0.16806772 -0.24626167 0.21184884 0.22332653 0.009729037 -0.0155353155 0.011463228 -0.15426156 -0.008546931 0.48856637 0.11924414 -0.10535715 0.36846814 -0.1522943 0.0062775505 0.15411255 -0.08393611 0.45211145 0.26213846 0.1723882 0.06962601 -0.44306016 0.057162914 -0.22442083 0.33695978 0.01346806 0.36616126 -0.25545743 -0.20792994 -0.14230445 0.007835597 0.018124789 -0.25649935 -0.44318503 0.096118495 0.034615852 -0.62523943 1.0054549 0.0062072426 0.38499355 -0.70207506 -0.2581431 -0.33774617 0.5453896 -0.4352663 0.28052408 -0.015432897 -0.14975056 -0.046903733 -0.13072613 -0.23373955 -0.012959029 -0.4079004 0.2512355 0.24256581 -0.2983097 -0.32832527 0.024313157 0.2518338 -0.19701236 0.54508173 0.24139014 0.6807786 0.16596852 -0.48808545 0.13571286 -0.24243666 0.44528267 -0.43225992 0.03862094 0.051401276 -0.4120194 0.27730662 0.52804136 0.34256214 -0.33974528 -0.4365714 -0.036808264 0.1285047 -0.06655835 -0.22051693 0.26067257 -0.012832243 -0.41871545 0.027516576 0.052061815 0.051512647 -0.41219 0.26594472 -0.025404014 0.25943443 0.026848767 0.08337578 -0.17239839 0.040651422 -0.050258934 0.57823586 0.1542596 -0.10680937 -0.19993752 0.28892034 -0.062756434 -0.04284345 0.7162771 -0.05712031 -0.24705164 -0.44804025 0.36919692 -0.6531207 -0.20155294 0.09529338 -0.6516158 -0.14825964 0.22633299 -0.4402677 -0.22898607 0.093177564 0.06394624 -0.246877 -0.11383615 -0.266236
16 -0.42080855 -0.6073747 -0.58445877 -0.40047807 0.03217436 -0.38807255 0.100202076 -0.20339625 -0.2780288 0.19618753 -0.064997055 -0.36296743 -0.03531771 0.14530796 -0.075033866 -0.48937836 0.70439464 0.24259976 0.16778322 -0.23781969 0.14461894 0.12629852 -0.024887346 -0.101846874 -0.04606657 0.06879439 0.05534566 -0.40588507 -0.56256104 -0.76930064 -0.0152777545 0.5741901 0.29532933 0.6895231 -0.43376127 -0.46380448 -0.04665045 -0.1966853 -0.33338252 -0.26953566 -0.2553722 -0.23382513 0.17316133 -0.37038103 1.2961261 0.25201803 0.30518055 -0.63854367 -0.50447536 -0.37520066 0.54911476 -0.779399 -0.036373764 0.041673645 0.000608078 -0.5764132 0.08657408 -0.26837984 0.25946093 -0.4674198 0.21605214 0.26848888 -0.26332217 -0.44180077 0.6756313 0.78663826 -0.52067196 0.5835037 0.11561954 0.72693926 -0.13579445 -0.32744816 -0.04931895 -0.85816705 0.86266565 -0.53777385 0.18701732 -0.15761419 -0.26420578 0.55386657 0.5942449 0.14060955 -0.62048185 -0.8846363 -0.3276791 0.40396675 0.29763582 -0.31295902 0.13736784 -0.5451734 -0.39734423 0.32089227 0.23004366 0.16972461 -0.3230391 0.51789457 0.14766681 0.65193486 -0.13893624 0.22861548 -0.76714873 -0.37044078 0.09290315 0.8799571 0.049991217 -0.10078526 -0.12653936 0.45169762 -0.542499 -0.27402148 0.75132567 -0.21230741 -0.31457907 -0.45136058 0.116764866 -0.30126166 -0.37321427 0.29080313 -0.75581205 -0.57436645 0.44782934 -0.5580014 -0.67746955 -0.090132505 -0.29438305 -0.32676947 -0.25101256 -0.28782132
200 -0.004587485 -0.40723455 -0.34431785 -0.42803577 -0.44280225 -0.059451673 0.22026931 0.1257751 -0.9073529 -0.32281265 0.5048247 -0.28104314 -0.47894478 0.2895416 -0.4812138 0.18226473 -0.19223335 0.08096585 -0.76685625 0.40784213 -0.06439599 -0.014191671 0.027912186 0.12765716 -0.20095156 0.8788843 -0.18785185 -0.52025175 -0.0016020348 -0.08571096 0.16816014 0.27454457 -0.4956381 0.5989637 -0.3924173 0.22209081 0.65833086 0.12336933 -0.4137593 -0.140318 -0.29526177 0.35139918 0.24099089 0.426627 0.3579705 0.11624459 0.07619929 -0.051665593 0.45880917 -0.19636041 -0.33642873 -0.42978367 0.34871975 -0.122648336 -0.46704337 -0.25866392 -0.02252535 -0.24877125 0.23303424 -0.3481558 0.18759927 -0.050848134 0.44742814 -0.2692492 -0.5792436 0.15020843 0.004228513 0.6207057 0.108516715 0.8181946 -0.11502429 0.47385406 -0.40483674 0.016610697 0.6629702 -0.1580457 -0.10482807 -0.28978354 0.04026233 -0.15125997 -0.0040517165 -0.5575602 -0.45657313 -0.2140391 0.10234515 0.44995186 -0.21297903 -0.39469713 0.3855097 -0.2799483 0.63436633 0.03947912 0.33929372 0.15378216 -0.67428595 -0.100326665 -0.39175004 0.22605336 0.2871162 0.5393329 -1.1255152 -0.06377084 0.16486293 -0.21746781 0.09366869 -0.39600083 0.650469 -0.09360231 0.0163998 0.36334512 1.105142 0.22143078 0.23744036 0.34261647 0.06722147 0.73686683 -0.09300196 0.3386764 -0.5936545 -0.23392454 0.1763855 0.20474757 0.24690473 -0.54699785 0.5235354 -0.15956202 0.14324205 -0.9595149
204 -0.31643963 -0.2462654 0.36519068 0.021352122 0.07366366 -0.23608676 0.25226387 -0.1764362 -0.12368808 -0.24734874 -0.7287576 -0.24118948 -0.8100019 0.32594982 -0.2888387 -0.12452114 0.5467848 0.34731966 -0.77392393 0.20518665 0.3265781 -0.11220767 0.23789218 -0.41422403 -0.600989 -0.43916088 -0.59241104 0.16048121 -0.23307994 -0.684223 -0.077581376 -0.40857404 0.005499361 -0.11482221 -0.35833135 0.061577767 -0.40858257 0.0104181245 0.23624134 0.21626902 -0.30414805 0.3550679 0.46978816 -0.14346719 0.3864615 0.63403887 0.654711 -0.53867453 0.26711148 -0.27322814 0.360461 -1.0167993 0.16844909 0.53327477 -0.22291103 0.061807413 -0.020087194 0.011619594 -0.23921311 -0.12018835 0.31606555 0.053076666 0.06246434 0.19358818 -0.35665587 0.27222994 -0.19571705 0.20881233 -0.10861321 0.38179094 0.19718274 0.2021004 -0.2817215 0.08215201 0.8578761 -0.20480198 -0.3089948 0.12576582 -0.2916454 0.42132375 -0.20397778 -0.41889182 -0.43549776 -0.319301 -0.029565424 0.17443468 -0.57784235 -0.9045369 0.46137547 -0.0884675 0.35867473 -0.095728256 -0.03358946 -0.030242104 -0.4246381 0.6303374 0.17765912 -0.11171989 0.3138325 0.17846318 -0.18122905 0.15295474 0.08275787 -0.25792503 0.5358186 0.11660918 0.5597986 0.07920072 0.4630858 0.33288282 -0.12640625 0.073255986 -0.2722142 0.37151504 0.65012044 0.16320376 -0.40652 0.409084 0.11038276 0.7107469 -0.44385 -0.12201132 -0.26020166 -0.7087377 -0.060104676 0.24791539 0.22058538 -0.3826645
197 -0.40373147 -0.54430574 -0.34096345 -0.0937916 -0.12613569 -0.0623287 -0.44112125 0.63223356 -0.40313166 -0.31873244 -0.22059496 -0.057887398 -0.5470757 -0.04636341 -0.03501794 0.17776148 0.1438965 0.54051805 -0.69143313 -0.31191087 0.51916724 0.7683324 -0.65024495 -0.4906016 -0.25430048 -0.037341084 -0.3508413 -0.3916912 0.756075 -0.6188439 0.29674548 0.20115018 0.123977795 0.3006745 0.16671103 0.31416795 0.76432276 0.05856659 -0.32998204 -0.09174028 0.2892206 0.35124725 -0.1596797 -0.023058346 -0.02840055 -0.28019813 -0.1887385 -0.32107678 0.062475912 0.044982005 0.28050405 -0.69008785 -0.5490214 -0.13932483 0.12984064 -0.012870206 0.0047601834 0.5188432 -0.097788006 -0.57998896 0.71973443 -0.15233436 0.5956842 -0.04317625 0.721312 -0.49544674 -0.51459146 0.036328882 0.17769341 0.5345212 0.28925312 -0.41670603 0.043612275 0.1202608 0.7624079 -0.17360404 -0.19521 0.054083 0.14547834 0.1032602 -0.018797908 0.22675607 -0.33004034 -0.2675757 -0.09132727 0.51157707 -0.1688125 -0.31998464 0.52493215 -0.30651784 0.10449643 0.102913305 -0.34961188 -0.15757513 0.37742302 -0.5500627 -0.6148846 -0.45511281 -0.2929222 0.22563298 -0.0864009 0.6429936 -0.25104415 0.8319901 0.31497362 -0.5986412 0.04404055 0.34047407 -0.15289488 -0.10678596 -0.27735412 -0.6847235 0.24983558 0.093736954 0.22756673 -0.5953223 -0.70721006 -0.017028842 0.5531976 -0.023213217 -0.054952007 -0.79954547 0.7657433 -0.6484288 0.42153603 -0.07123117 0.19552484 -0.72553504
196 -0.45687842 -0.26292408 0.021130167 -0.37374943 0.20504257 0.052264262 -0.13355064 -0.4076863 0.34155163 0.34757122 -0.32499695 0.7002879 -0.6702133 0.29241097 -0.32942224 0.17048739 -0.48790827 0.1663702 -0.28943837 0.15644838 0.06727876 0.47263432 0.4211061 0.60360813 0.18234791 -0.20984107 -0.47457138 0.31803697 0.85647565 -0.11936488 0.01853204 -0.2136471 -0.73998064 -0.72317314 -0.52709365 0.46502247 -0.088775486 -0.18911776 -0.1702199 -0.076345794 -0.057040088 0.09614311 0.10842136 -0.24560814 0.5852719 0.015751636 0.38903856 -0.7598461 -0.022772048 0.26924637 0.06919907 -0.39138073 -0.38521397 0.31140378 -0.09677047 -0.33533582 0.31237456 0.24641493 -0.53722477 -0.6161921 -0.35048628 -0.013899625 -0.35521558 -0.02366695 0.050677236 -0.50340015 0.47456303 0.7294248 -0.45654634 0.11870254 -0.008851313 0.06415495 0.34535462 -0.40308025 0.26550934 0.036687255 -0.27209014 0.6071794 0.3492354 0.011866672 -0.39346474 -0.06698029 -0.6128102 -0.9358347 0.12003956 -0.09403016 0.49662164 0.49493647 0.101164915 -0.40857008 -0.40944389 -0.11311136 -0.12471593 0.19172108 -0.2741382 0.39511892 0.3391606 -0.1303036 -0.19922651 -0.051493473 -0.63036966 -0.63434 0.32260427 0.34240314 0.47392035 -0.34152633 0.028033927 -0.05339389 0.16014232 0.22516572 0.012603578 -0.009854669 0.26805037 0.09959528 -0.13500074 -0.07130035 -0.4835732 0.67156124 -0.38590184 0.17386262 -0.051696327 0.022817763 0.6814542 0.4503729 -0.05760575 -0.046655975 0.18618417 -0.7200397
203 -0.096720695 0.37322313 -0.49661863 -0.39282143 -0.61521024 -0.08750624 -0.42641866 0.65775394 0.9410738 -0.077159256 -0.22617613 -0.027950615 -0.24484615 -0.44631752 -0.22372977 -0.728395 0.19429691 0.07358404 -0.27447963 0.48142976 0.028125698 -0.22563225 0.17780901 0.15911733 0.28835237 -0.3378329 -0.30596453 0.13430472 -0.23386614 -0.0470822 0.3852158 0.57879585 -0.24516924 -0.19546482 -0.19691467 -0.31011504 -0.15314174 -0.5929997 0.12311471 -0.6500246 -0.15123278 0.20427449 0.6814634 0.4897969 0.43898606 0.13394922 0.577595 -0.48611727 -0.0033681858 0.06857504 -0.11279745 0.13598008 0.72465557 -0.31978032 -0.37077653 -0.25681776 -0.33151728 0.3516829 0.28981954 -0.27359194 -0.5479728 0.031933766 -0.4065929 0.18757886 -0.05904408 0.6156215 0.16878869 0.2623303 -0.31709513 0.5734883 0.17453806 -0.48032984 -0.40409508 -0.9002617 0.50922936 -0.379061 0.08561829 0.5391367 0.36218596 -0.05285701 0.056674838 -0.48218298 -0.45118022 -0.4309543 -0.3975647 -0.05555971 -0.212516 -0.63981575 -0.1089947 -0.7473782 0.39298022 0.21376179 -0.40371317 0.64493734 -0.44522178 -0.59993696 -0.1278995 0.358419 0.41273776 -0.18624902 -0.90832853 -0.28095698 0.6899934 0.46673927 0.4818667 -0.8217102 0.24233465 -0.35237557 -0.30189916 0.55926543 -0.4520781 0.23388064 0.53503597 -0.0058251643 0.108148046 -0.051849455 -0.2621173 0.50514096 -0.33365664 0.10514855 0.39607707 -0.34615296 0.1398306 -0.22199267 0.5834694 -0.5173201 -0.089877754 -0.010357506
195 0.35511845 -0.08671116 -0.050862264 0.21499732 -0.42814007 0.6197292 -0.3228499 0.12686597 0.16097394 -0.41167668 -0.30777514 -0.23506454 -0.34182706 0.35231036 -0.21474656 0.0037679328 0.0980596 0.15041646 -0.49683848 0.018777315 0.8605558 0.2915605 -0.2768456 0.32645142 -0.6479172 0.036612894 -0.54190403 -0.7215117 0.16846155 -0.12792587 0.8669787 0.64592886 0.2069346 0.16844894 -0.30322236 -0.20436911 -0.28845462 -0.3592318 0.20979902 0.28710476 -0.18992573 -0.024006745 0.2524306 0.21280299 -0.17737515 0.4923845 0.13327374 0.34029374 0.6145817 0.08709916 0.02340792 0.010502712 -0.00363724 -0.09155005 -0.563056 0.19993596 0.24305229 0.5408969 -0.5977205 0.31034675 0.14052948 0.08196906 0.15033619 0.24348319 0.034051724 -0.08495637 0.22851938 -0.27153376 0.25682732 0.06296442 0.35832173 0.22672541 0.207761 -0.44657055 0.6127043 0.09386126 0.22992404 -0.71980995 0.24783282 0.15579984 0.42183667 -0.11266375 -0.32246453 -0.10941394 -0.064787604 0.59052664 -0.18451782 -0.19899663 -0.02517675 -0.5693349 0.029159524 0.53861123 0.027362887 0.18777126 0.39048237 0.22201926 -0.35992935 -0.05502811 0.42361942 0.60742235 -0.7014808 -0.15221024 -0.14485338 0.39473075 0.70986694 -0.031524844 0.5698092 -0.21348476 -0.30837882 0.06287934 0.90687484 -0.076871134 0.26828837 -0.38150942 0.14940731 -0.09118919 -0.47664496 0.2631504 0.5967068 0.21264055 0.61105615 -0.08078349 0.24437168 -0.54363286 0.055743866 -0.061908543 -0.017698832 -0.38040116
207 -0.505894 0.13816065 0.0138911875 0.49544775 -0.5610413 0.18732849 0.52636576 0.19242898 -0.018779656 0.32563633 -0.17358029 -0.075892486 -0.4541266 0.36307073 -0.3261572 -0.9854906 0.22460021 0.44631684 -0.03465957 -0.32792214 0.5746047 0.39801562 -0.06336346 -0.5986878 -0.12718385 -0.2443073 -0.21622989 -0.2228111 0.19654052 -0.7502507 0.42330423 0.21757194 0.21147911 -0.103431694 -0.5349467 0.39027044 0.3563204 0.17484292 -0.116193525 0.49065974 -0.30717522 0.47464082 -0.04939335 0.7025119 0.10076687 0.15085858 0.35978544 -0.08104185 -0.009869312 0.21377924 -0.154243 -0.464969 0.18720719 -0.3325739 -0.40207145 0.13895305 -0.3239027 -0.5710376 -0.01958538 -0.36080208 -0.021666437 0.33317584 -0.07902429 0.22595045 0.42692184 -0.16863014 -0.35401598 -0.38798863 0.45440692 -0.29861835 -0.26344725 -0.3258045 -0.060928565 0.33280787 0.04048744 0.35679802 0.2286661 0.037213605 0.43730304 -0.3856422 -0.5561587 -0.08847087 -0.095311336 -0.43175474 -0.13242385 0.4064711 0.033211853 -0.35155597 0.1483757 -0.07893921 0.23946826 -0.1779733 0.027742088 -0.16350883 0.21102405 -0.16253161 -0.10926405 0.065814905 0.14417714 0.41991264 -0.9274525 0.0133328745 0.30526337 -0.10148072 0.031356953 -0.55516946 0.29486188 0.2879042 -0.44272712 -0.34225172 -0.08864007 -0.14072013 -0.028103627 0.27312985 -0.24096982 0.20559473 -0.26726833 0.24583068 0.41631392 0.22167467 0.7155123 0.25138307 -0.10081527 -0.34699926 0.40336993 -0.10522127 0.4547216 -0.2535145
154 0.13560066 -0.24543934 -0.17686379 -0.11956325 0.045016546 0.011127728 -0.028106984 0.26426938 -0.3537655 0.4282522 -0.00763061 -0.045232695 0.058678515 0.3160696 -0.064476095 0.48735008 0.23028743 0.41344064 0.21011283 -0.06859831 0.28523225 0.5117199 -0.3672721 0.39097604 -0.09189045 0.13808498 -0.3164777 -0.0045702495 -0.579903 -0.15517122 -0.366089 0.6426821 -0.13561283 0.26198962 -0.45751747 -0.14204088 -0.026075557 0.019034117 0.26287255 -0.25218725 0.078191966 0.34427455 0.113170944 -0.1742842 0.11365038 -0.11208241 0.12628527 0.23428261 -0.45730117 -0.045640532 0.29519784 0.15507437 -0.3629195 -0.25893712 -0.42026454 0.11407823 0.15524292 -0.323723 -0.24486797 -0.1252252 0.067077026 0.24503611 0.3704597 0.25017264 0.3671665 -0.31206316 -0.7739637 0.14468858 -0.11498423 -0.060918856 0.38602382 -0.31529933 0.10251513 -0.079013996 0.78536874 -0.5616443 0.11740602 -0.14379963 0.36930948 0.23333506 -0.28256947 0.32834125 -0.5118138 -0.15914495 -0.12385939 0.14101042 -0.12814167 -0.04259624 0.46269664 -0.48023263 -0.767975 -0.06728976 -0.39473933 0.5413677 -0.033363346 0.52802855 -0.24477254 0.15715577 -0.009375617 -0.036023956 0.2198414 0.2361644 -0.28529128 0.2777936 0.09375691 -0.57390404 -0.15179077 0.18748452 -0.330506 -0.076134965 0.29661837 -0.018488565 0.015378984 0.06697986 0.3153871 0.074502 -0.3122152 -0.19121665 -0.35810217 0.066556945 0.027953094 -0.22409055 0.6791678 -0.45308435 0.37108728 0.15323341 -0.121299654 -0.21240032
199 -0.2831366 -0.23692429 -0.40603104 0.099358104 0.23757957 -0.12045975 -0.4195279 0.34587204 -0.24524768 0.14510503 0.12563828 -0.2720193 -0.7148311 -0.11357822 -0.17465651 -0.23088397 -0.10042888 0.063728645 -0.08380435 -0.104827106 -0.020756429 0.1556065 -0.22547273 -0.23071557 -0.089609645 -0.46831852 -0.22729363 0.08123825 0.38282877 -0.2522577 0.03315459 0.33624294 -0.1124091 0.7095838 -0.50603396 0.3090655 0.6277862 -0.3730055 0.04716565 0.12626621 0.8035278 0.08311898 -0.12643549 0.25817505 -0.37504178 -0.206907 0.114183955 0.20685644 0.12782985 -0.009180599 0.16773356 -0.065005295 0.20139636 -0.108248234 0.14875959 -0.14069839 -0.055823896 1.1445079 0.018390022 -0.5865952 0.029964147 -0.29119772 0.1603891 0.415986 -0.060525138 -0.58791167 -0.36220762 0.3785315 0.20572509 0.66609114 -0.21338527 -0.17634784 0.4188838 -0.7506191 0.47180745 -0.46297354 -0.34736818 0.35547245 0.022742186 -0.35324323 0.05683818 0.024552522 -0.58214 -0.7799951 -0.04405989 0.24928206 0.48106337 -0.12941553 -0.13875301 -0.65926874 -0.15784557 -0.5110507 -0.13856764 0.5346237 0.1335337 -0.60612047 -0.09676197 -0.01376094 0.26676226 0.062791966 -0.15822749 0.5526269 -0.16308634 0.27987397 0.31386542 -0.6927014 0.25043774 -0.70474243 -0.3878663 0.37755713 -0.70658463 -0.5129498 0.70161223 0.30396447 0.10172329 -0.21501261 -0.39749488 0.052207075 0.3258697 -0.2148407 0.17602386 -0.0010039285 0.24941865 -0.33171964 0.26357764 -0.3077423 -0.4360571 -0.7261447
205 -0.36931044 -0.21185371 -0.24182123 -0.1898293 0.2167021 0.27391982 -0.56718 0.5019533 -0.13023078 0.17741372 -0.062566064 -0.4266226 -1.0912842 -0.1402084 -0.2374277 -0.31023625 0.5164718 0.113287084 0.19764905 -0.5237388 0.81522197 0.10198714 -0.19529438 -0.10424292 -0.14368275 -0.094749935 -0.22946207 -0.38375956 0.2818854 -0.24160114 0.8160037 0.050400544 0.022781303 -0.019890752 -0.8058521 0.10412228 0.5086678 -0.3374117 0.3216791 0.41693822 -0.20614108 0.030093176 0.18872257 -0.5192705 0.23585193 -0.100169495 0.19613567 0.04433314 0.06386478 -0.662334 0.21206173 -0.18184058 -0.49707493 0.20236975 -0.07090406 -0.10441387 -0.12943938 0.60524154 0.16729562 -0.57127196 -0.28865007 0.11722953 -0.10207702 0.79204166 0.47430936 0.3743429 -0.27680418 -0.105960585 0.11054228 0.2633053 0.1067651 -0.3117151 0.64355135 -0.81525946 0.32467386 -0.30825767 -0.72075164 0.48047215 -0.32717192 -0.43542492 -0.1304762 0.60047424 -0.45932537 -0.6994111 0.0066107255 0.041477334 0.5973325 -0.49703884 0.026320888 -0.025977362 0.19803067 0.13270669 -0.005741198 0.15878761 0.48395312 -0.5343298 -0.32620773 0.09592129 0.17271581 -0.2603875 -0.094532706 -0.15880129 -0.045350928 0.83599025 0.06398397 -0.700606 -0.060878728 0.015377841 -0.054817945 -0.047633257 -0.7024293 -0.8154671 0.11651034 0.044071194 0.2269742 -0.12481978 -0.45650566 0.30907336 0.32754883 0.06979106 0.19863915 -0.0909499 0.09465915 -0.20178683 -0.37352628 -0.13577509 -0.33275196 -0.22623035
198 -0.18684654 -0.55588377 -0.041888468 -0.42775092 -0.067033276 -0.1075489 -0.30833426 0.3698979 0.019751996 -0.4262133 0.5704941 -0.20387086 -0.7334864 -0.21284968 -0.9432996 0.25461102 -0.24583793 0.19317158 -0.4976209 0.62021637 -0.01775437 -0.042418297 -0.0054011196 -0.028380904 0.087347314 -0.168719 -0.073596485 0.055376768 0.25936028 -0.19036753 0.13656108 0.098182276 -0.17729034 0.4128338 -0.7981275 0.101541564 0.18058495 0.14576863 0.50926447 0.12794629 -0.33794427 0.5336844 -0.0034102732 -0.08843245 0.39647183 0.14458364 0.61323565 -0.3496783 -0.33863118 -0.2624728 0.4723819 -0.019332968 -0.07389864 0.18149765 -0.56432045 -0.04646034 0.4983743 -0.34339532 0.18509609 0.047129054 -0.687715 0.3327006 -0.08278754 0.23771167 -0.3596996 0.028114136 -0.33147812 0.20511034 0.05941422 0.5003639 -0.018846823 -0.18311183 0.3961021 -0.1865017 0.92779267 -0.15319581 -0.364135 0.45530087 -0.16848539 -0.2670134 -0.38327378 -0.03377461 0.0105131725 -0.25190416 -0.14207424 0.124815345 0.16049638 0.14248562 0.92902994 -0.5155532 0.1121366 0.19212864 0.25896746 0.23838925 0.19120587 -0.02399218 -0.014147969 -0.256536 0.034027874 0.56911767 -0.49439898 0.16520427 0.052497983 0.255593 -0.13852848 -0.486584 0.4110386 -0.14450294 -0.09619367 0.048306335 -0.1899947 -0.010037193 0.3891766 -0.039192487 -0.2453646 0.39140087 -0.25208762 0.8548029 -0.35665014 0.11116741 0.39676052 0.02989105 -0.035567846 -0.15488939 0.14656702 -0.44640863 -0.4274752 -0.09785195
194 -0.25841168 -0.41544634 -0.2817073 0.04649861 0.05008587 0.69360405 -0.18230209 0.14207701 -0.21512997 0.017826715 0.39413896 -0.36024275 -0.29210252 -0.14785959 0.16048057 0.4996043 0.030198593 -0.21654013 -0.46216983 0.39454696 0.13839531 -0.08534184 0.60369295 0.34872603 0.03771837 0.013930718 0.15647286 -0.098646015 0.33752772 0.08070558 0.14695054 0.4282846 -0.116221026 0.39658195 -0.09570662 -0.14003614 -0.0928099 0.5881848 -0.1966439 0.31524625 0.17202082 0.20947848 -0.06467263 0.18664731 -0.20385496 -0.047884356 0.40622112 -0.29803136 0.03297627 0.505782 0.1571027 0.4813725 0.49112177 -0.330167 -0.3125364 0.014743378 0.58274144 0.2256956 0.12704886 -0.0813285 0.058750402 0.33529252 0.12860693 0.16717616 0.5675078 0.11173458 -0.006223298 0.104498625 -0.212417 -0.34257653 0.32446754 -0.09847456 0.5743118 -0.7261825 0.694259 -0.3239974 0.1577155 0.12073558 0.6505159 -0.11481098 -0.5188832 -0.40673125 -1.2198509 -1.0853918 -0.3379924 -0.11128147 -0.1668048 -0.26757717 0.4258087 -0.07991836 -0.2918754 -0.20561594 0.14317481 -0.41150326 0.3921402 0.3825075 -0.13605875 0.1720555 0.77450454 0.2733732 -0.14054257 -0.43610272 -0.16355096 -0.035557903 0.42021927 0.10244827 0.07136793 -0.23192386 -0.77041584 0.12868808 -0.4650029 -0.64412653 -0.174351 0.09868574 -0.44960594 -0.01869121 -0.48166713 0.25995752 0.40010226 0.25615305 -0.11201703 0.50225973 0.53798 0.14583343 0.17820202 -0.24360779 0.4813624 -0.5307874
193 -0.32422784 -0.16842183 -0.028445756 0.27694005 0.0062151263 0.47853503 0.011319443 -0.6293876 -0.008551808 -0.09740345 0.39325577 0.31700864 -0.32413757 0.3309538 0.41034347 0.13536717 0.3090047 0.5422211 -0.23961653 -0.29502627 0.6856221 -0.20505717 0.24321792 0.5441962 -0.2959823 -0.10032721 -0.4837267 -0.117641255 -0.02702605 -0.33027214 0.09444457 0.12711841 -0.47593376 -0.30117622 -0.20105506 0.06711364 0.5198276 -0.14990602 -0.12614219 0.052160703 -0.15315975 -0.17671618 -0.055120308 -0.35131428 0.018665344 -0.11457987 0.15143943 0.2082949 0.035605107 0.01894243 -0.0944411 0.069256976 -0.039463688 0.040123217 -0.6829136 0.40743136 0.42601058 -0.311087 -0.06317256 -0.24127102 -0.21003854 0.66523045 0.32452276 -0.22693972 0.79083776 -0.2737134 -0.5561613 0.4407508 -0.32450932 0.291725 -0.110284515 -0.076968186 0.4933665 -0.24684952 0.6538 0.20342635 -0.44849393 0.08320868 0.30365527 -0.0380222 -0.021043848 -0.45319298 -0.30154637 -0.53622514 0.3516224 -0.34284538 0.39476866 0.2610568 0.418506 -0.43269044 -0.21331282 0.0016980701 -0.040959284 0.22547689 0.5436958 0.13116403 0.09796038 -0.32132846 0.7560581 0.5335507 -0.23284449 -0.56173736 0.25344226 0.11081579 0.18561408 0.04067336 -0.091920726 -0.3661556 -0.43222946 -0.43998504 0.20090467 -0.22604646 0.3464912 -0.29010257 -0.18400036 0.10484409 -0.020337239 0.27458042 -0.053083103 -0.499012 -0.019856727 -0.36677918 0.1955886 -0.21149035 0.60768485 -0.31241173 0.17270379 -0.4809278
208 -0.31763342 -0.0035721858 -0.5626733 -0.11740006 0.043482874 0.05048409 -0.20194174 0.07079367 0.01778602 -0.24007879 -0.07276177 -0.65780866 0.2580961 0.2275734 -0.092607975 0.7256701 -0.21753238 0.4460143 -0.37530056 -0.22460233 0.7528271 0.4353662 -0.18770711 0.26643395 -0.8939663 0.4571082 0.06704382 -0.45254713 -0.074994534 -0.32266787 0.4920207 -0.1762445 -0.39775646 0.22442828 0.0685078 0.0024499395 -0.025554249 0.46202627 -0.11268732 -0.029629832 -0.36301413 -0.13615735 -0.6108675 -0.07744292 -0.4020447 0.26609486 -0.19193329 0.14550047 -0.21854675 -0.056757722 0.6087273 -0.53799325 -0.615707 0.2402042 -0.22653154 0.032077346 0.49189356 0.36110812 -0.03825757 -0.17594221 0.38360724 0.2549879 0.14177641 0.2905777 0.17367518 0.29416955 0.09999468 0.94869965 -0.0032633306 0.41517484 -0.6537791 -0.4608682 0.23276463 -0.648378 0.98284024 -0.28809428 0.05225439 -0.02408202 0.5052933 -0.025345605 0.22091459 -0.38717908 -0.17063975 0.022795454 -0.1443832 -0.12931745 -0.12099651 0.15675431 -0.26006755 -0.7511479 -0.24716143 -0.17931883 0.3206442 -0.14713143 0.21410945 0.3522323 0.21487089 0.38888475 0.019013688 0.04378425 -0.69429183 0.045470987 0.17578316 0.43142304 0.17980513 -0.08672437 0.19945745 0.39670256 -0.41488385 -0.55251974 -0.022380669 -0.17296128 0.5271635 -0.08202648 -0.1265024 0.11222797 -0.27500764 0.8434602 -0.22164717 -0.9267307 0.7162849 -0.0469245 -0.40426087 -0.4193582 0.0046178913 -0.27717522 0.37117854 -0.7442951
201 -0.5437121 0.15020108 -0.07949673 0.009116728 0.14501366 0.5943143 -0.7358749 0.07653243 -0.46138448 -0.3618121 0.14163204 -0.6290883 0.104802564 0.54500043 -0.35015923 0.339888 0.13469023 0.10473748 0.43221292 0.013740864 -0.24318482 0.11333922 -0.35801357 0.10215078 -0.53340524 0.62010765 0.34160015 -1.0136218 -0.170141 0.5280787 0.23019104 0.5242783 0.10529792 0.2798362 0.05627094 0.34631985 0.14287356 -0.33642918 0.2891291 -0.023643324 -0.20225917 -0.50205564 0.27295747 -0.8815911 -0.11509066 0.08022452 0.7287841 0.40067837 0.14427812 0.42280042 -0.16606386 -0.13799308 0.105801895 -0.18473674 0.13727023 0.14273296 -0.36731958 0.8241623 -0.019587316 -0.12621033 0.3158076 -0.26149553 -0.74755573 0.36435688 0.15107507 0.33935094 -0.26895896 -0.14513817 -0.009367093 0.45814103 -0.033161364 -0.23347333 0.34527805 -0.2712993 -0.32167792 -0.5952907 -0.8649694 0.02431396 0.008570208 -0.17285286 0.02048163 -0.11670705 -0.9607639 -0.44162586 0.033403065 -0.31799287 -0.31665426 -0.14981808 -0.19730547 0.36632487 -0.1834778 -0.39259478 0.22080907 0.26694256 -0.21900786 0.22406581 -0.2388023 0.7656204 0.6009932 0.74343824 -0.7890883 -0.32854077 0.03470195 -0.000670139 0.50707376 -0.10555981 -0.10816649 -0.3647984 -0.69337237 -0.7315886 -0.013590177 0.12936501 0.6767431 0.015854944 -0.12314571 0.5734274 -0.31347486 0.052491117 -0.05573875 0.049775556 0.5594444 0.07152887 0.21852896 0.14497606 -0.15196353 -0.2280249 0.38092768 -1.0417255
18 0.06862195 -0.13297476 0.09472001 -0.47208565 -0.3340734 -0.21249747 0.13583377 0.35693422 -0.009281596 -0.30797875 0.10447371 0.037250347 0.022017991 -0.04807562 -0.32498294 0.4086719 0.18197611 -0.025550453 -0.05559713 0.033396516 -0.29102746 -0.0216878 -0.11889092 -0.28431427 -0.03662776 0.35425118 -0.0877658 0.1050166 0.16051283 -0.022705136 -0.4386074 -0.003451224 0.16951461 0.3767901 -0.15013942 0.08839686 -0.07919783 0.05849765 -0.02874057 -0.20672077 -0.111339815 0.057476275 0.20863007 -0.012409509 -0.020791104 -0.4595231 0.40127242 0.09893841 0.10507065 -0.36959437 -0.0034902755 -0.022464983 -0.17123653 0.19310328 -0.06580192 0.07283626 -0.030742617 -0.16441788 0.0050761686 -0.06911538 -0.08427721 -0.05657758 0.27967727 -0.0040720394 -0.32564864 0.19783631 0.07807501 0.3712999 -0.19068111 0.56459856 0.29603183 0.16769753 0.025947265 0.09738818 0.27127653 -0.5937916 -0.25080523 0.0410297 0.03662762 0.017057847 -0.014675047 0.18782869 -0.134911 -0.24686946 -0.08881214 -0.22714879 0.084959164 -0.24691324 0.1906755 0.15056576 -0.64930934 -0.14589305 0.0035692481 0.10628588 -0.5136398 0.25676075 -0.43776274 0.2142492 0.072217084 0.0043579694 -0.112053566 0.09507549 -0.20242572 0.17567264 0.095124595 -0.39520878 0.24790245 0.2680083 0.05776187 0.25545156 -0.035052456 0.31197602 -0.070259765 0.30061454 0.03588176 0.25136933 -0.12378059 0.03805453 0.07686444 -0.18483163 0.3171452 0.24218823 0.12569705 -0.011323074 -0.0010241059 -0.3846659 0.05479783 -0.15416196
19 -0.0034304322 -0.02400375 0.019710576 -0.42659485 -0.46522313 0.010829331 0.21767467 0.45896336 0.029437797 -0.50576794 -0.061058614 -0.39037034 0.06253392 -0.027328696 -0.32648098 0.51410025 0.5614094 -0.12824714 -0.06105955 -0.22894588 0.00066510146 -0.16279826 -0.030447287 -0.4851356 -0.20509914 0.13204262 -0.10104916 0.28536677 0.06958215 -0.13156039 -0.2732582 0.041884016 0.302465 0.4034547 -0.30873618 0.15584394 -0.41077307 0.09639245 0.18002483 0.008614159 -0.17783852 0.025000628 0.20239657 -0.019224985 -0.2149907 -0.42975524 0.6792307 0.06321085 0.32143095 -0.5377858 0.07876567 -0.13381696 -0.28693044 0.3764161 -0.11091716 0.20834559 -0.13533954 -0.21311258 -0.2750014 -0.22503817 0.02542146 -0.14120026 0.5607367 0.21085854 -0.27704948 0.2996802 0.15562682 0.1362665 -0.37473094 0.43916294 0.27207696 0.2456843 0.11491233 0.06777496 0.4316267 -0.5617096 0.077916756 -0.069527306 0.10113984 0.028904062 -0.04207256 0.20642675 0.04199287 -0.2894493 -0.07638658 -0.22023155 0.091166794 -0.5570996 0.16276288 -0.036183976 -0.54259294 -0.13999689 0.10630785 0.059228763 -0.37771848 0.107270196 -0.58162266 0.32492095 0.29405347 0.06606523 -0.19933031 0.08661199 -0.26070437 0.438807 0.25764003 -0.40727952 0.38365537 0.2907043 -0.13618049 0.27471036 -0.36491835 0.22984125 -0.033088315 0.35068157 0.324374 0.406903 -0.28727916 -0.11666108 0.31072053 -0.0013637597 0.39446488 0.27321056 -0.07506939 -0.1590879 -0.017593196 -0.28145042 -0.09839727 -0.18931448
20 -0.14951637 -0.06284011 0.06992407 -0.4959339 -0.52231485 -0.16929792 0.14773332 0.26604578 -0.06066744 -0.4216697 0.2662361 -0.112309895 -0.021922747 -0.032634947 -0.48590702 0.47740933 0.12820826 0.031557947 -0.07413526 -0.11608387 -0.19075924 -0.070371315 -0.046909936 -0.39866346 -0.13078499 0.5444839 -0.03515317 0.12204226 0.2183767 -0.020756772 -0.34948713 0.030232424 0.11195056 0.35750654 -0.3657862 0.2507781 0.05091116 0.13955893 -0.04804526 -0.19468284 -0.2716672 0.060943455 0.22932355 0.14232863 0.031146755 -0.333469 0.5458176 0.08263329 0.1338819 -0.6216936 -0.10577171 -0.056659438 -0.2314212 0.0033999076 -0.29012567 0.21250439 -0.05660531 -0.34118795 -0.05394335 -0.2663604 -0.034207806 -0.075379156 0.31387386 0.13567896 -0.28531662 0.16968845 0.20140153 0.3134327 -0.29644445 0.5539518 0.13492729 0.2919424 0.23543742 0.10229667 0.1644 -0.46198106 -0.39932743 -0.09509643 -0.038432878 -0.21757367 0.0036682568 0.33277017 -0.14289907 -0.24974269 0.035224363 -0.2791432 0.0982434 -0.2660732 0.24981503 0.21743144 -0.5417757 -0.07568273 0.26245373 0.015180757 -0.46491054 0.04761669 -0.4183059 0.39594615 0.30325055 0.18712802 -0.2791278 0.013632013 -0.19332361 0.12031925 0.03919378 -0.21673204 0.31222266 0.3003695 0.06875074 0.1340513 -0.07645729 0.28385407 0.00086732925 0.18111843 -0.15853907 0.5841259 -0.07232018 0.1964741 0.018511286 -0.432716 0.42572227 0.34388217 -0.09789739 0.04484322 0.0011615324 -0.33527362 0.10689747 -0.37403303
21 -0.009583871 -0.07966469 0.049627367 -0.46260118 -0.5153708 -0.00606456 0.16273908 0.4981466 -0.06346712 -0.34267056 0.11431981 -0.082956806 0.28020987 -0.14602321 -0.21353237 0.519408 0.32889608 -0.13588525 -0.036823396 -0.22995582 -0.04240969 -0.10078068 -0.055783104 -0.3532669 -0.078424536 0.28363046 -0.05233787 0.23708913 0.122972414 0.010307692 -0.2591167 0.17354254 0.07718554 0.4781413 -0.16870236 0.1226165 -0.35116637 0.21174127 0.063696116 -0.086352855 -0.23370275 0.002174281 0.12273968 -0.0733822 -0.15722466 -0.58087474 0.45401818 0.04965546 0.07540654 -0.48580196 0.022503866 -0.010907194 -0.23938021 0.1913441 -0.13276897 0.16115075 -0.05798014 -0.1328289 -0.21282628 -0.22104447 -0.23840153 0.11405319 0.4251769 0.14276575 -0.13076769 0.14279492 0.23218004 0.21218596 -0.28083566 0.5369953 0.113907345 0.24616413 0.33306843 -0.07786392 0.39362973 -0.60252357 0.008677196 -0.020610664 0.24630843 -0.02043843 0.052067947 0.23371214 -0.101448536 -0.39551425 -0.21650182 -0.24497429 0.15591659 -0.3241859 0.045315567 0.024875926 -0.8887398 -0.1985062 0.008363693 0.21602786 -0.41949216 0.26986948 -0.51813173 0.3521628 0.4170239 0.119014196 -0.12453252 -0.12835698 -0.45790094 0.43018997 0.19047143 -0.307316 0.36824208 0.19338323 -0.24955696 0.25331962 -0.18296404 0.20999359 -0.19740652 0.24328406 0.079082504 0.32718545 -0.21746051 0.14579105 0.2881954 -0.3588537 0.48668385 0.2832553 0.09898157 0.047305934 -0.018637404 -0.4173737 -0.06481957 -0.30559748
22 -0.03188019 0.0009347759 0.057081588 -0.3578214 -0.31167877 -0.16698101 0.12600307 0.3234575 0.004570096 -0.22400743 -0.057504226 0.020356014 0.17187351 -0.0881824 -0.1523292 0.41474846 0.29884613 -0.11890839 -0.048128687 -0.28902268 -0.042066716 -0.09097795 0.06784094 -0.35950202 0.05121127 0.2786787 -0.12628639 0.31908002 0.072987214 -0.016399853 -0.34305587 0.042920806 0.05311207 0.20171463 -0.07368659 0.0900125 -0.30231574 0.18650788 0.06933759 0.026245946 -0.19997603 -0.008474005 0.19636692 -0.044964533 -0.06584776 -0.55115145 0.3727718 -0.06934842 0.1119223 -0.47503927 -0.02232368 -0.15299961 -0.15247251 0.21098335 0.07462158 0.20971859 -0.113744095 -0.11992788 -0.12631911 -0.23320366 -0.3186302 0.015548786 0.36022842 0.026027588 -0.11634947 0.31054807 0.14034995 0.2135897 -0.29619923 0.47799045 0.28057185 0.27493113 0.32715216 -0.049575906 0.3880477 -0.5548173 -0.11618968 0.07351633 0.25107175 -0.09489447 0.0056419694 0.23133594 -0.07999213 -0.37901703 -0.22524184 -0.29503012 0.15016542 -0.36875898 0.007799563 0.055774923 -0.7637623 -0.29017484 -0.041198798 0.16603039 -0.3549255 0.20807853 -0.4148118 0.32441393 0.27970394 -0.11091365 -0.0130982 -0.045438632 -0.38718313 0.299042 0.2027329 -0.41679734 0.30209023 0.26139292 -0.018621761 0.21535112 -0.32960868 0.171195 -0.18856914 0.32501528 0.1297321 0.20286621 -0.27106997 0.061496295 0.21667628 -0.20170416 0.33265674 0.18909334 0.12604375 -0.0052955467 0.04512017 -0.3893824 0.235604 -0.2076094
23 -0.06802295 0.015368339 -0.015407267 -0.513839 -0.35202035 -0.20702398 0.3342324 0.56106067 0.07189707 -0.08755252 -0.030564887 -0.004256114 0.1144728 -0.15027225 -0.35922313 0.4731882 0.3817968 -0.18011223 0.16796257 -0.45467198 -0.12781635 -0.058742296 -0.003545799 -0.536362 -0.14933188 0.41652158 -0.008482035 0.24761058 0.40951934 -0.16307436 -0.35541782 0.1180905 0.11897908 0.2994306 -0.17735778 0.20054355 -0.3004099 0.15252979 -0.010296296 0.08142167 -0.15819104 -0.13568084 0.15707485 -0.057388976 -0.13867499 -0.6103801 0.40703088 0.112203 0.28570327 -0.5825214 -0.24079816 -0.14991912 -0.39116153 0.28038412 -0.090631984 -0.050633114 -0.02522983 -0.16077363 -0.25570887 -0.54670113 -0.06210859 -0.042768 0.37515706 0.14754005 -0.15635566 0.24243383 0.2635059 0.24102323 -0.21962225 0.42298427 0.16419081 0.35862437 0.14182839 0.0663941 0.058065142 -0.5648171 -0.17302234 0.03866478 0.099675424 -0.22304778 -0.064156726 0.19945055 -0.25216353 -0.69855595 -0.08737903 -0.20612904 0.4587873 -0.3165427 0.087594494 0.15820338 -0.8993397 -0.19931984 0.053292062 0.16116151 -0.5463423 0.16475385 -0.59196466 0.5554659 0.053651378 0.014053386 -0.11046613 -0.110562235 -0.4507196 0.41480246 0.21289732 -0.43584022 0.43325323 0.15556818 -0.11945459 0.35100114 -0.35762584 0.33469626 -0.24742363 0.46307272 0.19321528 0.40267983 -0.15078859 -0.11770748 0.44491437 -0.3268147 0.45371583 0.30006573 0.061778452 -0.030531317 -0.14092577 -0.37759572 0.11391147 -0.23663326
24 -0.08129252 0.023442004 0.07272788 -0.44915268 -0.5127586 -0.08735815 0.30920914 0.3218444 0.13924217 -0.24035065 -0.078823045 -0.1540462 -0.087384954 -0.094214186 -0.5268698 0.5517731 0.34863508 -0.17120628 0.14032349 -0.47508422 0.12910798 -0.036383558 -0.026936159 -0.45237896 -0.06328973 0.20658006 -0.055822343 0.41181526 0.07428459 -0.13580552 -0.29228196 0.15198624 0.36619624 0.13286392 -0.3573971 0.32691973 -0.39713177 0.108254 0.16709188 -0.08218135 -0.21020609 -0.0697206 0.059872918 -0.00065836194 0.10649584 -0.43869707 0.5877701 0.06226723 0.13776365 -0.6866082 -0.11985251 -0.24452639 -0.35188502 0.30362764 -0.14074263 0.24743174 -0.04992111 -0.29986513 -0.38618505 -0.3248346 -0.33204663 -0.008213452 0.47685146 0.25234184 -0.2006706 0.24422607 0.12908213 0.24267744 -0.4024271 0.4798423 0.26383612 0.34865382 0.45559046 0.21803051 0.2211084 -0.57149565 -0.07225998 0.06873921 0.10605215 -0.027779711 -0.06994593 0.37120593 -0.1626588 -0.57358736 -0.11237214 -0.3003081 0.3981271 -0.4874877 0.23066661 0.1357886 -0.91464853 -0.28019282 0.1018565 -0.005236332 -0.46297994 0.19880554 -0.49476534 0.40801263 0.22546853 0.09148856 -0.12241142 -0.069065794 -0.39966974 0.41725963 0.11722276 -0.3705433 0.39422026 0.44470474 -0.19179061 0.21244447 -0.26033112 0.24241775 -0.106029324 0.27323627 0.116286024 0.4947038 -0.28030342 0.12841548 0.4668119 -0.21999514 0.4018219 0.28682148 -0.09585993 0.18651518 -0.1260982 -0.2694693 -0.06814687 -0.13681643
25 -0.121496335 -0.053422526 -0.14885165 -0.45372793 -0.4674337 -0.04244874 0.45178646 0.48252028 0.057650506 -0.2743774 0.158349 0.030735452 0.20448637 -0.005436151 -0.20910662 0.45793867 0.45176494 0.022612883 0.099537574 -0.26638126 -0.18100512 -0.0061449055 -0.057967655 -0.47200176 -0.07640058 0.3237646 -0.14325178 0.2202273 0.23600368 -0.27287945 -0.33667168 0.06881441 0.16288024 0.36756292 -0.37769482 0.16999708 -0.36098298 0.00902051 0.028471764 0.02488555 -0.25775382 -0.06267745 0.118209 -0.17182349 -0.20210955 -0.65428096 0.64726937 0.22317344 0.15427993 -0.57483304 -0.17117876 0.0222721 -0.4420823 0.29341727 -0.4347651 -0.02079887 0.041531824 -0.40268654 -0.30355865 -0.34132186 -0.0073072547 0.02473597 0.31414032 0.20189987 -0.098295875 0.0926558 0.04154381 0.18924408 -0.20552501 0.2997952 0.06534871 0.09343542 0.08922841 0.16609445 0.16712642 -0.41245398 0.070959195 -0.022171704 0.2130111 -0.03553213 -0.0945345 0.2235071 0.03952923 -0.4641496 -0.083919115 -0.21574567 0.43713814 -0.20835301 0.29090744 0.0019677978 -0.75479466 -0.12897067 0.28053302 0.1373724 -0.42814982 0.24114029 -0.573713 0.18674885 0.073715426 0.09910488 -0.1078604 -0.26193836 -0.28919128 0.42826262 0.14433084 -0.45335647 0.4714889 0.18064667 -0.21321508 0.16957211 -0.13496669 0.24375024 -0.18606652 0.3427016 0.24663378 0.32362458 -0.070791274 -0.13056831 0.31121284 -0.28121984 0.52057564 0.2922715 0.08159374 -0.04784196 -0.056897517 -0.22825009 -0.28598458 -0.15633832
26 0.0137844365 -0.09137997 0.078413166 -0.58056444 -0.38464728 -0.14882526 0.1632809 0.3969463 0.028089134 -0.31784734 -0.009042211 -0.06801793 -0.26972583 -0.059956174 -0.46771353 0.2783064 0.38730702 -0.063631155 0.1165901 -0.44856706 0.11183482 0.057383 -0.1608795 -0.4894838 0.02412207 0.36763728 -0.2732442 0.3089286 0.00541995 -0.2874103 -0.375876 0.13465753 0.37967625 0.24420147 -0.4694782 0.12097956 -0.282677 -0.013694448 0.2680598 0.1194141 -0.080098495 0.079359554 0.067364916 -0.13582417 -0.16639161 -0.35043758 0.5164173 0.13239479 0.052026283 -0.8297473 -0.03499858 0.0009171235 -0.36713472 0.3932452 -0.21613489 0.16372716 -0.13335769 -0.14980336 -0.29614824 -0.2606151 -0.04396755 -0.027623544 0.44470003 0.34220335 -0.30014142 0.21335472 0.14191954 0.15655838 -0.19766569 0.30305058 0.21125278 0.23900461 0.15799543 0.21713854 0.18481287 -0.5828926 -0.107943885 -0.08410865 0.037559748 0.02767951 -0.12120475 0.5661345 -0.002039242 -0.63932306 -0.017279629 -0.1293369 0.39543542 -0.45747462 0.25129452 0.0016426595 -1.2654835 -0.25523195 0.060983434 0.15262422 -0.56725264 0.28237757 -0.5713871 0.24898298 0.11922462 -0.041406013 0.16887932 0.13842739 -0.48597294 0.38827613 0.11177395 -0.3851191 0.3950771 0.5238259 -0.11927891 0.33512855 -0.2875933 0.11989647 -0.272281 0.4317827 0.19518808 0.21235283 -0.19975315 -0.06563639 0.50575745 0.034375187 0.5116444 0.27203637 0.011133673 -0.09601438 -0.085484006 -0.34876525 -0.3127689 -0.20813014
27 0.0572199 -0.07089693 -0.00068587484 -0.5299217 -0.64249295 -0.19596328 0.31388715 0.718548 0.22544275 -0.12927362 -0.04587578 0.08337707 0.15107892 -0.14486063 -0.459701 0.56308246 0.16110845 -0.17716132 0.185496 -0.51041603 -0.08542544 -0.1853189 -0.079424255 -0.3754062 -0.08704828 0.34618726 -0.25400802 0.2026766 0.3637616 -0.1151196 -0.5199066 0.29836994 0.18886659 0.26219457 -0.35829303 0.25150225 -0.23903163 0.0732812 -0.27821827 0.050763514 -0.08766667 0.041207597 0.2799754 0.24346092 0.0012254533 -0.56576896 0.27078438 0.22437549 0.04212359 -0.68081295 -0.072569974 -0.014779305 -0.2985572 0.104441166 -0.12668388 -0.12593964 0.11365698 -0.026021615 -0.23955198 -0.1889811 -0.32986605 -0.032457814 0.44686863 0.1728432 -0.15646167 -0.02090817 0.15251677 0.19926752 -0.11728584 0.6096201 0.4522767 0.34300253 0.2803516 0.019496156 0.130405 -0.52118444 0.102420524 0.022674548 0.3125985 -0.23833293 -0.09477365 0.25789213 -0.09194665 -0.3646648 -0.08491037 -0.12331543 0.49956325 -0.13299508 -0.029581713 0.13805436 -0.8698629 -0.007922893 -0.020479111 0.49312928 -0.37352717 0.22936691 -0.53897464 0.5459813 0.07235582 0.029751291 -0.3613101 -0.08141273 -0.52651024 0.56129 -0.046895284 -0.3228568 0.51791 0.05549509 -0.13463455 0.3968847 0.062172577 0.43343768 -0.31248742 0.20284511 0.08245588 0.4531571 -0.24148694 0.031128578 0.371399 -0.41738436 0.42090318 0.25795496 0.08801465 -0.051573806 -0.060806032 -0.28187776 -0.020036444 -0.1222353
28 -0.21238884 -0.13863117 0.005012903 -0.5106516 -0.62381834 0.01034608 0.10867077 0.6154658 0.15943028 -0.283176 -0.011025703 -0.09611825 0.22688721 -0.23730363 -0.51663876 0.6863692 0.23851068 -0.09601237 0.12814789 -0.19990271 -0.21142952 0.027856551 -0.19142002 -0.5578721 0.06737044 0.095507 -0.07045328 0.3841413 0.33775094 0.12747861 -0.42279106 0.029051794 0.14708534 0.28055805 -0.29458603 0.31482616 -0.3510424 0.1407347 -0.021855613 -0.08652671 -0.00026458158 -0.10334123 -0.042986143 -0.12566856 -0.1533061 -0.68350327 0.4465777 0.080034 0.25772935 -0.54522043 0.08420768 0.015787415 -0.41248336 0.13392974 0.0043188888 0.16011044 0.17687932 -0.0653019 -0.22393458 -0.3186214 -0.48537526 -0.12889406 0.35788664 0.18418035 -0.25099865 -0.055786118 0.14118546 0.22143836 -0.21336289 0.62753975 0.06474883 -0.025864203 0.39068133 0.0837598 0.26932645 -0.64061105 0.27392927 0.14529534 0.40507796 0.0063942983 -0.07343016 0.21689528 -0.07349088 -0.6996252 -0.13556375 -0.09168994 0.3696052 -0.17206125 0.0934219 -0.10625892 -0.9542898 -0.3485149 -0.03642691 0.3954939 -0.34073472 0.25752106 -0.37337554 0.44754153 0.07044204 -0.18231234 -0.06268802 0.085399434 -0.57895786 0.5144078 -0.024853574 -0.27649084 0.4518734 0.38687432 -0.27268273 0.50664884 -0.58672047 0.20353432 -0.17215888 0.29803345 -0.04443412 0.12232727 -0.33545828 0.08432311 0.42356205 -0.21930209 0.4554079 0.26469374 0.2637919 0.32441208 0.17524055 -0.38025776 -0.1557424 -0.18321748
29 -0.054203894 -0.050580643 -0.1526128 -0.6054946 -0.563031 -0.42168045 0.3998245 0.72383255 0.1292131 -0.13387789 0.16118541 -0.17817092 0.26230827 -0.24489498 -0.5760084 0.61900127 0.06538719 -0.11540208 0.07977837 -0.22678201 -0.36294502 -0.045543738 0.10433913 -0.5026769 0.08657198 0.38880548 0.02812334 0.51709735 0.2776624 -0.02113961 -0.4895647 0.16094045 0.01194249 0.36241734 -0.39822564 0.38533193 -0.425327 0.11430446 0.10852851 -0.065091655 -0.23786587 0.14287664 0.21146294 -0.02240522 0.19292507 -0.6988692 0.54930675 -0.11256887 -0.19207105 -0.88027483 0.12672502 -0.13572061 -0.3754811 0.38392788 -0.1582033 0.04362749 0.055980977 -0.4936263 -0.22479776 -0.37526715 -0.24548332 0.0895105 0.4527711 0.047341198 -0.25837877 0.12386649 0.076465264 0.32735482 -0.35498756 0.5923254 0.14625196 0.13648008 0.35708287 0.0866597 0.42553246 -0.4754408 0.045412797 0.22573583 0.09703042 -0.36075464 -0.19146453 0.08394713 0.16346903 -0.3973661 -0.16962309 -0.18339415 0.28119367 -0.19767925 0.37315163 -0.10076711 -0.7220597 -0.24648009 0.13320467 0.27545035 -0.4977351 0.18142213 -0.64178795 0.5148244 0.16750659 0.18638365 -0.2942836 0.076011606 -0.3653848 0.6412421 0.043346256 -0.69774526 0.4398661 0.1352187 -0.18994327 0.2601185 -0.28618497 0.37549546 -0.11005968 0.36135352 0.251091 0.7188992 -0.21549545 0.19131733 0.0035629924 -0.35500377 0.47207436 0.22843519 0.0035940774 0.09795999 0.12403389 -0.36700156 0.04078101 -0.11835929
30 0.0031297964 -0.017155977 0.053107228 -0.47931266 -0.1594453 0.18757622 0.13772653 0.24408594 0.0077432105 -0.4113592 0.0669782 0.035067 -0.11433389 -0.2151361 -0.15650538 0.52934617 0.43852967 -0.3178856 0.07601699 -0.040977295 -0.1532739 -0.22969042 -0.07881524 -0.15043053 -0.02813652 0.42793965 0.0037085584 0.15927905 0.037818134 0.018256504 -0.4441397 0.024693891 0.1595835 0.38811198 -0.24070081 0.15242325 -0.044207394 0.16680577 -0.03846521 0.1567109 -0.17774731 0.019978713 -0.029886054 -0.12415025 -0.30462176 -0.6142284 0.5440624 0.107559904 0.101088434 -0.61804426 -0.12488621 0.39693743 -0.09978419 0.20474769 -0.3098968 -0.033523545 0.21234304 -0.24245243 0.010612806 -0.047890242 -0.48284414 0.16646567 0.45745587 0.2654647 -0.28099447 0.20009932 0.06639314 0.6080854 -0.2545116 0.5722866 0.27717078 0.03101603 0.19060068 -0.043892577 0.17476098 -0.7824929 0.09429104 0.046024933 0.39717713 -0.28444627 -0.03299565 0.40084523 -0.08286181 -0.4909448 0.018482076 -0.337586 0.47865918 -0.2275161 -0.03878349 0.090922266 -0.91258377 -0.38487405 0.24703483 0.14415044 -0.43584147 0.27591103 -0.70996255 0.38929892 0.08688605 -0.19935967 -0.12576187 -0.20341161 -0.30843267 0.44168717 -0.15206538 -0.5026229 0.49236983 0.09292176 -0.13630643 0.20469671 0.023311745 0.35800913 0.13805673 0.09961808 -0.07465143 0.19114941 0.09093632 0.2675138 0.31159237 -0.26229128 0.49898797 0.7021501 0.11680006 0.17701471 0.08009658 -0.4881233 -0.20327671 -0.19778991
