246 128
0 -0.06343474 0.07084574 0.07495796 -0.045005906 -0.0035715548 -0.017209044 0.005078532 -0.012052042 -0.03939878 0.04260657 0.13525839 0.06789755 -0.11015767 -0.109253936 0.045826893 0.11414104 -0.05546618 0.08184619 -0.14159949 0.017457709 0.00902313 0.12152532 0.0071751997 -0.013474615 -0.050704766 0.030298281 -0.056257065 0.12003542 0.046049125 0.10585358 0.10920364 -0.022515064 0.056654602 0.12084086 -0.01961292 -0.08096668 0.12387058 -0.10844355 0.09747957 0.074423656 0.008130612 -0.023162114 -0.13762778 0.03206568 -0.09852095 0.12229029 -0.12989256 0.12578459 0.07547711 -0.0052647204 -0.10627831 0.10621875 -0.041673012 0.0045258254 -0.049238324 -0.014966359 0.013675656 -0.03541851 0.061860614 0.112912096 -0.10146178 0.024421742 0.05504209 -0.050475407 0.123843186 0.08784173 -0.123746164 0.08245286 -0.13701195 -0.107169725 -0.08965398 -0.044857662 0.13970406 -0.0029717472 -0.12159169 -0.056199245 0.07218239 0.07520715 -0.010852511 0.028321635 0.12745078 0.1262198 -0.065395236 -0.0054337443 -0.015170795 -0.14010745 -0.12664218 -0.031462632 0.016478682 -0.08769711 0.12599124 -0.033158686 -0.1343402 0.013866365 0.007861503 -0.1007868 0.0751052 0.046178322 -0.0210668 0.060719233 0.10434987 -0.13717753 -0.025688522 0.102592744 0.11713667 0.042471327 0.10777842 -0.11957275 -0.084146716 -0.050302964 -0.0020113683 0.04818007 0.04207889 0.101877086 0.10544332 -0.08292139 0.10205575 0.049538936 -0.13373546 0.09894914 0.035624083 0.10675907 -0.08227079 -0.13207671 -0.063178234 0.030921435 -0.13092528 -0.037752572
1 0.12128232 0.08735938 -0.06554005 -0.014155176 -0.12890092 -0.015896413 -0.047850966 0.049150947 0.12074308 -0.09367821 -0.059220545 -0.1174697 0.0051214267 -0.13089693 0.045483235 -0.02686963 0.0587459 -0.008675256 -0.05400073 0.036127128 0.025962956 0.06658789 0.08613731 0.11437922 -0.050287053 0.113041215 0.11708604 -0.011267084 -0.059227414 0.11382547 -0.12563315 0.07568761 0.020307533 0.10803185 -0.13038434 -0.070829615 -0.1179645 -0.0775248 -0.11515826 -0.0033567017 -0.12962554 0.054804053 0.094232224 -0.120541066 -0.027245674 0.11495954 -0.06059713 0.069975026 -0.114030816 -0.07044413 -0.03131106 0.056395758 0.053548668 -0.09671426 -0.04065157 -0.073974095 -0.04217442 -0.102869265 -0.042927086 -0.023476114 -0.0711985 0.04399526 0.0066853957 0.06869196 0.13521485 0.12757929 0.09136642 -0.12599863 0.01964062 -0.06559513 -0.07625197 -0.10696676 0.07088997 0.10625406 0.032516953 -0.13149838 -0.13793519 -0.1279092 -0.107219286 -0.09337504 0.0710559 -0.13556077 -0.00462228 -0.092643425 -0.1312682 -0.024506642 0.146725 0.068676345 0.09650575 0.119336806 0.1366138 -0.075756215 0.078933075 0.07036568 -0.13492374 -0.06025771 -0.046195943 0.0033280149 -0.07463653 0.03825116 -0.122049436 -0.13001089 -0.025474314 -0.008102944 0.0972933 -0.09777663 -0.022227379 -0.035039943 0.0034137263 0.020640457 -0.005059268 0.022752881 0.15426934 -0.0306734 0.020919276 0.04111841 -0.025558956 -0.098519355 -0.04694328 -0.04475536 -0.07501234 -0.10795857 0.07037228 0.09822202 -0.057917304 0.123764575 -0.07844198 -0.1275434
2 0.0026282864 0.060059015 -0.036222577 0.08033256 -0.15202534 -0.055222284 -0.009792961 -0.106048435 -0.06887839 0.0035273035 0.040000044 -0.021008393 0.096768625 0.035779 0.11814777 0.12546179 0.101749875 0.011004654 -0.13622345 0.085343316 0.07491201 0.015753176 0.120137855 0.101457745 0.04137248 -0.09802389 -0.06808734 -0.087175556 -0.1106505 -0.021318847 0.01171069 0.014981068 0.12745193 -0.07285165 -0.08605353 0.099573426 0.06442925 0.062833086 -0.04351735 0.13882095 -0.12667088 -0.026046114 -0.06843638 0.005402727 0.094973326 0.0997557 0.018244235 0.12497509 -0.0034088185 0.05911535 -0.13136564 -0.06727367 0.03462757 -0.009055474 0.10374492 -0.09152758 -0.12457204 -0.122955464 -0.069102675 0.1081107 0.08637962 -0.06228727 -0.02155542 0.13410264 0.1125613 -0.0031947643 -0.0013299882 0.04581882 -0.13401985 0.11564548 -0.08410685 -0.10120325 -0.090620354 0.094034195 -0.11249045 0.024334744 0.009529933 -0.06869953 -0.13521941 -0.12803331 0.012564421 -0.08883561 0.093020976 -0.013102323 -0.06861316 -0.096544206 -0.028605908 -0.113091014 -0.061228104 0.124761835 0.12563236 0.028279722 -0.0735553 -0.089525335 -0.08941883 -0.13201699 -0.015823625 -0.032388754 0.05928585 0.04371059 -0.056880683 0.11532189 -0.00011104345 0.12075515 -0.010100648 0.1368968 0.07729058 -0.11738297 0.018995494 0.12360872 0.122640744 0.0061380863 -0.07899206 0.05202882 0.028915435 0.0802695 0.058987066 -0.05163438 -0.03205371 -0.09539525 -0.012797967 0.021468922 -0.121767774 0.024826482 0.12587 0.065901205 0.110561565 0.022615388
79 -0.10629694 -0.13852614 0.02910221 -0.04337922 -0.07896555 -0.058656063 0.028001282 0.08532541 -0.15069076 -0.08357499 0.032064192 0.10024764 0.021165121 -0.079008766 0.0530781 0.0636085 -0.10999842 0.09650595 0.10287386 0.029203227 0.05135013 -0.095673874 -0.08699338 -0.08644273 0.038173318 0.029854903 -0.03208517 -0.10505353 0.0017890151 0.10605509 -0.00117683 -0.10429505 0.048433773 0.073588476 0.052305683 -0.065425925 -0.11322784 0.09816416 0.028250683 0.09091867 -0.115611985 0.12407426 -0.00430841 0.034347314 -0.12359512 -0.018001057 0.03226363 -0.009988543 0.047635492 -0.027619837 -0.03946777 -0.093237735 -0.006572073 0.09363551 -0.07494153 0.07675845 -0.0016387184 -0.11243917 0.036140617 0.09915448 -0.08635696 -0.097595334 -0.06575508 -0.12499646 0.0025488173 -0.00035388122 -0.07393185 -0.12628148 0.012226643 -0.00021493647 0.036468722 0.06981225 -0.09487315 -0.10044163 -0.053988785 0.098421246 -0.10879753 -0.055687077 0.11793881 -0.1403502 0.13087942 -0.11328901 -0.09438516 0.08766534 0.004569683 0.09368047 0.13632871 0.114002034 0.06813197 -0.014798297 -0.051806513 0.1353442 0.080233365 0.04943976 -0.023689846 -0.085231036 -0.12833397 -0.051594324 0.04772504 0.08847602 -0.018062962 -0.109895736 -0.07049558 0.12620886 -0.06957631 -0.1440885 0.12403696 -0.10840552 0.09625084 0.0040344857 -0.080799006 -0.062306143 0.13189636 0.049579892 0.04905492 -0.09147297 0.07263391 0.08337039 -0.027679564 0.027065223 -0.12457256 -0.08573847 0.04970982 -0.08151616 -0.1177976 0.07743332 0.09248077 0.13819839
55 0.10723019 -0.07468912 -0.11946378 -0.11378253 -0.027580723 0.059577003 0.06927792 0.08135345 0.097521156 -0.05568005 -0.087391056 -0.009961047 -0.015528047 0.12144164 0.12155445 -0.08099843 0.078394644 0.046077162 0.05803055 -0.10163019 0.004599593 0.092829004 -0.019392109 -0.103121564 0.041745465 0.06688213 0.05881987 0.10723835 0.08547422 0.11483059 0.0861374 -0.14097261 0.07975718 0.116852745 -0.14255825 -0.03885859 0.11083341 0.006310309 0.08672601 -0.12725359 0.042559955 0.09348979 0.07122534 -0.09340809 -0.09105176 0.09700234 0.117214344 0.08949008 0.0025608852 0.07708539 0.004751339 0.1294847 0.008209763 0.09770433 -0.11557091 0.07819184 -0.07359832 0.08092798 0.10943486 0.008600173 0.0020335352 0.09536988 -0.08827031 -0.1281618 -0.1526266 0.12526405 -0.009495281 0.12825936 0.13325572 -0.02983075 0.10965679 -0.08316938 -0.10710385 -0.09664342 -0.02061241 -0.021211734 0.10890576 -0.045230348 -0.0017527253 -0.084217526 -0.029478822 0.058162548 0.106531076 -0.04906891 -0.062839784 0.051458433 0.04215252 0.046784975 -0.011837058 0.021945026 -0.009267153 0.054654375 0.12105327 -0.12858012 0.118368015 0.13209248 0.060600083 -0.052051794 -0.07133229 -0.09290589 -0.09756015 0.12046346 0.12656163 -0.029556425 0.042009603 -0.12332914 -0.10169034 0.06588674 0.095225126 0.12912129 0.017105442 0.08636126 -0.08992978 -0.1443998 0.041772578 0.052531473 0.054819837 0.02039052 -0.018458357 -0.028246373 0.01687422 0.060108196 0.04878895 0.064873874 0.062388208 -0.14092165 0.05010684 -0.101266734
57 -0.04046244 0.0855304 -0.11295648 -0.036248144 -0.13347244 -0.03080321 0.07972509 -0.09488323 0.032577347 -0.011868911 0.090230964 -0.017858945 0.00229025 -0.0044395844 -0.028001705 -0.13393022 -0.11608905 -0.1292958 -0.115450315 0.1062823 0.073846936 -0.0066968235 0.034620352 0.043593805 0.11842853 0.05479196 0.06461489 -0.049818877 -0.08255932 0.08586188 -0.13384703 0.039254084 0.06775194 0.054900963 -0.13001864 0.056580417 -0.0608864 0.07291199 -0.14011939 -0.031696647 0.10309815 -0.053720947 0.092728436 -0.07804295 -0.058900684 -0.121168226 -0.021883179 0.12196551 0.07204113 0.04406011 0.035530623 -0.12986964 0.011992153 -0.08813738 0.10077034 0.12821497 0.05442627 -0.064514115 0.004558358 -0.1050882 -0.07036561 0.111409254 -0.099769264 0.0681454 0.11878208 0.11469247 0.009724418 0.025674889 -0.06552362 -0.1380921 0.08767343 0.12945168 0.047114816 0.014775619 0.076918125 0.014687308 -0.017774167 -0.09498398 -0.10434407 0.047715977 0.11646574 0.021875719 0.05391577 -0.008828377 -0.13414101 -0.07148884 0.09705544 0.07506142 -0.033247773 0.0377387 0.12927128 -0.0840135 0.10330418 -0.120217666 0.044217393 0.0695322 0.05998469 0.012067834 0.07371281 0.09577535 0.115392014 -0.08693342 0.07872709 -0.1163774 -0.057531312 0.025873566 0.056441896 0.036198907 0.09871603 -0.05463539 -0.09474943 -0.005334401 0.018681811 0.118293874 0.028871752 -0.09706977 0.018834751 0.05803996 -0.090288356 -0.13066877 -0.13104953 -0.0024850836 0.071840614 -0.022953108 0.121579506 0.07893734 0.060633235 0.13204621
59 0.06938648 -0.06836784 -0.0071760286 -0.12653391 -0.11330701 0.05706726 0.03142834 0.010643381 -0.11137907 0.06931628 0.025455527 0.04816855 -0.086212754 -0.030335084 0.10967579 -0.08488321 -0.007811906 0.105432324 -0.021949928 -0.037386864 0.11681742 -0.05063058 0.005550709 0.07891687 -0.026999118 0.08793712 -0.0005047799 -0.021921648 0.082942806 -0.122267485 0.02221446 -0.057643916 0.11293415 0.032668795 0.014700489 0.013874022 0.08328593 0.005685653 -0.09715971 0.09199484 -0.09370517 0.074942335 0.052874617 0.04492302 -0.044293262 0.0930756 0.10102393 -0.10857249 -0.10184724 -0.05904049 -0.031692307 0.1447555 -0.023694923 0.07316929 0.14320314 -0.006589208 -0.012095154 0.083991975 -0.104919374 -0.046360314 -0.11131462 0.05289999 0.05909071 -0.10753352 -0.110502236 0.07207 0.0037251243 0.11168404 -0.011608781 -0.07671482 -0.14463805 -0.13038412 0.13567081 0.08936047 0.054328784 -0.08505417 0.03321582 -0.11432669 0.09225 0.08301375 -0.120428756 0.06770841 0.0006072555 0.056803714 -0.06495801 0.010512931 0.14334963 0.09276318 -0.07049445 0.11390876 -0.0055953315 0.07431844 -0.12149886 -0.13223226 -0.06598365 0.10483265 -0.12627892 0.12737767 0.106127076 -0.032958586 -0.07897981 0.04054807 -0.08622611 -0.10913665 0.1111875 0.10385447 0.046241596 0.11243969 0.016645627 0.08849805 0.111810766 0.009519373 0.077079035 -0.05853687 0.052467566 0.09207711 -0.11700217 -0.054570466 -0.010358265 -0.16047435 -0.0112713585 -0.07040149 0.06414127 -0.0058328668 0.12336907 -0.060993902 -0.09840176 0.13637753
65 -0.058296006 0.0058815135 -0.09787566 -0.10297066 -0.11365993 -0.049612734 0.13327628 0.119347945 0.024410887 -0.103998356 -0.062345967 0.043263253 -0.13041288 -0.003248504 -0.03732961 0.09993517 -0.097246654 -0.11053809 -0.024304599 0.09573222 0.08150826 0.043924645 -0.07221587 0.054399475 0.09673204 0.120184235 -0.10447614 -0.047701214 -0.023089034 -0.0923545 -0.0021691765 -0.11782433 -0.09987534 -0.023749728 0.09707294 0.00850024 -0.010909866 -0.009730328 0.014106578 0.052091204 0.085015625 0.09449348 -0.052356042 0.090448506 -0.0030613057 0.03886691 0.03342177 0.010285383 0.011937113 -0.13060923 0.01223796 -0.092275925 -0.004028077 0.011450063 -0.025272394 -0.01764908 0.010634894 -0.098377466 0.07560931 0.106388085 -0.14871764 -0.11868708 0.013990818 -0.12135758 -0.079802476 0.046070836 0.13496141 0.0040678713 0.027491916 0.025021594 0.06792878 -0.11467822 -0.090112634 0.025690127 -0.11466674 0.08595571 0.024514314 0.018369235 -0.09969727 -0.027457895 0.03582674 0.06731998 -0.05352839 -0.048911624 -0.08723649 -0.1346226 0.023658102 0.012606498 -0.0849071 -0.030531816 -0.0648775 -0.060236137 0.039163463 0.07450306 -0.071699895 -0.049992833 -0.109725356 -0.12611435 0.063084416 -0.1041633 -0.033253778 -0.022129389 -0.00035697815 -0.11066125 0.10208425 -0.09448175 -0.1092624 -0.120295174 -0.14149798 -0.10141666 -0.026457654 -0.010627421 -0.011774101 0.13486487 -0.0009903889 -0.05255015 0.0024354528 0.09793119 0.11325908 -0.13963188 -0.053468652 0.13458042 0.12203507 0.016396444 0.07063572 0.016956672 -0.0063714804 -0.10229873
67 -0.07380845 0.0175364 -0.06791681 0.041035276 -0.10597659 0.028793076 0.14033449 0.015077464 -0.02015422 -0.11499832 0.100214586 -0.13795789 0.096464045 -0.08518877 0.0045100353 -0.12915504 0.09943251 -0.050612163 -0.079858854 -0.11584587 -0.09042553 0.0041155494 -0.12567455 -0.045862608 0.13773064 -0.042943344 0.055507418 0.02728795 0.029049793 0.054410484 0.084655926 0.055249967 0.1365336 0.08716591 -0.14568737 0.09235202 -0.038987774 -0.02085199 0.009660339 0.00020048954 -0.09109204 -0.09645827 -0.0060748993 -0.1445251 0.11615796 0.05589443 0.081042506 0.07788274 0.008415468 -0.040070817 -0.13151678 -0.06517604 -0.010030848 0.10521299 -0.10031693 0.12273309 0.004544797 0.079709604 -0.087520495 0.09734597 0.011980408 0.06280135 0.09903449 0.099778004 -0.115212776 -0.07998773 -0.072243735 0.012656929 -0.116278045 -0.04267617 -0.10987053 0.01761168 0.08608662 0.07342533 0.14099388 0.09373083 0.12686498 0.06699462 0.09703963 -0.021102134 -0.0918813 0.033553783 -0.050940227 0.09025583 0.08108765 -0.04096195 -0.1234076 -0.015384689 -0.039744563 0.051713865 0.05104236 -0.1126861 0.083676614 -0.095710024 -0.03588176 -0.13041869 0.10290068 -0.0924782 -0.12576538 -0.012705927 0.013890084 0.029496549 0.1319709 0.047494218 -0.09059768 0.07835223 -0.08345268 0.06900189 0.12949952 -0.042186406 0.088293046 -0.0161008 -0.08409128 0.09170812 0.019023562 0.09292496 0.1152605 -0.11186009 0.085253686 0.015822375 0.011114578 0.075370304 -0.11152619 0.021500856 -0.00041564385 0.009541868 0.098917775 0.026252205
36 -0.117536254 0.12217756 -0.019371934 -0.04505479 0.0381058 0.03811153 0.027980605 -0.11555723 -0.0073280693 0.0063438206 0.020792376 -0.064260125 0.05695235 0.051302288 -0.14009634 0.09269272 -0.04806859 0.03771854 0.055629082 0.05709123 0.024955627 0.10827966 -0.044157624 0.061876327 0.01755897 -0.079601206 0.0986228 0.015245737 0.063350454 -0.12215597 -0.066824965 -0.069537506 0.05747201 -0.05562567 0.014496525 0.120833255 -0.105008304 0.121693335 0.10273584 -0.12680627 -0.03411083 0.019437447 0.08029521 0.10822483 -0.090520285 0.004665903 0.041799694 -0.09967048 -0.057634246 0.11114632 0.023723409 0.008732838 0.08286167 -0.028844412 0.08030941 0.1104447 0.062339302 0.09855679 -0.115466446 -0.111941345 -0.020855105 0.08674438 -0.115133904 -0.11322123 0.024650622 0.13368465 -0.100773625 -0.021333816 -0.045617454 -0.11296262 0.016987057 -0.056965273 0.12470404 0.054117136 -0.13227104 0.0053517683 0.113421254 -0.030211726 -0.05181191 0.0574173 -0.10030573 0.080961525 0.05751905 -0.06648533 0.008304333 0.04178449 0.11132774 -0.021937106 -0.041492306 -0.00022577908 0.013466101 -0.061916318 -0.09463556 0.04802678 -0.11253949 0.0076662833 -0.066823214 0.089009926 0.02641084 -0.0029611944 0.069394685 -0.05063522 0.13470277 -0.012758917 -0.060595535 -0.12866075 0.08790078 -0.11519325 0.013076463 0.054358795 -0.023806848 0.028525624 -0.10659958 -0.119258836 0.023638079 -0.014504666 -0.042242177 -0.091454744 -0.0012741052 -0.021263538 -0.1200481 0.09886855 -0.105976656 -0.1374722 0.095689096 0.1247017 -0.07190869 0.043223828
37 -0.018049888 0.015809348 0.07702372 -0.0129675325 -0.05851708 0.0014358689 -0.010417326 -0.0025784783 6.9676695e-05 -0.014976576 0.046747506 -0.000100194215 0.06952254 0.08315158 -0.13204579 0.0647589 -0.0797853 0.04331033 -0.1454634 0.025592571 -0.013776074 -0.10948629 0.09393958 -0.03624682 0.039268013 -0.08035413 -0.018922562 -0.036211517 0.0736548 0.036495525 -0.078201644 0.018827152 0.03905408 0.075111255 0.08418667 -0.02671126 -0.10041211 -0.100018136 0.100919016 -0.025983319 0.015307282 0.11175743 -0.116909176 0.078463726 -0.011903886 0.10705511 0.0015638908 -0.10837042 -0.100766964 0.084746584 -0.10195268 -0.110482424 0.0016095629 -0.010473169 0.020567637 -0.07084192 0.08211013 0.037879262 0.031267695 -0.0618403 0.038322486 0.08211953 -0.09595099 0.06473284 -0.07665097 0.037247173 -0.04103519 0.10252046 -0.031179367 -0.051159613 0.097131275 -0.025139095 -0.05053292 -0.07625555 -0.10944329 -0.014208051 0.0009047201 0.0068818675 0.017151905 0.022082908 0.0861742 -0.122330055 -0.082962066 -0.043805536 0.117183864 -0.07502963 0.09406697 -0.060525045 0.030907083 -0.025941458 -0.033309817 0.08192161 -0.12051739 -0.112239294 0.0902695 0.122595005 0.098704614 -0.09351671 0.11354931 -0.11390981 0.034221683 -0.11647913 -0.009410714 0.12801757 -0.11833763 0.12659995 -0.018157722 -0.13060449 0.13075598 0.030129815 0.11504337 0.088861644 -0.06199175 0.06878248 -0.08577626 0.0850385 -0.1334003 0.074321106 -0.05476057 -0.021401644 0.07287221 0.063102536 0.012233672 -0.08610152 0.051075 0.049068086 -0.13089757 0.12853204
38 -0.06678464 0.13506626 0.06815142 -0.112354256 0.07329958 -0.090790994 -0.10152516 0.041091774 0.07123189 -0.045770247 0.0799124 -0.05863631 0.11240961 0.1297371 -0.018660055 0.034201533 -0.08793201 -0.083082706 -0.07369787 -0.07361114 0.043997522 -0.14508377 0.014083852 -0.12428249 -0.062294457 -0.0021374896 0.11426737 0.06673312 0.034997564 0.090614595 0.11647806 0.025904102 0.06682067 -0.13503179 0.06215238 0.026686797 0.0830823 0.136039 -0.12798752 0.090132706 0.07594126 -0.044422526 0.07703963 0.055828482 -0.0217886 0.010149794 -0.0637846 0.05366188 -0.04811345 0.008424593 0.06548126 -0.08510785 0.008493247 -0.03783746 -0.020695908 -0.0132695725 -0.09520233 -0.004562686 -0.031511147 0.053503305 0.033809084 -0.021106614 0.012990645 -0.0018879698 -0.023892663 0.060502216 -0.083727956 0.08614256 -0.12104402 -0.1391189 0.028969605 -0.07063207 -0.043692265 0.10447117 -0.101470485 0.11478769 0.059854776 -0.047989752 0.12994051 0.13494776 0.07317408 0.05298733 0.10274739 -0.0473372 0.1352139 0.03728765 0.029929595 0.07852158 -0.110683955 -0.09552667 -0.03079035 -0.14120436 0.059514735 -0.058715817 0.0465809 0.08372314 0.0386592 -0.010343704 0.008003744 -0.11258684 0.061833065 0.0007340356 0.0064756535 -0.05287607 -0.042193647 -0.018260164 -0.042780958 -0.051193923 0.024637135 -0.1253676 0.13893545 0.016592596 -0.084167264 0.029604927 0.054401424 0.021940129 -0.051698547 -0.039929066 0.106080465 -0.074498996 -0.1308101 -0.025153993 0.1058823 -0.13522132 -0.14764324 -0.057801522 0.11704983 -0.065377645
39 -0.10937592 0.122140296 -0.05916998 0.047937594 -0.0089360885 -0.089468054 0.11027712 0.07588107 0.013970227 0.08685422 0.0014753784 -0.06072843 -0.02760798 0.11155195 -0.0595774 0.09303953 0.017187268 0.09651833 -0.07038375 0.08515395 0.041483752 0.11673325 0.06058628 0.08972208 0.1342634 -0.1325843 0.033655424 -0.0114053665 0.05365892 -0.11890573 -0.0034494277 0.027207473 0.041511822 -0.07932794 0.047917843 -0.08340584 0.12302209 -0.0052733556 0.04052666 -0.089024365 -0.03270135 0.023235917 -0.047409404 -0.089991495 0.123728804 0.111385666 0.04701067 0.04728132 -0.08697863 -0.13453507 0.09163059 -0.13968413 -0.111860245 -0.09558035 -0.051459752 -0.025665693 0.011723935 -0.08042789 0.07578544 0.13844614 0.07431305 -0.14149742 0.08815538 -0.11074779 -0.018903332 0.111274324 0.024295714 0.12697874 -0.09382349 -0.027492277 0.0115562705 0.041624844 -0.04866661 -0.12177146 0.01323892 -0.075146 0.124081224 -0.103731684 -0.09454996 0.06533018 -0.097800486 -0.06860883 0.059134163 -0.009280123 -0.09903981 -0.023907375 0.09672626 -0.087499686 -0.11660069 0.11378266 0.05634896 -0.09203565 0.09207227 0.087178424 -0.08729924 0.0081262505 0.10226667 0.12237948 0.05828631 -0.074725986 -0.11290409 0.09355214 -0.08266597 0.06843283 0.11777459 -0.022336366 -0.06502404 0.064206466 0.10855485 -0.072963014 -0.0656297 -0.116754614 -0.09812364 0.0416911 0.05709402 0.07054442 0.13898833 0.043389704 -0.07375086 -0.11678556 -0.0964212 -0.070015654 -0.07099774 -0.0993274 0.13723712 0.1139884 0.033171017 -0.046313826
80 0.013536412 0.046765145 0.04679477 -0.087740496 0.05242975 0.079436876 -0.11110757 0.10260888 -0.034507006 -0.00697474 -0.118388094 0.069119066 0.08277745 0.050092485 0.020889185 -0.13683578 0.08866695 -0.09537349 0.047926333 0.054892506 -0.05009083 0.03649747 -0.06731488 0.109108575 0.06259292 0.05233749 -0.06962377 0.09688094 0.110064946 -0.019605678 0.036969602 -0.05897563 -0.1109493 0.07760399 -0.10508724 0.05060211 -0.07407342 0.018170968 0.06943354 0.01839795 0.1039545 -0.116483144 0.10518137 0.110927604 -0.0395684 0.10916185 0.0055035963 -0.046322975 -0.015139736 0.14720269 0.057674985 0.08080865 0.0149624655 -0.08799231 -0.08863495 -0.035526823 0.11794493 0.09994268 -0.035853017 -0.053885028 -0.015244048 0.08455087 -0.02035237 0.087386936 0.019000262 -0.08637905 -0.08355464 0.12374234 -0.046505205 0.008731244 -0.119299665 0.13765258 -0.14430913 -0.0457749 0.065047726 0.13099028 -0.051256098 0.093242936 -0.042634845 0.068055004 0.09724231 0.016879428 0.07047991 -0.059730437 0.01091579 -0.00031968404 0.025530279 -0.13835803 0.09892514 0.08189204 0.012651027 -0.02670607 -0.08138993 -0.0036910973 0.06225325 -0.0310309 0.05736242 -0.057942603 -0.0764817 -0.07961913 -0.04022759 0.029647985 0.06810578 0.085958414 -0.07589866 -0.11718628 0.13392709 -0.1043565 -0.0026865555 0.0069725728 -0.10724848 0.06848765 0.095657766 -0.06565831 0.040850796 0.11265842 -0.0085878605 0.058592774 -0.11239732 -0.07816753 -0.11373728 -0.14666608 0.11724885 0.035734076 0.10749869 0.1348213 -0.04149589 0.07865397
64 0.095892616 0.116331495 0.08972044 0.0015830239 0.0792707 0.084253125 -0.057778418 -0.042491052 -0.07888155 -0.109881155 -0.019197173 0.035437133 -0.0085831545 0.10365294 0.05372698 -0.10509592 -0.008297103 -0.1470098 0.059310652 0.030860282 0.07347752 0.06141834 0.019034946 0.06789694 -0.077219106 -0.12972882 0.011690525 -0.06754346 0.022415489 0.13166973 -0.0047495454 -0.044745497 -0.13231239 0.007982551 0.026554354 -0.07274802 -0.008911152 -0.040093962 0.060130496 -0.005107323 0.0482975 -0.029764093 0.04235541 0.10795006 0.033189323 -0.074820414 0.03171649 -0.078713305 0.12438184 -0.00983548 0.063523434 0.04720058 0.028873803 0.027957603 0.032304958 0.038294245 -0.025131412 -0.138447 0.025770104 0.085382715 -0.051120218 0.04829964 0.12588151 -0.08284188 -0.020350782 -0.08031875 -0.021572838 -0.009016553 -0.033279173 -0.10775177 -0.14797482 -0.00931601 0.062956855 -0.003388085 -0.11326358 -0.10225757 0.031609196 0.053969234 0.14939228 -0.0785628 -0.051380258 0.05632354 0.068846405 -0.093717985 -0.12810685 0.09605791 0.025329737 0.09144823 0.066484086 -0.03732395 0.13793051 0.019829338 -0.10221208 0.023897965 -0.09683681 -0.07890768 -0.004790347 -0.12774669 0.036653668 0.03949786 0.009748196 0.01184033 -0.07152637 0.08239541 0.06188934 0.045622144 -0.07174254 -0.08832274 -0.028777976 0.09019183 -0.08052412 0.011292406 0.034682944 0.10118068 0.081450365 -0.01481477 -0.034122318 -0.005986642 -0.011959414 -0.041372716 -0.13873798 0.002119848 -0.032118186 0.09341872 0.11309384 -0.0010502377 -0.03698243 -0.10401363
231 -0.08174087 0.06329693 0.046640057 0.014006876 -0.053139634 -0.0031569365 -0.077374786 0.124799035 0.08899868 -0.102726236 -0.04933312 -0.03536849 0.04618417 -0.084285386 -0.06043517 0.11227201 -0.09596126 0.060605828 -0.036485344 -0.033403985 -0.03169082 0.016116692 0.12044184 -0.09063428 -0.002268098 0.10326978 0.08371494 -0.085262686 0.09515112 0.10659849 -0.090806805 0.01385885 -0.12651826 -0.02183576 -0.0055155847 -0.02913325 0.10722457 0.07647315 -0.07938238 0.064109676 -0.046318833 0.02497991 0.08741858 0.06814562 0.035958182 -0.0024191428 0.033696275 -0.124240294 0.011958426 0.056895975 0.13186589 0.03194014 0.059820022 -0.062495954 -0.07885549 0.009639299 -0.047255713 0.12228136 -0.02407598 -0.117359124 -0.088543914 0.10451619 0.07377063 0.10685699 0.0075189765 0.06528434 -0.12321274 0.051986966 0.059482343 0.12963277 0.0051412387 -0.14414158 -0.11706323 -0.08160564 -0.08556051 -0.0027373484 -0.01612957 -0.013752965 -0.11845261 -0.033477373 -0.033614006 -0.010840646 0.03562497 0.06732906 0.05690107 0.110498026 0.043602187 0.02681105 -0.099584214 0.11197599 0.040359978 -0.12276195 0.01356324 0.11522884 0.115802504 -0.10181637 -0.027361691 0.049957946 0.03942002 -0.0084112985 0.009822304 -0.12510356 0.097095735 0.11786443 0.016839156 -0.108528264 -0.009784454 0.015904076 -0.1379391 0.018400067 0.031629167 0.10158376 -0.06156412 0.12186106 -0.012549463 -0.12388591 0.08947231 -0.1245754 -0.06402224 -0.05847891 -0.05606925 -0.075352095 -0.0013014886 0.111422926 -0.019957516 -0.08352112 0.04920562 0.021969508
237 -0.020177986 -0.120523885 -0.12897505 0.06618879 0.012607311 0.029198207 -0.1004116 0.107920475 0.09719801 0.038277633 -0.12710755 -0.13146117 -0.06002828 0.07557952 0.14317782 0.06430858 -0.09307514 -0.12242332 -0.069930896 -0.004148076 -0.1084221 0.04580992 -0.023201078 0.04331326 0.104348354 -0.08284796 0.11894092 -0.037152756 -0.084043264 -0.043270256 -0.121604495 0.011275913 0.02336261 -0.12874459 0.09774078 -0.022372883 0.06703826 0.07164271 0.12655458 -0.11271896 0.10798229 -0.06664587 0.06824827 0.003725854 -0.05082562 -0.10004636 -0.041439213 -0.035605997 -0.046240468 -0.119007505 -0.06890499 0.08675526 0.104069665 0.030825982 0.110611275 0.12082 0.09807639 0.050870292 0.118468575 -0.056528695 0.072119966 0.049454775 0.08787193 0.048715193 0.10860164 -0.06698811 0.018802635 -0.12724155 -0.097552635 0.12761809 -0.08176851 -0.14033636 -0.12078741 -0.026546033 0.0053312914 0.041813727 0.061189298 -0.05486028 -0.08522357 0.0076193595 0.07501037 0.10496663 -0.12545882 -0.01587048 0.008507955 -0.08752707 -0.1376926 0.12368989 -0.13866279 -0.10833599 -0.09979338 0.06305212 0.12492776 0.07876356 -0.06797839 -0.08909618 -0.05592468 0.023836026 0.09481591 0.036571503 0.017114822 0.008576888 0.012023058 0.05828483 0.046030175 0.06425031 -0.10644818 0.022704992 0.050038204 0.13658401 0.052027836 -0.07103406 -0.0690772 0.12697078 -0.028398085 0.15236677 0.031119375 0.08702931 -0.03785043 -0.09298986 -0.06856578 0.060061466 -0.14309785 0.059901267 0.08754963 0.11300062 -0.05518717 -0.10162445
238 -0.08699212 0.119870625 -0.025026696 -0.11993057 0.060267206 0.054516733 0.0048825494 -0.03195707 0.12480492 -0.03422435 0.04381053 -0.11642973 0.030123817 0.06586695 0.05492137 -0.08514204 0.037927095 0.057240274 0.09877989 -0.01833089 0.0132210255 -0.13916022 -0.01846308 -0.0045801518 -0.019308267 -0.03823373 0.057648886 -0.0418095 0.11907899 -0.031923838 -0.00077363953 0.06794149 -0.02541785 0.014243573 -0.0184964 -0.012663466 0.08550452 0.068646304 0.11203369 -0.0312209 -0.0030931358 0.09614007 -0.03810226 -0.061581314 0.09421348 0.07616449 -0.040866345 0.13321704 -0.12636247 0.13414587 0.12971349 -0.05850915 -0.00091613154 0.043980654 -0.04079565 -0.02795188 0.08972724 -0.073244125 0.07657215 0.053718574 -0.116685055 -0.0679046 -0.045995995 -0.11220236 0.020014217 -0.024278853 0.020810809 -0.06402849 0.010610466 -0.046801962 -0.043037686 -0.09677157 0.016195849 0.11681421 -0.026574124 0.035488877 -0.019067971 0.014599825 0.07638446 0.05508515 0.09462083 0.022429612 -0.042942163 0.01088774 -0.050985757 -0.115838595 0.09079313 -0.04586872 -0.013549068 0.12731917 0.03493325 -0.016864492 -0.075343825 0.10861815 0.12356997 0.07706651 -0.11345945 -0.071525015 -0.058955405 0.07500919 -0.092275426 0.014471543 -0.09581091 0.06293681 -0.109129064 0.10401479 -0.028278852 -0.15503614 -0.09110765 -0.10941813 -0.037175953 -0.09437564 0.030680073 -0.09926935 0.084462084 -0.07016137 -0.040573902 -0.1300445 0.11499755 0.018534053 0.118205346 0.027351648 -0.043913823 0.063197814 0.093171746 0.11276887 -0.05484653 -0.011779382
243 -0.011994505 0.048756093 0.108619004 0.010419524 -0.07937242 0.033070035 0.09530004 0.11398042 0.14901839 -0.12505184 -0.04142251 -0.13503914 0.057261538 -0.010503473 0.13518605 -0.071723916 0.098889686 -0.076996066 -0.024006547 -0.16171604 -0.07143642 0.048572652 -0.1142773 -0.10114543 -0.006251428 -0.0097884815 0.0055221757 -0.12179307 0.034687776 0.08583281 0.09596767 -0.0054268064 -0.018475354 -0.08838678 0.056571428 -0.00064013567 0.09265181 -0.018166687 0.034444626 0.0033137454 -0.07197661 0.008595069 -0.0007311473 0.022999516 -0.008941387 0.10792448 -0.07330736 -0.008650183 0.053937837 0.005532031 -0.023988396 0.06418433 0.14465171 -0.057453547 0.023630083 -0.11992998 -0.106458396 -0.062671594 0.109172255 -0.08742856 -0.090307675 0.12393956 0.06502598 0.09184106 -0.03796991 -0.043650452 0.036588144 -0.10427307 -0.045164682 0.0046745893 0.029825917 -0.12033801 0.10263066 0.045208797 0.07316338 0.11595931 0.022453213 0.045785524 0.12043805 -0.06120539 -0.00093032874 0.13813992 0.11296301 -0.12879084 0.07999075 -0.062903374 -0.04147916 -0.07071208 -0.08936526 -0.04189536 -0.03228237 -0.008815652 0.1434805 0.07471478 0.10670244 -0.033519097 -0.002723833 -0.0028390859 0.08268283 0.06301878 -0.07906722 0.0916273 0.043884713 0.030146912 -0.107661776 -0.1597268 0.037489716 0.10009306 -0.029136654 0.026906904 -0.054555785 0.08125064 0.014822634 -0.03380185 0.04130258 -0.012457745 -0.013232208 -0.110025585 -0.13898826 0.08714398 0.05054445 0.11330922 0.03162634 -0.059286233 0.07373371 -0.035906184 -0.035859693 0.044048157
244 -0.1443437 0.10578813 -0.09170612 -0.08398533 0.034525525 -0.10439985 -0.014893854 0.031097248 -0.04864303 0.0464496 -0.031732447 0.026207194 -0.09864075 0.048696347 0.092779234 -0.103985555 -0.02239173 0.13568892 0.034508582 -0.0076001473 -0.022086453 0.123831734 -0.003859131 0.028399577 -0.008064924 -0.015459832 0.065454565 -0.07209214 0.1131331 0.00256403 0.05425774 0.14292865 -0.05034524 0.06505361 0.1351289 0.124062285 -0.0801909 0.12898271 -0.04038414 0.05248707 0.14537711 -0.122305274 -0.011134207 0.082716934 0.13745452 0.0017825735 -0.06601235 -0.01412524 -0.078176335 0.054249503 0.06788054 0.046942838 -0.1023615 -0.056091532 -0.021975458 -0.12570573 -0.043097794 0.045126777 -0.006156606 -0.11429081 -0.04788423 0.12867507 0.11103922 0.03544245 -0.06985859 0.123114295 0.048101217 0.084340535 0.034125056 -0.012575088 -0.0824849 0.0832537 -0.12963587 0.08041231 0.04908179 0.13919564 -0.06836124 -0.036124505 -0.11788348 -0.14076732 0.05380369 0.076940045 0.042132914 -0.12302874 -0.005170509 -0.06979026 -0.114078626 0.08554942 -0.08815288 0.10102138 -0.08782741 -0.038882226 -0.04203401 0.017341083 -0.10916541 -0.12212578 0.1287575 0.077705815 0.056548912 0.07872582 0.026063466 -0.14023411 -0.016195243 -0.121249236 -0.034034494 0.053889375 -0.06889438 -0.09927909 -0.05847128 0.024061037 -0.049655207 0.13482957 0.06621978 -0.09653866 -0.015406528 0.01946483 0.072643094 0.090515345 -0.14926438 0.095776014 0.016760984 0.13516952 -0.14193802 -0.13603055 -0.077999614 0.09453537 0.12343494 0.058992933
3 -0.06474093 0.15104555 0.12041888 0.09709213 0.049379483 0.08623044 0.06606256 -0.10133462 -0.109133445 0.06944578 -0.059600737 -0.051160596 0.015626566 0.078276485 -0.038607914 -0.068054564 -0.028860668 0.11308662 0.017120225 0.12613414 0.13294694 0.043895528 0.08543802 0.030289827 0.08483243 -0.062186416 0.020733666 -0.012187556 -0.03244217 0.087804735 -0.040221203 -0.018969612 0.09072476 -0.12493275 -0.027670527 -0.066267654 0.10657625 -0.03642294 0.06702604 0.12048236 -0.0136557575 -0.100946955 0.022332367 -0.11235182 0.012791205 -0.12621163 0.114938006 0.022937717 -0.050491262 -0.009044399 -0.06260386 0.05129122 0.025145205 -0.07663786 0.15143909 -0.01384623 -0.089212775 0.13564017 -0.001832327 -0.002056789 0.10577051 0.05991379 0.011935167 -0.058592264 -0.1265305 0.0909301 -0.10537925 -0.05705515 -0.03480195 -0.078730516 0.116438754 0.08762451 0.0027131415 0.093102686 -0.036326826 0.097433604 0.112308495 -0.044679962 0.048532415 0.003215989 -0.09162394 -0.028036274 -0.11880127 -0.06787923 -0.09751981 0.046013236 -0.076730296 0.0876091 0.1090044 0.09194659 -0.0010907375 0.10617428 -0.1270252 -0.0508654 -0.12115752 0.12553082 0.030606534 -0.03102809 -0.10262257 0.11892275 0.11947403 0.11129755 0.010708347 0.039251532 0.013227486 -0.08249234 0.090912916 0.07247122 -0.043725178 -0.044789083 0.021372804 -0.13449153 0.05568205 -0.014288604 -0.079077 0.12026217 0.11404327 0.09779287 0.07458856 0.06754554 -0.09904629 -0.059000473 0.1175127 -0.0917055 0.07641809 0.10515087 -0.0043589766 -0.115474366
4 -0.11867102 0.093483575 -0.09716197 0.07552813 -0.014530891 0.06446651 -0.07468662 0.10247876 0.09841241 -0.017000971 0.11192905 -0.1356116 0.030106768 -0.09517313 -0.014228357 0.07679601 0.042379312 0.046945866 -0.03356077 0.035659928 -0.005064868 0.10930549 -0.12775517 0.031152781 -0.03019256 0.11472169 -0.057551894 -0.1397713 -0.04976608 0.13019428 -0.111018986 0.115798034 -0.047630657 -0.05630898 0.017283363 0.102529705 -0.040717974 -0.013105859 -0.10285158 0.03907824 -0.006179699 -0.13504842 -0.08202008 -0.06774145 -0.020575035 0.077672206 -0.101636656 0.02309473 0.14550674 0.040326066 -0.03409057 -0.009206026 0.103401296 -0.020400833 -0.121886194 0.0767292 0.03796417 -0.10253708 0.005061269 0.11005774 -0.0135634085 -0.012734989 0.016237734 0.088557 -0.14294367 0.083060466 -0.048348106 -0.019244501 -0.10876574 0.11593367 0.042562015 0.124737516 0.011968491 -0.07154272 0.06655059 -0.050283056 0.080341615 0.04420551 0.089866035 -0.07476178 -0.034168746 -0.12872607 0.05271135 0.014092948 0.009134364 0.07715212 0.09864407 -0.13702035 -0.10259618 0.12036221 -0.033218067 0.121105745 0.030287884 0.032651365 -0.09395112 0.05251251 -0.117627345 0.13934387 -0.1100046 0.08096291 -0.028835632 -0.050995562 0.03652039 0.015440991 0.044298343 -0.14320847 -0.101266146 0.108822316 -0.11193186 0.12747735 0.054685373 -0.05484558 -0.14589177 -0.09218167 -0.03823311 0.12492883 0.024081763 -0.05781851 -0.04073022 0.113754064 0.12206353 0.11828714 -0.083496265 -0.1129594 0.11251181 -0.08321733 -0.05721369 -0.015594679
5 0.0054690083 -0.068456076 -0.06978988 0.013118826 -0.006500141 0.01169213 0.07800634 -0.13128532 -0.11230505 -0.096808404 -0.08805893 0.044563577 -0.12732606 0.00016522378 0.09673078 0.08904442 0.08856801 -0.058721125 0.06648446 -0.15205805 0.11636864 0.061880223 -0.0131046185 -0.059658792 -0.040087793 -0.14831854 0.11759894 -0.09237496 -0.10118521 -0.11249238 -0.11773404 -0.043607693 0.04600219 0.05328636 -0.1320794 0.084375575 -0.021631861 0.043051798 0.057504278 0.07391009 -0.09869316 0.025047384 0.113046065 0.08570461 0.12540285 0.11618207 -0.072272904 0.055899657 -0.104780674 -0.09078621 -0.011170672 0.06648367 0.06790501 -0.08814607 0.12671572 0.042550337 0.1129873 -0.109278984 -0.03295875 0.047477454 0.1002039 0.06460318 -0.04035321 -0.04077284 0.10897947 0.01738671 0.07312814 0.07245836 0.028291518 0.0008136554 -0.1242994 -0.1295681 -0.112722866 -0.07055629 -0.008278294 -0.009710773 -0.12950048 -0.048057687 0.03375324 -0.03170714 -0.028246123 0.032168936 -0.11558369 0.14119568 -0.10662451 0.008392876 0.02235079 0.057590127 0.13526842 -0.019678852 -0.03754031 -0.06940386 -0.03387899 -0.0049635535 0.016772225 0.10197801 -0.09529039 0.10721695 -0.108060144 0.09933399 0.08165124 0.1295908 0.1237614 0.014146164 0.090817936 0.07580164 0.12727123 -0.0581182 -0.035473272 -0.09143672 0.09165275 -0.12748757 -0.094510004 -0.025682308 0.13187668 -0.13069223 -0.10117094 0.0728915 0.023904957 0.041063342 -0.08465379 -0.15367988 0.10911143 0.048892684 -0.104053825 0.054806273 0.030153647 0.1256056
6 0.13908042 -0.07189733 -0.08457268 0.025040094 -0.029189195 -0.12663348 -0.069927216 0.023046797 -0.070391186 -0.025477542 0.015738184 0.1121299 0.12791367 -0.071206406 -0.004017735 0.036864463 -0.005490788 0.100852676 0.11181359 0.07281233 -0.084472366 0.06795428 -0.10306926 -0.028001545 0.044514846 -0.02534321 0.11835592 -0.035923395 0.11985033 -0.096045926 0.12402096 -0.04426044 -0.017622847 0.012121959 0.07501577 -0.11051012 0.08838633 0.028978394 0.03374158 -0.042517282 0.0868945 -0.09489265 0.030159863 0.09191436 0.09693432 -0.11913372 -0.007156106 0.034245536 -0.13057536 -0.11045385 -0.04456199 -0.10120604 0.04570888 -0.024959007 0.12410032 -0.07374389 0.06599485 -0.02382277 -0.12837628 -0.0077152355 -0.02447907 -0.024870107 -0.10654112 -0.09059612 -0.017512864 0.04497487 0.09256934 0.005719967 0.13593434 0.13310878 -0.05519784 -0.04441048 -0.08382518 -0.13582273 -0.051711265 0.03680914 -0.054080114 -0.08052231 0.061839268 -0.059559707 -0.01356874 0.10325882 -0.09870221 0.06630153 -0.021849561 0.020508604 -0.054386426 -0.088242486 0.0934782 -0.08569765 -0.071462326 -0.10955398 0.053227454 0.03574671 0.112073705 -0.00076734787 -0.0027799928 0.0819187 -0.081872374 0.14233428 0.12870985 0.09287784 0.088519126 0.022264788 -0.057389036 0.084067866 0.08656891 -0.012326155 0.08950334 -0.09694613 0.1428693 0.08952215 -0.14285725 0.057294924 -0.05019058 0.031236973 -0.084709324 0.094158985 -0.11122164 -0.05935964 0.11823426 -0.11305677 0.06301646 -0.13198134 -0.0017074433 -0.027905354 -0.006597677 0.1314679
7 -0.0069181975 -0.10686122 -0.044261508 0.103083245 -0.06711918 0.08562004 0.034418277 -0.0598903 -0.08521545 -0.100632854 -0.06318549 0.13063903 0.1025404 0.0817525 0.0032299994 0.010678293 -0.10152158 0.06811901 -0.08544451 -0.11868599 -0.020738173 0.07653381 -0.030877218 0.08099191 0.056549266 -0.1077711 0.053554952 -0.021177767 0.11733059 0.115248255 0.12272789 -0.0048609423 -0.107187994 0.10849886 -0.088324696 -0.009602955 0.0964681 -0.09919086 -0.00025075758 -0.08993608 -0.004650312 -0.04888258 0.1314642 -0.065750435 0.067439765 -0.12469772 -0.047982734 -0.11283853 -0.08029411 -0.11099585 -0.012015826 0.036174692 -0.03459908 0.0025049709 -0.018950677 -0.08383041 -0.014394362 -0.014314507 0.013406364 -0.03457296 0.043512415 0.081441805 -0.12465614 0.10740152 -0.061138272 -0.15147758 0.13833977 0.09115801 0.04683493 -0.010815048 0.08639675 0.06987533 0.018412856 0.03526253 -0.08163728 -0.020514512 -0.1427054 -0.016624084 0.14775044 0.12472149 -0.07947912 -0.050166234 -0.0024465825 0.036806207 -0.044368118 0.06433179 0.07943861 0.013232156 -0.1069515 0.09467396 -0.119931735 0.12766798 -0.06270214 0.06931249 -0.05982141 -0.00413888 -0.13506748 -0.04153179 0.07699059 -0.031554792 0.03483909 -0.06120648 0.008433056 0.07145529 -0.11480108 -0.022686247 -0.14886257 -0.12470485 0.099725895 0.06638763 0.029670889 0.024998141 -0.13937901 0.05851347 0.13489039 0.026541552 -0.0069054826 -0.07941965 0.092793845 0.12050567 0.13412872 0.033447083 0.080729246 -0.0140561545 0.0549802 0.04420936 -0.088919245 0.08384061
8 -0.11367625 -0.07982923 0.049085412 -0.098127395 -0.13220334 -0.07508712 -0.06932605 -0.042086717 0.050271135 0.02236069 0.13020743 0.025435565 -0.013864964 -0.031083398 -0.103470854 0.055637497 -0.06413342 -0.019564252 -0.09617698 0.081205525 -0.018515253 0.028150508 -0.15263711 -0.05534693 0.027696542 0.03629741 -0.11089065 0.12646285 -0.09056324 -0.0287872 -0.11004477 -0.0166324 0.1365114 0.09873513 -0.14159438 -0.07958972 0.12126821 0.012016301 -0.13679773 0.02414068 0.067354284 -0.048217468 0.069484636 0.06828811 0.0020175683 -0.06842704 0.10324746 0.05884224 0.12847322 0.08779251 0.09569328 0.048439052 0.023067776 -0.13359758 -0.0042898217 0.0968495 -0.13982151 -0.037038743 0.0606967 -0.092134684 0.00053637987 0.06421899 0.10296166 0.07037681 -0.08124739 -0.028186588 0.06080449 0.09419687 0.0628215 0.0760034 -0.05749178 -0.11661314 -0.05315802 -0.021349618 -0.102223106 -0.07447183 -0.017260445 0.10214106 0.109176435 -0.016641041 0.0075675244 0.010210396 0.08074388 -0.061084658 0.05338595 0.10216915 -0.021704795 0.13192022 -0.095745385 0.09332083 0.10956045 0.099114075 0.11101714 0.019769177 -0.05849123 0.012836327 0.10628448 -0.053605217 0.013965846 0.061482377 -0.120787084 -0.088046804 -0.13495602 -0.0039452533 -0.100027055 -0.12341905 -0.083060965 0.12955543 0.044931445 -0.0977093 -0.11778866 0.1131449 0.075484216 0.052804153 0.03708762 0.047525987 0.10234352 -0.09565228 -0.028325932 -0.11165597 0.087406434 -0.11238928 -0.0144740725 0.09023321 0.02319426 -0.106772825 0.062582664 0.10766271
9 -0.11021008 0.03726057 -0.047504332 0.12205594 -0.089162074 0.1236388 0.07138528 -0.11682258 0.1201642 -0.13396832 0.040823422 0.0448966 0.0050428244 -0.09476851 0.008908942 0.122022614 -0.0948144 -0.012783918 -0.023662329 0.0781262 -0.034814995 0.033032287 -0.14265573 0.122628935 -0.09280474 -0.053482864 0.0893269 0.0076553226 0.12239184 0.009217576 0.08549699 -0.113483645 -0.056605663 -0.12933473 -0.11013988 -0.021451335 0.027109597 -0.08320949 -0.11061091 0.12708099 -0.022693232 -0.04738776 0.106838524 0.076992415 0.05616178 -0.004822613 -0.008301383 0.09223508 0.122726455 -0.13200453 -0.010196771 -0.004668467 -0.07601489 -0.0060288464 -0.11674476 0.0924367 -0.12770551 0.11889224 0.1270538 0.0449524 0.051836014 -0.075753726 0.1420726 -0.06930346 0.064444266 0.011412178 0.099473685 0.101554595 0.02275428 0.059372403 -0.009220731 -0.009258458 -0.014261496 0.032528535 -0.05931182 -0.09918806 -0.026203867 0.058439992 0.03802103 -0.021601483 -0.09694259 -0.011354391 -0.12761524 -0.077786535 -0.02964708 0.08048895 0.1279444 -0.0792179 0.15924788 -0.05907872 0.00046245503 0.05206215 0.051272452 -0.0679005 -0.05093592 0.051138543 0.068110876 0.14712855 0.109661475 -0.10260021 -0.054398257 -0.098237395 0.025414526 0.050637014 -0.011789362 -0.1494283 -0.08892644 -0.0031844494 0.11574019 0.15516381 0.10099671 -0.10613573 -0.091380544 0.0116424 0.027980555 -0.04055959 0.038471576 -0.05746598 -0.071600184 -0.015809892 -0.040848877 -0.08353996 -0.11205065 -0.030659853 -0.10177909 0.014573173 0.02836409 0.11190887
10 0.02475024 0.08604949 0.1402161 -0.11292537 -0.07287672 -0.014432687 -0.10052236 0.10088199 -0.07531457 0.044567384 -0.11845008 0.016071953 -0.010260778 -0.0920686 -0.11021469 0.039062448 0.108753204 -0.04388403 0.026549958 0.07480395 0.116806045 -0.09435037 -0.09985759 -0.11804096 -0.1257509 -0.011745277 -0.029896367 0.029976469 0.073742196 0.0010377538 0.004037664 0.108043455 0.04244332 -0.0064990916 -0.025991589 0.030535072 0.060288593 0.018678227 0.10787163 0.14728233 -0.012407683 -0.15127032 -0.13390015 0.00501561 -0.04270698 0.07481537 -0.057854325 0.06896256 -0.12137093 -0.010218174 0.024865083 -0.07816559 0.07984905 -0.08341516 -0.040580958 0.08472904 0.03359684 -0.050636087 -0.06113127 -0.030747226 -0.017527167 0.077016264 0.030275268 0.0056160865 0.09555746 -0.023562321 0.0679346 -0.082802854 -0.07256811 0.016067222 0.11829717 0.12735823 0.0016329003 -0.16182815 0.13303411 -0.01885192 0.11604212 0.07472132 0.05925698 -0.008446201 -0.0880938 0.06107163 0.066711135 0.011147418 0.051058494 -0.07393167 -0.10451664 0.0102774985 -0.051916324 0.07981188 0.036760163 -0.11495762 0.105178356 0.07491823 0.025297694 0.089527175 0.07658436 0.1214663 -0.04933142 0.07297691 -0.11687787 0.08967249 0.070306584 -0.010966163 0.10982355 -0.028868265 -0.011599396 0.05765577 0.0075025926 -0.012164136 0.031771664 -0.054862592 -0.06553388 0.11207719 0.028095327 -0.061258152 0.046947118 -0.09998813 0.081386454 0.05476857 -0.08272572 -0.047973324 0.056254257 0.13172494 -0.11474341 0.1279572 -0.12244313 0.08822
11 0.121547125 0.04306595 0.12829162 -0.109528616 -0.04366657 0.11536197 -0.03769112 -0.051084075 -0.12647296 0.044532776 -0.028173957 0.10355886 0.09735266 -0.019809127 -0.006171181 0.1188532 0.020211717 -0.013259282 0.078058034 -0.05174116 0.11968488 0.06490392 -0.06467151 0.07200866 0.022864694 -0.07271189 -0.027844176 0.07237589 0.06958668 0.08157639 -0.012972829 0.110668786 0.12872282 0.10703179 -0.13790971 0.07164875 -0.0038960585 -0.040718906 -0.063349836 0.0501429 0.021369003 -0.13834055 -0.10673755 0.10739809 0.14042969 -0.0042753424 0.013480893 0.09300247 -0.14255162 0.006794428 0.03391442 0.020393686 -0.13463005 0.021728922 0.08922893 0.017356373 -0.14755379 -0.08538297 -0.03845736 0.10367708 0.15263815 0.06344036 0.098166645 0.110903576 0.101219684 0.049475346 0.09623417 -0.12814814 -0.0918301 -0.05111632 -0.101124674 -0.11169966 -0.077334024 -0.052916978 0.08157023 0.029862996 -0.14451969 -0.080998905 -0.08689685 0.10896245 -0.14780797 0.07481297 0.11246082 0.1143064 0.055979062 -0.0054830234 -0.07448599 0.009119478 0.12501994 -0.1461148 -0.12714936 0.049951453 -0.08116281 -0.14247283 -0.022636179 -0.093751535 0.121727034 -0.06899386 -0.084421925 -0.022128463 -0.06580599 0.101622924 -0.030824931 -0.065908656 0.10400657 -0.09928543 -0.045174807 -0.12182668 0.04901644 0.049417153 0.033079635 0.110462956 -0.1367906 -0.023873322 0.009581278 0.10160694 0.13756202 -0.14778696 0.036090534 0.053404216 -0.1183679 -0.093485646 0.11326437 -0.07596985 -0.10486161 0.042324122 0.116925396 -0.075726554
12 0.020511398 0.0017009701 -0.051050875 -0.06314883 0.05933535 -0.10186815 0.020471785 0.001121909 -0.041890122 -0.035468094 -0.002009634 0.13163842 0.1056696 0.0027844845 -0.0075013163 0.10492798 0.15448357 0.017860837 0.13390383 -0.049043015 0.11780487 -0.022638282 -0.028383555 0.053565904 0.057568662 -0.09240163 -0.134456 -0.05293873 0.045086835 0.06484684 0.040133175 -0.031244926 0.13556816 0.008280995 -0.10809639 0.094485395 0.08854252 0.10858951 -0.1693078 -0.026520684 -0.101019606 -0.00841209 -0.08216765 -0.13197894 -0.11248981 0.011915433 -0.13389911 -0.13702708 0.063525304 0.05325837 -0.15447682 0.010505587 -0.060925547 0.0051997583 0.06971806 -0.06977202 -0.08621266 -0.06467701 0.023252103 0.027991492 -0.02491702 0.076594956 -0.022439003 0.10051448 -0.13407576 0.009741401 -0.040652175 -0.11191848 0.038822375 0.044176027 -0.010640496 -0.062169876 -0.08251355 -0.020885414 0.12827832 0.01414507 0.054599673 -0.101836145 -0.008278998 -0.079151586 0.046968944 0.025505306 -0.11828931 0.023505472 0.052664436 0.009375303 -0.060381483 0.070684865 0.09834427 -0.020448133 -0.14530304 0.030708082 0.052109 -0.07396357 -0.0800656 -0.02054181 0.11665714 0.039085425 -0.06007695 0.02641249 -0.05483536 0.09359941 0.04400457 0.011503773 0.12942657 0.09230766 -0.03954399 0.08935819 -0.11937328 -0.041000348 -0.06314891 0.055973854 -0.040500455 -0.13307023 0.0762479 0.011947381 0.03885178 -0.12772161 -0.003976055 -0.045906696 -0.013705987 0.07633599 0.016287055 -0.09273184 -0.07318105 -0.064339526 -0.07821866 -0.0972733
14 0.121784925 0.03607661 -0.0053504533 0.05107334 0.061129306 0.0341 -0.054258384 -0.013491146 0.00026840874 -0.023532337 0.02932269 -0.062020373 0.11295175 0.012667251 -0.08482061 -0.060456805 -0.14150254 -0.076702334 0.021987379 -0.12320184 -0.04716769 0.0015338009 0.11136303 0.11988337 -0.09860441 -0.10027407 0.12167341 -0.05372432 0.053409256 -0.12840416 0.10987961 0.102113836 -0.07270194 0.12794112 0.076888114 -0.10008367 -0.036314595 -0.04787782 0.13326794 0.026551463 -0.061471224 -0.1288658 0.021394443 0.15451159 0.029844673 -0.0092989085 -0.036136936 0.028670877 -0.022630885 -0.1351762 0.014439181 0.0403793 -0.06329521 0.07068267 0.04616224 -0.0010641641 0.14427966 0.080660574 -0.07806138 0.07142693 0.044553153 -0.11303206 -0.048349325 0.07251711 -0.0425328 -0.056129135 0.06379422 -0.015629677 0.029103331 -0.0025915704 -0.08412527 -0.041229766 0.042810608 -0.09292737 0.077506095 0.10696428 -0.060188472 -0.06587041 0.021589411 0.13229509 -0.028968487 -0.019035386 -0.0030025695 -0.072943255 0.07788607 0.13067846 0.1374434 0.06775578 0.048382446 0.040298354 0.049952976 0.057270683 -0.081472926 -0.10763405 0.076202914 -0.09900117 -0.029251073 0.07457344 -0.12194671 -0.09964387 -0.048660018 0.014509567 -0.07023128 -0.043723818 -0.11348882 -0.11867372 0.122422345 -0.09544586 0.102033 -0.08504604 -0.08141786 0.040076874 -0.019457022 0.07907041 -0.11315001 -0.09023322 0.091707535 -0.110865675 -0.05839809 -0.12936501 -0.03381542 0.12853523 -0.04179038 0.073421665 -0.120613 0.025735345 -0.009785022 0.09395082
15 0.0585097 0.12417252 0.09764475 -0.0020000946 0.06591446 0.11323583 -0.08604807 -0.036727924 -0.12397299 -0.036550753 0.07655301 -0.051594935 -0.0039245305 -0.08833984 -0.12083396 0.12867413 0.098844774 -0.12950581 0.1090591 -0.047519907 -0.10449948 0.068817936 -0.050135843 -0.087224364 -0.12609503 -0.10352868 -0.05703764 -0.054309174 -0.036886506 0.021635897 -0.10308415 0.019972641 0.13338108 -0.10529944 -0.13392957 0.10511827 0.1003573 -0.09173116 -0.03368546 0.022622533 -0.021208124 -0.024278749 0.123525545 -0.11036151 0.10417425 -0.028791597 -0.08408594 0.0198518 -0.060020495 -0.030139616 0.018840896 0.14788085 -0.0050818697 0.058399577 -0.01890653 0.11712773 0.06367369 0.106416516 0.121207215 -0.10826814 0.14895447 -0.025693335 0.14174731 0.08951651 -0.13462357 -0.0988648 0.086096935 -0.11278131 -0.0642052 0.12951876 -0.14346024 -0.042566575 -0.13711919 0.07335142 0.06518727 -0.10883028 0.07913927 0.11758258 0.09742179 -0.08303725 -0.08383546 -0.06768312 -0.11201482 0.11346447 -0.10357674 0.04489502 0.100515574 -0.044043433 -0.03291569 0.10666678 -0.090146124 -0.07423122 -0.13172291 0.02747407 -0.09711548 -0.044502743 0.10136932 -0.05762568 0.123217724 0.06541347 -0.048631147 0.04285442 0.08296083 0.029262224 0.020462854 0.019948574 0.115651935 0.099758536 -0.09230018 0.122728124 0.0101517 0.023393197 0.060474984 -0.0019906638 0.014037343 -0.13514283 -0.019354846 0.07508015 0.10614646 0.11739134 0.024814324 -0.036784567 0.09843924 -0.04337047 0.11310505 0.07596455 0.02070954 -0.03996764
17 -0.11029189 -0.03898021 0.08079281 -0.079468705 -0.03174073 0.12980387 -0.06309483 -0.09837953 0.04762148 -0.092059 0.039423637 0.020831637 -0.07512113 -0.08350782 -0.07028983 -0.015516369 -0.12381836 0.013429746 -0.002236373 0.112948984 -0.11255777 0.110438034 0.016764197 0.12576135 0.06699776 -0.024179835 0.03245837 -0.047744676 -0.031640943 0.14121869 0.1292171 -0.062175415 0.13302583 -0.041587017 -0.060476307 -0.0020271568 0.15646987 -0.005931976 0.09461072 -0.088981695 -0.09881969 -0.1375035 -0.09537071 -0.052032385 -0.01254011 -0.13259959 -0.14910445 -0.065150835 -0.044019453 0.048654176 0.0854325 -0.03699498 -0.035550177 -0.052227195 -0.00808126 -0.09040778 -0.049034335 0.043335892 0.09844805 0.013053949 -0.079488635 -0.0280351 -0.035060704 0.0949236 0.048815787 -0.121570125 -0.023343911 -0.13790298 0.015993789 0.027948944 -0.13585077 -0.036480714 -0.009775354 -0.033083756 -0.039771196 -0.033457283 -0.115067445 0.046712555 -0.03867575 0.0293153 -0.0005719848 -0.011515348 0.09766157 0.043878403 -0.09912988 -0.09154151 -0.124857254 -0.12645116 -0.0063591297 -0.111449994 -0.036228687 0.08232328 0.09102213 -0.04313095 -0.044167675 0.09208099 0.04922708 -0.1519108 -0.017213466 0.012574512 0.0024149152 -0.041845147 -0.12703806 0.08417503 -0.004158036 0.045378774 -0.13083458 0.12443365 0.018419253 0.040080097 -0.04122596 -0.08280309 -0.10494969 0.016107425 0.0021213945 -0.086706705 0.06384604 0.08179924 0.04735119 0.07874982 -0.10236521 -0.018387886 0.039474394 0.027982214 0.026999705 0.1136781 0.09664269 0.06244354
170 0.016476398 -0.057489663 -0.079735205 -0.05782106 0.04180415 -0.02715123 0.120391406 -0.13421527 -0.11250937 -0.031817574 0.10494252 0.092424765 -0.018219765 0.019470667 -0.06877468 0.039131492 -0.12612891 -0.08525384 0.05066927 -0.0018269093 0.08015146 -0.08606564 0.13222325 -0.11306857 -0.024507185 0.12848325 0.0072288667 0.13194928 0.14414254 0.08084879 0.05745296 -0.06599674 0.10667702 -0.06100176 -0.013153363 -0.1123185 -0.08563246 0.049931955 0.07865306 0.03283622 0.06914955 0.11564557 -0.075243175 0.0034268617 -0.030783907 -0.090468675 -0.034716457 -0.122351944 -0.13404377 -0.08708762 0.06868375 0.11587627 0.02214026 0.043150872 -0.11565323 0.12024245 0.12607668 -0.079661444 -0.040071953 -0.009097158 -0.059943844 -0.07293946 -0.031214323 -0.055498824 -0.012094806 -0.05892382 -0.12953676 -0.034865882 0.09025499 0.032735005 -0.11193602 -0.07153579 -0.086851574 0.073665194 -0.009520235 0.12815191 0.0065346733 -0.14226921 0.09433772 -0.08614828 -0.049452536 -0.085051626 0.034916833 0.126626 -0.08284646 -0.08695945 0.0025469707 -0.11622366 0.033644214 0.09297569 0.040551748 0.010181198 -0.000760787 -0.12102878 0.051631253 0.02148183 -0.117123045 0.043463215 0.08834455 0.10144525 0.013147913 0.053268258 0.13860926 0.019314801 0.090851165 0.014251324 -0.05192745 -0.08063626 -0.07039713 0.03133897 0.11084664 -0.081775405 0.08988062 0.051520873 0.06496961 -0.091355026 -0.11432419 0.031377334 0.07377974 -0.06829417 -0.07165952 -0.08280829 0.05209521 -0.11703011 -0.11952867 -0.025094725 -0.03782357 -0.0637749
209 -0.035896763 0.12752028 -0.080101304 0.10381049 -0.060939293 0.09311827 0.15080182 -0.022532871 -0.008052651 -0.1450092 0.0011534356 0.0012049689 0.096207544 -0.10311065 -0.121468395 -0.12695405 -0.06350985 0.04004334 0.066814974 -0.046317864 -0.027537804 -0.054557357 0.04779326 0.048944127 -0.033139244 0.052151944 0.10087216 -0.02041444 -0.011175751 -0.04941767 -0.09632404 -0.08155047 0.117727295 -0.09727726 0.048508253 -0.11414637 0.0466796 -0.041127335 0.09703104 0.014612488 0.13712098 -0.016872684 0.103097826 0.011375468 -0.057441246 0.024258059 -0.022150023 -0.07766614 -0.0536072 -0.05364103 -0.04116099 0.07575923 -0.09563053 0.11510373 0.103989094 -0.06344958 0.1403121 0.10836108 0.13812587 0.08835987 -0.0105689475 -0.063742556 -0.11687525 0.0824546 0.0360398 -0.048861504 -0.063698605 0.13062869 0.035701636 0.025668578 -0.060088374 -0.11485998 -0.053913187 0.12762374 -0.031080239 -0.08517639 -0.067940496 -0.085845195 0.039687667 0.055058166 -0.0016585208 -0.050145958 0.0051627886 -0.10717215 0.12659025 -0.10502917 -0.11252768 -0.09562356 -0.036498938 -0.02967341 -0.10444606 0.07934914 0.12463013 -0.07254865 0.08886977 -0.122823164 -0.10170417 -0.0034130733 1.7975108e-06 0.02322131 -0.10304139 0.039105967 0.021085091 0.04264089 -0.11119864 -0.039695144 -0.062271055 -0.122452945 0.15061368 0.03998267 0.054204267 0.07667445 0.061259165 -0.12455029 -0.0035733646 0.09391163 -0.08378302 0.046631847 0.13037387 0.08287277 0.05010069 0.051361583 0.03149318 0.12006417 -0.005841744 0.089589655 0.08001189 0.08795377
45 0.054917645 -0.10570991 -0.03353043 -0.101783186 -0.038408715 0.08568409 -0.06765588 0.071300544 0.076761074 0.11522691 -0.055071063 -0.1423912 0.07129759 0.08361306 -0.10831552 -0.13478844 0.029457835 -0.052673727 0.06395019 0.085954964 0.07374292 -0.055765018 0.11362304 0.017262632 0.00687571 0.0306995 -0.088815026 -0.08507888 -0.074352026 0.07284252 0.04513196 0.103720285 0.083408736 0.02675189 0.0246379 0.13142253 0.033391394 -0.11354105 -0.031980474 -0.083168335 -0.11655032 0.039362427 -0.07138018 0.040606797 -0.048749153 0.06471306 0.015526085 -0.08296384 0.0023671442 -0.021285405 0.050260946 -0.122150406 -0.13330914 0.0042243535 0.040511392 -0.023961334 0.092216276 0.12103037 0.1126008 -0.12877998 0.07039433 -0.15097937 0.109358564 0.13998187 0.065163076 -0.011225419 0.042701624 -0.04844018 0.00874651 -0.11616079 -0.013493817 0.043883435 -0.12575546 -0.08870121 -0.0039873556 0.13863108 0.042793076 0.10762895 0.06451913 0.10949542 -0.024870098 -0.015133422 0.06966138 -0.0051554195 -0.01456047 -0.061151035 -0.065467864 0.01843262 0.013812218 0.05064798 -0.12898576 0.09896296 -0.14462608 -0.12835893 0.006736759 -0.09453377 -0.015898451 -0.09358334 -0.056450266 0.0647489 0.04054362 -0.021692233 0.095652655 -0.111672565 -0.04779667 -0.0059528532 -0.081772834 0.06959352 -0.110778406 0.002092932 0.046869233 0.0194662 -0.025213586 -0.052943055 -0.1261668 0.12170631 -0.09431718 0.025631247 0.11926012 -0.0365949 0.036469284 0.116369285 0.05156639 0.09111589 -0.042586815 -0.08448383 -0.103816815 0.11047752
100 -0.03719233 0.028993215 -0.07534248 0.091264315 0.061934844 -0.12528853 0.028477702 -0.0016511944 0.010622298 -0.06207571 0.03236687 -0.013986019 0.07996098 0.058461502 0.089566775 -0.05987293 -0.09597658 -0.08487821 0.13551478 0.11396868 -0.123081796 0.097052924 -0.011398558 0.026383428 -0.06909454 -0.0017488439 -0.06631981 0.0502697 -0.013912939 0.111167625 0.017351685 0.09841 0.0120362565 0.04932293 0.04769247 -0.04287395 0.058501195 0.13696907 0.086140916 -0.06410468 0.053174127 0.10035005 0.10559226 0.08114739 0.010748511 0.009913676 0.065689914 -0.04236046 -0.037643652 -0.05314477 -0.0408029 -0.08233808 -0.017229108 0.033497438 -0.013912979 -0.03319272 0.065073326 0.12356376 0.06461843 -0.10682147 0.109950274 -0.049118854 -0.11448708 0.08606578 -0.060915444 0.042739287 0.0022628787 -0.0030025847 -0.11246668 -0.12987225 -0.046579264 -0.1342809 0.060522594 -0.09232979 0.015846573 0.08725606 0.06487187 -0.033685513 -0.024835227 0.034908354 -0.031839382 -0.06490491 0.10807431 0.09584613 0.110792 0.10278197 0.0723919 0.03459209 -0.09751565 -0.115391985 0.06548084 0.04092987 -0.03863703 -0.12209686 -0.015954997 -0.09967957 0.09096804 0.013807631 0.0036556942 -0.075759046 -0.09221251 0.061092682 0.050422784 0.06955456 -0.073205546 0.109799415 0.07967661 -0.07604868 -0.011893673 0.08101407 0.14195031 -0.07988873 -0.0981441 -0.10025978 -0.0337338 0.071637176 -0.12940806 -0.079100624 0.056406345 -0.13330765 0.022138327 -0.07752814 0.12634611 -0.04656208 0.022941764 0.12457057 -0.078271024 0.06414354
42 -0.0500725 -0.08297703 0.023391943 0.023395421 0.041162916 -0.022332111 0.03678626 0.04299176 0.05024805 0.015849676 -0.05462615 0.03628259 -0.12642747 0.021800328 -0.071440116 -0.08072351 -0.048626874 -0.029571773 0.015285184 0.0384565 -0.0061054174 -0.013311659 -0.11555829 0.06386018 0.03709119 -0.0669484 0.05365797 0.11907803 -0.08211139 0.11047502 0.033488616 -0.036138594 0.06524236 0.08793568 0.11057546 0.07288113 -0.015240533 -0.0013417186 0.09711273 -0.023363207 -0.13707666 0.11990633 0.105882205 0.08303286 0.1373635 -0.11735408 0.11409854 0.04030764 -0.09376208 -0.010967375 0.04836337 0.03399604 0.08164435 -0.040153753 0.02374779 0.10229613 -0.032776915 0.031236725 -0.03430238 -0.051312648 -0.08430338 0.020853836 0.035694007 -0.012512887 0.12608036 0.111626804 0.06815372 0.038252063 -0.042088483 0.042364303 0.020761892 0.12315583 0.11532468 -0.06510002 -0.027890015 0.0630343 0.08490223 -0.1015096 -0.028785333 0.015223361 0.023683831 -0.06504717 0.091126494 -0.10318208 -0.051054686 0.012405217 -0.08478687 0.052814752 -0.100170076 -0.10782923 -0.11879045 0.025362255 0.08649636 0.09711937 0.061487768 -0.008944126 -0.08820294 -0.005640888 0.03274561 0.03989916 0.02866052 -0.04398899 -0.005121222 0.06428692 0.02446601 0.048288926 -0.036526255 0.02924201 0.0029693611 -0.09213705 0.11640093 0.043749824 -0.016925566 -0.019618161 0.09207271 -0.024442414 -0.05722099 0.08093722 -0.10849378 0.090956 0.098994575 0.006484835 0.03830799 -0.015556929 0.12555954 0.028999606 0.049900442 0.08017601
13 0.11504543 0.03879108 -0.07233756 0.004613668 -0.11251003 0.10070815 0.010619595 -0.06584453 0.11796844 -0.06724871 0.02397888 -0.100599386 -0.023235677 0.050826073 0.12480278 0.1429242 -0.11633104 0.10855259 -0.104991265 0.103539705 -0.04892457 0.098709896 -0.030932602 -0.03926751 -0.08284537 -0.064659834 0.08071525 -0.0817764 -0.0070125214 -0.01701474 0.0643275 0.085801475 0.103280246 -0.07181679 0.10472949 -0.047113463 0.063480936 0.13423808 -0.063338846 0.03326617 0.11008855 0.037376724 0.13108096 0.040090673 0.10544593 -0.088557705 0.048618816 0.038473424 -0.1300437 0.10116913 0.07054238 0.05046352 -0.10898875 -0.004369006 0.11312712 0.10890595 -0.09585995 0.010498243 0.023760755 -0.13567522 0.13990545 0.09878309 0.1357097 0.07738432 -0.03481684 -0.07796338 -0.043442328 0.13181527 0.018649092 0.047896057 0.09900451 0.06226024 0.054006353 0.074107625 0.04252633 0.059784073 -0.103746995 0.1165952 0.052086007 0.08792073 -0.081611894 0.07957071 -0.12848912 0.104182616 -0.0064779636 0.057249643 0.108765654 0.13222192 0.11922127 -0.048611358 -0.050505776 0.014336074 0.047291175 0.06609524 0.07299829 -0.099430755 0.001617127 -0.050069995 -0.02502626 -0.08599963 -0.030199844 -0.10601656 0.042720355 0.086958155 -0.10838052 0.040598694 -0.054870896 0.09590715 -0.052589726 -0.039288055 -0.06020938 -0.04239027 0.057276573 0.009434373 -0.08608756 -0.08595372 0.023556052 -0.040727817 -0.051625226 0.052817553 -0.032597482 0.028141065 -0.07463035 0.036013626 0.0040916805 0.13352719 0.053743478 -0.10284816
16 0.09329634 0.13054913 -0.034077965 -0.06112936 0.07304895 0.0836319 0.008301773 0.07863662 -0.05961896 -0.1572506 -0.025353724 0.006169752 0.11198154 0.12718691 0.03020016 -0.07825887 0.12467775 -0.087385766 -0.02999392 -0.051180344 0.09468556 -0.063809685 -0.05165007 -0.0071323514 -0.020524953 0.032881923 -0.022743799 0.01791165 -0.018505868 0.027119962 0.059767313 0.10816883 0.04374349 -0.03889972 0.0039126715 -0.027377062 0.088376865 0.09833034 -0.06771085 -0.050470497 -0.041659065 -0.02092721 0.094766006 0.09497314 0.074535295 0.0847859 -0.045339324 -0.11613374 -0.13211164 -0.016073814 -0.010123984 0.094002895 -0.09636996 -0.032782968 0.0042650998 -0.03413511 -0.018407213 0.09739869 -0.05257678 -0.10931716 -0.046624612 -0.09363684 -0.05739719 0.081836574 0.06357563 -0.008402434 -0.059282314 -0.050334845 0.06636996 0.07577526 -0.054681923 0.032864816 0.0429661 0.12638457 -0.08945532 0.009472612 -0.03567418 0.05612433 0.026280403 0.0333731 0.046621036 0.08652304 -0.0017649976 0.08239522 -0.1246121 -0.039316203 -0.0918488 -0.04224279 0.06027189 -0.109195076 0.03984231 -0.06835024 -0.09142337 0.033524618 -0.044819582 -0.08638618 -0.042879302 -0.09353416 -0.15349661 -0.1153854 0.101456225 -0.09995075 -0.022270387 -0.0157226 0.122358814 -0.1169064 -0.028536208 -0.07177742 -0.0697204 0.039197255 -0.11184748 0.03623016 -0.09479553 -0.05767811 0.07940423 0.05666065 0.0712046 0.01410752 0.11441144 0.13202922 0.041049894 0.03676665 0.016790185 0.08666565 0.044746853 -0.02429576 0.057954308 -0.020192849
200 -0.12958369 -0.103841506 -0.009216516 0.14223333 -0.06425627 0.06506237 0.062036943 0.0064696227 0.030968295 -0.056989197 -0.13481149 -0.09103052 0.00025885156 0.05221408 0.07147787 0.10756208 0.04731207 0.13683787 0.07045463 -0.089632004 0.064765684 0.034640927 -0.013988506 -0.12617494 0.03061587 -0.075766146 0.033342876 0.125165 -0.023516579 -0.0001283806 0.064280584 0.127101 -0.007887838 -0.06394156 -0.053083368 0.0028183737 -0.060894664 0.121164076 0.05011247 -0.13644558 -0.025119314 0.003464304 -0.033667225 0.052360527 0.11138071 -0.060821664 -0.10855254 -0.01886025 -0.040213138 -0.06622967 0.0026324904 -0.112290174 0.040299095 0.0893277 -0.11181178 -0.020938199 0.035687584 -0.08461502 -0.08588864 -0.115668744 0.09762864 0.036500018 -0.14585781 0.033514354 0.014736572 -0.034598257 -0.08423545 -0.0694444 -0.045104288 -0.10966057 0.13087709 -0.12229865 -0.08491334 -0.0051227277 0.14531027 -0.05490755 -0.07485949 -0.13817112 0.03349951 0.011864529 -0.1001397 0.11931903 0.014687224 -0.057107173 0.029888965 -0.084167086 0.008932884 0.008658363 0.06459125 -0.050926693 -0.047893576 -0.057184704 -0.12296168 0.055912167 -0.12339644 -0.03733106 0.00973969 -0.038755763 -0.015194103 0.06881987 -0.037925635 -0.12037661 -0.036577363 -0.027741699 -0.048642103 -0.08200475 -0.05605366 -0.076395944 0.02185863 -0.12577945 -0.11468994 0.10677696 0.11557623 -0.09529514 0.13626125 0.081181355 -0.018892739 0.011998945 0.06450837 0.011137667 -0.040159646 -0.118774556 -0.009803046 -0.07351839 0.095463976 0.07921247 0.053017393 -0.12419388
204 0.09420599 0.033325214 -0.04541727 0.027550934 -0.14734672 0.048983235 0.030123366 -0.07782339 0.058949426 0.09207935 0.102276914 -0.12786971 -0.0470126 0.038298965 -0.048736643 -0.12841353 -0.08160595 -0.040879115 0.00047722255 0.0041343467 0.063320026 -0.1106886 0.014651886 0.11797622 -0.10710218 -0.080085084 0.07147702 0.051339462 0.0872635 -0.017528212 -0.078162715 -0.10778536 0.09977199 0.03462431 -0.05933221 0.094457746 0.11011715 -0.08746158 -0.098067574 -0.07087669 0.08594946 0.082107104 0.071746945 0.04107767 0.0038901216 -0.066523276 -0.08988432 -0.13104177 -0.08581583 -0.11564251 -0.014370187 0.07011401 -0.009774541 0.07163648 -0.05878014 0.04808756 0.09724318 -0.028335985 0.04078372 -0.025994983 0.114451945 -0.045009956 0.0025909827 -0.09280305 0.01501161 -0.12745085 0.09675457 -0.112722844 -0.013200313 -0.0058025704 -0.06589097 0.074879155 -0.09740549 0.1122585 0.08083916 -0.038051896 -0.07522573 0.12579647 -0.13982658 0.07942608 -0.078733474 0.06730484 -0.05914496 0.08448382 -0.008663478 0.046724245 -0.14109427 0.090103745 -0.04379374 -0.1202946 0.061226815 0.03927503 -0.04949965 -0.102283366 0.117756076 0.1319662 -0.006331603 0.018652257 -0.12059821 -0.01953632 0.014749838 0.017259965 -0.08080474 0.03857174 0.03664408 0.039768714 -0.110078394 -0.082841106 0.09789092 0.12521073 -0.030200575 0.092853814 0.13136868 0.093269065 -0.063825555 -0.11411693 0.034067784 -0.07645714 0.0026365607 -0.10092014 -0.14288557 -0.019570023 0.045299005 0.015238684 -0.062101115 -0.11103038 0.118749574 -0.06398336
197 -0.09065331 -0.072985955 0.07358645 -0.037158288 -0.02798977 -0.043764945 0.11589136 0.058948677 -0.14008118 -0.110242225 0.02513762 -0.11964486 -0.057257902 0.037652172 0.08564905 -0.12915252 0.08360091 -0.09232542 0.07446724 0.031121628 -0.096090905 -0.13395104 -0.06357477 -0.08889694 0.06384628 -0.1104362 -0.12500492 -0.094003595 -0.08657155 -0.12064967 0.04367331 0.064471535 0.12440365 -0.012754134 0.079143494 -0.11456103 0.06650307 0.06137394 0.07376711 0.05975147 -0.011892362 0.069454536 -0.007404657 -0.10703605 0.06833634 0.08744767 -0.123860285 0.08959781 -0.055313513 0.0056933467 0.09761666 -0.1173892 -0.05430684 -0.04406942 0.058416873 -0.071133256 0.1265859 -0.13630559 0.094730236 -0.019015495 -0.10962733 0.06204518 0.047143772 -0.14985555 0.1038478 -0.12756361 -0.05583399 0.09846309 0.07696814 -0.016620148 0.0016683257 0.006552336 5.7990634e-05 0.13040788 -0.0031840687 0.07639076 0.09737281 -0.055252578 0.0126803 -0.12379161 -0.0020607763 -0.07943923 -0.1244011 -0.023378137 0.06765622 0.02387448 0.0069060978 0.11700752 0.050742358 -0.05944437 0.11473522 -0.14112292 -0.06742796 0.09309014 -0.018565705 -0.062978595 -0.08711553 -0.12932195 -0.003015615 0.07069234 -0.032402065 -0.06346777 0.024441535 -0.0069506555 0.008768859 -0.08092184 0.034695193 -0.012801871 -0.061760053 0.09191189 -0.0135222385 0.115256846 -0.018785626 -0.13079706 0.10565162 0.11690969 -0.06701612 -0.075708665 0.13449861 -0.09824125 -0.08298988 0.016844686 0.0066033266 0.10553282 0.1478084 0.04790542 0.0514666 -0.008655342
196 0.023698848 -0.07703077 -0.0385606 0.107581295 -0.05174257 -0.05428884 0.018945418 0.101385795 0.02809844 -0.07232409 0.08568437 -0.09007673 0.07432431 0.1100138 0.13480361 0.049299944 0.06612347 0.07938988 0.10532462 -0.0009918099 0.08245953 -0.05775058 -0.0066620884 0.017171595 -0.10579588 -0.10361096 -0.09670984 -0.036215276 0.012158418 -0.0763147 0.12097601 0.10897777 0.037355304 0.09669282 0.03160853 -0.09116839 -0.12206171 0.119968235 -0.14567837 0.1124049 -0.08001385 0.10889111 -0.04274883 0.07771639 -0.051303748 0.11471787 -0.11720213 0.052879605 0.021248931 -0.13677998 0.015092236 -0.0030043947 0.022403225 0.1494728 0.0008494717 0.03315787 0.069799356 0.028950376 -0.11265074 0.06274705 -0.016416006 -0.04784773 0.04401072 0.076505445 -0.09136327 0.12228381 -0.021441486 0.09046872 0.13123493 -0.038725793 0.10631004 -0.06292502 -0.102188915 -0.11004405 0.07555095 0.01617682 -0.0038443394 -0.0751936 0.092225336 -0.045932952 -0.032108 -0.10477275 0.01821241 -0.12114345 0.10848503 0.08950646 0.022231767 0.013773681 -0.06261769 -0.037758972 0.11736491 0.006142242 -0.08394077 0.079179995 -0.11893 0.084087215 0.020803148 0.13249464 -0.09916998 -0.050752785 -0.0964736 -0.08691049 0.10439948 0.14736082 0.09767487 0.1244935 -0.00027929866 -0.12535317 0.007876716 0.018924953 0.09498431 -0.033213906 0.12187276 0.0019273957 0.117626354 -0.100502804 0.08672112 -0.022231791 -0.03018341 0.1221431 0.09809484 0.0952089 -0.05289671 0.12784646 0.031481896 -0.07132471 0.006714927 0.018471856
203 0.10208478 -0.08169549 -0.016462445 0.12114806 0.033370376 0.0044755084 -0.04128536 0.010475705 -0.03686156 -0.07774085 0.12697122 -0.023245301 -0.10385423 0.10937775 0.016117858 -0.04339591 0.028481185 -0.04691599 -0.07399905 0.069672346 0.09135064 -0.09581125 -0.008952404 -0.043546937 0.003769264 -0.14117812 -0.06746455 0.10665044 0.031305686 -0.12948523 0.0102418065 -0.027109329 0.096780635 0.109788366 0.028984725 -0.07463093 -0.012184673 -0.102863684 0.068887435 0.0007784538 0.015829468 0.017916767 0.04055823 0.0890238 -0.076202296 -0.057385296 -0.02694755 -0.03288488 -0.0039258692 0.08768717 0.09506798 0.003895748 0.11948444 0.048609495 -0.06559078 -0.043853242 -0.13134098 0.0901786 -0.050959494 0.044270437 0.11320201 -0.038452648 0.037878126 0.05327893 -0.108575255 0.109388985 -0.042239074 0.12848738 0.10183975 0.014740657 -0.033964507 0.120601915 -0.10098336 0.10899284 -0.12892203 0.1218478 0.0017722864 0.081793785 0.031048536 -0.024099778 -0.107489236 -0.06377918 0.058985036 0.114598505 0.12097049 -0.03238846 -0.14902025 -0.0063510593 0.021196136 0.09038467 0.034180492 0.04118058 -0.116941705 -0.12159827 0.049586296 0.021803355 0.12192378 0.07141854 0.105930366 -0.054918565 0.015118129 -0.057958275 -0.04677985 -0.06434855 0.1145278 -0.13691038 0.0014407402 -0.10642709 -0.05962228 0.09998934 0.10810848 0.081904426 0.048410106 -0.06999899 -0.11700411 0.0046493793 -0.08388952 0.08203663 0.11442606 -0.055857785 0.11639122 -0.021606978 0.00836477 0.12846607 -0.06947108 0.056542285 0.040200956 0.09850194
195 -0.08885173 -0.122100875 0.09816197 0.11335162 -0.003525911 -0.107920624 -0.10104279 0.12834723 0.07878778 0.09017573 0.034572322 0.08892238 -0.10237665 0.007460706 0.10179078 0.044182986 0.11853701 -0.101088464 -0.008065175 -0.034719728 -0.01658632 -0.133715 -0.049302295 -0.04447988 0.019845458 -0.11281315 -0.07072086 -0.06403256 0.020252082 -0.1406572 -0.054800015 0.062877454 -0.1081689 -0.1328257 -0.054889157 -0.09151282 0.086788304 0.12076921 -0.011029717 -0.0007467433 -0.09144385 0.01199903 0.13968119 -0.042344842 0.061788615 0.040124137 0.005598223 0.030458584 0.055970002 -0.04322246 0.097045965 -0.017263241 0.007143687 -0.093835674 -0.05856318 0.04329287 -0.13705495 -0.074166834 -0.08256949 0.11964043 0.07328766 -0.025715554 0.1022426 0.06522209 -0.045394924 0.03214741 0.07219922 0.13620354 -0.111954175 -0.1521358 -0.1383564 -0.055130646 -0.124786496 0.10451776 -0.021021832 0.026949622 -0.099856496 0.05221543 0.11560099 -0.12121991 0.085490994 -0.09521921 0.05594568 0.13811705 0.0932221 0.09092717 -0.054705214 0.1439557 0.112650745 0.01113379 0.11425451 0.083771415 0.00081715174 0.02061412 -0.13831857 -0.103962556 0.11097488 0.0010615521 -0.025653388 0.05278371 -0.05618052 -0.0027993084 -0.08226181 0.045587987 -0.05364061 -0.043322954 -0.11076185 0.049538534 -0.1356772 0.03260075 -0.06546474 0.046431195 -0.11025498 -0.080386154 -0.1399717 -0.096131906 0.11714282 -0.06942384 -0.088104755 -0.12763809 0.13394026 0.016242426 0.04010925 0.11842765 -0.090183765 0.13549395 0.13120146 -0.06528971
207 0.03656909 -0.09226768 -0.044503126 -0.08406642 -0.055794835 -0.15123506 -0.0058804904 0.111105025 -0.046245113 0.09143796 -0.025402213 0.06878766 0.08066122 0.04114316 0.0026818935 0.08107615 -0.087907836 0.030617626 0.040902067 0.11485382 0.07047787 -0.06283721 0.14265417 -0.09939285 -0.027860891 0.07833145 0.08173774 0.071154065 0.15893474 -0.021688601 -0.05112905 -0.022570305 -0.07173976 0.07052172 -0.07020807 -0.032496948 0.027761752 0.0525859 -0.0697929 0.09864308 0.02470832 -0.039334618 0.078762315 -0.11711823 -0.109138295 -0.054994594 0.009163688 0.05391925 -0.09951159 0.0278146 0.12550487 0.0796484 0.022488447 -0.107809186 0.06751874 0.03523397 0.07130702 0.0013678789 0.10626586 -0.08605987 -0.000881637 -0.101559706 -0.009658597 0.14530334 -0.092590876 -0.028161522 -0.01407028 -0.0077003236 0.09814929 0.00897361 -0.1364826 -0.12561166 -0.12743592 -0.06663528 -0.1299216 0.0012670361 -0.059322484 -0.022464123 0.023600461 -0.13356964 0.06338466 -0.09094566 -0.0048575783 -0.07872121 0.09310636 -0.012069786 -0.112203844 0.0062602526 -0.10720084 -0.020167938 -0.13779777 0.070279464 -0.01881297 -0.012939839 0.09320706 0.050107855 0.1058854 -0.08463914 -0.004826112 0.0012180076 0.06256026 0.11484211 -0.0937782 0.004674638 0.029005205 0.07149239 -0.08039374 -0.09434802 0.038600165 0.015087577 -0.05041704 -0.06487678 -0.010045668 0.10895892 -0.00551905 0.122731395 -0.14855702 -0.060183637 0.042524718 0.07016004 0.09703826 0.016560037 -0.12911323 0.09638861 -0.0072391066 0.06722217 -0.1263344 0.0055153198
154 -0.02089255 0.115385585 -0.016054658 0.034051873 0.09056552 0.06946692 -0.106375635 0.12685297 -0.093186066 0.018788159 -0.10146861 -0.0647984 0.013588462 0.065667555 0.0017268618 -0.025585666 -0.11087147 0.043820664 -0.018979903 0.08340004 -0.0057985554 0.10039775 -0.075787075 -0.010919545 -0.039871246 -0.040216204 -0.13093589 -0.12742582 -0.008133349 0.07350627 -0.13156705 0.11458763 0.121681996 -0.086478435 -0.10218102 -0.115892954 0.004726031 0.040678784 -0.07056263 -0.08230875 -0.0056914454 0.12368602 -0.04445079 -0.064408325 -0.10734871 -0.13204919 0.0626161 0.03172832 -0.07091968 0.036827713 -0.110483795 0.13522762 0.051198944 0.08879056 -0.057077184 0.016711857 0.011105442 -0.12359493 -0.075775966 0.101030186 0.102237955 0.12387217 0.123519525 -0.04866194 -0.054557305 0.025874399 0.14773081 -0.10530319 0.030523824 -0.08487832 -0.02429976 0.13136333 0.0152149275 -0.1142629 0.051426288 -0.09826395 0.0004317013 0.0058757165 0.14432234 0.038405184 0.035330236 0.03764269 -0.06295437 0.07708886 0.072645724 -0.11035722 0.08541735 -0.016914591 0.048826095 0.011254252 -0.04280418 -0.02053956 0.06718848 -0.08183437 -0.015924342 -0.06036783 -0.036808345 0.09910879 0.12275316 -0.0878203 -0.0016003815 -0.0373293 0.10718266 -0.07467057 0.0040220884 0.038195334 -0.0058907 -0.13523588 0.10665224 0.0138745755 -0.075122446 -0.039084636 -0.00030805264 -0.0696867 -0.0058414415 -0.10008198 -0.102222994 0.078443445 -0.022292238 -0.07010329 -0.07492151 -0.058300488 -0.12965953 -0.039430942 0.011968897 -0.022710042 0.020421343 0.14396523
199 -0.04272404 0.1303229 -0.009641861 0.05264057 0.054419655 0.10249941 0.07339276 -0.13837628 0.0684342 0.12953185 -0.06564593 0.04754162 0.09374476 -0.095722795 0.06367182 0.088541925 -0.13058262 0.098826155 -0.028800106 -0.044626676 0.0460442 -0.03541839 0.09748394 -0.003097681 -0.019972268 -0.038315874 0.11303736 0.14677885 -0.1398921 -0.14112903 0.011063265 -0.09168655 0.1126876 -0.04443412 -0.046463165 0.03156724 0.029625794 -0.09965136 -0.14877532 -0.07292957 0.11689259 -0.11240228 0.0736228 -0.12320418 0.115972094 -0.09737142 -0.036036525 -0.0966014 -0.12586881 0.07641838 0.03423228 0.038267884 0.15167804 -0.028726067 -0.021011917 0.053971145 -0.07298634 0.06980035 0.08067446 0.09241857 -0.087032355 0.08795633 -0.013049135 0.13919081 0.023142742 -0.13945499 0.11334349 0.045488827 0.049038626 -0.06306112 -0.030695265 -0.07423866 -0.03512425 -0.041859537 -0.11345806 0.08768704 -0.036787007 -0.015289546 0.091146305 -0.029649679 -0.05353439 0.07316023 -0.0374164 -0.116803735 -0.018400168 0.05938653 0.027141903 0.08215121 -0.08929545 0.0250721 -0.068965554 0.1100152 0.12320077 -0.119451456 -0.10496899 -0.07824621 0.012630695 0.025280686 0.0079487 -0.060829833 -0.12536749 0.12966153 0.041309886 0.13355249 -0.099014066 0.089145854 -0.08562201 0.10429917 -0.016113937 0.13173424 -0.026158428 -0.044362873 -0.08663924 0.08530524 0.12930511 0.015356576 -0.057379372 0.0052691363 -0.09272836 0.066661544 0.07143991 0.014306938 0.03776775 -0.14705463 -0.03259691 -0.018774696 -0.15114875 0.07521953
205 0.08020925 -0.070065275 -0.079189666 -0.079869166 0.07967119 0.04674664 0.06548752 0.04510308 0.03315679 -0.042670812 -0.07864447 -0.08664406 0.09010446 -0.069143996 -0.016051974 0.050383244 0.11984749 0.014369617 0.016286172 -0.043409992 -0.09856015 0.021357268 -0.11333548 -0.05641397 0.03905309 -0.03420935 0.10416713 -0.11245971 -0.0013740876 -0.048991576 0.068253934 -0.037502024 0.027392903 -0.05543487 -0.022976954 0.021586295 -0.065208115 -0.041835297 -0.15607506 -0.111173555 0.08839512 -0.062379576 -0.054818068 0.092447005 -0.1272935 -0.089552365 0.060595613 -0.04528391 -0.014901388 0.09252942 -0.14653791 0.14281897 0.074038036 0.07277754 0.028472606 -0.05105123 0.016904531 0.0742725 -0.04045363 0.04885086 -0.0056922114 0.102814585 -0.13224038 0.10759705 0.0229646 -0.0019823 -0.065619886 0.03424866 0.09572537 0.11433897 -0.15837891 -0.048721142 -0.09050973 0.12738632 0.048455395 0.084247105 -0.08426326 0.1361094 -0.06952914 0.14365484 0.030814122 -0.039378434 -0.09461541 0.08822965 0.1058289 -0.02482063 0.034539066 0.0011524446 0.045775674 0.05952582 -0.07102589 0.04607054 0.13214475 0.10704706 0.14461832 -0.12166409 -0.10090885 0.03506315 -0.10843922 0.06947163 -0.09860831 -0.0008932339 0.023212714 -0.12956515 -0.133766 -0.0475875 0.012495145 0.14371276 -0.11651313 -0.054708466 -0.04493044 -0.014412246 0.063137144 0.028538559 -0.0064286413 -0.13451345 0.1010513 -0.12631077 -0.08608335 0.12606959 0.046092436 0.04175962 0.014211509 0.011236278 -0.12695548 0.030188387 -0.06203694 -0.12002346
198 -0.12928899 0.08704988 0.031323075 -0.017756755 0.046970464 0.06245173 -0.023263305 -0.128761 0.08432633 -0.11846714 0.02675054 0.03971672 0.05987367 0.04192336 0.018727321 -0.03237613 0.07590748 0.08624568 -0.13793693 0.020969575 0.114398554 0.119682975 -0.055502377 0.028701311 0.021542208 -0.008306775 -0.1021536 -0.06382999 -0.07292909 0.044676587 -0.10050523 -0.0077516898 0.09411187 0.09543961 0.007875872 0.09063691 0.11093507 -0.113417566 -0.06553022 0.12675546 0.12065384 0.1009485 0.033967786 -0.10238086 -0.073605195 0.02678327 0.02020816 0.096100986 0.009948761 0.108860545 0.026912166 0.09479181 0.111742884 -0.080416 -0.0014654462 0.061128438 0.0052189655 -0.120353535 -0.10025866 -0.035876937 -0.09614278 -0.00080891256 -0.07100014 -0.09338131 -0.0050170235 0.025302825 -0.008052192 0.00719775 0.009504471 -0.032737836 0.05864554 -0.08477658 -0.056204278 0.071441695 -0.050809726 0.097010344 0.04780585 -0.13367234 -0.04685396 -0.034781292 -0.01876159 -0.07859384 -0.032604735 -0.069320805 -0.058785427 -0.022116322 -0.1260609 0.07621426 0.07907828 -0.03874088 0.102350555 0.030773662 -0.0169342 -0.11875459 -0.073808804 -0.13944748 -0.13155098 0.061389253 0.099041924 0.08447971 -0.033337742 0.032420788 -0.051943533 0.07652581 -0.06750228 0.03648866 -0.11815076 0.12731245 0.011508024 0.036364358 -0.124750406 -0.009419563 0.1089307 0.06437223 -0.029496087 0.14400005 0.026447138 0.014461502 0.11020015 -0.111794144 0.02629783 0.10891196 -0.019877085 -0.08731549 -0.0050491793 0.14501244 0.06910034 -0.03255857
194 -0.13749611 0.0965261 0.11221887 0.013360513 -0.037252523 -0.122626774 -0.061333176 -0.020974072 0.09617265 0.01775988 0.016588233 0.039774496 -0.048044395 0.011005959 -0.10710993 0.008131253 -0.1013405 0.074711174 0.004821549 -0.11831226 -0.06810823 0.09924389 0.042520188 0.057652455 -0.080447696 -0.014128638 0.053892702 -0.07462334 0.04849919 -0.010574514 0.1275183 -0.08115694 0.010887314 0.11399234 0.11966535 0.11350552 0.042372763 -0.009782429 0.081802554 0.037353307 0.005932218 0.031755548 -0.09020793 0.06914549 -0.024506282 -0.036801573 -0.13014294 0.08958384 0.07387074 -0.026134139 0.0056701545 -0.023246335 -0.068591215 -0.043942515 -0.0449684 -0.09052717 -0.08559885 0.04237216 0.06912216 -0.038420778 0.10535324 -0.11878239 0.14684026 0.08106079 0.034324873 -0.010901886 -0.08573284 -0.095372245 -0.10986589 0.045543857 -0.037242923 0.04189075 -0.039461315 0.033936296 0.0060370825 0.11957165 0.07127902 0.13029787 -0.014797862 -0.12468106 -0.030494044 -0.033504833 -0.012171409 -0.07013113 0.041221146 0.0927032 0.109208114 0.008282037 0.10361118 -0.11258712 0.099164546 -0.06773618 -0.14635438 0.09305754 -0.011171742 -0.06184822 -0.022437952 -0.03915204 -0.05995646 -0.027627084 -0.002303577 -0.094024956 -0.023945315 -0.023067316 -0.08081237 -0.010995881 -0.050617624 0.028888512 0.01186535 -0.030736294 -0.07041383 -0.09069244 -0.08146049 0.106805705 -0.08408166 -0.110976785 0.124442466 -0.10031036 -0.109192885 0.08862524 -0.010047699 -0.051131647 0.07991724 0.04204452 0.016800301 0.10574619 -0.07711359 -0.101489946
193 0.032812968 -0.055954542 -0.015393501 0.12701131 -0.02733962 -0.12622303 -0.11879183 0.11453104 0.12612359 0.041114327 -0.047277138 0.0066785873 0.06934293 0.0055748643 -0.049287383 0.13797243 0.031445228 0.12560709 -0.029319774 -0.07244442 -0.005058864 -0.08206853 -0.062542126 -0.10825126 -0.06588522 -0.019254407 -0.12135338 0.12132056 -0.105519325 0.08299818 0.055881895 -0.000963157 0.06684071 -0.094482765 0.090946056 0.057370275 0.05123947 0.0030405915 -0.104081534 0.03352102 0.08355279 -0.083869666 -0.040582974 -0.056084417 -0.026976265 0.036364987 0.044465426 0.019437723 -0.13235387 0.05003721 -0.09223617 0.12562944 0.059322353 0.02488153 -0.03523282 -0.12718852 0.022880396 0.057552323 -0.052198514 -0.09675165 0.04623905 0.13141167 -0.0512773 -0.10217297 0.13560697 -0.05626539 0.100493826 0.007813565 -0.08679914 0.008950102 -0.006522213 -0.14738171 -0.038865406 -0.025186948 0.06798528 0.007918485 -0.010133694 0.1252311 0.019758409 0.11293295 0.0009837219 0.008267447 -0.02698503 -0.13148335 0.028714186 0.09586718 -0.12019269 0.0093256915 -0.06952403 0.084716864 -0.09575805 -0.12839659 -0.050015334 -0.039044403 0.1431688 0.052189503 0.0014760984 0.01371907 0.03475884 -0.083892964 -0.123641424 -0.12550993 -0.051745567 -0.04306542 0.09923514 0.097219504 -0.08044813 0.11026397 0.08766975 -0.08519188 -0.12639631 -0.029200701 -0.07076512 0.046792675 -0.04748111 0.11469462 -0.04879643 -0.052771363 0.041621387 -0.071951546 0.04779638 0.06944885 -0.015459635 0.10989864 0.06862707 -0.07490159 -0.029535793 0.106641576
208 -0.0371167 -0.13067561 0.14280096 -0.15815496 -0.06512705 -0.08955072 0.052239046 0.08865333 -0.07298313 0.01426041 0.004755219 -0.09771379 -0.11110172 -0.11783964 -0.0776674 -0.11919247 0.012723224 -0.008690294 -0.033328064 -0.07689306 -0.057811484 0.05788872 -0.14341655 -0.041761264 0.12937461 -0.082472995 -0.08581621 0.08157206 0.027929585 0.01018381 -0.10093204 -0.11012611 -0.057072412 0.0886674 0.046454802 -0.01776336 -0.086926356 0.10639905 0.08290665 -0.07891977 -0.015488109 -0.08573814 0.002460563 0.07045806 0.08730566 0.13343316 0.0905786 -0.055891152 -0.027908243 -0.050235882 0.07329216 -0.13289164 -0.13312261 0.09988323 -0.10179957 0.12802802 -0.051345024 -0.024083007 0.097421035 0.11802264 -0.115200624 0.08787392 -0.086039424 0.02284415 -0.03540357 0.015913857 -0.012884917 0.017355189 -0.12100815 0.11331876 -0.048887476 -0.052033924 -0.11535845 0.07582367 -0.1046501 0.09323617 -0.13227095 -0.058876507 -0.0005173312 -0.0924569 -0.0038299973 0.08299791 0.03357313 -0.020626625 0.005035467 -0.00023970133 0.041055042 0.11316491 0.08266657 -0.00020134782 -0.026296956 0.091836095 -0.07736914 -0.031712383 -0.08852586 -0.1257451 0.048524436 0.07758567 -0.13437858 -0.037602156 0.07038575 0.071292356 0.07619444 -0.029535038 0.13999994 -0.07480953 -0.0009771347 0.13445821 -0.14310576 0.1106303 -0.016293872 -0.015760973 0.07690667 0.059720084 0.004746581 0.005833161 0.130689 -0.09329901 -0.017686876 -0.047189523 -0.10128166 0.1048953 0.041071128 0.11468792 0.114476986 -0.0658538 -0.010160071 0.0829799
201 0.1206996 0.07148004 0.024514502 -0.056217458 0.03306518 -0.1337337 -0.101791486 -0.054501787 -0.11288265 -0.042759787 0.088390306 -0.008680941 -0.012555166 -0.08222648 -0.08263235 -0.003747656 0.08297153 0.10178226 0.12919343 0.10012659 0.027107505 -0.12930785 0.105670415 -0.11999287 -0.09194012 -0.09605413 -0.14422579 -0.12275237 -0.1053327 0.00857488 0.094606966 -0.003956923 -0.04709063 0.14920792 -0.13205501 -0.0109437145 0.09844369 0.05345463 0.0069161733 0.050175548 0.04576499 -0.073081404 0.064238034 0.07785858 0.11866734 -0.08255682 -0.1015472 0.09640478 -0.140129 0.06725429 -0.14655142 -0.027406268 0.1447378 -0.08071193 -0.035612278 0.025537476 -0.092457674 0.11983895 -0.07048237 -0.040105168 -0.09070258 0.10020292 -0.0037998974 -0.11248981 0.118793495 0.052892633 0.03607146 0.111357056 0.060626492 0.025565062 -0.04769973 0.055745747 0.026964083 0.09059324 0.08911229 -0.04112564 0.043260187 0.069304675 -0.11736724 0.041320514 -0.031117205 0.08227161 0.053956237 0.040107477 -0.011923649 -0.0868004 -0.076688655 0.068326876 -0.121622644 -0.04188067 -0.08943497 0.08034736 -0.06547091 -0.10455918 0.110709526 0.012727702 0.04154278 -0.10811887 0.14077348 0.09215236 0.077858314 -0.02848201 -0.10216558 -0.056969382 0.13617909 0.102790006 0.09559252 -0.036762126 0.023998583 -0.017441759 -0.06085488 0.052552756 -0.07222496 0.05438724 0.09931625 0.06470159 0.001890861 -0.04973197 0.13488783 0.068426885 0.08811909 0.1129355 0.107265286 0.05768508 0.051780526 -0.060251355 0.025222119 -0.04086445
18 0.14104635 0.11109452 -0.056977503 -0.09557173 0.031892944 -0.09935234 -0.119019225 0.043377653 -0.03093344 0.12863211 -0.09398166 -0.118342005 0.0074616447 0.0073535005 0.0079310965 0.009189027 -0.0013455834 -0.021212896 0.001352695 0.010111474 0.080862224 0.037112992 0.11192825 -0.034553844 -0.10490568 0.12975495 -0.036239337 -0.01882165 -0.015858911 -0.15564719 -0.019918012 0.11785052 0.05505064 -0.0057666623 0.11111152 0.065811105 -0.06741055 -0.09776756 0.021953706 -0.07803741 0.12262448 0.07331248 -0.118201256 -0.07208014 -0.06011196 0.077684626 0.008877912 0.06415255 0.06328022 0.026746724 0.09162434 0.06860256 -0.005410201 0.049246658 0.040042896 0.005658073 -0.101364724 -0.027445111 0.07560169 0.023290621 0.1077411 0.015633423 0.086821474 0.06817536 0.02397882 0.09022553 -0.14296283 0.046028003 -0.04790947 -0.093548715 0.030445876 -0.0027559916 -0.06489713 0.13301678 0.06447597 0.036467683 0.14286628 -0.09004605 -0.06791158 0.03267477 -0.041114215 -0.1056354 0.10135607 0.0838334 0.042316794 0.0017399194 -0.05056284 0.06966124 -0.09969999 0.025557417 0.06192529 0.11264799 0.09008293 0.07859703 0.07813381 -0.109482415 0.0071875933 0.098869324 -0.025249202 0.12969473 -0.05485014 0.0068608276 0.05577428 -0.04402062 -0.1263085 -0.016675407 0.09731104 -0.09322844 0.0029029015 0.0014758016 -0.07328557 -0.036488485 0.07653367 -0.097272165 0.120935835 -0.01877684 0.008409858 -0.010914151 0.077273965 -0.09641205 0.0056537827 0.03700821 -0.13570282 -0.0642952 -0.13055323 0.051149175 -0.1349287 0.03144963
19 -0.117023826 -0.087775126 -0.121733695 -0.020607613 0.03056392 0.040609177 -0.13020673 -0.019892253 0.027387453 -0.034664404 0.06556074 -0.03537382 0.059182804 -0.041394506 0.051851816 0.019490264 -0.07746641 -0.12641901 -0.06412016 0.13572076 -0.0599913 -0.037965044 -0.03851759 -0.087000564 -0.011454036 0.12773122 0.050759975 0.010970036 0.07154417 -0.097078845 -0.06872687 0.01069348 -0.0005877501 0.0718729 0.024985334 0.054929074 -0.10360508 -0.12092582 0.05459269 0.01585988 0.110374704 0.03223744 0.12187504 0.04145386 -0.03194236 0.021566987 0.11736096 0.10154347 -0.04335898 0.119441606 0.11152448 0.08539874 0.0075241895 -0.028932318 0.11018911 -0.10498646 -0.045178644 0.12088037 0.075415604 0.046953313 0.052471336 0.011832158 -0.014509254 -0.008182662 0.12267583 0.11817026 0.035374768 -0.026850374 -0.02982136 0.10373237 0.0788884 0.0069997185 -0.07501738 0.05746162 -0.036561288 0.1025112 -0.044317234 -0.06139355 -0.0013414319 0.055060104 0.0010001035 0.13248743 0.079214245 0.13760035 0.023561455 0.1411738 0.039426833 -0.073471025 0.1020801 0.12498709 -0.07224185 0.0848038 -0.111552306 0.034853652 -0.09217367 0.13051473 0.017736264 -0.117539205 -0.12443737 0.011624016 0.112001315 0.12601435 -0.10864455 0.10752465 0.09300428 0.09820883 0.059549775 0.12898572 -0.118373685 -0.047151454 -0.10094599 -0.13648814 -0.07897891 -0.13436209 -0.087914445 -0.13767111 0.09668788 0.13719782 -0.09269092 0.05555001 0.08507701 -0.018088793 0.12669475 -0.114482485 -0.072764546 -0.08416543 -0.1257839 0.038428545
20 0.012074511 0.105087295 -0.026961077 -0.06017762 0.06182057 0.07223871 -0.1327256 -0.06885461 -0.1446381 -0.11078718 -0.039128132 0.108595 -0.11238973 -0.08389181 0.010791311 -0.13912204 -0.03286226 0.07311447 -0.023903174 0.09004964 0.060653683 -0.14674136 -0.13048269 -0.058713127 0.10437396 0.13909698 0.06509446 -0.024904223 -0.04600473 -0.115833975 0.061201952 0.038201455 0.11425003 -0.07006538 0.017412955 -0.0110496655 0.060846157 0.09616018 -0.08294206 0.037733164 -0.031518452 -0.09661607 -0.06725395 0.076933235 0.13277173 0.052009128 -0.07874868 -0.11619247 -0.0039690104 -0.08889728 0.021579629 0.0770105 0.047376364 0.091649204 -0.03605004 -0.11601305 0.11750903 -0.1150832 0.12618873 0.052195832 0.006604441 -0.0253928 0.01343441 -0.049859613 -0.008758541 -0.009502276 0.033818025 0.099933036 -0.015841011 0.10845089 -0.08364888 0.09445443 -0.11530483 0.06175863 0.11230416 0.10354721 -0.08199257 0.075868696 -0.082241215 -0.1012088 -0.10737448 0.086963296 -0.08117504 0.04332332 -0.08580227 -0.073791414 -0.031951953 0.10596445 -0.12235107 0.025523737 -0.038707383 0.071639426 0.024578912 -0.0923728 -0.12502702 -0.056156047 -0.07584437 0.033826 0.10941907 0.028100887 0.051697228 0.032318596 -0.10562545 -0.10452632 0.08376456 0.023279974 -0.14766674 0.100677885 0.0026895078 0.0680194 -0.011773889 -0.10393011 0.048513677 0.025989404 -0.022209989 0.04403169 -0.08515637 -0.10839282 -0.07179943 0.11862618 -0.015290461 -0.09992407 0.02076554 0.0823956 -0.09087304 0.087645106 0.07174201 0.062460143
21 -0.0033325343 -0.010077507 -0.120512344 -0.05817604 0.12622607 0.038612586 -0.07479484 -0.1241563 -0.10075238 0.14762032 0.122540325 0.0074795065 -0.0025814387 0.03726131 0.07699628 -0.14451836 -0.062307987 -0.038437895 -0.041759197 0.107767574 -0.009014704 0.030690275 -0.027287439 -0.02327226 -0.087312266 0.03198872 -0.009428583 0.09886594 0.059505448 -0.096003935 -0.1507174 0.122806974 0.04461356 0.020147001 -0.08509775 0.088403195 0.10781138 -0.09865963 0.0329238 -0.04035785 0.02674214 0.06666176 -0.057002053 0.008229952 0.029706921 -0.063904434 -0.022759957 -0.059446037 0.081186585 -0.10711829 -0.08525082 -0.061144013 0.10511892 0.09142083 -0.07113185 0.12708554 0.112908915 0.027117712 0.1082328 0.017931726 -0.12066673 -0.008001824 0.07178018 0.05730224 0.13301864 0.043237843 -0.060239725 0.08185004 0.12607911 0.054851767 0.12050023 0.047944445 -0.085982576 -0.08504174 -0.07680771 0.04529438 0.06230711 0.12823267 0.13993993 -0.081748016 0.028338905 -0.010657331 0.055227544 -0.039771765 0.13311295 0.05346994 -0.08714354 -0.069104746 0.07941296 -0.03309596 -0.118066125 0.074578024 -0.051359072 0.06091856 0.046748336 0.11526863 0.07812721 -0.07719055 -0.046167806 0.04631041 -0.06426438 0.109450445 0.03855527 -0.119184405 0.018074611 -0.07686619 -0.002839882 0.117663264 0.019827874 -0.08223044 0.06435205 0.14111832 -0.10808116 -0.09710637 0.0800236 0.017640999 -0.02057307 -0.06346732 -0.105454005 0.11615599 0.08756621 -0.116264045 0.0468361 0.08948936 -0.08511499 0.1160618 0.13448128 0.046266984
22 0.053142205 -0.09188042 0.02297945 0.114918336 0.06856782 -0.110036984 0.06454296 -0.1264812 0.0694584 0.051385216 -0.03133293 -0.104886405 -0.018067734 -0.019309165 -0.1211754 0.09158196 -0.113572724 0.049010452 0.07046052 -0.105586156 0.0025863752 0.057292 0.08165311 0.09001629 -0.11739987 -0.007126211 0.014985459 0.08114408 -0.038935173 -0.0212284 -0.09881492 0.009266852 -0.018168703 -0.03958486 0.009375448 -0.090149015 -0.07368272 -0.048281968 0.080932006 0.017086945 -0.13601346 -0.027488088 -0.082091466 -0.016344981 0.10339988 0.12811843 -0.14186272 -0.066586845 0.061226346 -0.07171314 -0.033003215 0.055277854 0.023070654 0.10444988 0.04318862 -0.0147114135 0.100812174 0.03145992 -0.046505447 -0.06732257 -0.015229602 0.06302752 0.026904473 -0.112900496 -0.060514517 -0.0069203544 -0.108433925 0.02118889 -0.059992082 -0.121323064 -0.12324636 -0.08824928 -0.029590616 0.01267769 -0.041306023 -0.0384885 0.10315696 0.044538517 -0.12516396 -0.05135894 -0.04412537 0.14233877 -0.1184988 -0.01411393 -0.00923495 0.010396746 -0.06253591 -0.046422165 -0.05488316 0.0070540365 0.095045194 -0.11365522 0.06604722 -0.07863789 0.09588469 0.0940018 -0.03517352 0.09534821 0.02758669 -0.04395248 -0.09248742 -0.14343505 -0.008238237 0.030512977 -0.040048845 -0.033858288 -0.118574426 -0.10275469 0.12097344 -0.041192338 0.019431544 0.06913775 0.042872965 -0.057846665 -0.1318506 0.013902425 -0.075925164 0.03374016 0.12544675 0.02592898 -0.07667155 -0.10192157 -0.16526279 0.11166914 -0.06468787 -0.10518041 -0.031248791 -0.061719947
23 0.090534374 0.09315481 -0.05464469 0.11081366 -0.12536018 -0.0879312 -0.027032241 -0.024056936 0.0585391 0.1423546 -0.055725683 -0.059501607 0.004253511 0.13281024 0.032550808 -0.10937182 -0.03488173 -0.12342925 0.116937414 -0.015151863 -0.08094212 0.11224031 0.09393292 -0.044818502 0.10393823 0.1295039 -0.10404875 0.014361493 0.07980513 -0.044890236 -0.09408867 -0.12297464 0.08454698 -0.036937222 0.05037488 -0.094138 -0.14060515 -0.015737258 -0.035179235 -0.119688846 0.14675069 -0.026832161 0.108923204 -0.039260596 -0.093349 0.042445723 0.094297975 -0.10903783 -0.013707423 -0.1232239 -0.1359786 0.10914143 0.08893211 -0.06434417 -0.09396331 -0.058219716 0.1515429 0.059954006 -0.03332303 0.11602749 0.03821198 0.10900165 0.018337447 0.091063656 -0.067605495 -0.08321448 0.08480134 -0.0762964 -0.033089966 -0.08325363 -0.11814713 0.14632502 -0.088839434 0.13969195 0.06833845 -0.075579695 -0.044196464 -0.025295883 -0.13189615 0.0058076535 0.08907934 0.054963026 0.12626055 0.0847718 0.11632585 0.088664256 -0.03427483 -0.027834093 0.057112776 0.09462386 -0.033827692 -0.021863535 -0.016328875 -0.06592125 0.061072942 -0.001775919 -0.10018237 -0.098700926 -0.031714544 -0.0746726 -0.02488159 -0.0238666 -0.10306364 0.03548492 -0.04243018 0.032982305 -0.02038157 -0.11387765 0.027937006 -0.050212815 -0.015364575 -0.04821518 -0.04409516 -0.07675529 -0.085583195 0.052620176 -0.098153636 0.15831326 -0.13367882 0.13062416 -0.10532861 -0.09580192 -0.009389229 0.063281566 0.10277631 -0.015042205 -0.023553792 0.0059066727
24 0.01811995 -0.025913155 -0.14656037 -0.12016657 -0.06900412 -0.08271647 0.12669736 0.07592115 0.10242025 -0.057685178 0.07750716 -0.04304032 -0.13130826 0.02406696 -0.05861899 -0.109359436 0.0442032 0.028715298 0.12933053 0.12898149 -0.040350415 -0.08665307 0.08172854 0.108191215 0.02239616 0.14416365 -0.07950512 -0.09118002 -0.05703337 0.10679683 0.015290319 0.117124125 -0.057988975 0.14087968 -0.090097934 -0.087431155 -0.015935794 0.105784155 0.03450799 0.0004845931 -0.12560987 0.08415364 -0.033776682 -0.025886498 0.12301538 0.10386835 0.03312626 -0.13251016 -0.109360985 0.017178964 0.041914996 0.006595511 -0.09095911 0.014339058 0.088550456 0.085919455 -0.0012949889 -0.116312034 0.03171975 0.056709923 -0.09966931 -0.051912658 0.0928657 -0.1058187 -0.06576612 0.11493646 0.07705929 0.06180151 0.12814462 -0.12758741 0.044958126 -0.019392611 -0.119063355 0.04053043 0.13509272 0.11276752 -0.040733222 0.071664035 -0.04989166 0.13233775 0.10198823 0.14640139 0.1217703 -0.123844616 0.09353921 0.09795973 -0.023172501 -0.038455732 -0.031270996 0.11863991 -0.090202235 -0.030611636 0.029652083 0.039596718 0.11349106 0.13792858 0.13955365 -0.051178433 -0.11906506 0.021072572 0.008462124 -0.07453996 0.036542427 -0.058296632 0.052391242 0.088458486 0.10595677 0.13666686 0.051598668 -0.08037575 -0.067595124 -0.109021135 -0.009966569 0.097821176 0.116106436 -0.06197657 0.0128293745 0.102401786 0.035074446 0.05596928 -0.106466085 0.08115792 0.026877474 -0.11210348 -0.057653923 -0.007939998 -0.064684525 0.010969
25 -0.04611793 -0.021669395 0.08948031 0.115337856 -0.080362976 0.04568842 0.04304466 -0.023255453 -0.006863711 0.07816618 0.054414038 0.1335654 0.051843487 -0.03876631 0.06405797 0.05574169 -0.058193132 0.1114185 0.0066753835 0.007945695 0.05110156 -0.0018638002 0.025647286 -0.04152782 0.00990417 0.012344367 0.09630737 0.1323029 -0.02433448 0.081226446 -0.052965827 0.0063771247 0.06652107 -0.03263118 -0.06313906 -0.11015334 -0.10873367 -0.12305485 0.0032587582 -0.12466729 -0.049825326 0.052443396 -0.049746618 0.05654144 0.08874876 0.07893467 0.0960981 0.05425346 -0.072743714 0.10890092 0.009827684 -0.07182333 0.05052784 0.047672324 0.11330989 0.026025347 0.0020795865 0.07313668 0.05289805 0.033580486 -0.01802396 -0.035979595 0.11259852 -0.02364336 0.066717595 -0.122207016 0.010319202 -0.15268107 -0.11225639 0.067540236 -0.012295531 0.057617996 0.06152303 0.06233409 -0.050317343 -0.12138245 -0.106928766 -0.098246776 -0.045472186 0.08959819 -0.007202595 -0.1143377 0.10661589 -0.009285524 -0.023871122 -0.06667575 -0.073433146 0.042531032 -0.059129447 -0.14488262 -0.041601714 0.07406579 -0.08651979 -0.10963097 -0.09942366 0.06431941 0.11558833 0.0721404 -0.11747543 0.042382434 -0.101199254 0.04285214 -0.12936826 -0.10420408 0.057049643 -0.009437071 -0.10765255 0.08661546 0.05544163 0.02176688 0.08064241 0.07506223 -0.08461472 -0.07747434 -0.13596678 -0.13949013 0.015145458 -0.11387136 -0.04818177 0.09544083 0.025451137 -0.086422816 -0.006211286 0.03830295 0.019948173 -0.09030375 -0.048851956 -0.01652668
26 -0.009778509 0.08059147 -0.08875113 -0.13295381 0.12510325 -0.035067316 0.070443995 -0.11228488 0.06543818 -0.00076378166 0.0331502 -0.09852847 0.019273061 -0.117790304 -0.104246914 -0.10403145 -0.08358367 0.048479512 0.14077142 -0.006096458 0.07765133 0.06459508 -0.01227292 -0.08861304 -0.1318368 -0.062056903 -0.05072866 -0.11684853 -0.06415986 0.06532754 0.0044002747 -0.06422816 -0.09405833 -0.07502507 -0.07134629 0.024701087 0.039355773 -0.05895439 -0.110584974 -0.012729327 -0.017778246 -0.1256817 0.12907986 -0.010803296 0.031015292 -0.14796878 -0.10946214 0.11554169 -0.040291306 -0.14951466 -0.0611766 -0.019134924 -0.080889836 -0.06903314 -0.08620744 -0.040091183 -0.008612879 0.07419271 0.028442545 -0.109992206 0.06751215 -0.12478614 -0.06743062 0.118954316 0.11299945 -0.009025386 0.13458146 -0.01924356 0.13753808 -0.04869508 -0.12295174 -0.10275525 0.10876315 -0.09158683 0.095880486 0.007205972 0.08246608 0.1132165 -0.0859915 0.124577776 0.049364153 -0.007863725 0.07324784 -0.0032319175 -0.08957782 0.007858731 0.10345946 -0.059473258 -0.072587356 -0.11738794 -0.06888635 -0.08522983 -0.056997526 0.1130051 -0.016862454 0.0688587 0.11915359 0.06797252 0.04673088 -0.12722138 -0.119028114 0.03731458 -0.060471453 -0.100967966 0.07031574 -0.008197688 0.11778191 0.13045204 -0.09326563 -0.07439212 0.022817602 -0.04856537 -0.10830047 -0.004317593 0.0017269775 -0.0846356 0.09019133 -0.009600519 -0.06869041 -0.115248024 0.1336817 -0.10528921 0.10811579 0.13279253 -0.0566744 0.02379664 0.039021283 -0.07746311
27 -0.022292625 -0.046661444 0.09877238 -0.14240105 -0.067915305 -0.14541645 -0.10543971 0.026510203 -0.033922378 -0.020886824 -0.09056103 0.06215801 -0.13683167 -0.0045870286 -0.0075414563 -0.13337447 0.12533204 0.03498288 0.1393458 0.053488433 -0.018486135 -0.05959389 -0.051448274 0.026000815 0.04398637 -0.007948596 -0.028512385 0.108054265 0.11103363 -0.15350008 -0.062174063 -0.035021715 -0.12937623 -0.13608743 0.09100367 -0.09582351 0.012501113 -0.0535931 0.088447824 -0.053206895 -0.11113436 -0.12930222 0.09023398 0.11691257 -0.13589443 0.1205107 0.097251035 -0.09198058 -0.0033213256 -0.048257403 0.055119228 -0.096337326 0.123609066 -0.033774633 -0.108694546 -0.078823134 -0.06404473 0.06338428 0.0006793974 -0.12584178 0.05518285 -0.13896765 0.0056299535 0.020056333 0.03709344 -0.005282479 0.10689784 -0.13245945 -0.14421186 0.009640549 0.012492901 -0.10001603 -0.039948996 0.08360896 -0.048352342 -0.123120785 0.06850684 0.026372831 -0.110370696 0.11156355 -0.002186778 0.096993074 -0.03763662 0.1343614 -0.0419573 -0.098066546 -0.054023918 0.07203413 -0.0644548 -0.043133274 -0.10519577 -0.14153732 -0.03406566 -0.01413156 0.12412231 -0.060643222 -0.011272772 0.059867516 -0.061951067 -0.045877703 -0.12836646 0.12152607 -6.731073e-05 -0.034017567 0.13529462 -0.021721615 -0.12799224 0.040960524 -0.0892026 0.009890876 0.015488447 0.10963039 0.112589814 -0.03864762 -0.019898802 0.055824317 -0.10122332 0.15105595 -0.037957862 0.04299518 -0.03149479 -0.0424766 0.04315968 -0.025466997 -0.08654633 0.08090144 0.076989494 -0.07898314
