246 128
0 -0.23568425 -0.0886696 0.35203207 0.801344 -0.22157654 0.6359828 0.4916066 0.121270955 0.47993305 0.19504869 0.53416336 -0.0751251 0.7603038 0.42788833 -0.26937243 -0.20842178 0.53419536 -0.41829777 -0.31018195 -0.736807 -0.05959453 0.01000054 -0.49620143 -0.51294625 0.7607504 0.5405076 0.09238117 -0.1468899 -0.37954277 -0.553684 -0.517906 0.12188967 -0.110776044 -0.681974 0.55929315 -0.14449668 -0.113966204 0.35578164 -0.1488857 0.06734276 -0.4695734 0.48540786 0.20825763 0.4014865 0.08367741 -0.56179285 -0.5913727 0.14642042 -0.10186109 -0.9162234 0.12245336 0.03869926 -0.3235069 0.37289897 -0.2754465 0.19624704 -0.21255574 -0.1272905 -0.18476526 0.7271945 0.4152211 -0.4496965 -0.42261288 -0.6936202 -0.36517927 0.44275516 0.39725164 -0.11111685 0.6988428 0.16017929 -0.5225216 0.42989573 -0.44610766 -0.27162576 0.98218584 -0.94243795 -0.07015738 -0.13448964 0.41614968 0.08515299 0.027464366 0.12736239 0.28376043 -0.123399496 0.023519417 -0.3046955 -0.5036785 0.34473985 -0.22906092 0.33869952 -0.27165642 0.66450274 0.5084113 0.6337624 -0.047946908 -0.5510388 -0.55739325 0.5398305 -0.27193478 0.758344 -0.38622698 0.18736036 0.5246881 0.27272078 -0.05852171 0.50693166 -0.61116725 -0.37236714 -0.1805348 0.017533066 0.54425365 0.40315828 -0.19016401 0.19994394 0.89781713 0.39802602 0.2053987 -0.8825995 -0.10689778 0.43272114 -0.2779349 -0.21203235 0.5298471 -0.67614317 0.15155736 -0.31954628 -0.81938696 -0.38668483
1 0.0357752 -0.21366273 0.054427944 0.8167743 -0.20117544 0.59309757 0.18872951 -0.19070274 0.60221374 0.043657515 0.24494687 0.5770187 0.09062281 0.26886716 -0.0829609 -0.16160008 0.38266233 -0.47407925 -0.12777416 -0.1378059 0.25206447 -0.24056941 -0.21848989 -0.34971118 0.5057156 0.39208457 -0.5089588 -0.7194618 -0.26119563 -0.29047826 -0.90376705 -0.049032997 -0.21542765 -0.3935919 0.04894307 -0.35877258 0.037021324 0.119381785 -0.23804462 0.19834152 -0.64711386 0.23383623 0.69431996 0.65737206 0.10314959 -0.6250935 -0.88956827 -0.09106285 0.16063403 -0.96547645 0.109869294 0.0018509954 -0.0837414 0.25745112 -0.59332997 0.01662947 -0.2899803 0.46632114 -0.24888785 0.64315355 0.77020365 -0.25870624 -0.62166446 -1.0453355 0.27662125 0.2196686 -0.08664794 -0.13591348 0.48824078 -0.1135583 -1.0475105 -0.07355276 -0.46302336 -0.39254883 0.51669735 -0.4884405 -0.14325815 0.17246336 0.21830265 0.08591652 0.03809732 0.19841208 0.07049711 0.15588026 0.036367703 -0.20728356 -1.0788006 -0.16946441 0.08749789 0.61086106 -0.33147484 0.1342604 0.32664394 0.6216593 0.20480818 -1.1005524 -0.2632117 0.9427514 -0.14090982 0.56987256 -0.19941302 -0.37635994 0.27455306 0.40524668 -0.035095114 0.6542494 -0.1273729 -0.33866665 -0.13577272 0.145652 0.20458876 -0.19273822 -0.49497288 -0.080558166 0.75247926 0.50592244 0.39282325 -0.62915003 0.071965225 0.55144215 -0.21553141 -0.62946916 0.6758465 -1.1101928 0.54600877 -0.13045633 -0.46998844 -0.52700335
2 -0.042915918 -0.047119778 0.20177102 0.63945335 -0.03801782 0.50148165 0.32035863 -0.020921063 0.4755838 0.11816854 0.34342936 0.29988053 0.34867483 0.23947915 -0.16591431 -0.085445166 0.39971337 -0.33460215 -0.23875327 -0.3591857 0.044219486 -0.0700944 -0.29174733 -0.34782714 0.5166553 0.38209435 -0.15836944 -0.33588552 -0.21363378 -0.40842515 -0.573493 0.13099293 -0.080026 -0.34099764 0.30912036 -0.21373437 -0.026873711 0.16064525 -0.1781478 0.1407116 -0.41676244 0.24593775 0.33449087 0.40227434 0.21101035 -0.5148123 -0.52336794 0.12196822 -0.026303174 -0.83610785 0.032194562 0.03564923 -0.1034233 0.34116596 -0.33450434 0.11350542 -0.16210753 0.087225996 -0.11486613 0.55078936 0.5427562 -0.2106167 -0.4272191 -0.70990145 -0.06069703 0.2320011 0.13661161 0.015020793 0.57756555 0.07147263 -0.61660236 0.099796265 -0.4481466 -0.38833886 0.53882223 -0.5785242 -0.1522126 0.037835985 0.29118964 0.112959415 0.025885427 0.133993 0.15533301 -0.0374039 0.071964815 -0.2268872 -0.6084091 0.109560646 -0.036300234 0.30130082 -0.22633494 0.25839147 0.3217708 0.4463438 -0.014078487 -0.62631154 -0.34488237 0.6505498 -0.21513511 0.60435534 -0.25924662 -0.017713774 0.23634662 0.2974916 -0.07763937 0.50948 -0.29603603 -0.26966155 -0.25106683 -0.010293177 0.39636698 -0.0036304884 -0.33509973 0.11641378 0.7370503 0.3382212 0.26459962 -0.632319 0.0543698 0.44458163 -0.32014614 -0.31055817 0.49772483 -0.63414943 0.24467053 -0.24365321 -0.43925932 -0.331779
3 -0.8174956 0.0081587145 0.061155923 0.052029368 0.27107474 0.42603868 0.23174684 -0.2615175 -0.35574394 0.33922935 -0.026694419 0.21303996 0.17753878 0.09774781 0.093220524 0.11659412 0.30369097 -0.4113164 -0.040222567 -0.48314422 0.35396665 0.15138303 -0.55474514 0.2553373 -0.5045149 -0.17360985 0.08723371 0.106809594 -0.098701745 0.3018665 0.13205062 0.07515807 -0.17546242 -0.31138408 0.6396501 -1.0054696 -0.50345486 -0.5585007 -0.30228394 -0.70511556 -0.5895106 0.15578388 -0.23013546 -0.08540648 -0.33301276 0.5171553 0.4533248 -0.46612778 -0.14377081 -0.2718982 -0.30936348 0.3664998 0.32650816 0.04966882 -0.09298281 0.26372322 -0.81020266 0.14342396 0.17180642 -0.14756972 -0.12832367 -0.02710211 -0.32085457 0.10383781 0.17082024 -0.19010887 0.03949634 -0.1746203 0.46536052 0.1444506 -0.4978916 -0.14278136 -0.3976616 -0.07981179 0.0032330153 0.7237281 -0.52884007 0.11096729 -0.2642927 -0.31502312 -0.74578196 0.19335778 0.3384956 -0.30179796 0.41504803 -0.44846565 -0.74070036 0.20013541 -0.24491812 -0.054693785 -0.11430469 0.6534829 0.07498527 0.06475893 -0.22213508 -0.7326453 -0.06846749 0.6375117 -0.11022962 -0.4538345 -0.3620864 0.17811455 0.3116359 0.2770439 0.06316568 0.25188053 0.108341485 0.25455922 -0.5617199 -0.11824426 -0.43676442 -0.65038157 -0.41325793 0.097313896 -0.13874806 0.3835149 -0.18582372 0.12041164 0.19618429 -0.205658 0.363936 -0.28768772 0.32274517 0.11207848 0.45413265 -0.025544655 -0.6407712 -0.1477572
4 -0.7366709 -0.01689171 -0.009184087 0.22539854 0.45789835 0.03159556 0.24451257 -0.22282973 -0.23469034 0.8330006 0.27851585 0.39433995 0.36114958 0.32446143 -0.08409044 0.3909147 0.37894604 -0.39215404 0.0918479 -0.9120091 0.21780927 0.02024476 -0.6503963 0.34831205 -0.3994282 -0.13749817 0.2847148 0.43319142 0.12811497 0.3048711 0.31260183 0.30573773 -0.18166631 -0.37433928 1.0273637 -0.96401113 -0.5965266 -0.5546615 -0.29931945 -0.94925195 -0.6742086 0.36772934 -0.3126288 -0.39346135 -0.23230258 0.3200753 0.8077064 -0.07321616 -0.17794758 0.013792094 -0.16167681 0.5451454 0.20765656 0.39685357 0.103083886 0.49441275 -0.619555 -0.3327566 -0.10274109 -0.7963338 -0.53575087 0.05708483 -0.3821629 0.6048245 -0.29067454 -0.28445902 0.096290566 0.21153429 0.4528759 0.4682963 0.05024063 -0.34269613 -0.65228254 -0.29665878 -0.23315904 0.2834858 -0.5295745 0.0044914475 -0.014592692 -0.22167957 -0.8985558 -0.035571884 0.034812663 -0.36805058 0.43317622 -0.69411767 -0.2810013 0.7266206 -0.41693556 -0.17062314 -0.09191092 0.76270324 -0.20013371 -0.4067385 -0.46463034 -0.49055964 -0.24087831 0.4169648 -0.4029593 -0.38120565 -0.2986799 0.3198104 0.5448578 0.16437434 -0.031644437 0.097850844 -0.18328343 0.44386443 -0.72423744 -0.077332 -0.15781575 -0.38581324 -0.3014809 0.36492264 -0.3195796 0.29684803 -0.14555007 0.1536647 0.25089034 0.070960306 0.27320045 -0.121660806 0.4539069 0.1781978 0.23775043 -0.14155631 -0.6252266 -0.27125746
5 -0.58902913 0.017247694 -0.09189974 0.18386109 0.41977006 -0.07894634 0.18076132 -0.27414554 -0.17282285 0.71188533 0.018128112 0.42471513 0.009490206 0.2927901 0.2028493 0.39967942 0.17330362 -0.62456465 0.1332517 -0.82534033 0.23209263 -0.011943467 -0.6735982 0.29862323 -0.45091724 -0.17494464 0.051712506 0.14099346 0.3974955 0.31066355 -0.06451904 0.17034394 -0.17983846 -0.24822332 0.9970783 -0.8248914 -0.4238463 -0.593008 -0.15224822 -0.99497986 -0.66948193 0.29251745 -0.12346503 -0.33750635 -0.41815624 0.3415443 0.7400899 0.009229684 -0.376316 -0.037225157 -0.081281945 0.5614932 0.29135722 0.40316045 0.11874377 0.37857875 -0.74335986 -0.19250245 -0.12417994 -0.7042788 -0.33442134 -0.114923865 -0.30801323 0.4458184 -0.20660639 -0.41499045 0.011161582 0.034382343 0.47649503 0.39846414 -0.31425428 -0.43644965 -0.8090715 -0.4291506 -0.36791486 0.3105677 -0.39360178 0.14020313 0.029420542 -0.34443787 -0.9934464 -0.10763022 0.015755842 -0.24156262 0.42445433 -0.55409324 -0.3497845 0.4712979 -0.32181218 -0.22286737 -0.23757134 0.64847076 -0.14666538 -0.31843135 -0.36962628 -0.41174895 -0.3041216 0.5693604 -0.22674096 -0.43767983 -0.29997858 0.3303703 0.55933815 -0.019565888 -0.15477374 0.32269984 0.112710565 0.28377467 -0.79896736 0.035591956 -0.23964171 -0.50751305 -0.6288663 0.2119311 -0.32349184 0.1601742 -0.0325971 0.20099108 0.36300573 0.0498426 0.22055002 -0.01967273 0.44222298 0.25930887 0.36517927 0.118062906 -0.3989152 -0.24048635
6 -0.5455845 -0.0061247083 -0.20234148 0.511215 0.4264069 0.3464769 0.21469198 -0.42755786 -0.07036471 0.6958276 -0.26614657 0.67777884 0.2425751 0.34943885 0.1467643 0.3622998 0.30895898 -0.4575794 0.37696698 -0.7555919 0.36703634 -0.21217883 -0.39437273 0.47620142 -0.5971327 -0.06334528 -0.38238776 0.01051467 0.13620396 0.27925107 -0.07878511 0.11132467 0.07823981 -0.33634087 0.87997764 -1.0065525 -0.40583143 -0.17950206 0.06790066 -0.5753053 -0.9553826 0.065136835 -0.012749135 0.04333757 -0.119601615 0.21437387 0.47735023 -0.29162222 -0.38136882 -0.20390885 -0.34777838 0.33539695 0.5308567 0.17973587 -0.48443043 0.43046564 -0.7304603 -0.29692492 -0.17978248 -0.7555536 -0.13854209 -0.04969492 -0.47289202 0.18915915 0.13123323 -0.46547008 -0.22004825 -0.095025636 0.8010772 0.46988857 -0.3449371 -0.26002967 -0.7417209 0.08217255 -0.28949592 0.39251015 -0.36276504 0.2088652 -0.06059993 -0.17765829 -0.6392741 -0.07930603 0.36678338 -0.30169183 0.6370416 -0.6093965 -0.4461121 0.40867963 -0.3854103 0.20352907 -0.4235779 0.8423849 -0.16300654 -0.080592535 -0.40955073 -0.49965852 0.03317759 0.51777494 -0.42027938 -0.48182327 -0.24948658 0.21401575 0.25713915 0.3278758 -0.1458266 0.49114496 -0.11469235 0.009561847 -0.73427045 0.046180073 -0.15455876 -0.8242455 -0.5744528 0.20889443 -0.07564365 0.27363083 -0.1592494 0.12421925 0.23205154 0.10944794 0.06058724 0.10892902 0.19994897 0.17411819 0.64757186 -0.19763382 -0.31034267 -0.4269957
7 -0.6736921 0.044091728 0.16625202 -0.033177067 0.255239 0.32379955 0.14704983 -0.36563465 -0.40171555 0.36039516 -0.062863424 0.14704557 0.0959164 -0.078115545 0.18189694 0.118801035 0.1504682 -0.25016457 -0.030769624 -0.34339565 0.3827523 0.15687093 -0.24894656 0.17907052 -0.64335364 -0.08509325 0.20167239 -0.014283689 0.14823884 0.36486447 0.038758222 -0.13442624 -0.27180678 0.0029916908 0.45349294 -0.94343555 -0.49557698 -0.7224242 -0.2629479 -0.69167775 -0.49086922 0.074127756 -0.008745258 -0.05944798 -0.14000106 0.3639019 0.36917433 -0.31383055 -0.0783455 -0.13560171 -0.38703486 0.2461165 0.26832467 0.023999007 0.021470765 0.35076112 -0.758268 0.21131071 0.17605875 0.05764556 -0.35711023 0.08424897 -0.3499504 0.2028423 0.06803429 -0.23572417 -0.0025587806 -0.18769038 0.21355565 0.019190377 -0.42647436 -0.26651633 -0.10903899 -0.3004533 -0.12427018 0.7630306 -0.75962466 0.23511842 -0.108728066 -0.099396825 -0.8924242 0.11917432 0.19600439 -0.38998798 0.23866233 -0.4064208 -0.6727123 0.14020361 -0.16973643 -0.13117209 -0.08047953 0.5381059 0.13144322 -0.046787687 -0.3355716 -0.5721507 -0.082395226 0.54903954 -0.18404125 -0.45388502 -0.25923547 0.20635355 0.12651032 0.15501836 -0.057368767 0.11281313 0.40977696 0.30507925 -0.36931986 -0.092187084 -0.29214478 -0.4422311 -0.45818084 -0.007554413 -0.20545556 0.24335559 -0.22863248 0.1787974 0.27408552 -0.17458633 0.42954233 -0.14530165 0.18088292 0.1014051 0.20239615 0.20088592 -0.6776574 -0.083403476
8 -0.9465967 0.08785619 0.17431055 0.1922769 0.10578885 -0.2034959 0.562118 -0.4986403 -0.08657182 0.24281201 0.2077383 0.39994153 -0.079717696 0.36521524 0.2983439 0.65267605 0.15530723 -0.5141274 -0.028467268 -0.53022134 0.3379652 -0.010004907 -0.70366275 0.27720228 -0.62417793 -0.19343671 0.035496667 -0.11028475 0.16685387 0.5895543 -0.06477322 0.22475909 0.21557339 -0.518589 0.6154108 -0.80561864 -0.566426 -0.79155767 -0.2875954 -0.9448283 -0.63369465 0.2785227 -0.08551392 -0.29132736 -0.333745 0.37423944 0.58744127 -0.18782334 -0.40297225 -0.12202805 -0.3569722 0.35206974 0.53170353 0.11676862 -0.08967735 0.35974592 -0.6902173 0.024767205 -0.18014552 -0.6489277 -0.6146005 0.2841901 -0.00615827 0.52258307 0.20388994 -0.19385388 0.050123364 0.26242435 0.42264667 0.09157293 -0.06858454 -0.43308565 -0.6129146 -0.4020825 0.1541924 0.7560425 -0.33037898 0.3386828 0.0055875103 -0.3348203 -0.6927474 -0.074718714 -0.031005366 0.037557017 0.18768817 -0.7278301 -0.29231685 0.7022084 -0.5818302 0.26769128 -0.3551504 0.33090767 0.16121574 -0.002603466 -0.26930475 -0.69870734 -0.080896705 0.7197478 -0.16495857 -0.23986013 -0.21166313 0.20531467 0.44655812 0.34383518 -0.13785096 0.49156252 0.0047970233 -0.047245804 -0.66545755 -0.009868334 -0.28602466 -0.80776656 -0.63992304 0.021187939 -0.17720209 0.31635642 0.04173794 0.37068546 0.098571815 0.23000069 0.24694313 -0.21895419 0.47203964 -0.21961875 0.3239724 0.3359713 -0.16241658 -0.37459144
9 -0.8200454 0.026582213 -0.01755362 0.35549572 0.31849232 0.14490564 0.39164174 -0.3142824 -0.046984218 0.73136693 0.10525082 0.29474682 0.26198432 0.38794503 0.34496647 0.52647513 0.32879388 -0.84229344 0.06418746 -0.94439465 0.33975342 0.12005861 -0.8435591 0.22767934 -0.4796616 0.12889792 0.0073339236 -0.14455277 0.3348641 0.22790037 0.026298372 0.13290372 0.110922985 -0.46382722 0.874743 -0.90776587 -0.6510807 -0.4246423 -0.13246566 -0.8142924 -0.82086957 0.23784055 -0.18876751 -0.11250034 -0.37103975 0.2174158 0.55364805 -0.12182201 -0.3993106 -0.2486567 -0.2878841 0.3782834 0.48340738 0.119643554 -0.014185882 0.36080185 -0.882212 -0.04537833 -0.09890998 -0.5230379 -0.6312969 -0.035360273 -0.19089265 0.42097434 0.04262 -0.39029884 0.14533167 0.037718166 0.52974176 0.267055 0.045907505 -0.3370564 -0.56685925 -0.18119057 0.045543436 0.41046047 -0.63499665 0.27120286 0.07632798 -0.27572715 -0.8087595 -0.07607618 0.09850277 -0.24679174 0.31811002 -0.74865085 -0.14585003 0.6981496 -0.5688524 0.11164891 -0.29518172 0.7675985 0.118575074 -0.06367043 -0.50576663 -0.3975511 -0.22846957 0.5521377 -0.35495684 -0.29546577 -0.42454526 0.3817013 0.47857344 0.1427693 0.036351465 0.55865246 -0.25617093 -0.14409186 -0.75958914 0.13275686 0.06216682 -0.46866825 -0.5370064 0.2987284 -0.1381187 0.07862229 -0.016537141 0.1858701 0.12259963 0.38093632 0.12813583 0.23597449 0.31965783 0.08796224 0.21620299 0.054473452 -0.50456554 -0.48524132
10 -0.63033885 0.015481718 -0.28274894 0.09019525 0.59887594 0.37821066 0.09235994 -0.15582542 -0.051542923 0.60022295 -0.28599948 0.47173902 0.07563961 0.08340227 0.0037742255 0.08875725 0.3416282 -0.43216035 0.08620755 -0.443032 0.29681095 0.04725097 -0.7157803 0.1841846 -0.30328453 -0.2098731 -0.25214353 -0.060325384 0.14296168 -0.22116172 0.1812767 0.4605643 -0.118676774 -0.02181651 0.782111 -0.83250576 -0.2847409 -0.24476805 -0.15220343 -0.35166556 -0.43126926 0.04272054 -0.23232757 0.107883945 -0.33716455 0.28127652 0.51632947 -0.1392566 -0.27971205 -0.28328276 -0.34138283 0.46526206 0.27182624 0.18229464 -0.15798856 0.08234438 -0.81812364 -0.21684326 0.25853878 -0.48191503 0.36531934 -0.04190112 -0.3895912 -0.16563883 0.058136158 -0.47928625 -0.09029372 0.14093794 0.8214829 0.5098954 -0.35077083 -0.15458935 -0.85002255 -0.2946629 -0.5424546 0.24136823 -0.34891197 0.14088997 -0.13705282 -0.31529862 -0.4619582 0.073001966 0.47904682 -0.32821348 0.70101506 -0.21355984 -0.32062495 0.14095764 -0.060213786 -0.25557786 -0.10096065 0.7382402 -0.21289827 -0.3366672 -0.34804705 -0.27665558 -0.17986847 0.74732226 -0.120613076 -0.20404279 -0.335824 0.21806479 0.0629232 0.35190716 0.116892226 0.62588537 -0.07007496 0.32296625 -0.78169614 -0.10450618 -0.23585914 -0.8598423 -0.48695892 0.1584676 -0.15979601 0.23408526 -0.009479798 -0.10449149 0.30144796 -0.056513704 0.0417539 -0.06922631 0.3761278 0.25824645 0.5913156 -0.2749234 -0.1912364 -0.33335894
11 -0.60047656 -0.24487166 -0.14096984 0.27326956 0.5609964 -0.010221774 0.20724948 -0.48983127 -0.209019 0.49122941 -0.09118224 0.35327965 0.14272837 0.029055022 0.27100134 0.5849421 0.052881792 -0.49344972 0.31435132 -0.59395117 0.42832255 -0.2534685 -0.3522855 0.4528511 -0.80165946 -0.08353657 -0.05666712 -0.20019306 0.42022148 0.42137265 -0.011867528 0.029333934 -0.060258523 -0.05441541 0.80043596 -1.0928586 -0.44795823 -0.69834167 -0.11497385 -0.6765175 -0.7095072 0.16376403 -0.04306175 -0.14726153 -0.1348152 0.29203907 0.71702856 -0.15634617 -0.34903124 -0.061825935 -0.21079424 0.24679855 0.4269536 0.049491454 -0.021816658 0.397361 -0.69627494 -0.008027199 0.022607224 -0.5478426 -0.4381896 0.32963115 -0.27224532 0.31669202 0.037245236 -0.56450355 -0.22039984 -0.059337072 0.4876853 0.40066123 -0.026807966 -0.52379936 -0.5433969 -0.27012652 -0.5177555 0.807162 -0.5699516 0.28159088 -0.19338283 -0.135282 -1.0180874 -0.015926499 0.050872043 -0.25807166 0.57314074 -0.460224 -0.2066728 0.39937574 -0.27849305 -0.036393918 -0.20609535 0.4649395 -0.12213786 -0.21992965 -0.44845873 -0.38404825 0.074145734 0.581242 -0.16234492 -0.5037372 -0.12564036 0.27159965 0.070098326 0.21562405 -0.21901444 0.5064908 0.16649115 0.13438217 -0.7596019 0.0015416617 -0.40679955 -0.77645564 -0.46193263 0.14933667 -0.36215597 0.20510946 -0.0794651 0.44066316 0.085364856 0.17586388 0.24847224 0.21674925 0.23127134 0.25006607 0.37814158 0.059812143 -0.3924952 -0.35821116
12 -0.05722359 -0.09091089 -0.03376718 0.259889 0.33754423 0.28737122 0.081726715 -0.59978735 0.05214432 0.7955552 0.21231799 0.7992772 0.13743843 0.057258014 0.3933554 0.27729616 0.17741708 -0.49950305 0.08426805 -0.63875353 0.68342775 -0.0048058056 -0.10919375 0.37665683 -0.1835954 0.03132216 0.4110573 -0.27548087 0.5157658 0.70263547 -0.34180474 -0.06489788 -0.13615781 -0.18453214 0.81744444 -1.23675 -0.49994117 -0.46375626 -0.057243805 -0.9575726 -0.8445238 -0.06702772 -0.0085384 -0.38198906 0.1460619 0.3585531 0.44018486 0.09978872 -0.11153093 -0.14194475 -0.17783844 0.3854688 0.47131225 0.38143858 -0.32139766 0.46581903 -0.65531325 0.066070475 -0.19644232 -0.32432044 -0.35596758 -0.09558031 -0.24038383 0.41916326 -0.07609912 -0.41908202 0.053990077 0.1758828 0.26252246 0.19626261 -0.44783577 -0.4141142 -0.38355395 -0.16948338 -0.15230727 0.374844 -0.6530507 0.2738463 -0.1545938 0.0136088235 -0.9834027 -0.13694929 -0.1419486 -0.41175294 0.15069763 -0.67193687 -0.5919678 0.40632865 -0.21001586 0.080823936 -0.3279917 0.65605223 -0.08332443 -0.18270124 -0.31063035 -0.48885384 -0.17755213 0.6385894 -0.31274727 -0.5189092 -0.28120556 0.22807275 0.4035833 -0.13723215 -0.07190225 -0.08044745 0.16209623 0.3061922 -0.8557909 0.2355213 0.10251036 -0.47819674 -0.6784105 0.36894995 0.036539637 0.3981952 -0.10439198 0.45655608 0.31524804 0.16654514 0.035816077 0.06243993 0.035690937 0.27611265 0.21175615 -0.08752993 -0.60987955 -0.011262668
13 -0.51493347 -0.11233232 -0.0717031 0.26299182 0.22996373 -0.080552764 0.2095538 -0.36253777 -0.08250886 0.6993971 0.07689704 0.45177272 0.00016687324 0.31667304 0.26547286 0.5760625 0.21704979 -0.6031949 0.036366064 -0.70194036 0.34304407 -0.005529911 -0.533095 0.23873517 -0.46475783 0.023122936 0.094511904 -0.02046871 0.4900177 0.42372888 -0.05760965 0.1295135 0.012712075 -0.22683705 0.70074457 -0.8496339 -0.5085491 -0.5798678 -0.13685472 -0.8657311 -0.6798393 0.15145229 -0.2129736 -0.26019248 -0.25680843 0.20524819 0.7171505 -0.025859354 -0.29840043 -0.10918473 -0.15589403 0.39972526 0.40585107 0.26164618 0.14027326 0.3470701 -0.70318574 0.0058643483 -0.26127607 -0.7081598 -0.60181224 0.20002414 -0.028767241 0.58016557 -0.14795488 -0.25996795 0.08197059 0.12855951 0.24592605 0.25829887 -0.025907805 -0.62067467 -0.6079441 -0.30547094 -0.282101 0.3382141 -0.44842798 0.27882048 0.07094904 -0.30553558 -0.76221865 -0.14852427 -0.105534285 -0.1641102 0.21475133 -0.7869066 -0.16378051 0.63794285 -0.40612006 0.0631405 -0.2039028 0.4454896 -0.032591656 -0.27225772 -0.50724757 -0.3261755 -0.12017501 0.5869657 -0.41176066 -0.36916164 -0.21000405 0.24504136 0.39957803 0.08974201 -0.047959093 0.17464273 0.0316947 0.1569627 -0.73896325 0.1697185 0.0078227315 -0.48955232 -0.51644135 0.30123866 -0.24626006 0.033165436 0.056203064 0.35942638 0.22036907 0.25532678 0.15001859 0.10288728 0.2408059 0.16580735 0.17575413 0.19116305 -0.24984759 -0.37432674
14 -0.6566086 -0.06686688 -0.15370835 0.06426053 0.28561383 0.3305521 0.18294263 0.020164285 -0.31408548 0.31280935 -0.19464493 0.079130895 -0.029803332 0.18382798 0.035498407 0.33215114 0.34747756 -0.69281334 -0.004508962 -0.5309909 0.097063 0.03220242 -0.800588 0.23517214 -0.5096192 -0.22673178 -0.30231002 0.1805006 0.0057234745 0.010163181 0.09727778 0.0005341429 -0.08629632 -0.25231186 0.54338783 -0.7307573 -0.3880183 -0.39694646 -0.30296102 -0.51322246 -0.48388955 0.1321198 -0.2839254 -0.071006946 -0.6209788 0.4063546 0.45535487 -0.49164018 -0.27265146 -0.30655655 -0.029740794 0.45553395 0.3357508 0.02585428 0.14102292 0.01575665 -0.73535573 0.25920165 0.15676194 -0.33049196 0.0650478 -0.021381494 -0.20642105 -0.05669512 0.2293703 -0.20870402 0.05975062 -0.3168067 0.35759982 0.31585476 -0.5038093 -0.3543796 -0.47904578 0.05798983 -0.32243726 0.5366321 -0.323406 0.06838827 -0.29173753 -0.49810034 -0.6201151 0.19889726 0.36704326 -0.10668967 0.56517106 -0.41544586 -0.6847651 0.00063346466 -0.106667794 -0.1419656 0.01421911 0.36199096 -0.05650034 0.055051338 -0.2394154 -0.72774625 -0.06560375 0.5446724 -0.09626932 -0.36277184 -0.38391036 0.04893006 0.3117677 0.13652469 -0.030816697 0.49016255 0.027902948 0.14359099 -0.5492681 -0.038090788 -0.595898 -0.45156288 -0.2812281 0.09475853 -0.23813117 0.041378785 0.085774936 0.090733685 0.2117824 -0.14389786 0.36414343 -0.16495015 0.4641034 0.21374726 0.44336647 -0.0008038832 -0.4652243 -0.35459208
15 -0.72931325 0.05038555 -0.08278201 0.078466944 0.47674328 0.18874276 0.14312959 -0.14380684 -0.17997922 0.50350326 0.042903207 0.37919474 0.053434025 0.030133817 0.083589666 0.32059917 0.2949862 -0.42614555 -0.04691243 -0.24283901 0.36783808 0.081555 -0.5564029 0.21509717 -0.49778348 -0.054470267 0.011875668 -0.06671643 0.09641372 0.038182694 0.17477927 0.20351398 -0.24902306 -0.112358935 0.49429235 -0.8959314 -0.5152527 -0.6863586 -0.5338989 -0.4182101 -0.4797603 0.13857596 -0.015816038 0.064294316 -0.11466737 0.18034558 0.38882813 -0.16867225 0.07132965 -0.105297714 -0.37054738 0.32414573 0.18880138 0.116583206 -0.013443004 0.22848874 -0.6641018 0.17917337 0.18826863 -0.22773132 -0.22158878 0.29408538 -0.52454823 0.044835884 0.18980865 -0.36726126 -0.10114498 0.18180268 0.42283928 0.14480287 -0.09994126 -0.43772867 -0.4362835 -0.57535547 -0.30981296 0.5519343 -0.8098294 0.13826649 -0.09070099 -0.1309146 -0.5863937 0.22682954 0.043491367 -0.23732285 0.3867621 -0.388771 -0.4433853 0.33981478 -0.17891164 -0.1279072 0.08738498 0.4102929 0.011256113 -0.31072608 -0.33083174 -0.59710085 -0.18142372 0.69970524 -0.21107267 -0.100337416 -0.23040211 0.011814824 0.06591697 0.46982864 0.16077656 0.4173226 0.05885924 0.30912876 -0.5143656 -0.09647797 -0.12931974 -0.6765164 -0.40052122 0.12977782 -0.22724225 0.24535428 -0.027944984 0.085025355 0.21734527 0.15307227 0.23825318 -0.30709326 0.490859 -0.19112568 0.3273829 0.008269577 -0.487242 -0.38610268
16 -0.40869227 0.10431393 0.020876855 0.42511523 0.30620965 0.012557043 0.24938992 -0.27709797 -0.09705409 0.7920247 0.017441198 0.42273942 0.21684365 0.36575195 0.42760405 0.5372579 0.17274866 -0.62416106 0.13356969 -0.884962 0.30251184 0.018364413 -0.42517903 0.2994114 -0.5435458 0.15579182 0.08202498 -0.019303354 0.52791977 0.3455086 -0.18602821 -0.05194999 -0.023814509 -0.2570644 0.8007289 -0.7777729 -0.53411525 -0.472248 -0.06270742 -0.7800157 -0.8393531 0.13509852 0.04358607 -0.13044219 -0.072697125 0.051518742 0.59826595 0.09658278 -0.35819662 0.016544905 -0.3038683 0.29405198 0.40045443 0.32822657 0.01676137 0.47834152 -0.61301285 -0.1880373 -0.32292566 -0.58279246 -0.75164104 -0.012783553 -0.2821105 0.6047578 -0.18388653 -0.3950978 0.026571443 0.023843814 0.44655004 0.25642467 -0.031528898 -0.45421144 -0.5004929 -0.35977188 -0.103198275 0.20082787 -0.6997129 0.19942449 0.30580637 -0.087070756 -0.80243105 -0.10804818 0.0043655066 -0.27388832 0.19814481 -0.7417162 -0.053707138 0.6960692 -0.49761543 0.026280437 -0.30590722 0.67494506 0.074944794 -0.32174385 -0.5065603 -0.06996286 -0.25830898 0.35329938 -0.5668114 -0.37438357 -0.18922797 0.40191156 0.38728896 0.064699546 -0.08134323 0.17420363 0.0100051565 -0.057509184 -0.6503518 0.19008538 0.34545672 -0.38916993 -0.63294894 0.37722883 -0.08956543 -0.030516354 -0.1457238 0.20500115 0.29956642 0.2313496 0.029089278 0.25093764 0.04930887 0.2422193 0.20246248 0.18593359 -0.38439915 -0.26699403
17 -0.69445586 -0.07682179 -0.0004306117 0.2825868 0.31749076 0.09180548 0.24779622 -0.3691134 -0.28396323 0.7815807 0.024330402 0.49578178 0.31068155 0.41581327 0.23811626 0.042154584 0.1788201 -0.62710506 0.012830024 -1.0737735 0.22053117 0.35295516 -0.7334847 0.25217894 -0.5278518 0.09603877 -0.18705615 0.14768371 0.017622083 0.53969485 0.1059781 0.3085589 -0.07393331 -0.27106977 0.7496909 -0.86638147 -0.5206675 -0.4865341 0.072628774 -1.059129 -0.94427603 0.46420464 -0.3890534 -0.14139077 -0.43602553 0.36482346 0.7295042 -0.41362438 -0.10880636 -0.39503023 -0.15882036 0.38833687 0.4277632 0.24213666 0.23529223 0.32747242 -0.835997 -0.12137335 -0.09217981 -0.7313612 -0.48647973 -0.3685069 -0.2040755 0.56648463 -0.12423847 -0.2705517 0.005290632 -0.2822768 0.5324475 -0.016727464 -0.2672611 -0.34500763 -0.76802045 -0.11221963 0.0001754511 0.6803131 -0.49052382 0.15959352 0.11080497 -0.3237742 -1.0544994 -0.04561841 0.08539533 -0.45912978 0.27972865 -0.8478375 -0.23484974 0.73880917 -0.52219594 -0.060641386 -0.34101257 0.89127064 -0.021971138 0.043405484 -0.36561227 -0.5503524 -0.015552964 0.44356498 -0.39324605 -0.67380726 -0.33210245 0.45434818 0.6946861 0.1411072 0.1470026 -0.06623653 -0.09568462 0.040883493 -0.8152471 -0.16647702 -0.14649239 -0.59568524 -0.3976445 0.40907302 -0.408112 0.25233266 -0.22813149 0.17449695 0.4876516 0.120054245 0.22932237 -0.05189963 0.3825491 0.08912217 0.38722143 0.018116198 -0.28231215 -0.07894814
18 -0.21314612 -0.20101096 0.004808263 0.08722766 0.21710604 0.5489691 0.0066093015 0.104401335 -0.27539617 -0.10778546 -0.13908666 -0.48385778 -0.025200518 -0.2925291 0.13003837 -0.014160738 0.1547368 -0.61229676 -0.08519232 -0.34198028 -0.34625977 0.29509965 -0.46780866 -0.036778785 -0.5047485 0.05330189 -0.4267865 -0.24904107 0.036944248 -0.4206977 -0.13847965 -0.15779519 -0.19206388 0.2115564 -0.06994265 -0.32209522 -0.091020286 -0.106417514 0.33082184 0.10898746 -0.6897428 0.0021251114 -0.22878869 0.03892823 -0.6736693 -0.20021062 -0.07970958 -0.42454103 -0.44768456 -0.922854 0.28866285 0.12809074 0.31557485 -0.017152501 0.74949765 -0.17914855 -0.47516954 0.47448877 0.4964582 0.39714336 0.09457047 -0.4143244 -0.23808467 -0.14706288 0.23472229 0.11045492 -0.048714638 -0.5952249 0.14870653 0.13326159 -0.5475412 -0.45182493 0.14017273 0.13072132 -0.18608107 0.28836995 -0.31115043 0.0013597186 0.07875283 -0.13604195 -0.7636919 0.082694165 0.3628347 -0.23573686 0.34362683 -0.34373492 -0.8099818 -0.7100675 0.21582997 -0.13761483 0.26324096 -0.26790535 0.07408909 0.4765883 -0.42477086 -0.22657445 0.15258116 0.13445276 -0.06956486 -0.17170349 -0.61065817 0.15881024 -0.11779603 -0.57329094 -0.39389423 0.26442516 0.1649847 -0.17887372 -0.16859648 -0.16595854 -0.27161464 0.18847348 -0.25010595 -0.015628766 -0.022362433 -0.23636967 0.3266952 -0.14960484 0.15893498 -0.25682077 -0.047332857 0.28914377 0.36589798 0.07797711 -0.1891181 -0.24214162 -0.73034686 -0.22723256
19 0.24043444 -0.13392767 -0.01013979 0.24868521 0.2789793 0.034126572 -0.061968897 0.11267222 -0.11059888 0.084620945 0.17200096 -0.28655472 -0.3159853 0.0051896046 -0.03046323 0.1972971 0.14269309 -0.52454346 0.07892087 -0.6571994 -0.74024546 0.13143422 -0.38833022 -0.04363198 -0.2700621 -0.046853203 -0.483737 0.12246312 0.3319759 -0.2873515 -0.34576124 -0.09786965 -0.15833336 0.36734417 0.08373148 0.10391886 0.114733644 -0.045507032 0.5425549 -0.27864748 -0.741535 0.23160805 -0.20864351 -0.4541908 -0.7158335 -0.5091135 0.081905015 -0.033758152 -0.57556224 -0.81610465 0.71919674 0.37980416 0.19226162 0.35630167 1.104004 -0.11160496 -0.102692224 0.1329473 0.09144692 -0.17430718 -0.16339669 -0.59655756 -0.21221204 0.31178686 -0.18568361 0.1905652 -0.0760452 -0.39416683 -0.10322713 0.27475846 -0.4884369 -0.79789025 -0.093927175 -0.06528556 -0.48780844 -0.1952083 0.0054719965 -0.0731872 0.4324006 -0.13404727 -0.92893445 -0.33338094 -0.03688162 -0.14430809 0.27337366 -0.515913 -0.6380168 -0.59386474 0.274724 -0.29344538 0.27137572 -0.5037983 -0.14143294 0.29803708 -0.56348056 -0.09832674 -0.0038016974 -0.19431213 -0.25007403 -0.19612233 -0.50317883 0.30790803 0.23700042 -1.0924993 -0.7964858 -0.042932563 0.23962379 0.0151830865 -0.20263177 -0.12127173 -0.14178072 0.59834945 -0.3518782 0.1165415 -0.19749807 -0.47824377 0.48963532 -0.06562714 0.41856968 -0.11212815 -0.21472156 0.43460906 0.47820657 0.12770769 -0.48062915 -0.17895082 -0.49786562 -0.2621362
20 0.07531907 -0.10836046 0.07334257 0.14197439 0.559534 0.24058484 -0.012968515 0.18187167 -0.1806177 0.259475 0.38663495 -0.32165885 0.0073195025 -0.108447015 -0.22188301 0.081948526 0.30292597 -0.41725925 -0.05733951 -0.7605616 -0.7491013 0.35564494 -0.52925724 -0.026734004 -0.18214163 -0.022426642 -0.25248596 0.28099552 0.17102939 -0.46864906 0.039624125 0.16655588 -0.23029947 0.43061724 0.20738678 -0.06289639 -0.020731442 -0.011126491 0.37684032 -0.23372848 -0.6571709 0.26353782 -0.48031932 -0.49271625 -0.56798965 -0.43870318 0.24683839 -0.036526907 -0.45002925 -0.9208681 0.5894833 0.43682054 0.17587194 0.38723418 1.2356862 -0.06349652 -0.15319824 0.027807232 0.3956813 -0.04804565 -0.16398534 -0.55449605 -0.27913293 0.3164292 -0.2638057 0.17009889 0.051115677 -0.24505048 0.021971405 0.3254056 -0.25792882 -0.6799751 -0.10234454 -0.13896056 -0.4850996 -0.09307802 -0.25940546 -0.16196792 0.3821117 -0.057386637 -1.03415 -0.21932118 0.07370915 -0.41818133 0.39752734 -0.5122413 -0.56690645 -0.4507997 0.2704185 -0.5586755 0.45136902 -0.33024043 -0.20723756 0.17488877 -0.69735235 -0.08896324 -0.020873854 -0.20991917 -0.3070167 -0.14182475 -0.6633218 0.48155934 0.16439362 -0.9841783 -0.62187374 -0.07125797 0.058290366 0.17545475 -0.3761689 -0.31156835 -0.059535794 0.57934624 -0.13974316 0.28710252 -0.22511065 -0.40005663 0.3901997 -0.19726399 0.45551643 -0.10748974 -0.24334466 0.41925594 0.52541393 0.22491394 -0.5996551 -0.53056896 -0.69520825 -0.19894408
21 0.08124291 -0.17901579 0.049891096 0.26183093 0.4702278 0.5640845 0.061427593 0.12716301 -0.016884558 0.13472787 0.15427928 -0.24668457 -0.06466263 -0.14685655 -0.034892064 0.14105679 0.38312545 -0.62768096 -0.1497897 -0.6159934 -0.56431764 0.36978397 -0.5459646 -0.18206264 -0.20576967 0.21056762 -0.5552638 -0.20178264 0.25636017 -0.5954087 -0.1877119 0.020933118 -0.01507419 0.49164203 -0.019502118 -0.14976367 -0.06275823 0.10805397 0.38768822 0.067853406 -0.71405494 0.028865997 -0.3997442 -0.08475669 -0.518668 -0.5759167 -0.038156185 -0.17164634 -0.47140506 -1.2660526 0.40843642 0.27880114 0.35780454 0.13589737 1.0160986 -0.22093302 -0.3593484 0.37171307 0.4450155 0.32433966 0.08217939 -0.41563696 -0.17019047 -0.107021205 0.061023097 0.15967843 0.084068336 -0.384078 0.10495844 0.18738417 -0.4409166 -0.70277715 -0.043850206 -0.047408544 -0.3765672 0.0086334 -0.38969973 0.076900624 0.31414115 -0.072657764 -0.7545095 -0.14042708 0.25913456 -0.38945287 0.3969546 -0.54027593 -0.66481125 -0.6069727 0.30637914 -0.31159636 0.36130878 -0.40002316 0.0188569 0.4617266 -0.75639737 -0.23770177 0.07117576 0.08900112 -0.32320085 -0.019591028 -0.7365917 0.34177038 -0.09970278 -0.7797653 -0.4871975 0.26380783 0.04772702 -0.14829352 -0.38823152 -0.20340498 0.04518967 0.36400995 -0.24278799 0.22042358 0.036871556 -0.5302563 0.56019443 -0.20834742 0.38024357 0.12099606 -0.37067682 0.543669 0.41015184 0.11274526 -0.49712232 -0.4639548 -0.54276186 -0.37823442
22 -0.16873384 -0.14844728 0.25623593 -0.084634446 0.23742607 0.5450213 -0.030104209 -0.15619965 -0.4716591 -0.0809918 0.020379815 -0.37482765 -0.09368779 -0.40531784 0.0609045 -0.11793063 0.11429165 -0.22874981 -0.13011262 -0.2618647 -0.22134821 0.3504944 -0.105754845 -0.026107106 -0.5610453 -0.034724344 -0.06157161 -0.060317412 0.1329996 0.018732816 -0.13506733 -0.31476998 -0.3623388 0.47401857 -0.0903331 -0.50393814 -0.1590058 -0.45269176 0.2194406 -0.31480905 -0.57297885 0.025883965 -0.20248452 -0.1990935 -0.42586088 -0.05769838 0.03569119 -0.4217397 -0.24653381 -0.8180094 0.1723236 0.17547716 0.26576513 -0.0016055682 0.80395585 0.012061977 -0.49400803 0.5373229 0.4697218 0.5708696 -0.15611798 -0.30283013 -0.24844314 0.08938143 0.055753514 0.18430378 -0.019034147 -0.5863443 -0.13659103 -0.052778527 -0.71454275 -0.51122016 0.3430631 -0.05467013 -0.24164033 0.609752 -0.549517 0.11417863 0.034992795 -0.031439032 -1.0746224 0.0009955629 0.24861237 -0.45180142 0.2000562 -0.39939344 -1.0425644 -0.68910813 0.29653195 -0.30385292 0.2828928 -0.18074581 0.13104978 0.44229004 -0.49849293 -0.4492716 0.1575514 0.17876546 -0.12527607 -0.4264901 -0.52343637 0.26630217 -0.08772933 -0.64416647 -0.49121234 -0.17295161 0.61241156 0.21571423 -0.1059389 -0.25196794 -0.3884669 0.20262904 -0.3231038 -0.07088208 -0.14730202 -0.10548844 0.11515625 0.038945965 0.36471298 -0.43486598 0.17550817 0.1615931 0.21745758 0.1424544 -0.33745924 -0.05854624 -0.85965335 -0.008123091
23 0.30764088 -0.46848428 -0.079034805 0.106647216 0.5568483 0.3549298 -0.17792568 0.049470156 -0.10029707 0.3037146 0.18261981 -0.22532775 -0.020903967 -0.30894917 0.0035194163 -0.058946334 0.12293207 -0.7195587 -0.062468834 -0.7795323 -0.54206806 0.39772937 -0.43654904 -0.09930049 -0.18382938 0.20531331 -0.47145468 -0.1842658 0.3689059 -0.34125695 -0.11468356 0.005977683 -0.22052142 0.663412 0.06808375 -0.21910964 -0.020114291 0.058187176 0.59087163 -0.16748266 -0.74328864 0.14606634 -0.5369046 -0.28444275 -0.6201647 -0.43641052 0.1709448 -0.19367333 -0.30191863 -1.241308 0.7914205 0.31632036 0.27120563 0.22959642 1.320722 -0.20593163 -0.34416255 0.46356717 0.5098414 0.19390987 0.08927177 -0.6236076 -0.10869877 0.078156136 -0.17216142 0.040065866 0.0737121 -0.6244521 -0.15528141 0.14970905 -0.43542802 -0.84906393 -0.08938002 0.05008261 -0.6532384 0.18269862 -0.30831292 0.07526397 0.16471843 -0.06444788 -1.2333099 -0.19030613 -0.09712083 -0.5063462 0.34873343 -0.5389781 -0.58729905 -0.60671556 0.41520715 -0.5444167 0.35336888 -0.48168585 -0.26568806 0.42154282 -0.68965745 -0.26013514 0.20090292 -0.037447568 -0.15794599 -0.31693316 -0.7430919 0.4026858 0.08366693 -1.1126752 -0.49611154 -0.043059245 0.15909605 -0.014592715 -0.5309839 -0.25789043 -0.20540269 0.57665104 -0.028617663 0.2915791 -0.33224106 -0.49437597 0.5670097 0.00072849356 0.4556126 0.15697666 -0.20684256 0.6275148 0.49087042 0.28791314 -0.6453415 -0.5081667 -0.5667445 -0.10528895
24 0.118027106 -0.31606838 0.061597176 0.2067217 0.4773789 0.4627806 -0.077277325 0.08920805 -0.2577133 0.11502993 0.09874193 -0.37035644 -0.03271293 -0.3002942 0.13120534 0.0030522912 0.14994766 -0.7203125 -0.128821 -0.6695688 -0.54547375 0.39534804 -0.4406455 -0.071012884 -0.43663764 0.20206085 -0.4591351 -0.19962928 0.30327827 -0.37530625 -0.254331 -0.11523114 -0.30523178 0.55766577 -0.021065608 -0.26542035 -0.043210622 -0.1892068 0.48001713 -0.11530282 -0.88039374 0.14426085 -0.33802578 -0.16707806 -0.6309101 -0.46598163 0.10550845 -0.23251511 -0.40177926 -1.2231218 0.5705605 0.23696554 0.31575343 0.21995197 1.2871754 -0.16177168 -0.38657686 0.5152783 0.4990942 0.3705004 -0.054091625 -0.57409847 -0.27570617 0.06977989 -0.055876553 0.12223504 -0.048567027 -0.68314105 0.008161637 0.09189426 -0.597777 -0.8215958 0.0019029297 -0.13018253 -0.44780976 0.2532346 -0.5145351 0.019875169 0.30759826 -0.059011057 -1.2007618 -0.02470573 0.11213918 -0.46231434 0.34834963 -0.54759526 -0.78781945 -0.67485505 0.33615655 -0.44009405 0.37395158 -0.45862454 -0.0062260833 0.46210998 -0.6697505 -0.19591908 0.14887914 0.041767973 -0.24469678 -0.28197956 -0.70258915 0.39313644 0.000110230845 -0.94577956 -0.54652816 -0.02917804 0.31363335 -0.114282005 -0.38834164 -0.26200694 -0.11249 0.39616266 -0.29007173 0.23482913 -0.16624144 -0.47068346 0.4544768 -0.11403541 0.45579922 -0.07799739 -0.20508866 0.47344345 0.43619817 0.18724783 -0.47500205 -0.31970593 -0.738544 -0.13629298
25 -0.05537361 -0.036897756 0.046986643 0.057844102 0.5146928 0.75829864 0.011528017 0.13059348 -0.122082934 0.22619341 0.054612275 -0.26998973 0.05800202 -0.19706526 -0.06539647 -0.23914419 0.34857216 -0.49663916 -0.1967858 -0.62497914 -0.4570112 0.55135494 -0.567071 -0.17779274 -0.057842866 0.07548475 -0.43754137 -0.042755213 0.08596687 -0.6166803 -0.012181767 0.12085553 -0.18941508 0.45701024 0.15337357 -0.20374638 -0.048714586 0.18507543 0.35119522 -0.023848774 -0.58261615 0.04819395 -0.473553 -0.027527347 -0.53656566 -0.28132612 -0.01394152 -0.25399736 -0.39026496 -1.1386827 0.26814258 0.38231495 0.25703323 0.12636001 0.8354851 -0.2512022 -0.49694657 0.21922466 0.63438183 0.4694384 0.34372857 -0.71370703 -0.2805844 -0.23884007 0.013829706 0.07081288 0.15476274 -0.46099564 0.26010665 0.16953881 -0.6536288 -0.3185273 -0.0860242 0.051924344 -0.3091799 0.023790076 -0.3670477 -0.0040303026 0.2035456 -0.11352877 -0.7679072 -0.07045564 0.4725551 -0.56084377 0.47001415 -0.32491633 -0.7591801 -0.67965555 0.36296487 -0.5306676 0.32628977 0.036786225 -0.034685634 0.40302384 -0.5856886 -0.18777885 -0.055717707 0.11935785 -0.1772279 -0.15994173 -0.79150844 0.47716027 0.002902428 -0.72157806 -0.30195755 0.18622549 0.09166774 0.013172307 -0.42903942 -0.2985789 -0.040314425 0.2773364 -0.24073908 0.19067791 0.031206595 -0.3156858 0.2797151 -0.34938964 0.4512277 -0.2017978 -0.24604942 0.40859222 0.30848104 0.2901116 -0.29259837 -0.5579053 -0.67497927 -0.11234243
26 0.46501544 -0.30880606 0.02302073 0.15747763 0.4396442 0.5881698 -0.12537996 -0.12954374 -0.002484709 0.192964 0.23374814 0.0021311527 -0.19448227 -0.3795809 0.1413902 0.113681704 0.24014013 -0.59858364 -0.11847368 -0.51305676 -0.26082206 0.22683033 -0.16460682 -0.028090633 -0.08371806 0.102339104 -0.17049481 -0.3794514 0.531156 -0.17883113 -0.46868598 -0.21959925 -0.20124182 0.5535908 0.09377763 -0.4984416 -0.026760506 -0.032484896 0.43094906 -0.21733496 -0.7828519 -0.1686781 -0.29024383 -0.39024004 -0.3492676 -0.34753317 -0.022543361 -0.01573701 -0.4220268 -1.1555884 0.56468594 0.3655801 0.438897 0.3154832 0.84636825 -0.10398858 -0.37189618 0.5463775 0.35119903 0.42892674 0.11547695 -0.482026 -0.13369426 -0.00554833 -0.024949085 0.080142185 0.09855096 -0.34001613 -0.14890538 0.22355005 -0.78387815 -0.8102389 0.09072329 0.005298006 -0.5041472 0.05755588 -0.4044554 0.15300937 0.08584706 0.012787343 -1.0875673 -0.20277129 0.03248132 -0.4397092 0.27716565 -0.5572663 -1.0230223 -0.80796045 0.47615162 -0.31520692 0.2801483 -0.47929603 -0.12839109 0.38755864 -0.63633865 -0.35923228 0.08303535 0.21543531 -0.22005929 -0.26232427 -0.7371547 0.24338612 -0.028807882 -1.1082009 -0.6270448 -0.044956326 0.35544693 0.109409265 -0.52479774 -0.027823651 -0.043196604 0.41564316 -0.43178165 0.21881479 0.10176308 -0.31374887 0.5487829 0.090046614 0.414532 -0.015551721 -0.3060002 0.5045114 0.2716193 0.32411885 -0.5250405 -0.45139652 -0.7631658 -0.12475235
27 0.10077172 -0.16987178 0.08837916 0.33288378 0.3511245 0.44798136 0.1671246 0.19629103 -0.06511819 0.08793489 0.13090327 -0.43439007 -0.038620114 0.014256855 0.20304972 0.38393328 0.29611322 -0.9692009 -0.14128448 -0.8547704 -0.6203391 0.3204515 -0.7020065 -0.09050457 -0.3411252 0.24997719 -0.5830669 -0.19138432 0.3508477 -0.4452688 -0.31063578 -0.20621035 0.13765955 0.26377574 0.08772398 -0.06759998 -0.12501305 0.0831741 0.42740524 -0.09447387 -0.8073154 0.08218776 -0.3955757 -0.17993677 -0.66485244 -0.46455586 0.066365086 -0.19229229 -0.6614488 -1.2168157 0.5305525 0.27142054 0.5212383 0.12810646 1.1015505 -0.19213122 -0.34690684 0.4963271 0.32167712 0.2681977 -0.12419023 -0.4936768 0.014768823 0.040309187 0.09740605 0.11663074 0.1784805 -0.6386213 0.01324739 0.15912458 -0.428903 -0.74585706 0.0043246695 0.18182123 -0.21474749 0.11081464 -0.37276185 0.09608219 0.2937257 -0.19260599 -0.8673841 -0.07317455 0.20726547 -0.24535716 0.33346376 -0.64433944 -0.57589775 -0.4976556 0.10468993 -0.21360555 0.2576429 -0.476346 0.13939561 0.60419583 -0.67998904 -0.2148472 0.07968542 -0.071946986 -0.31540233 -0.12628394 -0.784149 0.4228404 0.11305157 -0.94584465 -0.57970697 0.34891143 0.017664663 -0.49378476 -0.45185217 -0.062950715 0.02427063 0.512696 -0.23550627 0.2751954 0.041688357 -0.7334873 0.5745062 -0.089465715 0.31059155 0.18316856 -0.28678468 0.7077326 0.30813786 0.30642757 -0.5210869 -0.27749568 -0.56010824 -0.3506754
28 0.1688739 -0.5071019 -0.016252818 0.23046795 0.616663 0.18506825 -0.035357542 -0.10183715 -0.25809115 -0.10071059 0.02155852 -0.36625057 -0.15438041 -0.44970325 0.14102966 0.41877812 -0.013077958 -0.5655938 0.1462352 -0.43570018 -0.44615358 -0.047457222 -0.15656045 0.15027039 -0.7486115 0.03470578 -0.48308277 -0.30816922 0.48385248 -0.16705292 -0.28137788 -0.2599993 -0.1624871 0.7020276 0.0018151808 -0.41478264 0.020367349 -0.39913726 0.4458331 -0.042684272 -0.7743861 0.081898995 -0.20509362 -0.27361804 -0.42694238 -0.4070509 0.24899712 -0.20152448 -0.54629576 -0.9815795 0.6078943 0.1155326 0.38989583 0.070171446 1.1528984 -0.06878336 -0.22760728 0.5243799 0.4612556 0.18679407 -0.1660368 -0.06275245 -0.19081208 0.10242817 0.047044963 -0.051054657 -0.27398288 -0.592504 -0.04465488 0.27667302 -0.34235144 -1.0155916 0.05482866 -0.12365219 -0.80905503 0.58581334 -0.4067381 0.13220046 0.08674676 0.03487395 -1.2710859 -0.08142932 -0.013146433 -0.28864357 0.5237124 -0.43942207 -0.62077516 -0.7083263 0.3887059 -0.35329452 0.36472914 -0.7620025 -0.12155337 0.3554145 -0.7002742 -0.20010765 0.36829674 0.04601414 -0.10305703 -0.337634 -0.44615343 0.28294086 -0.32068363 -0.8634815 -0.8387833 0.20472199 0.46719095 -0.0719705 -0.418651 -0.23196316 -0.44653928 0.17928287 -0.2288025 0.1002996 -0.3138676 -0.4578905 0.508885 0.23844114 0.22056234 0.008165437 -0.10481187 0.63450027 0.3612398 0.27156693 -0.46355036 -0.23205256 -0.5770063 -0.26864353
29 0.062275503 -0.25286162 0.13742577 0.15156533 0.19291939 0.23896743 -0.050911855 0.03585108 -0.24284396 0.06350604 0.20156294 -0.36746052 -0.21235487 -0.16971546 0.07096067 0.091761895 0.15881656 -0.50924987 -0.199515 -0.51746273 -0.5480483 0.38667342 -0.34510562 -0.16891652 -0.38187388 0.15489523 -0.28799042 -0.047035526 0.32401735 -0.2242497 -0.25700486 -0.08885067 -0.25106683 0.5057245 -0.16145346 -0.10940198 -0.039301347 -0.29988936 0.39798126 -0.24379198 -0.7248619 0.19379415 -0.34531105 -0.28980908 -0.6059488 -0.48222074 0.13110843 -0.18692034 -0.38274908 -1.0305952 0.52919614 0.24107598 0.23057957 0.23080628 1.2955902 -0.1271237 -0.30040225 0.4650647 0.24668784 0.19162874 -0.2956607 -0.3728514 -0.09448853 0.30584222 -0.17708999 0.33703005 0.027780667 -0.47512326 -0.21662222 0.012196824 -0.45408544 -0.8761107 0.05348511 -0.21147497 -0.34623387 0.11206528 -0.31792498 0.046323 0.43362972 -0.11286234 -0.9921536 -0.16607992 -0.021589594 -0.29043666 0.09993872 -0.6753216 -0.6697943 -0.4929113 0.23504248 -0.29411483 0.3836986 -0.5382437 0.06563487 0.3684686 -0.66867846 -0.14717634 0.12247373 0.04219451 -0.3308351 -0.19698565 -0.54000133 0.3186383 0.07964868 -0.8785559 -0.5388372 -0.2585153 0.36011624 0.024554856 -0.22468206 -0.17700684 0.0016671283 0.4560583 -0.3228017 0.17356561 -0.17859375 -0.46577373 0.4470407 -0.031301655 0.41981727 -0.0994163 -0.1523551 0.32808316 0.40385932 0.035538796 -0.5892298 -0.0723566 -0.5838849 -0.21414414
30 -0.31030053 -0.20877485 0.21156721 0.004621273 0.4124104 0.5579959 0.11170554 0.15709822 -0.41122836 -0.06691642 0.084869616 -0.521783 0.017236035 -0.2491283 -0.016559228 0.17474772 0.31642818 -0.61107385 -0.29414248 -0.54728216 -0.46307275 0.41709512 -0.579946 -0.063219056 -0.51447845 0.032487392 -0.25279576 0.07568044 0.092193194 -0.3422589 0.04690005 -0.09014599 -0.11709954 0.34796304 0.07951282 -0.36990395 -0.2125884 -0.32178718 0.09067737 -0.15115061 -0.55653733 0.085499175 -0.5572857 -0.18507905 -0.6218313 -0.12080707 0.25900576 -0.4251148 -0.42155746 -1.08469 0.34058338 0.30689323 0.34894097 0.050953086 1.1078235 -0.17540814 -0.4785657 0.5595281 0.62130386 0.43560153 -0.008775273 -0.19805281 -0.106089994 -0.0146956295 0.10445525 0.22534187 0.17900231 -0.59285116 0.014116135 0.12527348 -0.5061018 -0.62278265 0.07347468 0.02004816 -0.2734122 0.486426 -0.4557216 0.0001446361 0.016693292 -0.25306997 -0.8865438 0.15001619 0.33696818 -0.36447942 0.43016416 -0.53806454 -0.85453874 -0.5621912 0.22558114 -0.43393335 0.46325055 -0.43795976 0.10053244 0.45822993 -0.6330202 -0.4503395 0.14436157 0.17056657 -0.14590077 -0.22677042 -0.748826 0.2982448 -0.034848098 -0.62796736 -0.39857465 0.14555903 0.22135065 -0.013191109 -0.37803283 -0.3277502 -0.36669883 0.23091635 -0.1369344 0.1346245 -0.11027779 -0.4395738 0.39921823 -0.048753753 0.27620512 -0.21003997 0.03024395 0.26139396 0.4108541 0.31287047 -0.4097238 -0.25793788 -0.7407789 -0.1634073
31 0.23021343 -0.06281928 0.09854945 0.36929876 0.37349656 0.34325346 0.06940625 0.211984 -0.14159137 0.17364241 0.086281404 -0.34069362 -0.060503256 0.031785037 0.12202838 0.23161015 0.26743293 -0.67890924 -0.083135396 -0.817143 -0.75821763 0.4058789 -0.4812029 -0.09117216 -0.3865538 0.24554719 -0.59920424 0.0015743636 0.33729628 -0.43935943 -0.2848098 -0.10568201 -0.004284575 0.44735187 -0.034532715 0.063319236 -0.028157432 0.08515136 0.55299026 -0.07554683 -0.850245 0.10645087 -0.32822806 -0.19786353 -0.5620593 -0.6533825 0.11700542 -0.11977635 -0.5884958 -1.0950322 0.45146865 0.2314937 0.41458353 0.2501075 1.2275074 -0.13400087 -0.21220438 0.24761233 0.21800941 0.073640615 -0.310277 -0.57434857 -0.13193448 0.2567321 -0.079587184 0.19641493 0.018335855 -0.5526981 0.05399829 0.11433883 -0.3842833 -0.7943879 -0.001827364 -0.009715964 -0.301596 -0.039930027 -0.3758442 -0.009091366 0.57372856 -0.0691326 -0.8540928 -0.1932137 0.19271503 -0.3420765 0.2759608 -0.6920928 -0.46410435 -0.4608252 0.14085929 -0.30193985 0.29770443 -0.39960873 0.084564954 0.4158132 -0.77200484 0.06512537 0.08234066 -0.23754115 -0.5220181 -0.18584916 -0.63105434 0.50355375 0.074658036 -0.9418432 -0.6065612 -0.008205416 0.120932765 -0.3306467 -0.31210452 -0.14722706 0.2373381 0.5172594 -0.29679108 0.3411356 -0.045212068 -0.71399426 0.43644467 -0.17934737 0.49942723 0.0089509655 -0.3827207 0.67472595 0.21718766 0.2597818 -0.5417105 -0.2705435 -0.45164862 -0.26650727
32 0.07858268 -0.101503395 -0.10711895 0.073728964 0.38570204 0.30972636 -0.05469114 0.282345 -0.22416954 -0.009031031 0.0061349752 -0.10124534 -0.3533533 -0.074750215 -0.040004496 0.21364726 0.2735095 -0.59807134 -0.14155222 -0.27163562 -0.47155803 0.15181293 -0.56970954 0.07625502 -0.33924454 -0.1741078 -0.596228 0.12931027 0.061578322 -0.3471401 -0.16381043 -0.057521578 -0.20798348 0.32169604 -0.0766795 -0.16554819 1.3280842e-06 -0.22808005 -0.0028213542 -0.09712803 -0.5056641 0.0692219 -0.23392157 -0.20099333 -0.602536 -0.17952129 0.110130705 -0.32658687 -0.25008133 -0.7771476 0.45553857 0.3806677 0.27648997 0.19847953 0.86322695 -0.2938524 -0.22477242 0.5363129 0.33704737 0.012901965 0.21905734 -0.27384102 -0.25565404 -0.13264793 0.22136872 0.09248785 -0.09758891 -0.42384046 0.0068539004 0.13605468 -0.7063213 -0.77977157 -0.17427692 -0.073414534 -0.5719135 0.25334427 -0.2908977 -0.06986124 0.026517903 -0.27477118 -0.6622652 0.14317419 0.17761628 -0.09036887 0.4501517 -0.36969128 -0.9049106 -0.64204764 0.37584114 -0.36721927 0.4242206 -0.5229043 -0.09451003 0.25100747 -0.31256592 -0.5039335 0.0753615 0.16966996 -0.15246962 -0.17477304 -0.46385115 0.013726308 0.057813283 -0.49200195 -0.38430795 0.12886575 0.2814757 0.10328472 -0.33125788 -0.19049117 -0.3807817 0.06261547 -0.22369005 0.15894642 -0.1670784 -0.36086163 0.437274 -0.060207378 0.43800113 -0.2025313 -0.024374915 -0.050030228 0.50904745 0.10189983 -0.052079916 -0.20775796 -0.4036322 -0.24555853
33 0.2101039 -0.21079864 0.051257454 0.24049152 0.3491002 0.39084986 -0.07585354 0.108131394 -0.2765193 0.24980247 0.2203091 -0.21000329 0.06786009 -0.0056305747 0.03208646 -0.2116151 0.17685603 -0.602912 -0.09145856 -0.90697473 -0.70049804 0.58880633 -0.49851573 -0.022431536 -0.29174405 0.18819869 -0.61039674 0.14804551 -0.047466606 -0.13568628 -0.11836942 0.017632322 -0.23235378 0.38052672 -0.09349121 -0.10378315 -0.038898807 0.05633941 0.60702276 -0.31647116 -1.0127623 0.31878808 -0.5194811 -0.29393733 -0.6668785 -0.3697932 0.12013306 -0.44164583 -0.21410535 -1.1282018 0.6154867 0.2791142 0.34823707 0.25649282 1.2729329 -0.17092311 -0.2265943 0.30953056 0.29909027 -0.017123204 -0.24227718 -0.9147569 -0.23042145 0.34597346 -0.061886102 0.22349192 -0.04839938 -0.70035464 -0.052683502 -0.11923478 -0.52967787 -0.6922227 -0.0026265741 0.2344749 -0.22273503 0.23009926 -0.32764667 -0.1404597 0.40419996 -0.05662648 -1.1173718 -0.12955627 0.06548405 -0.4832844 0.21094228 -0.7228954 -0.68005645 -0.39986795 0.17951001 -0.35108915 0.29929787 -0.20824566 -0.06174014 0.5540519 -0.5376007 -0.23812313 0.21140891 -0.30239174 -0.39713803 -0.49079835 -0.63505834 0.44026834 0.3463136 -0.96656394 -0.38951418 -0.47941074 0.08205413 -0.11228352 -0.32859257 -0.3257051 -0.023304451 0.50950575 -0.08646826 0.4290693 -0.26490733 -0.37577185 0.24401401 -0.104650736 0.6104192 -0.12767479 -0.19597337 0.3652509 0.37353125 0.099482216 -0.43955842 -0.43468446 -0.58088875 0.017460821
34 -0.68284976 -0.0481765 0.4194694 0.61812437 0.40660036 0.5546738 0.66676325 -0.12579066 0.43021983 0.25032607 0.597899 -0.19183816 0.6852489 0.08299438 -0.6876016 0.1413973 0.7133245 0.110013284 -0.05274972 -0.5507562 -0.17351972 0.034415428 -0.34925893 -0.5210145 0.37232888 0.47536853 0.2010314 -0.2166137 -0.054132298 -0.89678913 0.032481246 0.43984997 0.14980935 -0.036384415 0.5985401 -0.25832003 -0.230898 0.21557093 -0.12507156 0.2546329 -0.15292029 0.3040518 0.005929456 0.3209559 0.30144134 -0.79728436 -0.38343728 0.37567437 -0.29652634 -0.98733425 -0.23315291 -0.0041671228 -0.2683595 0.1315057 -0.1281899 0.3702281 -0.3515637 -0.47702807 0.32281506 0.68614525 0.19214778 0.19208051 -0.48683572 -0.4876219 -0.37202287 0.22629614 0.31759366 0.43976423 0.7644826 0.50581276 0.25081375 0.24106297 -0.30173758 -0.7541458 0.33634862 -0.6188722 -0.34157938 0.08458333 0.43678522 0.25808933 -0.11940949 -0.20760648 0.36481458 -0.44658166 0.37240282 -0.17246422 -0.19182138 0.2188317 -0.13737535 0.0025735332 0.019007677 0.53465354 0.3241214 0.3275054 -0.8082393 -0.37631333 -0.4785075 0.5140786 -0.27259916 0.9068098 -0.53734344 0.44961628 -0.13410984 0.26663566 -0.33435157 1.0096384 -0.50962025 -0.012366189 -0.19117138 -0.2562702 0.4180781 0.2111919 -0.20829482 -0.09664719 0.5684255 0.19309075 0.3364793 -0.7425207 -0.19849962 0.6944739 -0.4346553 0.35932824 0.63733643 -0.6055774 -0.38721028 -0.50188833 -0.74904937 -0.7745636
35 -0.59956527 0.041433644 0.431163 0.42824617 0.5832992 0.19460751 0.5551976 0.020378605 0.23919925 0.39336687 0.88251764 -0.19219871 0.77127934 0.07353832 -0.730667 0.15881172 0.60385174 0.2255913 -0.09361918 -0.64894295 -0.35524222 0.12593234 -0.4232896 -0.23067221 0.29986063 0.19003302 0.5547927 0.31586456 -0.15135479 -0.6972341 0.3559706 0.6651447 -0.030052066 -0.11262165 0.7565248 -0.2639975 -0.2534726 -0.009756827 -0.16189606 -0.0131774265 -0.18151875 0.48315656 -0.2380705 -0.2259281 0.30246416 -0.573059 0.07525084 0.5051904 -0.266246 -0.6032495 -0.056514286 0.17518951 -0.28076768 0.4636188 0.2431778 0.48340172 -0.074782014 -0.74433774 0.32592058 0.16367178 -0.1665892 0.12836315 -0.5145579 0.08989577 -0.60656536 0.24422635 0.2631688 0.6796747 0.7084324 0.61548555 0.5637377 0.13102473 -0.35238895 -0.79099596 0.21836774 -0.57347316 -0.33795428 -0.19431995 0.48161888 0.30209017 -0.41489255 -0.18269043 0.12515414 -0.46077135 0.36441275 -0.29681507 0.005165756 0.50047106 -0.19170724 -0.24776945 0.18937196 0.439206 0.048587147 -0.04217528 -0.74772584 -0.14567979 -0.47192106 0.18754208 -0.32625234 0.75433075 -0.46724477 0.5669573 0.05965732 0.09976653 -0.4079493 0.4939197 -0.6055056 0.30387652 -0.34423858 -0.43501762 0.4091222 0.32476455 -0.0316668 0.16274159 0.27806938 0.29751635 0.19453028 -0.6167613 -0.06323128 0.42376065 -0.35675293 0.16980368 0.7201341 -0.41150492 -0.5687281 -0.7093997 -0.80916864 -0.4869295
36 -0.5032326 -0.022403024 0.43371853 0.571128 0.40327388 0.56645334 0.62320334 0.096784085 0.35971642 0.2794761 0.7252731 -0.18348867 0.889585 0.11713994 -0.50408083 0.015969317 0.617216 -0.16152342 -0.2645991 -0.7272729 -0.19864383 0.17362764 -0.571246 -0.3308568 0.4606849 0.40206867 0.31026724 -0.013869873 -0.27969638 -0.77267647 0.010593071 0.4848131 0.01826947 -0.34234315 0.724443 -0.32650542 -0.2566401 0.15897577 -0.18307376 0.17012252 -0.33260465 0.42845252 -0.13997036 0.14724495 0.27404 -0.5403841 -0.19639279 0.3110894 -0.24473661 -0.9710559 -0.0447742 0.08566682 -0.17995878 0.39636317 0.02353227 0.3538547 -0.21896341 -0.398062 0.33213052 0.6113502 0.26723677 -0.10213815 -0.48003787 -0.40476033 -0.3785517 0.25558677 0.38994324 0.31955972 0.9015829 0.43592077 0.09529859 0.30515578 -0.4152983 -0.55156875 0.57458603 -0.5765372 -0.36277252 -0.15764943 0.3772666 0.21598096 -0.24895468 0.064910024 0.32750252 -0.40656787 0.33812952 -0.27396503 -0.26458982 0.40120244 -0.20067729 -0.02147475 0.0271227 0.53076833 0.28498286 0.35318235 -0.5205742 -0.36748004 -0.51594996 0.44421256 -0.25670233 0.83418137 -0.5823796 0.49889234 0.12540105 0.21390519 -0.23155518 0.7213296 -0.6864559 -0.09652431 -0.438622 -0.31301254 0.48085475 0.26171234 -0.0970087 0.19927596 0.6327878 0.32523447 0.23479559 -0.7817813 -0.09527544 0.49370533 -0.40459728 0.106125146 0.6345693 -0.4699524 -0.27799317 -0.6997135 -0.85700345 -0.41882676
37 -0.5465661 0.08246236 0.23335671 0.47820175 0.5068612 0.63706917 0.453088 0.048016086 0.32758537 0.3036004 0.41404152 -0.09183218 0.56331587 0.063119665 -0.56385195 -0.07577093 0.66822577 0.027586257 -0.10917921 -0.49072194 -0.23703767 0.18110324 -0.4845626 -0.380336 0.3129634 0.28071544 -0.029791256 -0.0848985 -0.1761478 -0.9548839 0.11132011 0.57023185 -0.021289075 0.024553819 0.5264646 -0.25229666 -0.14015017 0.2352982 -0.0775296 0.3036206 -0.2475427 0.2649652 -0.10274813 0.28108326 0.11355488 -0.6449316 -0.26002485 0.23360044 -0.2739435 -0.88703674 -0.22644457 0.13239613 -0.18346985 0.19590451 -0.009986099 0.15850404 -0.3332686 -0.47011197 0.41458985 0.4473436 0.34976766 -0.07361281 -0.58514065 -0.49306515 -0.23108211 0.13517435 0.15824467 0.3901118 0.8837965 0.49814272 0.05701106 0.21893455 -0.37864408 -0.5863303 0.14728631 -0.59064895 -0.33681163 -0.06207376 0.42713544 0.18776162 -0.066698246 -0.088971734 0.52860343 -0.45692414 0.47831228 -0.12928027 -0.24458249 0.08099431 0.0025592295 -0.13993159 0.15477598 0.5717557 0.18044733 0.15622598 -0.64787805 -0.17458121 -0.4344596 0.44168618 -0.297142 0.7058797 -0.50451344 0.42030632 -0.13777584 0.25262278 -0.17248975 0.7812756 -0.48692548 0.096491344 -0.27820724 -0.31534383 0.42915908 0.024227362 -0.25903082 0.089497186 0.47105223 0.19434772 0.21722709 -0.7828378 0.020818572 0.3325525 -0.4478353 0.18145445 0.5644188 -0.40823928 -0.15988062 -0.6471743 -0.6501495 -0.61165434
38 -0.4731962 0.053334367 0.45611623 0.6664956 0.360026 0.412785 0.7483062 0.086508945 0.46509585 0.25177273 0.84439003 -0.21919484 0.878682 0.26765105 -0.3626207 0.25636363 0.61587435 -0.3309081 -0.23700038 -0.8441397 -0.28644755 0.18775733 -0.69084287 -0.2690306 0.4130151 0.4273678 0.27649996 -0.06777221 -0.21979557 -0.6889905 -0.012742222 0.49634305 0.2590164 -0.5031458 0.6983743 -0.22309443 -0.30799615 0.20571864 -0.06903245 0.11283817 -0.45475933 0.41967267 -0.17110932 -0.006171456 0.22645696 -0.57875544 -0.15865228 0.3810464 -0.40386027 -0.96934706 -0.009868651 0.054687627 0.04392486 0.39336997 0.08095452 0.38164702 -0.14049326 -0.41594994 0.23222372 0.4150108 -0.03489756 -0.11509353 -0.32331958 -0.16391923 -0.26958674 0.25989377 0.40495998 0.41829678 0.8645207 0.41157296 0.34014022 0.20702283 -0.36531332 -0.42018563 0.71659887 -0.54560196 -0.32602093 -0.11619954 0.47994715 0.204129 -0.25576258 -0.025592655 0.19303818 -0.2660915 0.24494034 -0.4319051 -0.06426675 0.57452446 -0.3837577 0.15224385 -0.024725467 0.40091687 0.36398128 0.43346712 -0.5678251 -0.23469758 -0.46605834 0.28313676 -0.3261427 0.8452463 -0.61541176 0.5677121 0.21882571 0.08726099 -0.33524573 0.79011303 -0.84857607 -0.3643121 -0.49850774 -0.24675122 0.6319683 0.32251078 -0.13498028 0.2862457 0.6466925 0.20686509 0.32640585 -0.6515501 -0.15749216 0.6572278 -0.5272891 0.295349 0.60065055 -0.46952695 -0.44130534 -0.67992705 -0.75249034 -0.49485475
39 -0.23228008 0.13464941 0.5168175 0.6888094 0.35507485 0.49738833 0.6174989 0.22156683 0.325569 0.3647812 0.66707927 -0.26949576 0.9508207 0.19030587 -0.21830317 0.15057261 0.5183601 -0.26859173 -0.3011364 -0.8802007 -0.32070005 0.29121077 -0.45554635 -0.27207556 0.33062795 0.582667 0.33613423 0.0051012295 -0.055381473 -0.75433195 -0.14189571 0.29573694 0.08073824 -0.29535425 0.6273226 -0.13303532 -0.26093754 0.19902834 2.7262999e-05 0.23028764 -0.4873203 0.31152904 -0.06776748 0.14059916 0.38248965 -0.7243803 -0.11674703 0.4840508 -0.39465058 -0.88234305 -0.09051409 -0.03186233 -0.03409955 0.51908875 0.24762201 0.41487676 -0.06751294 -0.4616857 0.16860524 0.5766481 -0.1287386 -0.19955817 -0.4034166 -0.08747268 -0.49102727 0.25548357 0.41023874 0.21829209 0.87071145 0.35519263 0.22838482 0.1839155 -0.2568113 -0.55532587 0.67785096 -0.7258073 -0.55078334 -0.18137261 0.7078496 0.3363046 -0.2742719 0.034877297 0.3012548 -0.4363761 0.16315314 -0.45493203 0.022622848 0.5244935 -0.32934922 -0.017008571 -0.0011704596 0.45187494 0.42430225 0.2516666 -0.6478498 0.13169758 -0.53578633 0.15134998 -0.5488782 0.77472377 -0.5472131 0.6721134 0.10141659 0.018810406 -0.3012283 0.46380556 -0.6566861 -0.3807394 -0.40647474 -0.21436769 0.967795 0.44963688 -0.20129363 0.40707833 0.729666 -0.0022522255 0.17054811 -0.7675543 0.016941383 0.48074424 -0.6111259 0.4120189 0.298203 -0.24158028 -0.45805505 -0.5879023 -0.768353 -0.27989212
40 -0.5899636 -0.004965987 0.3393441 0.4285689 0.574277 0.3339613 0.6422239 0.23016159 0.21046755 0.09816047 0.57973355 -0.25993738 0.7568996 -0.025362488 -0.42353943 0.48027366 0.5270474 -0.15194198 -0.25059578 -0.3443882 -0.17472474 -0.028305747 -0.55433726 -0.11221792 0.03420284 0.24855326 0.3023053 -0.030748067 -0.14870228 -0.81586224 0.17891882 0.40627727 0.1098086 -0.25085932 0.5658897 -0.36564025 -0.33906376 -0.17236495 -0.47150797 0.40665406 -0.14335911 0.26914802 -0.08376916 0.13947666 0.38377526 -0.46729553 -0.007487844 0.379522 -0.23171897 -0.6131585 -0.18405843 0.005041976 -0.08584902 0.29003784 0.065159395 0.34497076 -0.08717161 -0.2404213 0.43435353 0.46555617 0.10862651 0.5048708 -0.44120327 -0.34678373 -0.1534574 0.08390074 0.23448735 0.48786452 0.8209798 0.5262387 0.46535376 0.015328561 -0.29513693 -0.7290618 0.24927767 -0.25494215 -0.57329875 -0.14298928 0.21423994 0.22602849 -0.12388621 0.26781106 0.2169983 -0.2119139 0.45187163 -0.18167853 -0.042244382 0.4260468 -0.20571479 -0.04663592 0.22144666 0.08964114 0.23502201 0.049573503 -0.557665 -0.28666955 -0.37345207 0.43092442 -0.21671385 0.9419818 -0.41745275 0.27376562 -0.25360382 0.4895826 -0.27684036 0.91695577 -0.590928 -0.1079128 -0.40320683 -0.3361046 0.35152468 0.018530808 0.020918688 0.13552998 0.46496126 0.1530372 0.32619426 -0.53864026 -0.22224115 0.5375583 -0.30897984 0.09285014 0.6277117 -0.40735644 -0.2930163 -0.5765641 -0.6614687 -0.54387426
41 -0.47615162 -0.045495838 0.47354072 0.6820614 0.53722626 0.46446514 0.7134788 0.0093621155 0.46202487 0.33039495 0.8004465 -0.16766602 0.936226 0.06430368 -0.54612756 0.23780853 0.62524855 -0.0828592 -0.16822837 -0.7167468 -0.22288474 0.05720683 -0.43786934 -0.33153242 0.3900623 0.48908523 0.36728933 -0.13316125 -0.091868624 -0.8366698 -0.0033296472 0.46987072 0.12874448 -0.21536873 0.7568416 -0.33434325 -0.28958496 0.14736919 -0.1498573 0.25366858 -0.32510427 0.3728712 -0.04939211 0.1387542 0.45841184 -0.74948734 -0.2183297 0.5250251 -0.33359468 -0.9855228 -0.08251389 -2.7305874e-05 -0.16036803 0.4134486 0.0064546904 0.4921491 -0.1674399 -0.5051864 0.339374 0.620566 0.12168145 0.12888129 -0.50209063 -0.32676542 -0.45337403 0.20121221 0.36288917 0.46801218 0.9117648 0.5342584 0.35194966 0.17898087 -0.38852912 -0.7467942 0.46151674 -0.61407995 -0.47929975 -0.05891021 0.4813854 0.37255257 -0.31335643 -0.04060653 0.20879845 -0.4511634 0.36327574 -0.3054222 -0.10389907 0.47155365 -0.23845106 -0.011843239 0.019623628 0.42016813 0.28542376 0.29345784 -0.7276445 -0.29575473 -0.50650996 0.4186156 -0.33289814 0.9815918 -0.5822189 0.54490817 -0.039704386 0.20591746 -0.41223216 0.88551474 -0.6835449 -0.15673552 -0.44718632 -0.31660405 0.5976919 0.30456787 -0.11278683 0.1519897 0.6511577 0.24115519 0.34961823 -0.73476624 -0.16274844 0.74107134 -0.52160996 0.3460453 0.67109764 -0.5235487 -0.4925825 -0.72400767 -0.8390254 -0.5687985
42 -0.4474775 0.15442055 0.22821546 0.112056985 0.10699334 0.16434866 0.052852046 -0.35865596 -0.23268043 -0.19095987 0.10204586 0.219269 -0.15330036 -0.117478274 0.11428339 -0.50427634 -0.03554984 0.12477161 0.03814195 0.30245802 0.090567015 0.24976744 0.016847396 0.11405527 -0.4394309 -0.2275196 -0.13193539 -0.20249003 -0.3581246 0.24820721 -0.25504297 0.1706673 -0.59628356 0.018754156 -0.28666595 -0.47033313 -0.015108745 -0.6679005 -0.060770147 -0.28694546 -0.5958224 0.3519273 0.45076594 0.021483349 -0.13188443 0.0039446466 -0.28460914 -0.36559385 0.3091773 -0.18229821 -0.31429723 -0.05704134 0.051284764 0.113562346 -0.04910567 0.16836576 -0.2688654 0.2077114 0.22077988 0.18618916 -0.12016253 -0.3761124 -0.7431936 0.024396526 0.42424214 0.06005968 -0.61832994 0.052370086 0.3347884 -0.4804287 -0.62145454 -0.102651015 0.02326968 -0.58313745 0.25481632 0.67244244 -0.55488604 -0.030140022 0.24346608 0.19482316 -0.6307886 0.16213161 0.067220494 -0.13574286 -0.03922012 -0.023289353 -0.9182571 -0.30745614 -0.0030659006 0.11541146 -0.018255292 0.23633738 0.26567033 0.21287167 0.1925944 -0.42745847 0.031640105 0.35004446 0.025193883 -0.22656791 0.023984596 0.007475691 0.059425667 0.22598197 -0.07819444 -0.2670892 0.535022 0.2546758 0.09728285 -0.3152343 -0.18402457 -0.6755147 -0.66645724 -0.1872801 -0.12707053 0.7018242 -0.31857464 -0.15710355 0.37113333 -0.5247388 0.13913721 -0.7565073 0.392041 -0.7555427 0.4077027 0.086457536 -0.522751 0.084209785
43 -0.7340141 -0.023966804 0.13048767 -0.023848388 -0.05385368 0.19179744 -0.08907886 -0.5925488 -0.21149257 0.14122906 -0.42868203 -0.09348031 -0.009927904 -0.33270007 0.16581468 -0.9773571 -0.2184146 0.1938944 0.13600455 0.10436703 0.25091383 0.50115526 -0.0015368287 -0.32002825 -0.40318194 0.078951575 0.0077975527 -0.5371671 -0.056622256 -0.032011684 -0.12973116 0.37311524 -0.54349893 0.37942436 -0.067992456 -0.39218277 0.09052134 -0.32723805 0.5440871 -0.13911155 -0.3527668 0.3507596 0.3306178 0.38308552 -0.36734655 -0.15169296 -0.23535675 -0.2842664 -0.07152737 -0.606846 -0.31651673 -0.20685826 -0.17853424 -0.12129136 0.105599135 0.13368857 -0.839496 -0.1267055 0.43902692 0.320282 0.0545885 -0.58286583 -0.51227945 -0.1244343 -0.12860882 -0.013056166 -0.49606743 -0.3443727 0.58189946 -0.31728917 -0.5292253 0.24805784 -0.19355696 -0.67121494 0.12052784 0.45860934 -0.15994862 0.32776737 0.4194196 0.09906617 -0.85757726 -0.18455389 0.26610866 -0.4460775 -0.08125198 -0.035996687 -0.35619015 -0.32928333 0.03375324 -0.036689673 -0.33572683 0.8342499 0.26988372 0.2649143 -0.18561041 0.12159587 -0.01167248 0.62460446 0.17437369 -0.18429522 -0.11320489 0.4050897 -0.07615833 -0.008014944 -0.03401248 0.07444381 0.46219856 0.16421853 0.08818375 -0.34515145 -0.117559396 -0.47465968 -0.7095771 -0.43643078 -0.26441777 0.63486993 -0.26718765 -0.44011033 0.28956366 -0.3504823 0.16215184 -0.0882056 0.40043733 -0.5459813 0.11859604 0.21463081 -0.37699488 -0.06242687
44 -0.06448262 -0.22672255 -0.098225236 0.48115674 0.2414305 0.24290596 0.30366996 0.025484027 -0.014955047 -0.06643565 -0.7782136 -0.024404254 0.7085735 0.061169922 0.37924162 -0.03780548 -0.20039777 -0.7823765 0.22960636 -0.7586223 -0.017456247 -0.47007334 -0.51238877 0.3422492 -0.22541039 0.028922422 -0.11620295 -0.089849964 -0.024741063 -0.22334681 -0.56573814 0.15666214 0.28607935 -0.6073466 1.074787 -0.34230524 0.20841163 0.3382066 0.61929494 -0.062006 -0.6643308 0.053996637 -0.051281914 0.26567084 -0.26841748 0.43724057 0.57286364 0.1682742 -0.9370189 -0.7951073 0.11481629 -0.051786486 0.39081365 0.61706156 -0.30154562 0.4869979 -0.30078894 -0.6668666 0.0030255371 -0.15041527 1.0541456 -0.5305893 -0.13631225 -0.26319757 -0.3981429 -0.22200382 -0.03174851 -0.68439275 1.4101951 0.6022997 -0.80971277 0.44739103 -1.4006917 0.15760745 0.23079257 -0.111186534 0.4607721 -0.1641125 -0.14733009 -0.4250377 -0.49168423 0.43897912 0.54147756 -0.10396273 0.5961587 0.19971117 -0.026307734 0.09819532 -0.4706216 0.024002936 -0.86772066 0.43412083 0.07101897 0.36769128 0.23474628 0.3891625 0.029610416 0.30641004 0.29364958 -0.042054463 -0.43097523 0.48609307 0.2565543 -0.0075632026 -0.45337296 0.7399613 -0.23485485 -0.8250894 -0.9490825 -0.06017989 -0.2826666 -0.7386422 -0.36117744 0.096922025 0.47076845 0.14838572 0.10138309 -0.3585897 0.01338789 -0.313113 -0.41121715 0.38560566 0.09001743 0.80356073 0.896101 -0.28942513 0.184432 0.42422453
45 -0.2875242 0.091713175 -0.082113065 0.1970261 0.630086 0.41377333 0.3088048 -0.18823747 -0.161226 0.11031316 -0.68881226 0.5760859 0.36035916 0.1470786 0.10223652 0.19974892 0.08570717 -0.39111614 0.1652663 -0.5391851 0.12854785 -0.26957747 -0.5022776 0.61534035 -0.5167078 -0.37778756 -0.4577903 0.18249398 -0.18154559 0.09311208 -0.10489256 0.25525683 0.43945834 -0.3141886 0.95013046 -0.65108466 -0.020385457 0.06212669 0.1012805 -0.24627428 -0.5213728 -0.15476455 -0.3100371 0.09478948 -0.029808044 0.73855245 0.7441989 -0.22644734 -0.646487 -0.59024817 -0.31358528 0.31833512 0.8199586 0.40067357 -0.53391165 0.33388582 -0.45622945 -0.45113075 0.2632955 -0.41076675 1.0523942 -0.12463916 -0.15625401 -0.28411388 0.2176503 -0.40979454 -0.07946867 -0.34853584 1.210988 0.44299784 -0.85778075 0.17532665 -1.2072854 0.30906442 -0.18276505 0.67840505 0.10169504 0.059478767 -0.47343287 -0.46968558 -0.38554418 0.40018308 0.76734525 -0.21629474 0.9167223 -0.026670929 -0.5183095 0.030579207 -0.31754217 -0.09869706 -0.58652616 0.40096545 -0.20983335 0.14874011 0.053699248 -0.4278765 0.21951869 0.48632255 0.08964764 -0.3521713 -0.47094795 0.3269862 0.035069995 0.30096656 -0.2998764 0.7956606 -0.06550908 -0.35150093 -1.1466213 -0.27623042 -0.64493567 -1.2437996 -0.31696486 0.028204618 0.1950884 0.18677807 -0.031170206 -0.07642804 0.33404437 -0.3274721 -0.10230817 0.015690418 0.08553712 0.82271874 0.9537766 -0.5243618 0.35911962 0.28611493
46 -0.010115581 -0.27920765 -0.025234625 0.48175305 0.4358881 0.29934293 0.3726158 0.0681931 -0.12672354 -0.12750235 -0.75131035 0.13794975 0.708447 0.0063411985 0.33961496 0.15416197 -0.14356327 -0.8099141 0.083003916 -0.7117111 -0.046784576 -0.4680867 -0.58030736 0.47417492 -0.36037225 -0.07608403 -0.14391 0.036845822 -0.093962505 -0.1124083 -0.5685117 0.22332683 0.33977118 -0.5555197 1.1139393 -0.51725656 0.15679632 0.09848542 0.46645197 -0.11773564 -0.7036106 0.06837212 -0.18384598 0.15828726 -0.14918047 0.58115846 0.80768275 0.09133004 -0.9222266 -0.9707087 0.13205938 -0.0018904973 0.5679763 0.7567657 -0.19032642 0.50536263 -0.24508752 -0.49047253 0.14181258 -0.17218435 1.2431287 -0.3078204 -0.0848105 -0.29900998 -0.29602203 -0.2035036 -0.031990573 -0.7168177 1.495557 0.60854685 -0.9954069 0.2306734 -1.5512096 0.08492253 0.10210987 0.21867166 0.36705774 -0.13550888 -0.28963023 -0.5009967 -0.6064741 0.62418973 0.569478 -0.10590533 0.73386234 0.03905854 -0.2418614 0.12226398 -0.42390454 -0.03005734 -0.7965736 0.18234707 0.039564792 0.40385705 0.2224822 0.07147438 0.16326158 0.5130846 0.26001504 -0.07617788 -0.47914207 0.46366844 0.20324068 0.0852811 -0.5436205 0.7186166 -0.14398886 -0.7887197 -1.2485317 -0.2294294 -0.47657496 -1.0050545 -0.32716987 0.19846638 0.47017807 0.1414034 0.20140122 -0.26980937 0.15503329 -0.3229046 -0.3842086 0.19428912 0.18509033 0.90580434 0.9602814 -0.4016395 0.27716413 0.53200287
47 0.24539493 -0.6594298 -0.07094032 0.42622682 0.34029788 0.03307607 0.08607484 0.28086728 -0.23008803 -0.1092822 -0.8139744 -0.10852722 0.8100385 -0.25807658 0.4381261 -0.0051544094 -0.50578225 -0.91985816 0.012082811 -0.6616539 0.015750157 -0.6205078 -0.41252738 0.4196621 -0.35040924 0.09536415 0.06391388 -0.08136705 0.042502474 -0.18965594 -0.65480417 0.053957023 -0.063392825 -0.41855243 1.066683 -0.39919326 0.2778613 -0.1783088 0.43064737 0.10452 -0.5929125 0.19324486 -0.034737993 0.26696882 -0.1758495 0.44876194 0.8281871 0.29721928 -0.71143484 -0.8574252 0.5543886 -0.13258786 0.1865009 0.93654007 0.21467572 0.47677577 -0.049016032 -0.29184398 0.16000542 0.06537555 1.3830967 -0.24354257 -0.12803943 -0.38424107 -0.704915 -0.19760405 -0.090179816 -1.0656478 1.2722837 0.6158295 -0.97427773 0.08312022 -1.5550809 -0.19197644 -0.063865185 0.03859169 0.3145212 -0.26195785 -0.27577722 -0.43211597 -0.8347519 0.8595824 0.2245896 -0.086414926 0.5505304 0.1631452 -0.0986724 0.094578005 -0.25570083 -0.20137258 -0.7292292 -0.17007254 -0.053805392 0.22628675 0.37103397 0.25346363 0.12966552 0.50843453 0.409481 0.04013214 -0.37633356 0.31690472 0.1715879 -0.021706201 -0.4928828 0.4510995 -0.0061656013 -0.76806223 -1.1542397 -0.23391758 -0.5560751 -0.6520307 -0.07194766 0.15340556 0.35021088 0.087727964 0.29622766 -0.3401816 0.05541686 -0.28070077 -0.22857375 0.11730332 0.33544046 0.86342305 0.853405 -0.23631753 0.17687352 0.7685779
48 0.2663861 -0.67173195 0.08143086 0.23179984 0.57657003 -0.39168486 -0.007929561 -0.12889373 0.069124185 0.49657673 -0.30379838 0.1698666 0.775034 -0.18626846 0.0047427597 0.051415265 -0.7705518 -0.33480304 0.28304142 -0.8862722 0.073102646 -0.5601942 0.22669567 -0.096308276 -0.19009386 0.81584644 -0.6353734 -0.23984975 0.27608767 -0.07761827 -0.065133676 -0.48249364 -0.04359272 0.56482685 0.71561277 0.23729375 0.029707462 -0.0471733 0.05755194 0.11822425 0.08094915 0.4707124 0.38791826 0.9103765 0.6410704 -0.26842967 0.18182337 0.19998053 0.14925835 -0.39399248 0.5351678 -0.17751138 -0.3802604 0.23594889 0.18893106 0.39322713 0.04816943 -0.0995218 0.22749741 0.53871906 0.9803126 0.15904954 -0.18666576 -0.6945182 -0.82619905 -0.7438692 0.22020616 -1.2616755 0.07866109 -0.021572893 -0.069473594 -0.0649878 -0.886605 -0.55468345 -0.6613923 0.3488269 -0.27669072 0.4150112 -0.047419474 0.22622657 -0.9919721 0.29369715 -0.53439105 -0.473475 0.40335214 0.41855434 0.55692816 0.4425131 0.008646018 -0.7011508 -0.5865172 -0.13824917 -0.5393823 0.12941743 0.05512127 -0.75513065 0.1263605 -0.006892055 0.23751898 0.04578438 0.03639456 0.1726361 0.07424678 0.17677198 -0.25519618 0.787468 0.29733524 -0.7536859 -0.5936267 -0.47652355 -0.5916263 0.3250356 0.79954 -0.3337338 -0.31979868 -0.4317523 0.1887714 -0.17237899 0.116621 1.2782756 0.49993765 0.29165104 0.48696 0.14629643 0.021898696 0.20473503 0.39650416 0.49367407
49 0.47097117 -0.48488784 0.10184271 0.15875868 0.599645 -0.2877922 -0.1425568 0.1362603 -0.08223628 0.55839336 -0.49879277 0.21813297 0.90319395 -0.30357444 0.19154765 -0.038223874 -0.90555465 -0.46135312 0.1452956 -0.89387 0.010584969 -0.5543708 0.13103007 0.17725684 -0.25928697 0.6657262 -0.5574497 -0.02695168 0.13248861 -0.18624982 -0.14088945 -0.566209 -0.20320584 0.33813152 0.80218923 0.21478081 0.09782114 -0.096822314 0.06936849 0.24723095 -0.12822773 0.31319448 0.3907169 0.8754159 0.6148551 -0.03620824 0.28566068 0.25493672 0.06004364 -0.41321748 0.57817876 -0.07565301 -0.20183688 0.6665506 0.21151596 0.50279355 0.13276592 -0.19024579 0.25947535 0.5110192 1.287945 -0.09611902 -0.33328554 -0.6190095 -0.8612064 -0.76694185 0.20931277 -1.3927631 0.31072265 0.065583915 -0.42332244 -0.045912042 -1.0302609 -0.45389467 -0.58072555 0.20729911 -0.34440374 0.18280876 -0.008833146 0.15941483 -1.1019716 0.612768 -0.3977082 -0.49741423 0.42769706 0.39499727 0.270361 0.3217034 -0.021297852 -0.7426838 -0.705056 -0.2740036 -0.64096916 -0.01030867 0.26801628 -0.6226247 0.121048205 -0.06429754 0.19599573 0.052780546 -0.1589604 0.12890843 0.094850875 0.07869687 -0.36246455 0.59071827 0.29592362 -0.85142684 -0.7431274 -0.5593842 -0.54614025 0.31594867 0.72246724 -0.30251363 -0.119209014 -0.3726515 0.11669257 -0.35437182 0.3276846 0.9051165 0.45325765 0.06328139 0.544868 0.3427891 0.19009238 -0.029208291 0.31423894 0.8931723
50 0.3621146 -0.06017458 0.44628716 -0.08362206 0.5290396 -0.119434945 -0.040313233 -0.09028136 -0.08897038 0.7929793 -0.2623072 0.35969317 0.7697908 -0.28463438 0.13969621 -0.014225779 -0.71766114 -0.12707902 -0.05057356 -0.91609627 0.13827272 -0.23816049 0.40474728 -0.098055586 -0.096988164 0.8441477 -0.15749086 0.06608856 0.4622333 -0.043597072 -0.06384102 -0.8269657 -0.0858081 0.6176196 0.76381445 0.27304235 -0.13007213 -0.12860787 -0.10959391 -0.1416618 0.1469875 0.051118556 0.3646597 0.8077698 0.9633127 -0.07747014 0.14756098 0.4230612 0.13225175 -0.33474457 0.16902387 0.08772802 -0.151413 0.6073634 0.080737896 0.64622265 -0.0788579 -0.22811843 0.18327186 0.9223394 0.8958298 -0.032522753 -0.21230136 -0.384344 -1.0124079 -0.67514104 0.6978967 -1.1276221 -0.15413617 -0.15690027 -0.40790388 0.064999476 -0.6152846 -0.65958524 -0.42489296 0.09838023 -0.72112644 0.46830574 0.17520705 0.28543147 -1.0450692 0.2828679 -0.35323825 -0.80106676 0.13400398 0.2612348 0.14601015 0.3409596 -0.06865837 -0.95184493 -0.7149519 -0.08167352 -0.5198369 -0.1380092 -0.04895784 -0.8046303 -0.12190091 -0.09746986 -0.07041996 -0.0013715146 -0.28542304 0.23495163 0.100605525 -0.12228785 -0.30585712 0.39521497 0.6010373 -0.60100186 -0.53071874 -0.4817158 -0.16972895 0.6616234 0.5372704 -0.45083562 0.024782006 -0.61413336 -0.0131904995 -0.2584739 0.51287216 0.9776343 0.50888175 0.2027419 0.25627056 0.4511679 -0.25274676 0.25443068 0.17481996 0.9810779
51 0.52131367 -0.3841087 0.06503674 0.3223686 0.3639296 -0.2607137 -0.025276052 -0.011628202 0.36779165 0.76409036 -0.10208555 0.27250835 0.95759887 0.04404976 0.111615114 -0.08760235 -0.62300885 -0.52077395 0.19887356 -1.1653585 0.017294606 -0.34068465 0.056935683 -0.102651976 0.31561974 0.9148667 -0.4310349 -0.18921335 0.23163739 -0.15501297 -0.13759531 -0.42225325 0.11148001 0.09552615 0.79491186 0.39256838 -0.0134906545 0.49345043 0.29537785 0.08755031 -0.13546169 0.30316794 0.24335626 0.75422335 0.60216856 -0.2865348 0.0171066 0.3865474 0.08751879 -0.44587204 0.56567854 -0.06641609 -0.20537977 0.46723482 0.0050845454 0.44578856 0.08375194 -0.36724266 -0.05413516 0.37880576 0.81686956 -0.3735752 -0.10621333 -0.4327508 -0.8725565 -0.63545763 0.49298334 -0.9832495 0.1256111 0.001315941 0.022545677 0.16445526 -0.8342195 -0.15018748 -0.15333596 -0.2908 -0.1403226 0.2497149 0.17843069 0.24061851 -0.75438946 0.1513589 -0.55237275 -0.4617746 0.14025569 0.21895678 0.63863933 0.619882 -0.19603093 -0.46239063 -0.75783676 0.10580479 -0.513929 0.15130055 0.11091064 -0.41730896 -0.07514806 -0.26898858 0.04288215 0.18991755 -0.20685273 0.267433 0.3708867 -0.14488913 -0.17848803 0.58718204 -0.20325571 -0.9484986 -0.60137916 -0.23861404 -0.000398784 0.7319687 0.73327893 -0.10422577 0.018295335 -0.40206167 0.177128 -0.32345226 0.15595683 1.293877 0.16145667 0.47339284 0.3570866 0.17156108 -0.15270144 -0.12382326 0.28613898 0.56631464
52 0.49303326 -0.40838352 -0.12812571 0.2359277 0.63117766 -0.15586525 -0.18952465 -0.164654 0.29682726 0.9014316 -0.18465312 0.74577695 0.7233861 -0.051181547 -0.08491068 -0.050944455 -0.5163432 -0.35831273 0.32312158 -0.99366665 0.099190414 -0.39833128 0.11781755 0.12974052 0.07884643 0.67758006 -0.72596264 -0.1218979 0.16267584 -0.07823141 0.068712994 -0.29917765 0.06865742 0.30850983 0.7201352 0.08909566 -0.04066975 0.38503325 0.22133791 0.09313176 -0.2794889 0.11091488 0.15658759 0.7195649 0.62424994 -0.18890859 0.09612851 0.14944768 0.20852874 -0.4834706 0.46389464 0.12873688 0.03725273 0.49988937 -0.13433956 0.39568922 -0.03134115 -0.29828644 0.06534877 0.04157017 1.0156583 -0.23980856 -0.30471197 -0.42511302 -0.5762805 -0.76770157 0.29159072 -0.81471425 0.085574225 0.07581399 -0.10599966 -0.1099604 -0.8817902 -0.07266897 -0.63838005 0.011034937 -0.21574305 0.34774756 -0.041685488 0.20205809 -0.8062611 0.11580278 -0.48810855 -0.5363287 0.3816105 0.12141976 0.21433704 0.38143942 -0.022571867 -0.47963908 -0.64117926 -0.050395057 -0.8646448 -0.054451585 -0.012221977 -0.847546 0.16515215 -0.11061861 -0.045177877 -0.020657483 -0.26146775 0.0070320056 0.18871768 -0.08899646 -0.18092519 0.5796341 -0.09601454 -0.60907596 -0.7134459 -0.35086206 -0.2969662 0.38551307 0.68598026 -0.18873094 -0.18110867 -0.27647913 0.24424163 -0.1832139 0.33810553 1.2144734 0.23258473 0.23566818 0.51738644 0.120365046 -0.01955016 -0.383064 0.36286667 0.4780899
53 0.5072084 -0.4998027 0.13581944 0.18293701 0.5805566 -0.32198563 -0.0886022 -0.12104382 0.17954524 0.82227296 -0.11949992 0.43383807 0.8632626 -0.14805093 0.031853307 -0.06923301 -0.70650184 -0.37495232 0.15787514 -1.1111857 0.07350331 -0.35338745 0.21928237 -0.05869407 0.04478806 0.901441 -0.4564563 -0.10593691 0.30940685 -0.02723157 -0.041937914 -0.47099236 -0.014916195 0.48253787 0.78975964 0.25260255 -0.043154657 0.13258952 0.16683502 -0.022890897 -0.090203434 0.30888855 0.21241665 0.750494 0.74699163 -0.24971722 0.19084506 0.3217206 0.18804926 -0.5116775 0.5632136 -0.0077975295 -0.19171014 0.56069636 0.21241131 0.5066824 0.04574176 -0.2337701 0.10392982 0.4376684 0.9124327 -0.14106351 -0.17920204 -0.3868968 -0.9745762 -0.6988787 0.46371412 -1.0968741 -0.032274477 -0.047075663 -0.07963655 -0.08368513 -0.88531077 -0.43928665 -0.522465 0.0354048 -0.3375593 0.38897312 0.09767078 0.27582568 -1.0570836 0.1983194 -0.6434268 -0.64023 0.22492385 0.14925401 0.46284473 0.5591572 -0.054934632 -0.72077906 -0.6856786 -0.1422292 -0.6920391 0.006371072 -0.016734153 -0.7604371 0.051253445 -0.14008649 0.003062528 0.050933372 -0.21135357 0.21653014 0.24614786 -0.14870392 -0.24012917 0.46679863 0.12518242 -0.72651494 -0.72620714 -0.45722416 -0.23810321 0.6213037 0.7778186 -0.20281345 -0.17886263 -0.4503339 0.21555842 -0.21447296 0.3378865 1.3341334 0.35474268 0.3353484 0.48735383 0.2172029 -0.21398653 -0.050657183 0.33883137 0.7193056
54 0.44331598 -0.21198447 0.20267668 0.18178459 0.60676664 -0.23999433 -0.010311522 -0.08602481 0.14272575 0.79925424 -0.1655801 0.49827483 0.85352457 -0.12532361 0.11332714 -0.0019585341 -0.7162417 -0.35679966 0.1474803 -1.0740182 0.043560904 -0.36025295 0.1804123 0.056398097 -0.09070046 0.825649 -0.54466337 -0.03966243 0.22223617 -0.10292487 -0.070136964 -0.57167876 0.022778893 0.3806308 0.79355085 0.28383842 -0.06551746 0.10981852 0.106216125 0.03459907 -0.20054112 0.21250653 0.35877916 0.8098996 0.8103723 -0.20192234 0.102709636 0.32071733 0.060072612 -0.44009024 0.35408556 0.043963138 -0.019685213 0.65633535 0.05476195 0.58527017 0.052451733 -0.3338284 0.106635325 0.47688833 0.93611014 -0.21752839 -0.3305731 -0.37705252 -0.83067185 -0.766215 0.45253906 -1.0509347 0.10686597 -0.06473819 -0.20313336 -0.013705978 -0.844005 -0.44858262 -0.43193215 0.057649467 -0.48553547 0.37176254 0.19703977 0.31617078 -1.0287986 0.26478893 -0.47197536 -0.6337903 0.2584162 0.1778851 0.27337423 0.4654817 -0.12737025 -0.66460663 -0.74982667 -0.12061686 -0.6571274 -0.039151188 0.031377655 -0.7900464 0.0009891225 -0.18612094 -0.09777323 0.086085655 -0.2765336 0.19438094 0.191196 -0.10522596 -0.3442073 0.5798168 0.17269762 -0.84313744 -0.71258706 -0.48793957 -0.1482848 0.5476185 0.6187225 -0.29154485 -0.022279574 -0.45426846 0.1267096 -0.3068531 0.42542076 1.2026043 0.3357896 0.23070996 0.47203514 0.20341477 -0.10731575 -0.07907252 0.26951143 0.785935
55 -0.6363393 -0.19803862 0.39595318 0.3454607 -0.41625208 0.6019347 0.41760528 -0.07591622 -0.085210755 -0.2205801 0.2246566 -0.31790838 0.31867933 0.21085778 -0.29520884 -0.23496771 0.41498238 -0.19823714 -0.28578237 -0.3520652 0.03130765 0.14147106 -0.32608712 -0.465219 0.12135969 0.23352943 -0.0087829195 -0.0524811 -0.4954194 -0.049681462 -0.24832971 -0.10828809 -0.14389691 -0.383693 0.12426493 -0.3203353 -0.24019484 -0.16755657 -0.24247926 -0.2075715 -0.23932151 0.44268417 0.028905015 0.306383 -0.29576886 -0.1241753 -0.41713122 -0.51459265 0.0033813948 -0.7416375 0.021103019 -0.011759618 -0.23736773 -0.17156088 -0.07143907 0.043861963 -0.42703617 0.40641013 0.031331353 0.73312473 0.2190559 -0.089605585 -0.15892716 -0.5482003 0.016826514 0.5276551 0.26027787 -0.47539696 0.18801773 -0.102714516 -0.6804148 0.21670677 0.020559637 -0.025966685 0.73604643 0.046147328 -0.05198575 0.03791959 -0.010706073 -0.15441498 -0.11758776 0.14704038 0.3664101 -0.07090409 -0.011553971 -0.32410744 -0.8492328 -0.015631977 -0.09565393 0.29169005 -0.067893036 0.4060487 0.54414433 0.8186795 -0.023844464 -0.9813701 -0.16902159 0.5998741 -0.04574583 0.18730083 -0.24657431 -0.008360933 0.36684456 0.32877818 -0.020110613 0.24851476 -0.05869587 -0.07912239 0.094513945 -0.11321296 -0.26863876 0.097662255 -0.1201302 -0.11266759 0.38965124 0.37739417 0.054815803 -0.4045712 -0.124109775 0.03106948 0.27711928 -0.4516072 0.45836356 -0.56250423 0.20696242 0.17884998 -0.7558821 -0.33888683
56 -0.0726811 -0.52501553 0.4826021 0.6192566 -0.36685547 0.44609633 0.2562121 -0.09821909 -0.1386329 0.054504793 0.5551602 0.14842282 0.5421855 0.42046824 -0.8029811 -0.22249454 0.57462186 0.33723837 -0.26233828 -0.65218395 -0.13776979 -0.12335663 0.087415725 -0.30219364 0.35715622 0.21658427 0.24150655 0.6216562 -0.56589866 0.3580691 -0.11349199 0.09939213 -0.12243407 -0.2903325 0.32651114 -0.33859736 -0.11161984 -0.083236665 -0.09707251 -0.4933398 -0.31303734 0.62808996 -0.31112447 -0.19417153 0.06340222 -0.2398847 -0.020057289 -0.3718639 0.18284559 -0.71559465 0.4072353 0.15105566 -0.38498878 0.31537798 0.07251377 0.25492263 0.08736281 -0.008446117 -0.42223755 0.029314628 0.16354403 0.122605234 -0.034330983 -0.053960983 -0.63283473 0.88518745 0.26979497 -0.33850616 -0.02258397 0.19715503 -0.6198401 -0.006684709 -0.22032039 0.115388 0.5204607 -0.330183 0.33023608 -0.16284925 0.0134391235 -0.12054527 -0.121119864 -0.040339995 0.18286322 -0.22105846 -0.013749734 -0.78479826 -0.7528443 0.3809247 -0.048923835 0.28670225 -0.037952553 0.24283527 0.12927446 0.59204316 -0.17874806 -1.1194041 0.08054988 0.33391896 -0.4803605 -0.018766182 -0.09367017 -0.048177112 0.5788681 0.20827776 -0.17553526 -0.6736691 -0.24468483 0.4310448 -0.07884128 -0.23619284 -0.25899488 0.31979913 0.2362889 0.30628905 0.32782367 0.455615 0.097182445 -0.29503664 0.06181422 0.045575973 0.18218222 -0.62992483 0.4419989 -0.38206157 0.0779736 -0.18131037 -0.5220957 -0.16430587
57 -0.12514505 -0.33948985 0.4743684 0.65907717 -0.5459508 0.39486578 0.3577519 0.022573777 0.058679648 -0.04810253 0.48200682 -0.14275654 0.45180112 0.5554334 -0.63186187 -0.25020102 0.5320633 -0.0011205539 -0.2519092 -0.81900674 -0.31478798 -0.070370466 -0.20015782 -0.4928597 0.5536033 0.2677683 0.12563993 0.4717023 -0.4579244 0.04686889 -0.4219356 0.019863069 -0.059521087 -0.54333913 0.46055567 -0.0071461685 0.0014762797 0.10417049 0.085038565 -0.46165314 -0.34576923 0.663201 -0.17156123 -0.09612488 -0.26662207 -0.33444616 -0.2369193 -0.19926134 -0.15482569 -0.84749925 0.50690573 0.19907814 -0.4293817 0.38811743 0.090090565 0.17881662 -0.020262642 -0.11769022 -0.4940989 0.21599491 0.3204814 -0.30641714 -0.05021673 -0.21144389 -0.66073394 0.8911946 0.42063782 -0.39398402 0.1628699 0.24316815 -0.79508954 0.19578154 -0.339641 0.081654966 0.76590496 -0.8085119 0.58918583 -0.20148407 0.2411195 -0.25661874 -0.01886302 -0.1345846 0.27707863 -0.039430674 -0.07847745 -0.62190247 -0.75884324 0.22218686 -0.123939246 0.34048626 -0.1787627 0.3436745 0.32721844 0.7638195 -0.110186376 -0.87272567 -0.2585105 0.32561946 -0.32488623 0.22458673 -0.25195324 0.067243926 0.7964579 -0.07081355 -0.32065615 -0.26400414 -0.30675867 0.11773767 0.0021492795 -0.07649588 -0.099036075 0.5900036 -0.07216373 0.13491078 0.5514904 0.3344192 0.22916554 -0.5232515 0.008965527 0.013067629 0.021176662 -0.4207563 0.5212665 -0.39956188 0.082740515 -0.015178075 -0.58731395 -0.21914588
58 -0.17995098 -0.3859308 0.4704976 0.49396235 -0.5408819 0.33948144 0.3211184 -0.14452448 0.07456123 -0.12949869 0.4962312 0.004496379 0.1973036 0.42210352 -0.43706948 -0.21432418 0.44430906 -0.0060224338 -0.4408753 -0.4524891 -0.13482115 0.13210808 -0.16901894 -0.53516334 0.4062349 0.31087124 0.03837249 0.16901132 -0.39121082 0.20710562 -0.35378236 0.13613951 -0.02985072 -0.27048236 0.023216834 -0.08697161 -0.061906673 -0.14169066 -0.039418977 -0.41628185 -0.28893626 0.5510462 -0.2440161 -0.017084695 -0.16835979 -0.32038376 -0.19414976 -0.32543766 0.05549411 -0.9153244 0.31734297 0.096617594 -0.23752367 0.17494334 0.25331214 0.016889745 -0.13313267 0.25174564 -0.3492306 0.29871544 0.13415015 -0.027274843 0.15637569 -0.17326985 -0.38511643 0.88803005 0.33230782 -0.2688165 -0.034652896 -0.13123848 -0.6525903 -0.08960278 -0.26066363 -0.08304566 0.68406296 -0.31526694 0.35231122 0.012710176 0.23536526 -0.24206826 -0.015322814 -0.087137096 0.08236003 -0.02263418 -0.22046809 -0.70708543 -0.6495431 0.28992057 -0.09298563 0.37502396 -0.045415804 0.08250628 0.4138039 0.7461211 -0.15109873 -0.8973325 -0.03513942 0.5362151 -0.32343474 0.18850124 -0.15875691 0.010407026 0.56187975 0.1320218 -0.08707901 -0.35456955 -0.119188204 0.10363544 -0.080844246 -0.12439367 -0.019388529 0.22353865 -0.09219753 0.15274586 0.380629 0.29923594 0.2698316 -0.30771694 0.06955407 0.14506097 0.019683685 -0.51763135 0.44623315 -0.5972894 -0.006263626 0.12380101 -0.30812436 -0.26543432
59 -0.21816045 -0.11304138 0.19883952 0.44979405 -0.26889992 0.67316353 0.24903908 0.102962844 0.16126119 0.019582188 0.20648685 0.18290803 0.24864557 0.42439172 -0.45678833 -0.45370793 0.5568303 -0.15387607 -0.38526732 -0.4635987 -0.11651133 0.1495944 -0.47659832 -0.49898463 0.5924119 0.17977603 -0.31834108 0.16751091 -0.55958825 -0.2932665 -0.3052478 0.29205856 -0.1366904 -0.30523452 0.2667459 -0.08862889 0.01132926 0.18495287 -0.14534178 -0.13862945 -0.25292248 0.43283466 -0.12671195 0.31489754 -0.24448828 -0.23973843 -0.33606657 -0.3304653 0.028768742 -0.89838827 0.13486531 0.25218222 -0.2768183 0.20847988 -0.099766724 -0.14762495 -0.27572715 0.06838562 -0.123060346 0.35813504 0.7782719 -0.37243855 -0.2047075 -0.7220454 -0.20119525 0.55959594 0.25936022 -0.2881533 0.47092012 0.0682493 -0.98526835 0.22285044 -0.5532433 -0.05550657 0.5084357 -0.56105703 0.27670714 -0.10228847 0.15931544 -0.27805084 0.21471548 0.10331765 0.5124788 -0.100034185 0.12746774 -0.3498383 -0.79004246 0.029360479 0.058454152 0.13571247 -0.076073386 0.46839488 0.2835323 0.59269524 0.036551602 -0.844582 -0.25877753 0.65430397 -0.2260074 0.295085 -0.26099274 -0.027493782 0.5013977 0.3417765 0.113319784 0.07934477 -0.2594141 0.07767311 -0.21159546 -0.16088638 -0.009871723 -0.034299005 -0.19359556 0.17724553 0.5453018 0.35812363 0.16438863 -0.67563194 0.19535725 -0.010249555 -0.08176139 -0.65828764 0.51652086 -0.43814215 0.48865896 -0.15024886 -0.3127144 -0.23724446
60 -0.41342595 -0.28786594 0.6881525 0.27785388 -0.5132326 0.50578594 0.34999487 -0.25496033 -0.39051196 -0.32820058 0.26370806 -0.26405793 0.3176548 0.1282417 -0.28257313 -0.34698653 0.2470099 0.14765202 -0.36013752 -0.2839715 0.023549194 0.16836372 0.06690064 -0.3862446 -0.092960544 0.18853533 0.23261279 0.19327843 -0.4948634 0.5010802 -0.32261363 -0.2845603 -0.23047477 -0.1211327 0.011903878 -0.39136556 -0.2276299 -0.51852685 -0.15302843 -0.54903054 -0.24740718 0.51252675 0.015290138 0.021811118 -0.06690684 -0.0014117126 -0.21047303 -0.582833 0.108234175 -0.7021964 0.06336715 -0.061931234 -0.24247481 -0.073842816 0.15227394 0.23523802 -0.29345724 0.49436903 -0.064449675 0.7776387 -0.022895154 0.030291898 -0.022408571 -0.23202388 -0.22579394 0.750768 0.19630483 -0.6992323 -0.09017951 -0.33496788 -0.9374094 0.079335354 0.18107879 -0.0888753 0.732417 0.41466677 -0.09272694 0.07571908 0.01392836 -0.098023504 -0.45216358 0.14997618 0.23646137 -0.2091162 -0.19862032 -0.52791333 -0.9802228 0.060446404 -0.06361814 0.20893337 -0.083906405 0.28473493 0.5890326 0.905354 -0.052198682 -1.1072475 0.038259976 0.49855152 -0.1431331 -0.13512641 -0.090409406 0.06965862 0.3886089 0.2230976 -0.22432151 -0.39184934 0.359384 0.13689803 0.1284196 -0.26406416 -0.4097889 0.14822155 -0.101276994 -0.08463827 0.24240169 0.42455032 -0.108162954 -0.2072465 0.09546403 -0.21518464 0.48470038 -0.6229452 0.289513 -0.45130935 0.058761016 0.37030447 -0.71368587 -0.01346292
61 0.25160635 -0.6095959 0.61817783 0.62641656 -0.5666461 0.5947222 0.29757944 -0.4107092 0.053596858 -0.05714115 0.5800057 0.28663185 0.4199688 0.24566981 -0.37922543 -0.23292087 0.42552587 0.081591375 -0.38521463 -0.55859697 0.19427952 -0.04812385 0.31200463 -0.37000597 0.48134962 0.40716815 0.41390562 0.031723347 -0.2582839 0.70819426 -0.6482009 -0.23381718 -0.0135729015 -0.26419547 0.22659203 -0.5580413 -0.1696007 -0.14519559 0.058836266 -0.6483701 -0.44892573 0.38337824 -0.12271748 -0.21051289 0.22810675 -0.18069528 -0.256234 -0.27205822 0.1332736 -1.0050632 0.41860798 0.034181613 -0.14160332 0.27975047 -0.0971341 0.2940467 -0.088350035 0.43691346 -0.46752387 0.5560994 0.20133354 0.016709799 0.2138928 -0.17996015 -0.48631838 0.8748076 0.4041315 -0.4656339 -0.17957188 -0.096192606 -1.0326866 -0.08197149 -0.02871947 0.15144746 0.77540874 -0.14367062 0.2161404 0.11884087 -0.061741363 -0.04160581 -0.34002274 -0.08064058 -0.0067759315 -0.22534703 -0.30398253 -0.88528013 -1.0311005 0.21811137 -0.020520534 0.5093821 -0.26928547 0.13473104 0.38219243 0.94871175 -0.1126522 -1.2798212 0.078413114 0.6204476 -0.35474834 -0.05600648 -0.1892269 -0.053867042 0.5966623 -0.056921504 -0.270214 -0.6634256 0.028632978 0.16911092 -0.22643831 -0.03144413 -0.13609976 0.33624533 -0.08418321 0.24712342 0.6144537 0.51094675 0.21957658 -0.0542876 0.07583625 0.19959633 0.082017824 -0.4759014 0.2561333 -0.3606743 -0.04826176 0.011745678 -0.6025523 0.0002493424
62 -0.2506875 -0.6839252 0.5714621 0.55344856 -0.56533426 0.4435899 0.32244495 -0.30511767 -0.12886256 -0.22423585 0.45915806 0.011041812 0.39225715 0.23083486 -0.50990385 -0.2424691 0.3776631 0.050396625 -0.3413128 -0.48122182 0.05092785 -0.07781985 0.05954706 -0.44353783 0.19812827 0.36866295 0.20160726 0.10214486 -0.45693046 0.48537326 -0.37578693 -0.117427595 -0.10828457 -0.28363055 0.12930825 -0.4327341 -0.16917445 -0.34576666 -0.044964917 -0.51503235 -0.38755956 0.5726347 -0.16454343 0.020468233 -0.091386385 -0.20988598 -0.19641465 -0.48556286 0.14933984 -1.0014907 0.40326795 -0.015976673 -0.29021314 0.15163842 0.10911479 0.23370533 -0.1873553 0.4102894 -0.33759025 0.46724343 0.20422865 0.14438994 0.07269279 -0.21796978 -0.4488136 0.89876276 0.31280243 -0.5557349 -0.12098913 -0.0820613 -0.82679987 -0.09234195 -0.1416624 -0.03205313 0.7024401 -0.00043123824 0.24383089 0.07332102 -0.05096709 -0.18463805 -0.29623732 0.04020798 0.049541764 -0.13066043 -0.19661337 -0.76106966 -0.94223547 0.21363132 -0.087492816 0.46583006 -0.17312378 0.01518668 0.36926374 0.91079354 -0.117055945 -1.3388363 0.16105442 0.6429163 -0.24081933 0.025452511 -0.15996069 -0.1590839 0.50911736 0.17782119 -0.19226786 -0.440266 -0.0034481918 0.1609242 -0.02921631 -0.19042847 -0.425147 0.22990793 0.027531384 0.025834838 0.36547208 0.4918116 0.25534418 -0.16143452 -0.048424806 0.17192787 0.25723296 -0.6326706 0.55955726 -0.6323049 0.06048348 0.1585667 -0.5564722 -0.16218862
63 -0.49131313 -0.49383584 0.75372213 0.631661 -0.75937754 0.24347438 0.5806421 -0.44743043 -0.09089184 -0.44971773 0.57414776 0.061926357 0.3040542 0.42623243 -0.45084485 -0.089749016 0.34485027 0.16113526 -0.37746724 -0.44413766 0.0064279004 -0.09954147 0.0029660405 -0.41874585 0.084060505 0.27793106 0.1479746 0.12383678 -0.5703146 0.6929488 -0.45371246 -0.032617304 0.07346279 -0.51683694 0.087416165 -0.35011944 -0.20581882 -0.49058887 -0.07424201 -0.6843066 -0.4547861 0.6919128 -0.06800725 -0.068132855 -0.10758121 -0.19100165 -0.2107674 -0.5257109 -0.0058101444 -0.96261925 0.23034628 -0.029290183 -0.18216835 0.11578256 -0.0011460138 0.3019204 -0.14303301 0.32929915 -0.51332974 0.30236167 -0.04000899 0.23297037 0.17568853 -0.037830662 -0.32577324 1.0309042 0.2751758 -0.3868886 -0.0264112 -0.19767348 -0.790433 -0.0612884 -0.19372831 -0.11447731 1.0242065 0.12571843 0.39370918 0.12908526 0.11001812 -0.21802627 -0.19211827 -0.04181933 0.07658062 0.050995808 -0.31113136 -0.9028037 -0.91179085 0.41136757 -0.3097061 0.70228606 -0.33499822 -0.023279777 0.54497683 1.0286812 -0.045482945 -1.4320048 0.17332558 0.6979576 -0.25515032 0.07907196 -0.06419543 -0.13377914 0.6140999 0.33203188 -0.29320794 -0.3722659 -0.0059246635 0.0006014843 0.021324951 -0.23159702 -0.4233401 0.022547306 -0.1525153 -0.06965984 0.44336164 0.6193504 0.2176281 -0.13277757 -0.10095176 0.15665165 0.26635998 -0.80611795 0.61657476 -0.87636995 0.15112214 0.35597903 -0.38552478 -0.21854655
64 -0.28306288 -0.40171936 0.18167265 0.29081717 -0.36323544 0.4274959 0.22938465 0.07614744 -0.029807726 -0.23335937 0.16098247 -0.046367828 0.07677694 0.2150025 -0.41996062 -0.07382324 0.41440994 -0.28128275 -0.30946398 -0.20377012 -0.01420986 -0.10113486 -0.36789316 -0.36150014 0.26361606 0.071035706 -0.19734313 0.080120206 -0.45166677 -0.028059991 -0.26605844 -0.07671769 -0.12310777 -0.30074635 0.11222146 -0.24058856 -0.10248391 -0.1497333 -0.3625786 -0.1570363 -0.064158425 0.3354867 -0.06411251 0.16870004 -0.32364476 -0.050920963 -0.2669922 -0.47836646 0.10032603 -0.7199281 0.3441496 0.15382631 -0.26939902 -0.0065861843 -0.00791339 -0.12284926 -0.2632635 0.5522757 -0.07470848 0.4338843 0.60003257 0.07378705 -0.0047664596 -0.6986788 -0.008271929 0.5366379 0.2515056 -0.46474412 0.00421944 0.023121499 -0.86568147 -0.060867254 -0.25912675 0.03611163 0.3120257 -0.051459324 0.24797833 0.00048887776 -0.2545377 -0.362286 0.015508588 0.24346201 0.20311616 0.13324977 0.1041149 -0.31243193 -0.93313587 -0.11531043 0.12940904 0.2034086 0.018759025 -0.015943933 0.24191642 0.66159046 0.11903973 -1.2210219 -0.05599109 0.6907014 0.040320106 0.21300165 -0.18094714 -0.32129022 0.38421723 0.29056937 -0.026933348 0.21535651 -0.048560888 0.08901166 -0.06940069 -0.07391903 -0.56512225 0.0798842 0.056113947 -0.06304242 0.2867129 0.29249716 0.34418753 -0.2867392 -0.06816065 0.09054134 0.31227407 -0.6829787 0.64396137 -0.4589167 0.32020283 0.10585378 -0.41123763 -0.32500958
65 -0.033129152 -0.35444832 0.58855885 0.80488074 -0.5776004 0.55816376 0.41481346 0.052255906 0.036089957 0.032691672 0.425334 -0.07824177 0.70377743 0.5632154 -0.41121563 -0.17309323 0.51904297 -0.097270355 -0.38778237 -0.8944475 -0.19872153 0.050726183 -0.10898214 -0.48506415 0.45459825 0.572531 0.15790455 0.32886338 -0.4137535 0.11411803 -0.44105205 -0.07274318 0.077437 -0.5128516 0.36587173 -0.0796423 -0.12382118 0.15532728 0.09024497 -0.31607005 -0.48190677 0.50918525 -0.16920507 0.1401684 0.023018943 -0.43992826 -0.1865067 -0.20106825 -0.11219156 -0.9540191 0.30071995 -0.014574724 -0.2628603 0.33395004 0.08195865 0.25484088 -0.03790522 -0.020668777 -0.52487 0.37049773 0.11392743 -0.18482198 0.07258553 -0.16200033 -0.64984345 0.8916547 0.4922339 -0.5314605 0.2308268 0.062947646 -0.66918904 0.17816418 -0.24913853 0.13622075 0.99342364 -0.6684748 0.27335557 -0.13146412 0.3534577 -0.14712574 0.046254072 0.009263843 0.32502457 -0.15214366 -0.19928205 -0.8144592 -0.5214293 0.47946447 -0.29966822 0.45304137 -0.26702407 0.3622045 0.5070228 0.7964899 -0.21065213 -0.6978854 -0.13039103 0.307254 -0.5777772 0.20732042 -0.23246239 0.15448038 0.6553142 0.10281882 -0.13350867 -0.3778689 -0.38815284 -0.20180742 -0.08227527 -0.04649682 0.29616585 0.50915897 -0.018527173 0.3507807 0.71823335 0.19988826 0.13067597 -0.53688604 0.013223515 0.17839694 -0.11784502 -0.27237302 0.20803331 -0.33025992 0.05731071 -0.0025260916 -0.47865957 -0.13847505
66 -0.5970876 -0.46546665 0.3529367 0.3545122 -0.37033114 0.49189964 0.3466954 -0.1733414 -0.15265203 -0.2857026 0.28173202 -0.17864998 0.29744682 0.14315958 -0.62177175 -0.12024688 0.48276934 0.15424904 -0.1625308 -0.19471978 0.020665618 -0.089307204 -0.113792926 -0.38536203 0.063031144 0.12866707 0.06072637 0.111549824 -0.5368042 0.093555905 -0.025749847 0.0006043082 -0.066646084 -0.2650246 0.114113614 -0.4220759 -0.21796484 -0.23869509 -0.2219833 -0.19824535 -0.14796846 0.42068598 -0.16745368 0.12726726 -0.19425158 -0.13706657 -0.2617452 -0.537467 0.09610325 -0.71157366 0.12116213 -0.013561755 -0.32199472 -0.15652093 -0.08732838 0.11929485 -0.28497177 0.2777811 -0.049047824 0.41256514 0.23989111 0.31560132 -0.068147086 -0.40437585 -0.13795535 0.6636732 0.18867423 -0.29187566 0.053992823 0.11005542 -0.48418072 0.049425956 -0.015813505 0.0041659693 0.46873882 0.06965804 0.1974513 0.023661992 -0.17838225 -0.18622835 -0.016123524 0.059705064 0.2827229 -0.051679518 0.06370906 -0.44017312 -0.8134261 0.033413447 -0.0257725 0.3669938 0.021210773 0.170778 0.2985052 0.70200074 -0.18265392 -1.152431 0.082265526 0.60396314 -0.08374772 0.18340653 -0.13798562 -0.20711927 0.19459184 0.40740424 -0.11854887 0.053884838 -0.11948943 0.25036374 0.12437101 -0.20897558 -0.55005485 0.061639797 0.073991746 -0.15872411 0.24755053 0.4853114 0.18853773 -0.22922899 -0.23300539 0.07158599 0.2919904 -0.54559994 0.58398885 -0.6187609 0.13287137 0.050818212 -0.5881083 -0.4502573
67 -0.16350666 -0.3708177 0.4830044 0.71028185 -0.47808188 0.6465054 0.45106065 -0.098372236 0.18053022 -0.045294527 0.4715672 -0.036624562 0.5102613 0.48284867 -0.32094783 -0.110108644 0.59153795 -0.28436372 -0.3722558 -0.71643394 -0.049339853 0.08775878 -0.28423017 -0.48522726 0.4436614 0.50501305 0.037645247 -0.027579607 -0.36367178 0.11739349 -0.43096635 -0.023217281 0.19964722 -0.5170728 0.234502 -0.25568348 -0.20374267 0.1299127 0.036874343 -0.29647446 -0.469402 0.44143698 -0.19730514 0.10216739 -0.0806821 -0.33452258 -0.34675384 -0.31006983 -0.06925838 -1.0785143 0.2597303 -0.0045396527 -0.05353009 0.09412774 -0.04015784 0.10591286 -0.20754614 0.2962706 -0.32672068 0.47425732 0.1440699 -0.11125105 0.11813713 -0.3330165 -0.22687326 0.77508557 0.4329564 -0.38479915 0.14848958 -0.021683509 -0.59508646 0.10046779 -0.10919486 0.24253063 0.94628525 -0.34532812 0.17068693 0.05781017 0.12981284 -0.17182606 0.03027708 -0.0042420705 0.2543626 -0.068001404 -0.17078055 -0.7657503 -0.66138047 0.32558668 -0.23449762 0.5802178 -0.19018033 0.28868067 0.54925084 0.9733869 -0.2086696 -0.909698 -0.06244783 0.48466253 -0.3813225 0.22733256 -0.34468576 0.07846177 0.5546446 0.099469334 -0.07511682 -0.047462784 -0.4323108 -0.25546542 -0.15722992 0.020364765 0.1431448 0.33909893 -0.07858442 0.27237964 0.6524385 0.24533784 0.27871752 -0.3676432 -0.07858643 0.34629986 -0.080962904 -0.22186887 0.31322578 -0.4627193 -0.016780425 -0.08061442 -0.5205058 -0.35524127
