246 128
0 0.63044983 0.0699714 0.79637265 -0.109223664 0.7202247 0.25814942 0.15155229 0.44019747 0.10646872 0.37240532 -0.6972577 -0.83886147 0.18210518 0.2086417 0.11595294 -0.17815682 0.623635 -0.15974498 -0.15092045 0.94273394 0.25114137 -0.4879223 0.5084798 -0.64183134 0.5386893 0.25655493 -1.2536325 -0.6785056 0.019121403 0.35761708 -0.7541521 0.009192469 0.105524555 0.26904383 0.34349406 0.18831666 0.3673641 0.4184542 -0.46160883 0.34605557 0.02242158 0.51648635 -0.0039315703 0.24632244 0.6921591 0.71104413 -0.47236162 0.565296 0.30618858 -0.3979723 -0.07810387 -1.0157895 0.13054928 -0.36874008 0.27693036 0.63483644 -0.5728286 -0.32652357 0.0875085 0.562931 -0.2063548 0.18139888 -0.33539084 -0.30682448 -0.3869819 0.3823325 -0.27302477 0.5707587 0.56256473 0.739392 -0.028577235 0.38660306 -0.2232183 -0.22364603 0.6650299 0.8513423 -0.49202305 -0.86402494 0.39962417 -0.28606734 0.36121976 0.02853496 -0.14012112 -0.20174061 -0.18297753 -0.12023889 -0.0009146841 -0.24059327 -0.15929373 -0.1244697 0.33155644 0.2990276 0.81646544 0.027455907 -0.28216076 0.2546332 0.46380723 -0.35430148 -0.07528489 0.013831655 -0.23410843 0.3445233 -0.16856748 0.30271357 0.158684 0.10246189 -0.38068053 0.8865574 -0.4077824 -0.06968174 0.31470576 -0.4206399 -0.7804482 0.81372774 -0.18796034 0.24827966 -0.61862546 0.26747605 1.0241554 0.036576513 0.2047913 0.17348023 0.08246718 0.69205266 0.32902277 0.22947565 -0.2015846 0.18948147
1 0.65539837 0.0042228727 0.6339871 -0.03871737 0.5411744 0.6277424 0.4645761 0.07110231 -0.10621882 0.36417708 -0.26210767 -0.3083642 -0.10688375 0.26757506 -0.088293955 0.18963595 0.62840855 -0.5006009 -0.22452834 0.5922371 0.038564064 0.17724285 0.7526334 -0.57314366 0.3746822 -0.5250124 -0.7868258 -0.75115556 -0.1693764 0.6142456 -0.8206734 -0.47515267 0.20142476 0.008259505 -0.09598785 0.084631145 0.45617723 0.24231438 -0.5831511 0.1320253 0.06573621 0.9627237 -0.0731445 0.11973543 0.5004786 0.7636396 -0.36531922 0.3590609 0.61244345 -0.40018365 0.13899283 -0.47936785 0.3378472 -0.14461808 0.24145469 0.5370387 0.1106233 -0.5313204 0.6535471 0.722811 0.04695501 -0.1597664 -0.7891499 -0.115003034 0.52069044 0.015137682 -0.7530328 0.16741784 0.8571029 0.562132 -0.15036945 0.29232234 -0.23672716 -0.19013074 0.26973057 0.14363495 -0.35662705 -0.6443124 0.7705302 -0.32539535 0.5878912 0.12399078 -0.7427567 -0.4571803 -0.057871606 0.1578164 0.11085294 -0.5157968 -0.43279243 0.083836 0.63166636 0.21990776 0.8392202 0.07343651 -0.48339823 0.064091295 0.4135767 -0.1199215 -0.20532848 -0.3425774 -0.780599 0.05414757 -0.32403168 0.03949339 0.42862123 -0.22051355 -0.571833 0.6850774 -0.047399364 -0.4298638 0.4096348 -0.39930853 -0.4463414 0.16893391 -0.42352763 0.5845241 -0.7047798 0.38372424 0.6402133 0.0013648308 -0.11175221 0.09199171 0.129087 0.5165864 0.20697942 0.2883958 -0.12576553 0.01910747
2 0.3956065 -0.14410663 0.7132461 -0.2786921 0.23065212 0.023651773 -0.0012457367 0.045892414 -0.17709218 0.23392032 -0.048790682 -0.15968414 -0.063333005 0.47453627 0.07367869 -0.27567422 0.46931514 -0.087656856 -0.07598517 0.5421016 0.15916559 -0.20435709 0.7615561 -0.6565886 0.31589884 -0.33101055 -0.8115503 -0.95997965 -0.11795777 0.33923858 -0.51406264 -0.39922255 0.03415603 0.004144358 -0.06257214 0.37806875 0.6924846 0.09863408 -0.25352776 0.07923965 0.17088956 0.5082676 -0.21734445 0.33087113 0.41532147 0.84259236 -0.7927374 0.62165743 0.31216776 -0.56826866 -0.11641378 -0.7420658 0.11509689 -0.5260638 0.08800871 0.8412247 -0.21614088 -0.36606714 0.4887441 0.39260772 -0.16779307 -0.32127628 -0.6955927 -0.15149045 0.114478745 0.15609317 -0.10443954 0.50716084 0.4327474 0.5351938 -0.09884896 0.24894406 -0.27235717 0.08121335 0.20699245 0.3007506 -0.17095518 -0.624775 0.648818 -0.28978285 0.54123175 0.044184703 -0.32685715 -0.2200419 -0.37758914 -0.14068802 0.2581982 -0.44655228 -0.38970855 -0.106875464 0.47795194 0.11384217 0.96887016 -0.021521576 -0.40380868 -0.1451895 0.24103442 -0.33900598 -0.35622942 0.06330392 -0.206878 -0.21880285 -0.14485112 0.41739705 0.2795187 -0.12999947 -0.18815915 0.75277305 -0.1945898 -0.57449764 0.32427868 -0.45741823 -0.3930154 0.5487585 -0.37610877 0.52754855 -0.67851424 0.11938633 0.9278575 -0.04930402 0.47944364 0.34890527 0.3120373 0.3995869 0.33209053 0.091302015 0.11932033 0.35126603
3 0.3863382 -0.2610187 0.14054567 0.36335412 0.095162086 0.57833755 0.25197586 -0.012741911 -0.29573727 -0.10534161 -0.20569907 -0.5325521 0.44722232 -0.24810584 0.14919314 -0.038390283 0.12830271 -0.17285052 -0.040205766 -0.23908733 -0.13370186 0.16929819 -0.6060538 0.28709817 0.08538289 -0.08436553 0.14700961 -0.28960505 0.14241883 -0.014664604 -0.22132538 0.09904206 -0.12722252 0.4637743 0.05001508 0.14325455 -0.37372154 -0.35846224 0.26909035 0.6516672 -0.2851114 0.5394722 -0.41903085 0.21230538 0.0045661195 -0.19583213 0.418739 -0.54598314 0.12310278 -0.49212044 0.27826732 -0.06395495 -0.49275136 -0.018943647 -0.28626433 -0.6922556 0.25455254 -0.1084784 0.30135414 0.389067 0.1721209 0.024500133 -0.576036 0.113161445 -0.19797635 0.33358577 -0.4340755 -0.061863724 0.3784313 -0.24721462 0.26758486 -0.01130775 -0.002924995 0.20331524 -0.0011072782 0.5081296 0.24714357 0.22100545 0.084485434 -0.5681999 0.1991588 0.8095532 -0.34833002 0.19673114 -0.10115013 -0.2743881 -0.043556686 0.3165102 0.25484395 -0.016573144 0.18106078 -0.105011225 0.12839082 0.59626466 -0.3081582 0.37410632 0.2801748 -0.5715455 0.23542602 -0.34282595 0.21391456 0.5142481 -0.29307863 0.13444942 -0.2743033 0.10640905 0.21642278 0.45833245 -0.23588207 -0.554645 -0.19757968 -0.12205222 -0.44660994 -0.3147293 0.2608822 -0.43695003 0.13245386 0.1542513 0.39699134 0.05728834 -0.1947241 -0.14944111 -0.19824344 -0.2459759 -0.110801175 -0.11896349 0.12245623 -0.18092002
4 0.24334057 -0.19747783 0.17298444 0.41919667 0.28261733 0.5555843 0.010363419 0.41832224 -0.26049262 -0.09588211 -0.5405261 -0.63501936 0.3577151 -0.08223128 -0.035020463 -0.27812997 0.19387895 0.020535646 -0.047633138 -0.20506822 0.012215098 0.12940677 -1.0468967 0.20589462 0.16735369 0.2651302 0.20974627 -0.17382044 0.43186986 0.079999566 -0.2680718 0.26086566 -0.12916 0.80943805 0.23169623 0.07533674 -0.65381145 -0.36518872 0.11150123 0.8522965 -0.26475888 0.7375994 -0.5451307 0.5036704 -0.20644173 -0.40862587 0.5151333 -0.45832375 0.4371881 -0.14865954 0.15184486 0.06696435 -0.3614912 -0.29963943 -0.32893518 -1.062375 0.21658075 -0.18456884 0.13565904 0.1938672 -0.06679736 0.106327 -0.8219157 -0.04121102 -0.339143 0.4299905 -0.5241086 0.14414746 0.47631097 -0.27588 0.35675406 -0.019542696 0.0011738791 -0.17909011 0.11047588 0.5192418 0.46006945 0.2941672 0.00029842244 -0.7127873 -0.34338182 0.87475175 -0.2580907 0.090513624 -0.014601771 -0.39599723 -0.06917165 0.5587146 0.26296052 -0.45580295 0.16514696 0.052236244 -0.033197567 0.4745462 0.023677543 0.55001116 0.3111845 -0.591907 0.09072588 -0.20754199 0.47726285 0.42581618 -0.3652161 -0.12181744 -0.24132878 -0.046693116 0.4453785 0.38319644 -0.6435301 -0.5887449 -0.35544086 0.034340233 -0.6901597 -0.48417655 0.56953615 -0.31204885 -0.012077588 -0.03012662 0.4390048 0.26192895 -0.33736205 -0.231864 -0.54710317 -0.19926655 -0.27236897 -0.24609189 -0.17808267 -0.20604515
5 0.31327587 -0.20873988 0.3439234 0.41539198 0.19043404 0.4629955 0.02451242 0.3787233 -0.30846953 -0.0606865 -0.5489108 -0.56794095 0.45661497 -0.0666153 0.108324885 -0.42071646 0.21495673 0.018110614 -0.12787168 -0.3424749 0.0018165951 -0.14405784 -0.9390099 0.044198643 0.09543916 0.38439766 0.1085731 -0.4592471 0.43476504 0.028143065 -0.43896952 0.22776291 -0.16105461 0.7123107 0.30145654 0.1258476 -0.33628222 -0.35750568 0.14832479 0.8052063 -0.21567935 0.70589936 -0.49618432 0.59386486 -0.13817552 -0.29429898 0.26769143 -0.42886686 0.35729876 -0.34439623 0.077188425 -0.038041607 -0.4170543 -0.3928717 -0.39052087 -0.6911268 0.21450613 -0.04333503 0.17812136 0.21606392 -0.13237397 -0.030419441 -0.70352507 -0.15642855 -0.48507145 0.53558725 -0.31899762 0.2265214 0.40181446 -0.20184684 0.30732507 -0.061131053 -0.09779981 0.00076903345 0.096148625 0.5557742 0.4383267 0.10437793 0.07512114 -0.66631323 -0.24787253 0.80616325 -0.21871966 0.043230608 -0.21192488 -0.47705752 -0.16240919 0.4870262 0.20693465 -0.24398836 0.20571266 0.029236872 0.16687022 0.4898464 -0.09492081 0.46538764 0.22994536 -0.54652476 0.08106759 -0.17244132 0.56291926 0.3906835 -0.3315567 0.04639365 -0.38929528 0.118028685 0.514404 0.4998296 -0.6356845 -0.665129 -0.2973726 0.0007730864 -0.7756196 -0.35574314 0.43037507 -0.3136205 -0.012507898 -0.0441175 0.71251214 0.25315514 -0.21132237 -0.0750303 -0.4555064 -0.16412978 -0.24160588 -0.22853097 -0.10885329 -0.093486115
6 0.5066527 -0.26304057 0.2959583 0.33468223 0.4445057 0.47026762 0.21306778 0.21920761 -0.5356887 -0.023021795 -0.20512047 -0.73697555 0.3444395 -0.045015365 0.10343185 -0.28392106 0.111288 -0.36435524 0.11316883 -0.0739278 -0.19619206 0.27860495 -0.6600187 0.04216415 0.18572591 0.024283387 -0.049308177 -0.26348406 0.40847626 0.22210403 -0.28214553 0.024080213 0.039459623 0.47673342 0.29939067 0.20416765 -0.46095088 -0.33817837 0.18099186 0.67828065 -0.20304663 0.8812582 -0.50097895 0.25245515 0.069045104 -0.29257286 0.38740268 -0.25033095 0.7395035 -0.4150885 0.61466867 -0.054222256 -0.22498775 -0.51747733 -0.47281513 -0.96580136 0.43470037 -0.25510803 0.25225168 0.51869786 -0.05943084 -0.02302517 -0.79744554 0.04241594 -0.32790947 0.6090144 -0.5591936 -0.10350385 0.36487618 -0.36893642 0.44643745 0.15484951 0.2152347 0.09903688 0.037411418 0.4863429 0.26685408 0.13237187 -0.19022442 -0.75614965 -0.07084014 0.8424121 -0.044772986 0.16052388 0.08574894 -0.44002575 -0.041099973 -0.028049132 0.21619053 -0.17997167 0.06665412 -0.22437319 -0.014701923 0.5507188 -0.11807012 0.6026505 0.03248249 -0.52269816 0.2894735 -0.5759644 0.2571654 0.48202938 -0.34732792 0.014142497 -0.24826084 0.2139286 0.011756349 0.5557835 -0.58498687 -0.7630899 -0.39260048 -0.09348363 -0.5349104 -0.46951872 -0.057768863 -0.52486587 -0.018606145 -0.15100272 0.52564746 0.21554121 0.029027356 -0.0004994318 -0.39941263 -0.2227135 0.026742259 -0.19228621 0.062337108 -0.280754
7 0.29988185 -0.16186433 0.30991384 0.5022366 0.02858576 0.72104174 0.37718457 -0.21281669 -0.5291751 -0.20773134 -0.3153432 -0.37690812 0.32516322 -0.1766726 -0.0520404 -0.19852327 0.036793396 -0.19262367 -0.12080153 -0.553258 -0.21341388 0.39061528 -0.8008422 0.21810298 -0.17969951 -0.028597428 0.32141903 -0.42876208 0.27917206 0.017061148 -0.49357677 -0.118446015 -0.13861762 0.49071652 0.030917985 0.18148306 -0.57944727 -0.5023363 -0.08137651 0.6039284 -0.016513664 0.722262 -0.51168185 0.3285155 -0.099861674 -0.31548524 0.49414247 -0.57393414 -0.039868593 -0.3004843 0.14011751 0.034489203 -0.36094102 0.016510354 -0.39445132 -0.57854176 0.35445827 -0.05512178 0.6333751 0.2020286 0.2844499 0.07484441 -0.608638 0.07381057 -0.03770393 0.055472422 -0.55000645 -0.022450328 0.46983764 -0.44165716 0.15756446 -0.13107575 -0.12770626 0.27939695 -0.04380531 0.30067 0.53215754 0.31566954 0.12828489 -0.58953726 -0.14175396 0.7493239 -0.4286898 0.111757435 -0.1552224 0.028165542 -0.085700974 0.36067665 0.06579007 -0.15158536 0.41411844 -0.025071329 0.0889259 0.7150543 -0.03901261 0.14697985 0.34765568 -0.45410362 0.14175393 -0.09251193 0.17829566 0.5685664 -0.36370188 0.04595832 -0.34976587 0.08727588 0.18775949 0.28639346 -0.11009154 -0.73051095 -0.22107036 0.11026343 -0.44478244 -0.5397301 0.2772294 -0.299089 0.078390695 0.14017834 0.28344476 0.24568427 -0.34307876 -0.15142097 -0.1698951 -0.10628236 -0.3767886 -0.10761675 0.115952864 -0.36887845
8 0.31671122 -0.091314524 0.2660943 0.53208745 0.19377498 0.64164054 0.20826384 0.09364603 -0.35453185 -0.036558475 -0.48154807 -0.4551845 0.16045748 -0.092944376 0.067971714 -0.35776484 0.13574184 -0.104427665 -0.042501412 -0.3252292 -0.18517198 0.14814635 -1.0807596 0.19497207 -0.038665004 0.2496606 0.26078427 -0.4144525 0.34204608 0.06699823 -0.3361032 -0.049336478 -0.28258643 0.65736234 0.2881223 0.15224977 -0.5855543 -0.43673712 -0.02314119 0.79277146 -0.011706837 0.70636326 -0.64048237 0.36214843 -0.13083404 -0.42288268 0.701737 -0.4811433 0.35288107 -0.20520061 0.15739824 0.04994942 -0.40804642 -0.09239824 -0.39644444 -0.8321368 0.31476328 -0.1148566 0.33168513 0.18128529 0.04995464 0.1802425 -0.69145864 0.049448576 -0.15700288 0.3076434 -0.73947906 0.056688372 0.4928641 -0.30360645 0.25050443 -0.06790029 -0.14552923 0.062872425 0.08023983 0.26176012 0.4790272 0.37048998 0.050507028 -0.6729229 -0.45948717 0.73310655 -0.3705878 0.02235141 -0.23045671 -0.040626697 -0.06748342 0.44455662 0.059716336 -0.34651086 0.2246966 -0.059190996 -0.106071725 0.5080468 0.0051871184 0.47483408 0.35190699 -0.4142343 0.07614143 -0.22823882 0.15038854 0.5686944 -0.33058643 -0.20692529 -0.17694496 -0.017730052 0.28607002 0.31323388 -0.49405146 -0.6662515 -0.29778406 -0.016012812 -0.59092814 -0.5997357 0.59606284 -0.23859723 -0.05980153 -0.0831612 0.30023006 0.12913506 -0.3781167 -0.33896112 -0.32451245 -0.04670526 -0.33984438 -0.15398653 0.027087545 -0.23956344
9 0.38429117 -0.19907725 0.4619764 0.6632182 0.23058847 0.51082605 0.05433915 0.40222904 -0.29004958 0.065230586 -0.48425332 -0.41142777 0.4215349 -0.18113025 0.28571403 -0.5992165 0.38745826 -0.15310259 -0.11729303 -0.36698574 -0.100425124 -0.11496736 -1.1031313 -0.031983055 -0.020769365 0.37596956 0.16307019 -0.639956 0.533356 0.23782459 -0.71904165 -0.014971067 -0.10608507 0.6723059 0.5928003 0.15056662 -0.23334931 -0.3501716 0.23732525 0.9343808 -0.06234759 0.92683625 -0.506752 0.52244335 -0.0054791546 -0.3253103 0.3142334 -0.24061744 0.8309625 -0.19216497 0.44556463 0.11029561 -0.15151258 -0.448029 -0.551264 -0.790844 0.6277096 0.08318521 -0.012882415 0.5090896 -0.12905402 -0.15335262 -0.70662284 -0.15267353 -0.44926664 0.6283181 -0.4234195 -0.11190263 0.41137683 -0.22603205 0.30417317 -0.0024825383 -0.20776819 0.011574293 0.025864244 0.42576778 0.46500346 0.34516624 0.10834026 -0.7870113 -0.32204163 0.87856597 -0.15505521 -0.060389284 -0.078427136 -0.3517994 -0.35867316 0.39897555 0.030106753 -0.07221196 0.22173457 0.031031178 -0.10796279 0.49435943 -0.19345807 0.51680696 0.09668739 -0.16315003 0.19382536 -0.5026983 0.25222042 0.34746152 -0.54932207 -0.13167278 -0.3480894 0.2608007 0.5034669 0.6202007 -0.5870163 -0.78125244 -0.48715994 -0.079736486 -0.89377874 -0.5585405 0.33757195 -0.32037508 -0.12715694 -0.0846664 0.9830004 0.13732354 -0.10795479 -0.1210072 -0.3275514 -0.117358916 -0.33665708 0.06558097 -0.13259916 -0.15160091
10 0.38518006 -0.33830357 0.22774687 0.24559467 0.32990497 0.5762807 0.2951513 0.32428107 -0.5187308 0.08995619 -0.09574218 -0.6881376 0.3552554 0.021491444 0.08256298 -0.1264399 0.1857467 -0.28030857 -0.025524363 -0.13350521 -0.14135104 0.13558203 -0.4987182 0.12431585 0.18846771 -0.19666903 -0.08896884 -0.28968737 0.19500235 0.21525963 -0.12494404 0.10190344 -0.0853773 0.5013257 0.13032529 0.13327481 -0.2877786 -0.2952643 0.34338233 0.7240906 -0.4338075 0.74705416 -0.48348388 0.29202458 0.00695432 -0.12318561 0.21134919 -0.49197528 0.5427242 -0.5527301 0.49852264 -0.040793028 -0.44930556 -0.4415033 -0.29884544 -0.8593003 0.40959945 -0.29175958 0.2547973 0.47495127 -0.021990877 -0.16311668 -0.91286504 0.004346514 -0.14411229 0.6711986 -0.4290278 0.047866594 0.3433201 -0.24185127 0.33002776 0.16182087 0.17318824 0.14157242 -0.048170518 0.5203256 0.22945146 0.0355015 0.0476165 -0.7496727 0.2583221 0.8075779 -0.19920862 0.21701795 0.053067088 -0.5949796 0.07493106 0.12475648 0.30713728 -0.047559455 0.050103966 -0.18230511 0.14290969 0.45210424 -0.31498432 0.5007245 0.17812316 -0.69242364 0.1382227 -0.55648535 0.33328313 0.2867215 -0.27724618 0.10655313 -0.20726682 0.07284431 0.12614815 0.5445417 -0.57221335 -0.75894666 -0.26245034 -0.12336798 -0.46509805 -0.3560919 0.092660226 -0.4550304 0.006285797 -0.06274026 0.55880636 0.1379479 -0.078863055 -0.04723711 -0.41771355 -0.37386325 0.0383361 -0.2562066 -0.0062146042 -0.15622248
11 0.15378028 -0.1575736 0.21952023 0.5534581 0.32608962 0.56706214 0.22858949 0.13973239 -0.34160408 0.15315114 -0.27337316 -0.43221122 0.040459484 -0.027773367 -0.09831129 -0.52359116 0.20365243 -0.050449267 0.014169217 -0.3144495 -0.30492336 0.13584481 -1.0324417 -0.015046542 -0.09803942 0.15913534 0.18206772 -0.49077147 0.4534217 0.16269833 -0.29662123 -0.14865698 -0.351154 0.69367206 0.41509417 0.19402087 -0.55402774 -0.42103067 -0.0063608 0.85190713 0.02104235 0.76661557 -0.77077633 0.34508434 -0.24690986 -0.45095867 0.70646113 -0.35860163 0.50507873 -0.11710163 0.25518516 0.11967008 -0.4443721 -0.3954382 -0.50239056 -0.8705495 0.5601464 -0.14019497 0.3199264 0.2627956 -0.16017975 0.08606451 -0.62302387 0.005122848 -0.111702144 0.47818574 -0.60091114 0.08666268 0.26732534 -0.18166551 0.27171975 0.02623887 -0.19410035 0.25179115 -0.023806643 0.036841836 0.68662125 0.2629956 0.070661865 -0.80866164 -0.46281692 0.5687736 -0.16588928 0.04101505 -0.17065072 -0.03061586 0.030422034 0.41067454 0.10481443 -0.3965253 0.25366738 -0.22169328 -0.23478594 0.45686445 0.06918581 0.3498609 0.3137746 -0.40524784 0.07165241 -0.38358137 0.14322057 0.5880738 -0.31310296 -0.3032751 -0.13514706 -0.014695231 0.24337088 0.33436283 -0.58862936 -0.75472623 -0.48753032 -0.0326867 -0.7185729 -0.73734856 0.5427632 -0.17762534 0.038960334 -0.2541301 0.45296907 0.16234677 -0.2786168 -0.39620468 -0.27089983 -0.113624275 -0.11865976 -0.17494398 0.02421302 -0.22156544
12 0.2535277 -0.117929414 0.46947095 0.4042967 0.14178166 0.7458332 0.14652412 0.25952947 -0.36391288 -0.05492023 -0.3686367 -0.47483844 0.25847968 0.099441625 -0.27400726 -0.45364183 0.16289514 0.04110823 -0.15297566 -0.5109705 -0.12179905 0.040010568 -0.93038666 0.089488775 -0.05075016 0.30677855 0.10840608 -0.5183757 0.4615581 0.25470328 -0.2852934 -0.1608265 -0.13059369 0.70465696 0.36266762 0.022867072 -0.43795997 -0.44906664 -0.1044977 0.84861064 -0.13629353 0.7827689 -0.6076115 0.48623317 -0.19665502 -0.32446378 0.44978917 -0.6171364 0.26627055 -0.34634465 -0.0060941326 0.17788072 -0.4302981 -0.3171364 -0.44999585 -0.6390505 0.48431337 -0.22823548 0.5540099 0.23844005 0.12670928 0.030183734 -0.96348757 -0.13291028 -0.11525916 0.34206328 -0.50307363 0.17319642 0.42746833 -0.33635953 0.16341826 -0.08511606 -0.009882364 0.13884315 0.012361491 0.42316666 0.6158221 0.17597367 0.0808196 -0.5611059 -0.21904592 0.7308405 -0.36982995 0.053951077 -0.023463868 -0.36856705 0.11922654 0.52527064 0.039231814 -0.31590563 0.24158211 0.07877357 -0.027216578 0.5007629 -0.046346657 0.37844002 0.47180754 -0.71623415 -0.055754848 -0.19119503 0.58318055 0.47454002 -0.32979643 -0.12444494 -0.18399619 -0.010923659 0.20953521 0.375587 -0.6686052 -0.9720989 -0.27111655 0.26556745 -0.7957533 -0.63102514 0.45100415 -0.082469635 0.012336501 -0.042547785 0.60412663 0.23836502 -0.3672322 -0.25808725 -0.5543685 -0.11666303 -0.25396383 -0.22854292 -0.15626246 -0.20738497
13 0.27462578 -0.12186999 0.15883711 0.6407293 0.20207775 0.6444608 0.1871812 0.13423823 -0.39471316 -0.0077577154 -0.30803078 -0.40243486 0.14229892 -0.10790541 -0.030285748 -0.31248915 0.17731719 -0.10236127 -0.006420041 -0.34723234 -0.2154004 0.18943322 -1.0735188 0.08588187 -0.16933006 0.27828348 0.3615986 -0.4494802 0.38710055 0.16299333 -0.3375075 -0.10898231 -0.3134326 0.6313182 0.31255388 0.14069346 -0.56401396 -0.48770815 0.007101356 0.88742983 0.030160883 0.7723677 -0.68843234 0.35655004 -0.2551104 -0.38770247 0.68550766 -0.44437432 0.4704296 -0.2213654 0.30705455 0.28302744 -0.43735805 -0.1919507 -0.48907527 -1.0040427 0.49272096 -0.11462852 0.2833981 0.28693095 -0.026275568 0.095400736 -0.66838217 0.086345084 -0.17920488 0.4321211 -0.6945196 0.03931302 0.4983568 -0.22307038 0.2674514 -0.0195941 -0.14340107 0.033679925 -0.0038269574 0.13184652 0.56230396 0.4339677 0.044719737 -0.76073956 -0.43806973 0.7377112 -0.30368924 0.0076923403 -0.10024851 -0.13241215 -0.053687543 0.47530797 0.15156573 -0.29746425 0.1619722 -0.14780466 -0.28004265 0.49718684 0.012328319 0.50127476 0.200488 -0.3723541 0.009275318 -0.25490904 0.16418713 0.71542895 -0.31218827 -0.35809213 -0.15811664 -0.0019275958 0.29467326 0.32567316 -0.552757 -0.72803456 -0.3489216 0.074438505 -0.66729426 -0.7964205 0.6123867 -0.22567809 -0.037285827 -0.15975264 0.3626421 0.13299383 -0.4520945 -0.4042756 -0.38404387 -0.033947136 -0.24779841 -0.10475756 -0.023111224 -0.24907927
14 0.41796806 -0.2508613 0.17401537 0.37874812 0.06708662 0.56212753 0.28655648 -0.1974237 -0.4182017 -0.15483591 -0.20753646 -0.4197528 0.40267515 -0.20515929 0.17179638 -0.15623051 0.15131398 -0.27072263 -0.0019911244 -0.2752767 -0.16128874 0.3729516 -0.5981703 0.20076506 0.06304675 -0.20962448 0.2831053 -0.4017677 0.20098029 0.0067672436 -0.38344267 -0.0018881046 -0.09328299 0.44023347 0.025158836 0.20040646 -0.3903843 -0.45130214 0.22028627 0.5131878 -0.17612293 0.67192364 -0.44670868 0.20801993 -0.030075297 -0.23077966 0.5527463 -0.47190377 0.26340687 -0.36890864 0.21513857 -0.030750815 -0.34812662 -0.0014686768 -0.37845328 -0.5798812 0.351736 -0.05402235 0.45857328 0.29600957 0.14227901 0.040351424 -0.62531155 0.14071023 -0.0020354257 0.22923227 -0.47607028 -0.06679884 0.38725996 -0.34637713 0.28212622 -0.05386659 -0.0377945 0.25363082 -0.03388245 0.30294737 0.38238618 0.24579905 0.13348843 -0.5759075 0.0076783993 0.7154843 -0.4556291 0.09925214 -0.14818804 0.025360202 -0.1097721 0.1052499 0.12891662 -0.1324062 0.35454202 -0.1796166 0.19075611 0.61901766 -0.26995572 0.22323732 0.2996562 -0.3917893 0.23770489 -0.34735245 0.043050595 0.37674984 -0.41094044 0.11539378 -0.30122423 0.123241745 0.2386049 0.41777104 -0.12277434 -0.6693457 -0.1576659 -0.16936404 -0.40230268 -0.44781885 0.19268411 -0.415598 0.111180715 0.13689838 0.2514552 0.22545719 -0.16418613 -0.072520934 -0.12871729 -0.2334428 -0.188528 -0.15108715 0.25680745 -0.19043037
15 0.4914826 -0.3485364 0.20298623 0.35553765 0.024866587 0.57886964 0.30833945 -0.18197551 -0.4900898 -0.20389074 -0.1283867 -0.52177626 0.52070403 -0.14790761 0.13956343 -0.07445469 0.19672385 -0.3813713 -0.011747695 -0.17789733 -0.112018265 0.34696385 -0.577922 0.115995556 0.06801384 -0.19978094 0.2948574 -0.47319505 0.2167167 -0.0055815824 -0.33113152 -0.0028827493 -0.041096333 0.41950908 0.108753026 0.23100032 -0.38676953 -0.5475973 0.23439947 0.55404973 -0.1907724 0.71333253 -0.4262181 0.24924938 0.036574487 -0.08475479 0.5302376 -0.4395794 0.3106478 -0.4244049 0.27291718 -0.10421664 -0.39232868 -0.15782514 -0.44474292 -0.6100756 0.3997407 -0.12840308 0.4250813 0.3570983 0.12332338 0.03123833 -0.67785954 0.08866121 -0.036522932 0.32298774 -0.45391396 0.01334621 0.466133 -0.33229482 0.26960364 -0.03777814 0.04941855 0.21664372 -0.009941676 0.3342439 0.31878862 0.26946586 0.08670823 -0.5184963 0.05109048 0.7495125 -0.43047878 0.13250202 -0.1177342 -0.06552068 -0.16325383 0.0110954605 0.24184687 -0.096198365 0.3524932 -0.1422683 0.17105155 0.68411213 -0.3347429 0.25314724 0.20395702 -0.51121557 0.1241514 -0.28920206 -0.010752096 0.47288263 -0.48265764 0.15878034 -0.34686574 0.12901647 0.24151213 0.49270692 -0.1260866 -0.68386614 -0.1233175 -0.10983479 -0.48362094 -0.4663949 0.23096442 -0.43308997 0.01760482 0.14060564 0.26943868 0.21010901 -0.14407636 -0.0138246035 -0.21775398 -0.17384346 -0.1262291 -0.15713008 0.29568326 -0.21963274
16 0.42055112 -0.17257375 0.25949734 0.4309887 0.21866657 0.5313627 -0.053476192 0.38653687 -0.16933018 -0.1464687 -0.615375 -0.56723946 0.37811682 -0.14624277 0.09400497 -0.35552755 0.23324019 0.048422623 -0.07431335 -0.27439147 -0.00725612 -0.05281181 -0.9385662 0.121110894 0.14297886 0.3433822 0.24169977 -0.4254806 0.48236996 0.07095709 -0.3760548 0.13370481 -0.07957335 0.687895 0.29276478 0.036580924 -0.4004056 -0.43512994 0.17909409 0.7876141 -0.21490909 0.657892 -0.4543547 0.5587182 -0.1510552 -0.32032153 0.41950077 -0.44987825 0.41452748 -0.35002345 0.02378723 0.16714774 -0.36105546 -0.2820366 -0.40875036 -0.7648975 0.2193932 -0.10541784 0.16670303 0.30951095 -0.10532879 -0.0075510093 -0.81956106 -0.10147286 -0.44214633 0.47436434 -0.48442248 0.123386726 0.48409063 -0.23843485 0.3519795 -0.077837855 -0.03160387 -0.12113119 0.11935496 0.4823286 0.42780614 0.2176825 0.0418719 -0.5617332 -0.202769 0.83904403 -0.3245129 -0.031351466 -0.06479531 -0.4727825 -0.06686878 0.45526838 0.18250407 -0.26714838 0.17249978 0.020678971 0.109744295 0.4766572 -0.15898542 0.5673143 0.21838862 -0.52519965 0.044916686 -0.20215127 0.5078997 0.42237866 -0.3124492 -0.1260505 -0.29897335 0.0274555 0.4406854 0.46240872 -0.6033423 -0.6620347 -0.23510802 0.01790271 -0.78716254 -0.4351158 0.5299296 -0.25621304 -0.08515066 -0.029756784 0.6043118 0.1761969 -0.31661004 -0.1510256 -0.46884614 -0.15045002 -0.28051776 -0.23293832 -0.08668324 -0.09680778
17 0.31260997 -0.25669542 0.3918555 0.4594002 0.46191683 0.54147387 0.41668522 0.47209105 -0.7597085 0.030619347 -0.42577162 -0.83718836 0.10035568 0.11123137 0.071302384 -0.25704974 0.20365986 -0.34416753 -0.3149447 -0.19191863 -0.08901622 0.14495026 -1.1650462 0.06903055 -0.024637083 0.23363976 0.08888109 -0.3089845 0.47049534 -0.04628266 -0.297243 0.11777 -0.25651315 0.720881 0.2894703 0.19045074 -0.9125451 -0.40951955 0.211431 0.7614756 -0.2737296 0.7206399 -0.6095452 0.4521625 -0.009528755 -0.28939947 0.504225 -0.4965864 0.39334404 -0.21603186 0.29910925 -0.21885735 -0.36208543 -0.5443439 -0.28615525 -0.85072136 0.25844905 -0.2951061 0.090710275 0.16494383 -0.19950673 0.12979144 -0.8757158 -0.21004684 -0.23406625 0.64189297 -0.6551374 0.20419852 0.61414945 -0.57483697 0.30182275 0.17498797 0.005526099 -0.10334907 0.10368299 0.49059248 0.40697342 0.2712458 -0.11855452 -0.7689793 -0.40365717 0.73295796 -0.17356654 0.00033857973 -0.16669288 -0.33952886 -0.19315842 0.24332379 0.26424253 -0.35827023 0.04287862 0.08312466 -0.18909626 0.41949987 0.06443879 0.43177333 0.19268076 -0.63994056 0.15532593 -0.31066242 0.11569844 0.41775173 -0.3282181 -0.16610584 -0.33463413 0.048202746 0.3176366 0.2662278 -0.65604335 -0.5307934 -0.22106326 0.10253728 -0.5969291 -0.5913872 0.49452937 -0.30352324 -0.2877799 -0.20119342 0.23862433 0.14404424 -0.17696337 -0.1816661 -0.5449807 -0.17365494 -0.40188798 -0.2662575 -0.08386173 -0.38121203
18 0.57887983 -0.1620235 -0.027681833 0.39880207 -0.11313442 0.22654489 0.034002915 -0.28566208 -0.038089175 -0.56838727 -0.010247738 -0.34341225 0.4160494 -0.598698 0.16710429 0.28526986 -0.17669815 -0.07902358 0.17809962 0.22825724 0.12177102 0.6047604 -0.24473833 0.47466692 0.28435394 -0.26225054 0.21393922 0.39656413 -0.21606074 -0.14153457 -0.22405665 -0.11541778 0.34299046 -0.030683259 -0.32275227 0.008162171 -0.45028526 0.07644727 0.06751844 0.15263875 0.0052289455 0.17277597 -0.10042188 -0.22783686 0.31925067 -0.3024754 0.2541614 -0.19102572 -0.21810399 -0.38192675 0.42442152 -0.46556643 -0.14905329 0.28327703 0.037098307 -0.53644544 -0.0154137155 -0.36812362 0.2764535 0.5456734 0.4396572 0.21893284 -0.3451933 0.10595522 0.028829051 -0.35110474 -0.61354417 -0.6479433 0.24118714 -0.39810154 0.14406092 -0.060469482 0.053237796 0.14230435 -0.073054835 0.7071681 -0.3013848 0.5142678 -0.07129051 -0.07890197 0.43532404 0.9613793 -0.27850902 0.1581115 0.11954495 -0.12524381 -0.024229836 0.24337833 -0.14476718 -0.18601122 0.0032919417 0.28525484 0.10840009 0.64879286 -0.26366776 0.34525144 0.32745215 -0.380031 0.91552967 -0.47047684 0.031474415 0.39192778 -0.18118006 0.22146197 0.13342987 0.023738233 -0.13475728 0.13838749 0.2107591 -0.16198733 -0.28558668 -0.12210082 -0.15049131 -0.20457682 -0.57274365 -0.103630416 0.2965025 0.42685074 0.24895573 -0.37522224 0.12058777 -0.33795312 0.05572264 -0.24027349 0.16205494 0.11312114 0.054031324 -0.19111075
19 0.633327 0.018520474 -0.03303641 0.50035465 -0.2105684 -0.07122103 -0.34405956 0.035183903 0.24560836 -0.7515867 -0.20737436 -0.3698232 0.4139994 -0.69179887 0.057945132 0.25625312 -0.18995461 0.24216108 0.22062194 0.606773 0.50545126 0.4698905 -0.29416412 0.4242502 0.39793617 0.2321299 0.1535836 0.7636333 -0.2547961 -0.17004395 -0.28650737 -0.10564697 0.48479247 -0.046286594 -0.2833381 -0.20462412 -0.43138486 0.4370086 -0.15639652 0.14004636 0.14667402 0.025261058 0.043759607 -0.2131702 0.36383072 -0.43208966 0.12197261 0.008151135 -0.301785 -0.22545427 0.27088967 -0.7552383 -0.077257365 0.21118318 0.27387854 -0.48827186 -0.23386085 -0.5766931 0.03962681 0.40676105 0.26015726 0.44907528 -0.28501818 -0.1222682 0.0122670885 -0.46006808 -0.60985893 -0.63086617 0.18750522 -0.30179182 0.05888206 -0.039732464 0.022441316 -0.11395474 0.008847183 0.96100426 -0.57341504 0.525494 -0.09217307 0.15758537 0.21980858 0.9867246 -0.13633814 0.030895125 0.2109806 -0.26419783 -0.112125896 0.51924694 -0.34218755 -0.5457712 -0.16849372 0.76174057 0.07161082 0.5123756 -0.112531655 0.47313815 0.47145036 -0.32390204 1.1878054 -0.41647708 0.3290115 0.28088495 -0.13465859 0.044989225 0.38095796 -0.061475847 -0.07050917 -0.09269071 0.056214236 0.025604002 -0.3467004 -0.0019844368 -0.3936876 -0.1699174 -0.74279916 0.25915378 0.34326932 0.42983449 0.4695811 -0.52188706 0.08332989 -0.6532394 -0.1942416 -0.15793647 0.34037632 0.14308454 -0.33725846 -0.021928579
20 0.46331763 -0.01270462 -0.18601936 0.49623364 -0.18453425 -0.068682835 -0.40252054 0.2766782 0.2179627 -0.69783556 -0.1594592 -0.3563967 0.31906283 -0.62683386 -0.02908773 0.36616787 -0.11795655 0.2120983 0.16831878 0.72822726 0.57024413 0.58728915 -0.4780248 0.4889329 0.35330826 0.21886796 0.27737665 0.9675643 -0.21613827 -0.07544806 -0.1501815 0.04544602 0.52838874 0.099560276 -0.28921106 -0.25819713 -0.7084236 0.42830572 -0.10678295 0.2197885 0.08362083 0.034870006 0.022991449 -0.21375334 0.26706332 -0.51017004 0.19632763 0.05735074 -0.053590547 0.0939305 0.31525666 -0.5647874 0.026422584 0.11189595 0.3270167 -0.8237105 -0.12550159 -0.60476375 -0.16649821 0.26258934 0.19706957 0.4892255 -0.38009608 -0.14857048 0.112961955 -0.4071569 -0.640295 -0.61696494 0.2621384 -0.3479887 0.07315972 0.008551539 0.10789547 -0.40952346 0.02287431 0.79088587 -0.52870893 0.6880318 -0.16758576 0.10761948 0.04348691 0.9780631 -0.06546011 -0.017033415 0.4142058 -0.26646188 -0.11973351 0.59141463 -0.21109387 -0.6751313 -0.24063732 0.84293926 -0.24619366 0.3447189 0.050538972 0.48839906 0.39691326 -0.24385868 1.0241677 -0.42241636 0.2223571 0.1396127 -0.20800619 -0.21392074 0.47250244 -0.20254013 0.04934738 -0.24709097 0.0185605 0.2091759 -0.349989 0.06899605 -0.35120487 -0.29412246 -0.4763217 0.28364462 0.19090712 0.36269394 0.21671093 -0.45967752 -0.06889973 -0.68600607 -0.35647073 -0.17985001 0.18300632 0.1551518 -0.50614226 -0.11357365
21 0.69335955 -0.080155 0.02001562 0.424758 0.14294761 0.01862605 -0.079774216 0.062010203 -0.055145383 -0.5087212 0.03241093 -0.53344697 0.28287467 -0.5497726 0.108903505 0.25298554 -0.16199337 -0.16826695 0.27966595 0.69438714 0.25506428 0.6925836 -0.23885149 0.34040827 0.44167286 -0.05973441 -0.04103756 0.69688773 -0.14810854 0.043253608 -0.19131686 -0.14730011 0.54424375 -0.05773408 -0.143196 -0.0658058 -0.5525447 0.353638 0.040567316 0.1468918 0.027849497 0.27548096 -0.05340577 -0.39286557 0.4949173 -0.40658382 0.19624245 0.118131615 0.27574292 -0.22674473 0.73520976 -0.65871054 0.09601663 -0.10414279 0.13017124 -0.7802878 0.083454326 -0.6231122 0.0051603923 0.6345585 0.18721819 0.34582186 -0.436385 -0.008143728 0.028215712 -0.15600522 -0.7304681 -0.7654902 0.20246658 -0.4384868 0.2370396 0.21029077 0.26765493 -0.07053283 -0.011035193 0.8146153 -0.5736118 0.44902804 -0.31831366 -0.0902018 0.302581 0.94382876 0.05833579 0.09961491 0.40950114 -0.28394073 -0.039280534 0.042101867 -0.22121987 -0.39885697 -0.24236909 0.43513578 -0.15605241 0.47206822 -0.1168408 0.59606117 0.21494965 -0.2569443 1.1661627 -0.79682803 0.0011133133 0.26412335 -0.19885059 -0.025170807 0.3609545 0.059281647 -0.34752434 0.040253982 -0.020925917 -0.060299277 -0.41561818 -0.11600237 -0.22009704 -0.27683568 -0.9178319 -0.03705382 0.2216366 0.25200412 0.3002736 -0.4557823 0.3094926 -0.4424563 -0.18268447 -0.21655966 0.39353102 0.15827562 -0.18082821 -0.21004891
22 0.48692986 -0.03653718 0.039285727 0.4811851 -0.46080142 0.21823429 -0.06591556 -0.39610782 -0.07011992 -0.75784576 -0.033612613 -0.16748631 0.44549736 -0.63433367 -0.027102966 0.2018013 -0.28985664 0.11307692 0.088919535 0.09756852 0.2558102 0.70632046 -0.3242234 0.5390789 0.07182149 -0.11917918 0.38766566 0.45264983 -0.26215896 -0.17278542 -0.33129516 -0.2595388 0.39772412 -0.031974733 -0.4345042 -0.080634624 -0.4862375 0.08854216 -0.16251002 0.11156366 0.15791452 0.13159586 -0.07274587 -0.23546511 0.25529087 -0.46161887 0.2437304 -0.30200222 -0.5586261 -0.26630694 0.16564286 -0.5162338 -0.16336177 0.4113081 0.09385646 -0.36489263 0.049391415 -0.37617317 0.49928275 0.2832648 0.5842483 0.37451246 -0.3569429 0.03954164 0.28787613 -0.65305716 -0.5030673 -0.57643116 0.17766458 -0.5130366 -0.044812642 -0.18667561 -0.026729297 0.26561284 -0.1708732 0.7121314 -0.18075489 0.5715576 0.068202704 0.07447845 0.3058768 0.9032152 -0.3344348 0.14805664 0.120089754 0.06606766 -0.017901024 0.47712433 -0.3608353 -0.43076697 0.118232675 0.5646959 0.13255267 0.7009106 -0.12322075 0.09230934 0.60223705 -0.35892767 0.9503318 -0.27670735 0.22768842 0.25562128 -0.27556604 0.1927854 0.18210965 -0.02902691 -0.06559215 -0.122292295 0.40067652 -0.31467775 -0.24521412 0.07225385 -0.20096427 -0.27623454 -0.611507 0.10386924 0.43736595 0.51923555 0.2749488 -0.27821776 -0.03866502 -0.49845698 -0.015144568 -0.23806183 0.037943467 0.106714055 -0.06540838 -0.19362982
23 0.51523525 0.0138165355 0.038975637 0.8491844 -0.45241037 -0.03890059 -0.059507407 -0.0050711706 -0.015002311 -0.72016984 0.19205692 -0.13910039 0.054638255 -0.761206 0.12061321 0.22850238 -0.13201319 0.14419824 0.0054683774 0.4849406 0.44226217 0.44342119 -0.66150194 0.43055996 -0.06549173 0.14138612 0.35201657 0.572189 -0.38071814 -0.2609924 -0.21535672 -0.44032693 0.34806415 -0.08221275 -0.18591031 -0.08409556 -0.52837527 0.3941207 0.15216333 0.25423208 0.24504119 -0.21213795 -0.18921888 -0.4115577 0.5898762 -0.36091942 0.0062636915 -0.14629628 -0.29639438 -0.38388038 0.5896135 -0.96929467 -0.29725277 -0.077244215 0.27645153 -0.42117673 0.23262031 -0.6666259 0.0033409044 0.5561903 0.24376914 0.4220269 -0.3204914 -0.22227672 0.31324163 -0.4269256 -0.5638194 -0.78536135 0.23712943 -0.4888649 -0.1466243 0.15046437 -0.13580708 0.21880847 -0.17912927 0.7448761 -0.56580776 0.8316711 -0.01155887 0.17280103 0.38085487 0.9667379 -0.04752108 0.047724485 0.14756487 -0.26488322 0.0058170594 0.59407306 -0.42476535 -0.47794867 -0.42171565 0.7996967 -0.38108212 0.45815116 -0.2406415 0.33981186 0.5239663 -0.3777027 1.375727 -0.6775787 0.10666068 0.17253967 -0.150916 -0.09236919 0.4798653 -0.09291177 -0.008691362 -0.23945981 0.1602533 -0.038319234 -0.48903573 0.120560974 -0.5850928 -0.4794138 -0.7799726 0.4808329 0.36746946 0.24660277 0.4914859 -0.9971689 0.28175303 -1.0599148 -0.095076464 -0.2788434 0.31011492 0.4332013 -0.38330278 -0.059390645
24 0.49387422 0.14771824 -0.07098144 0.668162 -0.2488903 0.014415746 -0.20722811 -0.06138615 0.23229796 -0.6347834 -0.20401712 -0.19781153 0.14667748 -0.7461091 0.14915027 0.22429124 -0.24245676 0.19243677 0.17755523 0.499375 0.34612978 0.4991815 -0.7016949 0.59272426 0.18751183 0.2727928 0.32357147 0.73700905 -0.2945174 -0.1961684 -0.20378193 -0.21830747 0.28942627 -0.00072270486 -0.168282 -0.16704528 -0.64567703 0.38214445 -0.12740515 0.21843097 0.27709842 -0.09659428 -0.10539461 -0.40635595 0.3919272 -0.6172091 0.43187505 -0.10209135 -0.2539646 -0.056397498 0.34944904 -0.6570359 -0.09986096 0.39760458 0.2597502 -0.6638058 -0.08328283 -0.4852531 -0.04996878 0.3152429 0.3436481 0.601652 -0.16796017 -0.015238295 0.1291813 -0.5357515 -0.81937593 -0.75807047 0.22822753 -0.38301495 0.0006301823 -0.021579508 -0.09293096 -0.070896365 -0.0054994696 0.71309257 -0.48877048 0.79673624 -0.11912514 0.10824503 -0.045080133 0.9079187 -0.12722203 0.024752548 0.12374495 0.03787512 -0.09559642 0.6276084 -0.43353927 -0.5741616 -0.2598125 0.6941509 -0.34356782 0.42877153 0.003243534 0.50358576 0.5425923 -0.1130378 1.155899 -0.5005073 0.02540735 0.3314784 -0.14637738 -0.20559384 0.46652225 -0.13770702 -0.07719793 -0.27653417 0.111723974 0.1260426 -0.40898612 -0.021293495 -0.27107903 -0.32748795 -0.40963548 0.25597695 0.30487803 0.32528794 0.1892317 -0.6966659 -0.011657929 -0.8987473 -0.08593512 -0.0934691 0.09095267 0.27613688 -0.2916117 -0.11751314
25 0.5568868 -0.09761166 -0.035996053 0.37745678 -0.17541626 0.084303625 -0.15524662 0.061385565 0.03160542 -0.4890335 0.04962806 -0.37358388 0.4642626 -0.5965279 0.10183056 0.34290877 -0.15557495 0.059714474 0.16526589 0.59422415 0.34990957 0.45082694 -0.089714564 0.44980416 0.35476223 -0.12879772 -0.0032683427 0.61592025 -0.37765065 0.03210957 -0.20083764 -0.04710829 0.4801844 -0.029822893 -0.32668737 -0.16407175 -0.27108663 0.42430186 0.043450605 0.21918483 -0.060872387 0.100072235 0.009158203 -0.31854206 0.4257859 -0.3267249 -0.06602918 -0.10289381 -0.080108844 -0.33655977 0.47016895 -0.6460636 -0.1538831 0.1371263 0.28148097 -0.5615358 0.035300262 -0.5266736 0.08432455 0.5211763 0.34097245 0.2422255 -0.38149157 -0.059003487 0.13625953 -0.22320038 -0.4746346 -0.59511966 0.123425215 -0.23113984 0.031180445 0.06953597 0.11362833 0.070919946 -0.10682507 0.89334756 -0.5500914 0.35205936 0.035022467 -0.03143486 0.58269185 0.94767684 -0.10115193 0.16945258 0.29454395 -0.36271572 0.01882254 0.3658271 -0.21092679 -0.30490968 -0.1662824 0.5695513 0.09579751 0.45526046 -0.26818493 0.39587435 0.4488717 -0.37837687 1.0431488 -0.6480615 0.23078117 0.124711916 -0.17520756 0.13786875 0.3525619 -0.024566354 -0.13177827 0.033638354 0.101845935 -0.08761995 -0.3128926 -0.13731584 -0.24315035 -0.049795188 -0.7840134 0.072673514 0.35621735 0.4233321 0.53772 -0.45257595 0.14751343 -0.49039835 -0.11939441 -0.30228224 0.3654177 0.16198683 -0.29105812 -0.0309827
26 0.52975744 0.15809236 0.2877791 0.51635355 -0.3795212 0.27355054 -0.21675956 -0.04512904 0.21625046 -0.76111215 -0.16497797 -0.2501522 0.36243796 -0.5910173 -0.2495577 0.14252004 -0.21958324 0.23163155 -0.006948987 0.2960842 0.3693251 0.39870745 -0.44350615 0.43103206 0.09625318 0.40553918 0.089607425 0.523439 -0.14721115 0.03367254 -0.26013857 -0.38551566 0.5587698 0.05329918 -0.008343585 -0.29419562 -0.5057267 0.32615098 -0.36058962 0.19521342 0.18917595 -0.011949468 0.031279657 -0.25443584 0.41348097 -0.44450104 0.20282875 -0.25727567 -0.49049824 -0.17826064 0.040608313 -0.61384267 -0.06227545 0.23008026 0.17356782 -0.20325223 0.11818611 -0.5072564 0.35722134 0.37131092 0.58374125 0.546944 -0.36592725 -0.26774538 0.1832809 -0.60450876 -0.50642294 -0.574756 0.19440578 -0.413012 -0.14984362 -0.08809898 0.08993407 0.050002724 0.035592522 0.89065826 -0.3452073 0.5153173 -0.1429061 0.3718187 0.26696888 0.8091781 -0.17212702 0.029301384 0.39137116 -0.17337964 0.052096248 0.6380785 -0.4216467 -0.48190004 -0.12112051 0.9335143 -0.20412575 0.51324195 -0.0056477524 0.26499796 0.74573666 -0.47619408 1.0021492 -0.29161957 0.3894669 0.3844251 -0.1849207 -0.08128317 0.3842739 -0.06960632 -0.24033923 -0.15214825 0.08939849 -0.19683702 -0.24163862 0.3996817 -0.62229425 -0.28129295 -0.6042619 0.42946184 0.36087978 0.51210797 0.4574453 -0.44915012 -0.044757213 -0.7257433 -0.2865934 0.01870734 0.13984098 0.2949838 -0.44415423 -0.23283614
27 0.726719 -0.02425222 0.10505056 0.73945457 -0.3405607 -0.054711167 -0.37707615 0.033784855 0.25279084 -0.753676 -0.1007697 -0.1687193 0.5183945 -0.8550205 0.24654286 0.17614189 -0.020371547 0.09677048 0.2273484 0.57924944 0.45796064 0.4248217 -0.4315753 0.33606625 0.21351926 0.2911523 0.27389288 0.5337006 -0.16729763 0.0131299235 -0.5763219 -0.27289698 0.62345743 -0.13008721 -0.0032632363 -0.15546232 -0.28461948 0.3772453 -0.043438915 0.22778867 0.29612345 0.15048595 0.12141066 -0.2019194 0.5179185 -0.35974386 0.010914488 0.19413352 0.09663741 -0.12232216 0.5798012 -0.5766642 0.15247197 0.11024862 0.07013796 -0.50274396 0.1807258 -0.39151615 -0.16357343 0.6671397 0.2882261 0.28434795 -0.21748352 -0.17729832 -0.07545301 -0.3808053 -0.5415774 -0.9031371 0.22478616 -0.28731608 0.045961097 -0.023625983 -9.317532e-05 -0.1430615 -0.014502767 0.8275299 -0.60704136 0.78075624 -0.11409724 0.17373757 0.26099512 1.107503 -0.0045593786 -0.042504065 0.3861815 -0.27263623 -0.33661327 0.44674888 -0.387046 -0.25870213 -0.17697746 0.8047852 -0.21518861 0.55237037 -0.2414299 0.50033104 0.23907948 0.0005038217 1.2011217 -0.5726276 0.12077902 0.27825463 -0.31370342 -0.06961119 0.31162453 0.109625146 0.009598097 0.07786279 0.16490309 -0.025044749 -0.46737018 0.0199786 -0.5920277 -0.30069342 -0.8085143 0.2517136 0.2105839 0.44835863 0.7501921 -0.62389004 0.18188225 -0.6162724 -0.085545406 -0.04759532 0.25459057 0.49669668 -0.3754965 -0.08154235
28 0.43493047 0.02934448 -0.05214045 0.6577602 -0.23240216 -0.018979883 -0.21592668 -0.21717907 0.2698747 -0.66766787 0.082028195 -0.106237255 0.07782563 -0.7258847 -0.122308455 0.10498064 -0.2346425 0.24098592 0.3093245 0.44643667 0.22818622 0.66692466 -0.4160151 0.35271785 0.16336767 0.01772538 0.26836327 0.6404191 -0.18549082 -0.08923636 -0.21693256 -0.46272892 0.4480141 -0.0931349 -0.15054893 -0.094007246 -0.5792211 0.32311937 -0.19569927 0.115560584 0.38536996 -0.032320157 -0.17233159 -0.41875416 0.33392397 -0.53143215 0.31798136 0.07893357 -0.19354704 -0.066383906 0.37654734 -0.60439116 -0.05805664 0.04184781 0.105546504 -0.53411686 0.17901042 -0.5899319 0.2167392 0.5340513 0.31464297 0.45610094 -0.2073049 -0.07702462 0.2447504 -0.63805735 -0.65869176 -0.8115066 0.055197477 -0.32259765 0.014895409 -0.0030333586 -0.0544419 0.16865641 -0.10089207 0.4789733 -0.3065877 0.7276212 -0.15510562 0.15384796 0.1490429 0.82234716 0.007320791 0.047392417 0.29857492 0.030200237 0.11096696 0.48062047 -0.44210532 -0.6330418 -0.13423929 0.544991 -0.34540835 0.5037302 0.015512613 0.3086993 0.51705706 -0.21430092 1.2141647 -0.53466445 0.030018257 0.40414417 -0.101960264 -0.19481379 0.52557 -0.16701631 -0.20629951 -0.17855403 0.18048066 -0.05641211 -0.59744143 0.07784398 -0.4581007 -0.48399326 -0.735354 0.46224177 0.41978607 0.274615 0.33127925 -0.69780904 0.20479764 -0.8661622 0.056973416 -0.09921881 0.42324942 0.32258603 -0.22018287 -0.1679087
29 0.4807126 0.15556018 -0.13610129 0.7401353 -0.40884757 0.005062863 -0.33579355 -0.052088834 0.19365741 -0.7546111 0.060357183 -0.14133999 0.15217099 -0.73427075 -0.1193314 0.24362375 -0.29225802 0.24796148 0.2159437 0.58604336 0.39225078 0.6278365 -0.589725 0.46795622 -0.014657438 0.40932542 0.39106843 0.7917718 -0.27470514 -0.057110723 -0.1320793 -0.40974197 0.39908022 -0.058682658 -0.17586762 -0.21834616 -0.6593755 0.38247138 -0.27241713 0.25769812 0.4162009 -0.06441375 -0.11929039 -0.45486668 0.28745162 -0.6522352 0.37185982 -0.0133603215 -0.27989724 -0.019443529 0.38055944 -0.5235955 -0.110956915 0.24280265 0.17983004 -0.7268101 0.12050898 -0.57573545 0.05848327 0.33872753 0.35822618 0.64601654 -0.21380006 -0.062606394 0.2340365 -0.5318793 -0.7126414 -0.73056376 0.13951926 -0.38940126 -0.07658651 -0.0061771427 -0.001833566 -0.041341092 -0.115072034 0.6219561 -0.41460687 0.8547544 -0.19859451 0.18065089 0.010556746 0.87011695 0.008874791 0.012481782 0.38234228 -0.04593361 0.006890964 0.6866725 -0.41441602 -0.7235612 -0.3278626 0.81584984 -0.54239166 0.4554993 0.13304262 0.40553463 0.4912923 -0.18575577 1.1263359 -0.4131779 0.17959855 0.462369 -0.14998525 -0.38568035 0.5729282 -0.15731965 -0.1729205 -0.38556993 0.116565555 -0.038190693 -0.4321676 0.22766626 -0.4242218 -0.5457473 -0.5646615 0.38906008 0.37583867 0.28069463 0.26488838 -0.61915296 -0.093539305 -1.0006726 -0.23507445 -0.048698436 0.26843974 0.29964128 -0.41021115 -0.17646113
30 0.6003265 -0.20064293 -0.07333944 0.38055137 -0.22556362 0.19623774 -0.02399968 -0.29397777 0.07968216 -0.6351969 -0.023990931 -0.35552365 0.52613235 -0.6062037 0.12168902 0.3513566 -0.05715145 -0.0029216183 0.188698 0.32697523 0.2868059 0.57048327 -0.16420767 0.46216902 0.36725384 -0.2563151 0.28559464 0.36257228 -0.26595983 -0.20694235 -0.18245745 -0.064063706 0.3293118 0.0074947034 -0.3356402 -0.04375786 -0.36010146 0.031169938 0.14003079 0.15083861 -0.09636585 0.098956145 -0.03671847 -0.21446906 0.30001634 -0.15679032 0.2971472 -0.23876004 -0.2538469 -0.41591644 0.24367079 -0.514477 -0.24910572 0.30155274 0.093347855 -0.41370028 -0.0735831 -0.4328853 0.23883143 0.47158042 0.36862302 0.26621816 -0.35066214 0.09385902 0.12261977 -0.36959082 -0.5261186 -0.51684505 0.27870938 -0.29013088 0.14079836 -0.06706024 0.0547644 0.11001622 -0.04330226 0.7451474 -0.3621144 0.48695058 0.0424599 0.044861667 0.47379062 0.9093868 -0.40395215 0.17820905 0.109505534 -0.08774623 -0.054125123 0.26597118 -0.08745025 -0.22950538 0.07148281 0.32629436 0.2110472 0.62244105 -0.4236351 0.31631443 0.43207034 -0.42816547 0.8480273 -0.4002692 0.06458317 0.33715862 -0.25050843 0.25781924 0.13628767 -0.009483609 -0.0015242262 0.14272897 0.25216857 -0.10937816 -0.17608355 -0.13969567 -0.22920935 -0.18458201 -0.42498332 -0.042176206 0.34658498 0.5164721 0.20664385 -0.39534882 0.0760142 -0.3941662 -0.023864204 -0.24491377 0.23269147 0.04156037 0.077887766 -0.03126665
31 0.5401775 0.054948397 -0.12328224 0.49574283 -0.18511716 -0.12251572 -0.517061 0.19702183 0.38613024 -0.69855523 -0.23471779 -0.30998537 0.32390994 -0.710346 -0.007286575 0.21496698 -0.19139394 0.4297742 0.29040155 0.68415284 0.52759486 0.42279994 -0.3573787 0.47839656 0.40680748 0.2935403 0.18148327 0.8480225 -0.2092733 -0.10310088 -0.20457347 -0.11903014 0.5151397 0.003232949 -0.28353092 -0.29030642 -0.46677095 0.4751358 -0.16143245 0.22907864 0.17587775 -0.04442427 0.010032296 -0.22186144 0.27938423 -0.5380972 0.11014233 0.09953046 -0.21644884 -0.12724862 0.23349869 -0.5428285 -0.054393098 0.20766768 0.28721854 -0.632711 -0.22816387 -0.58184445 -0.08583369 0.38625556 0.22010283 0.42657593 -0.30952206 -0.10527723 -0.05060857 -0.4523109 -0.64359415 -0.6552417 0.11954922 -0.24187656 0.06542356 -0.048449785 0.011730219 -0.20371291 -0.014763397 0.8997141 -0.5360627 0.5888581 -0.09684141 0.15617405 0.17237586 0.97327936 -0.04727045 0.0073072445 0.31424528 -0.34486458 -0.0025711607 0.6570302 -0.38670895 -0.6161338 -0.23571931 0.78301215 -0.066187166 0.41124433 -0.05228657 0.5561181 0.45668 -0.24225117 1.095165 -0.43926007 0.4484937 0.23026636 -0.08716288 -0.13381693 0.5039001 -0.14129321 -0.052312255 -0.18586022 -0.021819258 0.061690938 -0.405521 -0.0075749597 -0.36141607 -0.17295323 -0.623053 0.33120996 0.31715834 0.35101515 0.5241619 -0.58971936 0.023267077 -0.737837 -0.21477203 -0.17845313 0.31993583 0.14415857 -0.4401168 0.052195266
32 0.6390476 -0.08231053 -0.01307568 0.4109823 -0.35152563 0.17002167 -0.0392682 -0.4834491 0.09679799 -0.73462594 0.04223125 -0.22402172 0.43143737 -0.6002443 0.040583722 0.35793316 -0.08902062 -0.00969034 0.22227597 0.31054106 0.23305881 0.5748659 -0.11307244 0.3485415 0.19872437 -0.14964117 0.31580743 0.24553114 -0.2488146 -0.1681339 -0.19054452 -0.26143786 0.33785826 -0.12766443 -0.25899756 0.007804052 -0.28479156 0.0060351966 -0.021306764 0.035642207 0.10811591 0.01629541 -0.0007085975 -0.2601745 0.3454973 -0.10423025 0.32515177 -0.18029335 -0.35686162 -0.42315584 0.18146084 -0.4921704 -0.1903749 0.32510564 0.016806362 -0.1936578 0.00551489 -0.40576455 0.3808856 0.43718547 0.41564277 0.3296702 -0.2446714 0.08134004 0.1860742 -0.47324264 -0.46844685 -0.50794417 0.2692339 -0.25235695 0.060369946 -0.06498381 0.097390845 0.14739451 -0.008986668 0.54725146 -0.339019 0.48948717 -0.020867115 0.23616916 0.43430066 0.7603995 -0.3426189 0.118645184 0.14558648 0.034808088 -0.009459034 0.15935254 -0.13335305 -0.21031435 0.042298686 0.31874198 0.102442 0.6008747 -0.34936336 0.23477168 0.41259253 -0.37142333 0.7723618 -0.25932533 0.029168483 0.43870926 -0.15254126 0.16636193 0.1545567 -0.016178943 -0.14761299 0.08975841 0.32011515 -0.15813565 -0.09782998 -0.0021826436 -0.31341037 -0.24262363 -0.46254593 0.081222214 0.32762945 0.47500494 0.12143164 -0.37934437 0.029866543 -0.45079377 0.043361515 -0.0733453 0.2655445 0.16534841 0.11077548 -0.07652499
33 0.5337337 -0.03151268 0.021863112 0.44208872 -0.05974859 -0.04504208 -0.028450033 0.23508596 -0.16323498 -0.67887294 -0.13041925 -0.5737113 0.08770203 -0.48403573 0.047294594 0.47917202 -0.20084476 -0.016070623 -0.1137689 0.7381007 0.47950062 0.62610894 -0.54187196 0.4958724 0.24495798 0.14032409 0.14193152 0.9123221 -0.2553285 -0.33286458 -0.09141998 -0.029370282 0.40347955 0.029204363 -0.38822004 -0.16910905 -1.0020001 0.385934 -0.007392686 0.031572383 -0.025070824 -0.13774107 -0.009399515 -0.2993592 0.47627288 -0.39239144 0.2073619 -0.12641665 -0.36926487 -0.079383984 0.23162456 -0.9530818 -0.082122125 0.04223291 0.4816184 -0.502442 -0.29100153 -0.77946675 -0.07592981 0.17764755 0.17913477 0.6160624 -0.44955376 -0.26331052 0.22867586 -0.37681663 -0.74053884 -0.46276054 0.44571856 -0.6493837 0.020803936 0.17944126 0.13263494 -0.3253079 0.087116 0.8964055 -0.59669477 0.5869064 -0.24115165 0.15957476 0.0984241 0.8413516 -0.10280578 -0.04367823 0.1812275 -0.18240981 -0.09706791 0.36407927 -0.2251411 -0.7245152 -0.3561019 0.9044676 -0.25487533 0.3237495 0.07689139 0.35265416 0.49679026 -0.4657278 1.1583499 -0.40538856 -0.049785454 0.14456822 -0.106411606 -0.1332419 0.4020327 -0.20288272 -0.084304824 -0.3829411 0.05805818 0.29182106 -0.12581277 0.14246763 -0.24903117 -0.24893664 -0.50685805 0.355858 0.02784123 0.33284965 -0.101873875 -0.60731995 0.10173194 -0.6959304 -0.32590166 -0.1594917 0.06355942 0.08734909 -0.3705634 -0.27738586
34 0.4051674 -0.34388936 0.10576646 -0.028213382 0.6264765 -0.09446014 -0.01543585 0.6050869 -0.12945895 0.28930032 -0.3003029 -0.8593171 0.46990424 0.035784565 0.13891937 0.3264692 0.46874207 -0.14398304 0.14205039 1.21317 0.4895329 -0.14110139 0.41657105 -0.2214947 0.68380713 -0.069486275 -0.7645963 0.18846036 -0.20745426 0.1429673 -0.4880363 0.50162727 0.11812454 0.17355885 -0.1763523 0.039257556 0.024049696 0.5083319 -0.17819151 0.47337732 -0.18687022 0.43394622 -0.0062911883 0.24366333 0.29969674 0.44974324 -0.52738756 0.6267678 0.32433692 -0.12739637 0.3942939 -0.83916616 -0.100287765 -0.23783714 0.44088286 -0.30192354 -0.6622207 -0.41779444 -0.432044 0.25517818 -0.38734767 -0.0648471 -0.1428724 -0.064994015 -0.36346537 0.52824396 -0.38583592 0.2570073 0.39876875 0.5768235 0.08553639 0.33778152 -0.13788268 -0.4341552 0.280021 0.87973315 -0.67333764 -0.414164 0.39645582 -0.5365702 0.2874351 0.44399267 -0.018429829 0.056519262 -0.16924047 -0.42648032 -0.33426705 0.018310776 0.21676514 -0.0031982062 0.14519648 0.34598675 0.68670356 0.082396366 -0.3073859 0.40798965 -0.031027753 -0.263221 0.09084662 -0.20770971 -0.09734917 0.22018789 -0.13969278 0.29632607 0.184456 0.11218867 0.01995108 0.47889477 -0.2955243 0.39239898 0.031164473 -0.64551824 -0.13958211 0.6124936 -0.20603858 -0.1293409 -0.41146946 0.26989508 0.7891389 -0.08496474 0.0720583 0.12824179 -0.04763848 0.13342708 0.42252615 -0.032512866 -0.34052256 0.302672
35 0.26951903 -0.20934652 0.04364607 -0.013028124 0.36775106 -0.18419284 -0.41802096 1.0543445 0.1366469 0.14515962 -0.6203698 -0.99650514 0.651408 0.07486845 0.010819018 0.18773201 0.57971674 0.1518757 -0.0024706393 1.3332537 0.8894269 -0.39725372 -0.057777274 -0.18009539 0.69053555 0.5030574 -0.5382177 0.36016777 -0.0745584 0.120215125 -0.34333536 0.79020286 0.12644552 0.53058094 0.08435313 -0.1627343 -0.12758334 0.51983565 -0.18959127 0.6549849 -0.27407733 0.33067387 0.083911546 0.4168347 0.15211676 0.24988927 -0.31576595 0.46296838 0.2928288 0.20680913 -0.016662769 -0.7947463 -0.108750224 -0.28201127 0.47138277 -0.486677 -0.7035332 -0.3747915 -0.77151525 -0.12205117 -0.51122314 0.22340916 -0.23910575 -0.3270595 -0.39714068 0.6219224 -0.15759136 0.5540096 0.3740542 0.5675911 -0.011461025 0.22491093 -0.0857227 -0.7776169 0.3635925 1.0553647 -0.57401997 -0.27652904 0.35781133 -0.32124898 -0.118433 0.3988832 0.0014172661 0.011808652 -0.03364243 -0.49400842 -0.46432152 0.45381624 0.3217418 -0.42028427 0.06912941 0.79881114 0.49510735 -0.09062288 -0.14287046 0.43053403 0.21210703 -0.3170239 -0.111595646 0.054735206 0.3068466 -0.009764314 -0.3638249 0.11154145 0.17799272 -0.033732355 0.3984185 0.27673036 -0.5097854 0.4365903 0.11055798 -0.4142162 -0.46305773 0.5667637 0.34483677 -0.04312531 -0.38834193 0.27707672 0.81282467 0.13526398 -0.24409197 -0.05316871 -0.5575717 0.11377732 0.18107398 -0.18941042 -0.67721224 0.43175748
36 0.4117368 -0.18768367 0.26420572 -0.038089216 0.4335819 -0.1210465 -0.31283963 0.77723384 0.037411172 0.20213337 -0.64195496 -0.8869785 0.6599413 0.053685054 0.15126513 0.036918078 0.489072 0.092693284 -0.019665355 1.0633706 0.6113563 -0.46661377 0.09459582 -0.2754027 0.65203243 0.43458185 -0.7099892 -0.03462998 -0.022536943 0.1310191 -0.5823335 0.652777 0.07152337 0.43992183 0.036061823 -0.0024946753 0.12233651 0.43538272 -0.24100494 0.56044626 -0.18951084 0.4432974 -0.0035020958 0.46952167 0.23206694 0.2760378 -0.45236078 0.4770128 0.2903834 -0.093199976 -0.045242116 -0.8272306 -0.115928836 -0.28869903 0.34474877 -0.16316807 -0.68510395 -0.25607982 -0.4063843 0.032100085 -0.45016694 0.09135692 -0.22009043 -0.2629977 -0.5608566 0.59225184 -0.1344864 0.5745407 0.39187387 0.6093625 0.067431524 0.19341217 -0.1876669 -0.52951676 0.4025657 0.9902243 -0.45530224 -0.5413432 0.4232353 -0.4689033 0.0127869565 0.40019244 -0.0451185 -0.03128819 -0.27781135 -0.45078877 -0.37382585 0.25546283 0.16093345 -0.27884448 0.22204477 0.5177137 0.7664436 0.032007784 -0.17530714 0.38717234 0.19466709 -0.3137064 -0.04185999 0.023407614 0.25160277 0.10630951 -0.27108622 0.29635715 0.05301399 0.08264896 0.29808682 0.51891005 -0.4913287 0.21535362 0.12963617 -0.5204725 -0.51806146 0.69495666 0.112115026 -0.0628087 -0.37910697 0.26883325 0.98607516 0.18879138 -0.06812015 0.14733429 -0.31487986 0.20639408 0.2221848 -0.14059687 -0.43535468 0.39588195
37 0.38261396 -0.32893482 0.19444907 -0.05883234 0.5675348 0.08988147 -0.0039392877 0.66836905 -0.1007861 0.20920388 -0.38333026 -0.77124214 0.52054465 0.031218715 0.030870723 0.3655258 0.39690548 -0.024645235 0.051697444 0.89894366 0.47644976 -0.17726055 0.45891875 -0.13145505 0.71727145 -0.16811034 -0.75188476 0.13093908 -0.22174212 0.19597706 -0.48760885 0.51375175 0.24480139 0.23405567 -0.23353562 -0.051266097 0.112402916 0.44733235 -0.1345041 0.46513292 -0.35552666 0.36005965 0.05121137 0.29609302 0.28336072 0.4964263 -0.7208725 0.36254868 0.23950489 -0.31031525 0.20804599 -0.6794434 -0.14335999 -0.237717 0.48792738 -0.19609967 -0.61300933 -0.44889075 -0.23534733 0.32569537 -0.1851108 -0.22770903 -0.3431475 -0.15262784 -0.32637158 0.38840085 -0.31578007 0.2661496 0.47036374 0.5363116 0.06609096 0.2701407 -0.06166626 -0.43890995 0.26518798 0.9821172 -0.5976973 -0.44634655 0.4559554 -0.42789477 0.52277434 0.55946374 -0.18179536 0.101905584 -0.051375687 -0.6750429 -0.13618915 0.15519553 0.20342255 0.08586054 0.14564854 0.36995134 0.8148566 0.0553705 -0.3955245 0.45214033 0.13676955 -0.4386446 0.08070621 -0.17201872 0.13906032 0.12326567 -0.07135567 0.3875169 0.16169158 0.028746359 0.08774013 0.50783056 -0.34428388 0.2709553 0.048701294 -0.43592736 -0.19478178 0.6431367 -0.23987459 0.0031971938 -0.33537787 0.39430696 0.8420397 -0.13002242 0.064938635 0.1650165 -0.09978297 0.06526738 0.34723172 -0.022794463 -0.43260977 0.30741292
38 0.5941206 -0.2263204 0.4077696 0.19413607 0.33239672 -0.07657465 -0.32251602 0.7537498 0.17429101 0.06835216 -0.6260135 -0.83274525 0.88496166 -0.21926636 0.29044318 0.087148935 0.60866106 -0.06205767 0.011311148 1.1943263 0.6980852 -0.45845297 0.10335604 -0.30331135 0.6463077 0.4616975 -0.6835134 -0.06909013 -0.03505854 0.23869254 -0.85681784 0.4937832 0.33838093 0.32970417 0.2708774 -0.04191179 0.2522969 0.4875557 -0.15615918 0.58961856 -0.11622825 0.4700748 0.19936907 0.39703336 0.5087547 0.4110153 -0.5802621 0.6007703 0.45605958 -0.07989957 0.24112453 -0.90390885 0.09704501 -0.30719134 0.2693926 -0.107660025 -0.41902074 -0.18749242 -0.62137264 0.3882508 -0.31072238 -0.017301463 -0.113568135 -0.36865702 -0.61117595 0.54252857 -0.13247705 0.2192957 0.43749955 0.61733824 0.0112477485 0.21747114 -0.17193209 -0.52722883 0.4032018 1.1589055 -0.67767966 -0.30772936 0.40086228 -0.29467607 0.24785247 0.59152365 0.006774998 -0.02519087 -0.03224244 -0.51249003 -0.61516505 0.23053448 0.12155907 0.023097377 0.18764679 0.7471932 0.63866127 0.17246327 -0.41532046 0.44822288 0.09705034 -0.13742936 0.19000933 -0.1394809 0.096012965 0.16299446 -0.44994426 0.3058546 0.018953223 0.26523605 0.27314386 0.6873043 -0.297648 0.2783832 0.015832793 -0.48596284 -0.7172213 0.6763216 -0.14571708 -0.06841922 -0.39441127 0.47953472 1.3260468 -0.035008673 0.09787077 0.13658425 -0.18390617 0.2833408 0.23474142 0.22384295 -0.5392558 0.35536617
39 0.42750663 -0.11419333 0.26140985 -0.013914114 0.39986908 -0.114929 -0.36659402 0.8649691 0.07706617 0.056622196 -0.766207 -0.9026652 0.5988589 0.0071950834 0.06429847 0.099720694 0.43857303 0.14620219 -0.04025455 1.1778773 0.7385792 -0.44718108 0.09538314 -0.2192716 0.63803685 0.48151037 -0.66303295 0.11262112 -0.04963853 0.09596694 -0.57865816 0.57041556 0.24804309 0.41225094 -0.009434645 -0.1198793 -0.014244351 0.46850273 -0.34926105 0.52813107 -0.11854369 0.27540776 0.08886133 0.42046058 0.29672945 0.2580799 -0.5082009 0.49953616 0.11013011 -0.040123012 -0.16190518 -0.8529866 -0.07533811 -0.2294837 0.4447498 -0.09309259 -0.77705663 -0.33462542 -0.4358148 0.0031125867 -0.3533461 0.14063686 -0.2344479 -0.373006 -0.49453852 0.43125132 -0.24336438 0.5241921 0.43842277 0.5152183 -0.043260265 0.17502798 -0.17293352 -0.57951856 0.39498603 1.0832163 -0.53352207 -0.4348067 0.42036405 -0.2642074 0.050735764 0.39234683 -0.08116058 -0.074299596 -0.18088675 -0.4901485 -0.34734878 0.33495918 0.08075074 -0.3304522 0.16722113 0.7785403 0.7632676 0.04808606 -0.14126386 0.37006062 0.25662994 -0.33037037 -0.0022343036 0.12286916 0.2952285 0.08648342 -0.24895379 0.20840319 0.13249403 0.02981788 0.23604308 0.32586056 -0.37669966 0.31834123 0.1755612 -0.3962488 -0.49435613 0.7325007 0.04681973 0.10189187 -0.4333387 0.34306833 0.97605336 0.060647428 -0.08965954 0.07572832 -0.28892404 0.23999356 0.14046563 -0.091112114 -0.55627954 0.3897561
40 0.2954094 -0.48849717 -0.095795564 -0.09764036 0.4803012 -0.25910515 -0.08017399 0.615577 -0.2039574 0.17795661 -0.24528196 -0.81995463 0.52603215 0.20542829 0.007541452 0.2339255 0.5356299 0.04456214 0.2668763 1.0572331 0.7112761 0.0022103682 0.42060095 -0.22612397 0.80648756 -0.24228488 -0.39002228 0.25110614 -0.15761812 -0.020056661 -0.36991012 0.5390367 0.09569216 0.17983003 -0.31909657 -0.038168423 0.058103796 0.314473 -0.07551736 0.45982644 -0.26399046 0.47120366 -0.024640653 0.35730252 0.01850851 0.49150828 -0.40812674 0.5667057 0.33033362 -0.1130011 0.20209041 -0.6249388 -0.2220308 -0.24927446 0.34939486 -0.37530988 -0.71813977 -0.50049114 -0.43824422 0.027354468 -0.5186172 -0.15539569 -0.32013172 -0.02990038 -0.116054475 0.4798971 -0.33068016 0.35997713 0.32097593 0.43450025 0.11099678 0.16106498 -0.119019546 -0.41904548 0.07945157 0.80267966 -0.5333736 -0.28610507 0.5357489 -0.4590186 0.06430194 0.40513918 -0.2573459 0.092663564 -0.22043873 -0.39411962 -0.37296748 -0.031084092 0.22766638 -0.1346224 0.265327 0.2738237 0.8953313 0.08241771 -0.48147753 0.34174353 -0.039586138 -0.21245398 -0.08426924 -0.17766342 0.1321324 -0.066973336 -0.2737207 0.38752544 0.14335455 0.066612266 0.28997713 0.30763268 -0.28229544 0.20368202 0.033269342 -0.6424617 0.07971681 0.3382978 -0.08128794 -0.11622529 -0.2848473 0.19971508 0.6693514 0.0063891388 0.016542288 0.14049146 -0.25360298 -0.12930343 0.42595023 -0.4018092 -0.22142513 0.5909564
41 0.32256168 -0.2707731 0.2697866 0.009064966 0.65418565 -0.2259738 0.071501546 1.1348974 -0.4640651 0.27535453 -0.4043531 -1.1364136 0.18027918 0.23760019 0.18866678 0.3231829 0.4781078 -0.25782964 -0.34887916 1.3705511 0.6808502 -0.24322926 -0.16035806 -0.2211415 0.48985192 0.31397405 -0.7291693 0.3232361 -0.08807548 -0.058949284 -0.312495 0.6758328 0.05109846 0.4055857 -0.042537123 0.004596022 -0.5437323 0.523468 0.05807152 0.4273644 -0.37291542 0.19669284 -0.022113549 0.24921075 0.46790487 0.34232223 -0.44909507 0.42200574 0.34361845 0.06465629 0.18908148 -1.1711609 -0.08705417 -0.65811765 0.6516503 -0.28640035 -0.67160076 -0.6213212 -0.76017714 -0.092841536 -0.65419954 0.25549743 -0.38642603 -0.49241194 -0.25266686 0.7557722 -0.34692836 0.5730368 0.63386387 0.15292287 0.0062956098 0.57271576 -0.010264037 -0.7648716 0.4148137 0.9623704 -0.6919392 -0.3323312 0.15944716 -0.43503627 -0.06942544 0.2905245 0.14918801 -0.12229325 -0.17808254 -0.48037213 -0.41139904 0.019939156 0.26789597 -0.4408868 -0.18624066 0.75275636 0.23873965 -0.23955093 -0.017903564 0.35984248 0.106867455 -0.41801816 0.15978308 -0.16611129 -0.22009964 -0.12701546 -0.19913162 0.002488573 0.17651375 -0.03900615 0.23525003 0.10439119 -0.5041465 0.6318637 0.26919475 -0.3504567 -0.3312697 0.49171117 0.12395728 0.107048936 -0.72721595 0.060936164 0.38803038 -0.14221412 0.10239315 -0.035442807 -0.49402872 0.10733348 0.062507816 -0.11923485 -0.58673847 0.13413018
42 0.2107231 -0.08470931 0.111637115 -0.17650433 -0.05047484 0.584641 0.35662162 -0.37628058 -0.76089525 -0.20004894 -0.3324826 -0.20468727 0.32038996 0.052802723 0.094756015 0.23230661 -0.3073176 -0.46203017 -0.24396648 -0.08258566 -0.13723597 0.75830954 -0.059825923 0.26556408 0.04924174 -0.6628373 0.28315952 -0.037495155 -0.17274864 -0.036636792 -0.5138783 0.07692473 0.2776219 0.092828915 -0.606308 0.060459297 -0.4900865 -0.23630232 -0.4181815 -0.16578302 0.06577421 0.62635833 -0.12451675 0.049635917 0.078294285 -0.2821048 0.16907692 -0.34482908 -0.22891709 0.04016305 -0.09269116 -0.23102543 0.19055589 0.54705817 0.0024579389 -0.2493788 0.0062669013 -0.06862203 0.785469 -0.04659714 0.63592803 0.13993615 -0.6063327 0.05493517 0.5979265 -0.44025007 -0.6221336 0.06370397 0.5341225 -0.5884322 -0.16398965 -0.31788236 -0.09432835 0.029790122 -0.17304048 0.21840431 0.31455427 0.06280263 0.38967225 -0.35115862 -0.07107833 0.43627438 -0.76995564 -0.11156697 -0.30879912 0.5368996 -0.054494105 -0.16159137 -0.3151327 -0.46897897 0.62014943 0.3236412 0.68727267 0.5547547 0.17406115 -0.36213803 0.46448347 -0.23827808 0.15734515 -0.052552372 -0.48738906 -0.1277235 -0.49581406 0.3259567 -0.09248817 -0.14004508 -0.068424135 -0.013242019 0.53366804 -0.44395074 0.18409716 -0.16587535 0.27541825 0.0023240272 -0.29468778 0.0050529013 -0.18579324 0.43230578 -0.15389068 0.47904617 -0.23575003 0.3143848 0.061624434 -0.048232578 -0.58526564 -0.12105685 0.22062552 -0.416553
43 -0.103181556 -0.18662256 0.13125125 0.06531721 -0.04212472 0.32166138 0.36883175 -0.27884567 -0.6287046 -0.09213378 0.20303361 0.005383022 -0.1447683 -0.0572723 -0.09232567 0.12467395 -0.39982978 0.2275377 -0.13340534 -0.4761623 -0.20335628 0.43138677 -0.040943388 0.38897675 -0.17659077 -0.7822707 0.013417962 -0.09950991 -0.29412952 -0.09360947 -0.30372813 -0.16922821 -0.05410287 0.027656881 -0.8588637 0.38206193 -0.36996782 -0.117156416 -0.23580576 0.18896382 0.20552532 0.13350582 -0.52826744 -0.0044205873 -0.028236518 -0.18131122 -0.644945 -0.28114358 -0.62639916 -0.45597634 0.1305957 -0.20481916 -0.2995368 0.087133385 0.0674406 -0.20441578 -0.23853464 -0.20590337 0.92599076 0.26743996 0.66913617 -0.227072 -0.49264327 0.21146515 0.17493136 -0.60524523 -0.5265325 -0.1338082 0.35323483 -0.3366153 -0.07818117 -0.13240117 -0.351947 0.4339473 -0.28021675 0.30638093 0.17207001 0.18443687 0.36717588 -0.66810185 0.51031464 0.84261954 -0.30504626 0.3365641 -0.37218666 -0.25043762 0.5514991 0.46113652 -0.35406697 -0.11119609 0.2584212 0.0005205098 0.47981933 0.4203926 0.18404096 -0.18517369 0.30493626 -0.5612102 0.17934315 -0.00084255583 0.1508088 0.115730144 0.19167525 0.48909026 0.107142754 -0.22334827 -0.10701785 0.10279777 0.27798346 -0.34451044 -0.3718895 -0.079464905 0.35193834 0.13721724 -0.5097876 0.2413543 0.009774502 0.20538048 0.42447355 -0.2666187 0.12406958 0.04204733 0.44190747 -0.25656545 -0.1396566 -0.012719747 0.10964487 -0.10237724
44 0.80114573 -0.4537662 0.18960117 -0.034501344 -0.40364546 -0.40812126 -0.4591078 -0.16554959 -0.71233135 -0.33354455 0.39459455 -0.5521621 0.7849183 0.119417466 0.64364606 -0.4067974 0.17725895 -0.26909858 0.41841778 0.6831829 0.061002597 -0.23107116 0.10313782 -0.55232006 -0.1558689 0.15991057 0.12328137 -0.90507144 0.1609968 0.13480048 -0.2325626 0.16069183 -0.007913877 -0.11746534 0.08766367 0.7324481 0.541409 -0.56815284 0.08917119 0.42940643 0.30474177 0.6171493 -0.4848731 0.6135111 0.22362493 0.26383916 -0.4124069 0.35357732 0.70983124 -0.87410235 0.5344232 -0.5849172 -0.4882432 -0.8629776 -0.831208 -0.20761052 0.22037481 -0.17551981 0.28713897 0.3999136 -0.5310767 -0.10726836 -0.62940097 0.058794003 -0.5263836 0.8836914 0.4424552 0.6681396 0.079600394 0.324397 0.24463126 0.08723621 0.22228886 0.3974818 0.14725402 0.088741265 0.018506305 -0.26853684 -0.020676605 -0.6062302 0.08159582 0.5746312 0.46745008 0.23219977 -0.4767624 -0.41072556 0.048792236 -0.5365752 0.39548576 -0.40794066 -0.031600185 -0.53813404 0.5867498 0.5766689 -0.28665644 0.14525515 -0.32334143 -0.81847423 -0.13832234 0.1899741 0.44817805 0.30995017 -0.27267337 0.69072396 -0.42551523 0.29065704 0.19265336 1.0926684 -0.47393757 -0.9904628 -0.020283874 -0.53329086 -1.1895977 0.24452652 -0.310298 -0.5016672 -0.2564369 -0.48245138 1.1313351 0.606871 0.32086387 0.40922698 -0.21836215 -0.060645383 0.6111878 -0.276301 0.4720494 0.25334457
45 0.69432855 -0.49708292 -0.03263292 0.04406774 -0.49426332 0.27198905 -0.175315 -0.27096954 -0.79628277 -0.16707237 0.6235646 -0.4936278 1.0114173 0.014700385 0.30975473 0.02843456 0.06765253 -0.4621845 0.17663506 0.54563165 -0.071276024 0.25492594 -0.0867153 -0.18585117 -0.17753412 -0.2258904 0.41548517 -0.8337095 0.011900164 0.4604711 0.008873415 0.25618848 -0.04282435 0.22844774 -0.062144894 0.5106346 0.3092709 -0.668004 0.13863173 0.5808539 -0.11017456 0.917273 -0.5597556 0.360739 0.025575973 -0.08150045 0.07095721 -0.37759045 0.9466344 -0.649947 0.561007 -0.13233273 -0.6272313 -0.6537786 -0.75544393 -0.87017226 0.9539487 -0.26518637 0.5720837 0.39297247 -0.20709288 -0.03767282 -0.9456449 0.15195994 0.042728096 0.9153961 0.18042345 0.59962565 0.19618265 0.129545 0.2272229 0.06512754 0.44512767 0.4681306 -0.13208137 -0.14241317 0.26195693 -0.23825684 0.12919475 -0.7564389 0.33161396 0.77724534 0.16330789 0.32640582 -0.14165676 -0.21280932 0.21189228 -0.33375332 0.52906793 -0.476248 0.17435844 -0.46968 0.25273383 0.66921115 -0.26888734 0.09919722 -0.032103226 -0.97538614 -0.24843413 -0.21491113 0.25141618 0.21290089 -0.5564605 0.3638738 -0.31320763 -0.00092716387 0.13133526 0.86829364 -0.24005221 -1.0772753 0.06318502 -0.47392207 -0.97802377 -0.121982716 0.08087785 -0.60004896 -0.0070415433 -0.28311545 0.6554106 0.7915015 -0.23787563 0.21782124 -0.4915699 -0.29410678 0.340399 -0.3561884 0.3034422 -0.06344008
46 0.6565508 -0.5136752 -0.12587877 -0.022045305 -0.5150128 -0.21517058 -0.23476705 -0.57433224 -1.0020005 -0.46080232 0.6541254 -0.45121887 0.64979917 0.19735561 0.1371761 -0.010198413 -0.057593863 -0.24731106 0.7062978 0.7173375 0.044320792 0.3098525 0.24779645 -0.39217925 -0.26870382 -0.25724122 0.40701577 -0.56429386 -0.025906356 0.06251803 -0.051172923 -0.15279293 -0.11057147 -0.2999184 -0.34236804 0.68473804 0.2614426 -0.6324006 -0.3870624 0.40169334 0.5404559 0.70649177 -0.6545235 0.5582337 -0.085990064 0.277286 -0.20348935 0.3426686 0.2105949 -0.79802084 0.65834564 -0.40692386 -0.6905852 -0.51747847 -0.7984769 -0.5457102 0.15290639 -0.39697576 0.62161183 0.19807678 -0.31481856 -0.13968845 -0.55585575 0.32092577 -0.073443435 0.51023936 0.030603891 0.52866364 0.13666195 0.17978518 0.05225668 -0.0924265 0.1902478 0.5247612 -0.16102424 -0.16736914 0.09930486 0.041881602 0.14524966 -0.603645 0.0040221605 0.6146198 0.21370342 0.39842013 -0.5060898 -0.16930175 0.13025962 -0.42359295 0.37746653 -0.38889942 0.093156435 -0.50371057 0.5732197 0.8423881 -0.1956622 0.029329421 -0.3914027 -0.91294444 -0.3352476 0.38133442 0.4095129 0.6279207 -0.17507005 0.592624 -0.24174866 0.13050158 -0.081635825 0.69940114 -0.15923786 -1.0554495 -0.10457542 -0.40920603 -0.63489574 -0.13050506 -0.31513596 -0.42505804 -0.109132856 -0.43307886 0.72714305 0.52954596 -0.048688844 0.14550312 -0.15334873 -0.072149634 0.6509241 -0.39803645 0.51700884 0.14145367
47 0.679153 -0.59676456 0.22959922 -0.06374416 -0.4735149 -0.27584508 -0.29847527 -0.5066044 -0.98021555 -0.34798768 0.54619116 -0.41044217 0.6423289 0.31323445 0.48040625 -0.3765902 0.118556425 -0.17555921 0.4461559 0.57157034 -0.00442116 -0.02343927 0.14423092 -0.5810008 -0.2408201 -0.19005738 0.21170157 -1.2162379 0.042809628 0.050455783 -0.19845526 -0.069219425 -0.25562268 -0.046792023 -0.20799273 0.95634097 0.50553477 -0.7587729 -0.030897936 0.48414758 0.40031058 0.69435203 -0.8403858 0.7559506 0.05286652 0.45429403 -0.4911052 0.32383224 0.47405794 -1.0589516 0.4069751 -0.6734195 -0.76224524 -0.90868336 -0.8696591 -0.1553611 0.17870173 -0.30980906 0.7332693 0.28766212 -0.4461378 -0.28118527 -0.80647874 0.19183882 -0.27912349 0.7632381 0.24915351 0.86822164 0.19961387 0.27629706 0.18226174 -0.0040406776 0.030045113 0.6832261 -0.040549498 -0.041746598 0.2642116 -0.19412631 0.28777096 -0.84438545 0.13726556 0.653409 0.20994066 0.30709 -0.80419886 -0.29527414 0.27740923 -0.47869772 0.32033703 -0.48694566 0.21036187 -0.6214811 0.80592066 0.76381457 -0.2985682 -0.05602246 -0.2353681 -1.1096069 -0.37933686 0.38922518 0.41442013 0.38057506 -0.2540124 0.8531633 -0.35930943 0.10140859 0.23378925 1.0806683 -0.37086537 -1.2689807 -0.018662754 -0.58387315 -0.99111885 0.18479328 -0.20192419 -0.29057005 -0.32906038 -0.5189825 1.0969298 0.5076698 0.4125719 0.37157476 0.004665205 -0.05854775 0.5824037 -0.38747248 0.679942 0.2905379
48 -0.37812713 -0.32303777 -0.07792054 0.30749366 -0.11805364 -0.46683058 -0.08385134 -0.25060856 -0.3174745 -0.10969072 1.0085733 0.5018593 -0.7750154 0.2593882 -0.41098887 0.13393855 -0.12725899 0.6865365 0.47282943 0.45704886 -0.048200533 -0.10008159 0.15007359 -0.5426919 -0.45724168 -0.34262276 0.13715096 -0.5157866 -0.17073597 -0.29262975 0.29684994 -0.5979767 -0.3346218 -0.27791885 -0.5766447 0.8017846 0.091870435 -0.18530355 -0.38895226 0.22048609 1.0024998 -0.4654791 -1.0087404 0.22555031 -0.06386217 0.69990253 -1.1808165 0.8974609 -0.2634681 -0.5447777 0.34938863 -0.5686752 -0.82196385 -1.2295754 -0.21713808 -0.0016396239 -0.29033938 -0.6548647 0.53048944 0.40299907 -0.36212978 -0.5247427 -0.06445593 -0.0016217538 -0.091213055 -0.44762972 -0.05330127 0.33660144 0.2857392 0.55471426 -0.24107943 0.07778499 -0.4913018 0.5036652 -0.033735678 -0.7840437 -0.055717986 0.25974938 0.30601186 -0.2738493 0.1403148 0.39677995 0.483287 0.23606281 -0.68553174 -0.5270363 0.8108083 0.21236907 -0.16808249 -0.44785047 -0.19686772 -0.4075994 -0.28068456 0.20915417 0.23607215 0.065729484 -0.48916614 -0.72693366 -0.46075973 0.64752316 0.072763786 0.60390794 0.8070953 0.03306892 0.43274832 -0.444069 -0.06367497 0.13067709 -0.14124256 0.07428895 -0.6598639 0.031417925 -0.4481958 -0.069687285 -0.12931988 1.0918905 -0.45761323 -0.706696 0.4600098 -1.0238227 0.64489275 -0.5491762 0.84284306 0.3120174 0.7814331 0.35659403 -0.020984543 0.34926248
49 -0.15040193 -0.34454253 0.3121443 0.02108059 -0.27509734 -0.5449478 -0.23829824 -0.10163936 -0.5146816 -0.032864768 0.98471653 0.27340284 -0.53969777 0.54775214 -0.04728433 -0.22841755 0.01739064 0.521005 0.21321242 0.42884117 0.09304721 -0.4393919 0.24434762 -0.6672844 -0.36807963 -0.17685089 -0.14559545 -1.0364455 -0.1465765 -0.17722337 0.3787069 -0.5839248 -0.42942473 -0.19321582 -0.33576676 0.9035714 0.49673063 -0.30153278 -0.11739067 0.2917669 0.7512033 -0.29285884 -0.99722755 0.43856812 0.13685842 0.91143364 -1.3212154 0.73230076 -0.15566286 -0.93491054 0.23991759 -0.837229 -0.8098507 -1.4278644 -0.318986 0.37445608 -0.21366422 -0.5421744 0.5127193 0.40195757 -0.41236886 -0.56975245 -0.5565708 -0.14851332 -0.17637269 0.05973292 0.25944325 0.6494177 0.24575672 0.53076947 -0.2195206 0.17265768 -0.40699616 0.63727975 -0.06408843 -0.33813664 -0.018392786 -0.00085593254 0.40396553 -0.4217697 0.47131982 0.37163585 0.43686616 0.21393453 -0.7952418 -0.83087313 0.8326323 0.010079872 -0.17349474 -0.37961808 -0.1644563 -0.28938466 0.1626795 0.15733497 -0.03306381 -0.047487203 -0.31498325 -1.0057609 -0.60488975 0.5974173 0.3583205 0.17350806 0.5596731 0.4155644 0.2597918 -0.35180402 0.045673165 0.501328 -0.3899058 -0.50125587 -0.32936078 -0.12511905 -0.6005152 0.2887349 -0.12940525 0.88162345 -0.6080303 -0.70345604 0.99262744 -0.7747765 0.8967377 -0.19360618 0.64410514 0.197134 0.6865753 0.12811248 0.14509122 0.4824067
50 -0.29716042 -0.18885396 -0.1758618 0.026544414 -0.12458882 -0.42516783 -0.22941802 -0.074873276 -0.48186502 -0.22907698 0.9791439 0.06821368 -0.5637368 0.4913326 -0.80750453 0.22657973 -0.40820664 0.6814357 0.68107927 0.47554258 0.05128995 -0.060380146 0.26328015 -0.44433755 -0.4296835 0.086379565 -0.053633027 -0.07971585 0.01859188 -0.06833489 0.7148986 -0.5396397 -0.27283815 -0.38923392 -0.4475332 0.5743002 -0.041784428 -0.20835698 -0.8469273 0.3274996 0.90541375 -0.3281426 -0.8661703 0.38061354 -0.28237998 0.5506241 -0.97207326 0.6930744 -0.55351764 -0.5630716 0.40880015 -0.28727147 -0.8768537 -1.1679286 -0.32536462 -0.39740965 -0.40301943 -0.7527902 0.53534156 0.18698695 -0.24737886 -0.33362266 -0.18471651 0.034361303 -0.28278032 -0.20591992 -0.0014521779 0.48622733 0.102220386 0.4615484 -0.21207911 0.049219303 0.0014759254 0.33456472 -0.070070006 -0.5084415 -0.07058381 0.13731866 -0.10964113 -0.2365238 0.024883999 0.35079783 0.7987898 0.5062457 -0.21990637 -0.96616435 0.9075274 0.30368483 0.17537425 -0.40164223 -0.52854604 -0.3052773 -0.33637968 0.24856287 0.4821549 0.24689652 -0.561023 -1.1391635 -0.6833894 0.9171186 0.82203686 0.90702254 0.9614064 0.011977966 0.30809146 -0.36321613 -0.4693921 0.040650483 -0.5096786 -0.2337634 -0.590985 0.42207512 -0.34863806 -0.07752802 -0.1444209 0.65908146 -0.2838555 -0.85568047 0.4782898 -0.55286634 0.18380773 -0.48747054 0.24310724 0.28976238 0.8996092 -0.011328397 -0.22375444 0.123950645
51 -0.2006742 -0.13803399 0.17589739 0.34706804 -0.14297897 -0.7222061 -0.34540987 0.39856195 -0.21885242 0.08728904 0.62707686 0.2233586 -0.49335653 0.1657532 0.16972925 -0.3930605 0.07072909 0.6002715 0.14261277 0.34447417 0.16535652 -0.7386543 -0.17398714 -0.5171763 -0.36499643 0.28990957 -0.16278781 -0.56326383 -0.05993666 -0.15128471 0.08278357 -0.31791386 -0.2629449 -0.14705616 -0.03852558 0.59984607 0.43340623 0.0839513 0.08589902 0.45278963 0.6714999 -0.42803934 -0.7060007 0.24518116 0.26086313 0.45478013 -1.3339314 0.76694477 0.13845131 -0.59630334 0.552891 -0.7044081 -0.56692785 -1.3266948 -0.16865778 0.038792286 -0.14513847 -0.33981773 -0.15805313 0.48837477 -0.52673614 -0.43547156 -0.17438975 -0.29279757 -0.535601 0.18984707 0.36356243 0.25564522 0.00030426373 0.46872148 -0.17894036 0.26683992 -0.47733527 0.39128742 -0.0453074 -0.09714323 -0.21545902 0.12088068 0.17620744 -0.37188026 0.1930078 0.4077315 0.8221432 0.15891598 -0.51041114 -0.95279205 0.49728242 0.32321107 -0.21855965 -0.24936236 -0.5304827 -0.11328141 -0.22143319 -0.061688162 0.0658877 0.23573019 -0.3964742 -0.48825124 -0.05065924 0.16342372 0.50278705 0.06304463 0.5398571 0.17241785 0.2029688 -0.0791996 0.20998427 0.3173859 -0.5402489 -0.08379279 -0.66689664 -0.08807295 -0.72407657 0.20686191 -0.32705146 0.680331 -0.38057843 -0.74395233 1.2090514 -0.8604806 0.8427409 -0.36790755 0.4371106 0.039064705 0.59624517 0.3834425 -0.2272833 0.49765283
52 -0.12236575 -0.25906977 0.11394138 0.27725792 -0.26166758 -0.43383053 -0.106099054 0.29878932 -0.44253892 0.14601608 1.0353769 0.25136068 -0.55976754 0.34646872 -0.05665557 0.06133356 0.07673044 0.2816051 -0.055717364 0.37750039 0.14992559 -0.40014374 -0.1470656 -0.44934303 -0.4088634 -0.11219416 0.019796334 -0.6850713 -0.22067712 -0.051827308 0.467011 -0.42099294 -0.32281289 -0.16858546 -0.22344354 0.6333689 0.32681233 -0.11887965 0.18034312 0.39251307 0.4504428 -0.34243795 -0.81244314 0.07763858 0.26688147 0.5849647 -1.1234345 0.44150686 0.31822 -0.64404726 0.609952 -0.5947948 -0.64494115 -1.401005 -0.13460846 -0.1399661 0.2601051 -0.58116084 0.08783247 0.46501094 -0.4029571 -0.44797742 -0.5728274 -0.2141861 -0.007948337 0.21781012 0.18404408 0.28705734 0.30550674 0.3442083 -0.24563338 0.30963215 -0.25030768 0.2821502 -0.1931135 -0.42952338 -0.22250272 0.20486823 0.23833068 -0.3170826 0.42455623 0.4350742 0.5439227 0.14007759 -0.42691568 -0.86972255 0.6791497 0.099030554 -0.10460794 -0.24013335 -0.4935698 -0.14221942 -0.437388 -0.1490923 -0.055669703 0.19291829 -0.35410208 -0.72176325 -0.3551833 0.026842514 0.11621867 -0.052434407 0.42344087 0.041228082 0.37517557 -0.3654819 0.066557005 0.19791847 -0.39327985 -0.16361889 -0.40186357 -0.080409676 -0.5389518 -0.050521433 -0.06784455 0.7978463 -0.5937955 -0.72552645 0.70253766 -0.91179055 0.59559655 -0.4256128 0.26996693 0.0008155051 0.48135984 0.29356626 -0.16326869 0.32985252
53 -0.35133824 -0.15565205 0.062454853 0.33512843 -0.06786632 -0.42241463 -0.05203943 0.27231333 -0.5375898 0.1814716 1.0631751 0.32620826 -0.72448754 0.1577236 -0.20280209 0.069753446 -0.2726572 0.58383405 0.16031134 0.35858324 -0.04151675 -0.3875953 0.040970713 -0.32857427 -0.5631517 -0.0542715 -0.34452996 -0.3453775 -0.22841085 -0.05850357 0.3543192 -0.39395976 -0.29570198 -0.087534726 -0.46022314 0.63476974 0.09545742 0.1103811 -0.14485776 0.5119003 0.5886679 -0.51481175 -1.0500193 0.13896288 0.2307202 0.45765018 -1.5544431 0.5681527 -0.08376103 -0.724909 0.732779 -0.778368 -0.9145553 -1.4766026 0.023295313 -0.18582404 0.012365738 -0.6025181 0.2850881 0.5321917 -0.31704175 -0.51162386 -0.14727572 -0.19197367 -0.29940805 -0.018157158 0.3486061 0.26863787 0.068723775 0.5068053 -0.26617336 0.3660521 -0.43597147 0.6437887 -0.15726869 -0.3287835 -0.16242948 0.045366637 0.22126512 -0.5747474 0.5249663 0.4326265 0.90448046 0.43376356 -0.38179752 -1.0541024 0.9303908 0.4789163 -0.051295362 -0.22925235 -0.616063 -0.29122365 -0.5063335 0.006363349 0.24578686 0.13367544 -0.24924053 -0.9789454 0.014070369 0.2548595 0.48251387 0.34136215 0.8552826 0.08605659 0.3880062 -0.2938658 -0.054756656 0.14608464 -0.40206617 0.12879457 -0.75986916 0.09361958 -0.58203876 0.21242255 -0.41057417 0.7929655 -0.2549008 -0.8519002 0.918291 -1.0057975 0.7528151 -0.63113165 0.5711517 0.034854572 0.7578796 0.5068429 -0.49881646 0.15925153
54 -0.4065295 -0.22210807 0.069719546 0.25232002 0.004208937 -0.29568988 -0.02032895 0.061454646 -0.4302542 0.063937984 0.96584564 0.1661243 -0.7343961 0.16878687 -0.32253677 0.07635644 -0.4041791 0.7749243 0.26434338 0.08873814 -0.14858374 -0.245478 -0.033479955 -0.11586984 -0.45442978 -0.24714349 -0.22005987 -0.3129488 -0.20175269 -0.13225201 0.40797734 -0.48235777 -0.4240193 -0.18967664 -0.59298897 0.7655071 -0.047353633 -0.026890818 -0.28192008 0.50613964 0.74162674 -0.44836172 -1.0286568 0.13088189 0.018244019 0.33754185 -1.4271158 0.3835799 -0.51444197 -0.8180636 0.67270136 -0.50593853 -0.8542771 -1.1555262 -0.14368194 -0.39149794 -0.31731334 -0.57009053 0.5172624 0.6664376 0.050830647 -0.50259185 -0.31987762 0.048033867 -0.41665754 -0.28120977 -0.1584592 0.10838644 0.19678015 0.3284509 -0.12737025 0.19308725 -0.4155481 0.5990182 -0.18641399 -0.08823212 -0.15600115 0.2593764 0.10838758 -0.71916264 0.65698814 0.8578063 0.7222439 0.5949744 -0.43952838 -1.1844263 1.0998765 0.654893 -0.1659546 -0.17559676 -0.48449123 -0.29509386 -0.27212882 0.23366064 0.36149842 0.25678018 -0.35273355 -1.0741693 -0.20972137 0.32542142 0.6179357 0.58028257 0.9660267 0.24395908 0.35607335 -0.3611188 -0.29203317 0.2747307 -0.3677482 -0.13326535 -0.92196906 0.106849715 -0.22537333 0.22021611 -0.40879124 0.7320082 -0.25066304 -0.65354836 1.0389215 -1.1016741 0.6506218 -0.5004227 0.65597486 0.004764574 0.65277785 0.28033423 -0.1899349 0.20878541
55 0.62392646 0.012816637 0.4911584 0.2678781 0.1739663 0.59720886 0.44912896 -0.28304926 -0.15856405 -0.050880674 -0.36087772 -0.45089766 0.3266976 -0.24949087 0.105810165 0.26443243 0.372115 -0.44577438 -0.21913218 0.44119197 -0.05094641 0.0062824585 0.102069154 -0.09904633 0.07133157 0.016336503 -0.4770176 -0.5127932 -0.21710308 0.110337906 -0.63418114 -0.08807845 0.05204608 0.2150784 0.121023506 0.16238633 -0.14542171 0.07601669 -0.29816613 0.24326152 0.056179073 0.23423032 -0.013340302 -0.057428226 0.5568334 0.37189257 0.105465315 0.035256643 -0.21197835 -0.22822036 -0.0675946 -0.7135575 -0.09072988 0.27399555 0.16882253 0.45452085 -0.18283015 -0.050308112 0.42799884 0.3064689 0.3016633 0.345113 0.025908036 -0.082082726 -0.024316395 -0.039195888 -0.44354963 0.09684422 0.59387463 0.24041332 -0.113340646 0.14104867 -0.1876244 0.046286825 0.44762167 0.44796288 -0.28756306 -0.2312963 0.26131025 -0.07021618 0.36749724 0.20082003 -0.4376934 -0.12463337 -0.18196519 0.30076763 -0.20064822 -0.06994533 0.035724238 0.19980575 0.44181734 0.30470145 0.3336732 0.3829343 -0.22132948 0.007089756 0.4410669 -0.16404027 0.15552014 -0.032531545 -0.6269017 0.6692704 -0.19290908 0.12649766 0.0065479004 0.12886584 -0.23376654 0.4136875 0.26587147 0.14271745 0.33213517 -0.18703584 -0.44268292 0.27486667 0.036627658 0.03776834 -0.26752976 0.5853136 0.1405682 -0.038477056 -0.16293345 -0.0114447065 0.30598202 0.57522964 -0.00038802272 0.41108024 0.09836381 -0.21639116
56 0.44788972 0.37159482 0.555723 0.23220803 0.4330617 0.51138425 0.23183577 0.054513473 0.1815353 0.04963819 -0.68291086 -0.57141215 0.06655398 -0.101055115 -0.19628045 0.065716214 0.3524989 -0.23984386 -0.1316103 0.762233 0.053798553 -0.22045036 -0.09199481 -0.2932565 0.091215506 0.6479184 -0.82056 -0.2565476 -0.0012983186 0.22811978 -0.5440263 -0.13875996 0.012633458 0.3701892 0.4727376 0.076943636 -0.3112654 0.3679999 -0.7686719 0.35028678 0.27980682 0.23845026 -0.037377693 -0.06139844 0.5341822 0.1622766 0.3004034 0.28470057 -0.18267262 0.13723448 -0.14018303 -0.8538214 0.108669885 0.14379537 0.23435248 0.3379577 -0.31789792 -0.11766389 0.22062714 0.18826216 0.15591235 0.67150337 0.212432 -0.20181948 -0.22414252 -0.012391951 -0.5033604 0.2571935 0.47067577 0.44425035 -0.18038355 0.2354494 -0.22657122 -0.19592592 0.65687317 0.50046855 -0.29246143 -0.34243223 0.08342174 -0.009041227 -0.12087718 -0.09713927 -0.08556058 -0.16311508 -0.011516878 0.37712947 -0.17215599 0.12983151 -0.06448622 -0.20192826 0.2851617 0.54350483 -0.01472324 0.22148582 0.24047558 0.12990764 0.58993006 -0.14027813 0.07041997 0.16417912 -0.42082354 0.86355716 -0.11804043 -0.15014762 0.16111375 0.062411398 -0.4740173 0.25971648 -0.06815961 0.25566775 0.18291304 0.031125601 -0.6955992 0.3730174 0.1540127 0.187828 -0.28081763 0.3659659 0.2676328 0.03996772 -0.26024565 -0.25855598 0.101928815 0.85686845 0.053385828 0.46242166 -0.25035486 -0.2753792
57 0.58494735 0.33483005 0.61219954 0.16717872 0.45784235 0.41642442 0.13652317 0.022747342 0.2164107 0.1555919 -0.80377334 -0.6672229 0.2778468 -0.15458784 0.07562495 -0.071175694 0.33595487 -0.23151287 -0.13237794 0.80973214 0.0050810464 -0.42444944 -0.055433597 -0.33178094 0.18969594 0.7343474 -0.94324934 -0.4843645 0.0069708074 0.17405604 -0.682731 0.02661024 -0.0761813 0.3935461 0.50325066 0.1550075 -0.06349168 0.35825267 -0.64464843 0.37370035 0.21022852 0.26542184 -0.049527787 -0.00014668278 0.6032508 0.14230113 0.22022091 0.28693327 -0.12042926 -0.05254868 -0.18634394 -0.9960879 0.025731457 0.14893046 0.19599657 0.44197834 -0.42233494 0.005630386 0.16487731 0.22248596 0.037371688 0.6360753 0.26934782 -0.1728686 -0.48897845 0.19723336 -0.3814988 0.41291425 0.42225572 0.57317823 -0.08173366 0.23393808 -0.29967123 -0.11427816 0.70254445 0.656869 -0.29569548 -0.5773311 0.14549348 -0.17256875 -0.08003757 -0.07790057 -0.05093765 -0.14924893 -0.27412117 0.35610363 -0.23202704 0.08719144 -0.084200636 -0.1931202 0.3406586 0.3973214 0.2543156 0.2517305 0.15217768 0.18691067 0.58112895 -0.1527576 0.12804048 0.12473805 -0.38906044 0.8595315 -0.16079046 0.02845091 0.047152657 0.18490392 -0.36808002 0.49332318 -0.13690525 0.20700303 0.24417295 -0.23585269 -0.7748456 0.6510676 0.13750425 0.021786196 -0.2751588 0.35465854 0.55036503 0.11680404 -0.14072815 -0.10229784 0.16475199 0.8530168 0.08021538 0.38316107 -0.11404183 -0.15861581
58 0.49885005 0.41795558 0.55655444 0.37842885 0.5306477 0.70288706 0.44628212 -0.13497576 -0.008656707 0.24653578 -0.5969644 -0.56875575 -0.07633273 -0.12857446 -0.11248537 -0.024960736 0.2891322 -0.4178823 -0.14463487 0.71019375 -0.2043785 -0.048793744 -0.19670382 -0.3120734 -0.10008543 0.59609437 -0.8016308 -0.4562757 -0.026379762 0.32443407 -0.6475307 -0.33530346 -0.16610603 0.38774988 0.5030203 0.14711511 -0.39007252 0.3066513 -0.8092798 0.44726703 0.407778 0.419993 -0.25712442 -0.23202907 0.54078865 0.020014962 0.5477564 0.22683388 -0.051846582 0.0781077 0.0406285 -0.7962345 0.03876113 0.24679065 0.15427914 0.19414414 -0.103877604 -0.084079355 0.3679184 0.28626123 0.18658027 0.77821577 0.212417 -0.036115028 -0.094024286 0.09588423 -0.74396384 0.23320879 0.5206799 0.40715262 -0.168233 0.3041983 -0.35607862 0.0041494938 0.56678784 0.34189343 -0.13084057 -0.3379287 0.11871273 -0.30852488 -0.21898939 -0.16735023 -0.13573162 -0.19344652 -0.11759641 0.6833485 -0.123523496 0.058114387 -0.18309565 -0.28215024 0.32526872 0.333964 -0.15669404 0.28033343 0.31572074 0.11980733 0.6481873 -0.03834821 0.14970943 4.199201e-05 -0.72739404 1.0709391 -0.19643767 -0.3248847 0.22879817 0.10393589 -0.6212136 0.2817086 -0.049628746 0.06828842 0.17047116 -0.068994984 -0.6606453 0.17877357 0.17236568 0.10986021 -0.26469156 0.25975206 0.22274539 0.06651035 -0.32366037 -0.37595344 0.18903776 0.9091517 0.01816165 0.50688505 -0.10012455 -0.39857286
59 0.49491978 0.11951629 0.5378164 0.19591309 0.51216674 0.66296244 0.51531446 0.030216925 -0.061677743 0.23140211 -0.40922424 -0.44487274 0.015584178 -0.05695669 -0.1153342 0.2533396 0.42652074 -0.341945 -0.19288401 0.488893 -0.10852294 -0.18895447 0.26132447 -0.2576917 0.13315326 0.0650506 -0.8348067 -0.47579297 -0.197389 0.28606853 -0.55095565 -0.14454305 -0.009956366 0.25285763 0.2064734 0.08513194 -0.009865201 0.2674196 -0.4168434 0.33956677 -0.012544528 0.24972728 -0.07064176 -0.021997932 0.50885665 0.49207553 -0.10555903 0.12600185 -0.027523138 -0.28788617 -3.9055565e-05 -0.65111226 -0.10432892 0.044759575 0.30066782 0.4630475 -0.19329321 -0.2205623 0.41069287 0.41049322 0.15359065 0.19167955 -0.022756977 -0.14612827 -0.045835197 0.10594247 -0.50532055 0.19757004 0.60613483 0.4799199 -0.11777646 0.31793788 -0.20363085 -0.046395954 0.51631564 0.40414274 -0.34459653 -0.48014173 0.33151397 -0.15261586 0.41128907 0.058007777 -0.3529856 -0.13908407 -0.08276609 0.041662935 0.009439189 -0.031770192 0.027843932 0.25644693 0.30045792 0.23405303 0.29398257 0.16496862 -0.18811844 0.19322018 0.44417194 -0.2211586 0.036036402 -0.123482384 -0.5079163 0.68769956 0.03315821 -0.022654189 0.17230073 0.03983268 -0.40894577 0.42177886 -0.060310785 0.16938977 0.2554072 -0.11460102 -0.516118 0.3118991 0.000987005 0.22779843 -0.33178458 0.43101126 0.28432482 -0.15752234 -0.17305239 -0.13215937 0.24054553 0.6363369 0.1843073 0.44430697 -0.14606926 -0.14820108
60 0.62151515 0.23450881 0.62538517 0.3588111 -0.014689384 0.63183326 0.37888554 -0.5626756 -0.12353595 -0.21322443 -0.4022173 -0.5377901 0.41365504 -0.24730787 -0.11575323 0.03203502 0.13626127 -0.3746474 -0.081531465 0.4283749 -0.07730292 0.04539173 -0.13720171 -0.13475595 -0.15207246 0.4256044 -0.4579681 -0.5442719 -0.1175406 0.13426507 -0.5985509 -0.4034475 -0.022527147 0.17642514 0.35953924 0.224178 -0.26456842 0.013595826 -0.76587856 0.3070077 0.46635762 0.302092 -0.1060793 -0.16969645 0.56809366 0.08585108 0.48768917 -0.0104448795 -0.6096872 -0.095070474 -0.10057191 -0.83536696 -0.07872435 0.40452442 -0.07507006 0.4114247 -0.09940592 0.009986191 0.6334787 0.20594689 0.5312248 0.6939438 0.2207186 -0.033043023 -0.0657238 -0.19547553 -0.46959332 0.121597 0.35447186 0.15830746 -0.26386878 -0.0051555764 -0.21020819 0.337757 0.40020323 0.5049797 -0.12227324 -0.11693457 0.09535473 0.021805 0.037777174 0.08839334 -0.21669777 0.0417439 -0.1528796 0.6327876 -0.2442233 0.059337527 -0.123570845 -0.055033818 0.50312585 0.43234962 0.09581453 0.65805507 0.10863041 -0.1179426 0.6017819 -0.2208801 0.10534053 0.24292545 -0.41844875 1.059606 -0.27837956 0.14160265 -0.055480927 0.23764265 -0.5618212 0.28293496 0.32385546 -0.15399693 0.19646193 0.016085563 -0.5232637 0.21564353 0.0295308 -0.05725779 -0.08266016 0.48711768 0.27528885 0.13108335 -0.27177376 -0.14706747 0.3026643 0.7633461 -0.03216845 0.39690274 0.1697784 -0.358958
61 0.51225644 0.45299426 0.888814 0.3326044 0.31563875 0.78175586 0.3976507 -0.0303795 0.08456009 0.046591904 -0.67115843 -0.5630653 -0.013004035 -0.030794973 -0.3373751 -0.11218941 0.31357935 -0.19230373 -0.34720445 0.46556962 -0.022295661 -0.28097397 -0.2673856 -0.2538606 -0.089096785 0.7517704 -0.89823043 -0.5384414 0.035875313 0.28272906 -0.5905487 -0.45059448 -0.029289728 0.43050468 0.60572964 0.028657464 -0.31132692 0.3121649 -0.83407485 0.45069996 0.280664 0.25307405 -0.18311162 -0.08949708 0.63813883 0.13777778 0.34316793 -0.03498196 -0.41132244 -0.118940264 -0.3039278 -0.9503404 -0.06255163 0.13726442 0.19727002 0.622331 -0.11169938 -0.23766294 0.5880921 0.24826454 0.35366267 0.74807817 -0.042505834 -0.31453514 -0.055256717 -0.092619374 -0.56330115 0.29206535 0.54422027 0.259996 -0.33225623 0.21232024 -0.28024793 0.07608798 0.6057178 0.6399072 -0.13154933 -0.36939612 0.17452154 0.045077298 -0.015564645 -0.085482806 -0.2706842 -0.18692416 -0.08992211 0.3751603 0.019638885 0.26176703 -0.2978356 -0.23922007 0.30587247 0.66568565 -0.031757046 0.30209357 0.16172232 0.069450095 0.9507827 -0.41305 0.15640342 0.0792877 -0.28961033 0.9294968 -0.14471205 -0.15158142 0.21714264 0.061943326 -0.58129686 0.2588055 -0.15938239 -0.10598303 0.23790489 0.22700365 -0.9283048 0.21720807 0.11139915 0.40895742 -0.22458275 0.40871933 0.45376405 -0.06651059 -0.2558436 -0.45556977 0.009239132 0.8674264 -0.030343145 0.48182425 -0.29201093 -0.33232558
62 0.39727187 0.38301843 0.6211971 0.33812445 0.49125004 0.57265025 0.36599147 -0.25028133 0.20393553 0.2129415 -0.50469387 -0.41821393 -0.21833214 -0.16872023 -0.24515873 -0.13842958 0.27087197 -0.17294343 -0.063268214 0.5860179 -0.302663 -0.12222232 -0.11611328 -0.3583566 -0.05243294 0.46676993 -0.88754416 -0.53380126 0.045799617 0.24483018 -0.5817304 -0.45909148 -0.14128561 0.33390647 0.51915306 0.24401289 -0.33232614 0.29083732 -0.8125124 0.3260754 0.47677043 0.2087273 -0.31885913 -0.22496106 0.5333445 0.0713318 0.4408715 0.3319596 -0.19557361 0.0635733 -0.14485475 -0.85205454 -0.011417571 0.04507317 0.11051222 0.44077903 -0.13541338 -0.13956307 0.53805 0.3324149 0.15720448 0.7028378 0.26046878 -0.10198369 -0.13378033 -0.13200192 -0.5949501 0.20535277 0.3885902 0.5068213 -0.15279526 0.2841329 -0.38335904 0.13927977 0.6255991 0.16836604 -0.03740065 -0.3728988 0.09308723 -0.14716084 -0.12543295 -0.21213934 -0.008618647 -0.17037733 -0.15287203 0.64983875 0.11781226 0.10433906 -0.22638743 -0.33531052 0.37167343 0.23179229 -0.15204918 0.23236954 0.32957187 0.03332182 0.72715837 -0.12807156 0.17565712 0.049817167 -0.67500377 1.0821606 -0.005383692 -0.28417647 0.2903073 -0.008618836 -0.6157858 0.31889996 -0.032462344 0.11668944 0.015190872 -0.048550986 -0.79307586 0.22749761 0.13436301 0.3656334 -0.22900099 0.22206265 0.2481784 -0.1114104 -0.13187139 -0.43911964 0.4028732 0.9481656 0.19946599 0.5537947 -0.037901744 -0.36577463
63 0.5182638 0.4827301 0.6399894 0.38417277 0.30157077 0.62865543 0.3243787 -0.13935219 0.15236211 0.16055284 -0.65670204 -0.3824966 -0.04066381 -0.16069226 -0.0644556 -0.053263824 0.30108744 -0.28689164 -0.13790728 0.6304534 -0.10146851 -0.23409738 -0.2573189 -0.21550608 -0.07559062 0.6993646 -0.7319339 -0.49053514 -0.083899006 0.31666943 -0.62752914 -0.36385736 -0.1284242 0.3234702 0.56425875 0.08922189 -0.2025382 0.33083513 -0.8630021 0.4235093 0.4817424 0.28972194 -0.1624424 -0.16989648 0.5819885 0.024683267 0.48337966 0.17670849 -0.1066849 0.11709619 -0.11445652 -0.79291123 0.034730278 0.33787745 0.16526689 0.38147688 -0.10816768 -0.045934223 0.36009508 0.17221251 0.26800156 0.7558503 0.22140922 -0.11427003 -0.05980649 -0.072526224 -0.7152652 0.16090132 0.48750564 0.45391363 -0.25748202 0.18369836 -0.36004177 -0.0045827418 0.6097194 0.30669507 -0.2535456 -0.24728625 0.16849469 -0.07448187 -0.25815487 -0.10794236 -0.18749113 -0.22324592 -0.17290704 0.6422545 -0.16414861 0.17972852 -0.28770128 -0.18456376 0.32010093 0.47560906 -0.13943167 0.23579426 0.23345813 0.16188663 0.69318515 0.039192148 0.06892878 0.06434125 -0.62171185 0.923205 -0.15861332 -0.30975783 0.26007167 0.035723157 -0.5257812 0.21701096 -0.021768115 0.12270239 0.18804464 -0.058542 -0.6766758 0.2371633 0.26906517 0.24180417 -0.30487385 0.30536342 0.2673038 -0.05191672 -0.389589 -0.44954026 0.21159555 0.9473683 -0.05483745 0.5531017 -0.1759075 -0.28384596
64 0.64287466 0.048588548 0.41749215 0.3119859 0.27276883 0.60189456 0.5380646 -0.44290128 -0.11562919 -0.07483279 -0.29219165 -0.3262936 0.10219488 -0.25918123 0.016839461 0.29988164 0.44133577 -0.45038733 -0.08412951 0.43977782 -0.08662086 0.2696862 0.22781233 -0.16519183 0.10151209 -0.16934305 -0.39993554 -0.5053845 -0.18422274 0.13212413 -0.70248544 -0.2802263 0.03435032 0.11077967 0.049780007 0.17607334 -0.15141608 0.064662136 -0.3434847 0.115437426 0.13682304 0.32307655 -0.044916175 -0.12425812 0.5085622 0.44571903 0.22126754 0.15188478 -0.082534164 -0.23679689 0.018516934 -0.6013209 0.009454067 0.28231433 0.14832659 0.47884303 -0.14068949 -0.16825218 0.5262828 0.38753217 0.22014916 0.3272 -0.004625967 0.045096453 0.14773247 -0.1908701 -0.61316365 -0.034096 0.6789316 0.24935588 -0.041546706 0.20844829 -0.19027291 0.023015147 0.4323897 0.23612037 -0.28850296 -0.1740513 0.29834974 -0.055185992 0.32571158 0.15624295 -0.5360116 -0.21813278 -0.10288513 0.47216976 -0.1350604 -0.25690743 -0.05995841 0.1806723 0.49319685 0.14320609 0.30880946 0.36542833 -0.26641583 0.03487391 0.41164288 -0.026880557 0.20081331 -0.120196775 -0.77082163 0.68229496 -0.1445881 0.0019405348 0.10215102 0.080407485 -0.3561374 0.37930334 0.32150102 0.101940885 0.33044308 -0.20619704 -0.38262022 0.05568559 -0.05674496 0.15318027 -0.26920038 0.5363291 -0.047520947 -0.09722993 -0.1617154 -0.13382496 0.3558819 0.6058721 0.10517575 0.43898493 0.1712871 -0.19862716
65 0.62531877 0.26988325 0.6102697 0.16924341 0.46635234 0.43460497 0.10543704 -0.015146552 0.20666437 0.054583292 -0.80274606 -0.648122 0.28482366 -0.1859959 0.050525345 -0.045123313 0.32089895 -0.21987207 -0.04369802 0.7550788 0.04460228 -0.35290152 0.011139781 -0.29182693 0.2610295 0.5652544 -0.8627627 -0.48129287 0.043308422 0.15644622 -0.6904717 -0.06998765 0.03105571 0.3442271 0.4174645 0.15186718 -0.05027019 0.2705185 -0.60309607 0.37461117 0.2129242 0.27569014 -0.05748627 0.040566128 0.5915305 0.22052838 0.13593286 0.3201969 -0.13754246 -0.17156462 -0.15115637 -0.9184194 0.03627963 0.13394277 0.14978525 0.41465512 -0.44790503 -0.04983911 0.21877237 0.3277923 0.10807553 0.48331422 0.14348029 -0.14395812 -0.4868365 0.10502283 -0.44684052 0.29548758 0.47731787 0.5052673 -0.077275984 0.1931066 -0.29436338 -0.07855967 0.63057643 0.72334707 -0.28442672 -0.47346586 0.19889922 -0.12849525 0.07052661 0.040662434 -0.14479652 -0.09451772 -0.21735097 0.23596328 -0.17744453 0.054780502 -0.09893865 -0.09515555 0.3695206 0.39001882 0.38818958 0.34344506 0.009930696 0.22599036 0.52145463 -0.20522566 0.11668156 0.125131 -0.3015977 0.8362786 -0.15159787 0.10581097 0.02757968 0.1863765 -0.38862967 0.51879454 -0.08725243 0.11174681 0.20543583 -0.22924148 -0.7040132 0.6248104 0.04674619 0.025568195 -0.29043797 0.4060424 0.63286704 0.028281078 -0.06106018 -0.053645045 0.24872592 0.76749176 0.07346351 0.38546348 -0.07759445 -0.107709885
66 0.6288686 -0.007631012 0.41766244 0.24703473 0.27881643 0.6274046 0.5602862 -0.39158848 -0.18428837 -0.09557684 -0.2773772 -0.4086719 0.16387925 -0.2287749 -0.0035113995 0.3598958 0.35462147 -0.45751405 -0.1251464 0.48609063 -0.08826432 0.25706837 0.23569165 -0.119828254 0.14040993 -0.19787733 -0.4565226 -0.426412 -0.20979014 0.04387408 -0.5659087 -0.2020914 0.066992834 0.15325126 -0.010586333 0.18256243 -0.23219472 0.0403296 -0.29388002 0.12689522 0.03687923 0.24670677 -0.07230461 -0.13304265 0.5436494 0.43306875 0.18259566 0.0890176 -0.16551633 -0.31296647 -0.0035934348 -0.7170098 -0.10778131 0.20984164 0.19777715 0.42279214 -0.1978506 -0.22581676 0.5552583 0.38985336 0.25635085 0.3331215 -0.047835793 0.0018760845 0.10130024 -0.16326 -0.5665137 0.053362146 0.66354734 0.18056898 -0.03775612 0.20387423 -0.13177031 0.051032618 0.45005068 0.3418072 -0.29953772 -0.22642387 0.25229308 -0.05297889 0.39583144 0.18016984 -0.50129825 -0.13033289 -0.13132818 0.37376267 -0.06172296 -0.2338904 0.003924013 0.10445652 0.42380556 0.16476807 0.32073948 0.40100095 -0.26368457 0.04533581 0.45784494 -0.216634 0.24031477 -0.104381345 -0.7267364 0.70114696 -0.1326676 0.0867128 0.086706206 0.06627404 -0.34194225 0.38374898 0.30726084 0.13049412 0.31127295 -0.16095981 -0.37691504 0.15147795 -0.07001563 0.11452786 -0.22317967 0.533176 -0.07363149 -0.14032865 -0.089037135 -0.10084057 0.31897298 0.55184036 0.12866962 0.37790728 0.17558251 -0.2532152
67 0.7269066 0.23679878 0.69810474 0.39638355 0.2995072 0.46688214 0.16514412 -0.04729105 0.22785147 0.06936551 -0.6015873 -0.5090719 0.41454327 -0.3309786 0.13552615 -0.025398102 0.5107742 -0.3842827 -0.06988773 0.82397974 0.0434046 -0.35248417 0.0013475283 -0.3997879 0.113125354 0.60035485 -0.80858463 -0.58784294 -0.006216343 0.3338053 -0.8983692 -0.24116577 0.09231414 0.22512172 0.6589615 0.11774545 0.13671903 0.34697467 -0.5567856 0.41136938 0.31890598 0.42123875 0.050880115 -0.012190613 0.7372737 0.31980208 0.10827685 0.40610835 0.12039539 -0.07429669 0.15628919 -0.9060489 0.17329043 0.10302916 0.054097738 0.46382973 -0.03345903 0.019151296 0.07939663 0.5507615 0.11586566 0.42917946 0.25491494 -0.21187241 -0.36565098 0.18171598 -0.3871883 0.05420429 0.4513521 0.5766744 -0.15614736 0.23319225 -0.31091818 -0.032874707 0.5771566 0.61016643 -0.41113165 -0.32404655 0.24191262 -0.06946447 0.14869533 0.09273284 -0.080296464 -0.16644636 -0.05341576 0.30902702 -0.41615546 0.00028195727 -0.136681 0.13954559 0.36361247 0.5010179 0.14641741 0.38389656 -0.15134157 0.18005137 0.42379108 0.041342497 0.23636541 -0.11177503 -0.53426486 0.84256154 -0.33389822 0.010250717 0.036814634 0.3120772 -0.3859302 0.6207569 0.02719549 0.097816534 0.122195885 -0.2152345 -0.9089017 0.4233579 -0.10222443 0.057332512 -0.28381374 0.4668456 0.83950555 -0.051503006 -0.05696921 -0.14642763 0.25595137 0.8296196 0.15862046 0.6536084 -0.15542503 -0.13632543
