260 128
0 -0.072950184 0.19723049 -0.12704246 0.23574543 0.57974464 0.40363672 0.05782152 -0.2885692 0.22085717 -0.0069726054 0.2600768 -0.09823081 -0.082442656 0.040725715 0.094898984 -0.03302139 0.018522792 -0.047174647 0.011830925 -0.32162416 0.14057356 0.089892484 0.29831013 0.56783986 0.21151835 0.23544545 -0.33574837 0.18527573 0.29999658 0.28201228 -0.12627478 0.28110582 -0.03902535 -0.0658295 0.10743103 0.19805102 -0.1536231 0.2364312 0.15750511 0.35981962 0.18975306 0.0018501568 0.14967033 0.113437496 -0.39781377 0.2498438 -0.13616957 0.22215225 0.5275795 0.27770868 0.3758819 -0.101214424 -0.2884245 -0.14137709 -0.3062053 0.3814994 -0.15192144 -0.07704602 -0.049217515 0.04423948 0.13297357 0.015846562 -0.11321538 -0.42176682 0.029793574 -0.19261004 0.41372883 0.036145598 -0.16149488 -0.017340941 -0.1428625 -0.034252122 0.1972717 -0.3804802 0.013238605 -0.0538022 0.19145346 0.11116709 0.18186858 -0.63537925 -0.24502799 -0.20854943 0.1250499 0.019421164 -0.0035786896 0.075272426 0.37148955 0.40494427 0.1043284 0.58619016 0.10960519 -0.15058687 -0.14365838 0.28010988 0.05444716 0.36651736 -0.032168783 0.06310797 -0.12633981 0.0063910624 -0.20683163 0.10034639 0.4115523 0.12207689 0.07167414 0.20965979 0.16043624 0.19137278 0.33383697 0.3817648 -0.00045811548 0.115516506 0.08983365 0.032453805 -0.12428462 0.27543703 -0.09516699 -0.33507946 0.6846292 0.34707206 0.07363888 0.21142866 -0.19058795 -0.1303742 0.23896581 -0.21253966 -0.41956395 -0.117392756
1 0.08357143 0.26001564 -0.030421387 0.047526747 0.17450497 0.03137169 -0.17894433 -0.19580334 0.45821786 -0.13621324 0.41330165 0.14579026 0.2437939 -0.26363808 0.2140034 0.107952945 -0.0659716 -0.09260056 -0.04937731 -0.21156166 -0.07395509 0.19546384 -0.024610331 0.2441524 0.36428046 0.32857916 -0.2206712 0.2009048 0.36621538 0.0448995 0.26291347 0.057790153 0.06044785 -0.12749943 0.3018127 0.16304344 -0.38959596 0.26599717 0.5418906 0.4074487 0.3658288 0.21034463 0.35326976 -0.17694615 -0.41281766 0.07865477 0.0035652851 0.25707683 0.38239336 0.20897414 0.1458851 -0.17635773 -0.1996357 0.0041883164 -0.24297734 0.29220447 0.1498509 -0.09878515 -0.18256293 0.10712376 0.65469426 -0.13622132 -0.14602841 -0.34229666 -0.13201122 -0.21243174 -0.005323292 0.021257255 -0.19864658 0.11519162 -0.13236244 -0.30645686 0.06447351 -0.15490969 -0.03287674 -0.085549146 -0.24925016 0.062400725 0.035593223 -0.35977387 -0.16282049 -0.22220552 -0.097862825 0.2833326 -0.053151954 -0.23833396 0.09224209 0.20990478 0.12912583 0.4168567 0.40768927 0.22363763 0.25830695 0.3286229 0.048209336 -0.01135867 0.077980846 0.0824889 0.28238583 0.17642617 -0.053517684 -0.14961238 0.256289 0.15619215 0.0783464 0.15699458 -0.04777548 0.14295971 0.19290318 -0.010058375 -0.033161085 0.03267602 0.21569762 0.048109576 -0.20166866 -0.06443554 0.18268521 -0.060737163 0.7814005 -0.015436989 0.05775622 0.33941877 -0.48469806 -0.06889538 0.42586082 -0.13020644 -0.09293249 0.060232736
2 0.011333603 0.40038913 -0.19123161 0.2493332 0.2677595 -0.015410403 -0.07041226 -0.43786463 0.116147 -0.34891164 0.26193404 0.10841424 -0.06826774 -0.15101221 0.013989355 0.1241953 -0.23095363 0.10640702 -0.04962472 -0.106185816 0.093085386 0.11410388 -0.048726138 0.36589906 0.28059757 0.4316771 -0.4113683 -0.15603366 0.43424186 0.12488608 0.20179011 0.09363855 0.13913274 -0.16069213 0.52458405 0.109746 -0.5874486 0.4698168 0.48639593 0.5010872 0.11642952 0.22157243 0.21222278 0.021322278 -0.58988196 0.22379312 -0.09936581 0.34047893 0.5211514 0.09148944 0.17805354 0.033741012 -0.016156957 0.055337265 -0.21254045 0.21059361 0.030788137 -0.20545878 -0.21986103 -0.15401539 0.11220056 -0.06985163 -0.0022324487 -0.7348081 -0.3353428 -0.31247756 0.4126757 0.09849862 -0.0071724136 0.099971615 0.043865614 -0.2422179 -0.19451044 -0.23250255 -0.14651456 -0.09075793 -0.23623097 0.03163814 0.1140462 -0.52737296 -0.24046731 -0.09287176 0.09758076 0.029306334 0.2771275 -0.13467047 0.5367087 0.34032947 0.12358194 0.40534374 0.3984988 0.0705604 -0.1329583 0.29729947 0.052257482 0.07635222 0.029345715 0.0737136 0.2046638 0.28753918 0.15149803 -0.004794785 0.30727604 0.14735071 -0.03854182 0.0967622 0.04776912 0.2998788 0.4509639 -0.19083123 -0.09747822 0.24676268 0.1211435 0.14091326 -0.1927575 0.12635252 0.006857732 -0.33068508 0.84143573 0.25214505 0.12479775 0.27814043 -0.44126275 -0.008635562 0.0978186 -0.027503794 -0.26018232 0.019037576
3 -0.0718397 -0.1475892 0.1706148 0.14548719 0.28992817 0.03937319 0.031043159 0.25630495 0.02492595 -0.07929227 0.41283086 0.29623225 -0.19832236 -0.17405432 -0.09539136 0.022922365 -0.18170357 0.059776474 0.15855148 0.15737455 0.2604009 -0.0198248 -0.066337794 0.031208932 0.14557275 0.30472553 -0.29038152 0.43815693 -0.04294845 0.37044778 -0.010546853 0.01159001 -0.09079059 0.061246198 0.38738635 -0.0024298367 0.21545303 0.13492352 -0.024909416 0.08277473 0.030775983 0.18462254 0.2765847 0.1643489 0.03353537 -0.050423484 -0.15986966 0.3765109 0.18024562 0.1616498 -0.26502666 -0.17978987 0.081525534 0.06499972 -0.5540627 -0.08849476 0.13553818 -0.260815 -0.09193816 0.23492432 -0.006835479 0.22820014 0.28797844 -0.050375354 -0.04885436 -0.18035871 -0.13428596 0.08032727 0.093054004 0.19685477 -0.06872371 -0.32873327 -0.21199025 -0.3175843 -0.046436083 -0.120642774 -0.012902956 -0.014984835 0.015388015 -0.056472152 0.12320818 0.035782702 -0.07317281 0.25116685 -0.18016493 0.068691306 0.1834466 -0.5493224 0.19887613 0.38106698 -0.16794798 0.08002661 0.1793632 0.05486767 0.13632536 -0.114496365 -0.49246323 0.15875341 0.2634151 0.046740063 0.1541965 0.15841529 -0.19651921 0.07680679 -0.122316845 -0.15288219 0.37080592 0.20689833 0.18038426 0.10291671 -0.055861194 -0.3934552 -0.10239476 0.25879323 -0.27094102 0.39454657 -0.11523518 -0.08231896 0.07238777 0.03216023 -0.092958294 0.3594383 -0.24584138 -0.023936208 0.42957294 -0.17388186 -0.018295795 -0.24944039
4 0.041587394 -0.2551813 0.3408224 0.16525781 0.045584504 0.07160396 -0.07581554 0.24275999 0.2301024 0.17785835 0.4335204 0.47031695 -0.30016738 -0.118485965 -0.1674941 0.29424414 -0.17746383 0.0012140921 0.2522023 -0.008542708 0.08562836 -0.06529784 -0.10102882 0.041886788 0.06094034 0.5399913 -0.36069748 0.46021578 -0.2187544 0.446536 0.13553563 -0.0917217 -0.08964368 0.05976918 0.11002937 -0.05010265 0.34963912 0.24472319 -0.034993112 0.035333004 0.049778063 0.29991317 -0.039660573 0.27819893 0.09637777 -0.17657286 -0.30482438 0.2600349 0.25099748 0.32165703 -0.19508395 0.12764095 0.026976712 -0.06883727 -0.53055906 -0.07447152 -0.005663751 -0.30695593 -0.14161138 0.10701139 -0.01542068 0.22467211 0.40396875 0.15148965 -0.09629957 -0.1583785 -0.11697206 0.06867925 0.058340814 0.36347649 -0.14424784 -0.3539937 -0.21256648 -0.36929166 -0.21608311 -0.22859906 0.1334121 -0.0680611 -0.037172094 -0.09071315 0.14026092 -0.03072531 -0.13440335 0.17107949 0.040093504 0.06977023 0.19892903 -0.4912072 -0.07604522 0.47885323 -0.19390045 0.049592033 0.16151036 0.07949877 -0.04908721 -0.13759193 -0.620442 0.2674523 0.27268106 -0.056456953 0.09539264 0.116089076 -0.20513664 -0.03153794 -0.0145251155 -0.06846968 0.41259181 0.202596 0.26399124 0.045119774 -0.23376623 -0.5573586 -0.0067016995 0.29596648 -0.16610558 0.3139051 -0.24745244 0.05663116 0.118076496 0.14140141 -0.07759421 0.44849372 -0.036106277 -0.20622323 0.44074744 -0.2516241 -0.28343794 -0.09523973
5 0.04792857 -0.22846314 0.11774525 0.1464132 0.10486681 0.18837285 -0.082218386 0.43615022 0.2328121 0.1681084 0.6408398 0.29305068 -0.42398074 0.00026990304 0.001188873 -0.04138892 -0.19855237 -0.00024136408 0.38882753 -0.03873601 0.12308271 0.013360635 -0.21880974 0.07708319 0.039438084 0.3231478 -0.46445704 0.5009671 -0.19813399 0.361857 -0.09524681 -0.04455715 0.0489253 0.16099319 0.15593523 -0.30744955 0.085599236 0.2475088 -0.09931411 0.10126093 0.06915336 0.31166458 0.24841072 0.34412062 0.16358206 -0.19951443 -0.1598488 0.3815668 -0.029219614 0.37189987 -0.044867 -0.13370544 -0.11151188 -0.15563561 -0.63959014 -0.01833874 0.15007105 -0.2799577 -0.25121847 0.11800406 0.083752096 0.17878684 0.45923868 0.16943307 -0.20865196 -0.24627136 -0.19321541 0.22482249 0.05501595 0.11756857 -0.12591696 -0.2007508 -0.11507723 -0.16444488 -0.24984103 -0.04307025 0.23486799 -0.09848641 -0.11247353 0.00697405 0.15703964 -0.05124797 0.1829124 0.22832735 0.06423491 0.12631707 0.35908118 -0.56741494 0.10657122 0.4327665 -0.39280275 -0.15278815 -0.006961014 0.28555828 -0.039763585 0.0118508 -0.5682285 0.121577084 0.14481422 -0.09582847 -0.043847047 0.35167912 -0.30327696 -0.121718846 0.07193235 0.003116885 0.25606462 0.17904334 0.374317 -0.0292791 -0.011116132 -0.5167388 -0.19333665 0.29630193 -0.18936346 0.26929227 -0.08553445 -0.11228817 0.19804804 0.15071699 -0.22585611 0.5096035 -0.31205076 -0.16775808 0.47106376 -0.21408305 -0.287131 -0.1373843
6 -0.09312487 -0.010982497 0.1758667 0.14778231 0.052971214 0.105769716 0.0108416295 0.3538787 0.15412934 0.13049085 0.45126158 0.17365403 -0.22346215 -0.12618646 -0.107332155 0.0057686856 -0.18301326 0.071966864 0.23411717 0.059652273 0.03216026 -0.0708883 -0.060085315 0.06927287 0.062513806 0.25217938 -0.41341835 0.5176868 0.0022557012 0.4267791 0.056940537 0.030723304 -0.2810798 0.024708845 0.3176493 -0.3084603 0.35234421 0.27138814 -0.025390677 0.12614255 -0.14250214 0.33400458 0.28865674 0.30097878 -0.032976996 -0.059469372 -0.31483126 0.3621164 0.20586869 0.4594417 -0.062256046 0.063431494 0.049324565 0.09306572 -0.49631786 -0.0877303 0.097076915 -0.35653663 -0.1395408 0.12032473 0.16752562 0.20572753 0.268642 0.008990291 -0.16224435 -0.27201656 -0.23486811 -0.011157223 0.2072415 0.11005309 0.13452804 -0.41623655 -0.027064165 -0.13759984 -0.020839226 -0.1606947 0.10029942 0.050762653 0.013589873 -0.14149864 -0.002711662 -0.14101154 0.0552364 0.35642138 -0.0062594395 -0.10335674 0.020683708 -0.32570288 -0.083008744 0.26879418 -0.19244772 0.10120336 0.14735422 0.1969253 -0.107329346 0.065316334 -0.53912646 0.21609701 0.27150992 -0.05106136 0.105884306 0.2454776 -0.40206507 -0.09540469 -0.09669115 -0.07936842 0.34090403 0.35680506 0.4063822 -0.15433566 0.0034677766 -0.30751458 0.08312133 0.3620754 -0.2799333 0.29500052 0.020855462 -0.15189469 0.23411338 0.02914613 -0.046900053 0.47100043 -0.28633928 -0.090975665 0.3011918 -0.32219455 -0.09437922 -0.21149461
7 0.18425736 -0.19075695 0.26739803 0.20296489 0.081258126 0.09599852 -0.026966376 0.28304014 0.09121509 -0.024690207 0.25236946 0.25444055 -0.15717241 -0.061858553 -0.14007713 0.00089401787 -0.32611814 -0.013493236 0.4111392 -0.024402091 0.32907605 0.19467245 -0.11347149 0.10694368 0.05583638 0.33959708 -0.31727305 0.29254508 -0.09552025 0.2778995 -0.11380668 0.04559495 -0.099224776 0.058515422 0.35597688 -0.04474245 0.23225214 0.053531 -0.24204318 0.11832384 -0.04408408 0.32769156 0.27878073 0.032185473 0.1970079 -0.20599821 -0.12855804 0.3813405 -0.06591814 0.27166978 -0.33612522 0.01591078 -0.08381102 -0.15628979 -0.38952556 -0.25668496 -0.00569804 -0.31800812 -0.2390828 -0.048586246 0.06743974 0.0019026598 0.21761172 0.107522584 -0.090883955 -0.39701036 -0.22936675 -0.06243604 0.2747809 0.349867 -0.25416583 -0.28845918 -0.26029682 -0.33352977 0.03901384 -0.28318712 0.28293926 0.049608395 -0.13074732 -0.08696297 0.2112683 0.028489215 -0.07815768 0.108180314 0.05904906 -0.05763863 0.14214589 -0.5065329 0.13556165 0.39380622 -0.21992229 0.08638905 0.014435742 0.16703512 0.23254213 -0.16129293 -0.3962619 0.25456694 0.185279 0.016639026 -0.019391207 0.19019985 -0.13016355 0.21468416 -0.2116322 -0.14940715 0.31128564 0.09265222 0.28761685 0.18192776 -0.08576818 -0.42325044 0.03532328 0.29473037 -0.04642475 0.19594136 -0.031699933 0.1572861 0.08417017 0.10597532 -0.015016518 0.21744666 -0.044935636 -0.019685 0.49292633 -0.4541606 -0.3202486 -0.130893
8 0.030898543 -0.20492795 0.36532262 0.25028577 -0.051556174 0.09624067 -0.10202882 0.39526767 0.18072583 0.15412845 0.59867096 0.40569422 -0.23134452 -0.1574702 -0.07397593 -0.11636554 -0.23200738 0.048536383 0.3135698 0.07427617 0.04772693 -0.18309243 0.0734829 0.11796 0.27180386 0.324746 -0.45290244 0.31598353 0.07336759 0.37910295 0.045995377 -0.22330752 -0.33835205 0.28624168 0.18267626 -0.3021173 0.10131961 0.23693497 -0.36444813 0.017855732 0.053240255 0.4925065 0.10004284 0.21426155 0.15411 -0.2207733 -0.31066042 0.31181112 0.11744692 0.2855607 -0.17738682 0.12037972 0.08168998 0.021280985 -0.6526209 0.009427671 0.16223732 -0.06412056 -0.18151142 0.13025112 -0.14343396 0.22112846 0.3968802 0.097091965 -0.3385073 -0.18188173 -0.16772436 0.11145253 0.15803693 0.27848056 -0.115556486 -0.26734704 -0.050717186 -0.08846165 -0.23762347 -0.021925729 0.26073053 -0.12849446 -0.046010774 -0.063454285 0.03999395 -0.126623 0.0727832 0.33389717 -0.060134504 0.11423518 0.02237397 -0.469151 0.26889622 0.30165133 -0.48548847 -0.031239167 -0.08673262 0.1433864 0.054687783 -0.107450284 -0.47777733 0.059383426 0.10053864 -0.17744392 0.29489288 0.1559119 -0.19793808 -0.13981813 -0.1639444 -0.04018607 0.36195877 0.102008544 0.42175528 0.029875573 0.08092018 -0.41038817 0.0924687 0.41843373 -0.32832855 0.21653864 -0.14192188 0.027525688 0.097942375 0.15044664 -0.16589475 0.51509243 -0.07421058 -0.15710776 0.34474063 -0.36099353 -0.21405461 0.028588725
9 0.053949796 -0.14758898 0.1514866 0.19027218 -0.04170032 0.175562 0.07156337 0.2332854 0.22185507 0.2118914 0.49854007 0.32329133 -0.35757414 -0.019512767 -0.16473526 0.022144515 -0.06270599 -0.1241822 0.29173368 -0.052504063 0.20275941 0.08551172 -0.29463896 0.16644706 0.029871212 0.32616702 -0.35091704 0.44477433 -0.11268385 0.37903696 -0.07603814 -0.08770256 -0.23969385 -0.06912806 0.26194337 -0.13824764 0.11289956 0.20722215 -0.177934 0.17583503 0.17196141 0.42065334 0.3166893 -0.01726833 0.18802588 0.01556791 -0.42796877 0.16651718 0.12885796 0.28252986 -0.07412074 0.22050208 -0.09426277 0.006585686 -0.5545624 -0.14031915 0.16311061 -0.3886203 -0.1598923 0.079950504 0.00060246 0.12304468 0.3230779 0.07061025 -0.3250011 -0.32147712 -0.096651845 0.19506352 0.22961435 0.1559975 -0.1704008 -0.30592096 -0.029762577 -0.20696136 -0.21904004 -0.19796044 0.19174786 0.064279854 0.022767672 -0.12284159 0.10788068 0.037289668 0.15234534 0.22014241 0.08969629 0.09634612 0.18160044 -0.4094376 -0.08150863 0.4543505 -0.5226717 0.031938724 -0.013586634 0.19290602 0.0005721643 -0.09567451 -0.56307274 0.07914978 0.103261136 -0.14492573 0.10450612 0.2650064 -0.23724467 -0.07662342 -0.013202296 0.019451598 0.18837744 0.010603548 0.35789448 0.11733108 -0.059757035 -0.49208787 -0.08843234 0.39189714 -0.28957677 0.34997028 -0.15638122 0.15906033 0.187103 0.07097812 0.012730586 0.3919291 -0.2172423 -0.11677433 0.637728 -0.34287417 -0.289068 -0.18308167
10 -0.061801005 -0.0017797935 0.22550271 0.2515727 0.105468005 0.18049318 0.18610477 0.48106667 0.17855169 0.113359466 0.4982864 0.45005342 -0.19422382 -0.025233341 -0.038659815 0.027452648 -0.10727155 0.22501522 0.21757132 0.1490368 -0.008917437 -0.11799675 -0.14537838 0.21740282 0.06261901 0.2035267 -0.26060188 0.5117347 0.03643141 0.25725836 -0.07725805 -0.18717213 -0.10920454 -0.012358031 0.28110304 -0.16254526 0.057129934 0.05557526 0.0028704426 0.22132643 0.121061295 0.27168977 0.3142578 0.03897954 -0.0008613296 -0.039665055 -0.1358743 0.36916104 0.28529543 0.39952493 -0.26537123 0.041009486 0.07263452 0.11688812 -0.46573687 -0.18865223 0.37569988 -0.35459673 -0.11870909 0.058946993 -0.021162892 0.19448458 0.22847115 0.032610882 -0.42327634 -0.122159034 -0.20656066 0.04587088 0.05574384 0.15505157 0.03096714 -0.3678422 -0.16328914 -0.23196769 -0.21452768 -0.15287592 0.12875573 0.026545126 0.025066227 0.10204339 0.06587231 -0.010545533 -0.0446938 0.35180503 -0.08363734 -0.12478147 0.27670026 -0.29715317 0.13624306 0.2915623 -0.35476094 0.057741486 0.12671843 0.16701284 0.0022733053 0.07050648 -0.53270894 0.15981236 0.20939882 -0.0031518172 0.048331566 0.044493143 -0.32729107 -0.06471768 -0.024752451 0.022957813 0.3400026 0.31666884 0.3453574 -0.2641614 -0.1456154 -0.44404033 -0.10568183 0.21159226 -0.42282414 0.38760722 -0.1649699 -0.10651273 0.31032273 0.03236964 -0.09225708 0.31206545 -0.36618346 -0.08236167 0.34836343 -0.25068456 -0.09921375 -0.21846211
11 0.06877382 -0.30019957 0.15592699 0.09536543 -0.039582334 0.16710578 0.029278774 0.3830589 0.23704965 0.24401699 0.4369377 0.2757029 -0.13306275 -0.22904864 -0.018262615 0.20631269 -0.06182339 -0.15596308 0.33351848 -0.04270579 0.19561991 -0.09670697 -0.2850922 0.12661311 0.07903454 0.24322173 -0.4267569 0.4675093 0.15422465 0.31839553 -0.037478965 -0.14971314 -0.08882842 -0.017825454 0.29645646 -0.2509161 0.17246962 0.17277752 -0.19323888 0.14742848 -0.041637026 0.29535404 0.12370843 0.13615876 0.24208468 -0.0823934 -0.35046056 0.1666694 -0.026957178 0.479734 -0.21942027 0.007202381 0.061748575 0.0024118796 -0.47169262 0.07329884 0.033942983 -0.257421 -0.23875973 0.15935491 0.007551649 0.13459224 0.2527416 0.1084669 0.010026926 -0.3711195 -0.18864171 0.094033435 0.03105221 0.29134956 -0.03413607 -0.26631358 -0.23496923 -0.27364796 -0.26476902 -0.07687543 0.37564084 -0.10428338 0.10906776 -0.05678714 0.14743562 0.009247751 -0.07335862 0.21942781 0.040826492 0.06724996 0.22896734 -0.50722927 0.07546544 0.4363438 -0.42267698 0.15275575 0.07317043 0.08648652 -0.09751107 -0.0104770465 -0.5744475 0.3639112 0.21644299 -0.102513835 -0.044192396 0.29311618 -0.32253358 -0.116719544 -0.031264197 -0.15935007 0.30781162 0.21617533 0.52225834 -0.1254841 -0.07942359 -0.42566636 0.042698335 0.38039398 -0.12734619 0.07933635 -0.0028470685 0.04459 0.09573044 0.21335486 -0.1415182 0.38830248 -0.14438848 -0.008142276 0.59411144 -0.18017659 -0.21447234 -0.19105704
12 -0.023564057 -0.19958091 0.36921588 0.35741016 0.12354498 -0.014491274 0.14035971 0.36729574 0.077319965 0.09793002 0.35648313 0.4514534 -0.30974087 -0.2814346 -0.22785398 0.028610274 -0.09155074 -0.033761207 0.35011724 0.15122674 0.1548155 -0.12789187 -0.2441475 0.10290156 0.075544 0.3404188 -0.33779144 0.41036275 -0.052864123 0.32440844 0.059857387 -0.117165744 -0.14462116 0.018055232 0.44509134 -0.1763745 0.27837402 0.30184644 -0.2658692 0.076937996 0.13676293 0.3707479 0.23692238 0.24108097 -0.023490295 -0.054059237 -0.5371424 0.2551933 0.112939715 0.37134928 -0.07614568 0.14819625 0.04668349 0.01152007 -0.5038272 -0.1430697 0.0100639565 -0.4128802 -0.17893404 0.18983723 -0.023764554 0.08277176 0.21652646 -0.045480758 -0.30955565 -0.30979294 -0.16166867 0.09985771 0.12448894 0.28504977 -0.07594385 -0.40496433 -0.19369896 -0.19627579 -0.0482314 -0.16343118 0.12877522 0.026127076 0.10551708 -0.041215003 0.22122781 -0.07831439 0.033680454 0.2872767 -0.07174598 0.11278232 0.0864934 -0.5631908 0.04660562 0.1874125 -0.30317453 0.19554535 -0.040237095 0.38752118 0.036737792 -0.22418487 -0.61757725 0.28406692 0.09266317 -0.14506002 0.082399726 0.1554077 -0.21150689 -0.12670855 -0.08779013 -0.022262543 0.11742709 0.26724494 0.3285508 0.058130555 -0.3361609 -0.446828 -0.103321895 0.29326916 -0.22838071 0.21153015 -0.07797345 -0.01424159 0.064029664 0.15556127 -0.0367723 0.30134895 -0.092690006 -0.16872914 0.4696432 -0.29424343 -0.38923368 0.0074536465
13 0.10489192 -0.3001062 0.15964456 0.2326699 0.20865656 0.11262603 0.09135169 0.3523134 0.3878489 0.14744323 0.4824465 0.43635362 -0.06745355 -0.06735681 -0.21295783 0.15253411 -0.103605404 -0.03930883 0.30870342 -0.013824987 0.14621878 -0.17585209 -0.11557718 -0.0011862348 0.06701211 0.33424172 -0.42277074 0.47573242 0.026953647 0.26058304 0.047124587 0.045139622 -0.045270495 0.0063707996 0.1725142 -0.23521772 0.22783618 0.064786404 -0.34034345 0.122229636 0.05029081 0.32673928 0.18947743 0.2344049 0.092766955 -0.13710925 -0.34204838 0.27053323 0.3513115 0.31913805 -0.32595053 0.07901739 0.022219164 -0.119210534 -0.55243504 -0.1847411 0.103424564 -0.1813341 -0.11831926 0.03526343 -0.031687245 2.2074664e-05 0.22779018 0.34760177 -0.47075313 -0.28863513 -0.25977576 -0.058077794 0.22618426 0.19000435 -0.16940354 -0.33146957 -0.28675187 -0.15073293 -0.2719345 -0.045431495 0.29613218 0.10706315 0.0851056 -0.09504511 0.1523622 -0.041685168 -0.0382349 0.39078957 0.08826913 -0.03380739 0.23142102 -0.53363276 -0.21955466 0.27856025 -0.44735122 0.22639516 -0.0014085777 0.20980927 0.043128476 -0.0018649438 -0.5566574 0.31019643 0.13104255 -0.009197065 0.021800183 0.20568545 -0.28543967 -0.021355942 -0.0041569243 0.0065355254 0.385214 0.0809948 0.27250615 0.054516237 -0.24353619 -0.2847061 -0.16972128 0.3554863 -0.1721901 0.25914884 -0.029327694 -0.00957549 0.09535237 0.1331304 -0.10593232 0.44911283 -0.10103209 -0.065538555 0.41165885 -0.2213693 -0.5017972 0.00011028409
14 0.2651897 -0.10328582 0.1772306 0.15724859 -0.07792201 0.202375 0.085945345 0.33200887 0.1607122 0.14573626 0.5382426 0.28628862 -0.20399608 -0.06659753 -0.13822845 0.094158694 -0.26481175 -0.13208462 0.32395878 -0.11734873 0.27939 -0.07962357 -0.11779006 0.18591367 0.044614386 0.2968588 -0.41550985 0.47511742 -0.11504848 0.3407915 -0.05912507 -0.028031383 -0.33393973 0.05887092 0.2701691 0.00071295095 0.10600011 0.20602967 -0.097454526 0.057498176 -0.021935554 0.32519665 0.25286537 0.20656139 0.041143667 -0.10076107 -0.19974774 0.18303299 0.013237898 0.4515063 -0.03145294 0.100462854 0.09654116 -0.138732 -0.6212725 -0.10950387 0.16590393 -0.20318225 -0.16582419 0.16339079 -0.20949624 0.076805495 0.34598404 0.065152995 -0.18647873 -0.40961686 -0.312464 0.061974462 0.31913266 0.21266562 -0.1926692 -0.42230198 -0.31815547 -0.26918396 -0.17359518 -0.12601158 0.29341233 0.03382513 -0.06495396 -0.09697358 0.08067632 -0.06956897 0.055807773 0.25013947 0.059144516 -0.18849865 0.2017409 -0.5467033 0.08413035 0.23342249 -0.23025413 -0.070900045 0.041590113 0.22886366 0.17729838 0.16985913 -0.41783 0.3204393 0.22970359 -0.07935731 0.02431138 0.092164055 -0.2803564 0.08313688 -0.08448882 -0.058263756 0.23809764 0.10723222 0.4977643 0.052529555 -0.20871592 -0.42584905 -0.20587052 0.34009406 -0.29820886 0.36152267 -0.00121379 0.06476274 0.1537576 0.1918909 -0.16072856 0.45854643 -0.03809188 -0.07624636 0.35761067 -0.56700057 -0.25337628 -0.0044781966
15 0.22828789 0.026415031 0.041903324 0.1780445 0.12852946 0.104634956 0.14709397 0.2719878 0.08764561 0.07328772 0.3738514 0.20827189 -0.08967549 -0.10268016 -0.22225788 0.103866495 -0.18516128 0.0061282334 0.2705132 -0.025828728 0.099667795 -0.033131484 0.088334166 0.045343544 0.25103742 0.28999025 -0.33054036 0.3774127 0.008288769 0.41193223 -0.15629366 -0.070859805 -0.106267445 -0.032613166 0.34966967 0.031695 0.08936423 0.12746504 -0.08937422 0.05486854 -0.08830506 0.13313143 0.20800592 0.1483217 0.047282834 -0.2359664 -0.07623355 0.42230368 0.21666525 0.1652962 -0.1399021 0.0442693 0.11076275 0.1491917 -0.5623769 -0.25041932 0.15647784 -0.3057106 -0.10056313 0.10578793 -0.032071345 0.07692038 0.16329914 -0.0750435 -0.076756574 -0.24836177 -0.22798622 0.09743424 0.32560343 0.25265738 -0.12732664 -0.2998744 -0.32958096 -0.18612906 0.038796753 0.023034204 0.22723608 -0.0031574753 -0.09849281 -0.098183826 0.0898731 0.029950054 0.11574217 0.2547339 -0.028039157 -0.066242106 0.16375549 -0.37809998 0.19465075 0.36918855 -0.23329766 0.08703915 0.08778148 0.27912194 0.24626271 -0.060469825 -0.4351688 0.05381395 0.24941845 -0.019496618 0.06176844 -0.008675138 -0.25051525 0.12336286 -0.1342381 -0.058414172 0.31454372 0.23764075 0.37902054 -0.14637923 -0.0012150137 -0.18146352 0.078408174 0.2959271 -0.26542333 0.38494006 -0.080070436 -0.041503288 0.22416764 0.2495937 -0.22775008 0.4057767 -0.21782623 0.038707264 0.37518582 -0.28779674 0.007117447 -0.22538982
16 0.040485483 -0.15637128 0.19629887 0.18633626 0.048753694 0.20109221 -0.03355997 0.15208359 0.088854946 0.052910894 0.28824958 0.17944878 -0.10159789 -0.020796182 -0.19236349 0.06608517 -0.24339074 -0.06289612 0.19262233 -0.035623126 0.09136946 -0.08131309 0.011966083 0.08708948 0.32717532 0.2794157 -0.29114634 0.4937095 0.0547782 0.22240496 0.011235765 0.06066091 -0.03307846 0.09713196 0.36784765 -0.0937611 0.17987202 0.24046837 -0.10122189 -0.1284301 -0.058860227 0.19962484 0.31129006 0.14383979 0.03019413 0.0030138108 -0.1805881 0.22015771 0.14279515 0.19423628 -0.24281311 -0.02639407 0.1623126 -0.09833692 -0.4973921 -0.1706155 0.09708104 -0.20229617 0.07617465 0.16349146 0.07301882 0.0710113 0.32893527 0.024500776 -0.21304238 -0.287404 -0.1759982 -0.040689472 0.1892511 0.25194207 -0.28002656 -0.37762412 -0.26345232 -0.27939165 0.12593617 -0.17265172 0.17828934 -0.08428394 -0.025596298 -0.16046001 0.10308593 -0.12709308 -0.11206093 0.31833714 0.0044394624 -0.06498513 0.102561414 -0.3874986 0.09374823 0.27796978 -0.222568 0.24284849 0.14892383 0.23294623 0.13046347 0.0021952651 -0.5262487 0.11779743 0.1240066 -0.1441031 0.123615645 0.1484866 -0.3177571 0.045954075 0.04090353 -0.059770722 0.36575866 0.20085649 0.10546409 0.010071751 -0.017531194 -0.38230053 0.028852856 0.004437753 -0.29848054 0.33133504 -0.14000161 -0.07586213 0.20809364 0.07828269 -0.053606577 0.35810208 -0.32903174 -0.012650881 0.23652263 -0.27194992 -0.1520028 -0.2521591
17 0.13284343 -0.32912523 0.13191377 0.17099059 0.2403296 0.09930003 0.40721634 0.25425288 0.29951906 0.16983046 0.3025379 0.36397704 -0.09774565 -0.08227372 -0.20467699 -0.013781096 -0.050380707 -0.21341647 0.394397 -0.004655774 0.08676457 -0.034612548 -0.17384751 0.28033796 0.12703359 0.14262736 -0.4556898 0.30669776 0.13762659 0.41962683 -0.09512265 -0.08327154 -0.17511003 0.06630629 0.32097793 -0.1780176 0.1354873 0.1410953 -0.32828897 0.05100174 0.17338896 0.32332438 0.16715597 0.12962435 0.1379667 -0.019234478 -0.34750485 0.1480277 0.022121834 0.29510632 -0.008097893 0.19303212 0.18873402 -0.0796652 -0.41133377 0.044714045 0.12117313 -0.32984045 -0.23908816 0.09645215 -0.022343365 0.115343824 0.07353231 0.13772915 -0.3619278 -0.322468 -0.07746204 0.2558523 0.15864114 0.27748477 -0.16081378 -0.3313147 -0.20936485 -0.2132949 -0.29706603 -0.17808923 0.34483775 -0.17085432 -0.11175001 -0.14534537 0.22098243 0.098548375 0.047747817 0.15469179 0.12371546 0.085080884 0.3237075 -0.51527584 0.06923319 0.32888955 -0.32893324 0.12476717 0.04226156 0.3277297 0.069892384 0.035363756 -0.62366176 0.16391449 0.021973012 -0.06523144 -0.10544683 0.30194896 -0.2700872 -0.031559847 0.08635064 0.13150987 0.038976222 0.23152842 0.41974398 0.15337554 0.012546773 -0.40539753 0.063874245 0.22313462 -0.08176339 0.39922115 -0.29505986 0.11769022 0.22506893 0.09478478 -0.16915865 0.5764571 -0.043087512 -0.23100857 0.41047227 -0.3188114 -0.1929905 -0.25866506
18 -0.017620461 -0.2130755 0.28146362 0.2532785 -0.040861983 0.13522708 -0.020994836 0.3010884 0.22302149 0.030003335 0.461612 0.35772416 -0.240991 -0.16161102 -0.13207372 -0.052393217 -0.10388095 0.00452724 0.14481658 -0.006494524 0.31852803 0.16127272 -0.05636865 0.22868933 0.2482439 0.37973887 -0.22136217 0.56016326 0.20346493 0.27832845 -0.17820767 -0.16876645 -0.22772813 0.10737596 0.22634347 -0.30449116 0.22638126 0.15766008 -0.12148924 0.11928109 0.14014725 0.33530647 0.18053415 0.20563854 0.13596418 -0.15647271 -0.31085372 0.013532109 0.28034887 0.31007338 0.003325087 -0.07611806 -0.0014615761 -0.035496935 -0.5153232 -0.08623236 0.106413454 -0.1685511 -0.19176245 0.11393254 0.021831626 0.45044065 0.18138932 0.10188675 -0.27547 -0.21641068 -0.33974737 0.0750493 0.10469021 0.26218963 -0.09439964 -0.22127353 -0.23388119 -0.17908722 -0.26197934 -0.1887235 0.33588803 -0.1409493 -0.08448227 -0.07093145 0.19568947 0.0060337954 -0.043880194 0.2879926 -0.07801962 -0.09605673 0.10059204 -0.4798804 0.060250703 0.3141209 -0.3675661 -0.037682325 0.21584575 0.24554864 -0.12481383 -0.042258095 -0.38706747 0.21993001 0.22767636 -0.034521524 0.004313906 0.20159331 -0.47509277 -0.116084345 -0.094391994 0.009832946 0.28308737 0.40614784 0.39107716 0.053132173 0.048455104 -0.5305314 -0.19996636 0.2878799 -0.21777712 0.32953826 -0.089094296 0.0039333906 0.14609702 0.1940629 -0.17670205 0.3980555 -0.105296545 -0.08058626 0.5935797 -0.40988043 -0.21075988 -0.22538023
19 -0.23862746 0.26746103 0.1943056 0.15844236 0.24244566 0.23595735 0.20430727 -0.013106325 0.32821402 -0.17107557 0.21044193 0.20817663 -0.19439939 -0.3766193 0.117087215 -0.07008187 -0.42378947 -0.031270705 0.27836555 0.1678093 0.15038633 -0.025260925 -0.33382642 0.03731057 0.61756283 0.13695113 -0.25792742 0.32859433 0.3522288 0.2199823 0.10844581 -0.11942676 0.045527365 0.102947384 -0.04239219 0.1899498 0.074287586 -0.2519372 0.073575415 0.20502971 -0.12608106 0.096584536 0.17726962 -0.07068267 -0.08657571 0.06242826 -0.32586002 0.18655336 0.2734013 0.14877309 0.11863827 -0.28320795 -0.028445428 -0.05419023 -0.23167893 -0.10589886 -0.18565114 -0.11568256 0.0042332476 0.5303743 0.012695896 -0.20218213 0.35836998 0.14442874 0.26256773 0.04034285 0.16516767 -0.13340268 0.16217493 0.31093717 -0.039255932 -0.027596854 0.35776374 -0.16364026 -0.06532675 -0.1186633 0.17187206 -0.20021221 -0.2308085 -0.015376474 -0.25230357 0.06707946 -0.25744626 0.22279878 -0.11811174 -0.13759065 0.06840036 -0.06169163 0.14065593 0.048714176 0.06744325 0.2730828 0.1868498 -0.027682262 -0.09961857 -0.013069907 -0.30190685 -0.19094701 0.122061074 0.06438116 -0.033523135 -0.1240394 -0.025895001 0.296328 -0.23354714 -0.09135517 0.36635992 -0.09128366 -0.0696017 0.24285996 0.14998446 0.09640994 0.07105866 0.016716875 -0.31006852 0.35023916 -0.2842923 -0.109530635 -0.012372855 0.31731108 0.15939038 0.13503954 -0.10931729 0.0577623 0.20768909 -0.14476334 0.06046152 -0.37093744
20 -0.09519588 0.3725813 0.034120794 0.04713997 0.074693106 0.14532135 0.31390366 0.12655115 0.17251544 -0.115272306 0.4363082 0.25213048 -0.47887987 -0.5966016 0.20809488 -0.17665514 -0.5291106 0.022074612 0.24223013 0.10089317 0.14266106 -0.29125142 -0.41138276 -0.1721456 0.39264354 0.07540357 -0.11242325 0.46153063 0.111566655 0.018110465 0.18321265 -0.100273885 0.029713565 0.19274129 -0.3343953 0.025953328 -0.069889314 -0.26716688 0.17585258 0.15361778 0.024207734 -0.05907405 0.30179268 0.022923928 -0.26987684 -0.12456843 -0.44459584 0.24986582 0.009091529 0.29872602 0.33139887 -0.43165568 -0.22012292 -0.19701336 -0.3262813 -0.12376482 -0.14692476 -0.21445993 -0.014592102 0.46569943 0.16729012 -0.032379087 0.5311824 0.2689488 0.24862106 0.09817894 0.11794362 -0.1409084 0.120598234 0.090775505 0.02817429 0.22104208 0.36284807 0.014831978 -0.18541166 0.10034996 0.2907613 -0.3599772 -0.21267167 0.14377788 -0.26338947 0.10164211 -0.25943676 0.40835768 -0.06447648 -0.13858852 0.17023365 -0.019756174 0.1848453 -0.013455453 -0.10885542 -0.054950856 0.0997481 -0.04371273 -0.14388584 0.098944314 -0.121759444 -0.3901282 0.33583242 0.06660608 -0.34625265 -0.23912588 -0.26635203 0.09463995 -0.15322776 0.10652131 0.43843386 -0.16313899 0.0062261834 0.20465332 0.239182 0.12793122 -0.14547415 -0.04780253 -0.45065695 0.37685063 -0.17933281 -0.16326103 -0.0036393907 0.1854447 0.009070451 0.1815217 -0.27483296 -0.14598852 0.087663315 -0.09408146 -0.07835129 -0.27181432
21 -0.14278337 0.31977752 0.286967 0.0885559 0.17217173 0.14599988 0.28928846 -0.048017584 0.22048147 -0.094152845 0.35619617 0.36939934 -0.4921708 -0.5568647 0.114988215 0.010644499 -0.54378194 -0.047348514 0.27013984 0.014049632 0.12047213 -0.20319697 -0.25483352 -0.20069101 0.43228284 0.27238703 -0.25011134 0.5088453 0.08228072 0.13854134 0.23001659 -0.27657065 0.045076415 0.13868874 -0.43711904 0.2339986 0.074226595 -0.24680786 0.07188271 0.098624215 -0.052035663 -0.025819635 0.12587774 0.08658779 -0.35624653 -0.26915827 -0.47529122 0.25922206 0.11412192 0.2881138 0.27728564 -0.19286305 -0.14097391 -0.1668787 -0.16649005 -0.14942642 -0.36985627 -0.080506854 0.02192852 0.35917494 0.04052518 0.005121476 0.3906685 0.23764804 0.36284956 0.119067885 0.30230865 -0.26935714 0.076929785 0.19090438 -0.069482885 0.023868853 0.4537673 -0.12924929 -0.06606404 -0.06165115 0.38821843 -0.3247751 -0.31989074 0.051046066 -0.20140582 0.1468657 -0.48256275 0.25741792 -0.051503535 -0.0005565239 0.022315033 0.06383726 -0.06550283 0.2804003 -0.026977405 0.028962554 0.13850535 -0.08203106 -0.10604153 -0.07179034 -0.29466403 -0.33216757 0.349372 0.0044342703 -0.30165097 -0.39464253 -0.15454659 0.24943277 -0.18664786 -0.01624164 0.5517645 -0.15919052 0.0075509218 0.2641021 0.17609274 0.047874834 0.20593843 -0.06185343 -0.34358013 0.38743508 -0.40958667 0.003659179 -0.034438334 0.25737268 0.20553859 0.25251925 0.013445931 -0.07628455 0.17409867 -0.058921795 -0.048897758 -0.056724697
22 -0.21272807 0.29691553 0.18046044 0.119336724 0.03524755 0.11029602 0.18303758 0.09529959 0.17226647 -0.0097440565 0.45965093 0.15648289 -0.32474154 -0.44833848 0.13881294 -0.12766762 -0.55284935 -0.008302324 0.32337233 0.18848161 -0.00668135 -0.094610795 -0.3601535 -0.09805108 0.44512513 0.15129972 -0.3968945 0.4458771 0.3587094 0.30877307 0.25844255 -0.25948 -0.13471605 0.24009281 -0.21469998 -0.07978952 0.101607166 -0.13070664 0.11998542 0.09499166 -0.1796092 0.07839073 0.30137202 0.07931667 -0.25846863 -0.07654662 -0.4171506 0.13216248 0.11055917 0.38174766 0.4437451 -0.17534232 -0.07434254 0.20909241 -0.21506786 -0.13793556 -0.31416336 -0.2428078 -0.04960463 0.35934857 0.106269345 0.06275399 0.24056806 0.109388135 0.21345612 -0.062471468 0.045201793 -0.25364256 -0.007917352 0.19829176 0.18777288 -0.15776208 0.49129215 0.05451747 -0.1271904 -0.13395838 0.2944169 -0.21872944 -0.27211916 -0.1847798 -0.35718158 0.07241786 -0.40861362 0.23874046 0.23439708 -0.131715 -0.067383036 0.14769676 -0.058694866 0.1374007 -0.0022537305 0.043208465 0.35490242 0.09021314 -0.27958193 0.17303821 -0.31177658 -0.23897138 0.3617778 -0.07638268 -0.094637975 -0.15560265 -0.081245705 0.20911026 -0.41273162 -0.010790651 0.46953392 -0.025775427 0.11836502 0.038450666 0.3162823 0.12311051 0.23337881 -0.031481996 -0.19582534 0.27521175 -0.3688978 -0.14991558 0.045639552 0.20580594 0.051795386 0.34400848 -0.15465924 -0.0025148934 0.25285494 -0.19287874 0.2071914 -0.18580571
23 -0.007712091 0.29078156 0.16949563 0.2303161 0.039744776 0.070714034 0.37185243 0.052046638 0.09017972 -0.13006824 0.40144074 0.13666879 -0.15931676 -0.58396053 0.0057397694 -0.082324594 -0.6773477 -0.07308411 0.28586966 0.33831194 0.31115344 0.013625081 -0.4624909 -0.0058768815 0.52250993 0.28764975 -0.35121045 0.21939743 0.32660732 0.14576687 0.10488631 -0.05551996 -0.04627011 0.052448157 -0.11986757 0.1659623 -0.015792524 -0.2175418 0.014005793 0.287512 -0.01989635 0.14124173 0.3430035 -0.35083765 -0.092806295 -0.21388327 -0.3241849 0.3179266 -0.1182976 0.1983823 0.13218375 -0.080722034 -0.25989607 -0.06267066 -0.15987767 -0.35398036 -0.13834816 -0.3406413 -0.12668087 0.15670086 0.02945004 -0.17658928 0.28538322 0.20664771 0.10397667 0.19175063 -0.044416144 -0.3148903 0.3413092 0.4056036 -0.089174666 0.009453705 0.34865183 -0.039817777 0.009694063 -0.10787177 0.3562647 -0.22954212 -0.3341941 0.21085179 -0.2651049 0.057464745 -0.38269073 0.16465473 -0.06480267 -0.18177892 0.06849334 -0.08459095 0.15689747 0.22137217 -0.18573266 0.1328833 -0.0016536935 0.03970516 0.05636072 -0.15022497 -0.13731186 -0.22322416 0.13870315 0.13558269 -0.3366151 -0.18579431 -0.11932853 0.18872505 -0.29703897 -0.22452423 0.31402576 -0.19989748 -0.07837966 0.283946 0.31282368 0.025390878 0.16745917 -0.010150786 -0.112323076 0.21649708 -0.36222064 -0.055918116 0.05034015 0.16141073 0.2511081 0.07208803 -0.13279718 0.008335144 0.2693672 -0.11292193 0.11062298 -0.25109026
24 -0.16748884 0.21010867 0.15757044 0.19321069 -0.0913764 0.15536311 0.3475657 -0.0069470773 0.048692606 -0.1383198 0.34626228 0.33818585 -0.47245663 -0.656727 0.019535018 -0.06447543 -0.6658275 -0.12725885 0.24788554 0.21211305 0.23652975 -0.329677 -0.42614517 0.051709566 0.5352772 0.18245 -0.30335587 0.22795328 0.43938774 0.15957984 0.22623248 -0.27848244 -0.037321165 0.080267884 -0.34002736 0.013381708 -0.07939383 -0.23310672 0.066294536 0.07850864 -0.014392251 -0.020129446 0.39422783 -0.23000452 -0.105497345 -0.032761652 -0.5260938 0.30562696 -0.003942993 0.25968647 0.2571702 -0.09709211 -0.13051903 -0.12470631 -0.33282927 -0.1583515 -0.13635872 -0.0823879 -0.04794599 0.47454664 0.039578106 -0.23171718 0.45432934 0.21256751 0.1886719 0.16315562 0.1384633 -0.10867371 -0.046052266 0.28738308 0.06266393 0.14676702 0.4084666 0.17874968 -0.18755338 0.07339961 0.4972796 -0.5229534 -0.41720778 0.011136449 -0.13227668 0.06742703 -0.3807496 0.19504848 0.07288837 -0.0876367 -0.056913942 -0.0024202322 0.11389483 0.11373347 -0.15582122 -0.05742145 0.20075774 -0.035370763 -0.046774905 -0.13449474 -0.1530437 -0.38738915 0.1640859 -0.14549723 -0.09521621 -0.13819343 -0.10567144 0.15402701 -0.34608293 -0.058950838 0.41419908 -0.11887393 -0.057678644 0.16324633 0.2913899 -0.000285957 0.15433912 -0.066631734 -0.3932034 0.29965818 -0.35348466 0.02401996 -0.07895667 0.32480654 0.1714101 0.20135254 -0.18596295 -0.07389372 0.19922365 -0.07095861 0.11142883 -0.10348344
25 -0.17847855 0.27960473 0.29056075 0.1313775 0.015495193 0.04355005 0.2880033 0.10848498 0.15745968 -0.02876259 0.513675 0.37102562 -0.33011785 -0.592482 0.16802995 -0.15594628 -0.5496902 -0.10323402 0.18297853 0.11569375 0.10640521 -0.35164753 -0.19611077 -0.05226021 0.63641685 0.10538678 -0.2666666 0.35893098 0.3339999 0.18880142 0.24916176 -0.3165809 -0.42355525 0.26438677 -0.36440367 -0.02625793 -0.043286677 -0.21416073 -0.012176974 0.043871917 0.061192118 0.05061814 0.22359562 -0.10678917 -0.32357755 -0.18421385 -0.4216662 0.2520288 0.07395091 0.1478663 0.26299897 -0.026845248 -0.087914325 -0.019526988 -0.30027035 -0.096579984 -0.06845485 0.066782095 0.051214114 0.39947522 -0.03125146 -0.1188662 0.34376884 0.15812685 0.25808045 0.15485553 0.23595454 -0.1089246 0.14494559 0.17816512 0.03955237 0.15211585 0.4474847 0.12437254 -0.10944384 0.14788628 0.32523885 -0.3410543 -0.33915865 0.0348847 -0.26698074 0.093681395 -0.24778105 0.27881834 -0.10783287 -0.062921494 -0.14192301 0.06735523 0.16661379 0.10203871 -0.2505934 -0.052003153 0.067515954 -0.08865979 -0.047913652 -0.057092387 -0.033877112 -0.41249773 0.25801414 -0.016499346 -0.18086237 -0.42269826 -0.20868441 0.13006997 -0.32327485 -0.15392838 0.53766876 -0.2278294 0.13925663 0.23653693 0.30695394 0.010316585 0.14124484 0.16647846 -0.35400832 0.24571492 -0.15795416 -0.09990086 -0.029468054 0.24901038 0.050845012 0.3569953 0.11123425 -0.07636804 0.28034067 -0.18203795 0.0429996 0.077784106
26 -0.3148902 0.4387921 0.2544003 -0.0072821216 0.037564337 0.2763833 0.39495805 0.17721957 0.21639104 -0.057282146 0.31241712 0.30112287 -0.2555895 -0.41281703 0.2296975 -0.072915606 -0.4526321 0.20696712 0.3118123 0.21997793 0.04093421 -0.10449796 -0.33584225 0.06602794 0.46490404 0.04676646 -0.26318642 0.5790059 0.40620273 0.13926658 0.07494335 -0.4236215 -0.018560238 0.06930862 -0.15248567 0.12076989 -0.13236399 -0.29597336 0.048781443 0.18433109 0.10295514 0.16528736 0.20632245 -0.13800463 -0.47081402 0.052281853 -0.2944874 0.25786653 0.20135316 0.421123 0.19184306 -0.10326306 -0.063975014 0.21347332 -0.15336342 -0.20509657 0.008827684 -0.22981979 0.13518181 0.2800464 -0.14898044 -0.07753017 0.16253746 0.06599796 0.1107379 0.008840269 0.13135378 -0.25555223 0.042505514 0.093880594 0.09999652 0.027735926 0.49893373 0.08435278 -0.17543322 -0.1387114 0.2577418 -0.17980091 0.025936713 -0.0061678593 -0.32957986 0.14709073 -0.3560044 0.3172984 -0.03951816 -0.1836161 0.054453876 0.1318973 0.17183474 0.0033627143 -0.12911858 0.1584656 0.15226476 -0.040648036 -0.28617084 0.23750196 -0.19758292 -0.21547973 0.21281826 0.0636863 -0.15475608 -0.32323378 -0.21535219 0.26531127 -0.27180338 0.043337554 0.34225434 -0.14631611 0.20721972 -0.06280977 0.07988938 0.07881684 0.09129958 -0.008439631 -0.34212545 0.21923527 -0.23582512 -0.18038931 0.09411573 0.20973474 0.09738424 0.32806692 -0.16826695 -0.052906003 0.27625594 -0.2470715 0.12266981 -0.17976117
27 -0.24700223 0.32044142 0.20957746 0.19989455 0.13814665 0.18121111 0.43346646 0.20148626 0.20117888 -0.050755203 0.37976047 0.22578819 -0.3799989 -0.7120469 0.17130871 -0.13352412 -0.42255244 -0.036587875 0.37767762 0.3560014 0.097523846 -0.2347201 -0.5029299 -0.07396884 0.5912317 0.26875764 -0.22188446 0.43803898 0.41586247 0.03299572 0.35730168 -0.28451845 0.046534974 -0.06707492 -0.09746385 0.08588145 -0.15840276 -0.12191754 -0.13857369 0.17389047 0.012267406 0.14157255 0.30284923 -0.0451849 -0.48253545 -0.15392396 -0.7616235 0.18112125 0.06782153 0.47149223 0.3671497 -0.19599004 -0.097079955 0.026725784 -0.18044433 -0.22766042 -0.3525082 -0.22867675 -0.06284135 0.41651857 -0.0043253787 -0.0815195 0.24333009 0.00086964545 0.089205876 -0.00804834 0.13852517 -0.22703724 0.093100734 0.1840789 0.006183632 -0.10627119 0.4809543 0.038911413 -0.108450316 0.0053522154 0.2424015 -0.3412124 -0.10890783 0.089615524 -0.21427421 0.08500468 -0.31954527 0.47651404 -0.04535624 -0.11888536 -0.13869008 -0.20260112 0.12825876 -0.01124189 -0.036419228 0.20056087 0.036948267 0.09969167 -0.1370135 -0.03637548 -0.22180271 -0.3110536 0.11763062 -0.006707588 -0.18485205 -0.37663165 -0.17294247 0.050151546 -0.2623972 -0.07019608 0.22678456 -0.13480717 0.13575533 0.06949477 -0.09446135 0.24724683 0.11440868 -0.18141413 -0.38799807 0.18013175 -0.20112251 -0.003714746 0.03538711 0.33243647 0.20277241 0.100654066 -0.21637087 -0.060709838 0.17224665 -0.14410284 0.11402924 0.06366658
28 -0.2394193 0.26743332 0.13779654 0.022267016 -0.013489897 0.30096424 0.3991685 0.038534746 0.16373868 0.092432015 0.35840023 0.1722547 -0.4994379 -0.4729526 0.14866364 -0.044360716 -0.5489683 -0.17057599 0.3303835 0.012153684 0.22604375 -0.08872617 -0.3962701 0.09637123 0.55537635 0.07376298 -0.291188 0.5278883 0.2897245 0.29251876 0.16455032 -0.088895224 -0.20444162 -0.16699374 -0.287981 0.15365265 -0.087761685 -0.34430042 -0.006841669 0.26210126 0.061645728 -0.005058705 0.33411735 -0.20834796 -0.33529255 -0.014877327 -0.6432623 0.057637356 0.10465089 0.30672017 0.28653276 -0.087381996 -0.2648028 0.025092654 -0.10917522 -0.28294164 -0.08487305 -0.2921523 0.06662364 0.3351307 0.05622722 -0.2731053 0.30805644 0.16520038 0.21083194 0.0018494269 0.27058646 -0.13044775 0.11386105 0.17844999 -0.013583917 0.03616296 0.6012324 -0.0151844 -0.1794039 -0.12968558 0.23211993 -0.1615502 -0.103863366 -0.0029336766 -0.20149936 0.0740801 -0.16402279 0.3210755 0.0159297 -0.13348389 0.0070497217 0.097143814 -0.028531423 0.14088944 -0.29265782 0.10811387 -0.12451269 -0.034302022 -0.19075854 -0.0398935 -0.24717161 -0.40534356 0.16337 0.003471197 -0.3574002 -0.21688037 -0.21861254 0.056252576 -0.107020155 -0.10027644 0.37976718 -0.33564827 0.08414638 0.23313242 0.1246383 0.17395209 0.034397535 -0.024198378 -0.36322984 0.39268574 -0.22121798 -0.027801916 -0.035122596 0.37098405 0.27954984 0.11159664 -0.13460733 -0.036771744 0.33453667 -0.10712275 0.02194729 -0.17007391
29 -0.14697175 0.15221554 0.17266913 -0.015623088 -0.052104253 0.31390393 0.36692443 0.013415583 0.13849455 0.026944358 0.33808905 0.2142565 -0.29688406 -0.5694824 0.21789865 -0.011003907 -0.49367997 -0.15284216 0.35240665 -0.047470868 0.13280463 -0.33323368 -0.53508306 -0.0749474 0.5951624 -0.06183999 -0.27398342 0.47860274 0.3480805 0.13580514 0.22826274 -0.24347313 -0.052690554 0.026966808 -0.23629418 0.122739375 -0.040704954 -0.3526273 0.0075155036 0.05482031 -0.21272781 0.052021243 0.332853 -0.080504216 -0.26434177 -0.03699398 -0.35437483 0.26258165 -0.14016621 0.43006968 0.06357498 -0.14301324 -0.05496216 0.0007520106 -0.2771191 -0.12927581 -0.110311106 -0.16664678 -0.00787353 0.4492047 0.042928346 -0.3245576 0.26191944 0.1466734 0.40932864 -0.14880991 0.18847425 -0.20436557 0.09040334 0.1789219 0.061989076 0.12089912 0.2680704 -0.06791744 -0.27538615 0.09222484 0.43869746 -0.37747183 -0.105982564 0.096458465 -0.2862197 0.21637101 -0.3862869 0.24459253 0.064592995 -0.1760145 -0.0137035865 0.045488752 0.1146105 0.08167535 -0.19620316 0.22027355 0.20549268 -0.2331182 -0.10523136 0.104199246 -0.24096254 -0.29129875 0.2459216 -0.10660822 -0.36683795 -0.24643359 -0.2775283 0.266232 -0.18551123 -0.21436152 0.51403785 -0.21146412 0.20163156 0.09242774 0.17927857 0.10704633 0.19847378 0.07973645 -0.28375044 0.14977641 -0.10899756 -0.036957916 -0.052269924 0.30465806 0.067680724 0.24566175 -0.12913382 0.110467486 0.33174235 -0.049128287 0.08567558 -0.07544034
30 -0.1204235 0.1870684 0.118233055 0.15409708 0.110837616 0.12235489 0.3956768 -0.10921876 0.17524652 -0.071757935 0.45168284 0.41215274 -0.23357975 -0.6081224 0.024626877 0.02470478 -0.47515774 -0.25676027 0.28665358 0.12235035 0.24109991 -0.4758283 -0.48143664 -0.24301884 0.48535192 0.112808935 -0.3316135 0.43419772 0.3838881 0.038839877 0.32978836 -0.26835796 0.0006836078 0.09398175 -0.3947786 0.03108411 -0.15024705 -0.20752865 0.029893419 0.13576068 -0.11764441 -0.014327932 0.33304098 -0.00062065263 -0.29296383 -0.092969015 -0.5487966 0.3149827 0.1155819 0.14062439 0.14940147 -0.02195482 -0.14060381 -0.16977462 -0.25193024 -0.17474909 -0.23109435 -0.08691174 0.037277065 0.42102858 0.017816272 -0.26634237 0.36432463 0.35115397 -0.009839958 0.119018495 0.17713438 -0.25725764 0.19921204 0.15682612 0.102794744 0.10382354 0.23492981 0.14235173 -0.18112227 0.05524432 0.3899796 -0.3018068 -0.2580106 -0.0011339482 -0.25154302 0.12604868 -0.43488908 0.38556048 0.11037469 -0.23399478 0.01386432 -0.02671832 -0.1508413 -0.05479312 -0.27323797 0.34836507 0.18942751 0.030569488 -0.009033974 -0.0005998464 -0.27101415 -0.2333486 0.2095152 -0.008025609 -0.42350447 -0.17332847 -0.11386983 0.105332464 -0.19289641 -0.043011945 0.42483172 -0.21701474 -0.059233923 0.11245303 -0.0036586479 0.18031897 0.0057289056 -0.029563447 -0.41458625 0.4706325 -0.27959883 -0.1645655 -0.04664768 0.26669082 0.24102917 0.42717856 -0.14201456 0.016952576 0.22311224 0.026118234 -0.11643847 -0.013852477
31 -0.11786361 0.2679443 0.19964814 0.03312761 -0.057208408 0.2698441 0.4318734 0.026180511 0.11227766 0.028548505 0.46807283 0.11792162 -0.38641295 -0.67838335 0.1511119 0.025209364 -0.45401356 -0.19640674 0.28223503 0.08911389 0.28149942 -0.25143632 -0.46461046 0.05268602 0.351697 0.16582839 -0.3174355 0.3051629 0.29051268 0.13578422 0.22270724 -0.23944694 -0.17758092 -0.007497401 -0.22619279 0.2509013 -0.038397204 -0.27935144 0.17732906 0.19342476 -0.092646435 -0.069945104 0.4814211 0.0022672736 -0.26038858 -0.1184616 -0.5208748 0.0802926 -0.15866375 0.42282525 0.44702888 -0.14019313 -0.015329321 -0.10064688 -0.22193341 -0.13556688 -0.17207868 -0.2357173 -0.0038712004 0.4986285 -0.08079929 -0.17684838 0.3664432 0.2328113 0.25315577 -0.05475783 0.07119503 -0.27164122 0.31332144 0.11514374 0.046513744 -0.0778186 0.3156723 -0.07205174 -0.20406203 -0.00179778 0.37537515 -0.24015822 -0.4682071 0.05010955 -0.22922006 0.029323166 -0.18437609 0.2933308 0.003905696 -0.26058674 0.033667672 -0.12866823 0.0023959298 0.042768024 -0.022210559 -0.07033579 0.14211674 0.12313502 -0.05411806 0.12359843 -0.055068914 -0.21861494 0.32023692 -0.07541095 -0.39871302 -0.41737667 -0.09887073 0.25865224 -0.1739955 -0.050919876 0.24159718 -0.20758986 0.1914946 0.13871983 0.16433574 0.20590365 0.026367135 -0.008621377 -0.36180404 0.49268794 -0.062768124 -0.030363783 -0.08222739 0.39643255 0.28140804 0.2747557 -0.118724324 0.032409582 0.10091941 -0.17120993 0.18115531 -0.07862592
32 -0.19721845 0.40556657 0.29021737 0.26470268 0.10164774 0.22409587 0.25026342 -0.029972041 0.09871159 -0.08204943 0.30083206 0.09225539 -0.18747881 -0.32910052 0.06400168 -0.026164345 -0.42473826 -0.0058508143 0.14759353 0.13617192 0.009977026 -0.15716842 -0.35336587 0.021132704 0.6401169 0.08994325 -0.29573727 0.41178057 0.31223467 0.06997281 0.12432651 -0.15723716 0.13713957 0.104219936 0.02666362 0.15720971 0.074598454 -0.10910324 0.13280188 0.056430236 -0.08131222 0.0056502945 0.34766883 -0.11901108 -0.22549406 0.03851731 -0.3575952 0.038147032 0.036173254 0.2633741 0.21746626 -0.16297258 0.08274442 0.023572413 -0.15683165 -0.35032165 -0.2126563 -0.26603535 0.025099069 0.32586277 0.06832648 -0.14150788 0.39949697 0.06564484 0.042876568 -0.0453882 0.008836931 -0.31283805 0.19007134 0.21940993 -0.12783314 -0.11452302 0.19207826 -0.11699744 -0.009495434 -0.19741061 0.39275622 -0.23342034 -0.19968987 -0.007105952 -0.28040504 -0.12096244 -0.26810786 0.2555836 -0.036517154 -0.21364284 0.010524888 0.04344879 0.037501603 0.04533749 -0.001968298 0.13425067 0.24792553 0.1807084 0.0028055955 0.0072141928 -0.32316372 -0.3209606 0.036442466 -0.08697529 -0.17402592 -0.29627708 -0.22259238 0.26172987 -0.10099153 -0.085094444 0.41090572 -0.0339748 -0.03835473 0.1345954 0.22778934 0.1497756 0.122463636 -0.11780362 -0.2680844 0.26176518 -0.4508924 -0.25281566 0.11434948 0.21905638 0.09989572 0.10692855 -0.17957205 0.069238625 0.0657912 -0.17025675 0.07283285 -0.2644912
33 -0.13455534 0.2692467 0.12978718 0.01752478 0.13646035 0.06323298 0.5835743 0.06570007 0.43914482 -0.14385007 0.27526963 0.26851732 -0.33666095 -0.6535077 0.03558463 -0.1600218 -0.58376116 -0.11010282 0.39506796 0.2041679 0.17479965 -0.1550941 -0.35865116 0.0685804 0.5726296 0.058496997 -0.21974999 0.22471511 0.463109 0.108847484 0.13874541 -0.15911758 -0.20183022 0.13028397 -0.15812175 0.120298296 -0.06987051 -0.25134405 -0.11298105 0.16135475 0.0734915 0.0031237826 0.29261896 -0.16734372 -0.28666478 -0.10030522 -0.44595474 0.1985947 -0.0962643 0.23955943 0.35359895 -0.08623804 0.0142856175 -0.14318638 -0.047238432 -0.064029455 -0.0805836 -0.21553168 0.038713057 0.4275461 0.046559583 -0.1751631 0.120559596 0.21719535 0.008712367 0.108017504 0.33808848 -0.08403421 0.20504905 0.24375884 0.08882575 -0.006695676 0.45463052 -0.014314334 -0.14988802 0.040004436 0.34854695 -0.39109275 -0.4209265 0.015307141 -0.21520077 0.18434832 -0.32301798 0.4076932 -0.014844195 -0.19383614 0.098401606 -0.07693454 0.09882491 0.13370869 -0.040281273 0.12666798 0.04640711 0.017029012 -0.13217497 0.19866037 -0.26362973 -0.2545149 0.16166782 0.060331114 -0.2831647 -0.33600214 -0.3175464 0.26196557 -0.20534043 0.17633525 0.23427996 -0.07537868 0.1517358 0.19038045 0.21469338 0.059442095 0.16275771 0.02754273 -0.18675165 0.49162745 -0.20343986 -0.0176834 -0.010932207 0.16078094 0.1886139 0.30211157 -0.019964607 -0.14797717 0.08787909 -0.121332094 0.16909114 -0.29643854
34 0.0037128935 0.3023719 0.04142114 0.31023693 0.11442436 0.0706332 0.37089032 -0.064020135 0.14411812 -0.086204596 0.3354743 0.17175019 -0.10213992 -0.4536734 -0.054371063 0.05199758 -0.32260275 -0.07814347 0.30818158 0.09716822 -0.030947838 -0.21863109 -0.20938711 -0.068544 0.5924573 0.11651084 -0.3245286 0.30773407 0.24669966 0.17028075 -0.025278518 -0.26403126 0.024411712 0.076770976 -0.00061377836 0.14767012 0.019072704 -0.24859278 0.072771594 0.11641772 -0.22144312 -0.15283823 0.27160475 -0.04149029 -0.11158039 -0.15674134 -0.26841995 0.30568394 0.052587427 0.11466596 0.25347692 -0.10523915 -0.008251855 0.16685693 -0.3446164 -0.22818395 -0.17488042 -0.1398697 -0.08940855 0.3594652 0.18317352 -0.20991178 0.21632901 0.13582669 0.1758095 -0.004011224 -0.06592703 -0.09621065 0.28985372 0.24198647 -0.027696643 -0.10882721 0.21001184 0.063611776 -0.037409734 -0.047535926 0.45775017 -0.21070102 -0.32787052 0.067474455 -0.17499356 0.08209488 -0.09011699 0.12365526 -0.117485344 -0.2327784 0.030756824 -0.0064619323 0.12644072 0.13384257 -0.085158624 0.20704398 0.163836 0.16200766 0.017733272 -0.07417537 -0.2635142 -0.34432033 0.27550158 0.010631521 -0.14488226 -0.2824705 -0.17824073 0.28434744 -0.1580596 -0.0226249 0.20735508 0.052655853 0.014724969 0.0014705815 0.28482866 0.15443216 0.21161799 0.110258 -0.17035022 0.25661096 -0.32597777 -0.12515993 0.10223991 0.40025023 -0.00017030211 0.26658428 -0.12574875 0.09308734 0.19339643 -0.09743182 0.14866726 -0.21917477
35 -0.092097215 0.37467945 0.116488084 0.22938377 0.072580576 0.16136007 0.32832465 -0.04033577 0.38264403 -0.13232365 0.25704572 0.32981187 -0.33397952 -0.51370984 0.13542037 -0.026827596 -0.67774713 -0.021259438 0.2234873 0.13241383 0.40332788 0.10599631 -0.2210943 0.0022515068 0.5929937 0.31907701 -0.12464808 0.7041533 0.43441197 0.06086562 -0.11024334 -0.14923938 -0.08472485 0.064273834 -0.3322416 -0.0022490823 0.042256966 -0.31890604 -0.110660546 0.15063561 -0.07568677 -0.04155807 0.2559068 0.040913578 -0.2893862 -0.21682668 -0.4621035 0.101472765 0.18280983 0.32772496 0.5155836 -0.33615702 -0.071332045 -0.21884055 -0.14843501 -0.15994416 -0.27018002 -0.058081534 -0.057347912 0.42756194 0.1298353 0.061474513 0.0063904887 0.20741473 0.16136152 0.12490332 0.047206067 -0.21887234 -0.030311175 0.15016887 0.15642346 -0.01000984 0.29927984 0.2130902 -0.15051287 -0.0624213 0.58161765 -0.33743256 -0.36745322 0.121560425 -0.043211613 0.15487053 -0.37892938 0.26076183 -0.14282654 -0.274504 -0.07457205 -0.07060181 0.039174795 0.16457868 -0.093696795 -0.07104043 0.14983848 0.06868016 -0.11854866 0.18159758 -0.025219064 -0.0889795 0.31767187 -0.12989682 -0.32694694 -0.230525 -0.48420203 0.25525504 -0.29129452 0.03754048 0.21817441 0.009292579 0.017642528 0.14035317 0.19502917 0.051329643 -0.03386806 -0.1118049 -0.2401509 0.41970852 -0.10111258 -0.020201763 -0.1319992 0.34293294 0.12463011 0.16439986 -0.044263702 -0.03098697 0.3256009 -0.20863244 0.08171973 -0.13746712
36 -0.4099941 0.01818899 0.08251541 -0.11917145 0.6148226 0.13831425 0.014311282 -0.25768968 0.43471202 -0.16375744 0.3648609 0.04778144 -0.24583225 -0.21762925 0.22438596 0.10342899 -0.01667173 -0.0072811814 0.022586886 -0.15716502 -0.2415324 0.008919499 0.29391983 0.5774162 0.09801178 0.14965074 -0.4369437 0.0244381 -0.013403638 0.281663 0.031782605 -0.03273993 0.041083645 -0.14994462 0.28788203 -0.07597411 0.065575756 0.0011354651 0.32711276 0.16999772 0.29999682 -0.20836776 0.117770635 0.17401935 -0.31468368 0.22151746 -0.06894483 0.1938924 0.34581348 0.052696075 0.19945231 -0.17041624 0.025265617 -0.05172958 -0.2539998 0.14590739 0.36079818 -0.3825169 -0.14994931 0.3070875 0.24497275 0.12733151 0.0051654717 -0.23314452 0.09207933 -0.033387195 0.41591638 0.08356942 -0.2796311 -0.24109884 -0.2938558 -0.12801713 0.13768074 -0.31578505 -0.105234675 0.1426933 -0.06464259 -0.21819463 -0.04909084 -0.2759649 0.2884901 -0.2581321 0.0839608 0.20996743 0.07937386 0.28512043 0.36823368 0.39270633 0.004520996 0.33310634 -0.018999027 -0.12300517 0.17017898 0.08310719 -0.09930491 0.13352412 -0.1559741 -0.0007808345 0.28028187 0.13526678 0.044685367 -0.008857307 0.22191077 0.10681126 0.1627492 0.5057988 0.34938323 0.14534761 0.10276359 0.47479427 0.15951256 -0.11908864 0.019229524 0.09216939 -0.3147702 0.26093873 -0.3873329 -0.34428793 0.3753451 0.041522734 -0.0028129728 0.394267 -0.22435457 0.055195782 0.25984472 0.090065725 -0.1857344 -0.15997382
37 -0.19577272 0.13017394 0.11832597 -0.10022551 0.570188 0.19942486 0.21538189 -0.45752653 0.2983325 -0.008558992 0.36131877 0.22791351 -0.17842075 -0.253018 0.16837835 0.17627609 0.042207155 0.036675315 0.019510876 -0.31382427 -0.38185227 -0.15029643 0.361181 0.43592173 -0.0940709 0.21222521 -0.52354425 0.028589899 -0.31788394 0.16072264 0.15040876 0.09301145 0.04466582 -0.16117331 0.11648562 0.024952613 0.17270654 0.015874404 0.16447224 0.14033973 0.25352415 -0.34168312 -0.1316997 0.089585066 -0.33536294 0.021906044 -0.37437972 0.14038385 0.25629732 0.255097 0.36861417 -0.022988964 0.019008337 -0.07068309 -0.09565789 0.2900255 0.14730968 -0.45328066 -0.22165148 0.1840683 0.10306382 0.15730208 0.12488027 -0.121064164 0.15522547 0.028027503 0.38822514 -0.045548715 -0.22416689 0.062310215 -0.2673953 -0.2937969 0.27290606 -0.1977071 -0.048783507 -0.059031006 0.009023403 -0.059369937 0.028915195 -0.2681675 0.21896623 -0.37570047 0.07280331 0.11638781 -0.04606353 0.4766777 0.47035024 0.53646284 -0.12582546 0.46250963 -0.02351243 -0.30957735 -0.08706183 0.09370029 -0.015484388 -0.00654943 -0.44091555 -0.07946135 0.26927194 -0.08102845 -0.14033715 -0.15244049 0.2592613 0.12940454 0.26998365 0.4325762 0.56241554 0.20779838 0.015825115 0.4615262 0.22653988 0.015322112 0.21378843 0.055553384 -0.18755245 0.28101292 -0.65536165 -0.3203652 0.37102005 -0.01027161 0.10196442 0.28315035 -0.12524152 -0.12020102 -0.0044994275 0.20940445 -0.33751312 -0.059220824
38 -0.23724204 0.18827263 -0.114160046 -0.06507783 0.42189795 0.1053437 0.14801508 -0.32489023 0.34192646 -0.028758826 0.40497884 0.039974596 -0.4389085 -0.22878574 0.1362236 0.043878756 -0.02875778 0.10031558 -0.17279989 -0.20799287 -0.20091584 -0.07264776 0.32805482 0.44006896 0.10155246 0.117810816 -0.4660043 0.028683005 -0.26647952 0.12326542 0.07238905 0.22912271 -0.02301558 -0.124110535 0.06833579 -0.010297739 0.06621133 0.07750373 0.2442952 0.15750632 0.22184362 -0.25078797 0.055978023 0.22775912 -0.3483763 0.030692756 -0.18991232 0.22582829 0.33068818 0.1903152 0.42153767 -0.07485542 -0.10455961 -0.18459642 -0.24203096 0.23881577 0.28170615 -0.48189116 -0.22813231 0.08239504 0.22915591 0.08647847 0.10590603 -0.3087403 0.21305111 0.010857899 0.45737863 -0.17139696 -0.07435462 -0.19517465 -0.33779046 -0.016153065 0.28866196 -0.11955318 0.02293819 0.018445762 0.036872413 -0.22162756 0.043417733 -0.19527172 0.13498527 -0.4414661 0.2832816 0.26013848 0.09262765 0.35011646 0.57374823 0.45900968 0.08385434 0.27147296 -0.11110288 -0.21920614 -0.22173639 0.25698936 -0.11912697 0.044309102 -0.14809753 -0.12803707 0.26107302 -0.008056828 -0.09468179 -0.13987294 -0.045586236 0.005672523 0.23973101 0.49530742 0.33849704 0.20941097 0.050623816 0.43290967 0.31584504 -0.14469844 0.032901194 0.17622794 -0.34780735 0.21556719 -0.31035683 -0.6895109 0.37042287 -0.022480853 0.053409204 0.29921147 -0.25205714 -0.0075167515 0.16931131 0.1907357 -0.4570816 -0.0981615
39 -0.29830617 0.114661165 -0.08991873 0.04808737 0.629482 0.22967613 0.21733388 -0.41758436 0.3356927 0.109061845 0.4407735 0.17279728 -0.27631295 -0.10004682 0.03558565 0.13426186 0.0065491167 -0.06593564 -0.04432009 -0.17902647 -0.13670772 -0.036932953 0.33072963 0.48165292 0.11684786 0.0947376 -0.43083555 0.16367912 -0.18165116 0.26822156 0.060110047 0.19403458 -0.28024882 -0.19588466 0.13171649 0.11546683 0.036235392 -0.007494038 0.13540275 0.19860896 0.124633946 -0.2983847 0.24959281 -0.002750999 -0.39292663 0.13070017 -0.3733816 0.17344217 0.44144782 -0.011277705 0.3226018 0.14075322 -0.20373611 0.14238107 -0.17566158 0.2155156 0.22145449 -0.43007636 -0.1388061 0.041006558 0.13894095 0.17173198 0.008248744 -0.27390882 0.1370422 -0.09991887 0.48327762 0.00060577365 -0.16297261 -0.14137957 -0.29371256 -0.11761943 0.44928434 -0.15381122 -0.03336945 -0.11773389 0.009196643 -0.03183924 0.040431127 -0.4351563 0.11259898 -0.40721592 0.2095283 0.23187155 0.14131983 0.36457905 0.3560594 0.5207063 -0.10149777 0.458987 -0.2619183 -0.12026278 -0.13884783 0.18337221 -0.03202827 0.023613779 -0.39706504 -0.1784721 0.166422 -0.03647241 -0.03779253 -0.03365711 0.1709326 0.061467797 0.16846152 0.39575785 0.32326964 0.17365612 0.116956346 0.5091312 0.21553704 -0.079866365 0.054956645 0.23387808 -0.23398453 0.36836132 -0.3993069 -0.4565895 0.38506785 -0.10398825 0.20343421 0.1301377 -0.15757827 0.06874423 0.32239595 0.14683028 -0.25585347 -0.104097664
40 -0.0362079 0.24835484 -0.1041438 0.04214746 0.52507406 0.051541515 0.11632816 -0.22408919 0.4639112 -0.062932834 0.46578455 0.05187588 -0.21627946 -0.1893925 0.06370118 0.27970338 -0.21444374 -0.10131802 0.12895624 -0.24871242 -0.54393935 -0.21288869 0.31195268 0.39493313 0.23031892 0.07677572 -0.64893734 0.13518843 -0.1693445 0.28650838 -0.012240908 -0.18245162 -0.03243227 -0.12244276 0.17459804 -0.18258329 0.039477758 -0.041244175 0.349505 0.042814393 0.18572475 -0.3465826 -0.11946899 0.25917438 -0.38685074 -0.08432434 -0.23354726 0.2662979 0.35930905 -0.013005357 0.43511063 0.036902614 0.09878405 0.09808676 -0.23555005 -0.010260963 0.28640884 -0.31041372 -0.18610187 0.12462158 0.34584162 -0.11232051 0.076596715 -0.18896595 0.13344815 -0.105407394 0.21734604 0.015876582 -0.19465959 -0.07531305 -0.2509336 -0.28225303 0.13698757 -0.0244113 -0.08749714 0.09736081 0.046919387 -0.20043536 0.020714099 -0.3071605 0.2022571 -0.26932052 0.15763253 0.1611964 0.14493103 0.17046343 0.43685406 0.6276527 -0.0035969433 0.25467885 -0.11734668 -0.07409736 -0.08199771 0.27988648 -0.19731764 -0.0054108095 -0.29531458 -0.01044046 0.48772758 0.22334392 -0.033173542 -0.17436102 0.12833975 0.0107427025 0.1579632 0.5390334 0.2665761 0.19400586 0.39185444 0.32161582 0.15465094 0.07154875 0.17321907 0.14340217 -0.047093462 0.028920427 -0.5459249 -0.32409143 0.34828368 0.24139766 -0.18439612 0.4049272 -0.11636447 0.09854076 0.28056726 0.10206499 -0.07928357 -0.06326525
41 -0.2780485 0.044194352 -0.12676714 -0.004884304 0.62164557 0.059592243 0.37740576 -0.32137448 0.5287537 -0.033564962 0.37629446 0.1777557 -0.1251364 -0.32279477 0.009448156 0.14346962 0.14868554 -0.13139434 -0.021427022 -0.15614325 -0.2041621 -0.069190904 0.34791002 0.52183735 0.16739202 0.07359128 -0.48088586 -0.038618658 0.027756022 0.2752781 0.11452432 0.31479958 -0.14066601 -0.11619858 0.2140021 0.07856334 -0.0029526132 0.098237745 -0.029714977 0.072573304 0.25542137 -0.36948577 0.11971403 0.049094446 -0.38104475 -0.018932063 -0.24502818 0.08990531 0.23859431 -0.027031334 0.42954654 0.10032207 0.06193306 -0.009968648 -0.093736164 0.3482374 0.1427508 -0.5455373 -0.2793142 0.17243497 0.10677409 -0.042968906 -0.25906274 -0.29493245 0.100736246 -0.082958244 0.48385328 0.04361948 -0.058350764 -0.017984772 -0.21092531 -0.1542847 0.19160074 -0.15656753 -0.029952658 0.10278605 0.031944178 -0.07579699 -0.08023532 -0.45400536 0.25539827 -0.30403838 0.15528193 0.23083405 0.057331428 0.2751094 0.5484111 0.39342043 -0.032310978 0.38081387 -0.02459582 -0.09822312 -0.17804305 0.34537786 0.011989417 0.30693144 -0.3679306 -0.04567886 0.1498299 -0.016299967 -0.13365689 -0.17112425 0.09547357 0.22039266 0.09390087 0.57106304 0.36547148 0.2378235 0.102376916 0.47946137 0.15883815 -0.023266885 0.1063221 0.21668422 -0.06648624 0.45121986 -0.26485708 -0.60437846 0.3935092 -0.100297935 -0.0028929939 0.28504935 -0.0092026815 -0.13145977 0.090971574 0.16201185 -0.32726878 -0.25078493
42 -0.11458546 0.3229597 0.052860804 0.00992685 0.46657053 0.2515212 0.12322355 -0.31475857 0.42537436 0.012864139 0.33826664 -0.091818824 -0.16179177 -0.12211972 0.17798905 0.22142085 -0.2551941 0.04321174 -0.071307205 -0.35701442 -0.37863466 -0.116582885 0.3382031 0.5424564 0.20034103 0.009347744 -0.5495496 0.16571589 -0.033469602 0.11360414 0.04350579 -0.17614666 0.041129366 -0.16556756 0.3596171 -0.1413216 0.04363561 0.090789504 0.2421595 -0.10527009 0.1347932 -0.28124437 0.05027647 0.14261915 -0.45536268 0.19610545 -0.35173362 0.10064983 0.18256302 0.1076061 0.38923684 0.0045953547 0.1928282 -0.028416893 -0.018704087 0.015260117 0.3665794 -0.38411683 -0.061667025 0.19110358 0.21542579 -0.040761396 0.16549167 -0.25223666 -0.029722208 -0.1912145 0.26766667 -0.16162053 -0.24980542 -0.12467537 -0.3862882 -0.33650923 0.05633386 -0.23104987 0.14509724 -0.07729937 0.15133074 -0.24878377 0.056890804 -0.21980657 0.23753224 -0.3253167 -0.026505696 0.25257722 0.14158207 0.24984814 0.4825978 0.6634904 -0.13754748 0.24240158 -0.13788606 -0.06384258 0.002651293 0.18084487 -0.2003402 0.049499143 -0.2154135 0.06173953 0.45542815 0.023663426 0.05478951 -0.061501883 0.008541127 0.13233224 0.29960757 0.41611475 0.43521568 0.19473667 0.34029365 0.33093253 0.19952308 -0.075144224 0.123835415 -0.011389554 -0.054592617 0.051676802 -0.6179392 -0.27188423 0.3476203 0.053638346 -0.00014604293 0.3929355 -0.21677248 0.0053570657 0.16850062 0.0043521128 -0.0055872523 -0.066129304
43 0.18250558 0.10593032 0.26672083 0.015136285 -0.074437074 -0.06322143 -0.085326366 -0.09863782 0.2700139 -0.03136342 0.25363287 0.4184039 -0.117714636 -0.6032327 -0.054996777 0.27739218 -0.62907535 -0.15039435 0.0056832023 0.17224877 0.36187822 0.23952039 -0.0831915 -0.032003198 0.5263817 0.43713623 -0.13245618 0.550314 0.0018526174 0.14096601 -0.12586214 0.4135644 -0.064371526 0.13501483 0.26522344 -0.22434357 0.093880385 0.059301104 0.09096549 -0.1843417 0.3512563 -0.0056419577 -0.030256584 -0.21529359 -0.09347639 -0.27653 0.0029385975 0.39033517 0.1065673 0.2024064 0.29924658 0.20216061 -0.08974669 -0.19530271 -0.035136126 -0.12088279 -0.07532722 -0.19863413 0.058153655 0.15105578 0.19666936 -0.0069804303 0.27229196 -0.1589571 -0.10358098 0.0655819 -0.5622313 -0.17343019 -0.0051238523 0.054693263 0.15117785 -0.13073285 -0.15502287 0.34505457 0.20781441 0.07126691 -0.29267207 0.05030808 0.22715266 0.0005432947 -0.35097438 -0.18416451 -0.20922206 -0.038670607 -0.43147388 -0.051865567 -0.10157658 0.027375167 -0.14306921 0.031035865 -0.057858795 0.43137988 0.057350885 0.38307443 0.18859346 0.116037525 -0.2930329 0.24360451 0.03586861 -0.04903995 -0.36598656 0.15735452 -0.067933574 0.06851667 -0.32978362 0.12142382 0.23569609 -0.023544919 0.09967611 0.26342723 0.08350255 -0.21387365 -0.116561346 -0.08572753 0.028493313 -0.12561543 0.09315967 -0.08887527 0.34778953 -0.14180529 -0.067157425 0.1427529 -0.24436677 0.13681415 0.16803044 -0.03519955 -0.1433518 -0.1957149
44 0.06993339 0.25146925 0.13953854 0.29384705 0.27392527 -0.30429012 0.18970107 -0.3321396 0.16170464 0.035718944 0.15008926 0.29644156 -0.19175234 -0.3632836 -0.17559682 0.3552795 -0.44684476 -0.033420462 0.31190065 0.4973109 0.34751284 -0.12776512 -0.15558821 0.015700374 0.30386016 0.67953384 -0.004110234 0.339395 0.3485015 0.19427559 -0.116758466 0.32944646 0.014408514 0.15213759 0.40267998 0.013972123 0.17541549 0.019018121 0.11726155 0.07922915 0.3613782 -0.1671676 0.0092971055 -0.4014311 -0.2166362 0.04203472 0.18162449 0.18170884 0.17388979 0.34695217 -0.1371526 -0.099747054 -0.015235575 -0.03037899 -0.43407544 -0.21903138 -0.1882129 -0.17129019 0.18467288 0.18980594 -0.23989448 0.10400158 0.44039866 0.109131336 0.11464571 -0.3003083 0.11273809 0.2864552 -0.044010155 -0.046407573 -0.21014984 0.031028328 -0.33250156 0.008841011 -0.08290564 0.112834424 0.044445913 0.060165852 0.20103537 -0.12065034 0.25184363 0.0012799328 -0.6417851 0.06305914 -0.1927826 -0.02071657 -0.05702895 -0.0021378445 0.08161161 0.52367264 0.20230442 0.2770537 0.16654605 -0.18003021 0.2906919 0.4495428 0.2580918 0.4441791 0.056762315 0.11269811 0.22532693 -0.088674106 0.20866677 0.44385314 -0.5615804 0.14264214 0.34825766 -0.41530287 -0.117569394 -0.13562362 0.17324977 -0.21042815 -0.026600054 -0.11943507 -0.3204979 -0.05679112 -0.020617697 0.13717039 0.17825375 -0.059527155 -0.059754673 0.2127821 -0.14716953 0.14166714 -0.00044988925 -0.35029566 -0.2640025 -0.29059947
45 -0.0023185366 0.25606358 -0.22030777 0.012029116 0.3342801 -0.02030103 0.14379247 0.012951794 0.23395407 0.11164067 0.3385681 0.31407657 -0.26537794 0.28597122 -0.077924006 -0.12897988 -0.81114304 0.27593902 0.18754768 0.32301256 0.41864702 0.2901847 -0.19698113 0.48954168 0.13022041 -0.0029160683 -0.3331465 0.15744866 0.23250449 0.26388127 -0.36637548 0.2094614 0.084409565 -0.031869072 0.75075394 -0.394606 -0.33787286 0.22624904 -0.33119127 0.24549487 0.1483264 0.4254028 0.2726469 0.300878 -0.011636703 0.24942319 -0.23604147 0.33443245 0.48363155 0.12111259 -0.07608822 0.018286088 0.37381837 0.012715649 -0.22829421 -0.2039183 0.30794826 -0.39185926 -0.16249023 -0.0965554 0.020963598 0.16677043 0.073829815 -0.0874917 -0.46789348 -0.30583656 0.35665655 0.11122375 0.06948967 0.06300235 -0.0289096 -0.10547932 0.01629213 -0.26455355 -0.21164969 0.017392365 -0.10083338 0.094907366 0.2638045 -0.031815596 -0.14484566 0.16243355 0.093927406 0.12758218 0.23838057 0.023235798 0.47255957 -0.2444298 0.18080132 0.33178005 -0.11617329 -0.03678122 -0.2766729 0.06956542 -0.054080732 0.10204802 -0.15898517 -0.16086558 0.2819224 0.05571594 0.47951087 0.5272228 -0.21220116 -0.009930969 -0.15664709 0.44275892 -0.17742625 -0.044087123 0.35167065 0.022879185 0.119341426 -0.056566365 0.15248224 0.19308475 -0.1167951 0.29320538 0.048738066 -0.10428986 0.23143986 0.17055278 0.09400766 0.33116642 -0.7350096 -0.14066899 -0.13322203 0.016833585 -0.12571323 -0.68091965
46 0.017496599 0.29574573 -0.04919067 0.0010554304 0.2186217 0.19566062 -0.041744 0.20593056 0.16954127 0.38345602 0.64044434 0.2590652 0.08115818 0.07009493 0.14171056 0.14507695 -0.71770555 0.39563304 0.35999674 0.24046758 0.23333758 0.2763597 -0.17067684 0.25568554 0.11333501 0.367372 -0.56143683 0.46196166 0.2205207 0.43076938 -0.11311521 -0.20052822 0.047016013 0.025008902 0.5309971 -0.48662645 -0.08215442 0.07134327 -0.28514487 0.21535547 0.08890327 0.550059 0.30904078 0.36224303 0.09874717 0.009320375 -0.31749335 0.2979982 0.29270858 0.018671839 -0.26691806 0.11243662 0.35454613 0.20211905 -0.45796338 -0.26860794 0.20591107 -0.39003077 -0.13193366 0.040724456 0.12706715 0.36646655 -0.0704039 -0.20306197 -0.37900838 -0.13070634 -0.08320188 0.10090107 0.06282979 0.31839606 -0.03327423 -0.2911406 0.038334385 -0.14924665 -0.16978374 -0.21015821 0.06667772 0.19627818 0.13584283 -0.13336578 -0.15918896 0.23890008 -0.030020634 -0.0018184877 0.17780808 0.20765127 0.11789388 -0.42442483 -0.0025673395 0.23756033 -0.15076618 0.02455571 0.06323631 0.038780753 0.075160116 0.1778852 -0.067381516 0.08756673 0.2252397 0.011575399 0.33669066 0.41510153 -0.12918022 -0.14675857 -0.09450852 0.35643563 0.072196305 -0.07519254 0.5312284 0.032683123 -0.070066996 -0.026587889 -0.026319293 0.3036231 -0.13487832 0.19802798 -0.087422736 -0.099297576 0.08694201 0.12074879 -0.1100586 0.19847722 -0.4651263 -0.09280988 0.12035343 -0.107202336 -0.09642227 -0.32646117
47 0.089921355 0.15226546 -0.23502839 0.24991803 0.32594135 -0.09542364 0.13490923 -0.14748959 0.10573387 0.08996846 0.29879034 0.319737 -0.23679374 0.11106216 -0.3087117 -0.06188347 -1.1921899 0.21967924 0.45865196 0.43356177 0.30484653 0.41282535 -0.0957744 0.5311817 0.37410557 0.3418955 -0.38300774 -0.024695134 0.18826263 0.2191008 -0.2870263 0.11531076 0.09447029 0.045121826 0.7846177 -0.45472905 -0.09159289 0.1457138 -0.3403681 0.1500748 -0.032306753 0.4074656 0.22551188 0.26705268 -0.05779537 0.17967021 -0.05800369 0.5657701 0.3394069 0.09215259 -0.13997011 -0.0391837 0.1890008 -0.13636842 -0.30172303 -0.48869544 0.15577267 -0.50328535 -0.24032785 -0.1600507 0.13170718 0.02297711 0.10950841 -0.2563122 -0.49345616 -0.29247898 0.13367586 0.02099854 0.13393888 0.15270983 -0.041532617 -0.37080377 -0.13683417 -0.37548724 -0.03653148 -0.022004502 0.011465196 0.09293862 0.102628276 0.19676042 -0.0112078935 0.23142196 -0.05137468 -0.0785667 0.10799223 -0.07606749 0.33737272 -0.2978625 0.10068844 0.26308683 0.08749791 0.08188659 -0.35485068 0.17416063 0.19816552 0.13314986 0.048462853 -0.029436186 0.2783021 0.17260551 0.4808067 0.36083037 -0.31709346 0.09564049 -0.17453909 0.15556319 0.010020505 -0.0066603925 0.12155713 -0.0036928353 0.0013188272 0.08959887 0.09163681 0.041173484 0.19406876 0.29956698 -0.091775246 -0.2131336 0.1517426 0.41834486 0.10483688 0.19689228 -0.7241283 -0.05077026 -0.057516262 -0.02635282 -0.13107553 -0.40402028
48 0.0952424 0.24580556 -0.31175843 0.21860342 0.354621 -0.041383244 0.098900646 -0.18964082 0.044016834 0.08118748 0.2697524 0.40270582 -0.1714241 0.26180336 -0.21137282 0.0699876 -0.9134436 0.27799603 0.28292748 0.29888415 0.3909759 0.32633796 -0.21920426 0.4976668 0.30496392 0.25184664 -0.41016465 0.054496102 0.32544932 0.2556108 -0.31837714 0.15055811 0.15947598 -0.031829756 0.9156146 -0.2790263 -0.32793334 0.33363155 -0.2489036 0.2566471 -0.040036667 0.48403504 0.23426093 0.32646754 -0.15478379 0.25159988 -0.12177097 0.39229253 0.5091063 0.16761759 -0.14280918 0.05611502 0.39273977 0.122214995 -0.34408465 -0.3166662 0.26267698 -0.5755595 -0.21515761 -0.1522692 0.059331585 0.05181896 -0.00805989 -0.36769608 -0.43084002 -0.38238448 0.2730957 0.16572066 0.097167365 0.19319522 0.018511424 -0.20218402 -0.22121955 -0.40495038 -0.15780085 -0.08752921 -0.0037947835 0.11267551 0.32606834 -0.06307689 -0.0921715 0.25690013 0.1006864 -0.131311 0.22416873 -0.082965314 0.43268153 -0.22038753 0.15087557 0.33396015 0.07025248 -0.028548794 -0.24797648 0.09085742 0.054126773 0.15130846 -0.030692123 -0.09829169 0.32368937 0.15855853 0.4967096 0.40225527 -0.24278057 0.07828194 -0.16826947 0.18441258 -0.059979536 0.15916282 0.3850642 -0.18195863 -0.009317679 0.091155924 0.09344701 0.19170772 0.031178547 0.3338084 0.01251435 -0.22918987 0.3272138 0.35827467 -0.007293755 0.2315454 -0.70435387 -0.061365947 -0.039584134 -0.007751643 -0.17706354 -0.59591997
49 0.07040985 0.10254631 0.041515756 0.36309555 0.058528498 0.033274874 0.24277368 -0.5050127 0.076317675 0.00624543 0.23596741 0.2838268 -0.35515755 -0.11959802 -0.09685235 0.15613359 -0.5026885 0.0261391 -0.03561843 0.12320306 0.20455462 -0.2834957 -0.30529693 0.52547 0.015517374 0.19219138 0.06647947 -0.44273275 0.5847393 -0.0028324341 -0.029955454 -0.011346431 -0.004084517 -0.4067427 0.21536165 -0.52140284 -0.07800201 -0.112958126 0.27137327 0.042422738 -0.093719564 0.34231472 0.039165545 0.05321259 -0.13903934 0.33804592 -0.27343506 0.25004187 0.16351807 0.08032806 -0.22389646 0.3259578 0.28353864 -0.22019835 -0.21095544 -0.10259424 -0.15756129 -0.19239455 -0.4034008 -0.1356881 -0.02417351 -0.4104276 0.26209563 -0.29319897 0.12127135 -0.5193542 0.2019388 0.079927795 -0.03663758 -0.18811323 -0.21332072 0.3115585 -0.26859564 -0.11785714 -0.6886238 0.3905564 0.20555565 -0.1654386 0.078004956 -0.13462055 0.25122645 0.25744522 -0.4700588 0.09624197 0.20962407 -0.16188386 0.32468846 0.16739625 -0.022132702 0.4237467 0.16426602 -0.25672588 0.07856346 -0.35259008 0.08307236 0.18654315 0.37119913 -0.044206798 0.36644542 -0.08459882 0.28524914 0.15641916 0.06615328 0.29621416 -0.10358339 -0.18611541 0.459601 0.036860816 0.20548046 -0.37577677 -0.18588924 -0.0041177655 0.40328312 -0.017776279 0.2785004 -0.3420492 0.04087139 -0.16770078 0.26088914 0.38209724 0.031134048 0.10908061 -0.26937282 0.23151276 0.20681918 0.15532614 -0.32712922 -0.1822066
50 0.17438778 0.2623244 -0.23594914 0.32679185 -0.019468129 -0.109132685 0.14038552 -0.54723024 0.10915493 0.006507504 0.14174397 0.38628334 -0.44523317 -0.214692 -0.23852226 0.168637 -0.60874134 0.052489694 -0.074772 0.31591818 0.14522114 -0.27071777 -0.2908072 0.49146414 -0.10461695 0.4388317 0.019441608 -0.42052695 0.5343128 0.018524507 0.14123958 -0.004725493 -0.069386676 -0.27327886 0.37107784 -0.38916478 -0.26613462 0.1281887 0.21933913 0.079039305 0.009587495 0.43989655 0.009294634 -0.07103233 -0.19368991 0.24191716 -0.30712533 0.23813091 0.4794488 0.32080743 -0.031818934 0.33546257 0.35137293 -0.13050705 -0.097118534 0.1136593 -0.025705807 -0.29786515 -0.2860753 -0.21802546 -0.0804234 -0.2736609 0.18904473 -0.4709723 0.08068261 -0.42546278 0.33596727 -0.018423703 -0.16591409 -0.07337273 0.015929215 -0.014493413 -0.32927367 -0.16982193 -0.54959464 0.22584812 0.06277094 -0.18537407 0.3247225 -0.1175399 0.11755237 0.17603339 -0.34249297 0.0043485533 0.2154516 -0.10823519 0.40992877 0.2582727 0.095676094 0.37208745 0.2971112 -0.31049487 -0.03191203 -0.30806896 -0.03537806 0.232713 0.4463851 0.06568861 0.4559007 0.06644322 0.44434407 0.23431723 0.047672495 0.21036772 -0.2330815 -0.052355427 0.28689736 0.19224142 0.21428299 -0.37009996 -0.13935106 0.015627824 0.17841405 -0.12953466 0.046538122 -0.09285808 -0.18278147 -0.1671238 0.50568557 0.3208974 0.15976039 0.09293112 -0.46717542 0.15580173 -0.015814897 0.21031308 -0.2764868 -0.1557589
51 0.012838624 0.20905508 -0.056946654 0.20997217 -0.0025972745 -0.20912784 0.3163107 -0.5124371 -0.07132121 0.106139965 0.43280342 0.4495425 -0.4519357 -0.21571036 -0.14849718 -0.07653072 -0.717264 -0.14503403 -0.03462582 0.15197729 0.2985507 -0.2498122 -0.29688185 0.42407137 -0.13229786 0.28887585 0.0021767283 -0.3128381 0.35671586 -0.18891616 0.041865885 -0.14020109 -0.14172256 -0.22018093 0.35450518 -0.34264526 -0.16175422 -0.05008218 -0.019725433 -0.07531879 -0.009482601 0.4894272 0.0026330007 0.13960524 -0.40724644 0.25336996 -0.29783228 0.07480177 0.0059016743 0.079114415 -0.13912138 0.12682964 0.04766699 -0.31645274 -0.09028821 -0.064737074 -0.12361514 -0.19577001 -0.43473977 -0.1958947 -0.22352587 -0.14728719 0.23789585 -0.11715788 0.017231457 -0.70306957 0.30074674 -0.18225953 0.059144985 -0.34914935 -0.281888 0.04682607 -0.19775909 -0.15400167 -0.42411292 0.11932083 0.33039692 0.10879841 0.34323955 0.14856462 0.42817637 0.2510596 -0.43161723 0.08550527 -0.055704936 -0.12063671 0.37041688 0.2910435 -0.122914985 0.29069954 0.027666813 -0.38184637 -0.2350404 -0.19057676 0.09991157 0.07771446 0.66374546 0.024642518 0.59991014 0.083682865 0.346534 0.104257286 0.017729836 0.29063904 -0.09083311 -0.15019491 0.31769347 -0.21371514 0.14619033 -0.0288395 -0.050181642 0.12689689 0.019453129 -0.03172343 0.20577215 -0.24899186 -0.04515109 -0.21783903 0.076183036 0.19986503 0.40605485 0.15271144 -0.2573205 0.2222328 0.07845258 -0.044633165 -0.61869067 0.24622141
52 -0.0034540086 0.119061746 -0.090408064 -0.10495079 -0.041257396 -0.05638493 0.43337488 -0.29172048 0.29608694 0.18230772 0.25878277 0.40267563 -0.5003188 -0.2840793 -0.1904801 -0.022849612 -0.46674564 0.106180966 -0.19305916 0.090107284 0.19384837 -0.15806197 -0.17389195 0.52461183 -0.12489098 0.16625927 0.14496955 -0.4264257 0.47022733 0.079011574 -0.0056240084 -0.11478857 -0.11044466 -0.16743752 -0.038123053 -0.45368928 -0.112283245 0.17080162 -0.11422276 -0.10872808 0.20876534 0.39839584 0.031228589 -0.09724943 -0.02735219 0.29215035 -0.48632348 0.23657411 0.42822424 0.1176752 0.1095513 0.36680228 0.2150846 -0.40784848 -0.049888033 0.19894119 -0.25117838 -0.12927122 -0.21983828 -0.05342504 0.033308744 -0.3696564 0.121402875 -0.069663346 -0.036646552 -0.34215838 0.5388958 -0.03869476 -0.29626474 -0.15585425 -0.05106988 0.27412927 0.14952849 -0.061533652 -0.59133697 0.36528093 0.088710874 0.060235973 -0.06469103 -0.19297579 0.21378598 0.25656274 -0.2376767 0.18300994 0.43590683 0.06360797 0.3303872 0.14007962 0.077934995 0.49445322 0.22940432 -0.6186877 -0.06273486 -0.23019148 0.055580568 0.23344323 0.35240242 -0.10878095 0.4822425 -0.17359956 0.46738827 0.2146033 -0.17901532 0.40323803 -0.22570612 0.10504245 0.12897773 -0.16739832 0.1142473 -0.03664568 -0.018654997 -0.046604093 0.2594969 -0.08467745 0.005365851 -0.048021853 0.13957462 -0.03388632 0.089446604 0.35879964 0.18367009 0.40150195 -0.44197768 -0.15899345 0.057245255 -0.08469071 -0.6558314 0.028155794
53 -0.0736734 0.07594265 -0.004421767 0.110978186 -0.0074892514 0.0443116 0.14385599 -0.4004754 0.21008609 0.1586915 0.23769745 0.28705287 -0.38068458 -0.16298734 -0.19027393 0.18108326 -0.34692615 0.041921835 -0.08502939 0.15293433 0.10614977 -0.20450713 -0.25493622 0.47722325 -0.39013582 0.47062674 0.067805 -0.39730465 0.5411808 -0.094443925 0.060800314 -0.32272947 0.06448913 -0.3956134 0.17297311 -0.45748132 0.03897748 0.19084355 0.23716375 0.10586414 0.06669097 0.40812367 0.3245213 0.14262024 -0.05082794 0.3030075 -0.5154977 0.24514724 0.29931808 0.1586655 -0.16310947 0.3498592 0.25836286 -0.23656227 -0.09263547 0.11118079 -0.19260441 -0.07830441 -0.11789368 0.104292795 0.14450404 -0.20072167 0.041301683 -0.09718427 -0.14404942 -0.30423558 0.3669103 -0.11423023 -0.07797619 -0.2988065 -0.19040327 0.055191766 0.051883385 0.009406979 -0.5534133 0.23026672 0.23002839 -0.03816244 -0.06378368 -0.11583119 0.3180848 0.09276564 -0.38182867 0.07604034 0.2798374 -0.11461413 0.27728653 -0.06584017 -0.2290641 0.57104266 0.24464391 -0.46765175 0.38294828 -0.30477867 -0.16852959 0.13685074 0.5479111 -0.09937385 0.44482717 -0.06508335 0.4505314 0.2171919 0.2061748 0.38660365 -0.1724358 0.109337404 0.11003639 0.023181666 0.1878541 -0.4202423 -0.07190884 -0.09473148 0.47809404 -0.052394915 0.063182265 -0.14638759 -0.09684917 0.12691957 0.26628616 0.2771461 0.24367993 0.45647585 -0.3527713 0.08235591 0.09301185 0.030188689 -0.38692984 -0.06937106
54 -0.009896039 0.18658286 -0.051806547 0.32951728 0.22159737 0.12154895 0.37255138 -0.049804114 0.3024768 0.26098925 0.39495403 0.49817973 -0.4773166 -0.1051067 -0.22147137 0.2648932 -0.29961526 0.053473417 -0.13082117 0.30908725 0.11837399 -0.37623367 -0.33652532 0.48599285 -0.25354868 0.49563447 0.10801232 -0.29280326 0.46441382 0.020646272 0.118307516 -0.3907535 -0.027402168 -0.34366342 -0.046013217 -0.15636712 0.12492604 0.09838294 0.17598541 -0.22172284 0.07318165 0.5625178 0.20280495 0.12434296 -0.13339081 0.19427319 -0.40539256 0.27475506 0.36112338 0.029072184 -0.19691636 0.40160304 0.28527945 -0.26278055 -0.061329443 0.11044551 -0.035550248 -0.2523911 -0.19493054 -0.039283637 -0.3282098 -0.4731422 0.13261163 -0.13899712 0.036453407 -0.329754 0.3074689 -0.16996478 -0.19633064 -0.22111279 -0.15979394 0.23573041 -0.16777822 -0.15624107 -0.54037464 0.32864192 0.17929694 0.008742044 0.08617767 -0.064129405 0.5984809 0.247372 -0.42733368 0.058183387 -0.02032497 -0.15540794 0.543941 0.17902401 -0.01679283 0.40019378 0.12526819 -0.67526287 -0.06982233 -0.13999529 -0.11886617 0.17990658 0.62327236 0.16732807 0.33807263 0.035192 0.40293255 -0.0005473778 0.06980795 0.37708992 -0.27100056 -0.05398307 0.13958575 -0.019244185 0.16714665 -0.30187482 -0.22936285 -0.06360603 0.10596438 -0.11196513 0.20259494 -0.029221125 0.013472179 -0.15517046 0.03251548 0.15464656 0.19177201 0.18867023 -0.2670759 0.014514175 0.11906404 -0.02952518 -0.41190088 -0.13752447
55 -0.0004877433 0.2518823 -0.10786895 0.26214746 0.17046931 -0.107032984 0.3961484 -0.29671156 0.006504367 0.0045362418 0.26248443 0.34723884 -0.44440362 -0.09904919 -0.18074536 0.18085705 -0.5153106 -0.01008562 -0.09603525 0.3189737 0.16675988 -0.37283063 -0.34776974 0.5414269 -0.14330785 0.39680365 -0.0420614 -0.43227762 0.47397676 0.018105827 0.04335634 0.11746295 -0.08356126 -0.18208799 0.29779917 -0.30811206 0.09066491 0.05513139 0.21863379 0.0046846974 0.15060687 0.27582055 0.0375815 -0.21779817 -0.08322127 0.25810772 -0.2690047 0.26471657 0.08842512 0.3354372 -0.28209352 0.23463729 0.3062619 -0.32317176 -0.20781317 -0.06733269 -0.13989025 -0.17400679 -0.19241463 -0.15763369 -0.24755092 -0.27329317 0.3540949 0.011777922 0.20034957 -0.55563813 0.3781921 -0.010563129 0.02041153 -0.32283306 -0.20186181 0.31339315 -0.3916552 -0.0530441 -0.46727094 0.23510046 0.18532017 0.016534584 0.15739667 -0.020681428 0.42943296 0.053445406 -0.5470892 0.092449866 0.1714913 -0.24146509 0.24461219 0.25915253 0.0437125 0.520253 0.17167157 -0.41547132 0.05100848 -0.46387205 0.161461 0.19349359 0.58670205 0.15447061 0.36502755 0.06562137 0.41546118 0.16694404 0.13743654 0.4315831 -0.52313346 -0.046412487 0.4132637 -0.07839653 0.07647019 -0.14041296 0.040742785 -0.22475702 0.36511877 -0.22407666 -0.15144642 -0.18854623 -0.014114195 0.11299108 0.17699996 0.11629764 0.3163797 0.33013806 -0.35330203 0.19244456 0.03954744 -0.10705942 -0.48294252 -0.26964077
56 -0.29823858 -0.011746748 0.33730853 -0.01903867 0.07833698 0.07459561 -0.35650775 -0.009692447 0.19787839 -0.18287049 0.2198708 -0.11939356 -0.17257066 -0.22391824 0.17583454 0.05179275 -0.049115546 -0.0917205 0.15128364 0.030815132 0.14353725 0.026424179 0.090192966 0.41944084 0.38485298 0.38449046 -0.22274795 0.2597561 0.3412278 0.103382334 -0.033760365 0.043631133 -0.12921087 -0.05727204 0.22152802 0.2495083 -0.13004236 0.045545604 0.27652517 0.12328649 0.05774589 0.053611055 0.25545013 -0.10040515 -0.15803191 0.054431725 0.10130738 0.1781009 0.23755659 -0.0807329 -0.04753688 -0.018766817 -0.13187243 0.023122262 -0.21082124 0.0054847305 -0.03524083 -0.23440672 -0.06138701 0.1929181 0.17205901 -0.088166796 -0.071788535 -0.3383314 0.030963896 -0.10086666 0.12519427 -0.15107459 -0.09974554 0.13462512 -0.13954048 0.029160986 -0.14771298 -0.17481709 -0.0845232 -0.031482954 -0.06516578 0.07174404 -0.13570754 -0.5539161 -0.16611406 -0.24767624 0.045634933 -0.003342545 0.033047047 0.0030858838 0.19640581 0.111534305 0.3381597 0.3318836 0.006841296 0.12605205 0.12184599 0.24641629 0.15470889 0.1428477 -0.08925787 0.095698565 -0.010837117 0.05692569 -0.06633679 0.03879449 0.3600091 0.15694477 -0.20887408 0.34098446 0.25884756 0.11897394 0.014562486 0.19017306 0.2296738 -0.04392853 0.24373613 -0.0665442 -0.30817986 0.27119046 0.041479785 -0.38373807 0.42511272 0.08314813 -0.039872948 0.01924869 0.04029524 0.15770425 0.29639938 -0.14899409 -0.25649533 -0.17112581
57 -0.05744265 0.1736355 0.42790315 0.14368367 0.005320587 0.16602261 -0.31125584 -0.080146946 0.026124226 0.08500227 0.4040455 -0.075981855 -0.2654585 -0.21599604 0.17932723 0.18099393 -0.16346225 -0.15098092 -0.026529904 -0.2013075 0.20289814 -0.23146826 0.24571963 0.27384722 0.16222245 0.5912421 -0.38913667 0.26516983 0.11580021 0.25358412 0.061146908 0.05585497 -0.16297485 -0.07134266 -0.044028997 0.5489652 -0.0048820465 0.06773715 0.20919922 0.1350176 0.11676297 -0.030369602 0.07477855 0.16719548 -0.4218102 -0.06301447 -0.17537351 0.27756873 0.06059708 0.105581515 0.045662303 0.042625215 -0.26596314 0.062994696 -0.22950219 0.27289143 -0.16683729 -0.019844258 0.0124925 0.11254171 0.23243257 -0.21777236 -0.2312071 -0.14366755 0.24721853 -0.08665173 0.13624182 -0.04354351 -0.3126152 0.25145975 -0.3427162 -0.05938336 -0.08946009 -0.076564915 0.031858295 -0.26541382 0.19590877 0.19855157 -0.0052969176 -0.63379025 -0.092232555 -0.4801986 -0.11190408 0.16336805 1.8418777e-05 0.006923794 0.08851044 0.28627515 0.09756515 0.54984915 0.11194631 -0.07402579 0.07571279 0.14486513 0.14611636 -0.10206101 -0.13721587 0.2296132 0.035732258 -0.17824605 -0.14296336 0.06342718 0.4804309 0.06226352 -0.00043309105 0.3573353 0.14129032 0.1390429 0.048483998 0.25093463 -0.14989181 -0.28402367 0.27963254 -0.095728986 -0.208287 0.04476312 0.01678427 -0.36405215 0.39128214 0.09006841 0.21483617 0.0040447623 0.07934677 -0.063806735 0.21237975 0.008283597 -0.5637283 0.16821678
58 -0.2111899 0.042030014 0.114519626 -0.06953648 0.04692655 0.27599305 -0.19318368 0.06629458 0.2081239 0.05045295 0.47350153 -0.25147724 -0.27432764 -0.26209715 0.2521974 -0.108836144 0.037852798 -0.017803872 0.015586334 -0.14407323 0.07881395 -0.025589667 0.17282426 0.41547328 0.29689813 0.2899528 -0.4497399 0.27610767 0.2881043 0.12817875 -0.049660854 0.1886822 0.018087521 -0.048463643 -0.07139247 0.33213443 -0.13886887 -0.009934123 0.12405818 0.3233818 0.1836035 0.12461063 0.22184207 0.076068275 -0.34742695 -0.009864243 -0.03180022 0.39353782 0.14559999 0.31028825 0.06334764 -0.2583132 -0.44237646 -0.16701066 -0.44615278 0.26490498 -0.017637134 -0.07366022 -0.15635583 0.062469654 0.28215858 -0.27255315 -0.20069525 -0.14018303 -0.009966075 -0.1609192 0.035184044 -0.19526023 -0.17248999 -0.0040665152 -0.29780096 0.0034680816 0.019793784 0.057544243 -0.14201397 -0.09448533 0.21419854 0.10511712 0.027212279 -0.51125056 -0.19531524 -0.4576576 0.16500671 0.26607525 0.004152841 0.052352767 0.32587284 0.20013614 0.33511636 0.4855853 -0.0009904201 -0.052732047 -0.07913795 0.28028592 0.026386227 0.18899098 -0.05357756 0.17146267 -0.04698243 -0.11592534 -0.22905616 0.23116116 0.13538511 0.051731102 0.071971305 0.3657481 0.065607145 0.12573643 0.023727933 0.19092248 0.16405194 -0.17457092 0.18239123 -0.0655283 -0.2250602 -0.012319013 0.25397903 -0.5776868 0.45639828 0.14786607 0.029778033 0.17782539 -0.25661042 -0.06320239 0.34541798 0.009554488 -0.5577392 0.098202296
59 -0.14413732 -0.008016593 0.24366556 0.10684578 0.14161631 0.1698249 -0.18878242 -0.04694504 0.23371951 0.11060849 0.52291274 -0.030768445 -0.007276336 -0.12647116 0.18220977 0.044256683 -0.019625887 -0.19921748 0.107447915 -0.073586285 0.21789269 -0.3221305 0.11349759 0.30928564 0.3474476 0.31841612 -0.38033295 0.39568844 0.42139506 0.11100712 0.02146364 0.08334387 -0.106896885 -0.054527264 -0.1126959 0.3681586 -0.18476304 -0.0016774773 0.09876227 0.14020295 0.06811031 0.046264555 0.22511695 0.15200315 -0.43305284 0.07817435 -0.01481505 0.4138127 0.26509318 0.034958098 -0.09406519 0.021816414 -0.3314044 -0.07208524 -0.35489634 0.15638061 -0.09221194 0.11821281 -0.086109936 0.14202909 0.19636522 -0.4576831 -0.29293513 0.09641091 -0.07201769 -0.14433576 -0.0058259144 -0.1357499 -0.22520182 0.052260995 -0.17838164 0.05263643 -0.13863222 0.087370954 -0.09649382 -0.024231251 0.22236978 0.2967768 -0.0054544928 -0.57679385 -0.20493823 -0.3783632 -0.00018251904 0.1553644 0.007519153 -0.046607163 0.015797015 0.24176855 -0.05690463 0.31840366 0.033129137 0.112693444 0.14958368 0.25693694 0.19565243 0.148192 -0.009697132 0.21977496 -0.1419736 -0.06929505 -0.2697441 0.2622602 0.39992997 0.06336144 -0.00487137 0.3063271 0.046415452 0.040336095 -0.1113178 0.1517225 -0.12166062 -0.004384803 0.17170255 -0.0045219483 -0.28037632 0.08373332 0.2883253 -0.60522145 0.42560887 0.15650018 0.122271486 0.18127137 -0.024541186 0.042784493 0.26170668 0.0076134265 -0.7158139 0.23899256
60 -0.33418247 0.18167606 0.29809442 -0.14061874 0.17493032 0.116351336 -0.21899766 0.046490334 0.22364104 -0.041445214 0.36351344 0.05867817 -0.087501325 -0.12323466 0.16544604 0.09142956 0.004318337 0.070320904 0.12146272 -0.06924784 -0.09737541 -0.036281887 0.103755005 0.38159388 0.1319924 0.2895865 -0.20606276 0.42679772 0.32055685 -0.013817367 -0.08935432 -0.038794097 -0.10410569 0.07818812 0.20316713 0.1957126 -0.17376912 0.08537861 0.23226595 0.28868705 0.12888461 0.10742589 0.2690569 -0.07469056 -0.42701706 0.05726549 0.09140045 0.38143542 0.32402202 0.04169987 -0.074474424 0.094106026 -0.24690488 0.052907914 -0.27267125 -0.032211 0.09307261 -0.25486547 -0.12966003 0.060173195 0.21998082 -0.13514388 -0.16763522 -0.23964384 -0.051780485 -0.12965724 0.117553316 -0.24955039 -0.12792048 -0.0076964526 -0.08653364 0.097489096 -0.0045790994 0.035376802 -0.11018591 -0.14321673 0.11837491 0.15074933 0.0010763773 -0.53903604 -0.24620052 -0.30078444 -0.002128823 0.0071903043 0.09866314 -0.09228981 0.1544838 0.29164258 0.29460478 0.20168476 0.049809895 0.09209084 0.111893535 0.2139068 0.07413963 0.25303328 -0.04014314 0.18396075 0.07875149 0.048114214 -0.21149231 -0.034972854 0.41414824 0.18428148 -0.15913156 0.5185133 0.108361095 0.10902247 0.18643762 -0.016345222 0.05355278 -0.050356638 0.28931785 -0.042261537 -0.32946476 0.091247685 0.17262815 -0.45542777 0.5256753 -0.019865125 -0.08493873 0.14258765 0.030742593 0.014516309 0.3107874 -0.23145917 -0.46440428 -0.02622043
61 -0.3762231 0.12146136 0.2991566 -0.1114127 0.08843145 0.07280569 -0.35894457 -0.019681158 0.19987373 -0.0036382203 0.3936618 -0.05003845 -0.24339646 -0.17481403 0.106229335 -0.0706602 0.010958495 -0.03306016 0.13845575 0.010374974 -0.024291655 -0.034653977 0.07602819 0.38961372 0.14490736 0.2025188 -0.22876686 0.15929924 0.2645221 0.09038659 0.0030889122 -0.06045849 -0.13445807 0.050451625 0.19787832 0.24384134 0.0013990103 0.057825767 0.27115843 0.21088395 -0.055825908 0.058245078 0.37002873 0.06712746 -0.29680058 0.026229631 0.052376334 0.33722225 0.2315118 0.086757764 0.06523419 0.008039897 -0.266505 0.09605039 -0.16809012 0.09477482 -0.16406035 -0.26700094 -0.19752587 0.14202514 0.35189664 -0.13387418 -0.20271808 -0.22309111 0.032222692 -0.21005824 0.05110989 -0.22707246 -0.17566739 0.05930643 0.017121652 -0.0058763307 0.040881164 -0.02673184 -0.03249708 -0.15450245 0.030890375 0.22865632 -0.17662622 -0.6957616 -0.22017677 -0.3163544 -0.02517998 0.051222216 0.15409067 -0.06931623 0.108251095 0.33023906 0.14963046 0.312887 0.1837794 -0.033332333 0.27246663 0.3088946 0.025529096 0.22185491 -0.09465274 0.06545601 0.071862385 -0.035618685 -0.13704784 0.0389096 0.39953104 0.29090723 -0.38414767 0.48582667 0.20804326 0.1844856 0.0710531 0.030368363 0.24043724 0.022487937 0.3167693 0.068212144 -0.12552264 0.19042926 0.17268202 -0.48410866 0.39176175 0.041833647 0.008939 0.08726181 -0.053909745 0.06992101 0.20834573 -0.17017762 -0.30471212 -0.10862438
62 -0.14064069 -0.10390665 0.4029391 0.03817296 -0.010241478 0.07308105 -0.1771683 0.07569331 0.13149616 -0.042394027 0.1996366 -0.34121278 -0.16321889 -0.31490758 0.14389457 -0.08941893 -0.28296956 -0.03883684 0.16620634 0.008953443 0.39895797 0.06656759 0.17514807 0.48319253 0.53752834 0.59399825 -0.40826753 0.15026739 0.45780817 0.14786497 -0.16627064 0.17044203 -0.08945609 -0.15651666 0.11144187 0.26796687 -0.0017746539 -0.033295542 0.026129924 0.1860639 0.087560974 0.04651681 0.15341318 -0.02659994 -0.20138973 -0.038804136 0.088946074 0.3409207 -0.07351691 0.11313694 -0.078525655 0.04900178 -0.2897933 -0.045580413 -0.18357882 -0.07623671 -0.06253383 -0.21344547 0.090136334 0.045588557 0.11209656 -0.24580722 -0.28281948 -0.20016444 -0.080913246 -0.008015624 0.060064077 -0.2641171 0.00609776 0.09502501 -0.27866212 0.049437772 -0.040317185 -0.07746728 0.023284495 0.028400294 0.15367645 0.21628882 -0.076946385 -0.2813754 -0.2806563 -0.32262704 0.1204553 0.12856816 0.014178884 0.06539995 0.096406415 -0.044232562 0.25066498 0.44629607 -0.113030404 0.20092592 -0.08608681 0.23583575 0.2854792 0.05937246 -0.0281173 0.08728807 -0.23433167 -0.025389923 -0.24916062 0.1798179 0.1966334 0.11090856 -0.021053314 0.056682963 0.17760967 0.08352719 -0.05096479 0.17972292 0.21186018 0.011996691 0.32397515 -0.06013898 -0.16295326 -0.003497327 0.11945059 -0.4602244 0.36746347 0.19803493 0.07576985 0.19097959 -0.02356869 0.20573571 0.3342117 -0.04977034 -0.5076643 0.02747665
63 -0.23709452 0.126067 0.34666708 0.21506153 0.20176838 0.16016486 -0.120920524 0.0016948492 0.120566644 0.13198723 0.35935706 -0.12562072 -0.15769035 -0.33141923 0.09339788 0.012404493 0.10568305 -0.2799383 -0.012165836 0.17556107 0.17250414 -0.19806199 -0.019207725 0.410285 0.24979924 0.47246575 -0.33237877 0.10741086 0.47967052 0.03718111 0.0024810121 0.04122502 -0.17746824 -0.12703015 0.20635825 0.34396708 -0.06322971 0.2296357 0.0049092066 0.18102254 0.064074844 0.19336389 0.24288714 0.08194152 -0.43371028 0.09182715 -0.28650925 0.3198153 0.1358721 0.33447877 0.21113977 0.044734817 -0.30817434 -0.016781265 -0.3241873 0.25264314 -0.16595732 -0.16843398 -0.16380803 0.29190025 0.13393386 -0.34774888 -0.23617874 -0.32969382 0.11715961 -0.14621718 -0.025873609 -0.18235543 -0.1931395 0.10521929 -0.13230823 -0.11683183 -0.03524138 0.11533681 -0.013217573 -0.08975305 0.14036405 0.20146146 0.081597604 -0.49250484 -0.14865772 -0.5309165 0.1365246 0.22360416 -0.2115805 0.031859133 -0.038660455 -0.05019444 0.31862354 0.2893123 0.08945063 0.023809232 -0.014627568 0.40829402 0.19192147 -0.007793687 0.019038146 0.3537314 -0.20608874 -0.2829821 -0.065080374 0.07639067 0.5152391 0.035263337 -0.15011375 0.1661263 -0.16675691 0.17102338 0.056476425 0.09813841 -0.17261742 -0.08383037 0.23275626 -0.031370826 -0.14480275 -0.013219123 0.24625595 -0.5323559 0.29502392 0.24575977 0.18742117 0.09025144 -0.055693865 0.0548697 0.3362773 -0.16492617 -0.34998438 0.32487044
64 -0.23837544 -0.065146826 0.34587446 -0.095728494 -0.112289414 0.2718772 -0.20409703 -0.041508816 0.025835311 -0.0076095476 0.25278488 -0.17337675 -0.08626921 -0.306617 0.2604699 0.20312825 -0.11033684 -0.30408219 -0.015207171 -0.29858005 0.20629461 -0.14189394 6.655359e-05 0.48629075 0.30450943 0.28150034 -0.42177016 0.24356538 0.4424938 0.19572866 0.0005768871 0.13337798 -0.20166163 -0.11051165 -0.0390277 0.43722737 -0.11336299 0.07715689 0.16718782 0.22988993 -0.051256273 0.040128395 0.18361524 0.14672898 -0.4322411 0.0663911 -0.03535354 0.29212976 0.038901497 0.30962119 -0.014947934 0.042509206 -0.28512764 0.069543 -0.30934894 0.27643964 0.02928201 -0.117422946 -0.07578578 0.0893739 0.31061244 -0.38915014 -0.41044566 -0.2105904 0.31063235 -0.1751817 0.10397455 -0.25479838 -0.2977167 0.19356494 -0.120442405 0.094622634 -0.059217524 -0.06850435 -0.25392663 -0.041128255 0.27432746 0.03739108 0.07323513 -0.5064737 -0.2772804 -0.39907917 0.041041054 0.13093986 0.12166252 -0.22003172 0.11832985 0.1815504 0.2990708 0.3267779 0.099070266 0.12666743 -0.01693547 0.13730454 0.059582222 0.08449919 -0.14003305 0.23536812 0.011662723 -0.19493097 -0.3553724 0.095184386 0.18449129 0.036678337 0.019049844 0.1997372 -0.0060487343 0.19225483 0.20554373 0.06541909 -0.090074874 -0.14940265 0.406022 0.03136574 -0.09884377 -0.09361332 0.32931468 -0.5202197 0.41153777 0.25830603 0.101559915 0.15796947 -0.053413372 0.04999359 0.41687185 0.07792915 -0.44714525 0.10134098
65 -0.13054778 0.045231674 0.54495513 0.16412246 -0.09064034 0.0878202 -0.26933116 0.0057816044 0.09055532 0.0024061021 0.51012856 -0.111000344 -0.14082567 -0.2380536 0.18384059 -0.18687671 -0.1517871 -0.014593651 -0.051675446 -0.18556243 0.12569538 -0.21185088 0.299134 0.3772297 0.4356142 0.39866602 -0.3329581 0.114805005 0.42108583 0.18137915 -0.014203564 -0.020269945 -0.40340662 0.15656556 0.04758079 0.30865952 -0.13893215 0.09774553 0.02530679 0.12312226 0.22388805 0.23500298 0.110472664 0.055677306 -0.5097528 0.0074598184 -0.02838241 0.3355866 -0.002303273 0.0637272 0.028372522 0.14470336 -0.19478835 0.09457643 -0.37083796 0.2437938 0.07546904 0.010779289 -0.071799144 0.079396725 0.20445968 -0.30713576 -0.22656047 -0.278999 -0.040338453 -0.13385676 0.07163819 -0.03996361 -0.08813164 0.035922058 -0.3012615 0.019586498 0.026781878 0.014556787 -0.0072001163 -0.06900031 0.24896118 0.14672758 -0.030456796 -0.46696624 -0.30761853 -0.47530195 0.098804735 0.29097727 -0.16477165 0.0016328648 -0.032879315 0.1546549 0.30665678 0.3582095 -0.058225572 -0.05367629 -0.0352684 0.19758163 0.22184095 0.0541032 0.043206595 0.028012522 -0.08077061 -0.14080955 -0.11966282 -0.00030301328 0.30769166 0.07430966 0.006935022 0.18013434 0.18109436 0.06416737 0.11587593 0.112669565 0.035913177 -0.16975813 0.40023342 0.10173743 -0.20330215 -0.06120387 0.18942273 -0.4604391 0.4716638 0.05477657 -0.022660593 0.2976384 0.07630062 -0.062494606 0.4090929 -0.09533743 -0.5334776 0.25809336
66 -0.16631508 0.0037427985 0.30885863 -0.062086422 -0.07503795 0.32772678 -0.18645445 -0.081433974 0.024222856 -0.03439791 0.4356822 -0.15024932 -0.120357 -0.29834616 0.20205148 0.09316201 -0.08623198 -0.24521536 0.06285826 -0.11073179 0.25002196 -0.24426022 0.1993208 0.5554466 0.19768299 0.36999843 -0.44047028 0.11495261 0.29349232 0.03495944 -0.07315224 -0.022310805 -0.20985575 -0.13194248 0.038630556 0.5328303 -0.26009354 -0.024573082 0.26038763 0.27643484 0.03589235 -0.027961385 0.24169356 0.11496495 -0.39178684 0.11215377 -0.05339209 0.32255223 0.04229108 0.18258148 0.066897795 -0.053704757 -0.25107694 -0.046098538 -0.43020052 0.2661682 0.019933166 0.018174088 -0.085962504 0.27906835 0.11538648 -0.34952137 -0.17739928 -0.19106139 0.012347305 -0.13567284 0.0011686431 -0.16187094 -0.081295475 0.09842037 -0.23698077 -0.17461401 -0.0454553 -0.037347753 -0.20846982 -0.14571922 0.22586629 0.10445257 -0.11901851 -0.5655365 -0.24411266 -0.50221205 0.09958138 0.16746786 -0.006206512 -0.25817204 0.1955033 -0.016863374 0.3188384 0.2702981 0.096009634 -0.066953965 0.071099766 0.24350938 0.16440718 0.22230445 0.00042982705 0.23950106 0.026580693 -0.11602334 -0.15861638 -0.04931623 0.41257897 0.13659926 0.04088926 0.35277733 -0.11250706 0.10628381 0.13073586 0.17552643 -0.2373336 -0.08413692 0.14693224 -0.011692623 -0.26024294 0.1938804 0.24580342 -0.41547418 0.3955415 0.33211413 0.16526818 0.22507764 0.0124245 0.021664407 0.22196145 -0.13887563 -0.34426695 0.25641146
