246 128
0 0.07136644 -0.09735119 -0.059634827 -0.16848774 0.057565093 -0.34147194 0.12259433 -0.22574234 0.11717673 0.34350812 0.014319932 -0.016442172 0.06607222 0.03750084 -0.010342838 -0.07679 0.023925714 0.3465998 -0.015960667 0.109400764 -0.011117111 0.4098848 0.41965804 0.1395572 -0.07474716 0.28607413 -0.11483149 -0.26905888 -0.012173945 0.099012606 -0.101073146 -0.12269361 0.02056459 -0.002256363 -0.06834383 0.019480018 0.058456562 0.054824356 0.18420905 0.37752548 0.17719676 0.12715751 -0.12378649 0.18123014 -0.29815385 -0.15381671 -0.0029826171 0.071723744 -0.006976498 -0.026461441 0.025986178 -0.11466722 0.071266174 -0.042475678 -0.069659725 -0.24275352 0.046826117 0.12604012 -0.072708376 0.119656496 0.09277465 0.36617452 0.0016652679 0.048533972 -0.015233274 0.13589723 -0.14445113 0.14419724 -0.08505031 0.08707724 0.06620766 0.14310259 0.0017538269 0.16766411 -0.0863078 -0.024614392 0.074505 0.08607426 0.14673188 -0.2921317 0.1397494 0.17759043 -0.24890415 -0.04323303 0.038450465 0.1824759 0.03987657 0.14981355 -0.16708705 -0.15941358 -0.18262725 0.055427954 -0.17933792 0.281601 -0.047870908 0.00052998227 -0.04305008 0.050128523 -0.40412086 -0.16295387 0.11453767 0.190868 0.07760598 0.29906207 -0.17487925 -0.049931712 -0.08495007 -0.15285915 0.15937825 0.040337604 -0.114612825 0.23301367 -0.08448499 -0.023871014 -0.06832402 0.16916434 0.34308484 0.049898986 -0.32569638 -0.11647384 0.33150932 -0.0305126 -0.1322352 -0.010486709 -0.12637517 0.21376003 0.26287317 0.20496194
1 0.057792995 -0.105996504 -0.051235925 -0.14004847 0.04310172 -0.3136548 0.10277386 -0.22370562 0.14361346 0.32138336 0.0032758203 0.01436067 0.06795047 0.048646037 -0.03245324 -0.07312066 0.012432485 0.28635308 0.015483982 0.08553666 0.014844842 0.36988616 0.43624917 0.14178817 -0.059500366 0.27704024 -0.09614738 -0.25758484 -0.031689275 0.11376265 -0.07763207 -0.10962034 0.051668666 -0.013698768 -0.14029 -0.018492816 0.012665865 0.020795774 0.18696548 0.35109922 0.13349651 0.14434019 -0.065142505 0.16738483 -0.32873827 -0.118951336 -0.013399771 0.11478293 0.0052098264 -0.05122623 0.013512333 -0.1318042 0.050475024 -0.04064751 -0.050674003 -0.25998878 0.10634579 0.13361003 -0.052051052 0.09740523 0.07029558 0.30350137 -0.03329013 0.0452375 -0.033931926 0.121210925 -0.11266515 0.15414815 -0.10955897 0.07021159 0.036180705 0.13329752 -0.024428533 0.18322946 -0.122306965 -0.0144776665 0.078098565 -0.004743156 0.14146432 -0.2546656 0.1318239 0.1068627 -0.27668604 0.0026890598 0.013368997 0.17921044 0.048666447 0.14488965 -0.12743884 -0.19331129 -0.15452446 0.07428646 -0.124157086 0.29190558 -0.03039021 0.003999571 -0.00037834025 0.027806424 -0.35953867 -0.20297208 0.11290439 0.17759706 0.09796552 0.2673823 -0.13028313 -0.0019392649 -0.03885149 -0.14272688 0.17751421 0.011539491 -0.098313235 0.21365811 -0.080803595 -0.007203975 -0.057869036 0.16945538 0.2874881 0.030020844 -0.23801805 -0.15452954 0.3014447 -0.039698936 -0.13240092 -0.0031150833 -0.18467501 0.22204147 0.19244164 0.17868373
2 0.0537635 -0.08248591 -0.061941087 -0.117088765 0.035979852 -0.292907 0.0951367 -0.1852101 0.10521719 0.2790251 0.0011247424 0.0038102292 0.06105053 0.023684867 -0.028839808 -0.061106782 0.015871448 0.29076278 -0.010564312 0.09391906 0.00043328793 0.3338769 0.3564163 0.10849971 -0.05507535 0.2465858 -0.106782936 -0.22944267 -0.020626381 0.085540675 -0.09165537 -0.10501754 0.016346546 0.0020326015 -0.053094912 0.0070216656 0.030665109 0.029185165 0.16211738 0.30860633 0.13566944 0.11708002 -0.079843424 0.14449199 -0.26114246 -0.12590715 -0.010290617 0.08027105 -0.027156753 -0.016620789 0.008833705 -0.101764776 0.06566465 -0.039289877 -0.05227746 -0.20702797 0.037270427 0.10286941 -0.07236173 0.10058114 0.064067096 0.29641625 0.007306281 0.03864575 -0.029133704 0.10909733 -0.09579418 0.13455682 -0.09904832 0.06798544 0.07978834 0.124857485 -0.024747886 0.15058221 -0.09236897 -0.011399644 0.057172403 0.05799286 0.112639286 -0.23748559 0.116753355 0.13597423 -0.21371341 -0.025575254 0.021221304 0.1573688 0.053547606 0.14331606 -0.13933378 -0.1589001 -0.13995789 0.05978554 -0.12898314 0.26168746 -0.034682404 0.006581783 -0.021906484 0.04678011 -0.34608796 -0.15072986 0.09861933 0.17596948 0.05496287 0.25565517 -0.13192655 -0.030258162 -0.064871125 -0.12447674 0.1463804 0.050575383 -0.10359782 0.19049896 -0.08151452 -0.012881217 -0.05527852 0.12211428 0.2651837 0.03331971 -0.26099813 -0.10744338 0.28039113 -0.031627733 -0.10068735 -0.047428966 -0.11852197 0.19546999 0.21173753 0.15107328
3 0.04742603 -0.1395181 -0.117458604 -0.08102048 0.009744463 -0.3215029 0.071632184 -0.32194254 0.032857183 0.3019947 -0.031951237 0.0565244 0.0012169367 -0.07377644 -0.05278063 -0.10907324 -0.036294244 0.35826904 -0.032109868 0.1696208 0.06970486 0.27567407 0.34318504 0.11648514 -0.1027491 0.22026506 -0.21067597 -0.11639263 -0.0065473597 0.046417378 -0.10729981 -0.09555712 0.037874658 0.042172328 -0.06077474 0.026831264 0.124623634 0.02099929 0.13772246 0.46618962 0.14472324 0.13712713 -0.098343916 0.10417419 -0.20736562 -0.12539764 0.027970575 0.17383778 0.059443768 -0.039164513 0.15334152 -0.13734697 0.078305125 -0.07866599 -0.084102586 -0.24636485 0.017327344 0.14115874 0.004638759 0.0601703 0.036653236 0.36312726 -0.045937557 0.021268733 -0.13955304 0.13716795 -0.013261912 0.14649498 -0.16414577 0.078403935 0.055040613 0.16835362 0.004359434 0.093882896 -0.057694674 0.024759678 0.1251664 0.121118754 0.15239473 -0.25368804 0.10219583 0.20375276 -0.20084246 -0.10844085 0.005468427 0.2719572 0.113701575 0.23760527 -0.14919873 -0.2751398 -0.102639034 0.1393398 -0.12445999 0.35499862 -0.049842745 -0.016052432 -0.012436011 0.024143362 -0.34186003 -0.1989315 0.034184203 0.19305475 0.1474813 0.2447995 -0.14244229 -0.12123966 -0.072567984 -0.22206454 0.23784922 -0.02462696 -0.043164182 0.22919123 -0.100633465 -0.009087865 -0.17367737 0.11003121 0.3255183 0.07889223 -0.2480992 -0.070361294 0.31354398 -0.12787592 -0.11898772 -0.042397823 -0.07193358 0.16561742 0.12374455 0.14957304
4 0.040736392 -0.14415532 -0.122889 -0.067370124 0.013349262 -0.32899112 0.071426034 -0.3121106 0.04369892 0.3217701 -0.022145972 0.056131355 -0.0068299016 -0.06362113 -0.06289524 -0.11236914 -0.033233196 0.36308008 -0.031593636 0.16796425 0.07027654 0.27411056 0.345155 0.11251311 -0.09826889 0.22988287 -0.22227924 -0.111243956 -0.018797738 0.047034346 -0.10860759 -0.09587057 0.05096575 0.039409503 -0.055724073 0.022767717 0.116724335 0.011689668 0.13005741 0.47677943 0.14119269 0.14217934 -0.089589864 0.10630236 -0.20558436 -0.116301656 0.013442383 0.18924186 0.06506826 -0.05513694 0.14486937 -0.13788126 0.08605069 -0.082322486 -0.07920846 -0.24780531 0.020227892 0.1410425 0.0015515325 0.051910926 0.036600865 0.36104736 -0.04917062 0.009663326 -0.14664909 0.14643827 -0.0030184493 0.15797973 -0.17165509 0.062816545 0.05577567 0.1730498 0.01045834 0.10631257 -0.06406218 0.029157527 0.11434524 0.11457787 0.14000228 -0.24821882 0.10993802 0.20473711 -0.21014212 -0.11244853 -0.0021344293 0.2816591 0.12689196 0.22540453 -0.15179612 -0.2715919 -0.09311501 0.14967838 -0.13186829 0.3772305 -0.0460046 -0.014706368 -0.028473636 0.016308665 -0.34320343 -0.20425527 0.031118695 0.19413573 0.15155742 0.25566635 -0.14243066 -0.11733898 -0.07197269 -0.21238276 0.23656315 -0.021224871 -0.040727824 0.23525845 -0.111119166 -0.0063846335 -0.18350476 0.11486373 0.32430223 0.0861098 -0.25103867 -0.07833404 0.31894332 -0.13009906 -0.12158059 -0.045954805 -0.08049242 0.1749013 0.10937282 0.15513481
5 0.03903754 -0.13847254 -0.12919079 -0.06344952 0.011825726 -0.32864767 0.06806558 -0.32452357 0.0319318 0.31775302 -0.0275852 0.0663139 -0.004291951 -0.083187535 -0.062259812 -0.10749767 -0.03611396 0.3627433 -0.028196609 0.16386329 0.07660989 0.26970163 0.34865946 0.114422694 -0.1034035 0.22109762 -0.22799528 -0.11526746 -0.015737511 0.037752993 -0.10371171 -0.10415681 0.04784074 0.040494572 -0.04877554 0.016041806 0.124660656 0.016686771 0.13283242 0.48098826 0.14066361 0.14163569 -0.09829492 0.1029581 -0.2055415 -0.11730721 0.021594442 0.18774305 0.06291602 -0.044200204 0.1556286 -0.14488372 0.089728706 -0.07268323 -0.08182909 -0.2417779 0.01509214 0.13769142 0.007168453 0.057715535 0.03421662 0.36877665 -0.04411772 0.009233141 -0.14872015 0.14228207 -0.0017688095 0.1514207 -0.17566542 0.06441671 0.056681786 0.17579551 0.0089791 0.09666276 -0.06455772 0.02039681 0.12177397 0.12234691 0.15304558 -0.2498256 0.10866494 0.20348383 -0.20852943 -0.11422893 0.0022592235 0.28427336 0.134507 0.23258214 -0.15036531 -0.28115824 -0.08888573 0.15149502 -0.13025208 0.38054055 -0.045667738 -0.015437434 -0.021672593 0.022430757 -0.35442877 -0.20228267 0.026906155 0.20196782 0.1515017 0.2606974 -0.1373114 -0.12242716 -0.07258156 -0.2188785 0.23988779 -0.014261985 -0.04423496 0.2327343 -0.10949519 -0.017450126 -0.19729143 0.106985174 0.32547438 0.0775885 -0.25459573 -0.07884016 0.32652646 -0.13492471 -0.11625879 -0.050345182 -0.06633122 0.17367388 0.119474985 0.15081431
6 0.04675963 -0.14052233 -0.12286281 -0.07336996 0.013715737 -0.32707417 0.07501447 -0.3374397 0.038771562 0.3151396 -0.030889938 0.068346165 0.0003587046 -0.08015719 -0.057549484 -0.12034476 -0.042181056 0.3655464 -0.027674438 0.17610632 0.080475114 0.26870826 0.35070637 0.11233 -0.106243216 0.22109783 -0.21911263 -0.1070581 -0.015000361 0.04372723 -0.10482019 -0.09555348 0.046405524 0.047035906 -0.06281426 0.021605311 0.13713078 0.016899759 0.13036595 0.49459556 0.14270248 0.14286225 -0.10010346 0.098938905 -0.20557284 -0.123150334 0.022877092 0.19290493 0.07622205 -0.050552636 0.1679919 -0.14013526 0.08637715 -0.08169975 -0.079270095 -0.26381648 0.031104995 0.14841408 0.012114961 0.052203797 0.03787525 0.36729708 -0.055816732 0.013884494 -0.15719041 0.14587554 -0.0016973591 0.14727478 -0.17890868 0.0725045 0.057534065 0.1792523 0.012093034 0.096696936 -0.0573808 0.028025785 0.12736662 0.118670784 0.16188672 -0.25907552 0.09926109 0.20190595 -0.21092038 -0.11624881 0.003019026 0.29236436 0.1318347 0.24745001 -0.15318052 -0.2871375 -0.0962927 0.15622394 -0.12583975 0.3800567 -0.047451742 -0.011938019 -0.014136967 0.021546872 -0.34481937 -0.20944005 0.027862549 0.1996891 0.15680815 0.25483987 -0.13805372 -0.12455531 -0.07726104 -0.22827981 0.2531073 -0.034303565 -0.03614483 0.23359925 -0.103179544 -0.014625324 -0.19660679 0.11586443 0.33519325 0.080883406 -0.24693176 -0.075687595 0.32898813 -0.13790666 -0.12413119 -0.043147262 -0.078268625 0.17205477 0.11349441 0.15403552
7 0.039295908 -0.13540837 -0.13047409 -0.076132655 0.004477194 -0.329045 0.0681103 -0.31971413 0.041245926 0.31896308 -0.024935883 0.06462545 0.009280508 -0.07566577 -0.05477924 -0.11333443 -0.032673135 0.36327493 -0.03497179 0.16802286 0.07126752 0.26970044 0.3452484 0.10191982 -0.10152811 0.23244078 -0.21927294 -0.11782894 -0.00924194 0.0524954 -0.10322453 -0.09098703 0.051896676 0.041794248 -0.05409823 0.017013926 0.121685 0.019758666 0.12693807 0.4728696 0.15270035 0.1467005 -0.0988939 0.104320005 -0.20885968 -0.118840806 0.019960063 0.18187629 0.0544458 -0.053252995 0.14868595 -0.13201927 0.08839468 -0.08484572 -0.07661341 -0.24930604 0.015244081 0.1403434 0.0001627767 0.0507653 0.037936315 0.36307284 -0.056306064 0.010605513 -0.14754325 0.1438097 -0.0006837883 0.15318403 -0.17255121 0.071380995 0.06325854 0.17402713 0.0063846586 0.09818193 -0.063475825 0.029348463 0.11935013 0.12520552 0.1503476 -0.2528816 0.099895 0.20033221 -0.20309831 -0.1126086 0.006636194 0.28823942 0.13360669 0.23029567 -0.15667735 -0.27721027 -0.097161576 0.14610422 -0.130737 0.3690027 -0.058908515 -0.010842501 -0.015158543 0.023879915 -0.35149804 -0.19727151 0.046148643 0.19980031 0.14836867 0.25593537 -0.14692628 -0.120413974 -0.07017832 -0.21296386 0.23788784 -0.029208994 -0.049664225 0.23953308 -0.10791552 -0.011285835 -0.18867044 0.10956939 0.32831693 0.0777444 -0.2511597 -0.07748907 0.320956 -0.12630281 -0.11617203 -0.05167586 -0.071534604 0.17796026 0.1207708 0.1504427
8 0.037358228 -0.1518682 -0.14534095 -0.065207146 0.0065568676 -0.33847982 0.07220134 -0.3446838 0.034445804 0.329159 -0.023742564 0.071916535 -0.0044426145 -0.092442736 -0.061472878 -0.12381473 -0.04409455 0.38051173 -0.032036763 0.17960325 0.086842105 0.26676372 0.34609872 0.10714321 -0.10300812 0.21732377 -0.23762006 -0.09253171 -0.016839266 0.033426452 -0.10186531 -0.090853274 0.061966773 0.04325234 -0.05709479 0.024162576 0.13187586 0.014795608 0.12122326 0.51517415 0.14710331 0.15596184 -0.09619973 0.095706254 -0.20020962 -0.1104948 0.028289976 0.2132093 0.08008583 -0.06234877 0.17263062 -0.14099765 0.09291926 -0.08675303 -0.08896306 -0.25636482 0.019219823 0.15133667 0.01594327 0.040673632 0.029358068 0.37476385 -0.06321363 0.009408271 -0.17526314 0.1490918 0.015174879 0.15375116 -0.18504262 0.06200745 0.051306263 0.18423048 0.017873503 0.08834139 -0.05652198 0.035198618 0.1298815 0.12661263 0.15186787 -0.25109878 0.102923736 0.21352142 -0.20663585 -0.13510473 -0.007889489 0.3099082 0.13934495 0.2464089 -0.16001658 -0.30086097 -0.08822742 0.17102556 -0.13263313 0.40305138 -0.059392773 -0.015816733 -0.02373168 0.017259615 -0.35003805 -0.20577006 0.021879394 0.2044872 0.17263398 0.25715205 -0.1418954 -0.13138057 -0.06987292 -0.23668066 0.24863075 -0.031364746 -0.03216727 0.24276187 -0.11894763 -0.013653446 -0.22169961 0.11208384 0.342656 0.09394007 -0.24847052 -0.080085844 0.33958834 -0.1525975 -0.12391042 -0.05099405 -0.06323629 0.17678592 0.09596095 0.15874398
9 0.041185915 -0.14444296 -0.132551 -0.065359674 0.0076911896 -0.33261916 0.067421354 -0.32768768 0.03475652 0.32361117 -0.021774556 0.06533768 -0.005426659 -0.083568886 -0.06383328 -0.116297044 -0.03505691 0.3656762 -0.031379186 0.17392449 0.06987672 0.26837435 0.34545597 0.11068746 -0.10520896 0.22569007 -0.2307689 -0.11075828 -0.019109083 0.044249646 -0.10060259 -0.096809216 0.045849513 0.04531133 -0.050249625 0.0159342 0.123512454 0.012089539 0.13240191 0.47819892 0.14723101 0.13737202 -0.09867376 0.1053061 -0.20442446 -0.11829381 0.019166097 0.19183525 0.06415649 -0.05378112 0.1558833 -0.13961487 0.088415116 -0.08154616 -0.08206253 -0.25002292 0.018178226 0.14324316 0.0064168777 0.05095856 0.036358304 0.36522502 -0.058091454 0.007474619 -0.1562849 0.14594072 0.0048396005 0.15714666 -0.17780279 0.060937867 0.0675386 0.17984599 0.012630272 0.09659884 -0.060744785 0.029253736 0.12321978 0.1297598 0.14954735 -0.24904117 0.107084095 0.2011038 -0.20911978 -0.121314205 0.0072597866 0.2904096 0.13118732 0.23770374 -0.15695941 -0.28136012 -0.095266856 0.15038984 -0.13636932 0.38119885 -0.05286904 -0.013939013 -0.022454834 0.026343076 -0.35112953 -0.19659305 0.032842413 0.20384152 0.15171133 0.26211855 -0.14649443 -0.123520315 -0.071131155 -0.22002973 0.24205199 -0.023058213 -0.042132907 0.23809944 -0.11269258 -0.017158277 -0.19654004 0.115847535 0.33376563 0.08231807 -0.25351855 -0.080388494 0.32966363 -0.12810186 -0.1240151 -0.049483918 -0.067661166 0.18150327 0.11855225 0.15148938
10 0.045271322 -0.15598305 -0.1321457 -0.07292806 0.009053489 -0.34130594 0.067084275 -0.3391423 0.03028932 0.3329662 -0.024956841 0.06571456 -0.018605214 -0.07641184 -0.06168904 -0.115662515 -0.03176349 0.3788587 -0.0356979 0.18286483 0.08610222 0.27381155 0.36038586 0.12652755 -0.112820655 0.23022057 -0.23427121 -0.09641637 -0.013181266 0.039322946 -0.11038397 -0.09813344 0.047353376 0.04439756 -0.07065465 0.034428652 0.13200958 0.0154801775 0.13480528 0.5001543 0.1449343 0.13209932 -0.091285 0.098602705 -0.19964783 -0.12004464 0.018980864 0.19628923 0.07934998 -0.06614064 0.17210127 -0.15090723 0.08311215 -0.0918141 -0.09061586 -0.27015516 0.026038822 0.14629279 0.020088444 0.060217332 0.030897116 0.38069427 -0.059839062 0.020181507 -0.15385672 0.1464353 0.0020981652 0.16329233 -0.18339953 0.0691591 0.050440364 0.17840515 0.021971289 0.10279709 -0.05690861 0.033471104 0.13025525 0.12555584 0.15494604 -0.2507584 0.105855174 0.2192659 -0.22076981 -0.11836438 -0.0036853813 0.30219093 0.12881723 0.24526973 -0.15145114 -0.28847614 -0.09456281 0.16269542 -0.13181835 0.38873518 -0.05049974 -0.030174263 -0.02568739 0.017924497 -0.3439362 -0.22494109 0.021463374 0.20134427 0.16734673 0.2586798 -0.14430471 -0.13572207 -0.075308844 -0.23553634 0.2518555 -0.029327223 -0.03240934 0.24372442 -0.110047124 -0.003601726 -0.197829 0.11124114 0.3448104 0.092785515 -0.2470338 -0.0838201 0.33382112 -0.1425927 -0.14038967 -0.03369738 -0.075965956 0.17370439 0.10897995 0.16296326
11 0.043225616 -0.14626302 -0.12199564 -0.075700425 0.011187943 -0.3327681 0.0712704 -0.32884616 0.035121474 0.3175235 -0.02729866 0.069186054 0.00023222552 -0.07931443 -0.05707982 -0.11835392 -0.040940024 0.3681031 -0.027919598 0.17984602 0.07705624 0.27136388 0.34770396 0.121567875 -0.10022551 0.22517407 -0.22322461 -0.109035015 -0.014482398 0.037805706 -0.099860765 -0.09039126 0.05010429 0.04192459 -0.060976125 0.020811299 0.12352197 0.013495839 0.13591892 0.48864624 0.15166551 0.13974622 -0.09858794 0.09484146 -0.20228532 -0.1169962 0.028118458 0.18413155 0.07542893 -0.053170357 0.16481839 -0.14662439 0.08302942 -0.080024764 -0.08827968 -0.2550777 0.02085801 0.14669354 0.013529032 0.050275136 0.036651626 0.36460993 -0.05696891 0.014932303 -0.15163298 0.14430755 -0.0026352534 0.15299228 -0.17222676 0.0644115 0.055972334 0.172695 0.014692963 0.102432616 -0.056506243 0.032891195 0.1285974 0.11806191 0.15446922 -0.25379136 0.09957052 0.21021527 -0.2072221 -0.11504075 0.0018031951 0.29192564 0.12661856 0.24219103 -0.15195577 -0.28244394 -0.09495154 0.15141779 -0.12851067 0.37755936 -0.057236336 -0.017677171 -0.019183248 0.011747916 -0.3466204 -0.19939964 0.029064808 0.19718881 0.15712146 0.2509978 -0.14225148 -0.13112117 -0.0709887 -0.22796607 0.24329033 -0.033412855 -0.04000541 0.23901865 -0.110871255 -0.0056295493 -0.18513554 0.115744725 0.33827615 0.088068664 -0.2476141 -0.078157954 0.32734212 -0.138277 -0.12901491 -0.04354089 -0.077446885 0.1729255 0.11829695 0.15646927
12 0.038247123 -0.13577007 -0.12322213 -0.0673338 0.008944269 -0.32216883 0.06929153 -0.31831494 0.03330876 0.3093061 -0.023352018 0.06767044 -0.00018331264 -0.0800617 -0.06405731 -0.111472316 -0.031686842 0.35975173 -0.027465858 0.165182 0.073878534 0.27233264 0.3424556 0.10644518 -0.094002284 0.22120933 -0.22068591 -0.11100276 -0.020874927 0.039071567 -0.096303165 -0.09572196 0.04412374 0.034950953 -0.055148087 0.014916816 0.11582598 0.015339925 0.1290034 0.4755185 0.14280838 0.14475349 -0.09445981 0.10355126 -0.20605874 -0.10944514 0.022242654 0.19049425 0.062167566 -0.053345326 0.15129268 -0.13669477 0.087783426 -0.07867779 -0.078341156 -0.23996335 0.018172538 0.13666275 0.0014290245 0.047234986 0.03727816 0.35288733 -0.050947573 0.010706348 -0.1544419 0.14359225 0.0036986019 0.14727987 -0.16898288 0.059654333 0.057552584 0.17485267 0.012359097 0.09856016 -0.06223934 0.028886292 0.11658206 0.1157295 0.14338683 -0.2434535 0.10028437 0.19455273 -0.20622833 -0.113812506 -0.0027158852 0.28258237 0.12594153 0.22969061 -0.15161203 -0.2785636 -0.08986946 0.14921421 -0.13247283 0.37315568 -0.056066588 -0.009329176 -0.017922271 0.02152954 -0.34440687 -0.19832712 0.030653486 0.19494495 0.14774333 0.25019354 -0.13421226 -0.115024194 -0.06876437 -0.21761099 0.23801698 -0.022097476 -0.04446151 0.23351404 -0.108519316 -0.014878594 -0.19554222 0.11322568 0.32219896 0.077239 -0.2445887 -0.074966796 0.32068524 -0.12736365 -0.11504731 -0.048365667 -0.069198735 0.17294002 0.110176556 0.14756946
13 0.038919825 -0.14829358 -0.13258831 -0.063861445 0.003869331 -0.34127107 0.070337735 -0.33233276 0.029002223 0.32061514 -0.026972057 0.064988874 -0.0068214177 -0.08625675 -0.064234875 -0.116899885 -0.040414255 0.37811667 -0.03522203 0.17788774 0.08587357 0.27040535 0.34494364 0.1184427 -0.09907116 0.22506177 -0.23533979 -0.10342393 -0.019260181 0.037407428 -0.10469394 -0.09286283 0.05380185 0.042192213 -0.05286375 0.024716012 0.12854981 0.010035722 0.12498884 0.5024972 0.13989095 0.14815174 -0.09921328 0.10062304 -0.20583168 -0.11465451 0.026595475 0.20429076 0.06454788 -0.05675766 0.16685785 -0.145184 0.08862702 -0.07911245 -0.090579376 -0.24889201 0.012688697 0.15111487 0.010127752 0.047728192 0.03695443 0.3728407 -0.052261863 0.012015689 -0.16590866 0.14750002 0.010766198 0.15513867 -0.17696515 0.060606666 0.061569005 0.17658247 0.018171243 0.09367953 -0.056977484 0.026036313 0.12974277 0.129754 0.15337786 -0.2535419 0.10538415 0.21398038 -0.206265 -0.12908673 -0.00039570587 0.29395956 0.13272023 0.24251089 -0.15948091 -0.29115078 -0.09060481 0.15947098 -0.13706845 0.39339313 -0.047326364 -0.01493374 -0.027202073 0.020135816 -0.34943646 -0.20188527 0.02463267 0.20631842 0.15817052 0.2619187 -0.14473191 -0.1316479 -0.077989444 -0.22028741 0.24478684 -0.022704761 -0.037390474 0.23835838 -0.114649475 -0.015215505 -0.20987828 0.11161376 0.3398148 0.09234095 -0.25887892 -0.08180056 0.3383458 -0.14436352 -0.12701707 -0.05689476 -0.07353702 0.18306676 0.10990941 0.15185373
14 0.04481861 -0.13737935 -0.12396027 -0.07680274 0.008685022 -0.31029427 0.067172185 -0.31935275 0.032807786 0.30069327 -0.028872576 0.06564488 0.001072256 -0.074562885 -0.050991565 -0.108311124 -0.03113621 0.34810895 -0.02647126 0.17071703 0.06849975 0.25964704 0.33360475 0.11097659 -0.10708581 0.21494734 -0.20777589 -0.10344031 -0.0031112493 0.0506309 -0.09838213 -0.08721413 0.04421771 0.0415375 -0.058530647 0.029668383 0.1293734 0.027301438 0.13373448 0.45909598 0.14642172 0.13436344 -0.10262944 0.09800364 -0.19187629 -0.12150156 0.028621964 0.17009377 0.072854586 -0.04777714 0.16512506 -0.13241626 0.07882732 -0.07949531 -0.075799294 -0.24571902 0.02589964 0.13947399 0.013439342 0.05237624 0.03298704 0.3528126 -0.055392787 0.022671627 -0.13763571 0.13606368 -0.011953998 0.14145263 -0.16455592 0.07329058 0.049454566 0.16960827 0.014064016 0.09098883 -0.047879178 0.025513086 0.12700133 0.113163106 0.14814329 -0.24326284 0.09260269 0.19604509 -0.19948256 -0.1078676 0.006002082 0.27689034 0.118518576 0.23109022 -0.14343193 -0.2729377 -0.09665447 0.1432533 -0.123974144 0.34982738 -0.056102853 -0.015107275 -0.0082469 0.021838812 -0.32335678 -0.19786313 0.03220715 0.18616295 0.15311314 0.23950183 -0.14079723 -0.11749742 -0.07539966 -0.22312157 0.23628512 -0.04029122 -0.038623307 0.22227882 -0.10193555 -0.00876158 -0.1776794 0.10765879 0.31755093 0.07946404 -0.2368278 -0.067430094 0.30944788 -0.124431856 -0.12047224 -0.03587432 -0.07178536 0.15880214 0.11418632 0.14974472
15 0.0373642 -0.13217066 -0.1220285 -0.074243516 0.01269579 -0.31716558 0.06702981 -0.30817187 0.035331663 0.30282727 -0.021767884 0.055629868 0.0075976625 -0.07196024 -0.05552564 -0.11130688 -0.033276524 0.35182184 -0.03601404 0.16067636 0.066996165 0.2645174 0.34114695 0.10929971 -0.09942447 0.2231474 -0.206694 -0.119557105 -0.013430369 0.0486705 -0.09909013 -0.098132014 0.038830765 0.035336226 -0.04734766 0.01711778 0.1151975 0.021989392 0.12891962 0.4584735 0.14019696 0.13868108 -0.098968714 0.10630577 -0.20676051 -0.12366288 0.026056092 0.17265639 0.059027802 -0.038542084 0.14895433 -0.12585376 0.07746764 -0.0757975 -0.08080379 -0.24253353 0.012666368 0.13372858 -0.004158976 0.056009676 0.034366112 0.3524732 -0.04418318 0.015442383 -0.1349544 0.14014165 -0.011246867 0.14241877 -0.15813969 0.070061594 0.060750447 0.16517742 0.008515072 0.0934597 -0.05586101 0.024795348 0.11858749 0.1141677 0.14318193 -0.24420053 0.09460681 0.19424565 -0.20113239 -0.101416506 0.004789306 0.26546675 0.11245083 0.22644193 -0.15228923 -0.26621866 -0.10554778 0.1380442 -0.122431464 0.346401 -0.05266048 -0.012449336 -0.010030172 0.028664038 -0.3417846 -0.19089073 0.039976798 0.18502657 0.14197834 0.25038147 -0.14037879 -0.115207925 -0.07562224 -0.21457365 0.23164572 -0.024973003 -0.048793443 0.22877988 -0.10333091 -0.012210611 -0.17134356 0.112291865 0.32170328 0.08095885 -0.24963735 -0.070765644 0.31311873 -0.12061337 -0.11945106 -0.04645655 -0.07699597 0.16938955 0.121900275 0.15118133
16 0.04328696 -0.13398458 -0.1278472 -0.07153474 0.013919009 -0.32790956 0.07151542 -0.32412577 0.03764473 0.3201909 -0.030218996 0.06818974 0.00014843093 -0.07597641 -0.054806788 -0.117287874 -0.033833165 0.36494613 -0.03263957 0.17612246 0.07268512 0.26321268 0.34449464 0.10609664 -0.10492446 0.2216941 -0.22689998 -0.10623025 -0.01824972 0.040885814 -0.099757686 -0.08693704 0.044968806 0.047204413 -0.049997803 0.02142325 0.1292868 0.014159945 0.12896167 0.48100656 0.14891107 0.1437053 -0.099401236 0.104438975 -0.2043664 -0.116426006 0.021451179 0.1861202 0.06381282 -0.05429648 0.15207669 -0.13438284 0.084377185 -0.083984 -0.082297854 -0.24460286 0.016423834 0.14189008 -0.00045909517 0.05249526 0.03693277 0.35838252 -0.05375601 0.010520461 -0.15310776 0.14081667 0.0007289363 0.14817862 -0.17224866 0.07129251 0.0576926 0.16949399 0.014490965 0.094463654 -0.05444196 0.027504308 0.116966896 0.12615971 0.14914262 -0.2467307 0.09840216 0.19974971 -0.20438123 -0.11383357 -0.0015955671 0.29297248 0.13228725 0.23216474 -0.15621868 -0.27518517 -0.10146235 0.15125945 -0.13263921 0.3744033 -0.06182583 -0.015572282 -0.021123646 0.02543887 -0.34951317 -0.19412357 0.029098086 0.19801076 0.155249 0.25450033 -0.14798357 -0.123701364 -0.07813788 -0.22039787 0.23987822 -0.026444511 -0.047224622 0.23881143 -0.112084575 -0.013616028 -0.19590709 0.11476617 0.33263314 0.089363724 -0.2493568 -0.07498989 0.31556815 -0.1299253 -0.11802579 -0.051157515 -0.06887241 0.17091063 0.11116517 0.15254775
17 0.035667706 -0.15269184 -0.13565966 -0.052079715 0.0015008766 -0.33446684 0.0641721 -0.3358095 0.03273068 0.32682127 -0.025986962 0.0669151 -0.017909316 -0.09062375 -0.07031768 -0.11625868 -0.04199002 0.37479696 -0.02664311 0.17642307 0.090432934 0.26508087 0.33741555 0.11661468 -0.09685182 0.2164522 -0.23881844 -0.09596267 -0.020386113 0.026909392 -0.10979368 -0.09620958 0.057000145 0.04553947 -0.045124695 0.01573916 0.13321756 0.012081633 0.12631442 0.50342906 0.14078721 0.15398838 -0.092907175 0.10396798 -0.20075637 -0.10761957 0.019156478 0.2068361 0.07403989 -0.053166587 0.16954431 -0.14544532 0.0914798 -0.08161124 -0.08467896 -0.24630578 0.017105626 0.14877856 0.00875158 0.048904862 0.034165397 0.38061947 -0.050762005 0.009407227 -0.16697222 0.14852385 0.016916873 0.15934859 -0.18636405 0.052872613 0.059564397 0.18558154 0.010674026 0.09509997 -0.066521734 0.027218519 0.13070033 0.12535998 0.15431051 -0.2468614 0.105502896 0.20600255 -0.2077871 -0.13568068 -0.0027878117 0.2965102 0.14463878 0.24127126 -0.1552895 -0.29506004 -0.08823068 0.16276745 -0.13130897 0.40493512 -0.037922677 -0.015289333 -0.029043324 0.021890044 -0.34767243 -0.2033946 0.020726616 0.20469603 0.15863405 0.25354725 -0.13720748 -0.13587153 -0.070709296 -0.22440729 0.24459367 -0.020411968 -0.03528865 0.234084 -0.11413072 -0.01701038 -0.2172518 0.108002685 0.3348932 0.08756221 -0.25663987 -0.07824556 0.34389737 -0.14580078 -0.11964594 -0.0663031 -0.06578797 0.1780829 0.10568547 0.14975971
18 0.05512212 -0.12386733 -0.15068266 -0.20215543 -0.09619102 -0.33183053 0.07700147 -0.33583942 0.10745333 0.28407353 -0.088345885 -0.0142527325 0.13506474 0.017965166 0.056522723 -0.09863382 -0.027884241 0.37348914 -0.014678114 0.1301546 -0.0049053845 0.25526348 0.2937933 0.17044584 -0.1520902 0.2753631 -0.090156496 -0.2121208 0.095997095 0.18982254 -0.19567007 -0.11987982 -0.028473245 0.067178965 -0.15936047 0.09650485 0.06727577 0.0236903 0.1514942 0.33944523 0.14331444 0.104240775 -0.14494087 0.14281571 -0.14513165 -0.1869502 -0.006443629 0.07640725 -0.011044869 0.013860741 0.16400056 -0.12060652 0.11077535 -0.023957053 -0.043645162 -0.30574355 0.015364793 0.14081612 -0.11935743 0.066827945 0.017159268 0.3270007 -0.07051298 0.022643168 -0.06683087 0.14367677 -0.08098554 0.13155065 -0.15826914 0.1566231 0.08340576 0.09935335 -0.087494574 0.04859934 -0.00010340628 -0.01883411 0.1531995 0.17181256 0.12943995 -0.19897209 0.085034825 0.20033544 -0.26901057 -0.10628229 0.046024717 0.20685948 -0.07240523 0.21423522 -0.1671178 -0.22980078 -0.14858286 0.050305992 -0.10815731 0.18878463 -0.034792986 -0.03069017 0.03115463 0.095347576 -0.2690781 -0.2263116 0.1333647 0.1632362 0.15226848 0.25419652 -0.22023182 -0.074346855 -0.087820254 -0.22158007 0.23813838 -0.06370242 -0.14546588 0.1919991 -0.03458921 -0.035956427 -0.04269277 0.012902552 0.35193774 0.03603731 -0.23565388 -0.04939736 0.33494318 -0.08404823 -0.123439774 -0.028605625 -0.14036375 0.1338072 0.2536378 0.147685
19 0.053059176 -0.12993401 -0.17411627 -0.20265707 -0.12268169 -0.35514754 0.08114259 -0.34727138 0.12877032 0.2999844 -0.09833237 -0.014629981 0.15625913 0.018034995 0.054475587 -0.097367264 -0.031126857 0.3997933 -0.0133052785 0.12391526 -0.0014253624 0.26201215 0.2999775 0.18568271 -0.1637234 0.2909122 -0.08747591 -0.22467406 0.10078387 0.2143461 -0.22328046 -0.13216278 -0.03267703 0.06814864 -0.17690194 0.10385152 0.061227925 0.017399823 0.158735 0.35060224 0.1379153 0.11219133 -0.14860441 0.15115815 -0.15170279 -0.19239515 -0.01393123 0.08964707 -0.027135316 0.0147399455 0.16742104 -0.1266356 0.12863739 -0.0057597794 -0.04003443 -0.3260051 0.012610247 0.15031448 -0.142806 0.07181472 0.01045827 0.34230727 -0.075924575 0.014434661 -0.0790854 0.14491527 -0.078376666 0.14429832 -0.18961057 0.16297676 0.08418114 0.09503158 -0.104223214 0.039626088 -0.0042746644 -0.026009325 0.1566017 0.1899979 0.12261703 -0.20059496 0.08742211 0.21172562 -0.29625192 -0.12018463 0.05333213 0.21740527 -0.080292925 0.21901369 -0.1844107 -0.24310978 -0.1467732 0.05211811 -0.11373828 0.20557661 -0.029081745 -0.03515721 0.02965316 0.11279429 -0.28338042 -0.25186455 0.14376529 0.17993501 0.1693656 0.27587613 -0.23197344 -0.07343732 -0.08940119 -0.22346947 0.25004113 -0.055358965 -0.16282159 0.1990165 -0.030311406 -0.044616602 -0.047385164 -0.010210695 0.3706954 0.028772898 -0.24857716 -0.058597744 0.36324716 -0.08993308 -0.12411046 -0.043749817 -0.15935546 0.14944856 0.26674038 0.13814631
20 0.049761254 -0.122755975 -0.16093867 -0.20124811 -0.11419875 -0.3543106 0.07994111 -0.34169358 0.12775709 0.30288553 -0.08727509 -0.018827112 0.14782308 0.023108123 0.054264043 -0.09274318 -0.022248708 0.3913473 -0.018862555 0.12127319 -0.0070839906 0.25801134 0.29630628 0.18650383 -0.1572957 0.296195 -0.093480214 -0.21989904 0.09245955 0.20477492 -0.21801284 -0.13408571 -0.024366915 0.0709174 -0.1713626 0.103163354 0.052828986 0.01627086 0.16271776 0.33640203 0.1382318 0.10598518 -0.1435213 0.1508643 -0.15524282 -0.18997754 -0.020281104 0.08990741 -0.026741574 0.0119539425 0.15324524 -0.12796344 0.12908533 -0.01593303 -0.045964364 -0.3168477 0.021368273 0.1464495 -0.14047883 0.07294483 0.013729223 0.33294913 -0.07399124 0.012306622 -0.0741715 0.14388295 -0.07738894 0.14020285 -0.18054132 0.15411235 0.08556009 0.09029281 -0.09911203 0.043816034 -0.010331782 -0.025778368 0.1506286 0.18756741 0.121116675 -0.19903663 0.09434234 0.2081697 -0.29242352 -0.11261822 0.049717586 0.20920277 -0.07629208 0.2070096 -0.1823154 -0.23133767 -0.13981034 0.049611736 -0.116446264 0.20774141 -0.031451717 -0.03863642 0.027483897 0.1079806 -0.28023392 -0.2439039 0.13963102 0.17319523 0.1616338 0.27313277 -0.22875547 -0.074868314 -0.082690135 -0.21771881 0.23814403 -0.056683123 -0.15792051 0.19768995 -0.031584486 -0.03668202 -0.04613355 -0.0033818516 0.36388484 0.03051186 -0.2457971 -0.06828203 0.35585353 -0.08372624 -0.12441006 -0.044429462 -0.1617762 0.15308768 0.26671332 0.14419772
21 0.056086015 -0.121657856 -0.14807354 -0.19420649 -0.093280196 -0.3465151 0.08479508 -0.32849252 0.11846951 0.29527602 -0.08371695 -0.018499231 0.13932395 0.017203271 0.04014734 -0.095680796 -0.025371011 0.38303512 -0.013713692 0.12416448 -0.0029101986 0.28190085 0.31956849 0.1756674 -0.14267628 0.2868451 -0.097385086 -0.22324525 0.07881952 0.19505502 -0.20409521 -0.12964797 -0.025616575 0.05873581 -0.16075565 0.09159819 0.05406034 0.015883587 0.16459446 0.3495018 0.13089699 0.10966923 -0.13744785 0.15152775 -0.17393157 -0.18435931 -0.010561624 0.090796635 -0.025947744 0.013515377 0.14522988 -0.12799118 0.12103815 -0.0102091655 -0.0466714 -0.31053698 0.024127044 0.14467482 -0.12747099 0.081892885 0.022856183 0.33765572 -0.06356642 0.023441862 -0.07084157 0.14513181 -0.08676798 0.13895857 -0.16920586 0.14152248 0.085502885 0.10014133 -0.090009145 0.06187512 -0.017009728 -0.023665037 0.1457989 0.16927566 0.12963514 -0.21338563 0.09276866 0.20132475 -0.28285232 -0.09945516 0.042720497 0.20880964 -0.05966357 0.2098456 -0.17627138 -0.23018055 -0.15301695 0.05057741 -0.11057877 0.21212028 -0.025274845 -0.034598712 0.027608361 0.10038332 -0.2968158 -0.2383441 0.1293385 0.17592554 0.14930803 0.2720955 -0.21716459 -0.0640159 -0.08346432 -0.21095495 0.23606858 -0.039185517 -0.14968759 0.20052303 -0.043786123 -0.03728273 -0.045683574 0.018087607 0.3541231 0.037754774 -0.24959812 -0.068543434 0.34936175 -0.076774515 -0.13168028 -0.039473753 -0.1557132 0.16700299 0.25534552 0.14929387
22 0.0507951 -0.11144693 -0.1464079 -0.18540472 -0.076498486 -0.35284773 0.08079444 -0.3137955 0.118627496 0.29389173 -0.07031244 -0.011201471 0.13285206 0.018624686 0.038279835 -0.08816191 -0.023121065 0.38579202 -0.024583982 0.12373948 -0.010811112 0.27557862 0.31561682 0.16613962 -0.13731551 0.29186445 -0.101725675 -0.22530805 0.07225457 0.18331611 -0.19489814 -0.12286766 -0.023246216 0.054951917 -0.139001 0.0860461 0.055616207 0.02047209 0.16650265 0.3443465 0.14409235 0.11619126 -0.13764249 0.14432262 -0.17760466 -0.18444712 -0.006568296 0.086348906 -0.030836828 0.010664517 0.13347098 -0.12680261 0.11433205 -0.022365859 -0.04372631 -0.2991595 0.016230341 0.13859499 -0.12439292 0.08119974 0.023275768 0.33701923 -0.051231116 0.022712814 -0.06681864 0.14430062 -0.08097362 0.14231525 -0.1690029 0.14525886 0.093995996 0.10396297 -0.083122656 0.06842537 -0.02544083 -0.017654061 0.1367412 0.1704175 0.12057237 -0.21658745 0.094373085 0.20293236 -0.27158344 -0.09260793 0.049459316 0.21279453 -0.04481661 0.21068507 -0.17619759 -0.22415128 -0.14970635 0.052198365 -0.11854757 0.22184972 -0.037662935 -0.02906576 0.01653862 0.09567081 -0.30294785 -0.22279258 0.13722418 0.18036003 0.14081697 0.27502918 -0.2121191 -0.07363753 -0.08497824 -0.20693655 0.23047452 -0.038956728 -0.14838591 0.20530322 -0.045747142 -0.03535247 -0.044109236 0.027768685 0.3520908 0.04348826 -0.25784642 -0.06560043 0.3416555 -0.073101535 -0.12545735 -0.05427779 -0.14522094 0.16268234 0.25492322 0.14618179
23 0.0568342 -0.13436204 -0.17428471 -0.20125952 -0.11979248 -0.3723023 0.08598703 -0.35898075 0.12419009 0.3098683 -0.0913205 -0.012756105 0.15079513 0.01604244 0.047573403 -0.10091483 -0.027281437 0.41521135 -0.011133081 0.12737569 -0.01160557 0.2673175 0.31500944 0.19297898 -0.16732195 0.30291128 -0.098764695 -0.23465152 0.09677342 0.21594268 -0.23938201 -0.1454933 -0.03462787 0.07605993 -0.16994837 0.097820744 0.0620659 0.018005662 0.1676058 0.35351357 0.13920543 0.10884874 -0.15277329 0.15681444 -0.15951926 -0.19934879 -0.026854923 0.08232935 -0.03940809 0.02411356 0.16375211 -0.14172213 0.13945788 -0.010903937 -0.044328358 -0.3271233 0.017821142 0.14833666 -0.1479358 0.07499136 0.021078117 0.35869727 -0.06568991 0.0078576915 -0.07897081 0.14737236 -0.07799493 0.15095031 -0.19558309 0.15673509 0.09606917 0.10191789 -0.10952327 0.050787203 -0.014337072 -0.033556692 0.15209825 0.19556816 0.12545033 -0.2098575 0.103402115 0.21001355 -0.30268207 -0.12234599 0.058013607 0.21345612 -0.06934659 0.2239727 -0.18710767 -0.24526483 -0.147875 0.050001465 -0.11176665 0.22018337 -0.019080995 -0.034430686 0.02535733 0.114270486 -0.29853025 -0.2570155 0.15174747 0.18089752 0.16246617 0.2839554 -0.24057427 -0.07899654 -0.086261936 -0.2214343 0.24788524 -0.04388936 -0.16160761 0.20929103 -0.031079382 -0.042535193 -0.053248897 -0.010705111 0.37390277 0.024098122 -0.25511596 -0.07030903 0.382 -0.08206502 -0.12574515 -0.06295864 -0.16221876 0.16208622 0.29097226 0.14170174
24 0.05097715 -0.11459295 -0.14950472 -0.1789702 -0.08396081 -0.34648755 0.07905256 -0.31506497 0.11425118 0.29262927 -0.07329331 -0.0074078953 0.12698945 0.013839171 0.041508336 -0.08998032 -0.017016584 0.37726066 -0.016188944 0.12721962 -0.009246249 0.25348666 0.2975767 0.17184336 -0.14476885 0.28687453 -0.09091326 -0.21256514 0.079703644 0.1836828 -0.19185178 -0.11853912 -0.014678828 0.059865505 -0.15412343 0.08578419 0.055597983 0.019585134 0.15473762 0.33123153 0.13916877 0.10538849 -0.1326152 0.13643776 -0.1584042 -0.18144344 -0.017815692 0.08512036 -0.024591772 0.0043067164 0.13648061 -0.12082529 0.11456009 -0.020055141 -0.04946298 -0.2958308 0.017757893 0.1380703 -0.1263744 0.073013954 0.0106485 0.3238059 -0.056905 0.017606031 -0.07334229 0.13982113 -0.07255424 0.14050007 -0.17344248 0.14112926 0.090546824 0.09881827 -0.08774108 0.05938473 -0.01992055 -0.017640177 0.13290153 0.17323379 0.11494837 -0.2032876 0.09334707 0.19207613 -0.27088547 -0.09424802 0.04405173 0.20460482 -0.05113267 0.2052116 -0.17157103 -0.2210732 -0.13493465 0.05486986 -0.11589939 0.20815247 -0.03795678 -0.023763923 0.017830815 0.08987762 -0.27994978 -0.22509255 0.13080776 0.1713841 0.14530107 0.2622373 -0.21189468 -0.071090154 -0.07700664 -0.20351963 0.22658995 -0.04437574 -0.14495309 0.20176229 -0.03451404 -0.03475228 -0.051011227 0.014234588 0.34674194 0.04184507 -0.24091163 -0.06328755 0.3340048 -0.0779631 -0.11519663 -0.051120795 -0.14833188 0.14634447 0.25353375 0.13721421
25 0.052442845 -0.113997646 -0.15184562 -0.1874842 -0.08537009 -0.3371121 0.074368656 -0.3148723 0.11135673 0.28676853 -0.07914854 -0.008971577 0.13340804 0.014046381 0.037709773 -0.08652147 -0.025775792 0.37034628 -0.021169554 0.1243855 -0.0057022735 0.25980544 0.30262053 0.17312065 -0.14264314 0.27262342 -0.088501394 -0.21742702 0.0716197 0.18672554 -0.1910649 -0.124647245 -0.019424848 0.059396554 -0.1540884 0.08036974 0.05312494 0.015511034 0.1588683 0.33721414 0.13620237 0.10813441 -0.12977543 0.13522752 -0.16510619 -0.17062207 -0.0052695484 0.09272473 -0.022416616 0.01089363 0.13820808 -0.12941146 0.11410426 -0.0151597485 -0.043749694 -0.3009714 0.015519715 0.14096312 -0.12232359 0.07851363 0.0115318475 0.32268956 -0.06265468 0.02570737 -0.076022364 0.13633017 -0.07644893 0.14232965 -0.16763899 0.14209054 0.086636074 0.10109133 -0.08721155 0.060978923 -0.015670985 -0.017358975 0.13561304 0.15784504 0.1250119 -0.20091024 0.090275705 0.19490193 -0.27104774 -0.09319547 0.039639283 0.20248161 -0.053806126 0.20640513 -0.17452008 -0.23057184 -0.13909677 0.052378457 -0.1058037 0.21287496 -0.033546034 -0.03220839 0.026072934 0.088287055 -0.28905255 -0.23043272 0.13025928 0.17019822 0.14351751 0.26077285 -0.20689882 -0.07083926 -0.07574097 -0.20812044 0.22354357 -0.04051706 -0.14862129 0.19672023 -0.03624824 -0.036877796 -0.04790735 0.019778421 0.34248582 0.03860903 -0.238915 -0.069973394 0.3393368 -0.08403866 -0.11899197 -0.038541332 -0.14989807 0.15434106 0.24259163 0.14536753
26 0.052436445 -0.12826292 -0.16303958 -0.2013415 -0.10489044 -0.37594804 0.08862111 -0.34215888 0.12796307 0.30935523 -0.0814396 -0.008571299 0.14394632 0.020353679 0.0391108 -0.10359619 -0.02622252 0.40894178 -0.020232037 0.12729886 -0.0037422327 0.27816966 0.32707974 0.18118776 -0.15510811 0.3108325 -0.10457521 -0.23288289 0.08428914 0.20242825 -0.21832606 -0.1367934 -0.022984931 0.067751005 -0.16735259 0.09199208 0.05284714 0.024233911 0.17062193 0.36051035 0.14770234 0.1250845 -0.14471379 0.15655959 -0.18444954 -0.19299856 -0.017705046 0.09938585 -0.029925302 0.00791249 0.15124187 -0.13636273 0.1326213 -0.01231828 -0.043192074 -0.32597667 0.021825708 0.14881498 -0.14125365 0.07449457 0.022368114 0.34976617 -0.065131105 0.01012914 -0.07384563 0.15049288 -0.08027911 0.15105951 -0.18193926 0.15860903 0.09096911 0.1047009 -0.09720635 0.061078154 -0.021506684 -0.026349459 0.14818037 0.17507 0.12826712 -0.2097493 0.09787232 0.20443016 -0.29739025 -0.10662663 0.051528074 0.21790253 -0.06322715 0.2218157 -0.18975908 -0.24508184 -0.14783049 0.053724963 -0.12040719 0.23420636 -0.03128618 -0.031722717 0.023306001 0.1076611 -0.3087452 -0.24696715 0.14932442 0.18508966 0.15526773 0.28134796 -0.2300812 -0.06643841 -0.082357936 -0.21597727 0.24679533 -0.045956492 -0.16045052 0.21905501 -0.039181862 -0.038508974 -0.049539242 0.011486305 0.36791718 0.031149082 -0.26345116 -0.07456765 0.37072134 -0.08277848 -0.13019864 -0.056044675 -0.16580784 0.16816743 0.27475175 0.14367245
27 0.057816852 -0.12432089 -0.16290075 -0.19642028 -0.09903723 -0.3735054 0.086866975 -0.34718755 0.12662867 0.31117785 -0.08758173 -0.012531481 0.1429152 0.01563279 0.0406802 -0.09862234 -0.023390066 0.41318515 -0.013071949 0.12448753 -0.004213225 0.28065884 0.32281348 0.18383704 -0.1512844 0.3005966 -0.10465454 -0.23518783 0.08628864 0.19803375 -0.21682553 -0.14062685 -0.02000472 0.06830861 -0.1679604 0.09063136 0.060120594 0.022189165 0.1665719 0.36403996 0.13964435 0.11166614 -0.14235753 0.15428136 -0.17689277 -0.1890825 -0.014096386 0.08996614 -0.03322404 0.013057552 0.14616677 -0.14033054 0.13219506 -0.009029267 -0.045729373 -0.3264381 0.025717398 0.15093152 -0.14312184 0.078456126 0.02393752 0.3507324 -0.06752823 0.017952988 -0.07695947 0.15034181 -0.07828209 0.14893484 -0.18618104 0.14814162 0.09194954 0.105677955 -0.08942341 0.05820522 -0.020643506 -0.029900838 0.14960991 0.17811485 0.1309853 -0.21852605 0.10281577 0.20676957 -0.29271522 -0.11268006 0.049782705 0.2164163 -0.059879344 0.21602277 -0.18484864 -0.24054384 -0.15179922 0.050643753 -0.11862536 0.23090526 -0.024857534 -0.031309642 0.02394694 0.10738929 -0.30584553 -0.252617 0.14293385 0.18575545 0.15905917 0.28749445 -0.23131944 -0.06631661 -0.08255361 -0.21171792 0.24505565 -0.041344184 -0.15823647 0.20993918 -0.043431338 -0.045671135 -0.05347847 0.013816704 0.370067 0.033788245 -0.25828612 -0.07567882 0.37628636 -0.08319457 -0.12711139 -0.050976906 -0.15670413 0.17111309 0.2719918 0.15193672
28 0.052265026 -0.118837394 -0.15148187 -0.18794295 -0.096563 -0.3521764 0.07808369 -0.32313251 0.12474273 0.30073628 -0.08107 -0.010807545 0.14103451 0.019431671 0.041284785 -0.09308804 -0.023268793 0.3896923 -0.015864002 0.11612146 -0.0050312215 0.27220798 0.30612734 0.17933698 -0.14844143 0.29554382 -0.09334767 -0.22819264 0.08441063 0.19020574 -0.20937634 -0.13446924 -0.024304489 0.06307047 -0.16303217 0.090381235 0.04958857 0.019081283 0.15852274 0.33229268 0.13249013 0.10903723 -0.1344619 0.150372 -0.16658807 -0.18257558 -0.018079698 0.09362518 -0.028501416 0.0088473 0.14188127 -0.12854117 0.12676433 -0.010508806 -0.046692606 -0.30573913 0.02430838 0.14169554 -0.13355817 0.07696061 0.020440092 0.33672288 -0.061104756 0.011906354 -0.07460707 0.13837193 -0.07783893 0.14817248 -0.17699039 0.14548162 0.09131171 0.098571904 -0.09949944 0.056255642 -0.02780117 -0.028321216 0.13575435 0.1744878 0.12511276 -0.20009363 0.0947004 0.194717 -0.2845028 -0.10692884 0.052076463 0.20274252 -0.05817434 0.20634058 -0.17974466 -0.23172884 -0.13983855 0.05165147 -0.11564885 0.21537903 -0.027466394 -0.027317004 0.023635123 0.104002945 -0.28546253 -0.23607329 0.14096314 0.17925464 0.14788555 0.2675299 -0.22075762 -0.06847075 -0.07984289 -0.2040621 0.22945333 -0.03964115 -0.15804614 0.20253636 -0.03655165 -0.04422691 -0.05201277 0.0046934946 0.35540602 0.03298186 -0.2446435 -0.077197395 0.35719743 -0.077337 -0.120995946 -0.05404472 -0.15852365 0.16002843 0.26394123 0.13588984
29 0.053039696 -0.10733249 -0.14333895 -0.17783491 -0.08745755 -0.3443742 0.074976794 -0.30852804 0.11449947 0.28800616 -0.071206726 -0.0072831153 0.13524175 0.020783294 0.035263304 -0.08867819 -0.02308265 0.37614974 -0.017615747 0.119315244 -0.0050300197 0.26155046 0.30342078 0.1652416 -0.13858385 0.28370738 -0.09492196 -0.22146289 0.06992652 0.18089476 -0.19073759 -0.12234402 -0.021527406 0.055959675 -0.1442662 0.08284813 0.04263041 0.008539451 0.1595811 0.33073336 0.13333106 0.106697455 -0.12420555 0.14511321 -0.17273542 -0.1751763 -0.008973615 0.09018719 -0.032856584 0.012632271 0.1280895 -0.1241858 0.11700654 -0.015646977 -0.041300282 -0.29507318 0.017049883 0.14041576 -0.13192007 0.077976815 0.020158155 0.3256014 -0.056120194 0.017440224 -0.075625144 0.1369698 -0.076555505 0.14424768 -0.1730628 0.13631883 0.090666205 0.09666245 -0.08554663 0.06894528 -0.026554221 -0.017825149 0.1288422 0.16585967 0.1220225 -0.19987921 0.092913166 0.18811753 -0.26713026 -0.089978985 0.03930637 0.2018434 -0.053132202 0.20429501 -0.1717798 -0.22484115 -0.14412265 0.051572274 -0.107806124 0.21268407 -0.033843856 -0.03334371 0.019964145 0.09512951 -0.2937984 -0.21870984 0.1277605 0.16750075 0.13562368 0.26843163 -0.20266633 -0.0665568 -0.0809913 -0.19284111 0.22715333 -0.02707829 -0.14845878 0.19783516 -0.04124098 -0.034486182 -0.0482631 0.018942926 0.33628938 0.03910307 -0.24064226 -0.06992549 0.33346856 -0.075375825 -0.12611647 -0.059301224 -0.14900182 0.16200568 0.24373825 0.13795874
30 0.05325019 -0.11879821 -0.14858714 -0.19064789 -0.09105788 -0.34803668 0.08041217 -0.33341956 0.11361373 0.29324797 -0.08484161 -0.009116188 0.14098173 0.009165347 0.040392164 -0.10183785 -0.024910055 0.38075638 -0.014342212 0.124812 -0.0041613136 0.2745747 0.31487733 0.17445023 -0.1470129 0.2827687 -0.09363799 -0.22117673 0.081182405 0.19350164 -0.19906442 -0.12746954 -0.023543866 0.06006698 -0.1596102 0.08148678 0.06324173 0.023558287 0.15573224 0.34580305 0.13676128 0.10294821 -0.13779429 0.1483657 -0.17646807 -0.1853903 -0.008447191 0.08992241 -0.018041767 0.015130859 0.15164688 -0.127599 0.11391136 -0.018731788 -0.042607352 -0.30910668 0.025235856 0.14576106 -0.11947109 0.07023155 0.024336595 0.3356749 -0.066333786 0.01813006 -0.07632134 0.14272012 -0.08054198 0.13334452 -0.16557056 0.14924455 0.086823925 0.10437371 -0.086889155 0.054741547 -0.017360661 -0.01881821 0.14299121 0.16775149 0.12557104 -0.2123646 0.08889997 0.19720724 -0.26967144 -0.10101019 0.045644328 0.20846456 -0.06462213 0.20815647 -0.17377265 -0.23444027 -0.15247145 0.04968358 -0.10717517 0.20376399 -0.030448584 -0.025186852 0.034633502 0.10249155 -0.28925535 -0.23756482 0.13064124 0.16910502 0.15671459 0.26400024 -0.21246067 -0.06440282 -0.08128401 -0.21128085 0.2349267 -0.04637364 -0.14982095 0.19944601 -0.033890624 -0.037671003 -0.050633777 0.023996947 0.34977484 0.03256239 -0.24502544 -0.068720505 0.34814304 -0.07379343 -0.12476708 -0.032521993 -0.14693594 0.15332186 0.24866168 0.14754255
31 0.05067435 -0.12067153 -0.16065373 -0.20149717 -0.104480244 -0.3646254 0.0786001 -0.33798552 0.13205995 0.30090132 -0.08760842 -0.013448865 0.14834264 0.018349191 0.044823963 -0.101638764 -0.028103 0.3985056 -0.011604993 0.122497566 -0.0034231523 0.27059478 0.31971216 0.17961074 -0.15076467 0.3019566 -0.09363077 -0.22770794 0.08843612 0.20452245 -0.21428089 -0.13473928 -0.018769536 0.059652634 -0.16772506 0.08945563 0.056802988 0.01953528 0.16592464 0.34651858 0.14109878 0.11845765 -0.14121519 0.14847784 -0.17335913 -0.18474917 -0.01597325 0.08890223 -0.029033694 0.008842143 0.14461985 -0.13638964 0.123342596 -0.008115399 -0.042418018 -0.3222782 0.018887376 0.15181142 -0.1405104 0.076014504 0.017702691 0.3368482 -0.06986694 0.01686751 -0.07380093 0.14792836 -0.07794641 0.1480735 -0.184308 0.15457453 0.08579552 0.10209903 -0.095649794 0.06018773 -0.020459365 -0.02266615 0.15046784 0.17634699 0.12553984 -0.20437585 0.09453279 0.20357345 -0.2920362 -0.10804868 0.04764444 0.20786436 -0.06670028 0.21377183 -0.17961432 -0.23898396 -0.14430596 0.049748708 -0.11440035 0.22008355 -0.03134457 -0.038101356 0.02277043 0.10468222 -0.2948596 -0.24167567 0.14308509 0.17473146 0.15479405 0.27390718 -0.22562279 -0.06594245 -0.080478325 -0.21214974 0.24194726 -0.049928654 -0.15917137 0.21107158 -0.04019051 -0.036189005 -0.046441514 0.006782169 0.3648297 0.038843304 -0.25182375 -0.06988561 0.3600924 -0.085485175 -0.13125713 -0.04954025 -0.15855294 0.16062284 0.26281002 0.14376864
32 0.055977248 -0.11620597 -0.14474587 -0.1823161 -0.0804492 -0.3447998 0.08414623 -0.312037 0.11606534 0.29921037 -0.07018173 -0.005734263 0.1304717 0.008464249 0.032825705 -0.09048818 -0.02304761 0.37642005 -0.015058135 0.12383317 -0.0007717642 0.28108814 0.31952396 0.16397189 -0.13637544 0.2826473 -0.10301829 -0.22408095 0.06494327 0.1817205 -0.18171623 -0.12446173 -0.014600296 0.05570704 -0.14639285 0.07821226 0.056175932 0.01929655 0.15766299 0.34884426 0.1424589 0.11726061 -0.1340351 0.14640008 -0.18280104 -0.1720298 -0.008940618 0.09624751 -0.02304454 0.0061116614 0.12833329 -0.12339651 0.11507831 -0.018227264 -0.047847986 -0.29672635 0.020421797 0.14167091 -0.12395157 0.07788497 0.025353814 0.33709943 -0.058559395 0.019149866 -0.07459605 0.13938427 -0.07687956 0.1362329 -0.16267633 0.14421727 0.088293985 0.108093604 -0.08121363 0.06658763 -0.027957909 -0.019906314 0.13543358 0.15435106 0.12949501 -0.2134057 0.097109735 0.19080816 -0.26874164 -0.097397566 0.041526064 0.21088652 -0.04477582 0.2084908 -0.1760495 -0.23156588 -0.14879498 0.058876626 -0.1169609 0.22466464 -0.035877936 -0.023581633 0.025266739 0.0908133 -0.3008668 -0.21880253 0.12838808 0.17640023 0.1382749 0.2729472 -0.21121028 -0.06690378 -0.07948554 -0.20297307 0.22192998 -0.032626793 -0.15033895 0.20829928 -0.04810972 -0.03248963 -0.05343818 0.037615564 0.3463469 0.040291835 -0.25075546 -0.06861568 0.33929828 -0.07678209 -0.11923296 -0.043285992 -0.14562243 0.16932213 0.24422224 0.14314677
33 0.05015451 -0.11876404 -0.1610088 -0.19850251 -0.10722521 -0.35468942 0.08712748 -0.3361444 0.12885293 0.30051664 -0.08595722 -0.017348565 0.14602517 0.017296866 0.052161675 -0.10147702 -0.030317985 0.38917026 -0.012486004 0.12083708 -0.0012316251 0.26544982 0.30955338 0.17738798 -0.14822158 0.29156134 -0.092103794 -0.21928586 0.09273153 0.20469111 -0.21606983 -0.12911627 -0.025205806 0.06572054 -0.1667924 0.10017759 0.05291253 0.014881644 0.15829468 0.34503013 0.13096522 0.11394019 -0.14213121 0.15483564 -0.16559179 -0.18549268 -0.013020379 0.090407185 -0.03252492 0.010627875 0.15108982 -0.12691136 0.12783603 -0.009876437 -0.04071059 -0.31677386 0.019805463 0.15052122 -0.13895553 0.071119346 0.014908263 0.33764347 -0.0688315 0.014709754 -0.078603014 0.14688869 -0.07738797 0.13982284 -0.18107943 0.15595679 0.087925136 0.10123546 -0.09176085 0.047716253 -0.016058648 -0.021235267 0.14373158 0.17856538 0.12653074 -0.19658427 0.09585906 0.19962472 -0.28540045 -0.11242898 0.04305453 0.2068971 -0.076744795 0.21015668 -0.18309826 -0.23643747 -0.14634766 0.045764685 -0.11011742 0.21334088 -0.0228818 -0.034831252 0.021082925 0.104281746 -0.28768247 -0.24405101 0.13984898 0.178863 0.1603426 0.26708898 -0.22397576 -0.066118024 -0.08396245 -0.20854487 0.23991628 -0.04564287 -0.15299174 0.20505852 -0.033808053 -0.04149261 -0.047955424 0.0021549142 0.35634837 0.033348963 -0.24314399 -0.0614924 0.35870755 -0.07821418 -0.12615211 -0.044101264 -0.15737575 0.15401946 0.25731763 0.14577177
34 0.05267083 -0.101702735 -0.059784498 -0.18079598 0.05170761 -0.31293926 0.12708364 -0.21092881 0.14164211 0.34153283 0.0045260885 -0.017743623 0.049807403 0.06230966 -0.0052200505 -0.073346496 0.034371153 0.33479607 -0.023480995 0.06328383 -0.015689068 0.38884392 0.43754962 0.13119759 -0.08392942 0.24353953 -0.11492239 -0.2731739 -0.048698686 0.098056495 -0.10153459 -0.14511918 0.006698414 0.004950449 -0.0644675 0.0048636836 0.05933828 0.041054357 0.19850905 0.38570082 0.16120361 0.10537017 -0.098645285 0.17169881 -0.2995568 -0.15656298 -0.018021576 0.077306055 -0.012285215 -0.040272467 0.012351898 -0.10874155 0.060148872 0.015066046 -0.046684194 -0.23696697 0.047259968 0.11917353 -0.042758718 0.129741 0.085822076 0.34018952 -0.0017182998 0.055516783 -0.017184164 0.1534619 -0.15097217 0.14531606 -0.09767516 0.0564162 0.047830243 0.14715019 0.036757734 0.17401476 -0.084986225 -0.048826292 0.07929107 0.048869655 0.13454896 -0.31400898 0.1470355 0.17048065 -0.28181848 -0.02320933 0.014859717 0.18833922 0.039964106 0.14513469 -0.18669954 -0.15501958 -0.19223341 0.060064565 -0.14526363 0.27048764 -0.015594148 -0.025705969 -0.052334905 0.09077108 -0.41858327 -0.1846032 0.09492087 0.18661179 0.1186561 0.33510557 -0.15351985 -0.036699325 -0.09174674 -0.1693864 0.18518898 0.04273016 -0.091896474 0.2321098 -0.065977864 -0.011569599 -0.06219828 0.16869041 0.3167164 0.031344898 -0.30903748 -0.12597424 0.35830364 -0.037616454 -0.12300424 0.041996 -0.12267535 0.21568996 0.23188104 0.21643911
35 0.053502206 -0.095478706 -0.05355361 -0.18553944 0.054669283 -0.32410285 0.12574759 -0.20699215 0.14892893 0.34821042 0.005106421 -0.011849742 0.04944211 0.06399042 -0.0069401464 -0.067242526 0.029774887 0.34486613 -0.022209492 0.06994314 -0.028042467 0.37768924 0.43090516 0.138086 -0.08445133 0.24672157 -0.12464697 -0.28214678 -0.05765479 0.085947484 -0.11447408 -0.14686957 -0.0013199552 0.002277243 -0.059945207 0.0062672226 0.068956085 0.032517076 0.19714175 0.38433513 0.17405915 0.10061574 -0.099404335 0.17130458 -0.29271197 -0.15939687 -0.018289048 0.06557351 -0.01377707 -0.027164254 0.019667028 -0.114634655 0.06635715 0.021411208 -0.04752616 -0.2402221 0.036906954 0.107825056 -0.04512121 0.12619892 0.083700806 0.34334102 0.007089367 0.04911432 -0.02374199 0.15576793 -0.14704874 0.14281128 -0.10465031 0.05326429 0.053260952 0.1464778 0.045053825 0.18055397 -0.081936575 -0.054219335 0.0730822 0.05658337 0.13805906 -0.31742057 0.14639208 0.17134461 -0.27558738 -0.02116205 0.020780398 0.19264437 0.048834775 0.14328614 -0.18931915 -0.14071663 -0.18598738 0.05383607 -0.14433305 0.26936662 -0.019780494 -0.025037393 -0.06072137 0.0901127 -0.4284033 -0.1795927 0.096136495 0.18287435 0.11473438 0.33878592 -0.15543862 -0.038293038 -0.10598063 -0.16968307 0.19756883 0.041563306 -0.08932326 0.23824629 -0.062386468 -0.012815758 -0.06664733 0.16791752 0.32490206 0.04756424 -0.32117435 -0.12496679 0.35617712 -0.033152986 -0.123971485 0.025968237 -0.11291662 0.20185775 0.24230245 0.22240023
36 0.046971053 -0.09985716 -0.054687764 -0.18669571 0.05840511 -0.33802766 0.12629987 -0.21483487 0.15352055 0.35519472 0.002104179 -0.020802861 0.0612329 0.07022993 0.0008316037 -0.072880134 0.03263414 0.3622614 -0.025059886 0.07440389 -0.023304507 0.38853472 0.44148847 0.14241686 -0.08822266 0.25280392 -0.12775952 -0.27984598 -0.058412544 0.086612426 -0.11521399 -0.14738137 0.0067226756 0.0012792606 -0.06279064 0.014263457 0.070895806 0.030023422 0.20451196 0.40505877 0.1752652 0.11268523 -0.105004214 0.18191236 -0.2982319 -0.1675667 -0.009470915 0.0748339 -0.018418998 -0.03332127 0.020142458 -0.12151097 0.07115172 0.012965813 -0.05140755 -0.25299388 0.030565837 0.11558973 -0.05488956 0.13389078 0.08354684 0.35634294 0.010087176 0.053072862 -0.02281403 0.161957 -0.1515352 0.15337631 -0.1011008 0.06329546 0.0518551 0.15310402 0.046695407 0.18009414 -0.082238235 -0.05171431 0.07465594 0.056683514 0.14537069 -0.32358265 0.15187478 0.18780714 -0.2828553 -0.025023282 0.01816529 0.19983457 0.05134379 0.15309648 -0.19584113 -0.14459735 -0.19592035 0.058218252 -0.15045531 0.2845586 -0.025342377 -0.03042797 -0.07073586 0.08977671 -0.43434727 -0.18157531 0.098435186 0.18709658 0.12948176 0.3500617 -0.16086914 -0.046245247 -0.10819347 -0.17709035 0.20833476 0.03251964 -0.09079849 0.24714847 -0.06961687 -0.0075118598 -0.07580566 0.16639441 0.33482993 0.06099371 -0.32698226 -0.12432231 0.3624057 -0.039868787 -0.12431556 0.03244125 -0.123462796 0.20650835 0.23896402 0.23418313
37 0.054837137 -0.09654458 -0.053731315 -0.18083681 0.05856432 -0.30136344 0.11641744 -0.20451292 0.13973689 0.33032027 -0.00016886336 -0.015149715 0.04646633 0.06841177 -0.007265599 -0.07027197 0.026695626 0.31838474 -0.01565544 0.06516204 -0.016664851 0.3780649 0.42632684 0.13818397 -0.08739703 0.23177524 -0.11263672 -0.26667848 -0.05302517 0.091405615 -0.105261184 -0.14891677 0.0065937275 0.0003448373 -0.07810162 -0.005268282 0.06112848 0.034150288 0.19285737 0.3678126 0.15632026 0.09733245 -0.08861151 0.16145709 -0.28826758 -0.15250282 -0.01713946 0.08258231 -0.008965492 -0.037486084 0.011489779 -0.11820625 0.056524735 0.02062259 -0.038986254 -0.2401923 0.04788552 0.11411547 -0.036487468 0.1288788 0.0824395 0.32488364 -0.0037725023 0.058235392 -0.021814752 0.15156622 -0.14297307 0.13766769 -0.10034217 0.04318268 0.044104032 0.14889494 0.040472366 0.17276044 -0.08059381 -0.051398527 0.079191655 0.03240858 0.13510147 -0.30141896 0.13588414 0.1618056 -0.27418008 -0.009427929 0.008055982 0.1844704 0.038384095 0.1390965 -0.17891993 -0.14856893 -0.18815848 0.05540832 -0.13036047 0.25795794 -0.016216075 -0.026857518 -0.04327014 0.08978269 -0.40835446 -0.18876743 0.094787024 0.17284611 0.12143257 0.32588494 -0.14045136 -0.032197632 -0.085560136 -0.16365826 0.19769062 0.03646365 -0.08805712 0.22476225 -0.062126994 -0.012483494 -0.06235714 0.1684109 0.3007813 0.040137373 -0.29675668 -0.13114357 0.34697738 -0.032475118 -0.11891122 0.047740463 -0.12513301 0.210491 0.21100712 0.20884489
38 0.050824422 -0.09499753 -0.054814745 -0.17776708 0.051234566 -0.3171563 0.12538189 -0.21427003 0.14116974 0.34646913 0.007840648 -0.010484452 0.049438696 0.06617979 -0.0074699777 -0.0728663 0.03608251 0.33326006 -0.02067711 0.07040234 -0.018557796 0.3775944 0.42204517 0.13797456 -0.0863248 0.24709792 -0.1164333 -0.27142397 -0.049924042 0.08949072 -0.10554864 -0.1383314 0.006737311 0.009490578 -0.07015134 0.010905183 0.061583713 0.03379909 0.19064741 0.37267324 0.16513655 0.09921511 -0.093793 0.16572243 -0.28673497 -0.15909836 -0.020735508 0.070252836 -0.008486496 -0.03829047 0.018821176 -0.11762356 0.06844731 0.008350458 -0.052883532 -0.24411038 0.044835236 0.11168712 -0.04915139 0.11972855 0.086596906 0.33366385 -0.003142913 0.053302433 -0.02240627 0.14508548 -0.13916042 0.149248 -0.09849748 0.05817501 0.05011761 0.1455619 0.03884999 0.1707877 -0.08005706 -0.04870215 0.07424775 0.057910725 0.13677241 -0.30437386 0.14162616 0.1709977 -0.27139467 -0.02174101 0.017827453 0.18918917 0.047714353 0.14063115 -0.17752446 -0.14563742 -0.18044631 0.054834023 -0.14924578 0.2715434 -0.023673229 -0.025531596 -0.059134588 0.0855254 -0.40937182 -0.17698543 0.0999826 0.18222734 0.11891094 0.33166802 -0.14916709 -0.037547413 -0.09659166 -0.16042201 0.18986604 0.033643797 -0.09429491 0.23443747 -0.062682055 -0.013697267 -0.07090323 0.16957922 0.3136786 0.044110328 -0.30499092 -0.12995866 0.34874064 -0.03154905 -0.12278582 0.035253033 -0.11740853 0.20920636 0.22558138 0.21928734
39 0.059664935 -0.10479499 -0.060586296 -0.19616382 0.059944995 -0.34899968 0.12865946 -0.22396363 0.1518607 0.36905617 0.0059518954 -0.015363793 0.061762895 0.06469188 0.0028180436 -0.07978722 0.028674942 0.3726791 -0.02818728 0.086836204 -0.02145137 0.41118926 0.45467293 0.14139394 -0.09096268 0.2716992 -0.13126333 -0.29534474 -0.043176733 0.09354358 -0.11672389 -0.14027591 0.0059256996 0.007951918 -0.059747864 0.018430516 0.07417261 0.038823467 0.20912011 0.41042012 0.18605244 0.123635836 -0.11346036 0.18734251 -0.31160387 -0.17154045 -0.009907655 0.079005025 -0.009090731 -0.036320742 0.023350159 -0.124175794 0.07248314 -0.00013131216 -0.058481894 -0.2567658 0.039014447 0.11857957 -0.055856068 0.1363224 0.0843499 0.36557367 0.007719797 0.054671295 -0.01736081 0.15641962 -0.1535534 0.15047015 -0.0997621 0.06725912 0.055148408 0.15711994 0.035600267 0.18344729 -0.08461865 -0.04912143 0.0816944 0.06799104 0.14471598 -0.32768348 0.15322444 0.19451544 -0.28541175 -0.029913653 0.021612734 0.20269306 0.05237711 0.15739864 -0.19237407 -0.1630687 -0.19865979 0.05711425 -0.15939513 0.29025167 -0.039344776 -0.02407982 -0.062259544 0.080838874 -0.4499582 -0.18090132 0.11255485 0.20171306 0.1172433 0.34991586 -0.17039396 -0.052814458 -0.10754564 -0.18180126 0.19891138 0.033595707 -0.104056 0.25690025 -0.075117454 -0.014882198 -0.071895435 0.17765427 0.35010916 0.057636503 -0.3395524 -0.12997885 0.36317554 -0.032595824 -0.13309988 0.02604533 -0.1279115 0.2144495 0.25243202 0.23050047
40 0.062444285 -0.106849186 -0.058559168 -0.19679174 0.061232418 -0.33641595 0.13734852 -0.23000409 0.15337527 0.36486113 -0.0041036676 -0.025317334 0.056141436 0.06998116 -0.001728121 -0.08423537 0.03489345 0.35476452 -0.022437066 0.07039211 -0.018249115 0.42133856 0.46731707 0.14394504 -0.091946244 0.26215073 -0.12590551 -0.28849342 -0.049882587 0.09934031 -0.11246909 -0.15604393 0.0025990712 0.0061110794 -0.06885141 0.0072623263 0.0723529 0.047102246 0.21520409 0.4119704 0.17694192 0.1014013 -0.1061402 0.18176404 -0.31595236 -0.16656974 -0.011460885 0.08045312 -0.011584563 -0.032443017 0.020806791 -0.12220326 0.06939428 0.017812328 -0.045878854 -0.25363392 0.05638048 0.11483887 -0.050836027 0.13844246 0.10664133 0.36168924 -0.0037082157 0.06319946 -0.02138205 0.16149388 -0.16785425 0.14339504 -0.0977092 0.051123727 0.051850874 0.15957524 0.04650472 0.19354488 -0.08508019 -0.057541326 0.079652846 0.049099106 0.15167758 -0.32656994 0.1515754 0.18509108 -0.29032275 -0.025373591 0.012337927 0.19584572 0.0423292 0.15442196 -0.19185099 -0.154879 -0.20515786 0.050547134 -0.15492445 0.27859128 -0.0194585 -0.026046941 -0.06101554 0.09763746 -0.44221842 -0.20195718 0.09748716 0.19400021 0.12986754 0.36407682 -0.15734932 -0.03434739 -0.10239368 -0.1795954 0.20586933 0.04127765 -0.1033257 0.24086002 -0.06722242 -0.013420062 -0.07047613 0.1859062 0.33836958 0.038876336 -0.34062085 -0.13059431 0.38193053 -0.027623912 -0.1321773 0.05096607 -0.12877166 0.23319331 0.24906953 0.2353815
41 0.053160124 -0.09870584 -0.056162406 -0.19993764 0.057743996 -0.33558747 0.13625179 -0.22237545 0.15849116 0.37460598 0.008415492 -0.01172465 0.052884504 0.06626645 0.006040179 -0.07343545 0.030063204 0.36338997 -0.01981341 0.07342817 -0.025266653 0.39675558 0.45983037 0.14659555 -0.09416061 0.26395416 -0.11873064 -0.29487363 -0.06067422 0.09165732 -0.11649588 -0.14648175 0.007781716 0.0031453844 -0.066315584 0.011202862 0.07452137 0.031086251 0.20810767 0.41154835 0.18249625 0.117802806 -0.100866154 0.184772 -0.30643165 -0.16764152 -0.01811676 0.07259745 -0.005723195 -0.037398845 0.023477688 -0.12426867 0.07123116 0.017701 -0.04942293 -0.2599596 0.038687535 0.12259192 -0.040983215 0.13325806 0.08802214 0.3561264 0.009689803 0.053391203 -0.020505331 0.16721396 -0.15318741 0.1500376 -0.10621407 0.051668886 0.051656976 0.15479012 0.055630185 0.18245786 -0.08507447 -0.06159116 0.08047568 0.055757564 0.15228707 -0.33655003 0.15374167 0.18910712 -0.28564388 -0.027025854 0.0189906 0.2124508 0.04710438 0.15608138 -0.19126093 -0.15399915 -0.20566861 0.06534032 -0.1491471 0.28570926 -0.026338285 -0.03443451 -0.064242505 0.09737398 -0.44866922 -0.18783993 0.101952545 0.19594702 0.13595258 0.36197573 -0.1605557 -0.04425468 -0.109419376 -0.1819345 0.20908374 0.03550603 -0.09559761 0.257129 -0.06372071 -0.016295508 -0.07435473 0.18193156 0.34300992 0.05317946 -0.3366157 -0.13113087 0.3783324 -0.03396778 -0.12113369 0.045259975 -0.12281537 0.21236238 0.24127777 0.23760095
42 0.045647267 -0.054052133 -0.08946775 -0.17335206 0.044849448 -0.34185117 0.08839264 -0.24559835 0.09487395 0.29249427 -0.0007772197 0.04852063 0.10545271 0.009211327 -0.0110334605 -0.109678894 -0.010348995 0.3092794 -0.053364646 0.16235332 -0.005712537 0.34746793 0.4361434 0.10548515 -0.096916445 0.30894226 -0.15599298 -0.26506376 -0.01260158 0.11939215 -0.042687237 -0.09860858 -0.00059921644 0.0066279727 -0.083218805 -0.02608443 0.053830154 0.051814206 0.1717778 0.383513 0.20082773 0.15631537 -0.093341865 0.13997278 -0.3283871 -0.15696406 0.042188358 0.13481511 -0.0027997184 -0.026236223 0.05477004 -0.106130145 0.05890723 -0.08221322 -0.06337309 -0.2503222 0.038535997 0.14978436 -0.06647374 0.072179034 0.05094886 0.32664153 -0.044696584 0.04840129 -0.06628096 0.13616194 -0.10457132 0.13319352 -0.09326483 0.14656518 0.079132795 0.12876496 -0.05005624 0.15906219 -0.08682458 0.03325697 0.097865194 0.054086648 0.14304571 -0.28670305 0.08133758 0.15788251 -0.22876802 -0.025210753 0.04426404 0.21839264 0.058520805 0.19256392 -0.17488837 -0.23976152 -0.17345975 0.072565176 -0.13710736 0.25454634 -0.13168913 0.00018698545 0.028155735 0.032851655 -0.3988346 -0.14738683 0.13410372 0.17546527 0.09162536 0.27423307 -0.15494178 -0.073906586 -0.066951185 -0.20525657 0.22289889 -0.037886873 -0.13875976 0.25045457 -0.07477945 -0.007094908 -0.05092912 0.17943257 0.34239942 0.085014164 -0.28206888 -0.09674019 0.2576637 -0.045255315 -0.15811163 -0.017303687 -0.14191633 0.18539847 0.20007737 0.18223242
43 0.036040656 -0.05883331 -0.058542866 -0.080914415 0.021830495 -0.20705737 0.06521431 -0.14193603 0.068349004 0.2001843 -0.0079149185 0.008501097 0.04310454 0.007701095 -0.028763715 -0.050871216 0.0032071183 0.20705345 -0.02395348 0.061121065 0.00091093394 0.24447748 0.26741976 0.07110802 -0.052599948 0.1873283 -0.09133075 -0.16956265 -0.02034076 0.07075305 -0.065209195 -0.09017895 0.009346324 -0.0014793604 -0.028090177 -0.0010771328 0.018836387 0.02072557 0.11579776 0.22480606 0.10323029 0.07976623 -0.06358704 0.10490141 -0.1952368 -0.0858214 0.0023947721 0.07224363 -0.028961066 -0.008345405 -0.0014613951 -0.06856779 0.056233507 -0.033728644 -0.029317025 -0.14599782 0.015700104 0.07919884 -0.058634333 0.07007159 0.042827006 0.21372278 -0.0034635786 0.027913168 -0.03793573 0.08952571 -0.05589697 0.104879424 -0.07804755 0.049814306 0.060949344 0.09916631 -0.030579953 0.10726134 -0.066534944 -9.441136e-05 0.042596772 0.049888037 0.08351814 -0.18213551 0.07967804 0.10657457 -0.14934285 -0.017100802 0.016298147 0.12916052 0.048575707 0.11804529 -0.11033776 -0.13921139 -0.1035182 0.04918899 -0.09265517 0.18768135 -0.026666274 0.011277702 0.007450594 0.051284757 -0.26187125 -0.112754375 0.08492916 0.13111107 0.031957492 0.19783498 -0.08954993 -0.026810633 -0.0339496 -0.09541601 0.11480352 0.035079014 -0.092750765 0.13954279 -0.054873694 -0.014097692 -0.040402666 0.09345427 0.19289805 0.008302464 -0.179813 -0.07113938 0.19703215 -0.027157482 -0.06919229 -0.03923575 -0.0773071 0.16004905 0.14777888 0.09526748
44 0.050679862 -0.094742455 -0.09280731 -0.10397702 0.027722482 -0.30407798 0.096261986 -0.23833121 0.08016188 0.29051384 -0.018037105 0.016514996 0.059819303 -0.003971154 -0.042935226 -0.06645369 0.0040730555 0.32198283 -0.029301109 0.12571755 0.011285743 0.33561888 0.38624492 0.11421209 -0.075851165 0.26709887 -0.13800319 -0.2235819 -0.008038517 0.087030575 -0.10886466 -0.12780571 0.019730566 0.016478205 -0.04493492 0.0028593165 0.059545405 0.023207147 0.16679545 0.36767524 0.13944294 0.13173042 -0.09419825 0.13839173 -0.26672408 -0.13492556 0.009373369 0.104029946 -0.012813067 -0.0111970585 0.039465345 -0.11360174 0.07452104 -0.032106984 -0.059988096 -0.22333638 0.011614576 0.12035747 -0.064851835 0.11694324 0.048021544 0.33915362 0.0045145876 0.050350025 -0.061035 0.11471079 -0.08327526 0.14951229 -0.14098756 0.07546397 0.09530323 0.1593067 -0.017106485 0.14130954 -0.08169147 -0.0034998858 0.09114885 0.08207946 0.14041312 -0.27274856 0.11203788 0.1763456 -0.22008517 -0.03539581 0.024311354 0.21453464 0.081554204 0.19375558 -0.15945548 -0.2196161 -0.15479623 0.09063783 -0.13061514 0.30084243 -0.04794243 -0.00038888803 -0.003402443 0.050174274 -0.3839104 -0.17956953 0.096541904 0.2021334 0.062489286 0.27280203 -0.13262817 -0.05277549 -0.064215146 -0.15161632 0.17466854 0.047065068 -0.10605256 0.20946722 -0.09567806 -0.0077025266 -0.082651675 0.12878866 0.302508 0.036627043 -0.2790463 -0.10250163 0.30543515 -0.06722373 -0.09801253 -0.07566492 -0.118461296 0.2194599 0.21239124 0.14389479
45 0.061445966 -0.11548804 -0.10597741 -0.099766456 0.028181463 -0.28883606 0.08085461 -0.3130074 0.03652499 0.27715367 -0.044127546 0.042436358 0.045964874 -0.04508348 -0.041468367 -0.09578677 -0.047719482 0.33853665 -0.024052741 0.17560545 0.03831063 0.28805408 0.3589205 0.11943754 -0.09545914 0.22482517 -0.13777612 -0.17484583 0.0073496597 0.07326058 -0.09792695 -0.11370445 0.0250916 0.034147423 -0.050719015 0.010457117 0.12137231 0.015108056 0.16249253 0.4350165 0.1468354 0.13489464 -0.094024755 0.10276618 -0.22739838 -0.1400001 0.04312474 0.12378878 0.04583053 -0.0024798494 0.12737462 -0.13134381 0.059784696 -0.04388217 -0.074172646 -0.2575803 0.01595551 0.14525379 -0.0031503863 0.09987452 0.02402577 0.35246223 -0.016144166 0.07117863 -0.104012184 0.12843415 -0.07007198 0.12557127 -0.1602547 0.09375296 0.073480174 0.17571606 -0.011312345 0.116893664 -0.047521915 0.02725054 0.14185022 0.09143674 0.16782272 -0.28451866 0.08609045 0.20992099 -0.1937406 -0.071663864 0.013751918 0.2568335 0.07848796 0.26202795 -0.14450392 -0.27086273 -0.1458831 0.12944666 -0.09906178 0.3145625 -0.0492292 -0.014563831 0.021193689 0.036125753 -0.37195396 -0.18835849 0.06260428 0.19039653 0.10218619 0.24581371 -0.12985153 -0.101378955 -0.07985479 -0.22137345 0.2327346 -0.012122156 -0.050552327 0.21173587 -0.09483354 0.003050113 -0.10528292 0.12045384 0.32296976 0.07233216 -0.24882232 -0.06695633 0.3135574 -0.11708098 -0.103165574 -0.05307044 -0.10241442 0.17148821 0.16896906 0.16223007
46 0.04666875 -0.083627746 -0.084843785 -0.09650567 0.03337393 -0.276251 0.08001616 -0.21054392 0.069992095 0.26203507 -0.017122036 0.015877409 0.048065767 -0.0042920946 -0.04276846 -0.05729904 0.005372555 0.28633776 -0.024800768 0.11130085 0.011952865 0.29923204 0.34220657 0.09645133 -0.071395285 0.23991919 -0.124419324 -0.19715105 -0.010883875 0.0762196 -0.100231566 -0.114236906 0.010677764 0.017003702 -0.034381952 0.005441616 0.050684717 0.020189594 0.15859339 0.32539737 0.12943183 0.11136468 -0.082134336 0.12872157 -0.2448272 -0.1199855 0.006156771 0.09182089 -0.016428784 -0.0040441793 0.029545227 -0.09767548 0.061831627 -0.03427489 -0.050399683 -0.19630212 0.012005016 0.10634949 -0.062072914 0.11125715 0.04143347 0.30325836 1.9289047e-05 0.04987552 -0.05092313 0.1052063 -0.08180386 0.1342317 -0.129075 0.07340078 0.07986912 0.14280355 -0.017595312 0.13032404 -0.07222547 0.0043147374 0.07877039 0.07653279 0.11410643 -0.2437469 0.100649625 0.15674958 -0.19660799 -0.025273334 0.026096068 0.18407115 0.070866555 0.17390461 -0.1367732 -0.18786296 -0.13844487 0.082770646 -0.11543003 0.26562047 -0.03951023 0.000897461 -0.0038267046 0.054731175 -0.34859213 -0.16007884 0.0858013 0.17931089 0.05310789 0.24707027 -0.116973855 -0.051752426 -0.060805507 -0.13892224 0.16163924 0.04346853 -0.09771231 0.18062788 -0.078009784 -0.006012338 -0.06108321 0.11545354 0.26950714 0.034583285 -0.2514568 -0.08491027 0.26940897 -0.05885134 -0.09572916 -0.062348165 -0.11146317 0.19860747 0.18615602 0.12750691
47 0.05215922 -0.101409964 -0.100409 -0.10758941 0.030119855 -0.33529928 0.09858343 -0.24541034 0.08320638 0.30525193 -0.017034218 0.015741656 0.059627313 -0.003981224 -0.040647045 -0.06401476 0.008252158 0.3465287 -0.030293245 0.13543251 0.012334765 0.3615261 0.39855894 0.111087434 -0.077937745 0.28094718 -0.13708022 -0.24445397 -0.016300933 0.09201314 -0.11538902 -0.13202167 0.012549565 0.017639747 -0.041253917 0.015892502 0.057128403 0.02184724 0.18036826 0.38031176 0.1527319 0.14201634 -0.10208115 0.15701182 -0.2871856 -0.14775294 0.007265697 0.100338034 -0.025052346 -0.004521558 0.039429463 -0.11378344 0.08516841 -0.0402989 -0.06682682 -0.23882118 0.007436927 0.11953748 -0.07250797 0.12718573 0.04568052 0.3592381 0.0061253887 0.054864783 -0.05728408 0.12259079 -0.09192846 0.15666549 -0.15307106 0.08934612 0.098212324 0.15925768 -0.025298724 0.15474336 -0.091909274 -0.0055707307 0.09172224 0.09085205 0.1431933 -0.28774902 0.120614044 0.1842127 -0.22996172 -0.032002468 0.030140702 0.21547802 0.086974934 0.20503381 -0.16584082 -0.21645299 -0.15496585 0.094293274 -0.14116216 0.32195622 -0.050591476 0.0014140012 -0.010408435 0.056499526 -0.41454023 -0.18072279 0.10321964 0.21545237 0.062290605 0.286283 -0.14663753 -0.053973217 -0.07730063 -0.15985073 0.1866518 0.048344094 -0.10847477 0.22372647 -0.102117695 -0.007998963 -0.084508196 0.12943038 0.319916 0.036223497 -0.30227634 -0.10483954 0.32463282 -0.06335809 -0.106599614 -0.08150258 -0.12837797 0.22696081 0.2323806 0.1550333
48 0.03970252 -0.107620195 -0.12884912 0.010545693 -0.0009030659 -0.32194328 0.12094287 -0.17553107 0.09679976 0.33839834 -0.006590792 0.041366186 0.031073265 -0.019640215 -0.0870942 -0.0078102713 0.020735526 0.3563074 0.011552798 0.000868936 0.0102789365 0.43685055 0.39324048 0.06600065 -0.065880716 0.25023502 -0.14028199 -0.2850732 -0.0689185 0.08838556 -0.17053005 -0.21137255 0.0050362023 -0.0050268075 0.063949324 -0.019229217 0.039713737 0.031739518 0.20627035 0.2941181 0.12245907 0.16003264 -0.1199536 0.20264517 -0.31613603 -0.06669627 -0.087934814 0.0817366 -0.15919818 0.014136484 -0.078164 -0.0902051 0.15598357 -0.020156303 -0.025139675 -0.17139608 -0.02369126 0.04674743 -0.14873956 0.14405079 0.14205669 0.38458055 0.05842427 0.023707327 -0.023184761 0.11625677 -0.017688878 0.19921279 -0.21090715 0.005891166 0.13210478 0.22235271 -0.09558397 0.18711488 -0.1544078 -0.077039 0.022127772 0.1004544 0.14437109 -0.28528842 0.18349375 0.116307005 -0.21003665 -0.031301245 0.056986317 0.16421364 0.20712169 0.18318437 -0.10904681 -0.18996495 -0.111186706 0.10890375 -0.16094208 0.4132877 0.06748577 0.107450984 -0.0034916918 0.14377162 -0.4749643 -0.1856847 0.17408346 0.234952 -0.08362042 0.33356223 -0.09974303 -0.021681335 -0.038982764 -0.07107591 0.106962375 0.21438998 -0.13743043 0.1648104 -0.13195024 -0.079810485 -0.15751736 0.07678127 0.22355837 -0.09493155 -0.31980982 -0.14490509 0.4044821 -0.044047985 -0.011598429 -0.22107731 -0.06805156 0.3269244 0.3247415 0.045099672
49 0.049083903 -0.10560916 -0.12237585 0.02042178 0.004054782 -0.32030356 0.11915569 -0.17571566 0.099402264 0.33630577 -0.010780576 0.038907662 0.022548852 -0.02809625 -0.09836143 -0.008500449 0.017143851 0.36289108 0.016236776 -0.00022523224 0.00719006 0.43051562 0.3849524 0.06615064 -0.06693599 0.2531094 -0.15118131 -0.28069612 -0.062238313 0.08073079 -0.18029675 -0.20648119 3.26018e-05 0.0051586623 0.07145458 -0.02487674 0.04732026 0.038060185 0.20734571 0.28917417 0.115689084 0.16051488 -0.11542682 0.20095576 -0.31716636 -0.07568941 -0.09079398 0.06993381 -0.16056788 0.01767822 -0.07413629 -0.097434476 0.16173086 -0.016649134 -0.025330722 -0.16243705 -0.018193144 0.040943924 -0.1549702 0.15037006 0.14509231 0.38611948 0.06733086 0.016946323 -0.026692376 0.11085492 -0.012411943 0.19670339 -0.21141982 0.0066726007 0.13437812 0.22475374 -0.09498803 0.1823738 -0.16504247 -0.08006151 0.01468194 0.09900951 0.14765142 -0.28544146 0.19324501 0.12072579 -0.21044315 -0.03854913 0.059431333 0.15781327 0.21608087 0.18380181 -0.1090011 -0.18271954 -0.105318256 0.110627815 -0.1566604 0.41667476 0.067627594 0.12279127 -0.0139494715 0.14522064 -0.47785524 -0.18376325 0.16329204 0.23662189 -0.08379324 0.33114716 -0.10080187 -0.023524595 -0.04394337 -0.06724006 0.10348194 0.22313745 -0.12954986 0.1650889 -0.12881666 -0.07709405 -0.16434233 0.07926356 0.21561895 -0.10316912 -0.32779083 -0.13977057 0.40351686 -0.040796027 -0.0032703255 -0.23432149 -0.06510297 0.3300055 0.33656523 0.044377733
50 0.019715939 -0.09484824 -0.14525929 0.011842707 -0.02570962 -0.2931764 0.13017783 -0.1237883 0.13695121 0.31199583 0.004418272 -0.023545893 0.10497865 -0.0006942707 -0.06974738 -0.012205729 0.0035778498 0.36475003 -0.0015030038 0.013301157 0.039523233 0.39004585 0.3412319 0.032694183 0.0019436132 0.24990167 -0.091522045 -0.2664511 -0.064824335 0.084716864 -0.15606594 -0.14940447 0.07609076 -0.030850193 0.08582068 0.03399601 -0.0013410328 -0.008134713 0.20018809 0.34247318 0.08518699 0.23461224 -0.12913702 0.21993577 -0.28859782 -0.072128505 -0.04978797 0.106344 -0.17095403 -0.015392125 -0.12025418 -0.039108116 0.17090021 -0.001162465 -0.024372699 -0.16231467 -0.06338777 0.081495374 -0.21924795 0.16210109 0.08513347 0.36681786 0.12156151 0.02342456 -0.047393773 0.118604004 -0.038374066 0.18656752 -0.19759504 0.018959915 0.11873677 0.1844333 -0.07748077 0.16227405 -0.12745239 -0.04871619 0.01691872 0.090599 0.14315793 -0.24432985 0.17569137 0.1508894 -0.192802 -0.052935436 -0.016834404 0.17250519 0.16004829 0.17755845 -0.15582167 -0.18412653 -0.13637288 0.11283417 -0.17110401 0.43262702 0.09377352 0.07588291 -0.07130633 0.07977896 -0.4611387 -0.13085501 0.16065669 0.27251974 -0.08502318 0.3119095 -0.13986407 0.015154814 -0.042058043 -0.032950748 0.071281955 0.210699 -0.13814084 0.16279384 -0.1323212 -0.07204621 -0.16220492 0.05079691 0.22995983 -0.055452816 -0.33719933 -0.09996525 0.41121203 -0.08252257 0.02619416 -0.25952122 -0.111074455 0.33222464 0.24745926 0.08828363
51 0.05364765 -0.10681841 -0.08440823 0.11310312 0.00047192344 -0.31123528 0.1014217 -0.17108704 0.08303632 0.35408697 -0.028833205 0.07657889 -0.058363095 -0.10329911 -0.15407632 0.002771097 0.018996289 0.37910232 0.058600016 -0.024334943 -0.005714598 0.39022437 0.36204684 0.07922536 -0.052608345 0.27478853 -0.1829076 -0.30193254 -0.0704684 0.038122922 -0.2665286 -0.25845873 -0.019779114 0.03572763 0.10404113 -0.08389448 0.043113817 0.025703399 0.189928 0.25051776 0.10402437 0.16972922 -0.10401129 0.19495934 -0.31515023 -0.067461714 -0.132817 0.03451441 -0.2044386 0.079474196 -0.08807788 -0.14143488 0.16609025 0.012345267 -0.04264193 -0.10724735 -0.0027645251 -0.00237516 -0.15991448 0.13620758 0.17543317 0.4021713 0.11089761 -0.041447014 -0.026005456 0.06685393 0.049153067 0.20894073 -0.2180018 -0.05280996 0.16639842 0.24224223 -0.1303057 0.19868734 -0.22005555 -0.11567836 -0.007471856 0.12332984 0.12954774 -0.28281906 0.22664893 0.07275814 -0.20083238 -0.06055388 0.12651753 0.11822967 0.29559147 0.20535648 -0.08147975 -0.15502079 -0.03890806 0.10063682 -0.14150375 0.4887617 0.12009768 0.18767056 -0.013117552 0.19070427 -0.4833273 -0.17654549 0.17887197 0.25264093 -0.14291157 0.31818542 -0.10065727 -0.03437847 -0.04308065 -0.00731588 0.10357229 0.28082582 -0.0991511 0.16985877 -0.112618186 -0.11404296 -0.1978255 0.035935547 0.18091103 -0.14867422 -0.3397245 -0.16972204 0.41277716 -0.0047241626 0.07072784 -0.32643932 -0.043371577 0.34750617 0.43147138 -0.03009953
52 0.04877405 -0.117726855 -0.1102212 0.07875972 -0.0045816596 -0.3164601 0.116486534 -0.16690494 0.091738366 0.3551581 -0.017233146 0.06478806 -0.015740648 -0.05964483 -0.12228278 0.0054779574 0.018932767 0.37151 0.035952568 -0.027484355 0.0034794307 0.4291048 0.38492858 0.07646667 -0.05928765 0.2524041 -0.16418712 -0.30114132 -0.074079864 0.055927064 -0.23013279 -0.23893008 -0.0056143543 0.011717013 0.091823384 -0.054316465 0.047389574 0.036928847 0.20696665 0.26880202 0.11171109 0.17260009 -0.116822526 0.20419544 -0.31809014 -0.060637705 -0.11718192 0.050056193 -0.18980968 0.04462905 -0.0968143 -0.11436294 0.17408258 -0.0026054615 -0.025002208 -0.13034135 -0.015669743 0.016224006 -0.16035527 0.14912781 0.1674482 0.40646434 0.09849177 -0.0042654453 -0.020731473 0.09213799 0.020468393 0.2065303 -0.22392446 -0.02950761 0.14888608 0.24614985 -0.11691273 0.1979893 -0.19614519 -0.105000824 0.0054778783 0.11000453 0.14541203 -0.2854577 0.21818773 0.09497967 -0.21402052 -0.053036105 0.09067361 0.14584476 0.26719385 0.19595885 -0.084329 -0.17623746 -0.07232817 0.11434391 -0.15124549 0.46123743 0.10821696 0.16391887 -0.004150727 0.1743557 -0.49202135 -0.188996 0.18529844 0.24469332 -0.13051012 0.32816416 -0.095205806 -0.026988368 -0.042660072 -0.03518306 0.09683798 0.26944822 -0.10892273 0.15692906 -0.12810647 -0.10484756 -0.19029565 0.052031383 0.19249362 -0.13717377 -0.3395518 -0.15499376 0.42467427 -0.031541213 0.041567765 -0.29158103 -0.05177424 0.35255966 0.39033368 -0.00037102855
53 0.047021355 -0.10341014 -0.104444504 0.044212516 -0.0005083577 -0.29560992 0.10362107 -0.16366978 0.09125146 0.3337727 -0.015032403 0.045851387 -0.0019136746 -0.051264353 -0.10932134 -0.0041714585 0.013923554 0.35170755 0.028635845 -0.013929186 0.0035700123 0.39947617 0.3655097 0.070777394 -0.060517825 0.24304411 -0.14492317 -0.2814667 -0.066746764 0.062422056 -0.20453115 -0.21677472 0.00013890237 0.012259198 0.07816323 -0.047817428 0.038002167 0.027337564 0.18720126 0.26418757 0.10411533 0.16399701 -0.10683634 0.19164424 -0.3076775 -0.06850516 -0.09612026 0.057906516 -0.16570877 0.034536712 -0.07988487 -0.105151504 0.1502323 0.00056685595 -0.025446216 -0.13570851 -0.013884231 0.034099746 -0.1506374 0.13632922 0.14068972 0.37761348 0.080230765 -0.0012467008 -0.026812041 0.09158875 -0.00062571256 0.19175652 -0.19938883 -0.021556865 0.13434415 0.21641102 -0.102421775 0.18068545 -0.17998609 -0.08728878 0.016538542 0.09545919 0.1357558 -0.27176467 0.19901875 0.09597247 -0.20196982 -0.04687097 0.072822526 0.140575 0.22925574 0.18649612 -0.10121432 -0.17711419 -0.07700013 0.09827041 -0.14487968 0.4255077 0.08929861 0.13237858 -0.005850622 0.15656422 -0.45693904 -0.17583874 0.16688734 0.23269856 -0.100138195 0.309032 -0.10034316 -0.01806695 -0.042841986 -0.04673817 0.10443379 0.22955859 -0.11028567 0.16408132 -0.11164426 -0.09108953 -0.16404463 0.059466794 0.19316323 -0.119090736 -0.3109537 -0.14459495 0.39098683 -0.034091007 0.023297625 -0.25058132 -0.05763288 0.32580954 0.3545386 0.017373428
54 0.03772864 -0.11450575 -0.13779223 0.026514702 -0.0067746765 -0.318234 0.12126646 -0.16232425 0.09982376 0.3401889 -0.0076343743 0.03326686 0.037251446 -0.017433103 -0.09031221 0.0005965946 0.02068412 0.35271153 0.016981978 -0.016712546 0.016592037 0.44238874 0.38393205 0.05832761 -0.057497505 0.24259074 -0.13516751 -0.28490445 -0.07432828 0.082985535 -0.1754266 -0.21148571 0.007958105 -0.009235427 0.082344994 -0.012254497 0.042654183 0.03666247 0.21023625 0.28528607 0.11462243 0.16642584 -0.12936606 0.21221489 -0.30802688 -0.05909351 -0.091401234 0.07683555 -0.16650452 0.009686425 -0.100653805 -0.080424875 0.17077251 -0.02104682 -0.012810275 -0.16198476 -0.031369526 0.037387777 -0.16726704 0.1515032 0.1475353 0.39374512 0.078692354 0.022681993 -0.023615869 0.115655184 -0.011150585 0.20139432 -0.21449426 0.0013476876 0.12764032 0.2273199 -0.09521621 0.18107238 -0.16222514 -0.083234675 0.009849603 0.09710142 0.14263014 -0.28302613 0.191258 0.12306466 -0.2120794 -0.03577358 0.044198878 0.16631797 0.21478333 0.17975256 -0.10859638 -0.18989895 -0.10661602 0.11047356 -0.16435072 0.4243541 0.08623925 0.12458209 -0.0065802997 0.14756542 -0.48208448 -0.17674366 0.17796807 0.2399932 -0.09993214 0.3351137 -0.09663493 -0.016133966 -0.031754017 -0.06439088 0.08896588 0.23809265 -0.13397984 0.15835632 -0.13350837 -0.08319786 -0.16747232 0.07016839 0.20269185 -0.1181089 -0.33097243 -0.13289616 0.41104004 -0.05349047 0.0025946863 -0.23634478 -0.062613755 0.33933762 0.32336393 0.03997901
55 0.0684511 -0.08329953 -0.04699606 -0.16458742 0.066277765 -0.3321786 0.11850638 -0.22826098 0.1018745 0.32230344 0.020778982 -0.0027898157 0.07581162 0.02434939 0.012156636 -0.0936555 0.0118183885 0.33183283 -0.0102367345 0.13749178 -0.018155871 0.3873186 0.3819978 0.13771088 -0.075475045 0.28612983 -0.12136573 -0.25030822 0.023920143 0.0894375 -0.08157984 -0.08217778 0.02770428 0.010509454 -0.079806745 0.041934744 0.063972645 0.08117728 0.16063112 0.35032412 0.18289983 0.14032747 -0.1478172 0.16891363 -0.28484735 -0.15924987 0.014892687 0.06156264 0.012474311 -0.020099053 0.06382777 -0.10872605 0.07366062 -0.090798825 -0.07834184 -0.22706328 0.06924082 0.106980495 -0.08448252 0.07162451 0.09957421 0.34296328 -0.011594105 0.038746167 0.0061178436 0.10801989 -0.14362268 0.11900184 -0.041188393 0.12430303 0.06309537 0.108591296 -0.020647299 0.1420117 -0.08507161 -5.5631783e-05 0.074400544 0.08726384 0.14415865 -0.2534529 0.118789 0.16544965 -0.21059759 -0.058447264 0.060559995 0.15220411 0.02327553 0.13620439 -0.13402629 -0.14097677 -0.16180061 0.027545564 -0.19031799 0.2341204 -0.08338698 0.018658968 -0.030885868 0.016186722 -0.33579236 -0.12100002 0.12694998 0.16554429 0.064845614 0.24135646 -0.18386078 -0.06336379 -0.08233452 -0.14284582 0.14319244 -0.007790356 -0.11624805 0.2214766 -0.084091224 -0.01685726 -0.054971687 0.16544048 0.34016633 0.0678937 -0.31009215 -0.08778361 0.26676622 -0.007858971 -0.14136219 -0.010004137 -0.12671916 0.16689944 0.2673979 0.18499036
56 0.08532363 -0.07810761 -0.042290766 -0.16129905 0.07117682 -0.34216505 0.116271846 -0.2211658 0.09345833 0.32701775 0.036330197 -0.002075795 0.07256588 0.017728835 0.017307695 -0.08330971 0.004464056 0.33696172 -0.0044835666 0.14753044 -0.024173152 0.3932452 0.36053076 0.15449165 -0.06646534 0.29800892 -0.11571405 -0.2554153 0.03562403 0.08303571 -0.077120975 -0.07648476 0.036579736 0.0023844878 -0.075087324 0.045563772 0.054737985 0.08092279 0.15010592 0.33973947 0.18756545 0.14994517 -0.16024145 0.17070031 -0.272332 -0.1654454 0.017763013 0.049909938 0.016501982 -0.016621664 0.06373716 -0.11582349 0.06916124 -0.10389905 -0.0853122 -0.22186823 0.07424084 0.11853361 -0.09870772 0.0655968 0.10350018 0.3632022 -0.005539667 0.031479985 0.02085485 0.10318194 -0.14446914 0.119615324 -0.019967513 0.12295905 0.068880364 0.09168121 -0.030484164 0.13101861 -0.08832698 0.001180845 0.069249764 0.10948734 0.13868454 -0.24466579 0.11372376 0.16903576 -0.19039589 -0.074190475 0.070618734 0.13849866 0.014675833 0.12538628 -0.12147566 -0.13441782 -0.1539203 0.019198252 -0.21189684 0.2293607 -0.09331499 0.022585705 -0.03734023 -0.00282196 -0.31720054 -0.094367355 0.1301218 0.1707799 0.04143257 0.22316082 -0.19342847 -0.0716947 -0.08112136 -0.13111566 0.11399625 0.004456972 -0.12112396 0.22603606 -0.08932267 -0.025301658 -0.05532892 0.16594702 0.35415643 0.08790874 -0.3105585 -0.09346164 0.25248834 0.0075217914 -0.15452139 -0.027027085 -0.12352261 0.16317728 0.28454617 0.18873462
57 0.07867735 -0.0757939 -0.039290257 -0.16177386 0.06471189 -0.344538 0.1116116 -0.22186999 0.091408536 0.32441437 0.041759383 -0.0036961907 0.072561756 0.019572368 0.016562102 -0.079341985 0.0030988303 0.33823574 -0.0039565847 0.14974691 -0.019307952 0.39763892 0.3752085 0.14892946 -0.067032985 0.29657683 -0.115128495 -0.26301053 0.030295162 0.08207894 -0.07314985 -0.078438364 0.028655594 0.0044942438 -0.07968179 0.03940732 0.055109143 0.08118362 0.15612769 0.33912712 0.1844668 0.15231816 -0.1529166 0.1720661 -0.28212243 -0.1624996 0.0240457 0.057812616 0.015486089 -0.017419048 0.06560351 -0.122554064 0.07282073 -0.09498415 -0.08534827 -0.2239989 0.07500606 0.118036054 -0.0908825 0.067025654 0.103111885 0.36370784 -0.014771933 0.037905943 0.01902382 0.1077727 -0.14404131 0.120639734 -0.024074672 0.11637187 0.0737395 0.0994874 -0.028703067 0.13127834 -0.08602485 -0.0059845974 0.068964034 0.09936135 0.14300402 -0.2507645 0.11955487 0.16606055 -0.19904129 -0.07252277 0.06860573 0.14672308 0.011719674 0.12451493 -0.12576443 -0.14166199 -0.15826455 0.026220376 -0.20295952 0.22815897 -0.098849155 0.019834556 -0.030392129 0.006280024 -0.33139843 -0.10000492 0.1241848 0.17235678 0.043935288 0.23502316 -0.18536258 -0.07329414 -0.079424866 -0.13923135 0.11661279 0.006638626 -0.12780637 0.2259723 -0.09753794 -0.030979596 -0.05685476 0.16473092 0.3544747 0.08552952 -0.31815842 -0.09679902 0.26723024 0.0029036717 -0.1549353 -0.020158274 -0.12775429 0.17197523 0.27640337 0.18476422
58 0.08297264 -0.07246282 -0.044526435 -0.15525568 0.06489453 -0.3556268 0.11456168 -0.2197359 0.09843238 0.3318054 0.04083828 -0.0039198427 0.075104736 0.02030886 0.010537971 -0.07570897 0.0054296297 0.34107244 -0.009231281 0.14792246 -0.022570439 0.4068262 0.37237796 0.15588695 -0.06653349 0.30967623 -0.120592 -0.26415792 0.02205561 0.08172472 -0.07816387 -0.07673121 0.034588337 0.0010382684 -0.0720336 0.041475706 0.042202316 0.07305014 0.14908484 0.34216556 0.18926787 0.15611629 -0.15286541 0.1730615 -0.2899821 -0.1611697 0.024712652 0.0614671 0.005426874 -0.017449504 0.057728 -0.121410616 0.068490826 -0.10915896 -0.09263779 -0.22066727 0.07081879 0.119191885 -0.107541375 0.06867043 0.100387685 0.36721775 -0.008276383 0.035110604 0.015720809 0.103647724 -0.14504164 0.12814918 -0.027573321 0.11890237 0.076694116 0.09279203 -0.03263025 0.14200047 -0.09593252 0.00057040114 0.06532896 0.10686842 0.13739297 -0.24334192 0.12211979 0.16898517 -0.19857128 -0.071861826 0.06964492 0.14823347 0.018004462 0.124126464 -0.12742247 -0.13673718 -0.15388103 0.030656897 -0.21473534 0.23625374 -0.09733013 0.021018641 -0.037427455 -0.0075707533 -0.32813418 -0.095139004 0.1322226 0.17050132 0.04251952 0.23379236 -0.19587241 -0.07145758 -0.07509143 -0.1275621 0.113982275 0.01107666 -0.1273937 0.23137164 -0.10144249 -0.025983784 -0.059092913 0.17164671 0.35239196 0.092527576 -0.31996852 -0.10014546 0.25782725 0.01218298 -0.16481793 -0.037606426 -0.12981726 0.18080299 0.28003293 0.1857219
59 0.07362024 -0.076158695 -0.049948227 -0.16117142 0.05993932 -0.34204414 0.11039402 -0.22918724 0.09858024 0.32338554 0.031830054 0.0012946575 0.08382414 0.012683103 0.01356715 -0.07982091 -0.00029001478 0.33380368 -0.012274726 0.14360148 -0.018277504 0.3958391 0.37917838 0.14819528 -0.068809204 0.30286044 -0.11609586 -0.26157087 0.030155184 0.090765536 -0.079812095 -0.08156201 0.03196128 -0.0015339685 -0.07948925 0.03674914 0.055259507 0.07094247 0.15480745 0.3484176 0.1847181 0.1570631 -0.15268235 0.17197955 -0.28465143 -0.15904866 0.019654231 0.06803651 0.011258734 -0.015729193 0.06365337 -0.11417085 0.06961752 -0.09603234 -0.07846482 -0.22159287 0.07119167 0.123195544 -0.09733551 0.07190575 0.09966873 0.36018032 -0.01542294 0.03486423 0.008328694 0.10473045 -0.14221118 0.12854427 -0.03574054 0.117745616 0.07577178 0.0992365 -0.036930114 0.13208655 -0.0865676 0.00048618662 0.07846039 0.09904445 0.13971612 -0.25254893 0.11275771 0.16488719 -0.20676942 -0.068969466 0.070769444 0.15853357 0.017281061 0.13310643 -0.12862818 -0.14875792 -0.16151139 0.035599772 -0.20188065 0.23821174 -0.097443774 0.021343801 -0.025317974 0.0041280137 -0.33511597 -0.10662799 0.13048016 0.1734688 0.04817504 0.23715255 -0.1901105 -0.071137965 -0.08212561 -0.14356634 0.124310836 0.0048612785 -0.12973964 0.2277151 -0.09128879 -0.028280603 -0.06081728 0.16567528 0.35352308 0.08552528 -0.30912927 -0.10549706 0.2666076 -0.003394568 -0.154155 -0.03133604 -0.12625559 0.17252761 0.27606225 0.18952455
60 0.07275863 -0.07306847 -0.0482015 -0.14709266 0.061023723 -0.329053 0.10176261 -0.22394001 0.08786121 0.30730546 0.024284115 0.004850577 0.07393376 0.017727684 0.0051510185 -0.081586845 -0.0013125109 0.31936786 -0.009933156 0.13875078 -0.018953243 0.37312812 0.36599246 0.1385938 -0.06957702 0.28830618 -0.12262594 -0.24879315 0.023002304 0.078661345 -0.07745077 -0.08360817 0.026748043 0.0014593113 -0.070325315 0.03418349 0.057609722 0.06870865 0.14935155 0.33784333 0.1777048 0.14436224 -0.13810736 0.16261205 -0.27774358 -0.15263754 0.018211199 0.06281944 0.0126244025 -0.014563615 0.06640198 -0.11425953 0.06613584 -0.09525483 -0.08102545 -0.2160901 0.064444326 0.11682071 -0.08563735 0.066916935 0.0901875 0.34177113 -0.013110224 0.037386034 0.002373437 0.1026447 -0.12427115 0.11765192 -0.03893701 0.11972012 0.068998344 0.105184495 -0.028007904 0.13774537 -0.084519915 0.003873882 0.07025143 0.09138777 0.13770522 -0.2427638 0.1115309 0.15952717 -0.19044991 -0.06316062 0.06280913 0.14848314 0.025848337 0.14019647 -0.11871909 -0.14607182 -0.15221569 0.032609828 -0.18533693 0.23348847 -0.08530905 0.017140828 -0.019988926 0.007615884 -0.32860455 -0.10454129 0.1261151 0.16728967 0.051281437 0.23325169 -0.17708303 -0.07395513 -0.0752939 -0.1431426 0.13284202 0.0017343104 -0.11019953 0.21614328 -0.0896893 -0.021489749 -0.057224426 0.158903 0.3256956 0.079797044 -0.29464582 -0.09400681 0.24772814 -0.0043747593 -0.14634693 -0.025013234 -0.115609005 0.16905376 0.2591075 0.17703375
61 0.07716584 -0.075953424 -0.03432356 -0.1525654 0.0689695 -0.3330425 0.10980362 -0.21629488 0.09811444 0.32020143 0.044466883 0.0019606182 0.079937354 0.018999774 0.013697994 -0.077177905 0.0022356322 0.33174342 -0.0008234882 0.14815277 -0.020270366 0.39331102 0.3629544 0.14373286 -0.06185486 0.29796323 -0.11175942 -0.26318175 0.03318001 0.07787364 -0.07697559 -0.0675722 0.040192865 0.0019247874 -0.07110494 0.04095245 0.05127123 0.081979424 0.14877589 0.33599526 0.19161016 0.16209708 -0.16057543 0.16595916 -0.27843356 -0.15518753 0.016633071 0.051911987 0.012983522 -0.0122727025 0.05577268 -0.112258 0.066703625 -0.10532279 -0.088168755 -0.21351406 0.074163966 0.113912575 -0.09884406 0.06370163 0.10230455 0.35202137 -0.008612651 0.03357343 0.02164135 0.10024634 -0.14626409 0.11911593 -0.015373901 0.12035347 0.06746255 0.08971552 -0.031257503 0.12943365 -0.09409176 -0.005191346 0.06456273 0.09922865 0.14167549 -0.24133633 0.111607336 0.1584953 -0.19344781 -0.07547423 0.078843415 0.13827547 0.015374918 0.12117965 -0.1156264 -0.136133 -0.15290023 0.024097078 -0.20781009 0.23621686 -0.0955479 0.030509228 -0.034929704 -0.004780275 -0.32064402 -0.089473195 0.1348056 0.17339574 0.030466493 0.21665788 -0.19506618 -0.072287604 -0.07685657 -0.12691267 0.10796215 0.003233756 -0.12245409 0.22656879 -0.09600064 -0.029673997 -0.052076492 0.16669685 0.34577256 0.09026822 -0.31129137 -0.09581951 0.25505576 0.011883026 -0.14734004 -0.034337338 -0.12613434 0.16939607 0.28534493 0.18806769
62 0.078654714 -0.08104287 -0.051516354 -0.14147338 0.059472654 -0.33493328 0.10175482 -0.20672834 0.095015734 0.31146756 0.036010694 -0.0041583204 0.06641478 0.009379307 0.00065592834 -0.07239443 0.0007476715 0.33296144 -0.009606342 0.13461459 -0.019520467 0.3826293 0.3569667 0.14515443 -0.05918885 0.29024825 -0.11873188 -0.24653813 0.021785326 0.07543754 -0.08013644 -0.0798167 0.031467512 -0.00096459244 -0.0677046 0.036335405 0.04549397 0.06220685 0.14735477 0.33047238 0.17152609 0.15276511 -0.14146082 0.15795834 -0.26843008 -0.1489315 0.013741295 0.06696545 0.003466562 -0.019670095 0.050470095 -0.11979011 0.070400506 -0.09242611 -0.08041327 -0.20510508 0.06671013 0.118235484 -0.09898645 0.073538415 0.09324155 0.34691286 -0.00717686 0.02843245 0.00071763765 0.1028688 -0.12563942 0.13486008 -0.043957885 0.10306868 0.07879856 0.098397724 -0.0321078 0.1342141 -0.09344017 -0.0012270047 0.06566443 0.09875108 0.12813984 -0.23772776 0.11922011 0.1625339 -0.19527425 -0.070416465 0.05965087 0.14736381 0.025100602 0.12797539 -0.12534814 -0.14201757 -0.14251478 0.036347643 -0.19590575 0.24794815 -0.08198374 0.021633275 -0.033398326 -0.0013527991 -0.3254765 -0.10616577 0.11690753 0.17517288 0.0366194 0.23626876 -0.17789008 -0.065030284 -0.07526724 -0.12445821 0.118188396 0.025502237 -0.118096836 0.21993166 -0.09454476 -0.033436283 -0.0622536 0.15285793 0.3373635 0.0815864 -0.3017161 -0.10527013 0.26492244 0.0012108881 -0.14547066 -0.0452341 -0.124821976 0.17898954 0.2668172 0.17135842
63 0.080532774 -0.08343727 -0.045799877 -0.14847156 0.058441646 -0.3470571 0.10907084 -0.22509357 0.09637931 0.33183807 0.041350253 -0.0010189681 0.0724153 0.009713315 0.0051490767 -0.07142357 0.004169724 0.34433672 -0.0057938043 0.14441103 -0.02220972 0.39994422 0.37761247 0.15195301 -0.06395136 0.29895356 -0.12449779 -0.26148662 0.023488712 0.08147531 -0.08345775 -0.08924828 0.032422595 0.0054759216 -0.07382031 0.037714005 0.04995732 0.07025653 0.15513484 0.34566438 0.18674816 0.15439492 -0.14841008 0.16230455 -0.28405708 -0.15536699 0.013017516 0.061436456 0.009470976 -0.02009343 0.05647363 -0.11988254 0.06748913 -0.09840701 -0.08976954 -0.21576141 0.066615455 0.11653852 -0.097441025 0.071549356 0.098344184 0.36635482 -0.007594559 0.027246471 0.008173915 0.110273585 -0.13366649 0.13548286 -0.041409552 0.11102135 0.08064797 0.10319925 -0.027587628 0.14206694 -0.0928562 -0.007884361 0.06559958 0.10742791 0.13771087 -0.24920367 0.12449217 0.16483858 -0.20045222 -0.07033776 0.07105648 0.15086879 0.024296373 0.12987359 -0.1286847 -0.1434442 -0.14770426 0.034437634 -0.20711626 0.25189808 -0.0863481 0.025250506 -0.028937971 0.005698168 -0.33696535 -0.111328036 0.12741117 0.18015327 0.043610353 0.2417379 -0.1893927 -0.07677859 -0.07758809 -0.13128321 0.121447645 0.022174794 -0.12788357 0.22470751 -0.098419294 -0.029390668 -0.065473415 0.16152675 0.346022 0.08593579 -0.311755 -0.11168481 0.269743 0.0010809232 -0.14989579 -0.041522034 -0.124530636 0.18342327 0.28040203 0.18673548
64 0.085628405 -0.07286719 -0.042262707 -0.17854059 0.076873556 -0.35126907 0.11457797 -0.24542716 0.09253456 0.3371357 0.03827928 0.0009724481 0.07868625 0.010889305 0.030246463 -0.092754416 0.0065301303 0.35261324 -0.01617653 0.1584547 -0.02369024 0.39911044 0.3809552 0.14702371 -0.0795886 0.3101433 -0.13325053 -0.2591598 0.03681407 0.084550135 -0.07965832 -0.075670265 0.030041901 0.011874366 -0.07729823 0.050122898 0.07947365 0.0946299 0.16061205 0.36165324 0.20831163 0.15798669 -0.17360139 0.18106972 -0.285333 -0.17344567 0.027697079 0.05693826 0.023439672 -0.018654007 0.08883689 -0.11170818 0.06958202 -0.11834274 -0.09415725 -0.23572125 0.06945764 0.12217078 -0.091193475 0.06513273 0.10851397 0.37574884 -0.020754406 0.032965492 0.01872596 0.11484074 -0.1503552 0.11877575 -0.015011791 0.14577313 0.0606433 0.10354579 -0.024741238 0.1353051 -0.07705059 0.0017967249 0.08300167 0.11599749 0.14569153 -0.2568791 0.1121676 0.1760258 -0.20142111 -0.079761915 0.08571473 0.1622013 0.019387249 0.13760544 -0.12733376 -0.14392875 -0.16542283 0.02672667 -0.21481338 0.22478884 -0.113364086 0.022454362 -0.032508396 0.0038331985 -0.32916048 -0.095818855 0.13498557 0.1705904 0.062487967 0.23454037 -0.20323658 -0.09228961 -0.08645608 -0.15558493 0.13719779 -0.019208606 -0.11701432 0.24166213 -0.08807449 -0.018625928 -0.06444574 0.18194228 0.3726867 0.089586936 -0.32245424 -0.09218729 0.25480452 0.010172888 -0.16368915 -0.0094048325 -0.11587194 0.15758634 0.29040074 0.1936213
65 0.08598459 -0.08205842 -0.04658593 -0.17173079 0.06459609 -0.36360186 0.12066476 -0.22662188 0.10458293 0.3362522 0.04159083 -0.009926594 0.082727954 0.023974067 0.010334339 -0.08108262 0.0089900885 0.35887498 -0.014667076 0.15238224 -0.02633102 0.4142085 0.39298368 0.15884875 -0.07137829 0.3134036 -0.12062612 -0.27327773 0.0298998 0.08722541 -0.08290393 -0.0846422 0.032675557 -0.0006310856 -0.07677432 0.047160637 0.051780798 0.069983974 0.16354623 0.36026144 0.19272047 0.15593503 -0.15649551 0.17277308 -0.29295358 -0.16975297 0.018075546 0.06714787 0.012671675 -0.019350152 0.0570771 -0.12241812 0.07394344 -0.09840388 -0.08506005 -0.23390265 0.06568902 0.12904078 -0.097380765 0.07641909 0.10173747 0.37181607 -0.011771208 0.038780507 0.0062022875 0.11350243 -0.15078463 0.13348056 -0.03779426 0.1210676 0.07458597 0.10697602 -0.026993506 0.14136283 -0.09061256 -0.0034454688 0.07851145 0.111390844 0.13895293 -0.2574706 0.12010989 0.17730467 -0.21145672 -0.071646 0.06539984 0.15821087 0.01501646 0.13147411 -0.13778798 -0.14528453 -0.1624261 0.032017414 -0.21495612 0.25233158 -0.09631413 0.013263719 -0.036573485 0.0049447324 -0.3472611 -0.11705519 0.12931637 0.18231027 0.055979103 0.25536922 -0.20190075 -0.072100885 -0.08356529 -0.14314286 0.123822205 0.014819984 -0.13039848 0.23288244 -0.10022708 -0.030529873 -0.057435066 0.17016281 0.36787647 0.08764173 -0.3305048 -0.10860343 0.28039494 0.002662917 -0.15748483 -0.033042066 -0.1295212 0.18489139 0.29004997 0.1967564
