246 128
0 -0.58767825 -0.17866316 -1.1576214 -1.0365924 -0.34083423 -0.11500279 0.7390244 0.7353806 0.11166629 -0.15106766 -0.26636884 -0.174413 0.031892013 0.35817832 0.6880867 0.4477553 -0.27024287 0.46727943 -0.09942363 0.8182227 -0.19089255 -0.09777512 -0.7130828 0.02634636 -0.16275051 -0.8449981 0.40032592 0.86344016 0.28413025 -0.10742348 -0.10451001 -0.38838452 0.30725506 0.4239499 0.22868179 -0.28286836 -0.44616166 0.7048002 0.3018658 -0.39980677 0.69776225 0.02952846 -0.508289 -0.044560645 -0.51406896 -0.21168233 -0.047332272 -0.7450604 -0.20520447 -0.9867598 -0.012267428 -0.34144357 -0.23614185 -0.18180011 0.3817787 -0.18951507 0.07569387 -0.12876117 0.27675653 -0.008089834 -0.65201163 -0.6934808 -0.4651102 0.6813393 0.2564737 -0.40035442 -0.48543233 -0.6332433 0.1451224 0.25942442 -1.3771701 -0.5016688 0.40036154 0.20992173 -0.23525819 -0.040743545 -0.46165168 -0.000658928 0.2711799 0.13648185 -0.08192882 -0.41473898 0.64124745 -0.17983854 0.49569404 -0.4293567 0.29635644 -0.049248915 0.19305748 -0.043939948 -0.084508434 0.13416427 -0.85388625 0.4066286 -0.004354002 0.26787615 -0.18769057 -0.07285002 0.38342768 0.8637118 -0.04299983 -0.17896348 0.2355146 0.10589693 0.09075658 0.120587975 0.15635091 0.16369285 0.29838836 -0.7506653 -0.15411364 -0.11614998 0.36609384 -0.17127956 0.7914984 0.09448375 0.7599315 -0.38872987 -0.014025519 -0.32787538 -0.1496323 -0.35411334 0.18266511 0.4371168 -0.41565228 -0.07736667 0.06352056 0.05704545
1 -0.40936548 -0.04326322 -1.2566346 -0.40178075 -0.28097197 0.11148925 0.6929169 0.59568495 -0.23892668 -0.3667396 -0.8662397 0.0027595954 -0.48369256 0.29059047 0.38639632 0.440744 -0.25432035 0.21291783 -0.5636929 0.7606323 -0.08224978 -0.14195973 -0.36240283 -0.07077077 -0.078636795 -0.5566819 0.4758286 0.13878351 -0.18033738 -0.26267716 -0.3530137 -0.14700745 0.53515065 0.30451232 0.24113949 -0.04253765 -0.41128045 0.54612017 -0.22767754 -0.42858094 0.47899544 0.019861607 -0.34460175 -0.29439592 -0.5135338 -0.10969653 0.34558943 -0.30127716 -0.3495834 -0.76582116 -0.38721803 0.3453053 -0.6219815 -0.34117556 0.3411633 -0.3520723 0.23611687 0.18798858 0.75321513 -0.096511304 -0.64167947 -0.54791266 -0.5376612 0.33548245 -0.111603685 -0.40706238 -0.13924186 -0.8001245 0.26231483 0.06073477 -1.3735253 -0.20953679 0.37978885 0.5838437 -0.33709285 -0.1615293 -0.09008492 0.014510412 0.18144101 0.20202282 0.12371396 -0.3884073 0.7096403 0.25015053 0.27481914 0.38478124 -0.5004553 0.3819786 0.16983053 -0.015682334 0.29471982 -0.5399083 -0.87615687 0.18223065 -0.5150694 -0.13749748 0.21921495 -0.3763959 0.41419473 0.48950538 -0.31483313 -0.3041444 0.24581268 -0.19974919 0.3022186 0.17842203 -0.20677093 0.1762028 0.2351385 -0.62048054 -0.614446 0.019213399 -0.1750583 -0.2430914 0.33962077 0.11907253 0.37318113 -0.2240965 -0.08701643 0.09721296 -0.012751147 -0.10295706 0.25090104 -0.14076377 -0.1559115 -0.34112054 -0.14731917 0.06905316
2 -0.55169666 -0.41122288 -1.0125891 -0.766932 -0.35734066 -0.2207055 0.89185244 0.596055 0.059930686 -0.43389347 -0.70584637 0.068082385 -0.2821966 0.53102297 0.60341763 0.49445102 -0.017077997 0.5878801 -0.37260404 0.89468706 -0.110820994 0.09599586 -0.61907053 0.012772035 0.072928 -0.6935844 0.46061528 0.3962017 -0.23398514 -0.28785607 -0.3013505 -0.26424578 0.24565428 0.003859546 0.21714084 0.1389897 -0.3916724 0.65589565 -0.07742815 -0.4937664 0.6159303 0.03328118 -0.49143025 -0.19269404 -0.404725 -0.3428964 0.2056334 -0.6317431 -0.21040039 -0.92042184 -0.05296901 0.15460241 -0.5788409 -0.37590694 0.34109923 -0.25441405 0.10147271 -0.40207496 0.54516876 -0.093566224 -0.527456 -0.674724 -0.5956379 0.41482905 -0.028990347 -0.49055386 -0.28740755 -0.60923994 0.19818912 0.15812874 -1.5522258 -0.30861047 0.29059494 0.5673149 -0.10036132 -0.085619465 -0.06661961 0.14815633 0.19666262 0.26380587 0.053449307 -0.4065719 0.5964299 0.13361299 0.36820513 0.06995964 -0.20507224 -0.12384736 0.3747429 -0.012473314 0.15574995 -0.16451572 -1.087092 0.40980455 -0.30386847 -0.035568196 0.07634727 -0.06625398 0.18613529 0.8416716 -0.21228485 -0.25724453 0.4213993 0.102213435 0.15664063 0.020434458 -0.104207404 0.26967838 0.13902886 -0.4295249 -0.45257276 -0.20274617 0.26349363 0.07864039 0.5214725 0.16556115 0.5764206 -0.5072397 0.12093749 0.11855242 -0.02128906 -0.01985445 0.5543508 -0.19184063 -0.27986115 -0.09837238 -0.10350724 -0.0998165
3 -0.54365045 -0.06431815 0.29722562 -0.04260895 0.04747081 0.32707164 0.6619407 0.612517 0.16587867 -0.013767967 -0.073195755 0.26542726 -0.41598174 0.3801999 -0.33327487 0.34044698 0.17922552 -0.007909446 0.75415176 0.28310788 -0.21185717 -0.08636108 -0.6042755 -0.26191637 -0.17949486 -0.5597282 0.060381353 -0.046567626 -0.17549123 -0.118315466 0.22323465 0.093807615 0.12729913 0.18834265 0.1349916 -0.34374103 0.31572515 -0.086449064 0.105134435 0.28946435 0.46298668 0.33286235 -0.18055162 -0.0719888 0.57882094 0.13491072 0.36215276 0.6585907 0.020078614 -0.13154623 0.07983631 0.20253313 0.4767713 -0.2476981 0.17798562 -0.3211016 0.2952478 0.014968564 0.5825517 -0.2731508 0.16733119 -0.0030886594 -1.210308 0.23361363 -0.1695025 -0.05215113 -0.5680616 0.02905782 0.2103891 -0.075863294 -0.54811305 0.12753971 0.54741496 -0.44643193 -0.1860142 0.039305482 -0.16442014 -0.34352928 0.091733925 -0.12141477 -0.050869882 -0.35333952 -0.05184928 0.0011038324 -0.49929568 -0.18238735 -0.60439485 -0.18450052 0.5276357 -0.3686066 -0.29555848 -0.40414056 0.31468844 0.1523885 -0.1297631 -0.19582334 0.13157485 0.102607496 0.40092263 -0.5044943 0.20879227 -0.4381621 -0.5313938 -0.21260044 -0.015540455 -0.28843203 0.02543191 -0.1910941 -0.15957642 0.36166745 -0.44575164 -0.43978816 -0.30641288 -0.3107032 -0.23283373 -0.33041567 0.53869706 -0.2529762 0.024040675 0.45637748 -0.13686346 -0.41572413 -0.44935274 -0.39414382 -0.120076545 -0.12217415 0.108802564 -0.38248232
4 -0.38151613 -0.090981856 0.44087172 -0.20306031 -0.10654005 0.36063796 0.4858272 0.4476251 0.08935904 0.45626134 0.38082764 -0.18161765 -0.20442241 0.33149788 -0.458307 0.30158296 0.47873804 0.07348962 0.8446589 0.103666 0.057880215 0.1052729 -0.12970112 0.06260871 -0.19627151 -0.7411005 -0.064423025 -0.098257765 0.41443193 -0.2063702 0.41666767 -0.13291061 0.26797703 0.39329442 -0.071569085 -0.4273524 0.04393736 0.1268491 0.6135182 0.31392324 0.62749815 0.39080378 -0.13197199 -0.033409942 0.24411818 0.10654865 0.36512896 0.6764085 0.05686664 -0.34869274 0.028891498 -0.111292265 0.8478066 0.1085355 0.14369668 -0.14000233 0.37334597 0.19300854 0.44182333 -0.4398023 0.14480771 0.3395879 -0.64121115 0.5109015 -0.02499919 -0.3145819 -0.5768911 0.12056939 0.37102094 -0.4767785 -0.099529326 -0.018972158 1.070967 -0.4012992 -0.18616533 0.067829974 -0.5418044 -0.42759746 0.33800554 -0.20004405 0.03314384 -0.4823775 -0.24348694 -0.5511705 -0.35362315 -0.42868218 -0.6278101 -0.23915137 0.5616499 -0.45815998 -0.46592087 -0.10129608 0.55993915 0.07896312 0.09359455 -0.38900003 0.14016905 0.20349771 0.28933662 -0.38343108 0.2459509 -0.28224206 -0.7036064 -0.5806775 -0.34034532 -0.20414002 -0.12200601 0.16115777 -0.34148258 0.3253487 -0.432369 -0.11020442 -0.6767908 -0.48608974 -0.13854747 -0.0881549 0.34855664 -0.14069007 0.0028558713 0.3477976 -0.1558187 -0.39283457 -0.35255882 -0.17024285 0.33440623 0.411538 -0.14562827 -0.51923156
5 -0.5560975 -0.09858801 0.38618755 -0.28291145 -0.27665222 0.29620877 0.69325566 0.64425653 0.20006603 0.2742501 0.24383733 -0.12552026 -0.2868576 0.39994168 -0.33661884 0.41201198 0.6278316 0.1536753 0.89576644 0.16071945 -0.058239132 0.01808469 -0.22987492 0.038475458 -0.14536679 -0.8267237 0.13873738 0.071433865 0.20468287 -0.22921777 0.38097623 -0.18443565 0.2554586 0.42058858 -0.19503458 -0.28683847 0.03680538 0.009520012 0.4400968 0.20030808 0.68765837 0.37894103 -0.15887806 0.035346497 0.4011752 0.17544593 0.3941537 0.7309872 0.02873479 -0.33151576 0.12764038 -0.03177679 0.7534812 0.021321129 0.32331282 -0.23748057 0.41021693 0.07818786 0.5174915 -0.39602757 0.109784715 0.22691317 -0.8167063 0.3856285 -0.04016185 -0.29983217 -0.6127694 0.083251126 0.4437905 -0.4330102 -0.4271171 -0.056239784 0.97870797 -0.41932648 0.021996291 0.14714624 -0.41208157 -0.37821344 0.23975454 -0.19320855 -0.029030466 -0.5309542 -0.11046045 -0.4148651 -0.48391563 -0.40192333 -0.7872974 -0.39449465 0.6699714 -0.37404522 -0.42197725 -0.2894056 0.4709151 0.13496773 0.010909817 -0.31311548 0.13953185 0.25838605 0.43561995 -0.41452697 0.40690574 -0.31322107 -0.8093269 -0.46680796 -0.26951486 -0.34426746 -0.020982442 0.28930753 -0.375102 0.51186484 -0.52186716 -0.21250811 -0.6843044 -0.55988306 -0.08301305 -0.20619188 0.36424097 -0.30778843 -0.034973044 0.30253887 -0.18267897 -0.53554285 -0.2832009 -0.36895585 0.17990784 0.27197993 0.08770179 -0.70968854
6 -0.3533023 0.10603633 0.39141944 -0.14853851 -0.05445971 0.3529994 0.6379189 0.50486517 0.037676483 0.20298396 -0.16104229 -0.0027695892 -0.4352578 0.2879352 -0.45492724 0.3533747 0.23153014 -0.0898476 0.7803812 0.30384356 -0.17609064 -0.01960426 -0.37740752 -0.15098508 -0.20156577 -0.44222966 0.102198996 -0.033535015 0.013987571 -0.27697754 0.37103826 -0.0433377 0.45629016 0.30121458 0.14324531 -0.45196137 0.18075973 0.20217751 0.1898839 0.23360035 0.59303975 0.3514771 -0.09319281 -0.29430777 0.47128376 0.15980066 0.45396757 0.6986585 0.1104586 -0.53019416 0.032864448 0.2144847 0.40135866 -0.22513685 0.13750188 -0.15918767 0.4098598 0.3019857 0.6066768 -0.3509731 -0.07012627 0.14377542 -0.9824197 0.37597612 -0.11578826 -0.33497742 -0.72822785 0.08342941 0.29945478 -0.35254008 -0.6531973 -0.08991609 0.9773313 -0.1492837 -0.32098964 0.008047791 -0.3729114 -0.29017046 0.16930753 -0.4332983 0.08143228 -0.6066122 -0.010747153 -0.13268712 -0.35885772 -0.3294553 -0.80514854 -0.25865307 0.43968052 -0.5028614 -0.5106747 -0.2936906 0.4165801 -0.02666091 -0.05947976 -0.67955613 0.2916334 0.023697859 0.44086775 -0.3307929 -0.040426053 -0.32857823 -0.48513743 -0.4956238 0.09934067 -0.23196168 -0.16246401 -0.1702788 -0.33531404 0.22867021 -0.5463952 -0.30128846 -0.62229323 -0.4249499 -0.21460849 -0.24390382 0.72158426 -0.00024203327 -0.27137882 0.56482965 -0.0516516 -0.3427962 -0.64230525 -0.55619204 0.06573691 0.20891556 -0.24620628 -0.7076798
7 -0.50379354 -0.21045758 0.24937049 0.021419963 -0.008213961 0.45110407 0.60381883 0.6010952 0.027001109 -0.019742375 0.16165002 0.20747979 -0.4389556 0.39941478 -0.4270817 0.36272728 0.28943506 0.13485138 0.6353716 0.09088212 -0.1742462 -0.1499267 -0.32146794 -0.31887594 0.10240359 -0.6061223 0.05892546 -0.30243346 0.10398886 -0.07751892 0.26370928 -0.020006083 0.031943347 0.23213303 -0.22422607 -0.36718023 0.29138002 -0.1747827 0.14527315 0.30149725 0.2577285 0.33579454 -0.2155267 0.21141815 0.4672117 0.19509307 0.41171566 0.8594116 -0.07162573 0.08330406 0.09078726 0.18685101 0.68068296 -0.028158417 0.4705954 -0.28216213 0.27042526 0.048077617 0.562891 -0.43718907 0.37603188 0.1474943 -1.1486783 0.20045128 -0.06283003 -0.07089749 -0.45411748 0.12882109 0.29041556 -0.37368414 -0.36716294 0.22452347 0.6468677 -0.47522926 0.06485775 -0.1095473 -0.33339378 -0.37903836 0.35581723 0.27607343 0.21746212 -0.27047879 -0.21645623 -0.060711756 -0.5130597 0.024629865 -0.8740716 -0.30177337 0.62331754 -0.4268465 -0.11052392 -0.5266423 0.39470035 0.037390027 -0.10101049 -0.17078741 0.22682087 0.15576005 0.31478179 -0.9881661 0.25580725 -0.5222656 -0.6204238 -0.37952808 -0.047790006 -0.4546516 -0.07425773 0.15557338 -0.24458337 0.5929535 -0.59872484 -0.08981599 -0.5562537 -0.5355446 -0.09305368 -0.20975454 0.25846648 -0.3907609 0.09506334 0.32450962 -0.16179802 -0.33752206 -0.3034908 -0.36536643 0.02245153 -0.024733283 0.1360952 -0.39830008
8 -0.35593295 0.100190364 0.5374186 0.027553292 -0.11627657 0.33489767 0.5757109 0.36025667 0.01946433 0.38277012 0.14049965 -0.16553786 -0.448035 0.2510473 -0.48465642 0.41345394 0.5060395 -0.15090525 0.7379928 0.09465026 0.004004362 -0.08386182 0.048223067 -0.035490617 -0.25667498 -0.61696863 0.045317683 -0.21325138 0.43678516 -0.28249562 0.46576893 0.019523425 0.44739008 0.4780785 -0.21999471 -0.27727374 0.127504 -0.026023919 0.49311933 0.24261855 0.55635405 0.2972968 -0.035029486 -0.0036079544 0.34140632 0.295971 0.47704008 0.79998916 0.010976523 -0.21504927 0.016075902 0.08414418 0.80432314 0.14258783 0.15505604 -0.21658082 0.43003038 0.35830992 0.44074297 -0.31676164 0.02509715 0.46454167 -0.63135076 0.4402352 -0.09592978 -0.33277205 -0.5816663 0.09522777 0.39724594 -0.43487367 -0.19751248 0.08990884 1.109143 -0.38462248 -0.13563359 -0.10272201 -0.50157464 -0.49206734 0.2788231 -0.13542949 0.118661225 -0.48058257 -0.19441472 -0.34357396 -0.5691191 -0.32394323 -0.8941135 -0.21123412 0.41846466 -0.42782143 -0.43814057 -0.34936258 0.70936257 -0.014420931 -0.035789743 -0.48010978 0.2635733 0.12984137 0.3232731 -0.57015735 0.18505779 -0.41476578 -0.7276739 -0.61825985 -0.16132365 -0.17608915 -0.22376469 0.2230919 -0.46202677 0.5413803 -0.522702 0.028378481 -0.79791826 -0.71529824 -0.16764654 -0.17070803 0.29917833 -0.08640097 -0.14490895 0.4135292 -0.14152911 -0.38487414 -0.36222607 -0.36947694 0.4074625 0.29032928 -0.12685414 -0.6381116
9 -0.7284553 -0.28045735 0.22310232 -0.4061413 -0.30063015 0.42793372 0.6437323 0.7610626 0.26975572 0.2427227 0.17187254 -0.2808114 -0.23434885 0.59481126 -0.24651664 0.39179617 0.4207231 0.1331287 0.8773553 0.2533445 -0.042886466 -0.08380793 -0.39125362 0.11239637 -0.3120979 -0.67492175 0.2161562 0.06590984 0.21309014 0.034688305 0.37242907 -0.010722501 0.33553657 0.19738398 -0.19577552 -0.40625706 0.09847571 0.122631334 0.49627513 -0.08539617 0.5666388 0.40791526 -0.031119784 0.051941097 0.30295283 0.16597208 0.35166845 0.9037493 0.14910476 -0.43958256 0.12554842 0.03547234 0.73806983 0.025975807 0.0786428 -0.28814444 0.3326657 0.21115902 0.6763568 -0.45385182 0.07472967 0.28552854 -1.0542437 0.3233809 -0.1179944 -0.21422467 -0.8090543 0.07624813 0.2279898 -0.55632234 -0.60387105 -0.0843124 1.0560241 -0.23718378 -0.13945203 0.011941277 -0.3444111 -0.3847431 0.5035464 -0.38506716 0.27301452 -0.52968615 -0.1903021 -0.28549603 -0.44735473 -0.36776924 -0.8512536 -0.57473105 0.76641685 -0.1572651 -0.29712695 -0.3316379 0.46503153 0.275701 0.07615419 -0.44808215 0.25134388 0.06477083 0.37907323 -0.52745306 0.14067575 -0.21453711 -0.75043786 -0.30140573 -0.14912891 -0.31373066 -0.14628357 0.09703293 -0.08698238 0.6146166 -0.43564555 -0.34015238 -0.72994816 -0.594955 -0.066489525 -0.1749546 0.49629414 -0.09089508 0.058246497 0.47494912 -0.18376963 -0.45006892 -0.32382616 -0.8228798 0.13289669 0.15721214 -0.07546931 -0.8757444
10 -0.6155391 -0.27382946 0.35503227 -0.23365349 0.01927135 0.36005116 0.7225481 0.70910585 0.07696718 -0.060121935 -0.028900053 0.22446743 -0.33911386 0.41527906 -0.45578486 0.3021955 0.32337692 0.20139995 0.79516417 0.42725876 0.05325007 0.10987377 -0.6870431 -0.16916856 -0.018916503 -0.77297914 0.019090524 0.0027411801 -0.121069655 -0.18651532 0.20077148 -0.1157897 0.21576905 0.14003204 0.07521295 -0.5128363 0.20826292 0.14167255 0.18505321 0.35719535 0.7244077 0.40823454 -0.37912485 -0.29369685 0.31388816 -0.013005124 0.5056289 0.6673262 0.015011595 -0.36534935 0.0076691234 0.11629995 0.49121222 -0.21309462 0.37298283 -0.33159316 0.35603207 -0.072214834 0.5351436 -0.3727705 0.26809812 -0.020477742 -1.2189357 0.4417975 -0.12132013 -0.33727115 -0.5566154 0.10559116 0.47476444 -0.23218286 -0.60734975 0.02036439 0.73642683 -0.33800793 -0.15158246 0.11153207 -0.2524318 -0.2895544 0.18185736 -0.12993096 -0.111238755 -0.44993472 0.030823052 -0.38957533 -0.29008183 -0.18966939 -0.70736134 -0.20495677 0.6642132 -0.45977846 -0.47673452 -0.277485 0.1719141 -0.038279552 -0.111281715 -0.2682601 0.0896606 0.08239929 0.37855348 -0.19799566 0.10934526 -0.45957327 -0.5461715 -0.30445102 -0.102953814 -0.37704498 0.0382413 -0.20807433 -0.23108187 0.13633256 -0.50221 -0.516749 -0.3426834 -0.17012382 -0.06170207 -0.24076852 0.6119343 -0.3722476 0.030858329 0.43250763 -0.09530099 -0.33753255 -0.46126637 -0.32999092 -0.039828833 0.17954747 0.066900484 -0.3148691
11 -0.5646849 -0.0970329 0.51560503 -0.0025099213 -0.16322967 0.22545956 0.7535451 0.32086328 0.12943365 0.077268265 0.13310787 -0.05595838 -0.40525872 0.1450668 -0.47418335 0.36858296 0.4522379 -0.13386577 0.81951165 0.050922237 -0.01921437 -0.120358035 -0.2391484 -0.07631684 -0.16221023 -0.4597194 0.13548824 -0.040124185 0.19808197 -0.12004916 0.5173899 -0.05655199 0.31813267 0.37625793 -0.3874845 -0.30951357 0.1531096 -0.36113745 0.29007664 0.15289733 0.6897412 0.14538084 -0.008330157 0.058886595 0.4770351 0.24939232 0.5995816 0.8385932 0.11095021 -0.15355305 -0.07997661 0.018325174 0.6619553 0.10566785 0.070161335 -0.34346035 0.36453018 0.17027016 0.44052637 -0.22125149 0.03786047 0.4567052 -0.9563656 0.27578536 -0.1421276 -0.42708543 -0.5309091 0.15118173 0.37471044 -0.49263814 -0.3121944 0.014679123 1.0299919 -0.18872876 0.0037277597 -0.14066511 -0.403878 -0.4705578 0.12635487 -0.15549074 -0.047536418 -0.46885508 0.046667524 -0.2236038 -0.570727 -0.22173771 -0.90917 -0.2885192 0.5092499 -0.31956932 -0.42569512 -0.46041632 0.48421648 0.17051403 -0.07792636 -0.50950277 0.19428666 0.11062767 0.35267124 -0.5224109 0.2324567 -0.31465894 -0.7405426 -0.5111341 -0.036809172 -0.34511945 -0.08897036 0.26230797 -0.5486453 0.60290754 -0.39651984 -0.060691286 -0.7762364 -0.6252854 -0.07021455 -0.3567625 0.35525945 -0.036668155 -0.1728773 0.34274322 -0.15281726 -0.28283915 -0.37408274 -0.59628344 0.26000366 0.17834014 0.19541076 -0.6543861
12 -0.40674582 -0.23817109 0.35662064 -0.2474591 -0.058259778 0.36748737 0.6611891 0.509339 0.028992286 0.2631471 0.34374204 -0.090128124 -0.49384677 0.29925948 -0.52346796 0.4575165 0.31078377 0.0933971 0.7850471 0.18021387 -0.11022925 -0.24674568 -0.12662886 -0.2109846 0.06150245 -0.7325384 0.04271265 -0.19986343 0.26713088 -0.16177301 0.54388505 -0.110512525 0.2088391 0.39641398 -0.1577338 -0.4073369 0.105218075 0.015307148 0.55170184 0.33115616 0.64543366 0.38393074 -0.20684198 -0.053068526 0.48508003 0.11485854 0.39675137 0.8932703 -0.04143257 -0.26795837 -0.103704154 0.104438625 0.7286011 -0.06896203 0.38523638 -0.16102041 0.42499623 0.111191146 0.57931525 -0.6498499 0.1725855 0.20693423 -0.9384353 0.452874 -0.067220725 -0.19479619 -0.5602907 0.04062089 0.3808621 -0.48351353 -0.37300023 0.20683044 0.97572416 -0.3897111 0.075386494 -0.050603192 -0.46670184 -0.3526747 0.30155247 0.056706905 0.24568313 -0.35421404 -0.25888136 -0.29713783 -0.52145505 -0.16113493 -0.89030963 -0.23863015 0.72849745 -0.6636258 -0.4533763 -0.27116036 0.5519144 -0.15160558 0.040757444 -0.3525455 0.30751398 0.20884807 0.28443795 -0.64873123 0.25665188 -0.46638978 -0.66544026 -0.6100867 -0.16525389 -0.34243765 -0.22657737 0.33525512 -0.57032734 0.47853035 -0.6538993 0.1807078 -0.7679796 -0.46385387 -0.107965894 -0.14363451 0.42851776 -0.3537394 0.031901445 0.2880354 -0.13952297 -0.31133902 -0.20916481 -0.2154429 0.22960392 0.39561513 0.028463688 -0.6847209
13 -0.55080646 -0.06584694 0.49677524 -0.0663892 -0.18849635 0.31554595 0.7163347 0.3972029 0.122654766 0.22263731 0.11618464 -0.18023884 -0.3956733 0.27279845 -0.41248354 0.42876437 0.5284717 -0.048204884 0.76861376 0.0811469 0.06282164 -0.11026507 -0.16523618 -0.0049161147 -0.204592 -0.70565826 0.10195891 -0.18265952 0.3621775 -0.21277314 0.42005792 -0.015159746 0.38547772 0.4081762 -0.31264442 -0.31988856 0.06117885 -0.11701374 0.43092084 0.2289338 0.6257992 0.32748666 -0.06635219 0.049908213 0.30681434 0.27678064 0.4268536 0.83695996 0.03782944 -0.1919623 0.0049886582 0.048331518 0.7979185 0.1152195 0.11487851 -0.2790692 0.3961103 0.3155389 0.42626703 -0.3456614 0.11535011 0.46280137 -0.7891681 0.40834072 -0.13015842 -0.30370328 -0.5512585 0.07479169 0.4239593 -0.43894082 -0.27097142 0.07128062 1.1198903 -0.3464986 -0.06086999 -0.08715403 -0.4228983 -0.43929276 0.2584658 -0.21421392 0.034835972 -0.51265883 -0.10700086 -0.36075464 -0.58318466 -0.23461817 -0.936437 -0.2638126 0.5073179 -0.32041994 -0.394788 -0.40538827 0.56944025 0.066868894 -0.010781397 -0.38904858 0.21287167 0.10608254 0.30369875 -0.50301313 0.2823843 -0.38807082 -0.845246 -0.5522021 -0.1926881 -0.2383425 -0.16853598 0.32925668 -0.41661415 0.58239186 -0.54158676 -0.053951427 -0.79302984 -0.7047003 -0.091934 -0.22502927 0.32714117 -0.15921444 -0.11380545 0.3637321 -0.13270378 -0.35072663 -0.23153047 -0.45373508 0.36879617 0.27918136 0.043564975 -0.6263751
14 -0.53184 0.074116506 0.36682376 0.05343586 0.086595766 0.3329012 0.7177247 0.4595963 0.064155854 0.021975342 -0.2176169 0.17450309 -0.5417021 0.3605111 -0.4048576 0.44248375 0.1316387 -0.12823011 0.6726131 0.2418847 -0.13937509 -0.13981257 -0.44968635 -0.26772863 -0.2761723 -0.4883034 0.061968286 -0.20511706 0.0022465026 -0.1479857 0.1634567 0.17906745 0.28144878 0.22955863 0.09126794 -0.25096524 0.35345173 -0.06652244 0.13259575 0.31984165 0.42151955 0.3205825 -0.14793245 0.037416592 0.5563999 0.20208201 0.42329353 0.6472053 0.029775975 -0.1164938 0.096544825 0.31055468 0.50788707 -0.1574421 0.0669147 -0.3683986 0.31109676 0.116442576 0.55565333 -0.19715789 0.045581635 0.16572587 -1.1425998 0.2660122 -0.2259127 -0.14521153 -0.623887 0.088160105 0.18915857 -0.08096621 -0.5076635 0.19512275 0.6788776 -0.35470182 -0.26632294 -0.16241552 -0.1625895 -0.3492492 0.11736935 -0.06536775 0.015021653 -0.4543058 -0.07940177 0.08439234 -0.5715952 -0.14714877 -0.78795844 -0.10136119 0.4175302 -0.33194983 -0.2632732 -0.47112054 0.3525704 0.1580052 -0.15528336 -0.31249985 0.23737477 -0.054189485 0.2684159 -0.571615 0.1284212 -0.5122866 -0.5509483 -0.25167784 0.08701216 -0.23594065 -0.17523135 -0.102468304 -0.2332088 0.411094 -0.5383716 -0.35318646 -0.39015365 -0.44457006 -0.27537605 -0.30117393 0.4767822 -0.16232926 -0.10930812 0.62271976 -0.06458268 -0.2795594 -0.41815603 -0.5280209 0.062296268 -0.14162482 -0.003599895 -0.46603703
15 -0.56082994 0.07599856 0.21756724 -0.01875832 0.12681367 0.40806013 0.61720955 0.56813836 0.042896412 0.059233103 -0.22472988 0.1493442 -0.4639659 0.44451657 -0.38833335 0.4245026 0.08286063 0.0013022977 0.64935 0.27292544 -0.049747963 -0.07428007 -0.48309606 -0.17791755 -0.30309254 -0.6350286 0.021780273 -0.21089578 0.059944596 -0.16078056 0.03190951 0.14179303 0.26321086 0.24962717 0.19396159 -0.2899773 0.26225463 0.082438946 0.12080301 0.36680424 0.43508208 0.34240252 -0.18742566 0.03798904 0.4443474 0.14364041 0.39367032 0.61469716 -0.053477325 -0.14155322 0.09377677 0.29725865 0.52193373 -0.17403531 0.11660178 -0.38130212 0.30820057 0.106358856 0.57473725 -0.2649065 0.05457723 0.0848407 -1.1165318 0.31743798 -0.17982568 -0.060956534 -0.5770917 0.036959983 0.2130284 -0.102732725 -0.4917281 0.17132264 0.64052635 -0.43546915 -0.3248745 -0.080471195 -0.16857421 -0.3123149 0.15321143 -0.047873758 -0.020659167 -0.47106978 -0.11493133 0.014244608 -0.5120063 -0.17852189 -0.7214527 -0.03011399 0.47150335 -0.3560051 -0.21759982 -0.48580956 0.2486539 0.16232333 -0.13928422 -0.187212 0.21909231 -0.08466676 0.28399193 -0.5595753 0.1754315 -0.49350065 -0.59339535 -0.21231557 0.0012419993 -0.16255172 -0.118113786 -0.14790182 -0.123003066 0.26236302 -0.58825505 -0.43565825 -0.32858658 -0.4052891 -0.2808089 -0.23561236 0.3757236 -0.24247633 -0.024158228 0.58107674 -0.05851356 -0.3246805 -0.35863474 -0.38632765 0.069732554 -0.16955076 -0.0046261074 -0.3459784
16 -0.5851999 -0.15466204 0.47019112 -0.20686816 -0.13669047 0.38512486 0.7150158 0.57519835 0.14465864 0.2709417 0.2815234 -0.047948144 -0.26207614 0.44082424 -0.475945 0.35334674 0.47924557 0.056826346 0.9505025 0.24711606 -0.09592878 0.05802619 -0.4061473 -0.09317924 -0.20481978 -0.70695204 0.011121484 -0.0017754002 0.24885514 -0.066392556 0.38044366 -0.11027186 0.25202158 0.36403695 -0.1427275 -0.438191 0.24208474 0.013205522 0.55371994 0.321658 0.65096533 0.43803242 -0.22819658 0.02367575 0.41158488 0.10075381 0.42834237 0.7397301 0.14467253 -0.41764486 0.12896307 -0.07776924 0.78114766 0.08471038 0.2509539 -0.31223252 0.41162685 0.08857845 0.5426998 -0.33615237 0.15804315 0.26664016 -1.056098 0.37845936 -0.060276464 -0.4024592 -0.7307052 0.23072171 0.42153078 -0.35280958 -0.3121549 -0.011974809 1.0077646 -0.33714607 -0.15829152 0.026262388 -0.4048288 -0.4358617 0.31915635 -0.14044504 -0.008988228 -0.5663588 -0.15659954 -0.45994046 -0.41877034 -0.3796741 -0.73795277 -0.32809788 0.6521214 -0.38966784 -0.5042081 -0.16790523 0.49059692 0.19055837 -0.008938286 -0.4214683 0.07047731 0.16017161 0.3086118 -0.42682981 0.19655634 -0.30633393 -0.74752253 -0.46046746 -0.16898456 -0.42850918 -0.111632384 0.0668448 -0.2813477 0.41239607 -0.45944104 -0.3241119 -0.5744676 -0.5011679 -0.12366826 -0.18982469 0.54565436 -0.17797317 -0.067543186 0.45230195 -0.16326614 -0.43655387 -0.5167378 -0.43560284 0.17382473 0.2510321 -0.023127215 -0.5744436
17 -0.26818573 0.10454652 0.46708384 -0.15635271 -0.112127975 0.32078683 0.5691286 0.54405606 0.07125881 0.43999994 0.27677763 -0.019027287 -0.28765002 0.29327476 -0.36569515 0.3773225 0.5314544 -0.020697966 0.93388885 0.19571076 -0.23747583 0.04857092 -0.17320378 -0.105452985 -0.20381816 -0.70261496 0.0076002753 0.0221161 0.3574395 -0.35858545 0.5408711 -0.15474534 0.33002943 0.5549495 -0.026626669 -0.44158065 0.12366927 0.07575469 0.44149053 0.31375912 0.5192516 0.35064507 -0.120954655 -0.038874123 0.42101753 0.2731753 0.35970825 0.6821185 0.0479323 -0.4063445 0.12886712 -0.11978742 0.79846567 0.020054366 0.33266574 -0.08360008 0.43008775 0.2884831 0.46426862 -0.33994383 0.066284776 0.24897964 -0.7750108 0.50641996 0.07379623 -0.37250793 -0.71759367 0.1116766 0.4242786 -0.3949076 -0.35918328 -0.08189444 1.0543312 -0.4950561 -0.18094786 0.08195435 -0.6873665 -0.4818055 0.27490252 -0.19602259 0.016282056 -0.51296645 -0.16098507 -0.42661017 -0.44135663 -0.54501367 -0.58978015 -0.3620147 0.46342862 -0.5707782 -0.54910284 -0.18167268 0.6618977 0.035325214 0.011879234 -0.43310204 0.15975131 0.3224861 0.5541846 -0.5088775 0.24112044 -0.39751327 -0.6588877 -0.6321283 -0.15520008 -0.24636956 -0.004305671 0.066241734 -0.37080854 0.368326 -0.47960764 -0.0885708 -0.6360181 -0.65976566 -0.08789603 -0.20946121 0.52065927 -0.15467763 -0.13298938 0.2581843 -0.1707582 -0.6258834 -0.6171912 -0.16420044 0.19255461 0.34735844 -0.13899878 -0.57461834
18 -0.0064695994 -0.1194684 0.15341915 0.5270987 0.29290557 0.30717602 0.33790305 -0.16659424 -0.17767563 -0.024707219 -0.047408294 0.49125573 -0.35283569 0.2720678 -0.050598327 0.085534506 -0.09368753 -0.19430195 -0.065552525 0.32854974 -0.55720717 0.2564241 -0.6944134 -0.41876146 0.13209297 -0.037340526 -0.4012646 -0.50547063 0.27976346 0.1143132 -0.13886814 0.2555427 -0.047679704 -0.13410093 0.15178403 -0.24361625 0.47631523 0.033624746 0.17457211 0.58610266 -0.4532476 0.34070423 -0.36802983 0.4164451 0.08527482 -0.0019618769 0.040801845 -0.28536955 0.3149276 -0.24422348 0.45637628 -0.04985675 0.2699507 0.10662894 -0.053287406 -0.042901278 -0.07689675 -0.037370685 0.5185766 0.018974537 0.26011077 -0.12414382 -1.0155051 0.24437131 0.08083602 -0.36872506 -0.5841359 0.044106696 -0.15817869 0.37648588 0.011133394 0.25460353 0.4513365 -0.07101886 -0.8655637 -0.43313327 -0.34476328 -0.51624936 0.5550521 0.6845416 0.13076785 -0.18474485 -0.30264145 0.14735384 -0.026482936 0.15993759 0.09543802 0.06401488 0.18073142 -0.23053837 0.20889954 0.001742272 0.10906 0.63350564 -0.21569854 -0.17826375 0.12434577 -0.053162497 -0.36135232 -0.5765543 -0.33199 -0.41726685 0.24778485 -0.340625 0.28509712 -0.16318366 -0.48756963 -0.102249354 0.45575604 -0.24513148 -0.3327832 -0.026263574 0.25030026 -0.3393961 -0.0750585 0.07515673 0.3808941 -0.11505329 -0.044108104 0.6692732 -0.07961935 -0.0528435 -0.52541703 -0.10742599 -0.099209115 -0.45821118 -0.5193573 0.49047863
19 0.13250922 -0.18661405 0.17644516 0.2769496 0.1937226 0.36775848 0.14182416 -0.29809144 -0.21644458 0.29393297 0.18666258 0.015245761 -0.17528437 0.24252391 -0.003755019 0.06486695 -0.024248607 -0.10136918 -0.08316415 0.27267134 -0.44180834 0.28216365 -0.4574637 -0.09958124 0.18950745 -0.07855951 -0.43354994 -0.54018426 0.7767172 0.14004137 -0.09138728 0.14777255 0.16643308 -0.11623182 0.03190432 -0.36541992 0.18506387 0.3759637 0.46801722 0.53285515 -0.5292903 0.44077718 -0.25648072 0.5020419 -0.1827761 -0.028155724 -0.10211951 -0.31443268 0.44647738 -0.6153709 0.5407473 -0.25351715 0.40869737 0.3197749 -0.10715386 0.19834974 -0.0867766 0.18151818 0.47230506 -0.14941809 0.14794351 0.04464247 -0.68954885 0.42467383 0.27596712 -0.49262372 -0.7729522 0.083234645 -0.17997712 0.050548345 0.106419586 0.099359296 0.8422466 0.08227886 -0.95981765 -0.48397595 -0.5844291 -0.47193524 0.8393719 0.5259968 0.35898453 -0.31551114 -0.53826666 -0.11168327 0.10725968 -0.050961558 0.12609792 -0.097993724 0.2691308 -0.2492245 0.13784388 0.2090418 0.24301392 0.58438885 0.072484426 -0.33203068 0.30564743 -0.19440214 -0.5554001 -0.50596476 -0.4402393 -0.24098107 0.21073051 -0.5604631 0.25178796 -0.09474562 -0.70418125 0.16134815 0.5169302 -0.3795117 -0.39370292 0.22928672 0.03125963 -0.48185036 0.07007709 0.2808118 0.29567063 -0.039481025 -0.14589298 0.6583802 0.007774397 0.01316216 -0.47234777 -0.13657798 0.14779909 -0.12267593 -0.846565 0.22023366
20 0.3158008 -0.11580714 0.11205672 0.4269108 0.25504562 0.37636313 0.063930094 -0.36402154 -0.36632305 0.36131546 0.28805605 0.06932128 -0.27082437 0.13679531 -0.023640746 0.09924401 0.043002535 -0.21655671 -0.16532136 0.2649983 -0.5049364 0.2505325 -0.25259975 -0.17579895 0.18214782 -0.06677821 -0.49835065 -0.65247947 0.8387083 0.044777703 -0.013324422 0.16743234 0.17579715 0.038010933 -0.0006499951 -0.2701216 0.21921103 0.291486 0.52171 0.540567 -0.60441285 0.391204 -0.2762192 0.534802 -0.24833529 0.020729037 -0.048805848 -0.33850032 0.4067062 -0.5763212 0.42995128 -0.24166778 0.4310029 0.3930338 -0.05836017 0.21091312 -0.05031236 0.24240796 0.5069771 -0.10828553 0.119324595 0.07453196 -0.5386194 0.4543304 0.27777034 -0.6102746 -0.673854 0.02903473 -0.1206847 0.06572304 0.25986502 0.15721501 0.8727101 0.0982875 -0.96592665 -0.593314 -0.7226539 -0.592402 0.863774 0.73887724 0.36972672 -0.24093473 -0.57769513 -0.11558199 0.07755601 0.02458341 0.13858052 0.07541119 0.17529674 -0.2989798 0.19629814 0.20100704 0.33975857 0.530696 -0.02979602 -0.37152952 0.31124315 -0.15390025 -0.53911656 -0.56400603 -0.45411158 -0.311835 0.29715532 -0.74510103 0.2364278 -0.057642497 -0.7901617 0.22380953 0.44917724 -0.40252784 -0.40569168 0.49123043 -0.017638447 -0.58497095 0.063726984 0.34942174 0.1569828 0.0076235346 -0.1678438 0.6091111 -0.0074898736 -0.0012760492 -0.55757207 0.0007890235 0.27872595 -0.14837551 -0.9009038 0.3717873
21 0.25783858 0.032898247 0.18572395 0.45222282 0.25150484 0.33261412 0.2279532 -0.33529118 -0.33894497 0.16079085 -0.18010557 0.22677301 -0.36938497 0.09787433 -0.12501173 0.069958694 -0.1600249 -0.31743807 -0.10092331 0.3855043 -0.5791218 0.27636203 -0.5330744 -0.31216913 0.0981976 0.20957221 -0.40374488 -0.53095824 0.3763921 0.02029916 -0.04840811 0.18408544 0.30510435 -0.07634801 0.26299226 -0.34030464 0.33583653 0.29496914 0.15636043 0.49129933 -0.4328321 0.33482808 -0.21544024 0.2071413 0.021928407 -0.02843097 0.11128807 -0.289792 0.4846479 -0.7153414 0.38018078 -0.016674282 0.062777735 0.0914483 -0.19134735 0.13510233 0.013192666 0.22962247 0.5997247 -0.03756157 -0.07237724 -0.019512406 -0.85632724 0.32804343 0.12268566 -0.6513303 -0.7853355 0.07349118 -0.14256695 0.08604291 -0.11963254 0.037340034 0.7811975 0.34507552 -1.0902919 -0.5191577 -0.52009094 -0.43971348 0.5675748 0.34164196 0.2365412 -0.38762355 -0.27585974 0.15492156 0.08165193 0.05233364 0.024927564 0.05532247 0.08020095 -0.32652324 0.04789951 0.081177235 0.16847579 0.508963 -0.16805325 -0.682121 0.3402668 -0.25763738 -0.39320257 -0.36677116 -0.6439955 -0.24446334 0.40582055 -0.60464674 0.52697796 -0.07033298 -0.708948 -0.16881353 0.37017888 -0.4975741 -0.3999003 0.134211 0.02081532 -0.36351275 -0.097902566 0.14722538 0.51868117 0.21760806 -0.37087265 0.82396334 0.08157495 0.061006818 -0.7677147 -0.37622115 0.035190433 -0.22453788 -0.9114281 0.18286715
22 0.12079904 -0.25160095 0.062288404 0.51731133 0.35045335 0.45012957 0.19445784 -0.18746504 -0.36458245 0.10610559 0.19258378 0.31722817 -0.47943202 0.28152528 -0.15806459 0.20481995 -0.115784846 -0.099621736 -0.22729342 0.20760734 -0.5146601 0.026797352 -0.25201896 -0.47176322 0.29924175 -0.104424335 -0.44532317 -0.88367856 0.5255936 0.1783362 -0.12482918 0.30095512 -0.050983723 -0.10002229 -0.032982204 -0.18205142 0.4649882 0.08069918 0.35544536 0.59107715 -0.7046977 0.3979079 -0.35989302 0.6174455 0.008665191 -0.004799048 0.023224965 -0.04760156 0.21807519 -0.13484052 0.37051207 0.06736119 0.4283863 0.25289512 0.17391871 0.021874066 -0.025118966 -0.013424558 0.61095756 -0.21630597 0.33354574 0.0084929345 -0.9290442 0.20797746 0.117578894 -0.30267575 -0.5478885 0.09049199 -0.131572 0.11978929 0.18672091 0.49162644 0.4897764 -0.06135073 -0.6605757 -0.6472374 -0.42153028 -0.5074028 0.77458423 1.0488945 0.51663566 -0.040176164 -0.6352075 0.19855228 -0.16116558 0.39873314 -0.16211078 0.090642855 0.30766067 -0.33710217 0.33721703 -0.07586278 0.28720266 0.41289368 -0.18767302 -0.15565747 0.35519272 -0.120390505 -0.57546043 -0.9899719 -0.36356106 -0.50999963 0.22644112 -0.50328875 0.30711982 -0.23267281 -0.7528306 0.21141216 0.33840212 -0.07069265 -0.5323567 0.45928037 0.01796002 -0.4446985 -0.07327365 0.28762737 0.05511773 -0.20998777 0.04998626 0.6361703 -0.014115512 0.060018275 -0.30537784 -0.09736803 0.117762186 -0.33129743 -0.6135843 0.35684064
23 0.18975502 -0.45037073 0.17206977 0.33271286 0.1965635 0.3621409 0.21118405 -0.31635758 -0.31397083 0.13978316 0.12989433 0.12049249 -0.2917838 0.32964933 0.025848681 0.021048672 -0.06153465 -0.15089235 -0.32637304 0.47150353 -0.5049519 0.319599 -0.5170712 -0.31264788 0.38331088 0.21349092 -0.45442522 -0.65514743 0.77696586 0.23818432 0.07550469 0.21607836 0.23536167 -0.40944156 -0.14675717 -0.4879004 0.39054462 0.42588648 0.4741089 0.27239656 -0.7410976 0.3696578 -0.3053769 0.45033428 -0.35012954 -0.02194347 0.014708085 -0.2681479 0.58325535 -0.7207177 0.48700544 -0.19480798 0.29247254 0.3822331 -0.051450875 0.25270796 -0.17888145 0.19051987 0.53086394 -0.07896926 0.26074016 0.059261173 -0.87707514 0.4565262 0.24175313 -0.79824764 -0.8805867 0.16284664 -0.2386189 -0.049655724 -0.16575615 0.07307053 0.9458622 0.4141098 -0.9983107 -0.84522825 -0.696464 -0.5735732 1.1935254 0.73575354 0.7583095 -0.18628098 -0.5027601 -0.03936114 0.3010905 0.15462422 0.006631706 -0.38228253 0.2271636 -0.20752703 0.18751454 0.24048217 0.20951417 0.54957485 -0.0018487623 -0.7069217 0.49037492 -0.1681449 -0.6618574 -0.614335 -0.949708 -0.367137 0.6258774 -0.5536274 0.5271607 -0.19614887 -0.93411434 0.014991638 0.5812624 -0.23662785 -0.29570013 0.39271387 0.031047976 -0.5002686 0.30576667 0.38689238 0.540362 0.10061448 -0.09598298 0.7723891 -0.008650535 0.22750592 -0.5854157 -0.52206093 0.109024025 -0.035732113 -1.1269178 0.19238949
24 0.29640165 -0.021757364 0.23800969 0.5620269 0.2098002 0.35585442 0.13398209 -0.5219427 -0.3477284 0.39907208 0.19813815 -0.0006815243 -0.383832 0.13772021 -0.10349343 0.13605322 -0.050003402 -0.32756585 -0.21886748 0.13757254 -0.50009364 0.12128707 -0.08218871 -0.2664523 0.096736446 0.04852163 -0.45824996 -0.8233685 0.8693873 0.12765203 0.057126295 0.28674853 0.19529799 0.053262636 -0.0484358 -0.19284248 0.2802856 0.15249391 0.57123756 0.49258924 -0.61393994 0.35083306 -0.15355551 0.5738848 -0.09997156 0.050265193 -0.039325092 -0.19871606 0.37336594 -0.40333897 0.41159064 -0.12531887 0.47109392 0.42960885 -0.19732325 0.16341133 -0.018055947 0.2954555 0.48712134 -0.17330918 0.041613705 0.2611851 -0.5340955 0.40081897 0.16210507 -0.47097972 -0.6925767 0.031143067 -0.17159411 0.018327197 0.35858372 0.32255277 0.87703246 0.07760153 -0.92639565 -0.6500847 -0.67266643 -0.6105006 0.7862461 0.7103824 0.47332615 -0.19529578 -0.5942032 0.056131188 -0.13772842 0.107570834 -0.003221406 0.070305176 0.0999919 -0.29472837 0.18652372 0.09665379 0.5006782 0.54340225 -0.060343973 -0.41812384 0.3607191 -0.14673896 -0.6237993 -0.74235743 -0.4617863 -0.31235245 0.21350971 -0.7142581 0.27705142 0.0006342125 -0.86854076 0.30263337 0.31553233 -0.15807486 -0.41834497 0.58616745 -0.17203383 -0.64387214 -0.08776895 0.30634868 0.15415718 0.1245931 -0.17212893 0.66910374 -0.017892703 0.06134735 -0.35199276 -0.111805454 0.3279115 -0.1327707 -0.87542844 0.21128036
25 0.10363538 -0.17817767 0.09511056 0.32205153 0.29849303 0.40210006 0.16903318 -0.071916096 -0.2547797 0.07535555 0.015733745 0.3499237 -0.23993947 0.27629638 -0.06731091 0.005981141 -0.13542329 -0.09252627 -0.06174025 0.43766192 -0.4830135 0.28820565 -0.6960561 -0.32198745 0.1966809 -0.056042098 -0.38962132 -0.466111 0.3608571 0.09242592 -0.12943427 0.16027029 0.07753852 -0.16982332 0.23475805 -0.44980168 0.35093817 0.3301904 0.22003275 0.5200281 -0.47003642 0.39516875 -0.37497115 0.21648428 -0.10426814 -0.07428818 0.008589737 -0.2395664 0.3500707 -0.5261694 0.41072956 -0.10626261 0.21874574 0.07952522 0.023432622 0.0783199 -0.052974116 0.077204466 0.54755557 -0.1262219 0.23575026 -0.18131676 -0.94426453 0.3809268 0.17850935 -0.46037853 -0.6936505 0.046657387 -0.11494101 0.18694414 -0.085377425 0.12654343 0.5631177 0.029766181 -0.9407207 -0.3821665 -0.45264295 -0.44404492 0.69771516 0.51540774 0.28186762 -0.19780102 -0.33892077 -0.018994747 0.16492534 0.0715424 0.13154164 -0.008769728 0.22782046 -0.30356708 0.11036775 0.12575816 0.13319686 0.44616553 -0.1130345 -0.30054474 0.19368778 -0.14456807 -0.32215023 -0.4464656 -0.51502615 -0.34020656 0.3296225 -0.4111429 0.3089739 -0.12853032 -0.50218636 -0.2434602 0.53501534 -0.46881443 -0.3318587 -0.017618667 0.18316245 -0.2557267 0.014730411 0.16790158 0.48648733 -0.048800185 -0.055377737 0.656121 -0.035631232 -0.053079978 -0.653538 -0.11080051 -0.09702806 -0.25702807 -0.74931973 0.4170907
26 0.34598067 -0.3322031 -0.053741686 0.32133195 0.23876978 0.37745768 0.17505085 -0.3212838 -0.4026475 0.27570495 0.4353921 0.14358954 -0.43646416 0.1491469 -0.08790969 0.1585622 -0.17941858 -0.14914665 -0.28803197 0.317913 -0.6782383 -0.020290585 -0.19700938 -0.4655997 0.45731977 0.03278236 -0.42931867 -0.65350425 0.7412947 0.19410016 0.13317685 0.116058804 -0.0032420848 -0.011755588 -0.08770802 -0.30229974 0.31450447 0.22063108 0.64747566 0.53503686 -0.5859318 0.3657954 -0.3823189 0.49271008 -0.07445585 -0.04949475 -0.07805781 -0.23893291 0.32309473 -0.48618904 0.2910753 -0.16497919 0.32224828 0.2708655 0.16829145 0.21208757 -0.017728236 0.07204161 0.6039884 -0.30874392 0.18918614 -0.10767378 -0.70229405 0.36704886 0.25936368 -0.5066181 -0.6016094 -0.032262705 -0.17883484 0.084937036 0.13679308 0.31849185 0.7121207 0.14328545 -0.69262934 -0.65253174 -0.65323657 -0.5132825 0.91586834 1.0382658 0.6424726 -0.044128876 -0.60000527 0.03150847 0.119243905 0.2841946 0.020452585 0.049517844 0.3174754 -0.49223933 0.22132783 0.2408093 0.3129692 0.37640887 -0.044335827 -0.34720024 0.3516685 -0.0012554545 -0.59211147 -0.77088934 -0.49203447 -0.3889347 0.43011212 -0.7206153 0.3052737 -0.19160785 -0.8859845 0.38254848 0.24914148 -0.2883443 -0.45734245 0.80228376 -0.08028331 -0.47111008 0.12217389 0.3797782 0.303112 -0.13048233 -0.046885252 0.47152895 -0.078822725 0.073796526 -0.38091305 0.098791316 0.13643442 -0.0895884 -0.7780862 0.27214414
27 0.04393533 -0.31992835 -0.06891112 0.19665536 0.04941984 0.45098925 0.095257245 -0.15058179 -0.15682569 0.3341811 0.27455696 -0.08270719 -0.12564082 0.4142254 0.12120886 0.048052896 -0.046288688 -0.15969019 -0.09612449 0.3353762 -0.5393229 0.21106821 -0.47041646 -0.052740034 -0.006841664 0.05624617 -0.3374174 -0.42354488 0.70180917 0.37445986 -0.05830328 0.22662182 0.13873897 -0.19352448 -0.024411406 -0.3120471 0.28844592 0.35646456 0.61636144 0.2210169 -0.59167504 0.44564077 -0.17859545 0.5667238 -0.24138641 -0.036048766 -0.12149068 -0.2256714 0.554421 -0.6945809 0.5337172 -0.25958815 0.37872815 0.38363665 -0.25311866 0.10346078 -0.09914401 0.19274965 0.6776794 -0.12018091 0.09158743 0.038429875 -0.77442795 0.2845686 0.19520152 -0.52394265 -0.8590204 0.032712407 -0.316874 0.006435626 0.060822904 0.0414503 0.8519369 0.25339907 -1.0212469 -0.5176809 -0.51436055 -0.5539114 1.0440657 0.4814154 0.55336684 -0.27637503 -0.58097416 -0.04072513 0.15736641 -0.007619156 0.12152912 -0.19349483 0.36617318 -0.0029726864 0.3169575 0.2300342 0.2860311 0.83278465 0.012531142 -0.4451657 0.27523294 -0.2015158 -0.534263 -0.5727137 -0.5617624 -0.085528485 0.2724736 -0.46185026 0.26322317 -0.11290102 -0.80548775 0.08307068 0.74009055 -0.22888815 -0.2454592 0.18436645 -0.037610013 -0.5583247 0.040333394 0.3483409 0.33976313 0.18002334 -0.037639007 0.7465154 -0.09141307 -0.056058303 -0.5348758 -0.47280252 0.116397694 -0.29541808 -0.91874355 0.11879707
28 0.28439397 -0.21908161 0.3243924 0.6658155 0.22567056 0.24213462 0.21732251 -0.70071775 -0.32652578 0.14570993 0.23476332 0.15824856 -0.36839464 -0.017579088 -0.09102071 0.05406449 0.04991111 -0.3835776 -0.23398587 0.17096163 -0.569791 0.22970256 -0.3467589 -0.27621233 0.2952272 0.2743203 -0.49317327 -0.69455564 0.7615407 0.17980199 0.10217609 0.21610944 0.12761343 -0.12633014 -0.25524068 -0.20770939 0.35143718 -0.082080856 0.42777908 0.51260275 -0.59465986 0.23206122 -0.19905657 0.64950764 -0.08284254 0.040384285 0.09478599 -0.34483394 0.57162935 -0.43640116 0.42344967 -0.2540539 0.33994934 0.4686582 -0.2551333 0.15531704 -0.13323383 0.1250057 0.4723721 0.057044744 0.13264605 0.21895608 -0.7279265 0.31012818 0.20232435 -0.7914454 -0.6605798 0.13463256 -0.19250555 0.050288744 0.32673115 0.2088616 0.91081756 0.32073477 -0.92765427 -0.77381897 -0.65647584 -0.67006665 0.7844145 0.83686835 0.3321534 -0.20355614 -0.45663023 0.05049892 0.019046893 0.19672175 0.053150956 -0.01655248 0.14828286 -0.2246832 0.21778615 0.123273514 0.30880684 0.723756 -0.12506318 -0.54460055 0.34116215 -0.15249667 -0.6994227 -0.6468393 -0.5456835 -0.26888335 0.3798368 -0.74602425 0.43339944 -0.17631213 -0.88381743 0.335884 0.29584813 -0.21929847 -0.308223 0.580432 -0.055598132 -0.6096039 0.085770115 0.22467148 0.1926381 0.13874453 -0.2666373 0.71081 -0.03211699 0.19938138 -0.5435869 -0.30091658 0.28046635 -0.21542764 -0.773409 0.3312159
29 0.20385213 -0.12215005 0.19862242 0.5767829 0.21583208 0.3541889 0.2659319 -0.54542655 -0.3778343 0.27653724 0.1286791 0.06791829 -0.40955153 0.10516312 -0.08264619 0.16427867 0.017975083 -0.3330902 -0.27274314 0.23118798 -0.4505815 0.19201307 -0.26232895 -0.26721558 0.1493342 -0.0070377635 -0.48675618 -0.80846184 0.9158602 0.078894675 -0.009571804 0.26418492 0.24546279 0.01545151 -0.13017996 -0.24721934 0.28729194 0.14602134 0.5481226 0.60234165 -0.5485868 0.37173378 -0.27313316 0.58366495 -0.24793623 0.073136404 0.014386114 -0.2914509 0.4163092 -0.47322744 0.38209078 -0.19081144 0.4460025 0.4545106 -0.17978445 0.09834477 -0.0184945 0.30387875 0.485314 -0.032629173 0.11516232 0.22663803 -0.6413863 0.43458897 0.16977547 -0.68560934 -0.64529496 0.025560047 -0.09924901 0.12717637 0.31244597 0.2559595 0.9937998 0.1753622 -0.99970245 -0.7488849 -0.6624393 -0.648798 0.8406367 0.79079103 0.3664732 -0.2794497 -0.49317804 -0.055043615 -0.0058490657 0.20090571 -0.05011433 0.12919417 0.10437817 -0.2682918 0.20968737 0.0910994 0.3424719 0.6040849 -0.11753458 -0.4306476 0.33021218 -0.18575177 -0.67498845 -0.62258315 -0.51226616 -0.37960836 0.23476267 -0.7786123 0.3115682 -0.045606256 -0.9205004 0.35710108 0.36059088 -0.28607672 -0.44675434 0.55599767 -0.1087122 -0.69911355 0.035730407 0.3193151 0.20899265 0.067090906 -0.234942 0.70218545 -0.011188435 0.11586953 -0.42380446 -0.11912404 0.38658097 -0.15407649 -0.86768687 0.38493827
30 0.0021370782 -0.13472922 0.020954665 0.33536053 0.30372134 0.36869058 0.25823292 -0.08790813 -0.21879111 0.04205321 -0.049180657 0.30681428 -0.34240806 0.29798433 -0.11844531 0.12319978 -0.1995544 -0.11958937 -0.051389363 0.3333865 -0.4502354 0.16304584 -0.61477685 -0.31823948 0.106620684 -0.01776937 -0.3707228 -0.49438712 0.33645654 0.1366507 -0.19529283 0.2220805 0.018685607 -0.13112512 0.20842333 -0.2476581 0.38759306 0.1834918 0.19467239 0.5386524 -0.38578117 0.35225314 -0.30198663 0.39433968 0.100626506 -0.05842668 0.05299391 -0.16557215 0.30921885 -0.36001343 0.38679045 0.041160267 0.18658899 0.06515694 -0.047705326 -0.079264686 -0.043107823 -0.017857945 0.56686574 -0.08848179 0.15646549 -0.1341259 -0.9475603 0.22991128 0.06602375 -0.3314365 -0.5657941 0.05951612 -0.19561146 0.21584933 -0.039291482 0.2009967 0.46072468 0.01230741 -0.8195715 -0.43965438 -0.28169274 -0.38517225 0.59349513 0.61312455 0.2290854 -0.23453288 -0.392731 0.15542018 0.00973096 0.12366798 -0.0028438498 0.09718842 0.28104475 -0.256369 0.22836654 -0.019695181 0.05418059 0.5397131 -0.14066511 -0.24152124 0.22335757 -0.19686203 -0.39934433 -0.59310704 -0.36535427 -0.33753863 0.20917177 -0.32802427 0.2911873 -0.14932689 -0.56912166 -0.096015565 0.44491157 -0.27785158 -0.40209085 -0.025244674 0.14568721 -0.28467345 -0.12394304 0.12679027 0.3126931 -0.09032563 -0.06508902 0.7012931 0.0014671023 0.024019584 -0.51083547 -0.21892178 -0.02889961 -0.41827253 -0.54530495 0.3090776
31 0.27633902 -0.20984058 0.10544146 0.3337422 0.18571305 0.34287244 0.15427771 -0.38778415 -0.30420935 0.32713842 0.31007957 0.12487821 -0.18475543 0.21374989 -0.02089645 0.038571775 0.0054852474 -0.12327937 -0.14159611 0.3177399 -0.63842356 0.31982303 -0.42247126 -0.25602195 0.24983847 -0.007632864 -0.49554726 -0.54930735 0.74262923 0.15872651 -0.019360336 0.07678495 0.05955133 -0.02019117 0.043970235 -0.33024004 0.28531352 0.30841509 0.5545599 0.58878547 -0.55761343 0.44330448 -0.36581364 0.51461226 -0.1795062 -0.11049807 -0.09503654 -0.44710207 0.47936928 -0.70007247 0.5266707 -0.3320355 0.34473976 0.35383087 -0.0051546637 0.20053107 -0.050719347 0.087095976 0.5230835 -0.12052747 0.13179877 -0.032598175 -0.6891466 0.38945848 0.3235222 -0.6595697 -0.746228 0.10524532 -0.12530935 0.12470856 0.21520622 0.113764204 0.7936926 0.1931413 -0.96512854 -0.50116885 -0.6570707 -0.5181058 0.8500014 0.7516116 0.34483835 -0.28283432 -0.50655985 -0.13776772 0.20020159 0.0229839 0.24301404 -0.018897008 0.22990961 -0.3288191 0.13872176 0.35300586 0.2275522 0.62151486 -0.0333684 -0.39376292 0.19441509 -0.086828135 -0.58932155 -0.45799482 -0.51394564 -0.21006374 0.36168978 -0.6763203 0.28727195 -0.18890025 -0.7553671 0.1713756 0.48109344 -0.47193345 -0.3727511 0.36340603 0.10790129 -0.4512921 0.077079795 0.35083613 0.35834488 -0.007417347 -0.16993532 0.61600107 -0.03698472 0.010599241 -0.569904 -0.009900319 0.13016692 -0.11483854 -0.8947901 0.36513484
32 0.050468102 0.027212845 0.0836047 0.54033184 0.33533296 0.38891265 0.32359228 -0.13941061 -0.29330105 0.0137347225 -0.19335271 0.39820248 -0.56554455 0.26623085 -0.16972268 0.22476298 -0.1541156 -0.2624198 -0.09250575 0.3175699 -0.5651969 0.07439062 -0.45854583 -0.4281033 0.04882328 0.034039073 -0.3203779 -0.6520338 0.25444812 0.02155235 -0.17949642 0.33665007 0.10257206 -0.07198651 0.20470312 -0.108066514 0.48220778 0.07268817 0.089542314 0.54807776 -0.45682666 0.30798334 -0.26293823 0.41055954 0.22753653 0.04810514 0.15648215 -0.12066164 0.24692436 -0.22746266 0.37050778 0.20793678 0.18438001 0.025815582 -0.051475175 -0.09628244 0.017251177 0.039953116 0.6604029 -0.02439625 0.08286432 -0.08753505 -1.0080724 0.1597563 -0.004205439 -0.3410644 -0.58672124 0.041848462 -0.2036037 0.26377687 -0.07639722 0.30404148 0.47072494 0.010755146 -0.8188642 -0.5327784 -0.25262803 -0.4444708 0.5216867 0.6743377 0.26203555 -0.24201232 -0.38038063 0.36718798 -0.14650133 0.23241033 -0.20751579 0.17532912 0.19691196 -0.29547244 0.27376008 -0.18842848 0.17130774 0.51201797 -0.27287486 -0.3338091 0.31502905 -0.20303039 -0.3625795 -0.7597502 -0.35158762 -0.45677277 0.21883823 -0.4212822 0.40854618 -0.14191134 -0.6800121 -0.057465296 0.32580486 -0.15224005 -0.51398635 0.08178365 0.05349822 -0.4178988 -0.23378845 0.08140887 0.24666435 -0.06001344 -0.14996026 0.83852243 0.0095516 0.018066477 -0.5574856 -0.31391412 0.01798393 -0.53793645 -0.5869804 0.23213686
33 0.48960596 -0.0010949376 0.1753079 0.4184325 0.16027413 0.33317107 0.11323851 -0.31398517 -0.36501783 0.45743185 0.26699287 0.19462529 -0.24551459 0.18434083 -0.022183435 0.05699268 0.1768081 -0.22344196 -0.09271237 0.34578773 -0.7268014 0.42148966 -0.25706735 -0.2686791 0.21578775 0.02583607 -0.4908621 -0.49483913 0.7559753 -0.103550486 0.123246275 0.027991302 0.17764167 0.081660345 0.08918543 -0.34539333 0.29127756 0.39144504 0.48630393 0.55852884 -0.5903361 0.3886498 -0.30259088 0.37160683 -0.15882361 0.06467683 -0.028297866 -0.39478233 0.44308862 -0.74079514 0.52910554 -0.30643085 0.3497863 0.31187397 0.08977618 0.32082754 0.006834938 0.26686633 0.53892416 -0.05007242 0.11404441 -0.025192885 -0.52727497 0.4510872 0.36603752 -0.777369 -0.7610726 0.085203074 -0.06104755 0.08179882 0.11497823 -0.014658175 0.93552953 0.110634044 -1.0078245 -0.45826608 -0.84889305 -0.61016333 0.87799025 0.6503099 0.37243226 -0.33744484 -0.49912682 -0.17817494 0.24697931 -0.10292292 0.18490475 -0.09568838 0.11478585 -0.46045604 0.06938059 0.33273613 0.39726382 0.51852524 -0.09622097 -0.58798337 0.2653665 0.09687179 -0.3219692 -0.52979976 -0.5654562 -0.29641646 0.41195604 -0.84638995 0.2824674 -0.12124222 -0.73766476 0.08088584 0.39059597 -0.42637572 -0.4030951 0.4185222 -0.032912496 -0.622051 0.053921174 0.33970466 0.43712488 0.069554724 -0.24396127 0.60444725 -0.062939934 -0.1760948 -0.816251 0.020316841 0.17908275 -0.031848416 -1.0518109 0.30274025
34 -0.48244655 -0.21612898 -0.3758074 -0.42758802 -0.15027656 0.021333864 0.44174403 0.641789 0.116062075 0.058959663 -0.11684875 0.16429354 0.26180422 0.4383408 0.3582218 0.127827 0.27236196 0.39671797 0.32841843 0.7662657 -0.00865902 0.73007536 -0.9027397 0.17374562 -0.4340168 -0.77435595 -0.23224421 0.51631516 0.043483958 -0.036403853 -0.25610417 -0.2439634 0.15335041 0.26152802 0.45575187 -0.30459905 -0.06924696 0.4515637 0.15924314 -0.03855784 0.46417904 0.2126843 -0.42458427 0.09854466 -0.39242017 -0.22638442 0.18994682 -0.4451906 0.19518577 -1.0053034 0.16655192 -0.48104814 0.13842112 0.01792089 0.10657887 -0.3205388 0.20761667 -0.2598079 0.29647103 0.11384983 -0.30545923 -0.23057623 -0.75756896 0.57583284 0.13751231 -0.7203351 -0.6817169 -0.1039476 0.40267986 0.06429415 -0.6711574 -0.504865 0.44037583 0.09197978 -0.7100986 0.15623702 -0.53502375 -0.32099208 0.21426296 -0.14516081 -0.61192286 -0.39634067 0.3717655 -0.55384815 0.13054717 -0.5742207 0.5450242 -0.07357281 0.2441136 0.12651326 -0.25783902 0.15375274 -0.48143116 0.81109154 -0.2211367 0.02845069 -0.30992305 -0.026669418 0.32914314 0.693113 -0.042426355 -0.05076502 -0.017073374 0.07373841 -0.06741005 0.06542199 0.40644717 -0.4697268 0.54389846 -0.6866276 0.033214726 -0.7368617 0.47366706 -0.038426805 0.28293845 0.03526168 0.36896634 -0.12365507 0.007751237 0.036185324 -0.034443025 -0.5874061 -0.37494203 -0.03832812 -0.18462753 -0.06472363 -0.0683861 0.42864645
35 -0.26325214 -0.22985026 -0.36201093 -0.5938522 -0.17375402 0.08327961 0.15494385 0.55687183 0.027166754 0.5552774 0.3552331 -0.21454816 0.42916238 0.44115788 0.30494687 0.15271516 0.4287412 0.5313946 0.34107542 0.59231573 0.15823594 0.7654465 -0.38656172 0.42516634 -0.47404695 -1.0129315 -0.39527136 0.39334673 0.6087793 -0.13238831 -0.13479494 -0.34681568 0.20705357 0.4440774 0.38867235 -0.3387703 -0.31015515 0.7070966 0.6396656 0.036969196 0.4582961 0.2541755 -0.4004469 0.20176162 -0.68204486 -0.24399398 0.06493185 -0.47890854 0.11753997 -1.0814371 0.15881388 -0.7182515 0.52148986 0.30263972 0.13052297 -0.08934595 0.23596635 -0.15514915 0.17929287 -0.09807573 -0.30886903 -0.03317746 -0.22551732 0.8360358 0.312874 -0.74252254 -0.6734796 -0.09763287 0.45373034 -0.19472408 -0.25504887 -0.50584877 0.7368112 -0.046218935 -0.69809 0.16428956 -0.85406274 -0.39287484 0.45143297 -0.054211687 -0.42159194 -0.37014413 0.051414058 -0.93174446 0.20643339 -0.7946551 0.6416365 -0.056834605 0.2748858 -0.011819635 -0.32533672 0.41798767 -0.21621464 0.67182946 0.012976728 0.083184905 -0.24890372 0.07134237 0.19003282 0.68314993 0.07361528 0.014859864 -0.105195 -0.18594578 -0.3637767 0.2391917 0.2600502 -0.16457705 0.4337381 -0.7563908 0.009145959 -0.31394836 0.2908895 -0.16742702 0.34070316 0.32549417 0.0612744 -0.13523711 0.12930167 -0.09956584 -0.06358961 -0.5965209 -0.18630947 0.3759859 0.18570149 0.33960035 -0.31454846 0.37122625
36 -0.36397207 -0.124566704 -0.3681491 -0.67628497 -0.14780277 -0.015916204 0.333984 0.5589368 0.12814993 0.32866976 0.15374877 -0.11091484 0.33742675 0.38029522 0.47730115 0.26010767 0.24273345 0.524106 0.3306884 0.6162542 -0.03613266 0.52578014 -0.59524363 0.27854872 -0.36538523 -1.017743 -0.18550985 0.5231803 0.5568975 -0.14941216 -0.15492879 -0.31354874 0.20476002 0.46140477 0.4069328 -0.33381373 -0.31550708 0.6561822 0.41365805 0.036948696 0.38655 0.23080346 -0.42863068 0.29149848 -0.49631178 -0.16037312 -0.07239053 -0.61497927 0.05738848 -0.9983757 0.30000398 -0.67082316 0.4260985 0.14884304 0.21556462 -0.050573397 0.15992334 -0.17184643 0.11089979 -0.06371916 -0.36479098 -0.19945005 -0.42711568 0.8391778 0.3829911 -0.5451513 -0.7724823 -0.1742329 0.34234625 -0.0021002262 -0.6146738 -0.44723344 0.5845451 -0.16216628 -0.58938515 0.12731282 -0.7942751 -0.27523303 0.28225154 -0.03053001 -0.4367541 -0.3712503 0.18536748 -0.62966037 0.104339965 -0.8335254 0.6821464 -0.17822117 0.20914587 -0.05515823 -0.33428872 0.29493105 -0.3138689 0.633582 0.08229003 0.28556854 -0.22687566 0.036559775 0.26022324 0.63173556 0.1683599 -0.11674605 -0.08511155 -0.028645284 -0.15056987 0.19843562 0.38066298 -0.08459759 0.41941932 -0.7358018 -0.049090877 -0.3266873 0.4508747 -0.21948628 0.49068186 0.15106235 0.27584654 -0.31816322 0.033019044 -0.19926518 -0.061259553 -0.6124053 -0.109235466 0.45609495 -0.09180807 0.1813157 -0.15356666 0.279033
37 -0.4755158 -0.26053149 -0.53580755 -0.5975963 -0.14045274 0.090981506 0.3983854 0.7103543 -0.020870186 0.0051736454 -0.10582492 0.022598807 0.26229075 0.34844494 0.33695054 0.148892 0.15245119 0.48919147 0.23395798 0.78755057 0.084731854 0.5892179 -0.8380974 0.17312568 -0.3043637 -0.8535917 -0.1555617 0.47612828 0.15624325 -0.017019268 -0.27473077 -0.33507326 0.24380924 0.35688126 0.38337845 -0.4209123 -0.21932687 0.5777549 0.15298529 -0.08040271 0.4523168 0.22935021 -0.47600552 0.047588665 -0.5658313 -0.24987231 0.16366737 -0.35254014 0.12412896 -1.1152041 0.035805043 -0.46610716 0.073105104 0.037565045 0.29036438 -0.30048114 0.22704157 -0.14294443 0.27488658 -0.030530311 -0.36296907 -0.23981288 -0.718813 0.66830367 0.21312398 -0.74060965 -0.6634968 -0.15537648 0.52236706 -0.08473967 -0.7820281 -0.4913485 0.48500738 0.172395 -0.6185809 0.09786308 -0.6165937 -0.21421051 0.2699178 -0.107647 -0.49421552 -0.3921878 0.41786006 -0.6127217 0.1750529 -0.47282204 0.42800596 -0.004218663 0.2621097 0.07436115 -0.27299723 0.10883111 -0.55612767 0.5620369 -0.17784387 0.07417593 -0.25097054 -0.1877939 0.3355886 0.72131807 -0.113889135 -0.057386667 -0.03221351 0.0118060075 0.0038313232 0.046106692 0.38109866 -0.37107906 0.5170354 -0.8338867 -0.0822753 -0.54480296 0.36398065 -0.05870573 0.4262915 0.0799757 0.34798935 -0.16574644 -0.061756577 -0.12360069 0.05706246 -0.52045095 -0.3020918 0.05568203 -0.16420573 0.060782034 -0.069278255 0.4129502
38 -0.52160466 -0.4895767 -0.6033679 -0.88179016 -0.33199018 0.09353352 0.28987068 0.76803505 0.28751087 0.38327208 0.3171615 -0.30380318 0.43447375 0.66921246 0.54416656 0.17751461 0.20562355 0.53692585 0.3185982 0.7171831 -0.010697595 0.46160904 -0.69364166 0.3984997 -0.4818478 -0.8281367 -0.081640266 0.6616042 0.45534846 0.16729361 -0.054670874 -0.20959699 0.16380286 0.13818549 0.30372712 -0.4142735 -0.21580225 0.7488275 0.6866998 -0.35388085 0.4240629 0.26601955 -0.31757793 0.20356877 -0.59328556 -0.23600405 -0.09569131 -0.3972374 0.2232947 -1.1190256 0.24985121 -0.6547087 0.39629072 0.18047053 -0.0027090886 -0.11258651 0.09254365 -0.19610476 0.36363184 -0.14745268 -0.2897407 -0.22672904 -0.5516445 0.7067407 0.25249448 -0.5305451 -0.84859496 -0.21603383 0.11714731 -0.14785469 -0.7046097 -0.53903323 0.6561359 0.055177078 -0.62691545 0.11805192 -0.631975 -0.32114857 0.6592513 -0.17979616 -0.036116667 -0.30771875 0.06291782 -0.6591448 0.30672643 -0.77119213 0.6099514 -0.43957776 0.46291563 0.19804895 -0.16316894 0.41449255 -0.27503914 0.8385302 0.13955343 0.06408063 -0.18618521 0.054728515 0.19735917 0.5855005 -0.0823327 0.09547304 0.020406751 0.12836127 -0.20506123 0.15133017 0.19487494 -0.20563422 0.6791802 -0.4927452 0.15680395 -0.45297834 0.30965227 -0.17290446 0.48023906 0.25411594 0.4618621 -0.09822776 0.28824082 -0.026651658 -0.1982649 -0.56696016 -0.10904993 -0.029540839 -0.1371738 0.1373089 -0.30503583 0.0420196
39 -0.36892357 -0.37794873 -0.5127969 -0.77358353 -0.25360698 0.030490315 0.36813527 0.5260205 0.13302195 0.31717607 0.31490758 -0.1589073 0.389211 0.473244 0.41069806 0.1798165 0.23364857 0.6017473 0.25990573 0.6350307 -0.09400055 0.5327617 -0.66352266 0.24202435 -0.20867911 -0.95268154 -0.16480327 0.5156907 0.52112883 -0.0038748595 -0.07492466 -0.4185748 0.0673128 0.3454953 0.33090597 -0.4101568 -0.29566967 0.6939057 0.60485977 0.025233159 0.49415675 0.30064714 -0.5013643 0.21835361 -0.543007 -0.3273518 -0.07577254 -0.60783744 0.1143745 -1.0954608 0.26555514 -0.7154432 0.35613066 0.17156683 0.25047937 -0.043216266 0.12445216 -0.26748532 0.24211374 -0.20990063 -0.2500754 -0.30506504 -0.4770702 0.7779052 0.37750578 -0.6125531 -0.6939935 -0.18707989 0.31887236 -0.056534998 -0.50936395 -0.45449817 0.6214837 -0.007139102 -0.5544841 0.17983021 -0.7407329 -0.24409327 0.4558811 0.096985795 -0.27458772 -0.38822618 0.13676691 -0.7389221 0.33530805 -0.6778685 0.6607029 -0.19869442 0.40106112 -0.09910292 -0.261968 0.46817273 -0.40937865 0.6734727 0.09171906 0.19026126 -0.29553506 0.113037914 0.1277549 0.6629342 0.06149325 0.011396195 0.008847746 -0.11540074 -0.22517507 0.043327924 0.2184158 -0.00037606622 0.45420426 -0.75301933 -0.07535417 -0.27542445 0.39212254 -0.1264618 0.4960364 0.27122504 0.42578495 -0.3229759 0.12579925 -0.13881484 -0.1434808 -0.48073614 -0.068725705 0.4446413 -0.12226799 0.24942508 -0.20818822 0.286836
40 -0.4505324 -0.116781615 -0.34554493 -0.36581331 -0.060529716 0.15335613 0.29909188 0.5619796 -0.038361426 0.23715217 -0.109786786 -0.006181824 0.20197853 0.45801586 0.15458176 0.18697089 0.2891586 0.32670376 0.35342982 0.69366777 0.20204537 0.7512156 -0.69191617 0.33629987 -0.6233247 -0.7406667 -0.38448337 0.3402819 0.28140566 -0.041028243 -0.41219512 -0.16685511 0.29636306 0.30577385 0.46060473 -0.19078857 -0.045354746 0.5300852 0.27452174 0.12319634 0.52166617 0.22509813 -0.36834943 0.20690824 -0.40049145 -0.2198846 0.31970817 -0.3398664 0.22938192 -1.0054007 0.16011731 -0.3778651 0.22997484 0.15740135 0.008391729 -0.46283373 0.27454555 -0.21979718 0.330838 0.17684749 -0.39262575 -0.05640137 -0.6285754 0.56268185 0.06465786 -0.8244637 -0.64734983 0.033171095 0.4126023 -0.025605632 -0.38949707 -0.47819585 0.5495633 0.11728 -0.82551014 0.04368022 -0.47176588 -0.34280956 0.2881144 -0.065929346 -0.63037133 -0.5063924 0.1597466 -0.62407833 0.065801315 -0.5968671 0.37077495 0.15823424 0.28983828 0.150213 -0.19585367 0.09803722 -0.4182541 0.81466925 -0.24483348 -0.06591015 -0.20330988 -0.23109168 0.119601846 0.5721756 -0.042763527 -0.028780755 -0.15107025 -0.0050810846 -0.10126796 0.12506738 0.15057302 -0.43779978 0.5464494 -0.7020318 -0.077165596 -0.73679477 0.35518992 -0.12583917 0.103722535 0.15418935 0.05466199 -0.043579306 -0.063085705 0.25174388 0.0678253 -0.48190036 -0.4429247 -0.17824826 0.13417232 -0.11418842 -0.15404564 0.40139794
41 -0.064465486 -0.077334344 -0.20119801 -0.5521916 -0.24270687 0.011122382 0.21494833 0.58785987 0.031877276 0.5560254 0.2828601 -0.054531053 0.37123904 0.37626782 0.32354888 0.15112922 0.54626936 0.43069294 0.4571887 0.6470351 -0.097657375 0.8128881 -0.40026453 0.25453296 -0.39962375 -0.83699477 -0.34092242 0.51103395 0.4127252 -0.2987031 0.09496536 -0.41798258 0.24438874 0.50110555 0.43420514 -0.388519 -0.20194466 0.6632591 0.47844753 -0.0010881546 0.4394944 0.20493665 -0.35408002 0.02208454 -0.46675026 -0.13007195 0.09881856 -0.4018556 0.18604617 -1.1783856 0.19170636 -0.71348244 0.4058969 0.1784119 0.28094572 0.031082682 0.2945557 -0.09154419 0.18646747 -0.027162071 -0.33739433 -0.079948395 -0.27769548 0.80141824 0.35998973 -0.8704095 -0.7797575 -0.03892428 0.52233064 -0.20283155 -0.47760484 -0.63186324 0.75807506 -0.043299653 -0.6497892 0.24013737 -0.98229146 -0.41386107 0.3533712 -0.18365881 -0.42890888 -0.40461114 0.16225342 -0.8787157 0.18698916 -0.90602237 0.646172 -0.26032674 0.1821447 -0.1678747 -0.48564392 0.42586136 -0.07057947 0.56917214 -0.06557585 -0.15953766 -0.22525674 0.28540438 0.45367005 0.64910406 -0.040056374 -0.014145463 -0.003835081 -0.2852181 -0.20728627 0.14932281 0.36167592 -0.30067194 0.29563504 -0.6562069 0.02326285 -0.32257485 0.22747952 -0.2210521 0.33142346 0.20935339 0.35604155 -0.052472662 -0.01410593 -0.15280408 -0.08842104 -0.7627836 -0.4639737 0.27302286 0.050967626 0.42524233 -0.37733132 0.2208319
42 0.28049442 0.14251705 0.019661963 0.5801943 0.3221883 0.21930139 0.12435109 0.1943895 -0.40313762 -0.2917053 -0.43443486 0.6771278 -0.62946856 0.010282713 0.14345597 0.27847916 0.47507083 0.051472835 -0.071037665 0.3185856 -0.5954184 0.009955075 -0.123184115 -0.29621804 0.31598613 -0.4494223 -0.1309775 -0.69670707 -0.5494167 -0.53572255 -0.19903289 0.21680221 0.06910122 0.24544886 0.22047792 0.24171297 0.060285203 -0.13782828 -0.83231974 0.31939706 -0.68939877 0.19698508 -0.17410085 0.14301714 0.22556765 0.23094656 0.2195228 0.22487356 -0.11948727 -0.102105565 0.121164426 0.51142 -0.09402231 -0.32021397 0.67717636 0.06739786 0.22158614 0.09074521 0.6080789 -0.10466936 0.1258057 -0.246955 -0.7344629 -0.12803248 0.07499044 -0.029296475 -0.14598331 -0.12049311 0.4366096 0.05571014 -0.50025916 0.33231303 -0.1168232 -0.17647909 -0.15619169 -0.05760102 -0.20700023 -0.2753873 -0.06461314 0.467665 -0.17949648 0.0140864495 -0.10405968 0.48121217 -0.71294856 0.43048003 -0.2882414 0.18195094 0.16176844 -0.26074398 0.22808707 -0.8540812 0.07212703 -0.25757378 -0.5287821 0.112142906 0.4229381 -0.1671936 0.32646012 -0.581114 0.10772353 -0.59029436 0.0016857607 -0.5561897 0.4158372 -0.16448782 -0.008302674 -0.020784913 0.13413613 -0.079835564 -0.84226215 0.20521434 0.04138272 -0.2994845 -0.102796815 -0.08611426 -0.48791912 -0.5366691 -0.19728735 0.12850209 0.208466 -0.35046473 -0.41632688 -0.2125346 -0.043655325 -0.4738348 -0.10131118 0.2935469
43 -0.028013863 -0.36368126 0.24087065 0.58947074 0.019150862 0.114827245 0.5552065 0.43035614 -0.24817704 -0.3721159 -0.02186194 0.88370955 -0.37955955 0.21528576 0.02517904 0.067815974 0.5839587 0.1866393 -0.054962546 0.3859129 -0.31496954 0.43695542 -0.35500094 -0.6810391 0.3904412 -0.40692967 -0.29081395 -0.5004061 -0.6187654 -0.11658972 0.04932638 -0.07886205 -0.26995644 0.058249447 -0.17751598 -0.14637412 0.49934176 -0.440074 -0.3860164 0.105722144 -0.38605028 0.16021505 -0.47669128 0.12857392 -0.067520455 0.11520493 0.41673604 0.29130617 -0.028940253 -0.0001371204 -0.07283838 0.078612894 0.1900978 0.12521185 0.7478649 -0.07975645 0.21788208 -0.30347335 0.34571627 0.050829202 0.55429107 0.015496784 -1.0064527 0.07999021 -0.050527345 -0.59024906 -0.22048377 0.053857926 0.7166737 0.03299731 -0.39529994 0.24899977 0.08086789 -0.086447306 -0.056843195 -0.22130036 -0.37138006 -0.55855995 0.1615113 0.74716556 -0.15695663 0.19101375 0.2641597 -0.10705316 -0.37854525 0.54498804 -0.23242223 -0.11359386 0.07409471 -0.052647304 0.02058188 -0.48923975 0.008920489 0.18431981 -0.6745017 -0.07065422 -0.011276881 0.3785698 0.31448013 -0.36499146 -0.14647967 -0.6002217 0.19895796 -0.28185222 0.23347402 -0.4333439 0.20594811 -0.15209875 -0.04332866 0.15404008 -0.21103719 0.08462466 0.061724775 -0.13184719 0.16578506 -0.07729055 0.032050658 -0.32159278 0.21200077 -0.023454748 -0.08488957 -0.40195987 -0.19035745 -0.15199345 -0.1939451 -0.006485006 0.05433469 0.5975609
44 -0.6243791 -0.3934105 0.44044587 -0.8662553 -0.11977431 -0.4576556 1.1860632 0.46348283 0.5488198 -0.16367532 -0.52048504 0.055438053 -0.28287363 0.81602925 0.41786006 0.72153074 0.23881699 0.78778 0.44984618 0.58470845 -0.40795633 0.10841626 -0.66992533 -0.18205473 0.047236472 -0.73995435 0.19633912 0.110619254 -0.5784669 -0.1534182 0.11468419 -0.048035976 -0.0950628 -0.41392973 0.46746886 0.28071296 0.17744605 0.52496564 0.10121853 -0.24513064 0.40418503 0.30857292 -0.37997064 0.049260736 0.5461203 -0.3675727 -0.1257518 -0.26234198 0.14599323 -0.7190424 0.5612139 0.3312539 0.03358001 -0.5397235 0.122112185 0.116137855 0.059327733 -0.9764086 0.2940091 -0.39022055 -0.3295163 -0.18520202 -1.1398828 0.32763723 -0.12325463 -0.0766771 -1.0840337 0.14896072 0.117190406 0.08951801 -1.5108672 0.08158274 0.27784228 0.15685722 0.1918521 0.007120954 0.014700707 0.22389819 -0.1505275 -0.26040187 0.09193695 -0.4680773 0.04690444 0.39492905 -0.5520009 -0.4211444 -0.19504431 -0.970344 0.42528644 -0.22399567 -0.5695992 0.13747486 -0.33769947 0.38032237 0.03802052 -0.17545947 0.24418452 0.325935 -0.10694221 0.55983716 -0.01812652 -0.33573046 0.1508686 0.4867526 0.27014238 -0.3070671 -0.080000475 0.07300343 -0.48634306 0.43894464 -0.42060655 -0.47772673 0.4429265 0.38830522 0.06984058 -0.010250368 0.91391516 -0.519075 0.12409264 0.53471726 0.15155776 -0.019598903 0.7593409 -0.7022254 -0.43288195 0.44675645 -0.114951044 -1.0764724
45 -0.5530789 -0.12547466 0.75660074 -0.41237482 0.27508974 -0.098834455 0.9462571 0.37696737 0.37248138 -0.0034148344 -0.60120696 0.20515193 -0.47217017 0.51379216 -0.18582271 0.5838444 -0.118664704 0.354595 0.7635494 0.44107455 -0.17205785 -0.03546509 -0.6751678 -0.32166424 -0.24367514 -0.66091037 -0.056107115 -0.38041645 -0.68751097 -0.20092219 0.20137824 0.2573835 0.13461755 -0.22103731 0.8472658 -0.15954281 0.21927004 0.27272403 -0.07326731 0.19386858 0.47060052 0.3587813 -0.116033874 -0.301601 0.8714586 -0.23042189 0.16461062 0.451292 0.055235833 -0.48023957 0.10127483 0.5591214 0.2231663 -0.7270771 -0.16056092 -0.023025189 0.3012462 -0.4718856 0.4679366 -0.6023005 -0.19503915 0.13487509 -1.4867992 0.40237394 -0.3850747 0.2070882 -1.0348182 0.1411163 0.17516279 -0.14030291 -1.1266042 0.40817833 0.35338083 -0.15162386 -0.18428816 0.05886882 0.017065236 0.06632815 -0.45944017 -0.65789163 -0.055913433 -0.35075408 -0.025765015 0.45817673 -1.0108868 -0.3309069 -0.41591644 -0.46584085 0.42953235 -0.51069623 -0.8100898 -0.3051618 0.08126064 0.02449665 -0.030935181 -0.291219 0.44098297 -0.009835343 0.116156265 0.114737496 -0.00168429 -0.5039812 -0.2737532 0.19385546 0.27783683 -0.069913454 0.056401435 -0.41750464 -0.5582019 0.35348722 -0.55078137 -0.615683 0.06918774 0.45477727 -0.46224678 -0.31123897 0.811854 -0.246057 0.11771692 0.7014326 0.2374028 -0.047470182 0.3336776 -0.6907733 -0.24801958 0.42075217 -0.13094997 -0.9039525
46 -0.5385813 -0.50801206 0.6211043 -0.54717624 0.1097471 -0.43633333 1.2086426 0.23045754 0.31657636 -0.1962702 -0.45407456 0.19232409 -0.5352478 0.5690884 0.15185398 0.7633938 0.25972185 0.54720837 0.37769392 0.64331806 -0.29252684 0.09396413 -0.5278117 -0.36874852 0.092269585 -0.6914962 -0.116439804 -0.35812458 -0.73881704 -0.051511787 0.025970416 0.12142662 -0.105364814 -0.33117723 0.41686526 0.4763192 0.3277202 0.2197164 0.1511959 0.056800976 0.3138347 0.40695733 -0.4559572 0.09655977 0.6442184 -0.41701904 0.06511 0.015112333 0.23101203 -0.7672013 0.2495164 0.5391729 -0.07226709 -0.47046906 0.19572519 -0.14689595 0.27090618 -1.0044507 0.436821 -0.31765428 -0.2832895 0.046648454 -1.272469 0.14556186 -0.35773212 -0.32105142 -0.96894246 0.26590878 0.41498554 0.15968545 -1.1677122 0.4328379 0.16122313 0.34437585 0.2042568 -0.2633015 0.15314911 0.16920699 -0.33537734 0.034376897 -0.11880311 -0.35909 -0.08602767 0.38173592 -0.9678601 -0.0117770955 -0.41099265 -0.5316101 0.5040241 -0.21179828 -0.5869508 -0.062493745 -0.27950567 0.23188294 -0.2225925 -0.2521192 0.35450113 0.04989372 -0.38789198 0.5154349 -0.145922 -0.4548674 0.057643253 0.25763837 0.35557792 -0.46938923 -0.35669643 0.18547086 -0.6061701 0.4863226 -0.61417216 -0.23736101 0.34025812 0.54698056 -0.20211406 0.018529337 0.58039194 -0.4893917 -0.029245999 0.5888086 0.40638688 0.15767647 0.72703755 -0.9075847 -0.13665926 0.4308213 -0.06970511 -0.862846
47 -0.7087946 -0.5863944 0.45199358 -0.78510046 -0.083364725 -0.4928044 1.3444222 0.46569914 0.49477014 -0.25933397 -0.5939778 0.18037547 -0.470659 0.8237875 0.3012859 0.80577755 0.3462299 0.7880754 0.38706905 0.7090144 -0.27743545 0.13899806 -0.6578379 -0.24386153 0.11258134 -0.81066126 0.149384 -0.09978424 -0.7415566 -0.22745417 0.05346171 -0.000998649 -0.09903347 -0.44519886 0.37986887 0.44480523 0.17568237 0.42589596 0.10489838 -0.16852164 0.5220821 0.34145877 -0.4608529 -0.030976467 0.5707154 -0.43093905 0.07911579 -0.121620364 0.10780908 -0.7755852 0.3876256 0.5243088 -0.08021965 -0.5848718 0.21487466 -0.09431763 0.1940513 -1.0845716 0.44894278 -0.38465753 -0.24413545 -0.15850283 -1.2348933 0.29219857 -0.30450177 -0.26160076 -0.9401233 0.13431711 0.298085 0.109958135 -1.5574441 0.23410335 0.27059552 0.27876657 0.2910137 -0.099335544 0.15209077 0.24306604 -0.19528277 -0.06045145 0.042880625 -0.45712766 0.023921268 0.36082637 -0.70199686 -0.19314092 -0.50012493 -0.8675552 0.5982637 -0.22738823 -0.524896 -0.04934956 -0.4564712 0.31718802 -0.12888305 -0.25625882 0.3269501 0.25710517 -0.19835801 0.5996487 -0.061448645 -0.4686567 0.10916881 0.39271992 0.22145782 -0.3941496 -0.23256098 0.22910605 -0.5885548 0.58012766 -0.6157814 -0.43274015 0.35716343 0.5103397 -0.013538502 0.013884682 0.801382 -0.658867 0.18984258 0.6296977 0.22563027 0.10668269 0.9027716 -0.90355104 -0.26339987 0.47414058 -0.09588609 -1.0198666
48 -0.38739553 -1.0205247 0.12162132 0.18584721 -0.5367782 -0.60104454 1.207596 -0.40683842 0.2871687 -0.21999599 0.0008848904 0.4915258 -0.25803903 0.22555363 0.16802251 -0.00033371695 0.2686957 0.070011504 -0.48369756 0.38079405 -0.18012011 0.48551774 -0.24939263 -0.49474335 0.20474805 0.12963136 -0.09596767 -0.007923117 -0.33030173 0.26859182 0.70015264 0.023233078 -0.29050404 -0.6295344 -0.3221761 -0.09056453 0.44440764 -0.5299698 0.511117 -0.6017944 0.5306298 -0.41590992 -0.23383619 -0.16406403 -0.3127224 -0.3510296 0.5691238 -0.41110188 0.107526846 -0.13967311 -0.5592024 -0.33362108 -0.050172586 0.24291392 -0.49859107 -0.1281823 0.021562323 -0.8607789 0.275509 0.18965352 0.10410642 0.30100062 -0.8718018 0.25782987 -0.34774557 -1.0679992 -0.1877857 -0.34428927 0.026628371 -0.006360578 -0.5170685 -0.0023526761 0.55700445 0.8699869 -0.0861944 -0.53437245 -0.3461731 -0.75886357 0.19002505 0.5237488 0.23158607 0.36960226 0.8937083 0.023615822 0.25761837 0.48594245 0.03769281 -0.5439899 -0.059701692 0.091212496 -0.2222577 0.19329357 -0.34653464 0.9527844 -0.59619385 -0.7366981 -0.014803292 0.909186 -0.24618568 0.56827104 -0.7438919 -0.23320112 0.93194383 -0.01888082 0.18203986 -0.050321985 -0.108716935 0.25245932 -0.63511854 0.3892286 0.65635705 0.39747518 -0.025854778 0.29911122 0.4078738 0.07544565 0.8149467 0.3408087 0.64909965 0.07306244 -0.5901241 0.3102687 0.88449144 -0.43384382 -0.15503179 0.565569 -0.21040529 0.12020875
49 -0.42223433 -0.9786572 0.1684251 -0.04309905 -0.5274263 -0.5945243 1.3470757 -0.17452641 0.46598083 -0.13324042 -0.119882405 0.47539765 -0.22250505 0.47580138 0.19542351 0.016986253 0.26975527 0.25878915 -0.35102835 0.51246935 -0.24414949 0.56663007 -0.47990507 -0.5428975 0.29832613 -0.10293969 -0.022036102 0.05382641 -0.5865058 0.14873022 0.6605012 -0.06858753 -0.39195728 -0.64940614 -0.0717483 -0.18180467 0.34336492 -0.21440074 0.5560565 -0.5127364 0.6269642 -0.14780453 -0.3798029 -0.49148315 -0.20301236 -0.44740415 0.3453704 -0.3775022 0.07155175 -0.38998294 -0.44569546 -0.19546105 -0.14096303 -0.07144103 -0.3343107 -0.04874436 0.07356384 -0.8361464 0.3769916 -0.03792948 0.24088915 0.0838416 -0.9287966 0.30623928 -0.36498338 -0.82361865 -0.27114365 -0.39597693 0.10218815 0.1507578 -0.8284034 3.0527368e-05 0.5503157 0.70449036 -0.07930163 -0.2192605 -0.20236333 -0.54607373 0.14519098 0.24145849 0.28797513 0.18176812 0.8596792 -0.07467075 0.30643302 0.42806366 -0.061283357 -0.6889201 0.05412424 -0.0886711 -0.36155847 0.30159423 -0.45727575 0.76142365 -0.495889 -0.6858785 -0.06712338 1.0169605 -0.07961173 0.76842284 -0.7579016 -0.24676177 0.86099803 0.024011515 0.0066029923 -0.11659917 -0.061449867 0.15977225 -0.6042954 0.41708773 0.42208776 0.084979795 -0.019464277 0.51029694 0.28178236 0.06650914 1.2371492 0.13519694 0.6994001 0.13447611 -0.52949864 0.19898336 0.9815718 -0.32267132 -0.31861228 0.7623514 -0.34376314 -0.01643792
50 -0.09554336 -0.9423204 0.23976274 0.033001672 -0.43091244 -0.6297101 1.2373031 -0.37300998 0.23817088 0.11155497 0.35304332 0.4623209 -0.36129555 0.09818072 -0.13079584 0.018485667 0.22866212 0.03962976 -0.29483443 0.4105668 -0.2887172 0.43246093 -0.05081706 -0.7677023 0.35531157 0.023182604 -0.30084017 -0.038842633 -0.70640874 0.28773713 0.7953468 -0.15183842 -0.5204225 -0.3500423 -0.021734107 -0.01403353 0.5095906 -0.47730714 0.8796087 -0.19302909 0.7759908 -0.11026102 -0.4548352 -0.55300933 0.051365267 -0.6068609 0.37712124 -0.25753245 0.14057961 -0.42838 -0.7832316 -0.22986759 -0.24555944 0.012186277 -0.15415092 -0.13194185 0.32518506 -1.021125 0.40451995 -0.034815308 0.11784647 0.1381679 -0.72550493 0.11384571 -0.4825923 -1.0113181 -0.06499155 -0.27786008 0.33303046 0.22627535 -0.23922752 0.18921304 0.3458547 0.8028701 0.1277213 -0.21569785 -0.13799454 -0.5523105 -0.16030724 0.49085996 0.025601221 0.33791783 0.7282112 -0.21850419 0.16050872 0.61296743 0.030454028 -0.14101115 0.066508025 -0.2867915 -0.5694806 0.5325248 -0.2480921 0.54230434 -0.64219195 -0.7317226 -0.18599227 1.0676283 -0.27831396 0.9084928 -0.6721381 -0.12649137 0.84289104 -0.2391487 -0.02710834 -0.29469988 -0.21994807 0.32286382 -1.0134642 0.2801683 0.46385577 0.533299 -0.1627321 0.75619155 -0.012809584 0.15044138 1.023007 0.24565426 0.511191 -0.040410597 -0.40786725 0.19960158 0.8613328 -0.0072996165 -0.1526422 0.9219908 -0.15697107 0.06793837
51 -0.3804375 -1.068359 0.17254643 -0.44201088 -0.5488924 -0.5885366 0.953746 0.04254868 0.46657428 -0.104701824 0.18200113 0.09130844 0.0537088 0.3833836 0.3811125 -0.031681973 0.32479906 0.3646427 -0.23459902 0.47622722 -0.051058058 0.39030683 -0.33733818 -0.26950225 0.3254442 -0.033889025 0.06366169 0.3763666 -0.22634889 0.25191325 0.77389103 -0.1389554 -0.18790402 -0.7069495 -0.32529837 -0.33771 0.23496984 0.04631331 0.6130043 -0.8520039 0.48105568 -0.19566324 -0.23966956 -0.3728969 -0.4614573 -0.31843644 0.16249897 -0.27339417 0.20486537 -0.48230118 -0.29859233 -0.4195738 0.01119835 0.124403 -0.17772162 0.20122743 -0.0810403 -0.64851624 0.03473453 -0.006679183 0.1840758 0.12712176 -0.588238 0.4027506 -0.1177734 -0.79400223 -0.40631863 -0.20216724 0.0773783 -0.1566262 -0.92664546 -0.24847613 0.56135327 0.6658352 0.14953676 -0.30135176 -0.36814365 -0.41855276 0.4020215 0.047531035 0.5133324 0.2663599 0.66816133 -0.2842999 0.42434978 0.0640462 0.13783091 -1.0506406 0.07783212 0.10194188 -0.4343914 0.4862874 -0.25835958 0.46869618 -0.12688215 -0.61830854 0.027682012 0.8589739 -0.073528826 0.79242593 -0.78076464 -0.12383689 0.8536579 0.19929655 0.11284925 -0.14311633 0.0519524 0.08120643 -0.42608702 0.42756832 0.66585493 0.20135379 0.059948504 0.37886629 0.70886165 0.14562118 1.0960337 0.15150063 0.6080953 -0.13821714 -0.4276314 0.17834431 0.7786039 -0.41464424 -0.31267312 0.9324745 -0.3138303 -0.31754413
52 -0.31057528 -0.9290071 0.3509127 -0.036604986 -0.41302255 -0.57670087 1.0580523 -0.15624234 0.36006165 -0.12516746 -0.05199762 0.32617673 -0.18333307 0.22093914 0.17900805 -0.04643503 0.3152235 0.07919681 -0.32303712 0.5131683 0.041074224 0.42359293 -0.34212807 -0.4240524 0.257134 -0.010940017 -0.058379952 0.109428175 -0.34362188 0.07813391 0.81769043 0.028645374 -0.03900794 -0.65864277 -0.19943757 -0.41322547 0.28310773 -0.12347791 0.50208086 -0.6375759 0.6009433 -0.21257561 -0.26612073 -0.612109 -0.4538476 -0.22427393 0.38323122 -0.170606 0.12178126 -0.3718715 -0.5467749 -0.2560164 0.00077131717 0.03851524 -0.31456736 0.09489331 0.012747296 -0.4617002 0.13276654 0.07799493 0.2741185 0.24662608 -0.702189 0.49639794 -0.3052618 -0.8985398 -0.30447623 -0.32068628 0.18614624 -0.024411418 -0.879787 -0.069769695 0.667024 0.6376464 -0.073340796 -0.38058707 -0.34487772 -0.6094086 0.24360268 0.061952114 0.37468043 0.28738934 0.84849083 -0.26229686 0.28523093 0.28164202 -0.051056508 -0.74819225 -0.07340407 -0.0074906005 -0.5127584 0.25591463 -0.20471646 0.35536665 -0.35482645 -0.7271825 0.11484272 0.8088007 -0.00084224995 0.8141278 -0.8752527 -0.38460964 0.83168304 -0.014015229 0.14186497 0.0018650511 -0.012374268 -0.026060337 -0.5407673 0.36991915 0.5391418 0.20387535 -0.052058414 0.35042763 0.55244094 0.041050203 1.1441786 0.20437099 0.5858396 0.0035067145 -0.44248372 0.22940174 0.7050784 -0.37092727 -0.16814673 0.90614 -0.38978764 -0.058562946
53 -0.47235405 -1.0821711 0.2509441 0.051465772 -0.49501085 -0.39000076 0.95523614 -0.030911583 0.31797045 -0.20656082 0.07647206 0.4092514 -0.008882248 0.39161828 0.1406612 -0.20023629 0.2944169 0.2498046 -0.35094738 0.45183283 -0.003918934 0.64691174 -0.44542795 -0.4980665 0.36595038 0.034699954 -0.13679098 -0.034968525 -0.32394543 0.4025177 0.65815824 -0.06375495 -0.3091819 -0.67785317 -0.39089793 -0.46939507 0.38432327 -0.24878854 0.47757718 -0.65368414 0.27498397 -0.15938348 -0.31116995 -0.34010315 -0.5150247 -0.28885752 0.36407256 -0.021303581 0.17977636 -0.29468185 -0.45389205 -0.3717269 0.06416574 0.22434238 -0.124105446 -0.07228099 0.021545295 -0.52070004 0.165701 -0.0021399534 0.41481042 0.35125992 -0.90463203 0.27022445 -0.26459637 -0.92200476 -0.35152087 -0.10462148 0.22978885 -0.16186051 -0.6473853 -0.09249957 0.56142807 0.73786753 -0.03579237 -0.4051264 -0.39552772 -0.62374127 0.45892182 0.20840375 0.42159656 0.34436855 0.7751335 -0.3347767 0.3084921 0.4821909 -0.080706686 -0.86520016 0.003217654 0.16256458 -0.3478104 0.2145273 -0.23650466 0.5686177 -0.4404455 -0.7253133 -0.0502195 0.8119112 -0.019973094 0.48784086 -0.97015625 -0.2016725 0.7479662 0.10924646 0.09385124 -0.22046089 0.11649464 -0.084841736 -0.3171546 0.46108386 0.58374304 0.07951416 -0.10466782 0.3403734 0.54215777 0.10307964 0.9823779 0.27965242 0.6248769 -0.09399086 -0.43126094 0.16337565 0.65621513 -0.57653886 -0.25866818 0.7989741 -0.3200417 0.09075449
54 -0.40948153 -1.1406261 0.3924254 0.27920738 -0.39160696 -0.404293 1.1597406 -0.05554758 0.2594775 -0.26282656 0.22950737 0.65414065 -0.07830922 0.35853288 0.059611484 -0.20147498 0.41889903 0.16259527 -0.32156104 0.47519454 -0.0403966 0.72003055 -0.5154642 -0.7027423 0.39257357 -0.069769114 -0.30351666 -0.08163042 -0.55297744 0.4264115 0.61124444 -0.08855483 -0.49000072 -0.61678934 -0.42349532 -0.44254172 0.630165 -0.5297029 0.52653295 -0.3981663 0.3087389 -0.0822232 -0.48784903 -0.301711 -0.45681652 -0.3024854 0.44234538 -0.060867153 0.17530388 -0.18780151 -0.5257519 -0.38626805 0.10818368 0.33936033 -0.03689791 -0.11428382 0.07891705 -0.7711346 0.17302838 0.18006702 0.64789206 0.32889006 -1.0673428 0.2333459 -0.32187238 -1.0472288 -0.21556476 -0.11296287 0.44912505 0.11292714 -0.416232 0.09305772 0.45172223 0.57655513 -0.06970427 -0.39527702 -0.31392103 -0.7935488 0.29688132 0.5234345 0.14162028 0.39850214 0.81752384 -0.44589 0.24157497 0.64182717 -0.012322234 -0.5811701 -0.02287782 0.14884755 -0.37067315 0.23302332 -0.2669697 0.67910373 -0.6018809 -0.5464538 -0.22638527 0.9213342 -0.10580184 0.5347776 -0.8360799 -0.32448936 0.7690416 0.021496018 0.068970755 -0.3669166 0.077880055 -0.039258562 -0.40161926 0.38742808 0.6495832 0.110535525 0.024519531 0.42141637 0.4624702 0.046289667 0.94942695 0.18290071 0.72320014 -0.0823426 -0.4869819 0.09284824 0.6097339 -0.29941586 -0.27769658 0.76379585 -0.15497433 0.47725904
55 -0.57356644 0.18839858 -0.73993015 -0.2347051 0.011303451 0.102632314 0.6859207 0.54083675 -0.014040236 -0.27273598 -0.36440176 0.23905079 -0.35766572 0.15168151 0.3537765 0.47341412 -0.3799449 -0.07181909 0.019698255 0.5379847 -0.34026146 -0.40047273 -0.60960674 -0.32584825 -0.32399353 -0.5837963 0.3398659 0.4097958 0.28043368 -0.06432239 -0.13547136 0.061036397 0.25937533 0.5660643 0.12249769 -0.17282428 0.050895326 0.03482269 0.017508687 -0.047166273 0.2635859 0.031163333 -0.35559398 0.31115428 -0.076668985 0.19476025 0.08918435 -0.33301693 -0.25196177 -0.23077874 0.018470477 -0.057914156 0.06999315 -0.090979725 0.24045381 -0.4307199 0.11338195 0.123732924 0.30491737 0.20256543 -0.41704613 -0.4198304 -0.81720966 0.4183369 0.105910495 -0.13804641 -0.3953518 -0.48426637 0.014730295 0.48546216 -0.91517663 -0.03704712 0.20492129 -0.23673522 -0.29595372 -0.32992047 -0.3134833 -0.2780988 0.11218666 0.41920456 -0.14775833 -0.21981956 0.46221974 0.26474747 -0.07642113 -0.15343425 -0.011127831 0.21837918 -0.015719123 -0.035328165 0.09931265 -0.35019723 -0.34509596 0.40411657 -0.2015543 0.38945234 -0.12680686 -0.17762387 0.39682055 -0.05991884 0.1503472 -0.49668658 -0.061051987 0.06462911 0.28475705 0.069754735 0.13938595 0.037006613 0.24365959 -0.32840234 -0.21322097 -0.06864519 0.2670614 -0.55017054 0.441167 -0.21383128 0.5031686 -0.29726788 -0.13936305 -0.10751542 -0.17998464 -0.39708698 -0.19931789 0.33390948 -0.34204262 -0.6362241 0.28555647 0.2748546
56 -0.36498356 0.269796 -0.8047546 -0.48650792 -0.0122264335 0.016363002 0.6364363 0.18483132 -0.06967212 0.050774194 -0.09828638 -0.30744192 -0.3408631 -0.15838261 0.5019614 0.61601424 -0.5484096 -0.14334927 -0.0992703 0.36563188 -0.31542647 -0.7226944 -0.2055495 -0.20326264 -0.29085258 -0.7347144 0.37284514 0.27855247 0.9560657 -0.12054853 0.20162034 0.003933201 0.4962864 0.8910558 0.017008295 -0.2966068 -0.39907885 0.19421811 0.4274155 -0.13949752 0.24354585 0.014852097 -0.21831547 0.44509387 -0.3104812 0.25578982 -0.17338029 -0.41770962 -0.28489688 -0.44250265 -0.13319829 -0.27231026 0.27286738 0.09713837 0.12516412 -0.11028579 0.090909205 0.5269092 0.13561031 -0.05197948 -0.70468295 -0.15973198 -0.37536287 0.8089866 0.28280795 -0.103726804 -0.52662927 -0.72055054 -0.022640757 0.25365016 -0.8440402 0.028629856 0.651469 -0.20636795 -0.29657957 -0.556126 -0.8115825 -0.31322977 0.21255042 0.37497085 0.10398844 -0.23096809 0.3560674 0.1764628 -0.16880886 -0.32760978 0.11961867 0.22091375 -0.14433287 -0.17720331 -0.05785003 -0.24635628 -0.1480844 0.20913394 0.12929362 0.40638253 0.07664946 -0.2974902 0.27393693 0.0066855084 0.14697737 -0.5190302 -0.08538456 -0.29508963 0.27418953 0.3146946 -0.07148599 0.58414596 0.059631985 -0.4333684 -0.30719462 0.6926323 -0.026393726 -0.8202525 0.69162816 -0.0961839 0.503351 -0.19522499 -0.29389897 -0.43210965 -0.10537935 -0.29906234 0.12666684 0.7397448 -0.07026392 -0.19606423 0.08775005 0.050429896
57 -0.480732 0.16905776 -0.85513437 -0.6926638 -0.1474527 -0.02297785 0.6904947 0.414325 0.09510946 -0.0076724896 -0.08222043 -0.22280681 -0.12482418 0.029689064 0.5795432 0.52067167 -0.46486863 0.10401165 -0.048673615 0.439385 -0.3640941 -0.5410785 -0.41384304 -0.18450719 -0.15601729 -0.7785036 0.46575242 0.58034897 0.8178966 -0.0736064 0.12902912 -0.21072184 0.3291844 0.7762499 -0.00023572189 -0.39064488 -0.41295642 0.30994228 0.35689566 -0.17597246 0.3071376 0.04758939 -0.3193098 0.3713089 -0.32123706 0.1949135 -0.245071 -0.52326536 -0.29356468 -0.5105841 0.014166703 -0.39255896 0.20736167 0.03746624 0.31319278 -0.10534547 0.054115985 0.33837092 0.080540694 -0.06072492 -0.5767173 -0.3468491 -0.41531828 0.7603222 0.38803816 -0.07606053 -0.54782385 -0.6535167 0.0032181141 0.28021646 -1.0202849 -0.15695922 0.5181592 -0.23736012 -0.17170954 -0.3123527 -0.72765076 -0.16710852 0.23311591 0.293654 0.06926871 -0.26373684 0.48477468 0.0427837 0.07356676 -0.42120424 0.19033153 -0.030210635 -0.088490464 -0.16704911 -0.09378819 -0.11032534 -0.32853147 0.25842437 0.18684714 0.47893685 -0.09394049 -0.1185668 0.41360295 0.122562826 0.17637824 -0.40664834 -0.07300348 -0.09841477 0.20307611 0.18467864 0.15760417 0.5023178 0.13677791 -0.46609733 -0.22561705 0.39540866 0.085861675 -0.6907792 0.80895674 -0.11895181 0.6878222 -0.33469367 -0.21017164 -0.54184943 -0.19271493 -0.4125903 0.1489955 0.7909634 -0.32328737 -0.14552057 0.16643357 0.05000721
58 -0.39688152 0.3306204 -0.8835901 -0.27156118 -0.1256472 0.012058231 0.7797178 0.12774737 -0.10069216 -0.08647464 -0.2539753 -0.18701558 -0.43101865 -0.15611586 0.47284344 0.6015878 -0.5450995 -0.2340782 -0.31267276 0.30189627 -0.39618185 -0.76099926 -0.16105285 -0.38050985 -0.23241822 -0.54374176 0.46393082 0.20942745 0.84273285 -0.069210984 0.14691083 -0.0055995123 0.4288474 0.90902793 -0.18987888 -0.20986032 -0.2853756 -0.0375279 0.29175982 -0.1503588 0.1509082 -0.062213104 -0.22854792 0.46438065 -0.30551168 0.33140483 -0.11987039 -0.38824072 -0.34046936 -0.26956373 -0.18537183 -0.1892772 0.14034216 0.13736661 0.17592677 -0.2565903 0.1260599 0.5565713 0.15214959 0.07033908 -0.667951 -0.12936623 -0.39816877 0.59422326 0.22244528 -0.16047826 -0.37078905 -0.7245411 0.008360448 0.34246454 -0.7866381 0.051663034 0.5779886 -0.058884546 -0.20366086 -0.6129354 -0.6796821 -0.3002441 0.19248174 0.4998995 0.13765164 -0.21793382 0.54101956 0.3076963 -0.120120905 -0.029551921 -0.10872419 0.28569564 -0.3085303 -0.10089777 0.08629239 -0.37452552 -0.2031931 0.2556528 -0.05925303 0.33035055 -0.022640653 -0.22456634 0.29442245 -0.12923943 0.070693396 -0.5013948 -0.07950049 -0.28390056 0.3502524 0.23320816 -0.10422947 0.670333 -0.010022892 -0.30308613 -0.30317506 0.74237293 -0.1534315 -0.92229027 0.6618646 -0.13158244 0.5229766 -0.10600109 -0.3538894 -0.4573868 -0.17581315 -0.267049 0.18484578 0.64934087 -0.10244243 -0.3266281 0.16191024 0.15839304
59 -0.47773787 0.16868371 -0.77705544 -0.29744965 -0.0006062442 0.08929813 0.6483729 0.4230758 -0.08532188 -0.23645045 -0.42395294 0.13860598 -0.2337252 0.13872229 0.29132876 0.34564766 -0.58125085 0.009102744 -0.21025284 0.5086902 -0.21821001 -0.2983783 -0.5120087 -0.38074124 -0.20491831 -0.4900987 0.3495065 0.29573265 0.36764374 -0.033989746 -0.08995527 -0.060162492 0.27617764 0.50822675 0.14579214 -0.41171297 -0.08584776 0.20372768 0.04339364 -0.12332618 0.2220582 -0.027494706 -0.38390046 0.06985965 -0.34598693 0.097475335 0.047304578 -0.36321837 -0.33328107 -0.3056797 -0.16149867 -0.107784085 -0.0010300479 -0.071563125 0.21831985 -0.3130612 0.09552885 0.2646315 0.19011457 0.029387128 -0.4112328 -0.33678663 -0.6714165 0.5487498 0.13746887 -0.17781179 -0.37655407 -0.52304435 0.060119424 0.31163058 -0.9078586 -0.062349007 0.3087649 -0.043278437 -0.3514596 -0.3369375 -0.43538234 -0.17908739 0.16254458 0.29942048 0.058743045 -0.1855357 0.6286571 0.17895006 0.17366922 -0.031987257 -0.038977332 0.18054838 -0.20208257 -0.11553343 -0.003115337 -0.24959102 -0.42802012 0.2221533 -0.16166006 0.2262818 -0.13406233 -0.15875506 0.40410122 0.08435593 -0.14458545 -0.43678856 0.09584609 0.051116765 0.29771566 0.17730771 0.15256695 -0.01849303 0.13741837 -0.49746662 -0.14960167 0.042636234 0.13046433 -0.40479234 0.51894104 -0.13438734 0.6953643 -0.10438191 -0.0963057 -0.22084916 -0.17412588 -0.23856618 -0.0038149776 0.48510933 -0.34819886 -0.29347658 0.057465773 0.33506516
60 -0.336481 0.0831884 -0.73957705 -0.28357938 0.13344382 0.14395398 0.59128225 0.3182638 -0.1348396 -0.10929439 0.012839295 0.020849744 -0.5421307 -0.093299225 0.27727234 0.61263216 -0.65897214 -0.10248569 -0.09040101 0.27644056 -0.45621628 -0.9131347 -0.16793548 -0.5678714 -0.05911516 -0.58699846 0.29057324 -0.0057628797 0.5295841 0.06391176 0.15258166 0.12460391 0.17020106 0.7026271 0.02112674 -0.21328768 -0.019419026 -0.07005536 0.26312566 0.004967199 0.0018574088 0.065264635 -0.2729619 0.48739517 0.07013996 0.19906625 -0.121729314 -0.03637809 -0.34601748 -0.043501288 -0.1815889 0.0075846277 0.23295876 -0.035090152 0.38519287 -0.20643476 0.12857585 0.22151457 0.29171848 -0.18152736 -0.39570555 -0.2455187 -0.75586534 0.46238172 0.14784878 0.14627276 -0.39174834 -0.5610037 -0.05069288 0.27071235 -0.71990854 0.3678284 0.20431802 -0.32566765 0.0039223223 -0.5688616 -0.511966 -0.25380164 0.13545734 0.71324307 0.25755617 0.062152326 0.13945828 0.45728096 -0.40750396 0.06797242 -0.0724619 0.27375206 0.045798235 -0.28834817 0.07616187 -0.39902687 -0.032150716 0.052244157 -0.03900647 0.516639 0.14626344 -0.2031563 0.18895799 -0.5049449 0.1896427 -0.61877006 -0.07483381 -0.17132534 0.37642282 0.039138667 -0.07635841 0.47114393 -0.04844139 -0.13110067 -0.38344863 0.73992246 -0.016926033 -0.6026872 0.4258199 -0.1276654 0.35978487 -0.34695238 -0.1018521 -0.3671898 -0.10104848 -0.26552746 0.14254849 0.6005398 -0.2362939 -0.36418402 0.2947471 0.058559492
61 -0.30252326 0.11351193 -0.8116072 -0.4794171 0.026863702 0.023537936 0.6392651 0.19229996 -0.15040079 -0.09394006 0.0035194878 -0.1990312 -0.39641917 -0.21971647 0.39354002 0.57609886 -0.6599198 -0.07610797 -0.17336221 0.35341397 -0.43309924 -0.84677196 -0.17957628 -0.41840503 0.042860214 -0.5794356 0.38297197 0.23771599 0.85061646 -0.004252951 0.2892106 -0.09414993 0.3312613 0.8482202 -0.1569336 -0.3610216 -0.32629606 0.07608438 0.35483322 -0.08879753 0.13702425 -0.0263261 -0.28190818 0.42794734 -0.18752584 0.23780154 -0.16715801 -0.25230908 -0.32366708 -0.35752913 -0.22752328 -0.222519 0.16151959 0.041541886 0.3950847 -0.088908955 0.094594926 0.44128302 0.10445542 -0.18110476 -0.5640427 -0.2287945 -0.4793707 0.66315943 0.34141132 -0.055348977 -0.42796686 -0.62488127 0.016904898 0.17106381 -0.88167804 0.12015918 0.48816738 -0.11947949 -0.014411582 -0.59516984 -0.7658171 -0.19219698 0.22823364 0.57673466 0.26222175 -0.08087943 0.35621977 0.23170042 -0.15107901 -0.09406141 -0.015869483 0.15832546 -0.08729311 -0.3218819 -0.05954669 -0.2586871 -0.17498755 -0.036677975 0.12683086 0.39555243 0.1021778 -0.2394433 0.25771868 -0.22074956 0.08824208 -0.5288072 -0.030231247 -0.29078332 0.38099858 0.12726285 -0.055833694 0.6510204 -0.09484757 -0.34911403 -0.3662007 0.8876705 -0.08485347 -0.7216755 0.7666828 -0.1127104 0.508611 -0.3143894 -0.2906624 -0.61400884 -0.08612863 -0.20022714 0.14985812 0.74337554 -0.16461344 -0.11248552 0.22901277 0.035464767
62 -0.34081176 0.30036196 -0.77673405 -0.20227318 -0.039828915 -0.09184466 0.7336746 -0.05346434 -0.07978897 -0.17044525 -0.14152853 -0.17119347 -0.4243984 -0.32165295 0.46069318 0.5484291 -0.6680404 -0.3584962 -0.3091978 0.20994401 -0.452263 -0.8739445 -0.15122886 -0.43374273 -0.14701916 -0.2968546 0.48147896 0.27230412 0.88632214 0.053575933 0.3067347 0.020958358 0.38936806 0.8453809 -0.3288944 -0.22900178 -0.2302065 -0.23913501 0.28110653 -0.23781684 0.07887619 -0.2243664 -0.14042401 0.56095237 -0.19999424 0.36218506 -0.095030576 -0.41243246 -0.24634404 -0.15353112 -0.20145172 -0.25348935 0.12076403 0.20891033 0.099940374 -0.19923182 0.0041810386 0.51020265 0.03621092 0.16059767 -0.6904701 -0.065469146 -0.427008 0.55519783 0.25146434 -0.1842339 -0.39063182 -0.63794565 -0.11189667 0.31965685 -0.7643995 0.09524778 0.5278016 -0.0039320844 -0.12654023 -0.7674314 -0.7214961 -0.34630826 0.14450467 0.59872246 0.19068992 -0.10478746 0.55416274 0.4211249 -0.1502902 -0.05561963 -0.017145544 0.18211758 -0.35857353 -0.09164409 0.053065464 -0.3638269 -0.16649643 0.27514175 -7.319129e-05 0.3053368 0.026494825 -0.24957718 0.23844579 -0.20940714 0.01096289 -0.4839883 0.045424893 -0.23555331 0.5001177 0.18225008 -0.1090328 0.6924205 -0.1051892 -0.21284673 -0.15537031 0.8911396 -0.10649193 -0.91708905 0.7663773 -0.21968636 0.5435365 -0.025223898 -0.39521468 -0.51418835 -0.17225915 -0.14929555 0.13407671 0.6009736 -0.14593787 -0.3424107 0.2555548 0.11367603
63 -0.25090724 0.48512006 -0.7298776 -0.25467017 -0.0073955436 0.040036313 0.67767507 -0.027958902 -0.14523318 0.085053846 -0.19298205 -0.32285058 -0.4301772 -0.2634635 0.39222687 0.58394116 -0.7310744 -0.34461322 -0.23358606 0.22999299 -0.45275462 -0.85719734 -0.061924808 -0.39714143 -0.2533792 -0.51251256 0.413016 0.105367415 1.0320442 -0.038688194 0.2710539 0.031754415 0.5045527 1.0265737 -0.07030393 -0.31882113 -0.33114353 0.03626739 0.40485728 -0.08193344 0.09244463 -0.011727588 -0.1346854 0.47284475 -0.20737231 0.34572342 -0.20906971 -0.3413225 -0.31550857 -0.33286655 -0.1646787 -0.20155345 0.22134182 0.16479363 0.09741612 -0.1176172 0.11381255 0.72425586 0.08894435 -0.0699703 -0.7719945 -0.016812038 -0.32323688 0.724444 0.27777153 -0.035129055 -0.51634187 -0.721023 -0.03921557 0.26285753 -0.710622 0.14998816 0.6761808 -0.1579839 -0.30550078 -0.6465945 -0.83269703 -0.30710644 0.15066698 0.4096321 0.2172527 -0.23940738 0.4177084 0.33963302 -0.25251672 -0.17900622 -0.015906516 0.30382758 -0.36585855 -0.23793797 -0.058314256 -0.32121226 -0.0147471605 0.13624398 0.08522503 0.30542788 0.08090968 -0.32294336 0.24414583 -0.21593338 0.035290964 -0.492875 -0.10719276 -0.38080084 0.4027037 0.31161377 -0.1573602 0.6665319 -0.06831776 -0.3516289 -0.35359663 0.88235873 -0.21715628 -0.9555055 0.5960153 -0.1527171 0.5948301 -0.03010431 -0.4523857 -0.4552968 -0.10878394 -0.24823785 0.15436116 0.76846147 -0.06374765 -0.19610415 0.049348913 0.038771845
64 -0.39995903 0.32186124 -0.77275586 0.028707488 0.10792524 0.115475975 0.6454215 0.28473616 -0.2078334 -0.29015929 -0.46690127 0.2258878 -0.60023206 -0.035302382 0.2520118 0.51715475 -0.6240469 -0.31914216 -0.29309052 0.43871874 -0.37630183 -0.64246655 -0.28987575 -0.5412668 -0.28138173 -0.30706155 0.33224156 0.0796705 0.37672618 -0.032866064 -0.093684874 0.2233012 0.3518852 0.6027776 0.040411983 -0.09993082 0.11301182 -0.106415085 -0.008100578 -0.06386388 0.021180086 -0.084271625 -0.27826858 0.34912616 -0.080900945 0.28269354 0.12918343 -0.26259884 -0.3176683 -0.04172913 -0.17408326 0.121507 -0.017157672 -0.028881665 0.17299893 -0.43369 0.12712087 0.31140226 0.2989859 0.22773008 -0.5181606 -0.26461846 -0.72208524 0.3511965 0.021269383 -0.14733602 -0.32278553 -0.53900063 -0.07720039 0.4839361 -0.8093393 0.17798765 0.18865646 -0.07708592 -0.28442523 -0.657342 -0.30539247 -0.31118444 0.114961326 0.6319683 0.11138509 -0.078368485 0.44941902 0.5488233 -0.17478566 0.15111203 -0.21268257 0.40845928 -0.2344681 -0.057494562 0.21451476 -0.4999289 -0.22499232 0.26392686 -0.31525669 0.23841184 0.061304197 -0.28773853 0.26436564 -0.29603007 -0.048643146 -0.603786 0.08518594 -0.034607746 0.49278775 0.15279457 -0.10103563 0.157112 0.080238976 -0.24010018 -0.26368707 0.34237692 0.0915879 -0.6419878 0.37246642 -0.18063515 0.41244173 -0.10864546 -0.22628105 -0.07182715 -0.12112051 -0.20373775 -0.09195555 0.289449 -0.20091031 -0.66325873 0.15760656 0.26666525
65 -0.4161958 0.11032625 -0.8410049 -0.5767297 -0.065933816 -0.0049895607 0.6679021 0.2635045 -0.03498208 -0.11987231 -0.1048672 -0.15514587 -0.14195226 -0.08836599 0.47787324 0.43467525 -0.51855147 0.015468073 -0.122894 0.46670714 -0.37808776 -0.52832687 -0.48025936 -0.2787684 -0.07634008 -0.65777266 0.39383128 0.46192223 0.74456817 0.010180795 0.11308383 -0.19351931 0.30238307 0.7757383 -0.010155074 -0.41012156 -0.33078626 0.24201472 0.32066515 -0.08621586 0.25786814 0.08354501 -0.37551445 0.33233756 -0.36482623 0.11838574 -0.20641045 -0.51741135 -0.23325534 -0.5824255 -0.06376176 -0.37816295 0.06302706 0.053954117 0.34819093 -0.138419 0.050270982 0.37256363 0.08446714 -0.004328173 -0.5402391 -0.3494055 -0.4865314 0.666895 0.37242883 -0.19704393 -0.4675366 -0.58819467 0.086554594 0.34090364 -0.9116483 -0.1019321 0.4550353 -0.06313007 -0.21024516 -0.38390467 -0.6631409 -0.14232142 0.20667753 0.39558807 0.014497599 -0.27630892 0.5152349 0.024658706 0.12342517 -0.23787144 0.2021596 0.11900678 -0.10572258 -0.16230808 -0.10363858 -0.07519328 -0.41374934 0.17197894 0.10280869 0.4247192 -0.13190663 -0.23701471 0.28640977 0.20283177 0.01887816 -0.3700869 0.007584448 -0.1786989 0.3132772 0.0699764 0.0701367 0.43349 0.17050242 -0.58695537 -0.2578931 0.4270194 0.15860355 -0.6061582 0.79060256 -0.08793446 0.71902573 -0.28982952 -0.31669375 -0.5101904 -0.107001 -0.2519242 0.028336335 0.7572894 -0.28343716 -0.13934784 0.14068377 0.21571688
66 -0.39071938 0.3539092 -0.7584946 -0.09436382 0.14021541 0.108261794 0.6193864 0.35178277 -0.18866876 -0.19819868 -0.50184464 0.18374334 -0.55028284 0.022533122 0.29964787 0.5653723 -0.56228507 -0.18880334 -0.1695603 0.4800299 -0.34313953 -0.55572045 -0.3378259 -0.41219056 -0.35810626 -0.5001617 0.2796244 0.09982448 0.38928148 -0.13419624 -0.15251277 0.18654364 0.37690446 0.64634967 0.20744528 -0.087880656 0.019184392 0.051816463 -0.040659513 -0.020701721 0.09872831 -0.03764626 -0.2767311 0.34941188 -0.07519866 0.23325393 0.10152441 -0.2870267 -0.33744836 -0.18293776 -0.12066905 0.106284484 0.03251397 -0.09442728 0.17068489 -0.39498705 0.15697768 0.27585465 0.31636068 0.14406163 -0.57761055 -0.2966758 -0.7266539 0.4606925 0.068160266 -0.11213134 -0.39918283 -0.5504242 -0.01970843 0.4249123 -0.8792945 0.12367187 0.23358205 -0.1570889 -0.35816792 -0.5372557 -0.37414676 -0.28068304 0.060745552 0.5118416 -0.005189276 -0.16058077 0.403861 0.49455148 -0.25104612 -0.025038911 -0.105994485 0.39863887 -0.16200861 -0.121102355 0.13901654 -0.50606304 -0.26095253 0.2664844 -0.27670714 0.30308953 0.08706632 -0.30602482 0.3017154 -0.21108618 0.04671223 -0.60786545 0.017546188 -0.043738198 0.43446046 0.23357697 -0.023225492 0.10427207 0.10298677 -0.35057274 -0.34426856 0.24474804 0.16690168 -0.6000758 0.33843258 -0.16257758 0.35648215 -0.19868678 -0.21435215 -0.070619985 -0.08130789 -0.28678936 -0.062687725 0.34023976 -0.16806777 -0.61731356 0.1365779 0.23515758
67 -0.47433674 0.09993594 -1.0910486 -0.7488079 -0.18975452 0.074392244 0.5327536 0.4163085 0.09133196 0.03069297 -0.068402685 -0.446968 -0.08132224 0.017070727 0.705757 0.47345772 -0.6514068 -0.055708524 -0.09464837 0.47307152 -0.42208156 -0.707827 -0.4421047 -0.0677721 -0.33908784 -0.5684424 0.5336859 0.5978483 0.8039592 0.16418958 0.15079011 -0.050681233 0.42504874 0.7271681 0.015590744 -0.40052885 -0.431688 0.3292125 0.4100971 -0.45089015 0.16230509 0.05322929 -0.12375761 0.40904716 -0.38601083 0.20286988 -0.32950878 -0.39684802 -0.13871494 -0.6952393 -0.05387452 -0.371191 0.083604015 0.054433536 0.053051762 -0.112787984 0.016804656 0.5449884 0.25288802 -0.07473523 -0.74483985 -0.30431494 -0.4569844 0.6494589 0.32121658 -0.030456807 -0.6459016 -0.75083274 -0.1758828 0.1885772 -1.06831 -0.19671716 0.5547888 -0.00912455 -0.33653083 -0.40563753 -0.68214154 -0.18533327 0.38018054 0.086420335 0.25032622 -0.23965454 0.4072564 0.18472478 0.05276807 -0.39269552 0.26176605 -0.024070013 -0.03701509 0.06732272 0.054855127 -0.1362845 -0.27746361 0.3856544 0.21830995 0.3728894 0.0009056594 -0.34935796 0.36083403 0.09857357 -0.0018744308 -0.2112848 -0.021340184 -0.07148303 0.3213559 0.2630792 0.015118852 0.4026557 0.4138711 -0.45533633 -0.13333121 0.43894988 0.00026182525 -0.75839025 0.7652478 -0.08068275 0.681815 -0.044524696 -0.23924154 -0.46802965 -0.15715572 -0.38652673 0.037497137 0.42999005 -0.30737093 -0.3073566 0.04383017 -0.075126566
