246 128
0 0.28135735 0.34222415 -0.016661096 -0.04077105 -0.034707006 0.0037908573 -0.058540262 0.0854848 -0.023454415 0.15999785 -0.011436641 0.33985764 0.4079737 0.28822607 -0.09807115 0.098119915 0.18279833 -0.016436791 -0.10229993 -0.026263302 -0.06271804 0.38562065 1.0372574 -0.15714872 -0.015811676 -0.0121297175 -0.02406399 0.19176404 0.08219725 0.097124845 0.19439593 0.104401454 0.22058819 0.97547925 -0.063133724 0.40873745 -0.006839439 -0.08128115 -0.08299719 0.3207822 -0.081407204 -0.01900497 -0.04605788 -0.03484578 0.5813743 -0.0039375145 -0.042232513 -0.08803904 -0.011604339 0.10497126 0.01642692 0.25248468 0.16607851 -0.11027658 -0.062370885 0.21340658 0.12951379 0.36035 0.15502757 -0.02082306 0.27061534 1.1962619 -0.016366977 -0.062694766 -0.03226428 0.0989762 -0.029708674 -0.06491844 0.5400546 -0.011915209 -0.022615127 -0.006839242 0.017251858 -0.106700264 0.3201206 0.14741823 0.0044445284 0.0028970118 0.7430631 0.025900507 -0.044591025 0.040632777 1.0159249 0.47030804 0.5222343 -0.104705416 -0.021009726 -0.017293965 0.013755951 -0.09457881 -0.053476866 -0.038527757 -0.0054224073 0.0012214053 0.45461494 -0.03687026 0.03949581 -0.0697601 -0.008017953 0.47174537 0.36485982 -0.004538913 0.14496252 -0.045008656 -0.021615548 -0.04534919 0.51690894 -0.07998389 0.27725184 -0.059941884 0.5575818 -0.06634155 -0.10993363 -0.013173512 0.08829829 0.068973035 -0.063847944 -0.074317485 -0.015911521 -0.017813817 -0.010023081 0.43649447 0.65622056 0.56281906 0.38607165 0.3044748 -0.024369976 -0.021241346
1 0.24589172 0.3711176 0.056846622 -0.009451624 -0.05493173 -0.028648717 -0.044729386 0.10914338 0.16647615 0.593738 -0.12666583 0.19173735 0.17676815 1.0109615 -0.039925545 -0.01891361 0.2761375 0.01678123 -0.02967683 0.15932617 -0.007216394 0.14464396 0.32726046 -0.13779107 -0.022430306 0.13472997 0.09102425 0.047414966 0.24172351 0.028644223 0.5513022 -0.030624622 0.16545829 0.40670818 -0.04260493 0.2825886 0.42934567 0.34255248 -0.09000801 -0.041835148 0.021634798 -0.117295004 -0.07293224 -0.056534566 0.015154537 -0.061794706 -0.05901086 -0.0025081343 0.6474704 -0.04064563 0.67760545 -0.022540856 0.4578471 -0.015190849 -0.1049237 0.2510498 0.030643784 1.2584741 -0.019253878 -0.03046907 0.41652793 0.1445978 -0.039791144 -0.11487671 -0.027792871 -0.0150687415 0.4565163 -0.12554237 -0.054241706 -0.12329181 -0.03703425 -0.025636902 -0.01573699 -0.03772972 -0.018755926 0.102702565 0.14866842 0.24020202 0.68275964 -0.001166096 0.32756245 -0.037368674 0.9818257 -0.025476113 0.07640799 0.26718247 0.35240686 -0.024337022 0.13235049 -0.16761836 -0.06083238 -0.038702574 0.6255895 -0.04654891 0.7014232 0.0714783 -0.052467044 -0.055643965 -0.031997293 0.274499 0.2898391 0.009451006 -0.016935632 -0.0008160509 -0.09599046 -0.06159168 0.17667633 -0.09522483 0.52739745 0.30143166 -0.04261292 -0.039447673 -0.021697605 0.009204381 0.048416868 0.1324516 -0.052043278 -0.02242621 -0.06933224 0.17911536 0.11936921 0.15018907 0.014532356 -0.10672542 0.23801242 0.12722622 -0.10988927 -0.03556407
2 0.08086416 0.12517202 0.10246548 0.061973445 0.08371571 0.11360369 -0.015321585 0.04497343 0.08055767 0.085772164 -0.025630757 0.14234261 0.09556742 0.09378569 -0.0050726845 0.07301183 -0.014195846 0.1373983 0.08982903 0.03129546 -0.01800555 0.14992225 0.12077288 -0.021184823 0.06776843 0.08007739 0.04229216 0.10229008 0.09302148 0.163097 0.08254954 0.09753995 0.044436134 0.01769438 0.0843609 0.08786297 0.16378082 0.020666152 -0.01021438 0.09359872 0.08999218 -0.023337757 0.1178498 0.05750311 0.08101906 0.022603245 0.08508822 0.03964741 0.113808975 0.07768933 0.12386594 0.009637389 0.019229935 0.012337108 -0.0035283738 0.14241512 0.076895356 0.14503129 0.065354906 0.01299154 0.10049586 0.13754246 -0.0027514321 0.031729147 0.002282668 0.008262768 0.0049626874 -0.009998514 0.02137154 0.008380657 0.015746396 0.09771919 0.0387415 0.019149918 0.07612926 0.04343549 0.07414805 0.06196658 0.10523708 0.031138616 0.100737676 0.105284475 0.08006175 0.12975001 0.049926035 -0.018476946 0.1180117 -0.02726455 0.18381265 0.060233697 0.09577048 -0.008137966 0.10552487 -0.009620343 0.13504788 0.06911086 0.15257162 0.1344943 0.08421475 0.092497975 0.09603953 0.033043068 0.07048495 0.07506104 0.022423588 0.1521413 0.08739301 -0.011198762 0.13284056 0.061214477 0.022745438 0.054771967 0.027344568 0.0025040163 0.09760067 0.099037334 0.05929848 0.14355095 -0.0040458245 0.091474675 0.099877596 0.08342241 0.00774749 0.0020829625 0.16989438 0.05498716 -0.016297475 0.066753656
79 -0.012952863 0.17574789 0.072846696 -0.08403716 -0.023198789 0.26145893 -0.012458701 -0.0308397 0.30481628 0.08572381 0.013936583 0.35470837 0.23659536 0.008530831 -0.03456801 -0.032116216 0.3144135 -0.0005721957 0.21172589 0.2483862 -0.073353454 0.27070093 1.4978821 -0.15294383 -0.012029453 -0.01918224 0.09988792 0.05117441 0.6089327 0.14129454 -0.06360486 -0.012302374 0.012512266 -0.09304443 0.040759467 0.18567957 -0.0044488795 -0.06681266 -0.027423156 0.01060155 -0.007615366 0.18843547 0.043238916 -0.029912544 -0.013205859 -0.025125269 0.028746542 -0.031834356 -0.0005738378 -0.041743707 0.20088199 -0.053220432 -0.010873911 0.038143914 0.29969612 0.3484543 -0.014250824 0.7120806 0.092062704 0.4007037 -0.02399509 -0.018144555 0.37958336 -0.07262433 -0.060310062 -0.09202664 -0.059072148 -0.07079597 0.04013512 -0.0077852653 -0.06734704 -0.040017433 0.040156834 -0.018429691 0.116079055 0.05738478 -0.036311436 0.13772376 0.21278559 -0.05344894 -0.017982278 0.07818224 -0.006646935 0.48124143 0.07351213 -0.08279153 0.06593378 -0.023408202 0.22776161 -0.008831677 -0.014762709 0.26725453 0.20754616 -0.014272653 0.82420164 -0.008526984 0.05447704 0.19506417 0.14203484 0.028806213 0.17886367 -0.018356074 -0.0212322 0.107756235 0.008789752 0.5446932 -0.007189897 -0.029552225 0.10044713 0.104565926 -0.0123366825 -0.009323128 -0.033855896 0.46410432 0.14370969 -0.040460814 -0.07233804 -0.05911548 0.2621708 0.25613302 -0.004445181 -0.08657045 0.17822008 -0.06957399 0.21325491 -0.038362768 0.007394146 0.21903652
55 0.67931926 1.1673794 1.3321859 -0.059498977 0.0015507778 1.1524718 -0.13452934 0.50622094 0.89040554 0.22081296 -0.17155135 1.0405852 0.41388938 0.7396132 -0.11648633 0.2969907 0.108340114 0.863514 0.5707572 0.1857389 -0.19419347 1.2958454 1.7069745 -0.3454673 -0.018284108 0.03393056 0.7142007 0.8306579 1.2522606 0.66459125 -0.05261408 0.2031908 0.4635826 -0.03729601 0.3208145 0.7636235 0.8867765 -0.034554746 -0.054562367 0.27045336 0.4186557 -0.208702 0.11160145 -0.06400416 0.65680295 0.108438 1.07392 0.47344637 0.6724486 0.46695277 0.4088321 0.2827464 -0.060786005 -0.06691004 -0.038247637 1.0361786 -0.050160166 1.202764 1.0870467 0.62274235 1.2920119 0.9723425 -0.15625219 -0.065671936 -0.015197343 -0.08955953 -0.059579562 -0.129663 0.3214661 -0.05862492 -0.03776151 0.44307283 0.4833703 0.017711613 0.43334073 0.405263 0.3230714 0.557355 1.1533835 -0.023363812 0.18899766 0.47928154 0.78373563 0.7125625 -0.06866335 -0.3100691 0.8864233 -0.15178108 0.9772601 0.2725846 0.63139635 -0.016316837 1.3852081 0.42523772 1.0787469 0.6471776 0.76893663 -0.0040705833 0.64356 0.7611428 1.2542763 0.22426537 0.33329186 0.7978683 -0.0024460554 1.0976156 0.10096552 -0.10820573 1.4927164 0.85561794 0.6678556 0.37204924 0.04813859 0.3319038 1.0631064 0.058687847 0.631038 0.10028755 0.3055576 0.5192831 0.49666098 0.15318772 0.2849683 0.2502895 1.5842099 0.38530388 -0.081537664 0.4762199
57 0.1810084 0.5817275 0.92561877 -0.01892517 -0.022287276 0.6220712 -0.082548484 -0.01317361 0.5560553 -0.022956876 -0.041953057 0.32088196 0.22239146 0.4134497 -0.066921614 0.051009905 0.04955554 0.114459924 0.352946 0.12061179 -0.12276941 0.54580426 0.92859393 -0.18973255 -0.0010469567 0.0051677944 0.072337374 0.5591972 0.4303686 0.28000653 -0.034951955 0.07823528 0.10784543 -0.009426332 0.0932451 0.5030217 0.28924635 -0.06747662 -0.059856325 0.005197067 0.2442857 -0.11959448 -0.014844514 -0.09263233 0.24681069 0.024356352 0.09393485 -0.000659325 0.22113541 0.16735697 0.15685238 -0.015225673 0.30788034 -0.03973359 -0.0003606649 0.48246348 -0.023368675 0.48469272 0.43330148 0.2539997 0.5080271 0.41754037 -0.070654 -0.06551254 -0.010151138 -0.09273935 -0.09476781 -0.09002959 -0.012391377 -0.056179017 -0.012645784 0.04861747 0.21933256 -0.031807154 0.051899664 0.07153481 -0.038407627 0.45566425 0.51242334 -0.024805268 -0.0023844193 0.3745761 0.5179944 0.3084367 -0.08802159 -0.19991463 0.408486 -0.107868485 0.36987448 -0.03156586 0.04766756 -0.019576585 0.91607004 0.064197846 0.61792034 0.26753214 0.25710583 -0.0057753837 0.1832272 0.16649733 0.6188925 -0.0140760485 0.07936693 0.34107256 0.01218228 0.21941946 0.0259564 -0.016625889 0.88677365 0.24237226 -0.016814843 0.1519571 -0.07326369 0.023329783 0.40007102 -0.010100509 0.14221333 -0.0115775615 0.32145503 0.3922491 0.058444265 -0.03774593 0.08113377 -0.009400943 1.1297477 0.105220824 0.07285721 0.16327524
59 0.49909166 0.85556847 1.1502364 -0.008904854 0.16745181 0.94745475 -0.099963725 0.3029909 0.7703816 0.15844274 -0.10975625 0.8485716 0.48878768 0.6298152 -0.075378545 0.3021731 0.17934334 0.51266766 0.67440784 0.23062477 -0.13866012 0.943337 1.4520371 -0.28355417 0.06344535 0.0840768 0.16182496 0.81995976 1.0339212 0.45003358 -0.018380096 0.2240243 0.1352631 -0.035226252 0.25594226 0.5324194 0.83323574 -0.038930725 -0.012142351 0.19791302 0.41830075 -0.15965816 0.23313895 -0.0359186 0.40263817 0.15090653 0.70544237 0.30099046 0.5128622 0.42121062 0.28108346 0.17918599 -0.033354852 -0.009184111 -0.00617692 0.6450068 -0.039049387 0.8299362 0.81090134 0.47843403 1.0628669 0.623868 -0.119825855 -0.03146251 0.029791778 -0.039124858 -0.048773315 -0.09303563 0.27526048 -0.018738454 0.0042747883 0.29578725 0.45832652 0.1281185 0.39702392 0.37492257 0.208493 0.60669196 0.81310046 0.093841396 0.13495038 0.500582 0.66533947 0.54071426 -0.04834581 -0.22351737 0.55846614 -0.11500084 0.45872924 0.12841693 0.33645996 -0.028702676 1.111413 0.3445113 0.9025844 0.72002584 0.49968776 0.09700193 0.57316834 0.5141667 1.070405 0.380591 0.26839718 0.56023425 0.13833223 0.7373914 0.026330806 -0.06967727 1.2997774 0.5151754 0.24642755 0.37788293 -0.005228767 0.42845127 0.72600657 -0.006547221 0.7673943 0.1828731 0.04716562 0.6172521 0.45499268 -0.0032089402 0.18787268 0.2025939 1.3655274 0.30274275 -0.037072983 0.39719743
65 -0.020892547 0.25629768 0.25048128 -0.042143963 -0.051076658 0.17313693 -0.011617552 -0.054924965 0.12544559 -0.050293516 0.27264613 -0.004128702 0.1015811 0.1614997 -0.011506046 -0.02560372 0.41521975 -0.032467704 0.120730154 0.09854422 -0.06750564 0.089479834 0.5192543 -0.10526456 -0.037680335 -0.041124944 -0.002281015 0.13940412 0.14533812 -0.015409589 -0.016079163 -0.023247672 -0.0068134046 -0.046587512 -0.03828432 0.11002311 -0.018405227 -0.04689801 -0.025065893 -0.0056796474 -0.0068475776 -0.04052926 -0.03206573 -0.06354554 -0.03026312 -0.028183987 0.0012696795 -0.042833712 -0.036618877 -0.037681993 -0.0113612395 -0.05765021 0.08464687 -0.01308413 -0.009338205 -0.010799728 -0.043985967 0.118649244 -0.0011211507 0.051106527 0.05927639 -0.0040938556 0.15401432 -0.06561359 -0.03994609 -0.04495842 -0.034452703 -0.025759568 -0.026417539 -0.037320018 -0.02321375 -0.0316618 -0.022719862 -0.03444681 -0.0020915107 -0.024064261 -0.049667463 0.11076774 0.03162039 -0.05018977 -0.03372836 -0.014485359 0.051151216 0.10476444 -0.04506398 -0.075284414 0.098046325 -0.02309827 -0.007650713 -0.046164334 -0.04830263 0.10539281 0.28926456 -0.025062202 0.19029419 0.03514547 -0.0049520866 0.016291687 -0.003985235 -0.016457101 0.089266285 -0.0074209394 0.007826149 -0.027079618 -0.038450632 0.020056106 -0.031196928 0.074396804 0.2491643 0.051487297 -0.018256435 -0.022884812 -0.056769837 0.06427756 0.10802676 -0.017102292 -0.024007905 -0.039098065 0.12079193 0.11840242 -0.02517969 -0.06841547 -0.017583553 -0.049904224 0.223015 -0.04140526 0.05586583 -0.000962165
67 -0.011827054 0.11072035 -0.00064220506 -0.04909053 -0.015627699 0.119922824 -0.008640536 -0.043142606 0.18182746 -0.0135381315 0.04961218 0.03573231 -0.002021029 0.114467986 -0.008282171 -0.006735876 0.22094151 -0.0044910386 0.096081875 0.0649668 -0.032380234 0.0014668927 0.2784766 -0.04698349 -0.0177678 -0.02275542 -0.012023799 0.11119099 0.17258702 -0.0007956492 0.0343313 0.060283896 -0.019875815 -0.037784666 -0.021911291 0.16871165 -0.0038279982 -0.032743506 -0.007282497 0.0036325455 -0.014416846 -0.018936804 -0.0061557232 -0.015349047 -0.021329386 -0.015241029 -0.011226903 -0.028743336 -0.018301124 -0.031018853 0.053760003 -0.019091371 0.101830244 0.00107479 0.07955048 -0.0050967936 -0.002948488 0.21374013 -0.022316469 0.022326758 0.10650253 -0.00267615 0.09659079 -0.044222888 -0.023384726 -0.03164806 -0.020086298 -0.026983604 -0.025114728 -0.018250415 -0.028492818 -0.003883658 -0.009296937 -0.009827984 0.059066154 -0.03724204 -0.014581394 0.04317097 0.0635286 -0.012820735 -0.0072934716 0.014342647 -0.0020813425 0.09715561 -0.024660883 -0.03574956 0.074490115 -0.023875553 0.06660995 -0.024291573 -0.004169926 0.12157467 0.1412139 -0.018532446 0.12971166 -0.010037671 -0.011058374 0.07398773 0.09031877 -0.021751521 0.06868026 -0.01645518 -0.0043806634 -0.0051719905 -0.012059248 0.14834851 -0.03222242 -0.0013463944 0.09325355 0.056155235 -0.023731394 -0.019890826 -0.016150204 0.12362229 0.0731304 -0.016850656 -0.00818895 -0.016833795 0.06835429 0.08841501 -0.011406292 -0.046774186 0.0044186637 -0.02611485 0.20650607 -0.050330143 0.017112551 0.065643236
34 0.25659123 0.18724887 0.20284875 -0.09755351 -0.018900665 0.45172527 -0.040745925 -0.0028144903 -0.0019201128 0.09710708 -0.07107111 0.5146078 0.18487637 0.28550842 -0.056813385 0.12630072 0.9786182 0.055525403 0.2844612 0.33535975 -0.10749262 0.45837542 2.0724583 -0.20091093 -0.05743913 -0.05124107 0.45018032 0.2997809 0.6296553 0.12928964 0.3038451 -0.00974968 0.26924154 -0.02391657 -0.023443995 0.30497414 0.32807326 -0.09357172 -0.10276487 0.64732873 0.2937048 -0.0025985276 -0.009458255 -0.020347241 0.3146609 -0.022285717 0.13264924 -0.025866736 -0.048970547 0.013203964 0.10688212 0.32493153 -0.03677233 -0.09041544 0.10499286 0.05705452 -0.024647428 0.59234107 0.18061163 -0.007834332 0.09939435 0.29974267 -0.031113893 -0.059719022 -0.063737005 0.06996869 -0.13943058 -0.109761275 0.1300028 0.0047926363 -0.08900789 -0.03516983 0.15468284 0.26669246 0.25655037 0.23989767 -0.020039214 0.22064309 0.7468847 0.19729738 -0.04993725 0.08000912 0.3868341 0.4552157 0.29645067 -0.059017193 0.14505817 0.14923483 0.12455392 -0.05760503 -0.009495671 -0.038234666 0.054298624 -0.008279561 0.34816235 -0.0241729 0.32138932 -0.055402875 -0.020889128 0.37261197 0.2585227 0.44329774 0.05527603 -0.029598394 -0.02901498 0.16606435 0.28104547 -0.09191733 0.23086233 0.30310497 0.3326857 -0.0686905 -0.09445016 0.23173001 0.32903647 -0.057360686 -0.022630377 -0.027538145 -0.07193359 -0.015423933 0.039738704 -0.024952335 0.49366447 0.1501817 0.6032662 0.08076951 0.2412634 0.0919563
36 0.11592611 0.0010025688 0.060976986 -0.06807809 -0.021493776 0.24278297 -0.033911303 -0.02572844 -0.011152091 -0.0034611449 -0.024585918 0.19972718 0.18272662 0.1913077 -0.051037487 0.08361328 0.64028305 -0.025825227 0.22929773 0.19320978 -0.061828375 0.13250951 1.568924 -0.1050092 -0.0314796 -0.030306771 0.19663201 0.19197884 0.44910178 0.06719464 0.33923328 -0.021422444 0.048635423 0.047256835 -0.018480403 0.20587839 0.008818675 -0.07642906 -0.07459177 0.40779004 0.20714827 0.09438509 0.0732231 -0.019506037 0.18505548 -0.010016741 -0.013494824 -0.039961558 -0.06636848 -0.0010963146 0.19961685 0.2148822 -0.0018080164 -0.0565398 0.20354404 -0.017611442 0.10388501 0.4195876 0.0980092 -0.0064359116 -0.0058785947 0.09661018 0.023148756 -0.05727104 -0.03947733 -0.0005348615 -0.10804416 -0.07812052 0.058363046 0.026068008 -0.06024189 -0.019587416 0.01779767 0.077838406 0.13836849 0.045321323 -0.03997773 0.20266838 0.47686636 0.03283167 -0.051324237 0.15837073 0.21317843 0.29524362 0.18905616 -0.036971733 0.08173798 0.15828809 0.045427967 -0.06220761 -0.035439253 -0.018944798 -0.00433848 -0.020049265 0.26997802 -0.030247374 0.17213735 -0.050009962 -0.023398677 0.15983322 0.07324374 0.16874088 -0.008139508 -0.034263153 -0.026849926 -0.016170016 0.18531922 -0.041169576 0.065362215 0.12326955 0.04686654 -0.038158953 -0.12091365 0.20550023 0.18903072 -0.045426354 -0.047768097 -0.009143291 -0.019791046 -0.0038789918 -0.017248172 -0.026474947 0.39494288 -0.0057870303 0.37334543 -0.006221357 0.33393884 -0.011912458
37 0.23786122 0.19050214 0.15133609 -0.06073457 -0.018560914 0.41430268 -0.04891545 0.10337174 0.17071581 0.15658472 -0.07387052 0.49382296 0.17015767 0.20427592 -0.051185448 0.15101413 0.6957468 0.055402827 0.19943738 0.23903948 -0.08811173 0.4387417 1.6084328 -0.14987901 -0.015644852 -0.017982969 0.15757988 0.15810303 0.63840514 0.18937397 0.3050606 0.11958657 0.076630205 -0.012937318 -0.0018982542 0.25513715 0.26843438 -0.036411393 -0.0455149 0.42321953 0.23637508 -0.013740527 -0.0060801967 -0.016634893 0.20670621 -0.011928043 0.15352322 -0.01648339 -0.024334574 0.03365536 0.2803855 0.31426546 -0.047277473 -0.035699874 0.23038022 0.098029025 -0.018893538 0.40034592 0.27984685 -0.0027068274 0.1686181 0.11983346 -0.025066022 -0.036154456 -0.016987627 0.04804098 -0.0612619 -0.07748647 0.0927876 0.07976368 -0.065557204 -0.015444437 0.16668561 0.22246037 0.16491956 0.22961271 0.092005074 0.26502293 0.55326366 0.114315905 -0.032789353 0.16551149 0.34480914 0.3332221 0.12744269 -0.07577201 0.23105831 0.12835677 0.084294796 -0.034578815 -0.0018973731 -0.04765853 0.0738222 0.025987526 0.34161967 -0.0012591191 0.23888111 -0.016622081 -0.008318759 0.38496786 0.23534518 0.38772163 0.19323552 -0.019609315 -0.009241453 0.21068652 0.1785967 -0.068046816 0.34871846 0.20993268 0.14900477 -0.02418504 -0.07921507 0.30481777 0.23790999 -0.029409362 0.13069329 -0.018030507 -0.06418815 0.091383785 0.04013003 -0.022202358 0.35294452 0.1457339 0.6161674 0.035227556 0.15162979 0.24383363
38 0.03225988 0.034835484 -0.00030758456 -0.06567114 -0.022190856 0.21803834 -0.0362343 -0.01883153 0.12564212 0.11907394 -0.027710432 0.15631594 0.030837476 0.11983151 -0.031898744 0.008331079 0.6026412 -0.009300372 0.11390748 0.16509964 -0.034031127 0.08570129 1.0207031 -0.08164994 -0.015427663 -0.021656014 0.041441087 0.06756098 0.35569546 0.023006588 0.34820542 0.148447 -0.001002835 -0.009853786 -0.017583733 0.22177799 0.058465984 -0.046075366 -0.03991909 0.28942537 0.092683 0.015770435 -0.0105000315 0.004964128 0.0779424 -0.0037922233 -0.014431498 -0.04533388 -0.036162183 -0.019575745 0.16339235 0.03167111 -0.0013190228 -0.013329747 0.17087813 -0.009047779 0.15083832 0.32270038 -0.00032800008 -0.0023682795 0.0237468 0.017564591 0.16952583 -0.031977862 -0.024275124 -0.0152153745 -0.05482265 -0.052898802 -0.013955915 0.006730208 -0.059111286 -0.015843347 0.03728565 0.12550643 0.113255315 -0.00052988157 -0.016806416 0.1308979 0.2807859 0.048762433 -0.03040328 0.060570404 0.106395796 0.19835739 0.045240983 -0.031347793 0.05873376 0.05759189 0.08660799 -0.05002631 -0.014115432 -0.025308296 -0.0067572445 -0.014923251 0.25362977 -0.016684955 0.10010605 -0.018411858 -0.0075524426 0.019137256 -0.0018420607 0.07339916 0.14945352 -0.02875176 -0.028958851 0.09768158 0.07220578 -0.037598144 0.10500629 0.094014615 0.14248689 -0.02496921 -0.06291623 0.22955625 0.11311711 -0.023418546 -0.016105143 -0.02581881 -0.023436088 0.1037733 -0.008628309 -0.0357007 0.17299403 0.1034128 0.40401697 -0.020868292 0.1889627 0.15977475
39 0.0016144831 0.06445436 -0.0054571605 -0.05814823 -0.04348472 0.08930523 -0.0012163045 -0.029172404 -0.005829944 -0.009592002 0.10065414 0.06987904 0.02739203 -0.0030322883 -0.028314723 -0.013520203 0.62012815 -0.027669668 0.11949117 0.106589265 -0.031625416 0.0152975805 0.8104271 -0.07848583 -0.03161231 -0.04349816 0.07974467 -0.0049302923 0.21542817 -0.008538386 0.099411905 -0.015380144 -0.0074556577 -0.028668001 -0.025241746 0.07247185 -0.0049738437 -0.04412122 -0.045943987 0.16225493 0.049861375 0.09198946 -0.018193457 -0.03264121 -0.014459774 -0.030557944 0.03493706 -0.038259365 -0.059584677 -0.023051217 0.060170572 -0.01557771 -0.01635381 -0.018887023 0.12183518 -0.027406532 -0.02394978 0.21347012 -0.012773986 -0.00022754111 -0.021987522 -0.011150292 0.2870469 -0.048884112 -0.039780244 -0.016505428 -0.06705302 -0.013816426 -0.009775756 -0.009492263 -0.023664739 -0.032749053 -0.0132196145 -0.0049386322 0.036669523 -0.017157007 -0.028913816 0.12184745 0.10836835 -0.01917508 -0.05279115 -0.02674445 -0.0034416446 0.1366175 -0.009525165 -0.024028182 0.019215772 0.20829198 -0.0068035484 -0.04988563 -0.04246595 -0.021359472 0.019933103 -0.02259492 0.16371769 -0.016657699 0.116960436 -0.019000059 -0.027708773 -0.006421488 -0.024480859 0.08646691 0.010774285 -0.049296618 -0.033868495 0.041695967 0.040197626 -0.008842195 -0.0001475528 0.05328902 0.060008567 -0.029897207 -0.064243816 0.108283564 0.09734397 -0.024734756 -0.029357849 -0.04579736 -0.016162122 0.017163891 -0.027077604 -0.047442593 0.03436154 -0.021369753 0.12638003 -0.031706106 0.19123931 0.02164351
80 0.4060272 0.3185856 0.3397985 -0.044586584 0.056953143 0.41365668 -0.070911914 0.23357718 0.2841468 0.15489121 -0.11254581 0.705438 0.27831498 0.28728953 -0.0470093 0.05671275 0.17788124 0.56285185 0.30095166 0.1377859 -0.0530509 0.6810645 1.0017986 -0.18660186 0.005297018 0.091839716 0.6718887 0.23184 0.72435397 0.21912189 -0.04055635 0.09053914 0.28170538 -0.04625581 0.08826775 0.115170136 0.6252383 -0.014249834 0.009691012 0.13134333 0.13979357 -0.06489998 0.17605081 0.12613054 0.42886072 -0.011986585 0.57436717 0.12427877 0.32635486 0.29759166 0.1731814 0.023639996 -0.09583259 0.08638134 -0.003897956 0.4916194 -0.0422919 0.60516137 0.620093 0.40502492 0.5432139 0.23180375 -0.08664473 -0.013716996 -0.020554367 -0.031101823 0.0801298 -0.08087219 0.14636014 -0.011532298 -0.05830505 0.1759162 0.15135618 0.046719916 0.25280294 0.2855643 0.23805383 0.2808331 0.40816084 -0.013747926 0.12159113 0.07140807 0.10116696 0.36786366 0.06160935 -0.10266825 0.3691706 -0.0066616326 0.5135069 0.26678726 0.21762402 0.15475872 0.319467 0.29458833 0.51820076 0.227516 0.4763723 0.18841092 0.37981305 0.37003666 0.56299585 0.34635884 -0.0013595999 0.33904427 -0.001727926 0.81524676 0.16990256 -0.04474373 0.46857762 0.4548918 0.41213968 0.12164306 0.40858236 0.22636914 0.5165606 -0.00924443 0.27513966 0.1166061 0.074643955 0.25550538 0.44219726 0.19525693 0.08496362 0.21934187 0.407757 0.12690088 -0.057706833 0.3564056
64 0.4384201 0.69486725 0.76595 -0.052737605 -0.0019024821 0.63889563 -0.09380855 0.2693976 0.43290886 0.06663967 -0.09302472 0.59039515 0.27417946 0.41676062 -0.07114037 0.023603998 0.19253314 0.5887264 0.31510663 0.18344997 -0.097181536 0.7062329 1.0138133 -0.21842876 -0.03215226 -0.014194364 0.90035796 0.30109197 0.8870788 0.18440713 -0.04083956 -0.0061105 0.08746758 -0.045327205 -0.015757965 0.28061563 0.70989317 -0.01179366 0.01895901 0.19341943 0.060131263 -0.1300074 0.04075721 -0.009098811 0.30355245 -0.029841274 0.9644717 0.21238792 0.30338496 0.2632975 0.22678845 0.041823354 -0.08595909 -0.016964516 -0.021211829 0.5098765 -0.05750091 0.66625655 0.6876868 0.31280163 0.6428144 0.3028517 -0.111127876 -0.05224504 -0.05382655 -0.04538731 -0.00026205202 -0.06393509 0.09783355 -0.061306406 -0.048146408 0.17883904 0.119583316 0.021578424 0.29564956 0.22739634 0.1891133 0.3015599 0.49047697 -0.036100138 0.004940672 0.2431559 0.26473275 0.3830384 -0.0490555 -0.16029422 0.5368314 -0.038189422 0.4214417 0.10779858 0.35128063 0.1604642 0.5996249 0.3210545 0.54406166 0.35781583 0.42588735 -0.050879218 0.44728485 0.48808587 0.66870785 0.010427397 -0.0036589399 0.36171272 -0.051027305 0.7176325 0.088876694 -0.03352202 0.7859347 0.73204273 0.42637202 0.04624735 0.33013907 0.053503014 0.6352364 -0.022588706 0.32557374 0.13697362 0.15747754 0.28675926 0.35451546 0.13879104 -0.016395966 0.042266905 0.7498485 0.17296709 -0.079404645 0.24376953
66 0.32882 0.6184451 0.56328756 -0.05549357 0.075521804 0.5240996 -0.07948737 0.28014085 0.2959765 0.10822459 -0.08587527 0.58469623 0.2743139 0.33337662 -0.062100966 0.14421389 0.1593503 0.6974114 0.3444218 0.06701465 -0.08895436 0.6377904 0.8914996 -0.1865011 -0.016373178 -0.004979958 0.7642057 0.24371953 0.6990621 0.23924899 -0.04452162 -0.01643901 0.080434285 -0.054399457 -0.0023698465 0.23956068 0.6832911 0.04392637 -0.007915471 0.1120092 -0.0028566024 -0.10266032 0.12497859 0.023755807 0.35179037 -0.025674907 0.93030363 0.2850829 0.22832698 0.26352718 0.26523158 0.10377292 -0.10847479 -0.024214638 -0.029310463 0.45038387 -0.046489775 0.60587996 0.53528976 0.2672552 0.65971196 0.39027166 -0.10275888 -0.029956793 -0.06328174 -0.03509826 -0.0021067625 -0.07082575 0.16490813 -0.034283455 -0.026048396 0.3044125 0.106218524 -0.0015320173 0.25647396 0.13234508 0.33084008 0.31177616 0.5128614 -0.013147743 0.14825764 0.16825673 0.21033397 0.3164616 -0.03692915 -0.11854563 0.5893864 -0.0075972155 0.35801718 0.16783269 0.3610326 0.16034508 0.53898555 0.27607647 0.51161253 0.293196 0.48898795 -0.02024879 0.32472956 0.41723648 0.5809004 0.103264794 -0.005502227 0.3838233 -0.045049485 0.68544644 0.05482819 -0.054343533 0.65151733 0.73351836 0.5300556 -0.0019758195 0.3193569 0.0933122 0.6165881 -0.026848946 0.26300547 0.10532329 0.116926 0.094619386 0.35369718 0.1771413 0.009103751 0.13399293 0.7072017 0.16286318 -0.06533207 0.25659493
231 0.011806479 0.29094493 0.19638297 -0.002849054 -0.077535026 0.6638768 -0.054244675 -0.07387476 0.6741043 0.5684334 -0.17242041 0.5448445 0.0044052377 1.0473888 -0.11924811 0.5650294 0.33058438 0.9018989 0.1866008 1.0579224 -0.13359366 0.2759388 0.8383183 -0.21220239 0.059694394 0.00018631201 0.31254774 0.5960772 0.08482298 0.37671453 0.59884304 -0.017406806 -0.08629496 -0.053102147 -0.06827376 0.8823563 0.083471105 0.37070137 -0.18173943 0.23893532 -0.0027821462 -0.15613425 -0.08336893 -0.07383513 0.36160666 -0.0937536 -0.0064281337 -0.06788229 1.3566526 0.29761812 0.57998776 -0.023954496 -0.120322764 -0.18213032 -0.13007456 0.38274217 -0.015399088 0.80423903 -0.026638806 -0.07717742 0.42074704 0.15129542 -0.09404625 -0.104821645 -0.104664005 -0.08049711 -0.114128605 -0.12349617 -0.03972008 -0.105202034 -0.013782029 -0.0074807415 0.02763193 -0.09008319 0.4275517 0.30097985 -0.01706702 0.28623974 0.028285 -0.106965296 0.18266608 -0.041961413 0.63768923 -0.033278387 0.0043303426 0.11108312 0.95032156 -0.18239526 0.16671456 -0.057369597 -0.076280415 -0.040650483 0.7129673 -0.0077445656 0.3462641 0.06854195 0.35781434 -0.005541676 0.14018705 0.55366075 0.5712259 0.68291 -0.044674803 0.55839765 -0.00632585 -0.041456174 0.01699159 -0.19007206 0.79646176 1.1263391 0.39869443 0.15879038 -0.0755937 -0.052461572 0.5092494 0.3750529 -0.047095437 0.21650183 -0.14251338 0.4700284 0.52423245 -0.036272563 -0.036409073 -0.1109422 0.6284252 -0.032138646 -0.14515904 -0.02028415
237 -0.0058900854 0.05254424 0.092914134 -0.0038694718 -0.06373015 0.37411603 -0.014502222 -0.056375492 0.34872478 0.40154868 -0.12710685 0.32787603 -0.01782728 0.8255972 -0.07076617 0.30792966 0.21718252 0.766716 0.09013911 0.6599112 -0.0950045 0.032503534 0.3371965 -0.14034823 0.22900577 -0.002902123 0.14016575 0.26703876 0.10075571 0.077744216 0.3410265 -0.017484194 -0.05707841 -0.056168884 -0.04310894 0.69054645 0.057073448 0.3773425 -0.103690885 0.032143664 -0.0045515494 -0.11234348 -0.06966626 -0.060798645 0.09935948 -0.08564681 -0.013892072 -0.06741478 1.0785296 0.13240573 0.5249439 -0.037640296 -0.07189874 -0.12891309 -0.10679585 0.21950103 -0.028788293 0.46790645 -0.06293234 -0.048665144 0.26328436 -0.0026306252 -0.04992102 -0.065820776 -0.082427226 -0.042965587 -0.067474954 -0.0824352 -0.060404655 -0.08806616 -0.00819269 0.11312185 -0.022718003 -0.051882237 0.18968076 0.26587498 -0.0025581643 0.14966047 0.026227925 -0.093314685 0.1575004 -0.055539478 0.4525244 -0.025967354 -0.008467205 0.24509053 0.83498883 -0.12185097 0.17594986 -0.07050983 -0.036568943 -0.01557638 0.49856967 -0.008828657 0.17430909 -0.018558543 0.12759116 -0.02772607 0.010546603 0.13531554 0.24662232 0.7265644 -0.039478738 0.2548497 -0.02709344 -0.050656714 0.0059958696 -0.09187152 0.70702714 0.73141766 0.05320515 0.060370125 -0.04885949 -0.04130985 0.4012016 0.10386442 -0.031285144 0.4082915 -0.08930199 0.21791597 0.2817113 -0.03289204 -0.026575921 -0.06676748 0.39678934 -0.024576861 -0.098810636 -0.029835558
238 -0.011762621 0.07072164 0.09107524 -0.003190778 -0.05747608 0.32162085 -0.021105852 -0.051531404 0.29538825 0.38982928 -0.11409575 0.27456537 -0.02366755 0.71506083 -0.05208922 0.2907286 0.19648474 0.7227259 0.030056328 0.6044837 -0.09390909 -0.00043330863 0.31039557 -0.12707947 0.2534127 -0.0071367878 0.1316157 0.23719718 0.04419669 0.05105584 0.250423 -0.017497009 -0.052891087 -0.051401943 -0.045153003 0.62400115 0.047358137 0.3274684 -0.09243665 0.08871804 0.0082806805 -0.09297644 -0.061541375 -0.060555615 0.08960952 -0.07740893 -0.010719708 -0.06418219 0.92000115 0.094480895 0.45195708 -0.038309105 -0.07546227 -0.117204204 -0.093853824 0.14281124 -0.018245935 0.3790989 -0.057134718 -0.042816516 0.16961141 0.038879633 -0.038948268 -0.05499391 -0.07139271 -0.037146516 -0.0711196 -0.067936465 -0.044408467 -0.08369415 -0.006804758 0.11803919 -0.021714127 -0.04878688 0.15373763 0.29647768 0.0077591427 0.11519899 -4.3720006e-06 -0.08499589 0.10218097 -0.0450052 0.41745725 -0.023311732 -0.0014964279 0.2113702 0.7614749 -0.10581728 0.13736083 -0.04919699 -0.03355327 -0.014932898 0.42133817 0.017652871 0.11193761 -0.022977388 0.13468164 -0.02639069 0.028776232 0.1451126 0.20642358 0.63008374 -0.03345188 0.24376756 -0.013939223 -0.050732326 -0.0025786706 -0.07289892 0.62928087 0.67452645 0.0522034 0.023494147 -0.04600029 -0.03869156 0.3875855 0.05711181 -0.026582766 0.40475228 -0.08536345 0.15059508 0.28978696 -0.038031228 -0.021682931 -0.05491687 0.3739885 -0.018226385 -0.087599516 -0.03373104
243 -0.017932117 0.021146294 0.023131948 0.021594662 -0.022613665 0.01156546 -0.0010757694 -0.019052355 0.10052763 0.12758407 -0.04341083 0.076886624 -0.011648419 0.16776311 -0.005149919 -0.001779949 0.06489923 0.1932802 -0.0058741653 0.22043651 -0.026042534 -0.009987579 0.111896545 -0.049106248 0.09069135 -0.011045839 0.071716085 0.013029158 0.020429436 0.00963069 0.0055289194 -0.020866647 -0.024821673 -0.020390764 -0.020151531 0.1964003 0.034766596 0.09645602 -0.038492188 0.026910987 -0.0065881885 -0.033767935 -0.021736566 -0.02656427 -0.008502602 -0.05087467 -0.016647497 -0.031945925 0.24958068 -0.011963114 0.17730786 -0.024644678 -0.017787846 -0.02633142 -0.024560507 -0.0012595672 -0.0111693 0.16288461 -0.031753622 -0.027282253 0.008973379 -0.016234376 0.016969021 -0.036694866 -0.04314217 -0.029337272 -0.020719785 -0.027568994 -0.0226434 -0.040357944 -0.0067336434 0.057449337 -0.020976566 -0.021916566 -0.008979931 0.12054791 -0.00064498634 0.054258246 0.022712272 -0.027774146 0.0077498835 -0.02633117 0.13392913 -0.017694559 -0.001957027 0.14931613 0.1965082 -0.022362176 -0.00043702798 -0.029602958 -0.015792862 0.008202022 0.1320623 -0.015623626 0.0271598 -0.0084168855 -0.0028618784 -0.01158893 -0.010265152 -0.006108109 0.06779073 0.19311985 -0.02351107 0.03321451 -0.011786111 -0.018540513 0.0149916 -0.022911983 0.2532472 0.18160772 -0.008343776 -0.010793935 -0.0066389474 -0.011610201 0.10633203 -0.015302218 -0.035923447 0.14892791 -0.027352808 0.029557576 0.027798548 -0.0115518 -0.018758928 -0.028585121 0.047185168 -0.017445287 -0.025216362 -0.01770039
244 -0.013983995 -0.0031240599 -0.0022247967 0.0044931956 -0.0019349883 0.02196058 0.02376183 -0.01342243 0.09415736 0.061630294 -0.019276503 0.043495025 -0.0075931475 0.053207554 -0.0050919526 0.025007874 0.020820059 0.09919087 -0.0030850165 0.13163663 -0.01226103 -0.001885527 0.070307516 -0.023022942 0.05995536 -0.005427663 0.02373134 0.028094545 0.013195854 0.01821186 0.030873112 -0.015900759 -0.01622139 -0.016256962 -0.0075200857 0.08845845 -0.0015471083 0.029538129 -0.030826205 -0.0014328834 0.0057450635 -0.015459037 -0.012990415 -0.021020709 -0.0050383704 -0.024163635 -0.0029408736 -0.029645273 0.11557472 -0.0051766224 0.09860434 -0.01389263 -0.0119205555 -0.017861575 -0.013932963 0.030234983 -0.0056385077 0.04343214 -0.011366664 -0.017619884 0.003057491 -0.004582132 0.02607166 -0.01797772 -0.032808833 -0.014477411 -0.017046152 -0.010802894 -0.007530612 -0.013468749 -0.002798005 0.061771322 -0.0077398913 -0.010132864 -0.00037142338 0.08703357 -0.007399597 0.031559736 0.006293688 -0.021349622 0.0077422094 -0.013432848 0.05377163 -0.004566849 -0.001005097 0.04816347 0.1382746 -0.010715187 0.046247505 -0.014620553 -0.0024340309 0.021953534 0.049624562 -0.0073973807 0.011772694 -0.010021423 0.014390968 0.0043455586 -0.004288573 -0.0033989758 0.019504089 0.14616928 -0.0083646355 -0.00040364938 -0.005716884 -0.008866007 -0.0010239087 -0.02048031 0.13370508 0.09507486 -0.008130828 -0.0044151237 0.006262688 -0.0039160354 0.028403778 -0.010049874 -0.027739344 0.08015077 -0.014492976 0.01828763 0.049889144 -0.007944034 -0.010416771 -0.011993307 0.045510724 -0.01567701 -0.012529336 0.0022842037
77 0.08715337 0.115627766 0.093312114 -0.0028200669 -0.0065619894 0.16757333 -0.050236423 0.07432644 0.28932413 0.009187046 -0.07237553 0.39957327 0.025012773 0.11185137 0.0036046812 -0.010818482 0.09383752 0.32534823 0.12845904 0.20689279 -0.039718874 0.35841057 0.67289335 -0.14450131 -0.0058032884 -0.013911098 0.5159102 0.013779715 0.34531173 0.039198134 -0.032772887 -0.01502845 0.22594242 -0.03678919 0.11178943 0.08374651 0.29708558 -0.010310763 -0.029300455 0.13932365 -0.012769288 -0.024404848 -0.0073002465 -0.011031428 0.18200476 -0.04371243 0.22993428 0.0050360598 0.11050847 -0.013011227 0.11387602 -0.027107392 -0.0842714 0.05315693 -0.026479661 0.41123706 -0.037803676 0.4080305 0.20899023 0.23763154 0.14445594 0.1222811 -0.06084175 -0.039722122 -0.034118615 -0.06829899 -0.011230655 -0.04751001 -0.017755378 -0.018426878 -0.04760135 0.032039445 0.01985103 -0.009670763 0.02988302 0.26048118 0.08290195 0.1506943 0.21732126 -0.042004544 0.013302995 -0.016976759 -0.0041785496 0.11494606 -0.006171612 -0.039976683 0.24414913 0.10427492 0.28309378 0.17205277 0.13811629 0.16410518 0.10586296 0.18215331 0.32494447 0.06769757 0.28802156 0.018613396 0.24691063 0.33837092 0.14425284 0.15170085 -0.02430035 0.19106287 -0.008851345 0.53116375 0.16133994 -0.017509246 0.1439932 0.13155662 0.24191184 -0.017466685 0.40493083 0.114223026 0.22473745 -0.015015167 -0.023487126 0.058788173 0.15180583 0.17873569 0.24101907 0.0905925 -0.034119215 -0.022395412 0.21415295 0.042839836 -0.058305133 0.19483328
3 0.33924457 0.9701522 1.2045398 -0.046098568 0.39055973 1.1849971 -0.12590301 0.5714764 0.7823055 0.44810808 -0.113985956 1.448762 0.6603861 0.882794 1.2210606 1.2124139 -0.20220165 1.5601943 1.1452179 0.122584395 -0.22095414 1.6420056 1.7184079 -0.29665 -0.022370255 0.5070161 0.62837297 1.6188749 1.0361283 0.85269624 0.12402999 -0.009165558 0.40496445 -0.06678876 0.32247606 0.6834051 1.0375682 0.28760198 -0.17941995 0.33268374 0.940328 -0.2184637 0.15845934 0.2374746 0.8270914 0.54656225 1.6126084 0.98816216 1.1831688 0.6335954 0.5257964 0.4711516 0.074399136 -0.018923067 -0.01754853 0.74961317 -0.066479854 1.1689909 1.0659862 0.45202443 0.88643736 1.0732749 -0.13759612 -0.026986623 0.011138713 0.012472918 -0.08127972 -0.21411255 0.17608497 -0.07999803 -0.088827714 0.76652664 0.89239794 0.119782075 0.4186807 0.55706453 0.44062045 1.4615358 0.84219086 -0.056963302 0.56555766 2.1742926 0.73090816 1.132226 -0.07801952 -0.2037655 0.6177757 -0.18699585 0.9051111 1.6063422 0.95459 -0.010517667 0.83605564 -0.030154077 1.0283364 0.4405479 0.8940989 0.44944832 0.8411334 0.61357385 0.51944685 1.51922 0.24489537 1.4221239 0.014488988 1.5839887 0.5194557 -0.20084016 1.4735633 0.9380351 0.9455812 0.3022667 0.21193627 0.53933823 1.2427326 0.62561905 -0.036331158 1.0292283 0.24572061 0.72041047 0.98161376 0.00767125 0.40410423 0.39941436 2.6447115 0.5170699 -0.024765491 0.3389181
4 0.0755216 0.6533583 0.9343311 -0.0013600811 0.27960715 0.9885281 -0.087896466 0.22898836 0.64694923 0.24599512 -0.053461242 1.1079912 0.48916796 0.76505303 1.0587631 1.0478737 -0.1924614 0.92994344 1.0440118 0.075119294 -0.16278675 1.2937168 1.2982192 -0.1868665 0.10151002 0.35722962 0.06818475 1.341604 0.7656307 0.567271 0.303478 -0.055461135 0.2232705 -0.020594034 0.33620724 0.5000381 0.8544383 -0.0033164658 -0.14220856 0.17546679 0.86648375 -0.17017904 0.023295645 0.17774074 0.62222 0.6565547 0.9077879 0.6435561 1.0137527 0.42699304 0.36893827 0.31849667 0.33488557 -0.0030259704 -0.025041053 0.5646606 -0.002924353 0.9215598 0.7574599 0.45652646 0.65894806 0.864402 -0.10638137 -0.03643723 0.10338551 0.03412711 -0.08533996 -0.15000132 0.03845239 -0.036915064 -0.06187566 0.5980199 0.82397366 -0.0028142615 0.22017413 0.44654256 0.19646779 1.3855151 0.602982 -0.051549148 0.2630306 2.0027351 0.64147556 0.9399253 -0.06262426 -0.16146371 0.29130775 -0.19417118 0.635638 1.18594 0.6478024 -0.0050752675 0.5402985 -0.04309502 0.7177628 0.38133028 0.82990223 0.34949553 0.4968065 0.28165692 0.4605689 1.1265463 0.218097 1.1448946 -0.008017219 0.9065052 0.42073983 -0.18379386 1.1254158 0.33930486 0.47689342 0.374351 -0.011271278 0.40323335 0.95656294 0.617268 -0.047525026 0.9692438 0.18866442 0.68787766 0.8222482 -0.0050806245 0.0674463 0.10396964 2.2698972 0.45436957 -0.00481566 0.26455995
5 -0.0032010954 0.60983557 0.87048185 -0.01300557 0.18565123 0.9016945 -0.080977365 0.07007405 0.48756272 0.13161197 -0.02971187 0.95452446 0.5049784 0.764801 1.115096 0.80343294 -0.16609131 0.8612277 0.91606086 0.093503125 -0.15039054 1.1935714 1.1363759 -0.16239814 -0.0019186434 0.35405198 0.07738754 1.1252666 0.65604395 0.4868238 0.22953412 -0.049585827 0.011085833 -0.01982551 0.16050503 0.4385629 0.72860974 -0.020781962 -0.11678856 0.12304664 0.8280694 -0.14472292 -0.0014765041 0.049532138 0.5260792 0.4898253 0.8140909 0.5130641 0.8743225 0.39160952 0.23392 0.24246487 0.374765 -0.010457028 0.006086423 0.4572637 -0.014252568 0.81072015 0.6953094 0.38454005 0.45637408 0.67980367 -0.0902751 -0.04338331 0.038388878 0.008884264 -0.09374289 -0.16300218 -0.0112165995 -0.037762776 -0.07813256 0.4380903 0.71057904 -0.022307489 0.084294945 0.2716667 0.10273978 1.2411782 0.4801929 -0.05600899 0.25543582 1.9531224 0.4693745 0.8778517 -0.06442981 -0.1638456 0.1911396 -0.15276489 0.5354394 1.1021808 0.5264252 0.111927524 0.4343171 -0.052165773 0.58798534 0.1735532 0.77531755 0.20641409 0.39194673 0.22096652 0.30254993 1.1321539 0.09119151 1.0501677 0.007273972 0.7885478 0.30447936 -0.16616865 0.9314285 0.32847804 0.29203758 0.2825607 -0.029405886 0.35197285 0.8510067 0.42461982 -0.07404662 0.91468376 0.28744975 0.4775577 0.69011503 -0.025011245 0.06422427 -0.011106241 2.0172248 0.32625306 0.13248971 0.1382846
6 0.085878566 0.7026046 0.83456385 -0.041652154 0.27603137 0.9194873 -0.09396173 0.23559971 0.6013041 0.2542454 -0.06041174 1.1103307 0.52784765 0.5959038 1.049681 0.9646852 -0.14956735 1.043341 0.816906 0.11210249 -0.15816787 1.5335698 1.2397163 -0.23063366 -0.027840573 0.4015848 0.22503807 1.2088764 0.7659144 0.590175 0.0865323 -0.008583756 0.14328015 -0.065186284 0.2193076 0.4908292 0.7765826 -0.0044630216 -0.13682468 0.15013607 0.82826453 -0.17580412 0.058564406 0.050790474 0.6382343 0.42608035 1.0403588 0.57507575 0.8812526 0.6940037 0.30231112 0.3539491 0.4095593 0.020717755 0.0390938 0.60167146 -0.06042236 0.90765685 0.9595037 0.2864929 0.64697975 0.7991068 -0.10299629 -0.03008979 0.054404065 0.057764784 -0.07003652 -0.18678738 0.1424156 -0.039390113 -0.0877061 0.5344404 0.7659933 -0.015740028 0.18604207 0.4001577 0.25021467 1.1289889 0.62517947 -0.040067982 0.32414016 1.9000361 0.53286314 0.84767884 -0.063153796 -0.16716847 0.32011032 -0.14477292 0.6433855 1.1018872 0.5959224 -0.02382261 0.52123505 -0.037078835 0.78499424 0.28636274 0.69672036 0.37066266 0.5094741 0.36493272 0.40885848 1.3555275 0.2701974 0.9921452 0.036737233 1.0482775 0.3229367 -0.17486589 1.117934 0.48792773 0.54858494 0.3682266 -0.010674304 0.39880818 0.924211 0.4325448 -0.0055298056 0.8042789 0.100670286 0.5842999 0.7012651 -0.026827013 0.24412338 0.23757961 2.1618888 0.36011246 -0.0067538256 0.3206974
7 0.023801701 0.52926195 0.7068988 -0.07287302 0.13738896 0.66020525 -0.09115707 0.19813916 0.4213779 0.10156438 -0.03991439 0.76092064 0.30494526 0.41580683 1.1631377 0.64216346 -0.15623026 1.1567485 0.6691589 -0.0013023372 -0.16529848 1.0325847 0.9113876 -0.1856236 -0.046981048 0.15099627 0.60183394 0.94509745 0.5808291 0.3774988 -0.0026026443 -0.037369158 -0.015767742 -0.06475816 -0.0029578954 0.38825426 0.50078934 0.0435489 -0.13114832 0.12069522 0.51310223 -0.1458194 -0.020053387 -0.024805091 0.4176893 0.076211736 1.1353354 0.51178753 0.6535171 0.20803241 0.15290825 0.09743412 0.26539716 -0.02881195 0.0005046176 0.32649082 -0.070432946 0.63544816 0.53822523 0.11509693 0.37037492 0.59480625 -0.08645469 -0.038815387 -0.035317075 -0.04666543 -0.05879298 -0.13340932 -0.018217776 -0.100172125 -0.104974285 0.3964837 0.44938225 -0.028743321 0.018332593 0.15821491 0.21284434 1.1257507 0.19875284 -0.0935179 0.3181756 1.714478 0.30857465 0.6178275 -0.11456289 -0.1528817 0.20602377 -0.082605205 0.5022867 1.2385983 0.61081696 0.14141756 0.41114217 -0.0542174 0.5663499 0.016413338 0.59164375 0.15299885 0.45515966 0.35008284 0.07253258 1.0347056 -0.013493605 0.97373486 -0.014076367 1.1384573 0.19896767 -0.12181162 1.0197041 0.52553934 0.47374186 -0.016472032 -0.003892785 0.26412678 0.7849522 0.3006434 -0.07361271 0.6793625 0.42052615 0.29720357 0.46028832 -0.039387044 0.10163587 0.1723261 1.8946232 0.18334204 0.1336487 -0.0074254735
8 -0.05241781 0.399849 0.47565034 -0.041561402 0.0046299202 0.65976715 -0.058072515 -0.022750804 0.267069 -0.011067341 -0.00015961267 0.5465165 0.19649333 0.29592466 1.1884006 0.69998765 -0.12228691 0.63111687 0.6179129 -0.0022980038 -0.12382262 1.0215673 0.6434649 -0.11812284 -0.048887722 0.13984649 -0.0025728866 0.785221 0.3404975 0.14684431 0.010682493 -0.038534086 -0.04658636 -0.058762174 -0.009817432 0.28429532 0.39161336 -0.0034390644 -0.12272294 0.004200142 0.62116903 -0.10952576 -0.03778329 -0.012167599 0.25512362 0.17626654 0.5790066 0.2669196 0.536844 0.23421843 0.108934686 0.06148806 0.6795242 -0.02615266 0.15660669 0.27988723 -0.049305394 0.5075139 0.42262754 0.06921564 0.27434677 0.39086556 -0.06278378 -0.042955786 -0.0041231094 -0.04018603 -0.084956504 -0.12167771 -0.008345148 -0.058688857 -0.10419005 0.24005276 0.5188042 -0.047277518 -0.034111004 0.052726306 0.0062703416 1.0655867 0.16505517 -0.05076721 0.04140149 1.7408981 0.30084947 0.38267142 -0.11543711 -0.118836485 -0.00966858 -0.11964456 0.30012375 0.90192 0.5015016 0.13072304 0.2311909 -0.077046804 0.28417185 0.02105939 0.5581693 0.16425179 0.19288045 0.10343158 0.22224787 1.0542862 0.048502624 0.71277773 -0.029825285 0.66140217 0.15807927 -0.13036697 0.87056065 0.12292742 0.22003575 0.0770637 -0.015061164 0.20771627 0.5518476 0.13016531 -0.0645796 0.6303535 0.22967394 0.26859975 0.29757988 -0.06440914 -0.0148450015 -0.015620287 1.7588769 0.19584244 0.17177995 0.044996075
9 -0.040801276 0.35895288 0.35536394 -0.04468823 0.036243998 0.57623833 -0.059945405 -0.01948587 0.34809944 0.011380006 0.022605697 0.5101294 0.21383893 0.25072354 1.0839417 0.61860156 -0.10662136 0.5999164 0.55687296 0.037647087 -0.09665886 0.82656497 0.5366056 -0.1137244 -0.04146922 0.15334596 -0.005880417 0.72853637 0.3640249 0.17767484 0.078921765 -0.020199522 -0.04932785 -0.043315522 -0.011120187 0.3437445 0.35215086 -0.0043774494 -0.114238225 -0.016337609 0.4580369 -0.10712707 -0.028121581 0.002787605 0.20307936 0.08548949 0.4848919 0.27745616 0.53597903 0.09691111 0.068082206 0.01246202 0.67802125 -0.014485903 0.13085501 0.18749996 -0.029966433 0.6231205 0.3541776 0.1116091 0.3062304 0.4195153 -0.054099977 -0.046367485 -0.011779323 -0.03573985 -0.06736745 -0.1335927 -0.012080285 -0.045985535 -0.10619201 0.22692132 0.4703041 -0.04410311 -0.020593174 0.049893774 0.061185867 0.82564515 0.109537095 -0.0497504 0.07240129 1.5069547 0.24971333 0.3340292 -0.08368915 -0.09196932 -0.00674731 -0.113664925 0.22423065 0.7334871 0.40383577 0.21609461 0.25312385 -0.057589006 0.35545978 -0.0068327636 0.47075403 0.21508987 0.22037868 0.076558724 0.10426615 0.9121981 0.15031826 0.6554468 -0.013205475 0.7291065 0.11034342 -0.10967644 0.76392066 0.08600447 0.2546672 0.032399572 -0.0010226489 0.17985521 0.39508632 0.111420795 -0.057519693 0.5090567 0.25052482 0.28768975 0.3382474 -0.0641745 0.012075221 -0.0072823004 1.6879238 0.060073357 0.14270824 0.10028255
10 0.0017269682 0.5051297 0.44301844 -0.047637247 0.08263842 0.6155051 -0.07518315 0.12750657 0.34708878 0.050660506 -0.03435793 0.7545607 0.34331763 0.33163685 1.043779 0.67917204 -0.08197238 0.8012042 0.428852 -0.003965172 -0.13527596 1.139665 0.8716167 -0.19443564 -0.045511775 0.15390472 0.05543379 0.7423786 0.5571449 0.32497552 0.0036159456 -0.0012464011 -0.015818143 -0.059694618 0.004406048 0.32286552 0.4749453 0.0021828776 -0.09875422 0.016763717 0.5647139 -0.12942128 -0.010578245 -0.011808115 0.23580705 0.12802096 0.73870957 0.40366328 0.47997153 0.37078503 0.14909342 0.28192452 0.4390301 -0.012011408 0.12949446 0.3415127 -0.08140514 0.64611465 0.64794374 0.11968203 0.4664062 0.5277638 -0.08032345 -0.022247195 0.045260824 -0.024131792 -0.049470067 -0.14725655 0.09818791 -0.032762643 -0.10315942 0.33627608 0.5513751 -0.025400266 -0.007402898 0.23364136 0.23202094 0.86058533 0.3226794 -0.030242562 0.088476025 1.3336611 0.32610375 0.3763824 -0.07254558 -0.11288535 0.109574854 -0.07823966 0.31908646 0.74350846 0.53337544 -0.009172152 0.30484092 -0.040500008 0.5424609 0.10737162 0.5469571 0.2064325 0.36208394 0.30745986 0.3303758 1.2089528 0.24873275 0.52351886 -0.0022147023 0.9063541 0.26513392 -0.12100055 0.9415898 0.38376394 0.36707368 0.11086064 0.0007010009 0.35228038 0.63500214 0.1121158 -0.0120319845 0.4086368 0.052314483 0.33374143 0.40149045 -0.055814426 0.14346619 0.09968012 1.6970565 0.1506151 0.019700162 0.19507065
11 -0.05087926 0.1712378 0.22288454 -0.03772584 -0.006087934 0.36829185 -0.04933339 -0.02625661 0.19532794 -0.04113897 0.16654529 0.3121221 0.070789695 0.093828596 1.0387477 0.57754916 -0.075738 0.4729105 0.31997967 -0.00788775 -0.09513781 0.7966099 0.30990642 -0.09680449 -0.033234503 0.039758474 -0.014195687 0.49851245 0.17332786 0.101540655 0.057822444 -0.02178955 -0.0510976 -0.042208623 -0.023412054 0.2255698 0.29400787 -0.03816108 -0.10597066 -0.009537108 0.35363346 -0.08330756 -0.046147373 -0.03016078 0.04595318 -0.017409747 0.33676636 0.18461159 0.48899806 0.06434106 0.019012965 0.041084837 0.5240781 -0.031764586 0.0017017787 0.062346734 -0.06564807 0.45149052 0.26859692 -0.012025169 0.24636105 0.35581025 -0.051285006 -0.04002027 -0.001364306 -0.042926397 -0.050007727 -0.11244141 -0.01337923 -0.05994274 -0.10069906 0.11269273 0.29996717 -0.027809976 -0.047501184 -0.023936324 0.115453005 0.663807 0.01184766 -0.061792493 -0.0064965426 1.1572015 0.14659928 0.19787288 -0.06913336 -0.06600937 -0.030781692 -0.058364548 0.1900444 0.4951305 0.28244328 0.24918889 0.073879376 -0.058695175 0.15981215 -0.036286093 0.48255974 0.09122473 0.14155692 -0.0050784973 0.0315892 0.7818548 -4.7486275e-05 0.36609283 -0.031491842 0.45680466 0.11279545 -0.09121112 0.6537314 0.068874516 0.12436828 0.035380714 -0.011385118 0.05365769 0.33341 0.008506022 -0.07787677 0.3797603 0.12739041 0.11135862 0.23924729 -0.049825426 -0.011366983 -0.031367406 1.2904598 0.03754868 0.13234963 -0.012104863
12 -0.036062457 0.20265375 0.16430192 -0.047798913 -0.015399754 0.25751027 -0.04624623 -0.018148914 0.20853397 -0.021802818 -0.0020106167 0.4022608 0.042053893 0.17240337 0.78730476 0.45027336 -0.053537328 0.51471186 0.21699294 -0.006113903 -0.068810664 0.54862344 0.21302074 -0.0854307 -0.047634687 -0.009564656 -0.002741737 0.46500808 0.03952575 0.16515921 0.06410171 -0.015732018 -0.025473109 -0.037436064 -0.027001733 0.22103609 0.28719273 -0.010629262 -0.07326041 -0.0044507436 0.2449697 -0.093284115 -0.04013511 -0.02570777 -0.003457797 0.018417751 0.24865232 0.07440607 0.3125142 0.099340826 0.04702272 -0.0038053363 0.5088134 0.0027230242 0.09064456 0.13523386 -0.05122831 0.2796122 0.053494543 -0.022370288 0.059933137 0.25677478 -0.05634594 -0.046312775 -0.030639304 -0.021341683 -0.049504608 -0.100466624 -0.017768307 -0.047193654 -0.087302685 0.0568558 0.26288813 -0.066280805 -0.044728845 -0.007397649 -0.0030919432 0.62652624 0.005210966 -0.04346585 0.057805292 0.961947 0.043920502 0.13465193 -0.08069762 -0.06489554 -0.0017309766 -0.034609172 0.13250992 0.36127216 0.18434033 0.0976572 0.04757847 -0.051632375 0.17572771 -0.0058205873 0.25090736 0.12705608 0.17116468 0.022270747 0.07268444 0.67810184 -0.0014850054 0.2896297 -0.033565182 0.43862203 0.08934109 -0.054299485 0.5444114 0.035160743 0.074750245 -0.0036790327 -0.0134711955 0.0110789845 0.3917726 0.036550667 -0.039614372 0.3390344 0.24680535 0.09261125 0.23571733 -0.054539572 -0.008023989 -0.013351894 1.0483401 0.071475446 0.10995968 -0.0074968697
13 -0.02461684 0.17100047 0.15143448 -0.03825297 0.025738094 0.30214262 -0.02936599 -0.011405613 0.10829963 0.01071631 0.11709529 0.27833432 0.048419654 0.05685658 0.65882546 0.40519065 -0.042779393 0.4941417 0.2558847 -0.003452088 -0.06474361 0.41695368 0.19781257 -0.071841136 -0.04393131 -0.0031523511 -0.025578592 0.39584714 0.12247874 0.09617262 -0.010864583 -0.023250071 -0.037506305 -0.009773291 -0.012830734 0.20081794 0.3164738 -0.019753814 -0.042337224 -0.012515274 0.19529977 -0.06561204 -0.03423867 -0.02764356 -0.00834648 0.026435195 0.28011942 0.12816803 0.29648075 0.04422351 0.0735624 0.0346136 0.40316516 -0.0074958475 0.08331579 0.07895825 -0.03900535 0.24740095 0.15995626 -0.008483953 0.13966365 0.29765 -0.0524845 -0.025383675 -0.0055192225 -0.004612213 -0.029332358 -0.07234109 -0.017433414 -0.046023376 -0.061708976 0.07288398 0.18198688 -0.048522092 -0.039603647 -0.014609103 0.04050298 0.4942961 0.046642266 -0.03384584 0.01219791 0.76143277 0.09099887 0.15021989 -0.05804628 -0.06352499 -0.020645184 -0.048305284 0.1531962 0.3789535 0.13250467 0.26748034 0.020505352 -0.027889285 0.07425134 -0.0146162575 0.40371796 0.11846958 0.18339282 0.024187617 0.00902332 0.59161913 0.025604095 0.24744418 -0.02869058 0.27950335 0.08943219 -0.053613234 0.44699192 0.072555155 0.046488147 0.038596436 -0.006571484 0.051926143 0.25317922 0.14590876 -0.04531019 0.30940413 0.1285551 -0.00056152197 0.19165395 -0.020765632 -0.01645927 -0.019607326 1.0032071 0.041265946 0.10205076 0.03422629
14 0.06921118 0.29166645 0.33376995 -0.08088376 -0.011143111 0.19533588 -0.078608595 0.2604199 0.0962941 0.06541349 -0.054180264 0.4554188 0.1109962 0.0978395 0.45971516 0.140593 -0.026930679 0.9205047 0.17898336 -0.0019917581 -0.10505755 0.4952744 0.5095329 -0.16422 -0.071473986 -0.011337748 0.80908376 0.3340544 0.45063987 0.14646438 -0.055806875 -0.008420331 -0.008760668 -0.07507376 -0.0312954 0.22619303 0.31758124 0.10870453 -0.06793808 -0.0053957948 -0.0088480525 -0.10893381 -0.0065223984 0.0021719038 0.046723057 -0.0445523 0.83311224 0.3703193 0.2099911 0.15501148 0.10537311 0.082855135 0.030867128 -0.026834285 -8.217637e-05 0.17914924 -0.096355155 0.28883392 0.45444706 -0.012952997 0.26724157 0.37606683 -0.06515377 -0.0031192172 -0.07512988 -0.050159764 -0.018948693 -0.11914595 -0.015319884 -0.084517054 -0.09804688 0.17681757 -0.009697579 -0.036725532 0.049864568 -0.00082635175 0.18470713 0.47818196 0.3207951 -0.06568696 0.13373265 0.58702093 0.051042296 0.19082147 -0.07030358 -0.04954317 0.2928177 0.12593411 0.3591328 0.5066125 0.35308155 0.07274075 0.17956778 -0.0049309153 0.44084015 -0.014420598 0.30152884 -0.0030116742 0.43166193 0.38339823 0.015291326 0.5911148 -0.017341806 0.32663843 -0.054309368 0.81052965 0.14580879 -0.034954105 0.64578503 0.76321703 0.48746154 -0.029573513 0.35780916 -0.004901693 0.48407084 0.022510372 -0.028766498 0.08165154 0.27320758 0.025114128 0.17878745 -0.02885829 0.018320618 0.3273041 0.9117562 -0.013948384 -0.016071832 0.10625849
15 0.027956707 0.30203563 0.23481527 -0.08032421 0.0144662345 0.14617918 -0.05539608 0.2872243 -0.0040392666 0.09216525 -0.06860297 0.4286203 0.037703883 0.05381857 0.34924057 0.12269817 -0.00818523 0.96054196 0.04687107 -0.010019569 -0.09793644 0.38738358 0.48180813 -0.13743088 -0.055955768 -0.015797736 0.7547381 0.29412496 0.32476935 0.18023176 -0.058367666 -0.021294778 -0.014529459 -0.089674674 -0.031269845 0.2151557 0.21236302 0.13229796 -0.06609769 -0.015097621 -0.026478296 -0.09936793 0.00032889377 -0.0038450898 0.052059036 -0.059253808 0.8385019 0.32778788 0.09106378 0.1003901 0.09636294 0.03029026 -0.015952924 -0.04049942 0.003796828 0.04894325 -0.10030293 0.26391172 0.31249255 -0.027212083 0.26001152 0.37499434 -0.04805433 -0.009139471 -0.09204107 -0.06258465 -0.023680914 -0.11450092 -0.018607305 -0.08068349 -0.08544311 0.21891363 -0.028440505 -0.04026606 -0.009698063 -0.018413056 0.21389043 0.33667272 0.31117973 -0.049162753 0.1784678 0.29804057 0.037054993 0.09401678 -0.07609482 -0.03828993 0.3653874 0.26220757 0.2508318 0.37764177 0.267133 0.00775777 0.2175672 -0.010112487 0.3682878 -0.005731374 0.29414096 0.003153367 0.32383686 0.29941761 -0.00048069804 0.5218842 -0.01461567 0.2517481 -0.05877642 0.7053072 0.056033976 -0.032471146 0.48078498 0.8177891 0.4560463 -0.041825484 0.29918107 -0.017141823 0.5015032 -0.019111618 -0.040846314 -0.0048702895 0.23659214 -0.025863105 0.13416834 -0.019935401 0.005027605 0.40425816 0.8050643 -0.017729709 0.06654953 0.053869575
16 -0.026246203 0.103700966 0.06336029 -0.022345146 -0.019792233 0.072416395 0.031022992 -0.015648047 -0.01682904 -0.016216522 0.11447184 0.023296438 0.04402934 -0.0023785033 0.119183026 -0.008528198 0.16281182 0.06348132 0.018685158 0.0435527 -0.020360997 0.07466403 0.18802391 -0.045256693 -0.022316858 -0.024315534 0.052909594 0.035443127 0.024988703 -0.0018210408 -0.028700436 -0.037347417 -0.016735537 -0.017435912 -0.016132804 0.02430606 0.067280725 -0.018530367 -0.030861929 -0.017778698 0.007884766 -0.010105528 -0.017611498 -0.021893904 -0.014313641 -0.021988792 0.05461962 -0.004157408 0.0658495 -0.00341715 -0.013291927 -0.014363843 -0.0021968398 -0.0018800481 -0.010312067 -0.016033133 -0.013579237 0.03251729 0.018495418 0.034558043 -0.0043220795 0.0033522118 0.22859411 -0.02686747 -0.03165775 -0.021516902 -0.023747405 -0.008813729 0.020425852 -0.027554432 -0.0231598 -0.024091423 -0.0027070248 -0.033989 -0.0053670323 -0.014518373 -0.01535518 0.09451833 -1.5662052e-05 -0.02305653 -0.008921041 0.09862489 -0.005887793 0.11157518 -0.026216486 -0.024963943 -0.0014130477 0.024759647 -0.0061860597 0.027410345 -0.0065402575 0.056774758 0.00020501204 -0.019635433 0.059016228 -0.008471428 0.24858066 -0.00068383146 0.10460715 -0.008302048 -0.015437103 0.18769512 -0.0065491884 -0.017085148 -0.02542353 0.033350706 0.062137224 -0.020063264 0.07884401 0.016463993 0.05103453 -0.003510298 -0.0054316116 -0.0006758122 0.12117122 -0.009199041 -0.038135003 -0.017112434 0.13205655 -0.0022241322 -0.0043553878 -0.016794002 -0.018632274 -0.013283501 0.25120345 -0.011814839 0.07009137 -0.00916203
17 -0.014414447 0.017484117 0.021934975 0.011235118 0.1158785 0.060512684 -0.0022129337 -0.0019725412 0.045808826 -0.00800013 0.009718306 0.06380206 0.06451311 -0.0040725707 -0.01257046 0.23904186 -0.015929729 0.017680004 -0.0035870702 0.03784928 -0.014391514 0.056668643 0.13362995 -0.03479281 -0.0062349364 -0.0014169654 0.011960905 0.051929697 -0.0071436786 0.19541173 0.11841548 0.05473694 -0.0171969 -0.0043852823 -0.016770704 0.05428626 0.18896842 -0.0036108538 -0.02217938 -0.0019766204 -0.011912739 -0.01627268 0.034257833 -0.01077686 -0.013451037 -0.004838526 0.12452629 -0.0114867715 0.01685239 -0.0027158163 0.052921247 -0.003953343 -0.014080648 -0.0019487139 0.02605053 0.0751034 -0.015845515 0.045538735 0.0576604 -0.016139716 -0.0017613657 0.031988762 0.089241624 -0.028329113 -0.021527193 -0.0043922076 0.0002170289 -0.01070587 -0.0032781311 -0.012048674 -0.00985755 0.034971025 0.050053008 -0.004996371 -0.001843986 0.015725935 -0.0076667117 0.13709643 0.029602744 -0.0058414075 -0.016671045 0.018289719 -0.007913839 0.009148293 -0.01591668 -0.010712693 0.035860136 -0.01812148 0.07047175 -0.007993956 0.058819044 -0.0065253465 0.016098239 -0.01770206 0.07091349 -0.009277473 0.15773472 0.08454479 -0.011546689 -0.0032355401 0.058904614 0.11318198 0.052176967 -0.010822138 -0.014813847 -0.001816815 0.037141092 -0.014936446 0.04796939 -0.003475638 -0.0021358125 0.053598456 0.04406158 -0.018143905 0.005495475 0.013172664 -0.0062267613 0.0346602 -0.0026892747 0.061742395 0.07461549 -0.010559744 -0.018012358 -0.0009455983 0.16567181 -0.0046139443 0.08339839 -0.0089995265
192 -0.040958762 -0.009567471 -0.053334523 -0.043608736 -0.00031456372 -0.029749233 0.1659677 -0.045702472 -0.0064961324 -0.011738846 0.054700367 -0.044767287 -0.03048167 -0.01867226 -0.0093361 -0.001296708 0.10936408 -0.041238897 -0.0066727744 -0.01819949 0.12810399 -0.044999417 -0.017096598 -0.007859099 -0.035290625 -0.027115524 0.21110436 -0.035245165 -0.03399113 -0.02681211 -0.0024434808 -0.06749833 -0.018413242 -0.007097859 -0.03947654 -0.0046694046 -0.012084016 0.121673785 -0.03722311 -0.060980804 -0.041653484 0.12265597 -0.029640181 -0.056643523 -0.045755528 -0.057816662 -0.024960784 -0.043128338 -0.023516107 -0.047364544 0.03144223 -0.05648547 0.27934623 -0.0065229605 -0.021920113 0.17403996 -0.0018635363 0.16358763 -0.03895637 0.0057409536 -0.02089999 -0.03664663 0.12706213 -0.03817116 -0.06489325 -0.043195765 0.00910489 -0.0283378 -0.05480839 -0.036640007 -0.023804571 -0.02689666 -0.036875043 -0.037505947 -0.0649943 -0.02682837 -0.049720358 -0.010507626 -0.0040225075 -0.04354425 0.04607085 -0.028571293 -0.005509293 -0.029569704 -0.011171445 0.19649182 0.07276103 0.25139728 -0.039121743 -0.07590306 -0.029344527 0.060279913 -0.006370948 -0.035777103 0.006764842 -0.03737646 -0.035412017 -0.04497563 -0.014007799 -0.005764119 -0.04290836 -0.039435238 -0.062078055 -0.036955692 -0.06424637 -0.027396379 -0.032863975 -0.0020276313 -0.031043235 0.1839392 -0.04327607 -0.007966394 -0.032357134 -0.02108283 -0.05734795 -0.046932857 -0.061284926 -0.04470992 -0.0019851604 -0.0039909817 -0.025642712 -0.02330642 -0.032859515 -0.08005696 -0.02065914 -0.029174102 -0.0060760765 -0.0428671
154 0.47803476 0.09593688 -0.017196795 -0.022029212 -0.0068804733 0.28083557 0.5375594 -0.012514296 0.7930345 0.3668871 -0.095832825 0.037788358 0.11049773 0.78706485 -0.019891752 0.43110248 -0.008740865 0.12627096 0.1439538 0.04312602 -0.061929297 0.8145834 0.42810455 -0.064030044 -0.024127929 0.13989611 0.25803062 0.19013567 0.3122413 0.905368 0.29715618 -0.038827643 0.12401368 0.08212139 0.046332043 0.112175666 0.24065797 0.09352163 -0.081280865 -0.043335643 0.1406338 -0.044976186 -0.07924077 -0.062367536 0.051581014 0.12970047 -0.0076522315 -0.04124229 0.5824338 0.21331728 0.66295207 -0.03489273 -0.027751146 -0.01299836 -0.15385805 0.4215008 -0.061297834 1.1901313 -0.014960468 -0.063716374 0.10171576 -0.022855088 0.27270025 -0.10963551 -0.080003045 -0.021385005 0.0009986525 -0.05577002 -0.061197896 -0.11405813 -0.00991399 0.04946946 0.1120894 -0.037019316 -0.008767257 0.361062 0.023883663 0.0920399 0.09535821 -0.06709947 0.41101778 -0.011490159 0.6741228 -0.021068232 -0.032822806 0.10787535 0.40742218 -0.07331077 0.5612973 -0.115507804 -0.023582438 -0.0023870915 0.555147 -0.075550795 0.3320157 -0.01409706 -0.020440893 -0.048021775 0.11508274 -0.0009288624 0.22893876 0.083277255 -0.026080191 0.08173189 -0.08478529 0.2241947 0.057204895 -0.15698215 0.4117245 0.21496622 -0.024269685 -0.004297629 -0.042227827 -0.01809642 0.26765764 0.05154256 -0.053784788 -0.014527469 -0.0451131 0.3696829 -0.005115696 -0.04708745 -0.013676899 -0.13621245 0.45863795 -0.014211449 -0.10367087 -0.043833833
170 0.3914931 0.02380417 -0.03151871 -0.04765905 0.07565296 0.18890524 0.51326865 -0.048684962 0.46644366 -0.021515263 -0.006542887 -0.00553507 -0.00832825 0.15431191 -0.042604662 0.32613203 0.026183948 0.0008860575 0.027038872 -0.0038282436 -0.048820496 0.632332 0.25684947 -0.00687967 -0.04751117 0.02621625 0.08881104 0.10879865 0.14113882 0.7621619 0.06850522 -0.020640267 0.028218795 0.05655231 0.032603666 -0.014255564 -0.018504685 -0.05682785 -0.042311013 0.0041927397 -0.0042269677 0.06365077 -0.04914965 -0.059332658 -0.008755928 0.25919724 0.026446398 -0.035524298 -0.014706495 0.12870099 0.14563902 -0.047486547 -0.03090453 -0.005083024 -0.059699472 0.1771307 -0.039813515 0.43543255 0.07239016 -0.03810105 -0.030555004 -0.0034674443 0.39835793 -0.069324344 -0.056498986 -0.025845 -0.039317723 0.06287173 -0.035937216 -0.034928378 -0.02592454 0.061518785 -0.0023564578 -0.034839526 -0.008977401 0.0047293417 -0.0236848 -0.0026956599 -0.018762836 -0.045755308 0.15454344 -0.011258026 0.38225636 -0.000648913 -0.021585805 -0.015166807 0.1701283 -0.017670257 0.46069187 -0.05978928 -0.012356771 0.05746203 0.12646951 -0.039732896 0.042619266 -0.033379395 0.101403415 -0.046807196 0.098015174 -0.045174606 -0.0076529677 -0.021872625 -0.008566419 -0.014157603 -0.029915947 0.24389155 -0.032192547 -0.09497576 0.13033642 -0.027437 -0.02659875 -0.029561384 -0.05299164 -0.008046498 0.17307186 -0.016353725 -0.021044273 -0.059991248 0.053852525 0.085897595 -0.019924385 -0.049760222 0.06092246 -0.07941109 0.19984183 -0.017892031 -0.032299504 -0.023266135
209 -0.027457977 0.2393714 -0.04809356 -0.09931391 0.6706709 0.6960904 0.5135074 -0.060533583 0.60560125 -0.033245247 -0.038837176 0.21196209 -0.024524286 -0.042718444 -0.05653837 0.2779443 -0.084820636 0.023225289 -0.015647924 0.34797695 0.25216562 0.37147585 1.2537391 -0.058988906 -0.0893346 0.19470805 0.1669411 0.09709464 0.17404254 -0.011665608 -0.11701485 -0.07701585 -0.058107834 0.0038207425 -0.08019298 -0.036803734 0.06638034 0.047562283 -0.0715849 -0.03601422 -0.0458686 -0.0632986 -0.06840479 -0.10343899 -0.03698685 -0.07493045 0.3926716 -0.016852394 -0.03475703 0.11000611 -0.017941058 -0.09691875 -0.13185287 -0.047865003 -0.023033775 2.049467 0.9959718 0.03807643 0.24782194 0.50108695 -0.018004224 0.15571225 -0.03570786 -0.08691909 -0.06751722 -0.04844829 0.12199922 0.44540042 -0.032801665 0.19978744 0.05789493 0.008720342 -0.0013984878 -0.093543604 -0.047428023 0.70360863 -0.11046529 -0.031379443 0.034125358 -0.058407854 -0.02060213 0.081391 0.26099226 0.24035674 -0.019710463 -0.063504346 0.30363747 -0.030190153 -0.03250451 -0.048131496 -0.010129063 0.31896088 0.055091083 -0.05070714 0.28384128 -0.046152424 0.22751124 -0.054674864 0.2382215 0.5542805 -0.0015834436 -0.0776489 -0.04074489 -0.055570334 -0.05525012 0.065484755 0.23561507 -0.086007416 -0.02390078 -0.012248619 -0.016298903 -0.031111611 -0.08521211 0.011962098 -0.030677194 0.051372338 -0.05427688 -0.064846806 0.1448512 0.61905354 0.20514178 -0.08623412 -0.045321 -0.13915668 0.21769509 -0.044968978 -0.13008463 -0.0578551
45 0.6061931 0.14333792 -0.043258946 0.011867218 -0.009214183 0.13470757 0.8620293 -0.06812155 0.6084263 -0.045516297 -0.00807581 -0.023415146 -0.025760254 -0.00084053463 -0.014764673 0.05577464 -0.0055858516 -0.008894715 -0.07403228 -0.026770985 -0.01903031 1.0230558 -0.013720728 0.21253991 -0.061244108 0.010560672 0.10353732 0.017286971 0.15244776 0.9899005 -0.030495191 -0.053922355 0.11160433 0.3064399 0.17191193 -0.017918393 0.17715861 -0.07225086 -0.04644043 -0.052883964 0.07934612 0.14086694 -0.08443578 -0.042555954 -0.026633063 0.20815495 -0.004432092 -0.012406818 -0.013035041 -0.013112637 0.060971927 -0.066436015 -0.023141889 0.16577251 -0.0938204 0.13016018 -0.05034948 0.6987713 0.5719693 -0.058490343 -0.057880934 -0.03301711 0.7542242 -0.10197375 -0.060586043 -0.05623687 -0.0308819 0.006403934 -0.06708104 -0.055238385 -0.08671719 0.24775821 -0.018983154 -0.028284058 -0.032396108 -0.023005364 -0.0014723145 -0.021867163 -0.066255815 -0.06732535 0.36110178 -0.04018985 0.75078404 -0.035128225 -0.02519315 -0.011909605 -0.012480478 0.19791181 0.58669674 -0.09962478 -0.052880336 0.049982607 0.023467308 -0.067850314 0.2013678 -0.049849708 0.10556802 -0.08611638 -0.0040626167 -0.022072662 -0.052805524 -0.014140281 0.031630717 -0.027838225 -0.07254923 0.14986362 -0.02974023 -0.13199496 0.2426631 -0.054966964 -0.043690633 -0.027191943 -0.070440345 -0.04537459 0.25459123 -0.009909724 -0.05903971 -0.10521761 0.061400544 0.33793908 -0.0354534 -0.06848074 -0.036723368 -0.10513719 0.23009346 -0.023744006 -0.051731255 -0.06844326
100 0.456454 0.25982895 0.77134144 -0.103018105 1.0532866 0.8478171 0.10150283 0.039032195 0.49144188 0.18812367 -0.08820611 0.12956093 0.65285623 0.9364994 -0.11985206 0.2531379 -0.05215412 0.38593715 0.16909054 0.1775823 -0.06948236 0.6081915 1.3098662 -0.2581844 0.12947454 -0.029304698 0.5717946 0.6977758 0.6966101 1.3388976 0.6406001 -0.054010462 0.36296782 0.1528378 0.1542665 -0.11367412 0.82046354 -0.034209456 -0.07815952 -0.0036727884 0.12251137 -0.015956812 0.20390193 -0.09208498 0.38713533 0.8723618 0.40879384 0.15110135 -0.020353446 0.44731054 1.3223114 0.075448334 -0.025905792 0.10456685 -0.102978125 0.29233438 0.016082484 1.2160978 0.3209428 -0.014977651 0.44276264 0.40867487 0.054350875 -0.005980023 -0.056307603 0.40705752 -0.18963803 0.21409263 -0.009136039 -0.015549299 -0.037869427 0.014636721 0.7520739 -0.005173853 -0.0063013895 0.35862306 -0.00062832836 0.08463002 0.24659048 0.036186375 0.17173599 0.21609557 0.4428814 0.6158385 0.396187 -0.1960602 0.2336806 -0.079147674 0.50334126 -0.06936892 0.16503194 -0.00469314 0.6609492 -0.03861982 0.66168624 0.29111472 1.0800728 -0.07176688 0.4390086 0.4391734 0.27171078 -0.020260299 -0.00068085716 0.12126619 -0.11525326 0.31617415 0.4481602 -0.1679016 0.19007306 0.2790532 -0.030606309 0.059473537 0.05040648 -0.008979698 1.1116564 -0.075629205 0.15711589 -0.0011516856 0.30145878 0.82988906 0.13221866 -0.0029419851 -0.00030754134 -0.10239356 1.2273482 -0.007113188 -0.04682435 0.4503032
42 0.98015463 1.2354894 0.87055874 -0.028571779 0.9397356 1.7432575 0.083301015 0.2430035 1.333813 0.658646 -0.20654023 0.8100503 0.6971278 1.2570586 -0.17332871 0.85380435 -0.11387856 0.6884832 0.6708514 0.37532032 0.089524254 1.1103033 1.570117 -0.29652286 0.4867981 0.2868179 0.32433197 1.2086575 0.8218885 0.9993294 0.5366932 -0.01846984 0.5750736 0.7159999 0.053355105 -0.020655552 1.1849104 0.37227687 -0.16410515 0.29164666 0.37146413 -0.17019555 0.34341547 0.081310034 0.68670005 0.5514026 0.7225249 0.22869861 0.89767027 0.6512139 1.2743181 0.08404964 -0.17796199 0.2153762 -0.06683823 1.3295125 0.4327736 1.706188 0.8075876 0.50734377 1.0379969 0.79188824 -0.08445131 -0.06294341 -0.034312025 0.24944131 -0.027244031 0.09288633 0.007903921 -0.06568185 0.60564613 0.63400376 0.5961547 -0.032539833 0.4668551 1.0708591 0.03389609 0.55039257 0.9181031 -0.018837605 0.95744294 0.49305838 1.3730928 0.7169937 0.4020862 -0.20716262 1.357381 -0.177272 0.89602554 -0.10119622 0.4494888 -0.06975793 1.0806351 -0.044518474 1.247597 0.3956266 1.1399623 -0.015022322 0.6714999 0.77438134 0.7844736 0.30876043 0.3121733 0.42069587 -0.10685843 0.3302399 0.72077185 -0.24179752 1.3042856 0.6544317 0.08561258 0.8876015 0.27994707 0.09619377 1.1764758 0.47973394 0.11379266 0.1375343 0.13390167 1.3105477 0.9440982 0.21079278 0.18061824 -0.12378635 1.6611522 0.71190494 -0.18193337 0.050176278
200 0.10130225 0.11344166 -0.0015158389 -0.0067093745 0.15251037 0.19733086 0.004249192 0.016635008 0.073501095 -0.001028096 -0.0051811347 0.14674716 0.17071784 -0.01011131 -0.021376176 0.17235804 -0.005821582 0.07904157 0.123589836 0.057641927 -0.0024419907 0.16339979 0.21712837 -0.0057181283 0.057977185 0.07268081 0.061950054 0.10990678 0.079686895 0.14001451 0.100061454 -0.0042586015 -0.004553863 0.051535215 0.014391232 0.032215446 0.086810574 -0.019012203 -0.023499707 0.011159927 0.02665092 -0.019929398 0.13802491 0.024482332 0.03146977 0.017712494 0.18807893 0.0073062666 0.095071256 0.08303284 0.17107469 0.058284592 -0.015924184 0.048120555 0.13235593 0.11420658 0.18257523 0.17920654 0.13532704 -0.0056844368 0.08228798 0.12028291 0.08458798 -0.0068567963 0.073600344 0.102962404 0.009423132 0.02286231 0.05513065 0.12048687 0.056305446 0.1166026 0.03971921 0.026392765 -0.00087595586 0.046878397 -0.005082057 0.06181969 0.05031601 0.041366875 0.035780556 0.10536567 0.04053381 0.11276527 0.106789105 -0.035225105 0.17330196 -0.03142668 0.16811605 0.03508047 0.14506905 -0.013946543 0.089814566 -0.0019650648 0.08131802 0.07321649 0.16441566 0.07873208 0.026412107 0.13682704 0.10993251 0.052909825 0.016114078 0.025657576 0.034146827 0.0039356155 0.18119508 -0.011912616 0.14105792 0.12048227 0.043323286 0.055333495 0.060204558 -0.0015320098 0.014575914 0.0084643215 0.014878608 -0.0031074625 0.07055831 0.2392972 0.14683394 0.10515277 -0.0054261438 0.016430164 0.2081052 0.087128386 -0.004428101 0.14243017
204 -0.013574298 -0.0038994092 -0.017122565 -0.015409395 -0.00921893 0.05415298 0.07714298 -0.029910296 -0.0046206764 -0.020789105 0.0123947235 0.01524543 0.012395225 -0.009636538 -0.017429462 0.047812153 -0.002862236 0.023685016 -0.000708811 0.15348175 -0.0048598275 0.08224338 0.0753813 -0.018602747 -0.019966137 -0.028257241 0.06837027 0.027777843 -0.003770016 0.031233441 0.011494933 -0.03206195 -0.015001682 -0.020033928 -0.017736088 0.0036657632 -0.010131878 -0.017663829 -0.03102516 -0.024272626 -0.0071359687 -0.014672868 -0.0005184407 -0.026250934 0.02331141 -0.012452398 0.030442204 -0.01957414 -0.000981161 0.03623002 -0.008791614 -0.007933593 0.017047923 -0.008077991 0.038057614 0.03710597 0.030850332 0.016837481 -0.0015618413 -0.023630736 -0.02176766 -0.012381937 -0.024279883 -0.022176558 -0.009517659 -0.01856672 -0.01167758 -0.020377189 -0.008297799 -0.021877846 -0.017017625 -0.015831465 -0.010753333 -0.028967876 -0.0076537305 -0.029573673 -0.025809778 0.039387733 -0.018099222 -0.01654444 -0.010752009 -0.017066007 -0.017510166 0.024608556 -0.00017346926 -0.01682339 0.034590885 0.0052921902 0.02963679 -0.0109372735 -0.020176021 -0.0020918157 -0.0074104555 -0.027974803 -0.006013192 -0.018886058 0.12417589 -0.013520275 -0.018836651 -0.0117607135 -0.004089276 -0.0021379085 -0.010593982 -0.004966676 -0.00831596 -0.009978588 -0.0031188347 -0.004150087 -0.005336024 0.11020694 0.051203515 -0.0051340363 -0.027257219 -0.015350963 0.028573979 -0.0041745226 -0.02732099 -0.016852785 -0.0036324777 0.052459426 0.056886893 -0.0075097657 -0.002586858 -0.025558427 0.05253224 -0.013702005 0.0035265386 -0.0050361603
197 0.034021944 -0.003908942 -0.018726582 -0.017968567 -0.0019567804 0.117736734 0.09384543 -0.021707326 0.008347022 -0.009744221 -0.0051360107 -0.0021709637 0.00980594 0.081288874 -0.019866817 0.031571787 -8.19929e-05 -4.113894e-05 0.09386448 0.09456735 0.05773929 0.038527843 0.12480681 -0.017204594 -0.0091157155 -0.006362447 0.028427202 0.03231886 0.066808045 -0.0041997912 0.095625505 -0.021999089 -0.020452466 -0.0045161704 -0.007732399 0.022231242 0.004330769 0.035136115 -0.031461444 -0.031060992 -0.008911288 -0.014750478 -0.014549302 -0.029281473 -0.010831278 -0.017966771 0.028561864 -0.016316146 0.07970831 0.04715921 0.051138166 -0.013848483 -0.0013620969 -0.013774539 0.0488642 0.07211747 -0.0055811056 0.13912018 0.0108751785 -0.026122943 0.030304492 -0.016675442 -0.0017767393 -0.03187868 -0.013186658 -0.013432798 0.021148112 -0.022691542 -0.024859091 -0.021146625 0.03447815 0.036373265 -0.014306803 -0.014360924 0.0006892793 -0.026480546 -0.027137686 0.074578166 0.09367408 -0.018328937 0.008386159 -0.009372312 -0.0032406033 0.039716966 -0.0011196056 -0.011429987 0.0557324 -0.0032615599 0.040681753 -0.04213422 -0.0071957707 0.0061323866 0.012628851 -0.033798303 0.037106007 -0.020310057 0.06420651 -0.007936506 -0.014753947 -0.0025186203 -0.009699506 0.082703695 -0.0036970123 -0.018002467 -0.034982916 -0.0010477136 0.07964171 -0.024848802 0.057468917 0.0707718 -0.013574411 -0.010948817 -0.005651583 -0.011021575 0.0658402 0.0003392063 -0.019165033 -0.0048060976 0.026834156 0.021035308 -0.011785971 -0.005365322 -0.021254951 -0.022910042 0.102385044 -0.021171415 -0.003225831 -0.0053609395
196 -0.00228277 0.023621313 -0.003624392 -0.024108145 0.07098727 0.21992093 0.098966606 -0.033262517 0.12727422 -0.0018487148 0.022835447 0.026624624 -0.006519588 0.032890007 -0.032462157 0.13867642 0.025486063 0.023538653 0.011403931 0.10747208 0.07751349 0.102098376 0.042927004 -0.015324009 -0.017121205 -0.013745556 0.07281162 0.013188858 -0.009758762 -0.007627348 0.01987759 -0.008047719 -0.026006421 0.00088280067 -0.044188242 0.021505706 -0.028940817 -0.0028288485 -0.034071732 -0.027596062 -0.008727891 -0.021829814 -0.016616613 -0.03958676 -0.0013629571 -0.028597414 0.03399703 -0.033150017 0.06624539 0.039956346 -0.0033955981 -0.02285399 -0.015832463 -0.030023873 0.07226407 0.09964233 0.12403357 0.044746198 -0.01163845 0.040325187 0.030486096 0.011558328 0.014834955 -0.019042525 -0.022762915 -0.018330287 -0.012057985 0.029356873 -0.030221676 -0.01592025 0.07646528 0.10754034 -0.01939651 -0.017249951 -0.019956164 -0.0047847047 -0.029569585 0.021185832 -0.007818165 -0.03123026 -0.0067884936 0.013698932 -0.005141952 -4.1417963e-05 -0.004169646 -0.00042723343 0.17096789 0.013296422 0.00619255 -0.010371203 -0.007287979 0.039923035 -0.0070055197 -0.010875902 0.09515646 -0.025430163 0.11223257 0.046095066 0.03204974 -0.0124520175 -0.009287044 0.049559116 -0.016714683 -0.020607412 -0.021469397 -0.010735138 0.019417182 -0.027588326 0.050438907 0.07456762 0.018081289 -0.0006165212 -0.012279818 -0.015769927 -0.010950665 0.003112588 -0.021135634 -0.01710525 0.002438115 0.04667314 0.011819173 -0.017322635 -0.020069312 -0.03270485 0.13026491 -0.0109241875 -0.0075195483 -0.01733987
203 -0.00050311146 -0.0096801035 -0.011645591 -0.023239683 -0.011105351 0.09216159 0.11900862 -0.023940602 -0.00027963315 -0.020325318 -0.0012634046 -0.0089995265 -0.007497123 -0.0036540113 -0.018915053 0.067135856 -0.006026886 0.055212464 -0.0075233723 0.014860844 -6.931783e-05 0.0018354282 0.04199165 -0.00024053139 -0.024903841 -0.005887835 -0.0015953783 0.01553826 -0.00087362307 0.0037123663 0.05589541 -0.0105560515 -0.038273178 -0.0005298084 -0.022361537 0.051607657 -0.02744633 -0.009741842 -0.037991483 0.066569 -0.0032941045 0.076223694 -0.021070573 -0.027513513 -0.0052289097 -0.023009328 0.033479474 -0.016842319 -0.015743308 -0.007459331 -0.00869628 -0.010973763 -0.016007224 -0.02623099 0.09748822 -0.0076079234 0.05197563 0.012509364 0.051382653 -0.01803754 -0.0067417966 -0.004686615 0.06653398 -0.01664336 -0.026457528 -0.028606758 -0.007589135 -0.00811628 -0.008721954 -0.04045881 -0.005701287 -0.006129221 -0.017887272 -0.022967545 0.009508114 -0.029936735 -0.025733111 0.09033222 -0.027858553 -0.017300328 -0.010252665 -0.0039398656 -0.0086364215 -0.013076955 0.034394667 0.0045610815 0.0036884118 0.02039761 0.07489386 -0.021898737 -0.014075018 0.02319073 0.020927234 -0.0130555695 -0.013301069 -0.012528506 -0.004964066 -0.012387236 -0.014606549 -0.01502876 -0.011321061 0.05655395 -0.024214689 -0.016953995 -0.021560382 -0.026199589 -0.0024252888 -0.029431386 -0.0107411025 0.021361845 -0.00030389318 -0.015117104 -0.025490833 -0.016811702 -0.0061787907 -0.00034721123 -0.024889937 -0.015998017 -0.01305601 0.007877784 -0.020511616 -0.0070372834 -0.015289928 -0.0303762 0.07221463 -0.027406245 -0.00091330707 -0.010460056
195 0.030348139 0.0047643967 3.2451004e-05 -0.019285662 -0.0027194202 0.14835538 0.11635757 -0.029150603 0.04658024 -0.0028514124 0.02071068 0.11557035 -0.012410037 0.060132064 -0.023334486 0.08267774 0.059704736 0.07096312 0.015577747 0.070388794 -0.0123164775 -0.0058186683 0.082175925 -0.0114461975 -0.006131805 -0.012674031 0.02022677 0.07158479 -0.0026477815 0.0535249 0.10542263 -0.003157527 -0.021989986 0.026330091 -0.034413792 0.09876888 -0.010587941 -0.00843516 -0.04027989 -0.015746929 -0.0036105828 -0.0144604 -0.014814928 -0.032796357 -0.008497769 -0.02475535 0.060910117 -0.020789007 0.073276356 0.021937499 0.017763246 -0.006578665 -0.021020358 -0.02804843 0.11670566 0.027026845 0.11140028 0.020348713 -0.0018766824 -0.019073198 -0.0014175185 -0.013105372 0.056849692 -0.009608685 -0.011750597 -0.0063383738 -0.024462441 -0.006203696 -0.01804364 -0.015776241 0.0235399 0.06258567 -0.0149307195 -0.01497252 0.023156673 -0.011983924 -0.015919045 -0.00051270373 -0.0058142697 -0.009220379 -0.00379127 -0.004843825 -0.0029041872 0.03010748 -0.004635175 -0.009204287 0.066269144 -0.0032193211 0.036806062 -0.015628671 0.01825817 0.024349663 0.003911147 -0.0137156695 -0.0067646503 -0.007890493 0.07335879 -0.010113089 0.024207115 -0.017058533 -0.016971394 0.0875787 0.0056322776 -0.012973278 -0.027578926 -0.013442089 -0.019141039 -0.024860969 0.08830297 0.07681842 -0.0064703682 -0.011543511 -0.010641835 -0.013211592 -0.007445658 -0.014500848 -0.020086432 0.0015556524 -0.0095361965 0.011757219 0.0072564334 -0.013354507 -0.009138757 -0.013952392 0.15251444 -0.0074606026 0.007929407 -0.018580534
207 -0.0037485156 0.03472137 0.014463078 -0.011950894 -0.0009377184 0.14893359 0.00013729464 -0.018382544 0.08048631 0.04982236 -0.0039777085 -0.0033971574 0.029274806 0.076295726 -0.00785422 0.04748406 0.025938313 -0.0009910336 -0.0037476835 0.10055598 -0.008339039 0.048913594 0.15592025 -0.017472222 -0.017591173 -0.0077182725 0.111337334 0.022550184 0.057233658 0.016751371 0.07793279 -0.014339032 -0.016277488 -0.005010722 -0.018307546 0.076618984 -0.0016591366 -0.00022911765 -0.034173977 -0.005681304 0.004317132 -0.014386231 -0.0069209225 -0.033386115 -0.019434584 -0.013367667 0.04938795 -0.015090681 0.055791643 0.0020802524 0.074712954 0.006751951 -0.015655464 -0.01351318 0.008061512 0.044189148 -0.006131789 0.05765741 0.060214676 -0.017012531 -0.00580973 0.0029071122 0.043482065 -0.008671863 -0.01440894 -0.006716749 -0.0006508112 -0.007185916 0.028287418 -0.031223902 -0.0031845241 -0.0057987473 -0.004213895 -0.019357286 -0.008537098 -0.021397594 -0.0053927586 0.09246951 0.04165217 -0.018307822 0.020414596 -0.0031565041 0.0134509355 0.015152154 0.0069392044 -0.027746467 0.047671124 -0.014275633 0.058238003 -0.021504678 -0.009902551 0.028891625 0.1225678 -0.019022794 0.020433152 -0.016100759 0.032962736 -0.0073754597 -0.002843729 0.027553957 0.00331299 -0.00196542 0.028068539 -0.010247905 -0.0303139 -0.007603111 0.06281582 -0.028341934 0.016324319 0.06523908 -0.00023996457 -0.0037456788 -0.0038207327 -0.0010478416 0.04446182 0.012042344 -0.010372736 0.0034375982 -0.0066228183 0.024982234 0.018845342 -0.015889473 -0.0057090274 -0.018670464 0.13818425 -0.01449796 -0.008869521 -0.0005578105
199 -0.007758913 0.0048429556 -0.010263831 -0.01166432 -0.012337741 0.08590242 0.05107691 0.0043341964 0.07868517 -0.0073355497 -0.0019503332 0.042778682 -0.008249424 0.022315191 -0.013863334 -0.0039150356 0.06489576 -0.00090499985 -0.009553468 0.14251202 -0.005165666 0.024034847 0.10675098 -0.0057429085 -0.020544074 -0.021674322 -0.005081412 0.048824333 -0.0041047926 0.0662927 0.02165085 -0.007309115 -0.016608076 -0.023544153 -0.024183078 0.12912615 -0.015997807 0.0011930643 -0.040083244 -0.010991602 0.002215025 -0.017111257 -0.008515518 -0.020291332 -0.017616436 -0.011749952 0.0340481 -0.027121661 0.031240676 0.02362193 -0.0042977976 -0.00550401 -0.015395139 -0.018871805 0.11666646 -0.0013920695 0.018192835 0.02821881 0.034993634 -0.016060797 -0.009605671 -0.0054949895 0.095684 -0.034098208 -0.01651658 -0.026684923 -0.015240545 -0.0102597065 -0.00949229 -0.025703344 -0.005319374 -0.0036747772 -0.012438128 -0.02359788 -0.009756273 -0.02623243 -0.02555806 0.09322905 -0.014445533 -0.0051174974 -0.0108887125 0.021032803 -0.0074346038 -0.0023832736 -0.02078667 -0.017101172 0.02152692 -0.0024240946 -0.0046555186 -0.010535317 -0.0084220385 0.07294902 -0.0058687553 -0.014499395 -0.0024305452 -0.010157859 0.019884534 -0.013902256 -0.012884396 -0.009377375 -0.0045278035 0.05258658 -0.0065653077 -0.002164671 -0.016372845 -0.0035955557 0.048496917 -0.018473556 -0.0020619787 0.033075094 -0.020049071 -0.00883796 -0.031164115 -0.010018452 -0.008307024 0.0047280453 -0.021339962 -0.013405201 -0.0057814717 0.027182715 0.013776913 -0.012718737 -0.018900504 -0.01982954 0.16382097 -0.028616635 -0.005629824 -0.0010668117
205 -0.0074998024 -0.011292165 -0.01439648 -0.027151937 -0.017594846 0.147423 0.06247095 -0.048322503 -0.009827785 -0.04023488 0.039203726 -0.010462388 -0.022309234 -0.02394407 -0.023148073 0.06216811 0.024386456 -0.012445951 -0.0089930175 0.0024362705 -0.0016750423 0.013376046 0.03580051 0.030942507 -0.02966377 -0.016397735 0.03859943 0.053261034 -0.032207735 -0.00091608375 -0.007481906 -0.029233972 -0.042581376 -0.020302396 -0.030390924 0.008043547 -0.017787535 -0.019128365 -0.03868641 -0.004155267 -0.024668364 -0.02140061 -0.019378567 -0.04989492 -0.011576929 -0.022444567 0.06960867 -0.00080835895 -0.024286553 -0.021225985 -0.013296026 -0.0145738525 -0.0050018583 -0.030737504 0.16171673 -0.008697922 0.04860178 -0.015271026 -0.0013316054 -0.032895885 -0.020990202 -0.02560815 0.094614625 -0.03032964 -0.027205247 -0.04799513 -0.025241343 0.10869409 -0.016506637 -0.030685142 -0.010710415 -0.0061400994 -0.011298287 -0.030081687 -0.0036044624 -0.038264308 -0.04276844 0.02538686 -0.025260935 -0.027753973 -0.014030431 0.063429445 -0.02400006 -0.016572153 -0.009494105 -0.030106345 0.0019925404 0.017992483 -0.015941802 -0.03627527 -0.019427074 0.038778514 0.021355515 -0.030709524 -0.0049736667 -0.018693121 0.037594747 0.0049518645 -0.024161864 0.015248347 -0.016912462 -0.008298322 -0.0005967502 -0.01809751 -0.021015344 -0.011279139 -0.013868849 -0.020290868 -0.023729457 0.062230714 0.0108296685 -0.018264856 -0.017239992 -0.02416141 -0.0058822487 -0.0069648633 -0.034837134 -0.02315481 -0.00018894357 0.02651597 -0.00088167115 -0.024001662 -0.025818497 -0.032512102 0.052032083 -0.031517792 -0.002625236 -0.030837847
198 -0.00032514075 -0.004963266 -0.0032626272 -0.02317791 -0.017383805 0.11365902 0.045802325 -0.019162823 0.12152304 -0.021457886 -0.0028491558 0.031861734 -0.0058757686 0.115426876 -0.017178094 0.0076766238 -0.00051969214 0.016071625 -0.0029685553 0.12776278 -0.0076145753 0.083263725 0.041443028 -0.016266676 -0.014426666 -0.008204216 0.1522139 0.13907132 -0.0010604121 0.04622898 -0.015143461 -0.03205934 -0.0038928413 -0.02002601 -0.002467238 0.05893482 -0.009056083 0.024353556 -0.028889352 -0.00888514 -0.009076569 -0.022283286 -0.018482948 -0.023941694 0.011970837 -0.031448405 -0.0022034363 -0.020688532 0.097938225 -0.019332174 0.012182589 -0.017508376 -0.017392172 -0.024490653 -0.010960186 0.068144225 -0.0023466148 0.0027826354 -0.0067697302 -0.010235234 -0.029750666 -0.005850611 0.009564865 -0.027794663 -0.01889628 -0.0134897875 -0.004799904 0.005722261 -0.027253507 -0.02823068 -0.01170432 0.0065360665 -0.025010346 -0.032724574 0.06734704 -0.014016173 -0.024554659 0.027369907 -0.012166167 -0.028468782 -0.009134586 -0.012387182 -0.00092600513 -0.0062045874 -0.012327062 -0.0038937188 0.08495183 -0.00076314324 0.1522759 -0.020262267 -0.010597684 -0.015985621 0.027719712 -0.008957422 0.018552246 -0.010854597 0.054634973 -0.008118622 -0.020331848 0.0100316405 -0.0025966056 0.08590795 -0.0015029829 -0.011246008 -0.019902369 -0.013084725 0.0130696595 -0.021229757 -0.0054197777 0.04901538 -0.006575019 -0.007199757 -0.012823402 -0.015528517 -0.013419076 0.03827135 -0.022348484 -0.001787804 -0.01075158 0.0050929356 0.050399866 0.006849589 -0.0153532 -0.021046396 0.11429264 -0.010635688 -0.014389626 -0.007601437
194 -0.0076067895 0.020057559 -0.0012253784 -0.017044833 -0.0017741695 0.08988175 0.1284897 -0.022310799 0.043946836 0.016743463 -0.02079407 -0.0070796385 -0.009990209 0.06409054 -0.0072262767 0.03825697 0.017176213 0.031690266 -0.013320799 0.09169068 -0.003629408 -0.0098305745 0.1052317 -0.029422922 -0.012618634 -0.030410293 0.011993844 -0.0030923851 -0.0032793456 0.022573464 -0.018714216 -0.019198949 -0.028049523 -0.008777503 -0.042818546 0.08041473 -0.0007888608 0.0069993464 -0.01662594 -0.011974615 -0.016747972 -0.018433522 -0.025656352 -0.03354153 -0.016666142 -0.047318384 0.03391631 -0.027189547 0.031214025 -0.016813545 0.07830558 -0.032016568 -0.0014421095 -0.024963733 0.022577262 0.043107986 0.07106966 0.08054433 -0.008097962 -0.001620789 -0.012544721 -0.013854282 -0.0004931264 -0.045753635 -0.016161637 -0.03164794 -0.008395365 -0.0015571266 -0.012851228 -0.04928613 0.096506484 0.03303138 -0.023639198 -0.028973067 -0.03086331 0.015612179 -0.022821615 -0.008314483 0.0077411234 -0.01713576 0.022326311 -0.013451357 0.07621419 -0.013929657 -0.015179311 -0.0045860657 0.07852351 0.020386871 -0.016134098 -0.044856355 -0.03067801 0.017435664 0.043487683 -0.02762264 -0.0024679003 -0.012471123 -0.011774041 -0.013303548 -0.0067153247 -0.011090428 0.00085551664 0.017765827 -0.027436648 -0.016947163 -0.019632459 -0.03097776 0.0302006 -0.012548435 0.06870732 0.058187373 -0.0056014457 -0.02177845 -0.022541005 -0.0038384635 0.015359424 -0.026655499 -0.030122502 -0.0028356283 -0.0062702172 0.02618506 -0.005721517 -0.0100931395 -0.010720803 -0.038767964 0.0775882 -0.007716372 -0.010847232 -0.022197548
193 0.016897554 0.013634745 -0.01360139 -0.019859357 -0.0077093663 0.1109635 0.16127095 -0.014185989 0.029747471 -0.009278194 0.005449772 0.06343727 -0.0016593718 0.16805111 -0.01820747 0.009863246 -0.01333972 0.05235631 0.023302905 0.05009474 0.005260554 0.0089617595 0.09425951 -0.021303289 -0.0009650439 0.035798546 0.041607726 0.08369136 -0.0014408857 -0.008984242 0.029284388 -0.01322283 -0.0059414688 0.0025374824 -0.017188055 0.08080922 0.020925034 0.01636488 -0.013199398 -0.01033955 -0.0010817422 -0.009738471 -0.01649448 -0.020007007 0.0013879184 -0.029303273 0.1328954 -0.019329054 0.10218534 -0.0055647804 0.119188465 0.033349168 -0.019751886 -0.013528307 0.014257214 0.11057541 0.029860362 0.09264462 -0.00249317 -0.012924544 -0.005151633 -0.008733362 0.0059050005 -0.01339252 -0.008977123 -0.016870946 0.034395143 -0.0016950716 -0.015456008 -0.02391251 0.057275012 0.059532862 -0.0053702253 -0.011850868 -0.009729737 0.031708457 -0.018765181 0.012966009 0.017894294 -0.012737318 0.046282463 0.013655558 0.107944384 -0.0070011066 0.04993821 -0.013644457 0.21084973 -0.0152071295 0.061999504 -0.024030307 0.009202551 -0.010509304 0.12085198 -0.015206331 0.0066471715 -0.01760396 0.027684916 -0.010650913 0.014825442 0.01998208 -0.0028531302 0.09431425 -0.018892838 -0.010942436 -0.019423056 -0.008155368 0.021920089 -0.01621853 0.07114436 0.07786196 -0.010651932 -0.0021801803 -0.017294457 -0.0042654932 0.026513424 0.0052785017 -0.020698497 0.062399194 -0.0015608224 -0.0014749598 0.028685506 -0.018600175 -0.007940059 -0.021439446 0.115520224 -0.011543094 -0.019251643 -0.008479051
208 -0.010886669 -0.00035386533 -0.0057812477 -0.0012218312 -0.008342076 0.19325088 0.13839354 -0.026512092 0.014482058 -0.017277569 -0.0048364163 0.039434437 -0.023574404 0.029131638 -0.014989711 0.059862945 0.04221627 0.1518539 -0.0023047484 0.19973226 0.012869874 0.06614803 0.023701381 -0.014572724 -0.013878289 0.009924789 0.057881866 -0.0019980052 -0.0005150456 -0.0017404432 0.038029864 -0.008809665 -0.028789535 -0.016982036 -0.027605891 0.045619555 -0.0046147224 -0.026732642 -0.031195585 -0.015313021 -0.0020784582 -0.016303306 -0.0251018 -0.037631057 -0.0068412507 -0.017332975 0.022903308 -0.023669204 0.101299465 0.014796073 0.056713473 -0.014842226 -0.02262033 -0.032848917 0.011757824 0.025213843 -0.0073090307 0.06587361 0.02570715 -0.019522637 -0.017615845 -0.0073619145 0.07886898 -0.0066810376 -0.015027532 -0.023370733 -0.008827774 -0.013028375 -0.013659246 -0.03424297 -0.0036871464 0.10299443 -0.017627988 -0.01575894 -0.020741826 -0.008542134 -0.01928286 0.0058047455 -0.012348889 -0.018372558 0.08665401 0.01780945 0.08713174 -0.007973271 0.0023220778 -0.039029103 0.15988767 -0.013725429 0.0652982 -0.029465765 -0.011967568 -0.0066460893 0.021284228 -0.014500702 -0.01576916 -0.03305012 0.03589244 -0.015770102 0.042731963 -0.017022956 -0.021356715 0.03971205 -0.016922401 -0.0026982676 -0.018359067 -0.0122141335 0.04263465 -0.0195257 0.020592187 0.07677116 -0.02676008 -0.014474997 -0.021282692 -0.024531381 0.06132606 -0.012248663 -0.022079948 0.031039607 0.03695746 -0.010072323 0.05581097 -0.019233992 -0.01143008 -0.020808296 0.1430249 -0.008658221 -0.01337063 -0.014744504
201 -0.0020532357 -0.004849107 -0.009661923 0.052702583 0.010319076 0.18722503 0.124340825 -0.021056918 0.13707332 0.10618075 -0.018896423 0.08151348 0.029788315 0.043590203 -0.026063954 0.016680155 -0.015463136 0.050469305 -0.00766324 0.08277801 0.034880403 -0.0065826583 0.10061936 -0.019228427 -0.007632849 -0.016675087 0.031147923 0.051312655 0.009002633 0.036113095 0.0030171312 -0.016367381 -0.021074338 -0.015824515 -0.016513644 0.035356995 -0.0061797346 -0.001402581 -0.0321217 0.020389155 0.011209284 -0.01712093 -0.00863035 -0.019665375 0.012512064 -0.026109109 0.07294385 -0.027558887 0.09325911 -0.0021557428 0.026162576 -0.0063774735 -0.029481743 -0.014111697 0.04184307 0.046336353 0.13404438 0.07476345 -0.000353254 -0.009161516 -0.0016683452 -0.009907849 0.041767284 -0.009673868 -0.020896973 -0.0076174173 -0.014127331 0.031461366 -0.010738044 -0.015724597 0.101872586 0.1353704 -0.00968831 -0.017488187 -0.007825111 0.16566235 -0.027247325 0.043966934 -0.0015083693 -0.0045976844 0.04392188 -0.014919666 0.07563325 -0.0059009823 0.03311345 -0.014079523 0.19118604 -0.0192954 -0.0006491678 -0.01018945 0.015806504 0.011179874 0.021339348 -0.024013774 0.023718977 -0.004564609 0.01632153 0.11709286 -0.0053046145 0.015235182 -0.0051554465 0.11133255 0.0036397725 -0.01683327 -0.0019072827 -0.0022269397 0.013258323 -0.015824273 0.06597915 0.16001916 0.05130038 0.033761196 0.038426742 0.0069666887 -0.01373207 0.047503088 -0.02965192 -0.004566147 -0.014349597 0.05695699 0.051547218 -0.0038011004 -0.008191234 -0.024674209 0.08690889 -0.011504281 0.008569941 0.002580028
18 -0.058430612 -0.07494539 0.09735671 -0.15900117 -0.09306456 0.092428274 -0.062482502 -0.0709772 -0.022506744 -0.061183702 0.07533412 0.017786156 -0.11972904 -0.21943703 -0.13843487 -0.13675873 -0.026918544 0.12508388 -0.12276298 0.4372643 -0.10396111 -0.038225364 0.34160608 -0.18637753 -0.15851049 -0.10554635 1.7834225 0.8446262 -0.026503298 -0.06332819 -0.08484914 -0.12616183 -0.12340259 -0.20764449 -0.18577638 0.45029795 -0.11484545 -0.026427427 -0.12122395 -0.15944472 -0.09149205 -0.07657387 0.38204083 -0.16197862 -0.082571566 -0.30089167 1.0979438 0.02166446 -0.105926745 -0.0410724 -0.10868337 -0.037433624 -0.038344417 -0.11824664 -0.059458 -0.067934416 -0.26847154 0.6999488 -0.03255602 -0.1286098 -0.14353147 -0.08545794 -0.011263979 -0.16638966 -0.1994036 -0.14436148 -0.056070954 -0.066696934 -0.13287799 -0.26344875 -0.13598056 -0.06766773 -0.11095407 -0.133211 -0.041491754 -0.15884833 -0.077713914 0.027813183 -0.01364511 -0.12702985 -0.087620154 -0.0452679 -0.054197878 -0.13002011 -0.13426779 -0.06452123 0.18908048 0.73115 -0.08432536 -0.122238554 -0.06594228 -0.08167497 0.14875342 -0.13125785 0.09280902 -0.036824364 -0.028348455 -0.10154927 -0.12294211 -0.07482083 -0.032075882 -0.038485605 -0.0710355 -0.02378113 -0.11450583 0.063724585 -0.11902411 0.712301 -0.05102483 1.2084725 -0.009387621 -0.23753074 0.005461691 -0.03944729 -0.042331576 -0.14823358 -0.2582722 -0.102929614 0.85397536 -0.092818454 -0.0143553605 -0.2369893 -0.06415405 -0.05662592 -0.012653229 -0.095919035 0.72233933 -0.05922485
19 -0.08203448 -0.07791236 0.03466245 -0.10139059 -0.097253814 0.30187723 -0.037742294 -0.10655363 0.00022434536 -0.07922123 0.22011892 -0.002851484 -0.07301576 -0.16907546 -0.14023754 -0.1158995 -0.06274685 -0.02738041 -0.07248741 0.4832655 -0.06467406 -0.030326879 0.182244 -0.12997325 -0.09055319 -0.07474728 0.99213976 0.7551744 -0.04762792 -0.030900393 -0.025874121 -0.11718559 -0.12099301 -0.104119174 -0.14321294 0.36328262 -0.09775478 -0.068320446 -0.06354814 -0.13715862 -0.026078273 -0.060463417 0.2708757 -0.1422572 -0.07903302 -0.19313043 0.42682952 -0.027722953 -0.06901431 -0.0015343737 -0.08130321 -0.06463774 0.04723645 -0.078896925 -0.062868014 -0.03733979 -0.16048844 0.6382837 -0.03324162 -0.089064494 -0.11255087 -0.07124693 0.12142496 -0.1710519 -0.10108929 -0.101741806 -0.04641195 -0.04544587 -0.117968634 -0.18159996 -0.06190008 -0.05641299 -0.07376898 -0.11447624 -0.045086272 -0.14119792 -0.084212154 0.10443369 -0.036499694 -0.08820201 -0.100894205 0.091416426 -0.033624977 -0.09762045 -0.09380599 -0.08494412 0.08993065 0.42229426 -0.086214654 -0.12017416 -0.0952325 -0.09032903 0.05824335 -0.10339153 -0.009879201 -0.030927533 0.004805166 -0.09891144 -0.13963275 -0.12659506 -0.0020323817 -0.04516503 -0.04475518 -0.013967085 -0.088289335 -0.07530766 -0.09356179 0.57061106 -0.058300484 0.4694186 -0.07968 -0.16550745 -0.06829997 -0.03404765 -0.036517087 -0.10671302 -0.23271511 -0.053557005 0.7391887 -0.036319353 -0.004097838 -0.1875179 -0.0862871 -0.11502369 -0.005265978 -0.066544145 0.669241 -0.05253921
20 -0.028405333 -0.03497152 0.15760496 -0.08465894 -0.05516384 0.49957648 -0.06690974 -0.070746556 0.272628 -0.030626198 -0.00818408 0.2605259 -0.044125583 -0.1161415 -0.12546352 -0.046943597 -0.09238413 0.02051415 -0.047085296 0.4111443 -0.06928348 0.10593332 0.3676428 -0.15746091 -0.05494666 -0.060292322 0.810152 0.79782045 -0.015922451 -0.0015085603 0.09758494 -0.09922191 -0.059544053 -0.091034584 -0.07177747 0.5265607 -0.048860684 -0.07220258 -0.07882436 -0.08958757 -0.020257 -0.105377115 0.25525138 -0.072096385 -0.045604553 -0.12623057 0.56550133 0.06886406 -0.0051342035 0.114835694 -0.037784442 -0.0448013 -0.0024842692 -0.06322581 -0.076464094 0.012130633 -0.12253108 0.78216654 0.065838255 -0.06652041 -0.033792026 -0.01269542 -0.0168053 -0.12443458 -0.06434488 -0.06960573 -0.0049723755 -0.04035469 -0.082309596 -0.15375899 -0.04139867 0.0043379404 -0.009904644 -0.085629754 -0.012970549 -0.081872515 -0.025639553 0.19990508 -0.0080738105 -0.058854796 -0.07373767 0.26073802 0.12832244 -0.038312085 -0.060024347 -0.095078275 0.25220314 0.11610243 -0.025858441 -0.09068907 -0.038842537 -0.11325929 0.17579536 -0.061755966 0.05324231 -0.005473642 0.15334103 -0.05308348 -0.09798759 -0.08850488 0.28885955 -0.008408056 0.03376296 0.13134962 -0.06553843 -0.04279649 -0.044415094 0.33860216 0.10351083 0.43629444 -0.019787878 -0.11125696 -0.03848781 -0.007871251 -0.0006111373 -0.05662639 -0.16525388 -0.027015978 0.5935124 0.027003655 0.2410514 -0.14102411 -0.06038804 -0.080123976 0.2531488 -0.021845276 0.34504932 -0.02069713
21 -0.013417239 -0.012354128 0.3236828 -0.101853125 -0.047067553 0.52133876 -0.090987444 -0.032930147 0.24728331 -0.025515974 -0.020118002 0.3075102 -0.03649182 -0.115588225 -0.11283381 -0.03190896 -0.05943455 0.21607949 -0.031004174 0.38897443 -0.0853912 0.23985976 0.5389802 -0.21212451 -0.06075989 -0.025881847 0.99615616 0.8741088 0.13554212 -0.0023743892 -0.03447886 -0.06505125 -0.064664945 -0.11559739 -0.07443963 0.46211708 -0.024358084 -0.06006024 -0.07740828 -0.074610084 -0.006159544 -0.124031834 0.3501332 -0.056779183 -0.006382394 -0.12792334 0.7176144 -0.0032696777 0.11728042 0.3050726 -0.031336423 -0.026209876 -0.03881649 -0.043647386 -0.06679917 0.075955175 -0.15192679 0.97637534 0.12673466 -0.04077579 -0.01982337 0.002004588 -0.0027632744 -0.11335313 -0.056987356 -0.05941192 -0.0033647583 -0.062306978 -0.060374018 -0.13420258 -0.062197246 -0.015492732 -0.014583853 -0.08081979 -0.0063594463 -0.08756255 -0.026581526 0.070144266 0.1308323 -0.048794936 -0.056337923 0.2557584 0.085250504 -0.025418654 -0.05084255 -0.07694639 0.42185515 0.11084318 -0.0012933895 -0.08411211 -0.01948131 -0.106927216 0.24898826 -0.051810946 0.041481547 0.014377318 0.16292498 -0.04728547 -0.07702683 -0.057993095 0.3502855 0.078562275 -0.0025943683 0.14147002 -0.050647188 0.019574232 -0.060581904 0.27453738 0.07477574 0.62324494 -0.0012148463 -0.074560985 -0.044190407 -0.013926203 0.09887773 -0.05303284 -0.112384275 -0.02453665 0.59856415 -0.0009795141 0.21304148 -0.12761493 -0.011133335 -0.04085062 0.23590259 -0.010324608 0.29980505 -0.016333476
22 -0.023347832 -0.019862352 0.30905348 -0.12361091 -0.053991795 0.23877706 -0.08934551 -0.022826297 0.20927605 -0.016721942 -0.029613614 0.11156027 -0.044112924 -0.12644659 -0.07670148 -0.06358148 -0.07545399 0.4296684 -0.057356488 0.35737565 -0.09155818 -0.007138347 0.20501852 -0.15893534 -0.080523394 -0.04996656 1.2811435 0.68642586 0.018725973 -0.0128978165 -0.012855227 -0.09126332 -0.07165898 -0.10628054 -0.08832257 0.4028033 -0.052803796 -0.029462624 -0.06720131 -0.0619724 -0.04314583 -0.12655257 0.34411117 -0.07261043 -0.029701797 -0.16010286 1.0260669 0.030636545 0.006270107 0.03822148 -0.03022477 -0.04500984 -0.06729791 -0.06259632 -0.07586152 -0.021385672 -0.1672051 0.7358013 -0.0054756696 -0.07477199 -0.05837326 -0.016306054 -0.022036627 -0.114726685 -0.10119595 -0.07095992 0.09671478 -0.030232906 -0.094970025 -0.16528319 -0.07661401 -0.009706417 -0.05598368 -0.08700626 -0.021431958 -0.10839909 0.06933789 0.1075674 -0.010823293 -0.08746893 -0.018990025 0.072364666 -0.012145561 -0.030868715 -0.08214959 -0.08730942 0.4320516 0.33971307 -0.0055813114 -0.019712178 0.010563653 -0.07355374 0.27001706 -0.05359298 0.01721193 -0.011557601 0.111055166 -0.07021486 -0.06502461 -0.04793438 -0.0020513048 -0.0027683382 -0.015056172 0.18108556 -0.07039028 0.19484226 -0.058652487 0.45223626 0.08204503 0.82422453 0.02912908 -0.12652157 -0.01467035 -0.047873247 0.04149726 -0.051877495 -0.16788848 -0.013515395 0.8115054 -0.037812274 0.1948794 -0.12702525 -0.027294612 -0.039367873 0.20121767 -0.01936922 0.40247536 -0.044332784
23 -0.02886643 -0.040814623 0.055990797 -0.07195368 -0.039672993 0.35494703 -0.043850206 -0.051708546 0.02411481 -0.037725747 -0.0033266023 0.15280065 -0.0391409 -0.11799896 -0.10287013 -0.053537246 -0.05461776 0.11111423 -0.04090804 0.393523 -0.049632277 -0.0005388685 0.01581135 -0.12625979 -0.03963928 -0.04282323 0.6701407 0.6691512 -0.014559472 0.0021096421 -0.007721949 -0.08366201 -0.054787535 -0.0792292 -0.063060805 0.38245684 -0.038389694 -0.062876604 -0.058174957 -0.08793887 -0.0182301 -0.10543275 0.32579643 -0.061375033 -0.0524722 -0.11736264 0.46143112 -0.0071099475 0.048415583 0.12109682 -0.053816557 -0.05551628 -0.021830598 -0.0533126 -0.05604021 -0.013004153 -0.108965375 0.5624513 -0.016860416 -0.07538583 -0.024122475 -0.018264556 0.022261865 -0.096792385 -0.035308234 -0.037980784 -0.0044463 -0.033985358 -0.08035607 -0.10815885 -0.035507184 -0.008800563 -0.043543022 -0.060429573 -0.02658319 -0.091529205 -0.007150346 -0.015915805 -0.019991217 -0.035090648 -0.040322088 0.07819811 0.021391124 -0.03825588 -0.05524805 -0.07012777 0.23206016 0.12732565 -0.024906863 -0.098705344 -0.04459012 -0.07856095 0.10044862 -0.045200367 -0.05706972 -0.0137130665 0.21628335 -0.05308075 -0.11005189 -0.10129511 0.16286907 -0.0010489131 0.009980924 0.03500612 -0.067966774 -0.021749293 -0.050583716 0.37333757 -0.012373487 0.35596547 -0.026359556 -0.079189405 -0.020430086 -0.046666373 -0.038454834 -0.051500034 -0.1592302 -0.0015882539 0.6952179 -0.016616516 0.16113938 -0.06825651 -0.048400853 -0.060536075 0.059304744 -0.034371708 0.3488356 -0.018795341
