246 128
0 0.023185208 0.43588495 -0.55773544 0.17233327 -0.13700856 0.69200444 -0.2568291 0.37573448 -0.39419848 -0.9377142 -0.33908242 -0.064604186 0.31104556 0.349305 -0.09530791 -0.65310436 -0.30676535 0.24434671 0.20542116 -0.08860519 0.090750426 0.4006027 -0.2117973 0.34380382 0.17864859 0.5622425 -0.5147899 -0.21937804 -0.23410219 -0.19861399 0.24930388 0.5153722 -0.28263324 0.18419157 -0.3408628 -0.019095909 -0.11096074 -0.07417643 0.4202609 -0.6493755 0.0024339447 -0.6855984 -0.16717392 -0.094176084 0.10801025 0.1995719 -0.06503124 0.06629111 0.07251104 -0.14708745 0.12466109 0.13371488 -0.09243882 0.04949826 0.19697647 -0.16102937 0.24084073 0.43625218 -0.27712387 0.1566772 -0.22187775 0.3588191 0.34197065 -0.4099649 0.08806401 -0.53954995 -0.14022665 0.30985174 0.28072277 0.3048953 -0.024398271 -0.25204852 -0.44734448 -0.03785842 -0.3755552 0.13667932 0.34474835 0.3005704 0.2193499 0.3613739 -0.029760225 -0.18533525 0.13568714 0.14269444 -0.5558732 0.9911394 -0.18038394 0.76967865 -0.040500317 0.8585191 -0.564742 -0.2273173 -0.27802274 0.81541204 0.27206948 -0.21798521 0.3570631 0.26338413 0.552898 0.5146524 -0.16858777 -0.31379247 -0.09762963 -0.41938117 -0.04558148 0.123640165 0.50640076 -0.78898615 -0.2187334 -0.16717193 0.6892006 0.29676124 0.7020158 -0.18137681 0.26926526 -0.15023074 -0.083316445 -0.7855926 0.63045806 0.718987 -0.07341972 -0.4598257 -0.13953224 -0.44207937 -0.23851225 -0.067212194 -0.31427023 0.8575276
1 0.014025597 0.12814142 -0.17994674 0.21878566 -0.2053729 0.6347479 -0.20211133 0.16973259 -0.17041305 -0.8725144 -0.18205863 -0.01563572 0.15370113 -0.10615069 -0.11725142 -0.82091117 -0.09813816 0.22780867 0.35278723 0.29442793 -0.2453372 0.16652574 -0.21262434 0.59338903 -0.16422176 0.17674004 -0.719779 -0.0814037 -0.5148777 -0.47347033 0.049063876 0.23193587 -0.35634944 0.07982001 -0.09076995 -0.122695275 0.09994935 0.11177633 -0.091051355 -0.66394734 -0.050959118 -0.5318005 -0.3076417 -0.35481414 -0.13286091 0.46563014 -0.16403393 -0.13308741 -0.23637757 -0.10907156 0.048573073 -0.073713936 0.4447673 0.030538267 -0.057274345 0.10759119 0.36130086 0.13694762 0.09559423 -0.03528974 -0.018033653 0.58111906 0.20244835 -0.4922975 0.18000928 -0.56294334 -0.29989228 0.041782096 0.21836095 0.0508624 0.14298572 0.057775404 -0.13765143 0.07425996 -0.5822706 0.22078942 0.24012995 0.052480783 0.15502448 0.14458843 0.28877962 -0.2338757 -0.13397013 -0.23271462 -0.4538646 0.9771405 -0.46081865 0.9366832 -0.20963398 0.40648395 -0.49342835 -0.1532945 -0.1502317 0.57834375 0.4051675 0.08784472 -0.17969905 0.13015196 0.29919147 0.20602939 -0.05435083 -0.33188847 -0.16914582 -0.1275496 -0.2692921 -0.032649275 0.54541075 -0.38559377 -0.14605239 -0.2003212 0.5628405 0.22483589 0.45227274 -0.050991654 0.4744467 -0.33617353 0.12001429 -0.63172966 0.5903353 0.5600063 -0.21099943 -0.16935219 -0.013623349 -0.6944515 -0.2315969 0.13152878 -0.22564021 0.56937003
2 0.05433709 0.22648749 -0.23098284 0.037698314 -0.23126487 0.56006604 -0.26987928 0.20861259 -0.23551935 -0.59621716 -0.30246776 0.06445782 0.13298804 -0.07399574 -0.11275195 -0.52077657 -0.094017565 0.15339376 0.079250894 0.1297509 0.040099945 0.21386312 -0.031957366 0.34842998 -0.00015083954 0.3531254 -0.33019304 -0.023543531 -0.26772127 -0.14415364 0.081787296 0.25263852 -0.11636965 0.111205265 -0.14499357 -0.005701666 -0.06637231 0.07729591 0.21655877 -0.42095396 -0.04020851 -0.338607 -0.079069026 -0.11216095 0.05596215 0.16925173 -0.06333153 -0.058183637 -0.15215026 -0.031497374 0.0041279625 0.14970838 0.19256009 0.2183726 0.08980598 -0.048088107 0.20354664 0.09548718 -0.23567134 0.10189326 -0.22917858 0.3816628 0.10540944 -0.3137452 0.13734508 -0.4345178 -0.15463136 0.020411383 0.10825682 0.058077652 0.25043166 -0.0154929375 -0.2068946 -0.021901997 -0.3527867 0.09878142 0.39579904 0.1399268 0.15592295 0.12992191 0.09894499 -0.26638672 -0.009004189 0.039169043 -0.2800472 0.8166027 -0.18628299 0.58116525 -0.17824076 0.40543175 -0.25558028 -0.20642722 -0.23271976 0.39811483 0.12983511 -0.15159127 0.061758857 0.23131108 0.32947028 0.1311466 -0.041207504 -0.24626848 -0.054905444 -0.10303352 -0.16908175 -0.12095042 0.33576006 -0.27627942 -0.13034219 -0.12646563 0.48798367 0.11607503 0.36438346 -0.015736463 0.26538265 -0.12084279 -0.09713747 -0.40723974 0.2687751 0.44076407 -0.079806544 -0.23626666 -0.1294908 -0.43623585 -0.1927239 0.006990716 -0.24734367 0.40376678
3 -0.21394 -0.28112313 -0.3721617 -0.39937508 0.5474189 -0.3571808 0.10565505 0.569614 0.681224 -0.56906587 -0.07907032 0.13065876 0.49439764 -0.08145664 -0.1744928 -0.34523213 -0.54840374 0.20189191 0.08668264 0.28855035 0.031503092 0.096307844 -0.06693756 -0.02128969 -0.15836065 0.033814028 -0.118550435 0.27590045 -0.46146187 0.030519187 -0.020505518 -0.16921024 0.090029985 -0.46139345 -0.4749593 -0.14526033 0.24403954 0.123228945 -0.3254617 0.110035636 -0.05822938 0.009374572 -0.54192835 -0.088534914 -0.26164776 0.33920503 -0.08107351 0.29146835 -0.04611241 -0.10514057 0.117050506 0.3049888 0.12227953 0.22514246 -0.16323525 0.026865752 0.3405341 0.6411674 -0.030652674 -0.06813987 0.45139864 0.3996079 0.5883236 0.38063386 -0.048552856 0.14698835 -0.20779023 -0.06389134 -0.11782225 -0.03420935 0.19366124 0.5947045 0.55503935 0.23530464 -0.8152298 -0.38274482 -0.11388306 -0.3517345 -0.20269954 0.059876084 0.112499095 0.22431614 -0.3542227 -0.2763695 0.19943538 0.54817283 0.10238018 0.04680563 0.23560634 0.29103568 -0.6581147 0.6970209 0.37727368 0.06171707 -0.012227268 -0.030861635 0.19529766 -0.041303273 -0.20032986 0.6482622 0.15104754 -0.060151774 0.17479146 0.055981003 0.0482064 -0.14752516 0.223439 -0.66043884 -0.06362678 -0.20385042 -0.32881555 0.2036478 0.07124801 -0.15234827 -0.08731517 0.031566676 0.2927995 -0.2881789 0.09245336 -0.121816605 0.4307432 -0.19536075 0.1125437 -0.42039928 -0.0017320614 0.04675693 0.1624761 0.020925138
4 -0.06865903 -0.4235175 -0.62422365 -0.63004273 0.8110228 -0.49743667 0.102386594 0.8342083 0.46368313 -0.6785202 -0.012653086 0.12880301 0.6459519 0.0013233841 -0.1372648 -0.52844 -0.5728407 0.15940568 0.11218247 0.3224839 -0.02450803 0.23905651 -0.113074586 -0.25399688 -0.10411093 -0.13759287 0.008040015 0.38329226 -0.3938024 -0.029952757 0.03550017 0.06439919 -0.06875783 -0.5111676 -0.4774184 -0.14466083 0.07514252 0.09706197 -0.0837657 0.23157085 -0.23700763 0.02819105 -0.40292943 -0.07052712 0.19862974 0.19182597 0.10090581 0.3705147 0.081716895 -0.05028453 0.30508712 0.3099018 -0.16061614 0.19056477 -0.13105805 0.20558637 0.4567192 0.78043044 0.023048304 -0.096332 0.49274635 0.3324664 0.59356433 0.67047024 -0.23827928 0.32839245 -0.1996428 -0.10389978 -0.09294805 -0.018836102 0.1678731 0.7569084 0.73568577 0.2698873 -0.9115026 -0.2103002 -0.042313393 -0.41784316 -0.19560641 0.10005584 0.09300506 0.38332036 -0.6563072 -0.19372411 0.36071238 0.46660876 0.06511752 -0.0035261333 0.52364427 0.3389258 -0.7481343 0.6204754 0.45890155 0.12046795 0.06398168 0.104019724 0.20741083 -0.06548295 -0.31603897 0.6478814 0.19136123 -0.14237289 0.14285864 0.07610688 0.15392186 0.0146877775 0.1569685 -0.87574744 -0.07381695 -0.04017641 -0.30367225 0.2740684 0.057027016 -0.058307257 -0.18191066 0.1607581 0.33044016 -0.23981567 0.33616924 0.086852595 0.6792412 -0.34305102 0.26600426 -0.36578122 0.22737439 0.079388015 0.2180219 0.15618214
5 -0.14779407 -0.31866705 -0.68254673 -0.6030268 0.72124344 -0.47219434 0.10708236 0.8536778 0.5747426 -0.7375786 -0.15035644 0.1321132 0.6941664 0.005585968 -0.21298364 -0.45144758 -0.6488143 0.30026165 0.094130896 0.33985993 0.099001974 0.26505536 -0.06970614 -0.2193037 -0.030682107 -0.032776 -0.038404558 0.393866 -0.43002078 0.107798055 -0.017168526 -0.0032090368 0.08027786 -0.46503428 -0.58657354 -0.17586337 0.14353688 0.14085492 -0.13790214 0.12696709 -0.091548435 0.00825547 -0.4961995 -0.0366973 -0.02941133 0.22210227 0.08944311 0.40479028 0.057469882 -0.12297859 0.19037165 0.39286846 -0.023711272 0.3197101 -0.1750206 0.10540523 0.54202133 0.8906834 -0.053105716 -0.11802624 0.5256638 0.43436223 0.69570017 0.60655606 -0.19661848 0.27796268 -0.2518189 -0.05732045 -0.069434494 0.05596742 0.30012465 0.8202778 0.737081 0.28784293 -0.98625046 -0.29568803 0.09473353 -0.4672935 -0.28669032 0.11828159 0.070293464 0.25670874 -0.52067864 -0.24737439 0.35168815 0.60406953 0.083012365 -0.0415867 0.42743942 0.49188897 -0.8161099 0.74632573 0.42669076 0.11774321 0.023885151 0.04707491 0.33166173 -0.035131138 -0.23087011 0.65210056 0.1793171 -0.2054751 0.18982208 0.06015211 0.11038673 -0.037955467 0.2972486 -0.91139007 -0.10561586 -0.13002156 -0.38550064 0.3335714 0.11520709 -0.19709104 -0.13613097 0.1959905 0.34487373 -0.34229985 0.24556236 -0.016775342 0.66835034 -0.42337194 0.14982246 -0.4501029 0.19385408 0.05851815 0.19425508 0.18814886
6 -0.27074474 -0.25249484 -0.6233169 -0.5392283 0.5849494 -0.46274322 0.14457035 0.7114977 0.6208579 -0.80931383 -0.20537238 0.18321407 0.5963253 0.032662667 -0.25875852 -0.44550756 -0.61432344 0.39788786 0.06025534 0.2638407 0.07872851 0.17369391 -0.13430344 -0.095665134 -0.0076934826 0.04431634 -0.08848705 0.31714147 -0.4700136 0.12111109 -0.06939026 -0.004351819 0.039211147 -0.4830315 -0.590638 -0.22990146 0.1811863 0.13304894 -0.23640835 0.15245502 -0.039232355 -0.036831178 -0.60466886 -0.08576955 -0.17604652 0.29737535 0.013796944 0.34176633 0.03022424 -0.19441457 0.08225989 0.30786481 0.18257566 0.28086782 -0.19724558 0.104015805 0.6103079 0.8305923 -0.04089147 -0.13060138 0.47155625 0.40579867 0.7497291 0.4798145 -0.16158633 0.29381216 -0.21761215 -0.017868983 -0.10351243 0.13087347 0.20253555 0.83433855 0.7167443 0.13801712 -0.9259975 -0.32718712 -0.0056938035 -0.415044 -0.25491196 0.060033966 0.012285016 0.36477888 -0.4364493 -0.3659462 0.3019197 0.66002977 0.06844206 0.07125566 0.34515575 0.47957015 -0.90911895 0.7330652 0.3144201 0.15566894 -0.11622958 0.08530208 0.40732324 -0.05125086 -0.050911468 0.62091845 0.1264539 -0.12021865 0.11919662 0.06880508 0.06622476 -0.037857395 0.30904427 -0.92965746 -0.14713937 -0.20762786 -0.33883888 0.32414922 0.08518709 -0.18334125 -0.11630857 0.21239048 0.33411655 -0.3907825 0.233505 0.026700307 0.5390426 -0.38072646 0.24333942 -0.41118258 0.20443754 -0.029219018 0.18379682 0.31607914
7 0.01935432 -0.46239957 -0.43612573 -0.41432834 0.67997617 -0.27898514 0.15036213 0.7610561 0.59928167 -0.39582855 -0.0015899435 0.184188 0.5785202 -0.19884032 -0.09148074 -0.3765305 -0.5103631 0.16002916 0.05802287 0.36060995 0.021674357 0.1118799 0.06783513 -0.055389054 -0.1770813 -0.0566798 -0.046936326 0.38291064 -0.43271986 -0.09304664 0.00477922 -0.18921049 0.03406635 -0.44080788 -0.3926623 -0.12172175 0.13527234 0.14481016 -0.2535609 0.14313346 -0.26930958 0.09154801 -0.43435746 -0.1786561 -0.029281098 0.33608353 0.090290464 0.34999484 -0.080785744 -0.07826131 0.19799778 0.25081205 0.0064701545 0.24204227 -0.24054985 0.017300325 0.3353951 0.59864134 -0.074739575 -0.07017532 0.48550183 0.43606168 0.39748684 0.5610473 -0.11119287 0.068135306 -0.17163323 -0.19168447 -0.24551342 -0.07141814 0.3037047 0.68528134 0.63438916 0.35286132 -0.809188 -0.31738836 -0.07211564 -0.4195485 -0.20457323 0.16876182 0.10523404 0.15443854 -0.4504996 -0.12126118 0.25995177 0.4347703 0.21400312 -0.02736362 0.3579957 0.08009363 -0.57138443 0.6519454 0.50516474 -0.13866201 0.1112001 -0.028368501 0.07273908 0.03537705 -0.29741776 0.66925275 0.21754949 -0.13872096 0.21732587 0.017848736 0.08727199 -0.15898357 0.12183113 -0.5854988 -0.047190674 -0.15537076 -0.3562368 0.16389206 0.09346198 -0.120466456 -0.091814436 -0.038122524 0.23644619 -0.17543189 0.12460518 -0.14543314 0.55730397 -0.18000706 0.1429207 -0.43709126 0.1138364 0.20574856 0.17264868 -0.15732059
8 -0.10492524 -0.43739846 -0.6335865 -0.6087116 0.8233501 -0.60978997 0.1715125 0.8176136 0.60658145 -0.66546834 -7.838829e-06 0.14650738 0.6165058 0.010899754 -0.20399722 -0.4228489 -0.6021571 0.20750205 0.12781937 0.3603869 0.03716733 0.18169852 -0.08692598 -0.21228498 -0.13569304 -0.17926344 -0.043873303 0.4648901 -0.45744267 -0.033674013 -0.029916465 -0.060724095 -0.061876934 -0.5219122 -0.5181177 -0.15388457 0.1968189 0.16378313 -0.21511534 0.21856374 -0.15962519 0.025514394 -0.48116863 -0.11604359 0.012293287 0.33648425 0.048062384 0.39958623 0.068690844 -0.063703775 0.19984727 0.33169925 -0.028830003 0.17968114 -0.23295245 0.135332 0.44700968 0.8818216 0.011768059 -0.11673396 0.59547335 0.41192982 0.58418447 0.68197227 -0.1964904 0.37318236 -0.16076091 -0.05424226 -0.018149765 -0.0713512 0.2655694 0.7874359 0.79548544 0.34150898 -0.98894495 -0.22696705 -0.010426392 -0.4905674 -0.25516683 0.066259645 0.16240393 0.32664934 -0.6942255 -0.23084006 0.37834057 0.47859293 0.09841089 -0.041441035 0.5323262 0.30272606 -0.7876551 0.7216194 0.47476545 0.06501686 0.06379286 0.082773834 0.1516846 -0.057858124 -0.31795546 0.6361737 0.2109601 -0.22504354 0.1760834 0.03747242 0.12687063 0.00029898479 0.16064052 -0.893223 -0.09163371 -0.051926143 -0.4711955 0.31546226 0.08464612 -0.06560037 -0.17388152 0.16155586 0.3216226 -0.28153458 0.23956798 -0.046583492 0.6232465 -0.32419366 0.29047447 -0.40676922 0.23305207 0.10025592 0.24221005 0.14067774
9 -0.093099706 -0.35840952 -0.7424972 -0.53784364 0.8324895 -0.43525732 0.05352817 0.89471424 0.5486666 -0.843505 -0.21807577 0.095391266 0.70283264 -0.0071028657 -0.17817013 -0.48487726 -0.7427926 0.22446154 0.025094854 0.3243285 0.08262047 0.24410987 -0.0361088 -0.075374074 -0.122840665 -0.043655876 -0.0803444 0.39602745 -0.46502522 -0.015175478 0.010925292 -0.014060157 -0.056975603 -0.52854383 -0.68583375 -0.1020217 0.21423338 0.11649536 -0.056324508 0.20897628 -0.20396557 -0.020215238 -0.51046145 0.002553432 0.012111294 0.33134887 0.13678755 0.3243802 0.07861871 -0.12615089 0.21894461 0.43481374 -0.047682334 0.27963498 -0.11644334 0.082249664 0.5136077 0.86425966 -0.08253802 -0.03015215 0.4963215 0.46335095 0.5963936 0.61191404 -0.23153241 0.38660505 -0.14857477 -0.05724043 -0.06347654 0.08798149 0.2452392 0.88949466 0.69571584 0.3126841 -0.97966146 -0.3363594 -0.00018694169 -0.48834652 -0.16414973 0.124631315 0.08258372 0.2942823 -0.6025343 -0.18144926 0.39294568 0.61547035 0.18714635 0.015597528 0.60595834 0.46994933 -0.8223121 0.6633638 0.348329 0.13665883 0.0513976 -0.057410687 0.31495014 -0.0074463505 -0.18219224 0.75095665 0.14634418 -0.14427173 0.18222366 0.0506206 0.03965474 0.06317378 0.25817627 -0.9654763 -0.11905278 -0.05608884 -0.3504064 0.36122444 0.10698741 -0.004547979 -0.17450222 0.16483904 0.26555535 -0.35971525 0.23493211 0.03883929 0.65900946 -0.46546924 0.25466064 -0.4057792 0.1995866 0.05693608 0.15764488 0.23025055
10 -0.2589655 -0.21614726 -0.51972663 -0.5641858 0.54618394 -0.3849837 0.043362975 0.635557 0.60812736 -0.7727031 -0.20150135 0.15127558 0.53637487 0.016419405 -0.2089333 -0.45677966 -0.582793 0.20978807 0.06972396 0.31237027 0.07269099 0.10879032 -0.16399409 -0.13977621 -0.1273347 0.10905311 -0.031951755 0.3247502 -0.49354368 0.13567315 -0.015198064 -0.007869379 0.0778264 -0.50245523 -0.5618749 -0.14470156 0.181844 0.13357745 -0.17726426 0.13888672 -0.041786578 -0.056352824 -0.48568285 -0.03306253 -0.14367077 0.23232545 -0.058228914 0.30400395 0.005726002 -0.10360695 0.12283085 0.37393624 0.125888 0.28035203 -0.077557206 0.10869041 0.4634815 0.7296718 -0.096894465 -0.10385302 0.43102345 0.3715074 0.7575851 0.43710747 -0.11526375 0.27664363 -0.21393013 -0.03320179 -0.052074667 -0.011382728 0.20623015 0.6668715 0.6207067 0.1813292 -0.94874233 -0.3516447 0.0033902011 -0.33339483 -0.20548926 0.041791975 0.11509187 0.319848 -0.45431843 -0.32746172 0.25015634 0.69665575 0.052327495 0.08317492 0.3478824 0.47983152 -0.74670464 0.6865116 0.31429625 0.22299762 -0.084699206 0.0071452437 0.34006116 -0.04137065 -0.11225475 0.63100594 0.10587798 -0.07274825 0.13178867 0.096421875 0.07076059 -0.08081752 0.28127614 -0.8397291 -0.13223135 -0.15519641 -0.21280797 0.23268308 0.062184233 -0.1401821 -0.13914558 0.14897914 0.29935125 -0.3532614 0.16654038 0.010009463 0.49811605 -0.32208598 0.14707024 -0.4217122 0.050407525 -0.01639874 0.14290003 0.20325181
11 -0.096616775 -0.4065996 -0.6056067 -0.6397991 0.80091333 -0.508679 0.059174154 0.90350527 0.4972774 -0.6765178 -0.05670089 0.12727836 0.69174546 -0.11893362 -0.18435602 -0.53899014 -0.6071223 0.23119266 0.13836442 0.39523727 -0.0055718943 0.3283708 -0.02079404 -0.19927184 -0.08581555 -0.15580118 -0.056313265 0.41373903 -0.39542723 0.0068617435 -0.033552144 0.015918987 0.046538882 -0.4760564 -0.52861696 -0.15833828 0.12801173 0.16065986 -0.11975012 0.14547366 -0.18385996 0.051876668 -0.46617004 -0.03364618 0.13491693 0.21042457 0.11066982 0.3843558 0.03339684 -0.061670452 0.27709043 0.41077662 -0.09267127 0.35239848 -0.1472634 0.20863096 0.5017652 0.79910815 -0.003430409 -0.082600966 0.47733715 0.44999817 0.5624922 0.63291603 -0.20641299 0.27859563 -0.29037538 -0.15003374 -0.089884415 -0.029450499 0.31623712 0.8306067 0.754886 0.29827484 -0.94618666 -0.26791435 0.09118704 -0.4965271 -0.23709828 0.05623577 0.12667345 0.23499447 -0.65122575 -0.20332183 0.3890312 0.578139 0.035627242 -0.014897797 0.4105814 0.39151895 -0.73241377 0.66275287 0.44720736 0.06369796 0.09787676 0.07345876 0.1648861 -0.06453684 -0.3236466 0.5785453 0.25725102 -0.2143832 0.19556116 0.106459066 0.061314862 -0.08220092 0.2580547 -0.8346952 -0.05364256 -0.057387754 -0.37615353 0.32642934 0.063205235 -0.07676697 -0.13243474 0.20498973 0.34113088 -0.25575256 0.26339749 0.03592122 0.7037559 -0.40403515 0.17580096 -0.47012377 0.2029946 0.085193515 0.17806993 0.11142125
12 -0.059899192 -0.46376756 -0.64658743 -0.6797983 0.92553174 -0.58465946 0.07222141 0.8895142 0.60621727 -0.59844047 0.09990982 0.22257073 0.66980016 -0.012419823 -0.17014253 -0.5240027 -0.6155548 0.1379463 0.13307376 0.38389182 0.007452174 0.19728379 -0.10606799 -0.26807353 -0.2068242 -0.122818485 0.027026707 0.50018245 -0.43756372 0.03849831 -0.060770042 0.01386675 -0.016174702 -0.54663134 -0.51177967 -0.114761315 0.17894633 0.13458918 -0.117882624 0.1928509 -0.18359345 -0.05369055 -0.40880212 -0.109899 0.16629755 0.26045305 0.06100284 0.497982 0.11082654 -0.02186888 0.2441323 0.37875265 -0.07325894 0.27121615 -0.20842649 0.13170415 0.38335863 0.84002715 -0.067099616 -0.09747623 0.52752024 0.3996742 0.5832396 0.7240773 -0.20558274 0.29186568 -0.17215736 -0.11374606 -0.033760823 -0.1303762 0.2786461 0.6342579 0.7877114 0.35928017 -1.0444871 -0.2424555 0.023905704 -0.43585008 -0.2762872 0.0823499 0.14915995 0.339006 -0.740365 -0.19928917 0.3257582 0.54780465 0.08943878 -0.008343807 0.5295358 0.30225015 -0.7727333 0.7336841 0.51131797 0.10830944 0.087787665 0.09707334 0.18048167 -0.006439963 -0.28151032 0.6534847 0.28131628 -0.26514903 0.2342728 0.008090393 0.1799063 -0.021830468 0.16132312 -0.95917857 -0.12910366 -0.04462493 -0.41300386 0.30315983 0.1494967 -0.06468077 -0.24053513 0.21077996 0.30914098 -0.256877 0.22514373 -0.055568248 0.66058093 -0.3233439 0.24419406 -0.41238806 0.15655184 0.1506799 0.14857669 0.12672356
13 -0.04981385 -0.4083242 -0.697242 -0.5757932 0.8101114 -0.4621851 0.11979564 0.8668973 0.58887804 -0.6997533 -0.06561172 0.12685464 0.70027864 -0.029937306 -0.17140374 -0.49749064 -0.6262083 0.2114028 0.12548994 0.40819496 0.034776144 0.19836675 -0.07623229 -0.20821881 -0.12433573 -0.12243558 -0.059589878 0.4571158 -0.4692269 0.038804755 -0.024146296 -0.020547945 0.026019778 -0.48223594 -0.54989076 -0.1441875 0.1931411 0.14810185 -0.1513091 0.1292432 -0.14656456 -0.016734162 -0.45360515 -0.106983826 0.02942765 0.228104 0.10642843 0.4067905 0.040564816 -0.07979027 0.22978583 0.33272213 -0.0058978572 0.27002415 -0.22481674 0.10706391 0.49428448 0.8452715 -0.0051055965 -0.14631057 0.61882514 0.45646447 0.63720137 0.656993 -0.19563815 0.26373282 -0.23188959 -0.09991944 -0.0411683 -0.012288342 0.32123652 0.81435776 0.7647542 0.39018017 -1.0600705 -0.2260128 0.07502904 -0.5064142 -0.29443642 0.1511731 0.14551076 0.27121416 -0.6227904 -0.26170522 0.35927865 0.553311 0.06754892 -0.017015027 0.5284249 0.38933375 -0.7694926 0.7443779 0.47283503 0.10824842 0.111025445 0.09296791 0.23907836 -0.025538463 -0.27810335 0.63274354 0.2013483 -0.25310388 0.20121685 0.040965017 0.13407548 0.016686471 0.26562324 -0.8911761 -0.115957014 -0.07873692 -0.3791759 0.33047467 0.14337264 -0.17487076 -0.14474274 0.11255557 0.35333672 -0.3302188 0.27999377 -0.07655098 0.65894675 -0.35685155 0.18863067 -0.46485206 0.200434 0.15861772 0.18221663 0.15005256
14 -0.1906448 -0.2981614 -0.45480922 -0.47627527 0.58252084 -0.4520177 0.10884252 0.6391542 0.67849815 -0.5682051 -0.12878536 0.19633766 0.5320813 -0.07260588 -0.2060315 -0.26816052 -0.57441235 0.28433558 0.03151033 0.30683026 0.11972172 0.15989926 -0.026118508 -0.10968958 -0.08388919 0.024410333 -0.050315376 0.34804046 -0.43870303 0.10835113 -0.05440401 -0.20199695 0.13297987 -0.46351242 -0.4853756 -0.15135567 0.20021404 0.1475812 -0.26209503 0.17397147 -0.025356377 0.06325764 -0.51240146 -0.034014508 -0.23468031 0.31562364 -0.016772745 0.35354748 -0.028344506 -0.10752207 0.0834514 0.34887463 0.08539499 0.28775522 -0.19823201 -0.012388623 0.4189687 0.7239648 -0.10199381 -0.06528994 0.43774015 0.39868414 0.5888408 0.45287845 -0.099320374 0.20223336 -0.20067695 -0.071580715 -0.121430546 0.038693335 0.29657727 0.6980026 0.6551247 0.23470673 -0.83174646 -0.3974828 0.00023537493 -0.40195906 -0.26856878 0.046312407 0.07766871 0.17955005 -0.3499676 -0.23070653 0.275314 0.51182157 0.12762657 -0.06662762 0.2687861 0.3233798 -0.6682308 0.7492113 0.37610376 -0.021778261 -0.06688381 -0.031013351 0.24565688 -0.02510711 -0.2458936 0.60792696 0.17723547 -0.09300302 0.20734434 0.07399625 0.06292055 -0.18649061 0.21873952 -0.671056 -0.08103451 -0.22027107 -0.44865566 0.22424999 0.040236745 -0.19008426 -0.12199632 0.12864017 0.29405892 -0.21758704 0.009103948 -0.16922654 0.48431155 -0.25657803 0.105395995 -0.3936542 0.04563599 0.04754486 0.20366281 0.0050786478
15 -0.2338048 -0.2527985 -0.38712674 -0.38953903 0.46210968 -0.34609717 0.14407672 0.54716146 0.69948065 -0.58729535 -0.1319091 0.13049808 0.47547513 -0.048928607 -0.16675137 -0.27469894 -0.541917 0.24589074 0.089146756 0.29519513 0.07914175 0.07714025 -0.08267272 -0.076607145 -0.120179325 0.05419717 -0.107727244 0.28779182 -0.47641304 0.054147072 -0.0011739605 -0.2169966 0.11425614 -0.43240017 -0.43920255 -0.15799528 0.21811809 0.13315412 -0.34047094 0.11649591 -0.0063785524 0.027171187 -0.52364296 -0.0965436 -0.34778693 0.32024148 -0.085225016 0.28339309 -0.066066846 -0.106608815 0.094547756 0.2594882 0.13813743 0.18884838 -0.17827736 -0.010566103 0.38882184 0.6747063 -0.04257515 -0.093695745 0.4903951 0.384992 0.64315957 0.368865 -0.06631736 0.14701921 -0.22648896 -0.043767206 -0.11193662 0.03434113 0.22307505 0.6441062 0.5832001 0.242954 -0.81806004 -0.3845027 -0.075594045 -0.3611313 -0.24469802 0.07934706 0.11618919 0.18955055 -0.288169 -0.29396886 0.1851368 0.5083976 0.09586233 -0.01541543 0.22906403 0.33348235 -0.6325491 0.7421002 0.39914855 0.025023272 -0.0367775 -0.018900009 0.21537183 -0.058452927 -0.24221252 0.6392919 0.102870405 -0.042013444 0.15266214 0.050577417 0.07955306 -0.15497647 0.24149993 -0.6269151 -0.06275926 -0.2390119 -0.34589505 0.17648846 0.05104291 -0.25796288 -0.069852434 -0.0035562832 0.31131002 -0.27721453 0.06414412 -0.17065528 0.4000174 -0.19266386 0.0730629 -0.4221171 -0.00518506 0.05642849 0.22762108 -0.0102111995
16 -0.058735453 -0.37850696 -0.64039016 -0.5705876 0.7903335 -0.43111008 0.11141861 0.8887192 0.52575505 -0.60298556 -0.036525667 0.08331408 0.6310361 -0.0019418994 -0.13279153 -0.46446776 -0.5840743 0.11371545 0.15805161 0.34889287 0.024882989 0.2064907 -0.045474812 -0.22080457 -0.12168456 -0.13600929 -0.042412948 0.42833158 -0.3860762 0.007110527 0.015262099 0.032830965 0.011158219 -0.4498278 -0.5208437 -0.13062139 0.12863305 0.12852818 -0.1158122 0.08948454 -0.19993804 -0.044847853 -0.3927562 -0.09835848 0.09073751 0.1970078 0.08978437 0.40095744 0.065106615 -0.06633215 0.25616658 0.35658538 -0.100380816 0.2750372 -0.12393403 0.14771485 0.38565817 0.7904155 -0.03438603 -0.119647086 0.52699286 0.42245272 0.5739777 0.65016454 -0.19528028 0.24865158 -0.21924888 -0.106929414 -0.0764198 -0.09807178 0.28447145 0.65157664 0.6686402 0.36243308 -0.93795395 -0.18879306 0.050365053 -0.4104926 -0.2609878 0.12386628 0.1606819 0.2548646 -0.6336602 -0.18212299 0.27114534 0.5271027 0.104865015 -0.014178679 0.4636553 0.37230584 -0.68702984 0.6576407 0.48949715 0.1181335 0.1442547 0.037852984 0.17285123 -0.05188832 -0.21811181 0.6543095 0.20917617 -0.2435065 0.15570591 0.0018250023 0.15131079 0.0141932275 0.20016034 -0.87003005 -0.098457694 -0.02720951 -0.2828017 0.30263874 0.17521977 -0.122764945 -0.14954849 0.11008587 0.2791816 -0.33305293 0.2809006 -0.008145789 0.6594698 -0.3791018 0.16245323 -0.4528998 0.19754012 0.13317831 0.15134 0.11625585
17 -0.10576836 -0.40285945 -0.69028944 -0.5525039 0.8768912 -0.53671235 0.122784786 0.8978621 0.6037086 -0.6879822 0.010474007 0.13943301 0.7261326 -0.0028666547 -0.16806136 -0.5295645 -0.6777528 0.28367007 0.14577372 0.32428467 -0.015798453 0.3111582 -0.101654164 -0.18204851 -0.085747756 -0.11998114 -0.08447876 0.35900775 -0.38983086 0.05702942 -0.059227638 0.03649346 0.045851994 -0.50116044 -0.5516469 -0.17670986 0.20009908 0.07123608 -0.14789729 0.12211501 -0.13334677 -0.0641328 -0.52951837 -0.060906246 0.052210957 0.21903051 0.08591083 0.47172993 0.115758464 -0.113228776 0.26254535 0.34657308 -0.06973407 0.27577218 -0.22012872 0.11962429 0.4986205 0.86407006 0.030639105 -0.0966515 0.5190801 0.43173382 0.6463697 0.6275575 -0.21448171 0.23119207 -0.25454536 -0.08589888 -0.0945696 0.06459567 0.1935784 0.7211078 0.7268603 0.29860923 -0.9448683 -0.29127747 -0.023744497 -0.46829072 -0.28568244 0.14575143 0.04345894 0.3059167 -0.559846 -0.23793907 0.29925507 0.55496335 0.062289715 0.01017341 0.4385448 0.4129722 -0.8641852 0.75882524 0.46440437 0.14158668 0.10376282 0.1279771 0.3069033 -0.061164904 -0.21498576 0.6882705 0.25526696 -0.20044062 0.20681357 0.0021608225 0.13220654 0.0298496 0.30367404 -0.9906705 -0.11671863 -0.12761405 -0.42815727 0.3861342 0.17798792 -0.17798688 -0.19248195 0.20052807 0.3871208 -0.32937568 0.3095994 -0.024711521 0.6787576 -0.40147173 0.20573291 -0.4138675 0.16654454 0.10859976 0.14885153 0.2258266
18 -0.27522776 -0.092508495 -0.14555328 0.41231212 0.33857015 -0.39190355 0.5880037 0.27510443 0.70266587 0.13476586 0.1778091 0.10934392 0.109336555 0.056142706 -0.27900872 0.35979062 -0.3363273 0.58141744 0.14439581 -0.23500627 0.14539284 0.097396374 0.28826275 0.5839371 0.15293059 -0.15419857 -0.6279728 -0.067987606 -0.046079025 -0.1784764 -0.3233056 -0.39645588 -0.09600816 0.035116486 -0.38436958 -0.28908277 0.5282841 0.058911 -0.7355783 -0.2889955 0.12105983 -0.16257912 -0.8277332 -0.33343542 -0.9368182 0.8469995 -0.09649075 0.30698493 0.1222849 -0.42215985 -0.42182925 -0.016148848 0.50313914 -0.010084076 -0.57652515 -0.4327517 0.08303064 0.5811601 -0.018966824 0.025687352 0.22732303 0.50242597 -0.09439402 -0.09582155 0.11642025 -0.21304001 0.0751892 0.15723775 -0.196397 0.15343621 0.09882124 0.006387168 0.078546934 0.03527547 0.0779977 -0.22464426 -0.31079057 -0.18185307 -0.26046944 0.047611218 -0.15190887 -0.11867512 0.11794567 -0.076024465 -0.2840281 0.12690525 0.4235301 0.1135212 -0.33898902 -0.1427521 -0.6989153 0.4506181 0.12427959 -0.31476814 0.06691039 -0.08230255 -0.007531679 -0.03899976 0.5870987 0.40886408 0.2192106 -0.35745314 0.0930751 -0.51792324 -0.06073764 0.09224372 0.1444513 -0.44139418 -0.095432736 -0.3253138 -0.74324167 0.44332618 0.5138146 -0.1166623 0.054635543 0.04571732 -0.11191713 -0.4550834 -0.115597755 -0.32375103 -0.11747665 -0.18489991 0.21968628 -0.1648942 0.1690655 0.021043431 -0.043770246 0.24746202
19 -0.2424784 -0.10544965 -0.3201351 0.42874274 0.52971566 -0.5924155 0.61951566 0.44823822 0.5409599 0.12186697 0.2553436 0.07666023 0.13148539 0.11184728 -0.3576674 0.36354768 -0.3565226 0.6640274 0.21291426 -0.31268206 0.13630705 0.31078362 0.3726097 0.65751123 0.24599844 -0.3899882 -0.75643873 -0.038429193 0.095690295 -0.25915587 -0.43348908 -0.26191497 -0.23801053 0.13258147 -0.4914512 -0.3206614 0.58448786 0.06811884 -0.6578377 -0.3716594 0.0966576 -0.24036768 -0.86560714 -0.3160769 -0.80413145 0.92158836 -0.0023247253 0.36765426 0.28037366 -0.45568976 -0.47227508 0.06354521 0.46565047 0.032227565 -0.634519 -0.37138954 0.124181464 0.72312653 0.023495963 0.070884675 0.14372532 0.60915446 -0.28634378 -0.04139223 0.020796726 -0.10859881 0.12771073 0.20171252 -0.089050375 0.15873027 0.15078875 -0.012419541 0.07934734 0.009865672 0.17129521 -0.06577222 -0.19993211 -0.24512605 -0.25242475 -0.03209154 -0.16788124 -0.17272322 -0.107320584 0.022605553 -0.2595171 0.11098617 0.4313326 0.15352683 -0.33318573 -0.09628219 -0.8378884 0.30975407 0.033642795 -0.29780254 0.16107029 -0.024280807 -0.079500206 -0.06366246 0.78475153 0.26178762 0.3112961 -0.58972645 0.061482895 -0.6411396 -0.10779013 0.27742675 0.15217017 -0.62707746 -0.1252235 -0.17182274 -0.89072984 0.6911833 0.6606279 0.07379453 0.021399647 0.26002228 -0.20134541 -0.53811204 -0.030949982 -0.18285419 -0.06305006 -0.41349292 0.35429704 -0.12798332 0.36854142 -0.0023887376 -0.13874242 0.5373451
20 -0.18626735 -0.16154422 -0.32897282 0.46452057 0.5701783 -0.58786356 0.5903167 0.46625865 0.44500998 0.06719118 0.31841058 0.092942476 0.16053009 0.12404227 -0.32383537 0.2869989 -0.35727566 0.70664936 0.22963995 -0.32889104 0.05314518 0.40165266 0.3054194 0.6590713 0.270815 -0.42773387 -0.8061338 -0.09140428 0.13338046 -0.3283844 -0.44388267 -0.19992043 -0.31436405 0.12842467 -0.39419663 -0.32410613 0.5268939 0.007935315 -0.6045868 -0.3592326 0.07086457 -0.28482822 -0.83571404 -0.3091424 -0.67835444 0.9118652 0.022339404 0.38072333 0.31002116 -0.46545768 -0.38345453 -0.017346133 0.38310838 -0.033021543 -0.6339732 -0.33356613 0.17192014 0.69358593 0.08666445 0.09909561 0.07774737 0.56566006 -0.33084366 -0.07792384 -0.03925551 -0.14859094 0.10712795 0.18382865 -0.1040681 0.25111866 0.06539404 -0.04872356 0.09012864 -0.031432252 0.23452096 -0.030098213 -0.22958839 -0.2106133 -0.23398197 -0.012979605 -0.20890597 -0.16732691 -0.09101878 0.061078615 -0.31663728 0.049832318 0.33862004 0.19220512 -0.33513188 -0.09119232 -0.873881 0.25499856 0.020947894 -0.24734294 0.21319702 0.04715584 -0.09838638 -0.08821131 0.7370047 0.27720454 0.33267322 -0.55146915 0.022561956 -0.6462238 -0.11185417 0.3042153 0.17832889 -0.63581806 -0.13950238 -0.20688632 -0.86579144 0.70345986 0.67197776 0.08374401 0.05014539 0.25071782 -0.14369008 -0.48795083 0.061564896 -0.07040832 -0.067345135 -0.42155257 0.39756396 -0.10594578 0.34482372 0.021644203 -0.11330769 0.59123737
21 -0.33703572 -0.0409737 -0.219851 0.37946695 0.34612957 -0.5367484 0.568346 0.27614662 0.51676184 0.005155257 0.1596856 0.03790599 0.067741156 0.10880748 -0.33482254 0.2817304 -0.28287506 0.6551957 0.21404248 -0.2707488 0.053296953 0.22717722 0.24012995 0.6160897 0.2321778 -0.35199773 -0.70068496 -0.114243634 0.053194787 -0.20958129 -0.38788855 -0.21739687 -0.19055663 0.074540965 -0.42304385 -0.34723577 0.5288625 0.067702845 -0.6901151 -0.31436244 0.1408342 -0.195882 -0.86767447 -0.30099767 -0.82405496 0.80835044 -0.054116253 0.24000953 0.20794594 -0.4434276 -0.4484178 -0.009698401 0.54433376 0.0007500561 -0.54818285 -0.23644677 0.21503347 0.60668975 0.1330402 0.006109658 0.15487708 0.5138685 -0.13829593 -0.119633175 0.033867486 -0.043027785 0.04847944 0.18648912 -0.08718492 0.1929528 0.041870777 0.097183146 0.11168141 -0.08400547 0.15070587 -0.08591563 -0.26435384 -0.22518717 -0.21764278 -0.08542249 -0.1417859 -0.054735266 -0.05352502 -0.14186683 -0.21108186 0.1251796 0.27852142 0.19294958 -0.35659444 -0.045500595 -0.8079097 0.29816076 -0.005953569 -0.20738281 0.05776671 0.07625996 -0.027242297 -0.13436642 0.72097373 0.18042001 0.22384164 -0.4343441 0.0015430538 -0.47873196 -0.1480244 0.23743045 0.21227534 -0.5344576 -0.10660754 -0.19835006 -0.73451823 0.5944366 0.48433766 0.02918044 0.05229697 0.23590758 -0.09867628 -0.5178536 0.020852473 -0.11315416 -0.11160418 -0.33118916 0.34082577 -0.124999456 0.34072366 -0.07200515 -0.08109585 0.5331229
22 -0.119418755 -0.2305768 -0.16340847 0.39922348 0.4222418 -0.33216906 0.6145592 0.40156335 0.6181057 0.26843747 0.26036048 0.114524245 0.13910966 -0.033368792 -0.19788718 0.31718305 -0.27849007 0.47823015 0.16430938 -0.20034413 0.10832903 0.10061053 0.3730486 0.5699204 0.11649936 -0.25245038 -0.5934029 -0.0034352657 -0.030565837 -0.34387594 -0.25369194 -0.408249 -0.17069474 0.04581781 -0.31923515 -0.26431802 0.4407378 0.07393714 -0.70696735 -0.2521304 -0.0762766 -0.08593976 -0.75038314 -0.42141777 -0.740676 0.8506749 -0.011400427 0.31855392 0.08345885 -0.37072045 -0.33341056 -0.057140283 0.37663192 -0.055063073 -0.59629214 -0.40535566 0.025056763 0.5200148 -0.018082965 0.05001047 0.23687984 0.52159715 -0.25381175 0.039793994 0.08543954 -0.25197378 0.09840116 0.069652654 -0.27858663 0.05982898 0.14207336 0.04634905 0.10465567 0.11613933 0.0991073 -0.16436705 -0.3460674 -0.20769878 -0.2026885 0.10558482 -0.10800161 -0.13804352 -0.014759391 0.055305015 -0.2532132 0.027242886 0.51291627 0.08881781 -0.25280526 -0.33016378 -0.6090994 0.37124082 0.23171645 -0.44948116 0.1748505 -0.088116266 -0.15543695 -0.010706985 0.49263245 0.4433827 0.2412009 -0.40185773 0.10002769 -0.5530875 -0.02473278 0.0893471 0.022525389 -0.37778816 -0.05467432 -0.24495693 -0.71282697 0.3937952 0.51386714 -0.04367834 0.053636577 -0.03461051 -0.17220537 -0.3706909 -0.061284903 -0.30000773 -0.03201262 -0.14911222 0.2515872 -0.18108395 0.2511033 0.12554532 -0.022827119 0.09450905
23 -0.02695311 -0.22873749 -0.3612938 0.5559731 0.78282493 -0.6268953 0.48574328 0.4782909 0.5020212 0.11023306 0.3034157 0.17969398 0.19478539 0.028214108 -0.35291344 0.40879112 -0.47209823 0.71128243 -0.0017283359 -0.34953302 0.13341282 0.32940486 0.42750695 0.814698 0.1738213 -0.371181 -0.7575482 -0.011644775 0.12161297 -0.3257382 -0.5387098 -0.3383115 -0.35883972 0.0675886 -0.49056005 -0.2042138 0.6726971 -0.0038556803 -0.4960475 -0.20287879 0.03673342 -0.2666483 -0.8124415 -0.1795772 -0.69230443 1.0549393 0.10969474 0.37681752 0.34693533 -0.4686539 -0.46286806 0.09458276 0.3847838 0.046531934 -0.7039212 -0.534695 0.09515363 0.63823843 -0.04753458 0.2252871 0.03273531 0.5824644 -0.5608222 -0.048636325 -0.046236493 -0.07067907 0.31999087 0.18622576 -0.07381326 0.31109524 0.13589334 0.026346464 0.079904646 0.028187847 0.23316884 -0.13889341 -0.2501181 -0.30854043 -0.17801124 -0.0028959375 -0.282017 -0.21666792 -0.059858665 0.1767262 -0.17835578 -0.0116153285 0.51654375 0.10907806 -0.12181825 -0.22426128 -0.8365244 0.26535562 -0.10215079 -0.37239596 0.19152549 -0.12397939 -0.04844269 0.059548687 0.7208772 0.2981615 0.39646274 -0.53852195 0.15472649 -0.624294 -0.2154978 0.34586266 0.09751003 -0.5871904 -0.16426776 -0.16791984 -1.0976697 0.7304225 0.6549069 0.2844324 -0.02408204 0.2861982 -0.22308421 -0.3864434 -0.17130727 -0.2240074 -0.069777824 -0.42035934 0.46522865 0.03257744 0.30389008 0.06904919 -0.17971379 0.5338735
24 -0.112637185 -0.20587389 -0.35714945 0.5226133 0.5773044 -0.5489519 0.67269236 0.47904596 0.48477048 0.14849389 0.34851614 0.061829764 0.14405416 0.10972535 -0.30088583 0.3190926 -0.31604183 0.65422714 0.2481484 -0.28380388 0.05421099 0.30373996 0.34335324 0.68147355 0.22697818 -0.50305265 -0.8041847 -0.033769075 0.10692239 -0.37377718 -0.43666586 -0.23847781 -0.32964435 0.15524532 -0.37410352 -0.32988894 0.57006496 0.03408056 -0.67002505 -0.3879524 0.02517279 -0.2817758 -0.81987333 -0.40646255 -0.7305985 0.9171732 0.041413657 0.36378673 0.27720577 -0.45906353 -0.41090983 -0.08200793 0.45960262 -0.08164797 -0.71208566 -0.34452504 0.14276096 0.6731152 0.13053453 0.04209005 0.193245 0.5948929 -0.3614253 -0.01828108 -0.025537428 -0.15410115 0.13579829 0.17226544 -0.10220909 0.19871971 0.1171381 -0.014497388 0.11566918 0.06517256 0.18823056 0.049121205 -0.23732375 -0.26200542 -0.2589706 0.04045764 -0.16232276 -0.17491743 -0.13365956 0.022552706 -0.30726779 -0.00956668 0.37832472 0.17827284 -0.26789886 -0.19553798 -0.8338345 0.28286278 0.0800585 -0.31218463 0.27605036 0.09135878 -0.16301417 -0.08382725 0.7528997 0.2564757 0.31504953 -0.61243165 0.0142287705 -0.68353176 -0.08526722 0.36763003 0.15340002 -0.6203609 -0.14678101 -0.16123612 -0.86157703 0.700451 0.7102588 0.04767314 0.053718187 0.15954497 -0.17360492 -0.5200991 0.080129534 -0.16720809 -0.085623264 -0.3738669 0.41831362 -0.135849 0.41489255 0.11964942 -0.10670517 0.5475397
25 -0.32202706 -0.036699887 -0.23556446 0.39607334 0.4027463 -0.50068396 0.5280028 0.32630077 0.5777451 0.052984014 0.14076087 0.09382104 0.074848704 0.09477202 -0.3406499 0.320641 -0.34108374 0.62780005 0.14608173 -0.2899448 0.12196045 0.19980195 0.288651 0.683701 0.1826899 -0.24873652 -0.6799614 -0.072840795 0.047634203 -0.15260649 -0.4494537 -0.23109524 -0.16640803 0.06570366 -0.48591924 -0.2979088 0.5743032 0.060086742 -0.63154984 -0.3401575 0.13921566 -0.2653188 -0.83964735 -0.2768227 -0.8492608 0.83444184 -0.05492333 0.29156783 0.23050752 -0.44790134 -0.48428497 0.07029379 0.59647274 0.08706845 -0.5384771 -0.3325258 0.1359775 0.59484845 -0.00044911582 0.044741802 0.08783511 0.54255754 -0.16220394 -0.12352931 0.050329667 -0.08472202 0.109581746 0.17028083 -0.12632385 0.15720265 0.10171698 -0.017906494 0.054494817 -0.065323606 0.15344651 -0.14156823 -0.23229279 -0.18161719 -0.22661394 -0.072584495 -0.17516398 -0.10179321 -0.02754522 -0.078178935 -0.25565493 0.19771217 0.38785028 0.20582975 -0.36018455 -0.051188454 -0.79418117 0.32236728 -0.042310115 -0.21018556 0.05210855 -0.018789442 0.020186698 -0.07247529 0.85712963 0.233498 0.25999755 -0.4424704 0.030686237 -0.52941793 -0.1448784 0.24494225 0.20504461 -0.58296 -0.15593551 -0.20731875 -0.7256085 0.60363716 0.5701703 0.0734398 0.011871262 0.24894564 -0.1783048 -0.53776705 -0.07469456 -0.16596246 -0.116321035 -0.36937514 0.31566483 -0.122834206 0.27868888 -0.044732396 -0.16924316 0.53050727
26 -0.08904116 -0.20911078 -0.32683074 0.36315238 0.56985706 -0.5453388 0.635135 0.4923426 0.46682426 0.24918674 0.43098745 0.20056073 0.1499583 0.11154715 -0.33102944 0.27128926 -0.26393038 0.62912875 0.23237231 -0.2865803 0.08539445 0.26570284 0.3499278 0.54597974 0.22499292 -0.3658579 -0.67771256 0.033682138 0.09170386 -0.34521887 -0.41422802 -0.20682949 -0.3289835 0.15158227 -0.33533853 -0.3071364 0.47122884 0.07338809 -0.5959818 -0.34865648 0.004069453 -0.26866037 -0.75069624 -0.44818455 -0.5670766 0.91808313 0.030116512 0.4526189 0.2820986 -0.40847695 -0.41932854 -0.044430662 0.38431966 -0.054940138 -0.7133548 -0.37897936 0.06878204 0.6883247 -0.018090112 0.057542574 0.14897643 0.544927 -0.3798664 0.05330381 0.027831525 -0.22899455 0.1743538 0.16334593 -0.10191407 0.067175396 0.15818042 -0.121542476 0.124779835 0.05476803 0.1270379 0.056091372 -0.18461315 -0.18093467 -0.25718942 0.04246665 -0.17747615 -0.12698464 -0.1822763 0.09585767 -0.30601674 0.07316736 0.40178505 0.18513015 -0.2701109 -0.26258495 -0.80618054 0.2552057 0.11240603 -0.33940768 0.21557575 0.04051406 -0.16814147 0.022498086 0.71208346 0.259866 0.35362104 -0.68612045 0.09678076 -0.69763154 -0.015176597 0.23650682 0.028817834 -0.62739265 -0.13510811 -0.16175963 -0.8432131 0.6112128 0.7222328 0.060908306 0.034410924 0.21814747 -0.22150835 -0.46632177 0.050462835 -0.14398801 -0.05699123 -0.30623993 0.41330323 -0.12996097 0.39620316 0.100287065 -0.13560537 0.47678798
27 -0.14606546 -0.11185198 -0.42609122 0.58720106 0.57898295 -0.56127656 0.59593767 0.45850256 0.4590776 -0.009613445 0.14306071 -0.019866733 0.16542347 0.1606665 -0.3185128 0.4293519 -0.45306578 0.68842304 0.13335674 -0.34739187 0.14142619 0.36892423 0.3662551 0.74724203 0.27954593 -0.45423517 -0.83651716 -0.093855225 0.13387996 -0.33179468 -0.4316768 -0.2820298 -0.33315396 0.14484261 -0.5102656 -0.26967102 0.62122715 0.00059287937 -0.5627075 -0.31794968 0.09129711 -0.28420588 -0.837923 -0.21617788 -0.8237704 0.9504179 0.08849452 0.2869091 0.3273961 -0.50899065 -0.41896033 0.02852601 0.38878217 -0.044972554 -0.614375 -0.4208725 0.18167047 0.7233084 0.07182889 0.122976705 0.14205381 0.6000179 -0.36598042 -0.086821206 -0.081641786 -0.013581895 0.19856112 0.23889256 -0.0522187 0.35696408 0.09186644 0.09794778 0.048332047 0.044993915 0.25357985 -0.055450227 -0.22967026 -0.28989312 -0.20491208 0.021930467 -0.21168268 -0.21956465 -0.030918976 0.080968685 -0.23339139 -0.0234001 0.45012072 0.09927226 -0.1777091 -0.02059032 -0.82412124 0.2646862 -0.06123213 -0.27639142 0.23079284 -0.07677783 -0.03769313 -0.09045829 0.7636899 0.3041039 0.2605505 -0.5041172 0.011906375 -0.63588095 -0.16556132 0.42008796 0.20157377 -0.6217269 -0.14637184 -0.15082851 -0.92187047 0.74966246 0.6639895 0.12636282 0.05064413 0.20867515 -0.18595625 -0.5316207 -0.013611224 -0.15841165 -0.073838115 -0.49891487 0.39169136 -0.058152243 0.36375898 0.02425023 -0.08992713 0.6099802
28 -0.1449472 -0.17825088 -0.2788404 0.42547676 0.5043001 -0.58676416 0.6183922 0.40941024 0.48242825 0.18483548 0.3084609 0.1123971 0.1187057 0.07612083 -0.33940512 0.38361782 -0.29191884 0.6854507 0.18379201 -0.28413516 0.10230236 0.2889636 0.35537514 0.5940217 0.26608214 -0.42514715 -0.71934927 -0.014347488 0.11219506 -0.2835694 -0.45785975 -0.28755036 -0.26456434 0.14999704 -0.33348644 -0.3062608 0.51675516 0.077629015 -0.6366346 -0.31539324 0.096312985 -0.21062233 -0.7637721 -0.3388056 -0.7278371 0.8890129 0.028980153 0.37268257 0.25594658 -0.44375926 -0.43896356 -0.04595284 0.4290121 -0.025584765 -0.6893761 -0.36588928 0.14369759 0.65841216 0.04686093 0.048575465 0.14203547 0.53666884 -0.3635905 -0.029023685 -0.0035648043 -0.12332134 0.13959824 0.16424266 -0.09885781 0.1914373 0.17270207 0.014650969 0.14381391 0.02124757 0.20564541 -0.0059557864 -0.16417132 -0.24888071 -0.28912884 -0.022467427 -0.17424515 -0.18945609 -0.069859445 0.047463533 -0.24116342 -0.022980664 0.36064264 0.08469546 -0.30429325 -0.18752347 -0.7649754 0.29230702 0.05044979 -0.36746132 0.1840512 0.03697393 -0.1521373 -0.061540335 0.65317184 0.19398002 0.32561663 -0.5726928 0.055622745 -0.60192454 -0.10583051 0.23906645 0.114614934 -0.5125272 -0.12184733 -0.19133133 -0.919523 0.6240403 0.6044304 0.042123787 0.065636285 0.22211884 -0.15506329 -0.42082724 -0.030577527 -0.19093123 -0.082889475 -0.34220305 0.37182823 -0.102730446 0.36746553 0.053594656 -0.06672397 0.45486167
29 0.0036022693 -0.17645359 -0.41843182 0.5034491 0.61708003 -0.5046836 0.60416037 0.49282804 0.41648087 0.22643778 0.31983322 0.04523365 0.17528465 0.13290538 -0.2656963 0.3904675 -0.30132166 0.5708026 0.18282993 -0.2918601 0.11636864 0.28921178 0.40384802 0.59487814 0.2477918 -0.48103815 -0.70655507 0.023671925 0.1633031 -0.2933749 -0.4255908 -0.22865812 -0.28932235 0.2019977 -0.39069575 -0.23940955 0.5481342 0.03857243 -0.5075892 -0.36134315 0.031951305 -0.26402375 -0.66660696 -0.3263768 -0.6188888 0.8043718 0.13517494 0.39118665 0.31615794 -0.42480904 -0.4021208 -0.030552458 0.35773924 -0.026188644 -0.69109255 -0.42058584 0.07264159 0.644572 0.04624933 0.05619393 0.20628358 0.5563042 -0.4459091 0.041270573 -0.04469223 -0.13984646 0.1973256 0.16476801 -0.04579366 0.18497434 0.19760604 -0.043774918 0.06850326 0.14178623 0.18664144 0.09804802 -0.12050923 -0.26777354 -0.27542374 0.07813943 -0.17320599 -0.2270949 -0.12370008 0.12431282 -0.22927405 -0.088027045 0.4297638 0.07860658 -0.15398234 -0.19273843 -0.7126586 0.2463764 0.052934583 -0.32831573 0.3021223 0.026899878 -0.121130496 -0.017804176 0.72258526 0.19474079 0.31298637 -0.66811764 0.06944342 -0.69214034 -0.049711782 0.40675694 0.10475003 -0.56643987 -0.15202242 -0.07688949 -0.86930925 0.68856764 0.7219935 0.053833775 0.019788006 0.17615923 -0.22784157 -0.47055748 0.020677624 -0.23793305 -0.037146974 -0.39219898 0.3481972 -0.0550535 0.4304751 0.15701127 -0.14017496 0.5013703
30 -0.2814034 -0.11944483 -0.18178833 0.40896535 0.39031008 -0.4075637 0.53554004 0.3638582 0.6946996 0.044236306 0.19770196 0.07659496 0.16411357 0.022374844 -0.26055476 0.24407361 -0.37606263 0.5904938 0.21942647 -0.18782006 0.0644305 0.1933124 0.25394672 0.5869897 0.12045768 -0.22106545 -0.6868651 -0.07051246 -0.04260839 -0.17615652 -0.33752352 -0.33724672 -0.049166698 0.02516725 -0.39048046 -0.2989885 0.54048145 0.03224125 -0.72296876 -0.3414859 0.13206242 -0.21198905 -0.8454512 -0.30483392 -0.89877415 0.78307486 -0.09944307 0.3290315 0.12608087 -0.4127868 -0.35232916 0.0051107765 0.4861854 0.054151505 -0.5433271 -0.3541478 0.13543408 0.5753367 0.048063084 0.028980669 0.20570539 0.55531794 -0.04242436 -0.1009789 0.079793006 -0.23850323 -0.021454109 0.10556437 -0.19473407 0.1854369 0.09780511 0.014029592 0.10001265 0.038219783 0.04828731 -0.2337409 -0.28786722 -0.21228465 -0.27628312 0.028719038 -0.11997826 -0.15418771 0.06887802 -0.11253037 -0.32281992 0.17749412 0.33082774 0.14714897 -0.39363426 -0.051047582 -0.7307915 0.48227143 0.15397726 -0.24960072 0.13827157 -0.004874034 -0.017352091 -0.09472139 0.57640535 0.4089479 0.25141966 -0.3616444 0.07691371 -0.49570927 -0.08027645 0.11457027 0.25340742 -0.50587964 -0.09476437 -0.32505032 -0.71461785 0.5052029 0.54006314 -0.14733139 0.056839224 0.061146542 -0.040377 -0.4735756 -0.0620338 -0.28656927 -0.071456045 -0.2550904 0.17530666 -0.2345412 0.1294124 0.059869606 -0.0649464 0.28938577
31 -0.19019912 -0.14370285 -0.34848157 0.42741743 0.52414966 -0.57814956 0.68896395 0.4922765 0.4906047 0.1929693 0.27125224 0.07924243 0.120736614 0.12737846 -0.3300251 0.38704908 -0.30703858 0.6636911 0.2098324 -0.3221241 0.12034277 0.2897986 0.3971609 0.6224311 0.29951882 -0.45465437 -0.7303946 -0.0227156 0.15329556 -0.29287693 -0.4314176 -0.22893536 -0.27607498 0.15285654 -0.42323717 -0.34518445 0.5166012 0.07003029 -0.65645736 -0.36397842 0.040832225 -0.2254993 -0.8231353 -0.37339312 -0.73398846 0.8845467 0.061628368 0.37611362 0.29068258 -0.47416055 -0.45347646 -0.011826714 0.44464037 0.004435877 -0.652768 -0.3425325 0.1395 0.70807034 0.037000757 0.03619127 0.15843756 0.5751207 -0.33448398 0.009778178 -0.015045368 -0.10341407 0.13904314 0.17221062 -0.14723092 0.1481908 0.16791011 0.012800367 0.11001869 0.01933458 0.23316506 0.010831428 -0.2052768 -0.22754283 -0.27976766 -0.00634812 -0.18450676 -0.14589316 -0.11725723 0.048806354 -0.25865537 0.014661964 0.44975242 0.121907875 -0.3018217 -0.15647404 -0.8107273 0.28214794 0.0643693 -0.34561077 0.1795988 0.021196837 -0.11116556 -0.088332675 0.8142383 0.24265069 0.31743217 -0.6073568 0.017389035 -0.6581669 -0.07498671 0.3082868 0.101266414 -0.5988631 -0.1303551 -0.152041 -0.8526116 0.67467856 0.6737972 0.052146632 0.044492006 0.23594433 -0.22167026 -0.5208038 0.01577854 -0.15378918 -0.03299887 -0.42015412 0.39529464 -0.11857277 0.46053544 0.032985896 -0.101429544 0.5191833
32 -0.32696772 -0.071586005 -0.1777717 0.30057296 0.3603639 -0.45953256 0.52965117 0.30915162 0.6386541 0.04756064 0.15303864 0.04591443 0.09514178 0.071437806 -0.2759352 0.2815675 -0.31320062 0.5191083 0.21261273 -0.1800124 0.0957104 0.14914052 0.24324408 0.53029823 0.12038042 -0.2637053 -0.6058966 -0.029853735 -0.034269195 -0.15406418 -0.32563385 -0.29243496 -0.08065702 0.017997406 -0.41294104 -0.2839464 0.50738513 0.08803199 -0.68189067 -0.30288664 0.11979324 -0.17241195 -0.7881971 -0.29954493 -0.8442109 0.7457649 -0.09655258 0.2808887 0.14463131 -0.37138048 -0.39244375 0.041544117 0.5028564 0.05460682 -0.49480265 -0.28328982 0.11657928 0.58290315 0.04189717 -0.0019994376 0.21115549 0.5174279 -0.033357482 -0.05081426 0.06723674 -0.10683661 0.007885758 0.13149351 -0.13350764 0.0915689 0.12430471 0.043479566 0.11604346 0.02239183 0.028798573 -0.17098312 -0.24216214 -0.20104356 -0.26034242 -0.043479517 -0.065862775 -0.09715957 -0.03735427 -0.1178494 -0.23945932 0.17113252 0.32746693 0.13613383 -0.33362168 -0.0462624 -0.69066626 0.417977 0.116010346 -0.2229643 0.07686729 -0.0027609516 -0.037990063 -0.112379655 0.597423 0.29879 0.227906 -0.38334417 0.040967606 -0.45718026 -0.07631909 0.14330767 0.1914996 -0.4999399 -0.09217936 -0.22138801 -0.6670071 0.4817722 0.46925902 -0.062055666 0.016426738 0.1295711 -0.09489821 -0.48597103 -0.063408345 -0.24032135 -0.06842712 -0.26182887 0.21418118 -0.19773771 0.20916516 -0.002696639 -0.06578452 0.32545727
33 -0.088354886 -0.18370377 -0.3727478 0.42118153 0.5299086 -0.60774946 0.6293652 0.41923675 0.38389334 0.15282638 0.36841184 0.15111059 0.16018331 0.17098865 -0.31463557 0.31133705 -0.28533027 0.74963546 0.14197245 -0.3632606 0.06341254 0.35167333 0.23131777 0.48757783 0.35247207 -0.38738787 -0.6471202 -0.07240989 0.17847206 -0.22829698 -0.47124693 -0.14363824 -0.30058926 0.15095305 -0.25070488 -0.33652988 0.41910437 -0.02404234 -0.52808475 -0.26024857 0.10716601 -0.282368 -0.71012306 -0.31275678 -0.549925 0.7590581 0.074215226 0.44383866 0.3361575 -0.47716463 -0.3745289 -0.13414173 0.34260646 -0.08596441 -0.71592164 -0.3407231 0.22500959 0.6554267 0.09906302 0.03579418 0.0986892 0.4057202 -0.31749022 0.006137648 -0.08865367 -0.13835748 0.16993067 0.19885351 -0.13036133 0.32296002 0.03671407 -0.036579993 0.1660529 -0.044590026 0.2578611 0.056159582 -0.20216464 -0.19368537 -0.30460706 0.054663207 -0.32852322 -0.073649704 0.0017804708 0.059373233 -0.24864142 -0.08465499 0.29713693 0.090075746 -0.24354708 -0.14749128 -0.85420984 0.2705043 0.03668529 -0.27275488 0.1592733 0.1491224 0.0054586353 -0.05841676 0.6870011 0.19186771 0.32235938 -0.5233923 0.01797539 -0.60179645 -0.020940304 0.32832494 0.11307794 -0.61365074 -0.170769 -0.22531955 -0.892018 0.64613837 0.63919735 -0.013022879 0.039700393 0.2947164 -0.08005791 -0.37994835 0.090725794 -0.082347736 -0.027582372 -0.3659127 0.43434963 0.0070103626 0.4075579 0.05221205 -0.047206737 0.6062458
34 -0.38525668 0.4809539 -0.43748635 -0.028812908 -0.07797844 0.13443266 -0.05912147 0.3866317 -0.3219709 -0.8818399 -0.578099 -0.3138038 0.14523835 0.5150268 -0.17521055 -0.1481416 -0.36658508 0.2913976 0.2132731 -0.17104623 0.23700628 0.42312822 -0.20266907 0.12856656 0.39397618 0.22622651 -0.42719263 -0.17958704 0.022653518 0.04386872 0.12809303 0.4632759 -0.18754478 0.107329994 -0.45567018 -0.0787508 -0.119833186 -0.0048469766 0.26968393 -0.51205015 0.17128006 -0.53364486 -0.19238648 0.22966112 -0.12607647 0.17558882 -0.004197656 0.029538572 0.26445928 -0.30922017 0.031228555 0.28664905 -0.1329874 0.13952959 0.44302946 0.10004213 0.36217505 0.65427387 -0.20567924 0.01962336 -0.22231556 0.27491257 0.4729988 -0.28359303 -0.12234753 0.09804093 -0.15393476 0.3188535 0.18133754 0.2672496 -0.010436144 -0.0984438 -0.24464954 -0.16559829 -0.068344414 0.065521225 0.31399786 0.23347111 0.0048760865 0.040804815 0.06381591 -0.12640193 0.02582813 0.027322516 -0.4237302 0.6293534 -0.15449764 0.36157987 -0.055301975 1.104227 -0.52787024 -0.12224403 -0.27376208 0.74943256 0.13148959 -0.26186714 0.31124476 -0.16022155 0.6217793 0.38091072 -0.15895626 -0.10260275 -0.2868457 -0.22356002 -0.08866382 0.17738318 0.45381328 -0.71847224 -0.20759 -0.019023204 0.42817128 0.34471264 0.41811657 -0.058210704 0.19694266 0.18249243 -0.02507085 -0.7382994 0.41523704 0.7790038 0.097875446 -0.77265227 -0.07617272 -0.2838976 0.027539363 -0.38095906 -0.091254376 0.8865315
35 -0.120925754 0.34899548 -0.71480256 -0.16390638 0.17860934 -0.011948383 -0.0050800336 0.60975856 -0.5278579 -0.9199369 -0.4012062 -0.23999949 0.20585242 0.80850285 -0.13856281 -0.14445034 -0.3607623 0.20723261 0.17471753 -0.2708064 0.27662757 0.46961138 -0.3456285 -0.21577759 0.4880584 0.18036781 -0.2705269 -0.011832346 0.07797145 -0.026315026 0.17210531 0.63693494 -0.50029296 0.12286069 -0.31857303 -0.021940459 -0.35020626 -0.083694465 0.53563917 -0.34452632 0.06763396 -0.6934722 0.1094498 0.2175728 0.2714165 0.11163166 0.071594805 0.23811215 0.48370177 -0.27502552 0.20409676 0.15490179 -0.49168345 -0.10713246 0.42019054 0.086790346 0.34634954 0.8404807 -0.29241306 0.028099297 -0.19622687 0.06635838 0.4391208 -0.008571904 -0.3720907 0.21933018 0.049934406 0.3921456 0.25329918 0.29479912 -0.06611825 -0.2473659 -0.12431092 -0.073503174 -0.13837545 0.3411321 0.38518363 0.34251088 -0.043679886 0.14858688 -0.004319522 0.0199976 -0.15351151 0.22839254 -0.48425218 0.3917323 -0.1336448 0.22284754 0.3043302 1.1595106 -0.6168056 -0.17095582 -0.16980098 0.8606612 0.21357536 -0.23637171 0.327216 -0.1328923 0.52352107 0.53211474 -0.1423083 -0.1873757 -0.36136276 -0.37065023 0.18546806 0.36806026 0.24935266 -0.9803078 -0.31911275 0.08646014 0.41612646 0.35926515 0.5811412 -0.04600437 0.13946186 0.21864495 -0.049290746 -0.6579085 0.61120564 0.96226496 0.23839928 -0.8819791 0.11572542 -0.14224426 0.147284 -0.27822828 0.07227086 1.0685334
36 -0.15769035 0.38713133 -0.7035393 -0.122934446 0.095806226 0.17781405 -0.03669829 0.65243745 -0.41972896 -0.9258262 -0.4748616 -0.15523012 0.257106 0.6656393 -0.16684006 -0.25154504 -0.40127876 0.2923441 0.16262345 -0.23132074 0.3085549 0.45342332 -0.27769247 -0.048107937 0.44488573 0.3558578 -0.30748358 -0.04308466 -0.019194398 0.023779674 0.14715639 0.59922755 -0.3683228 0.1218352 -0.39311254 -0.05311437 -0.3003409 -0.06303572 0.47569647 -0.44532922 0.07156071 -0.7198464 -0.018922832 0.14906295 0.16941288 0.15518539 0.05310803 0.24571203 0.36639318 -0.32066488 0.12664765 0.22218587 -0.32095197 0.06677273 0.3887103 0.0024086966 0.38936666 0.78754693 -0.38902614 0.04530497 -0.24128126 0.20655097 0.47342083 -0.08354601 -0.25595763 0.0129403295 -0.0021187093 0.34190312 0.14679049 0.2980875 0.018898197 -0.23047796 -0.15870334 -0.10036328 -0.21677831 0.2160129 0.4137827 0.33739945 -0.023981815 0.20170482 -0.049826898 -0.052690998 -0.047363315 0.18917112 -0.52997726 0.6558263 -0.07206263 0.3363323 0.14280249 1.1490858 -0.6711494 -0.10736578 -0.18112695 0.829023 0.18909083 -0.283228 0.41049498 -0.03039986 0.67451173 0.59161055 -0.124068126 -0.22063377 -0.29952008 -0.38133729 0.12365738 0.2411607 0.34196457 -1.0083095 -0.32857788 -0.032695238 0.47598323 0.3538659 0.65252054 -0.116487734 0.17451353 0.1715714 -0.0768299 -0.74627185 0.5520077 0.90439993 0.22496365 -0.8642765 0.04236924 -0.2696915 0.08227533 -0.25041294 -0.05287933 1.0362148
37 -0.29641756 0.3997263 -0.52193564 -0.09383972 0.050749443 0.2012956 -0.093101926 0.52009034 -0.22993733 -0.90217537 -0.5054884 -0.15945233 0.2232028 0.48917633 -0.17125148 -0.30219615 -0.4173151 0.29019448 0.1674974 -0.13570721 0.2145664 0.34521464 -0.24988087 0.1303272 0.29413038 0.36242834 -0.36403158 -0.090238415 -0.067775875 0.101296596 0.057926606 0.53474206 -0.20492923 0.0478357 -0.475463 -0.07708736 -0.13491648 -0.025049923 0.31252566 -0.4966269 0.10391532 -0.6714675 -0.16315535 0.16255955 -0.019828226 0.17273182 0.007232341 0.15773974 0.27768874 -0.33367342 0.0391744 0.27217898 -0.030979343 0.22639199 0.39006564 0.058881268 0.38065633 0.64300007 -0.31352872 -0.00047241806 -0.22429095 0.29818785 0.52164495 -0.21161607 -0.13053684 -0.00083704846 -0.1129326 0.25553697 0.10173687 0.24318548 0.019896355 -0.16751821 -0.17508176 -0.13854076 -0.22831629 0.056332503 0.32566833 0.27179807 -0.03482447 0.11680622 0.012025646 -0.0533716 -0.0372437 0.009104481 -0.4919443 0.7889963 -0.12064128 0.44947925 0.014842774 1.0741428 -0.63837916 -0.02818504 -0.2307145 0.8016268 0.15003087 -0.22433537 0.39125058 -0.063697234 0.73769414 0.4972872 -0.08734971 -0.13961886 -0.26071817 -0.266069 -0.026184766 0.18626174 0.47083324 -0.8890704 -0.3114509 -0.07440826 0.49390513 0.33648878 0.5414554 -0.08580889 0.16093104 0.1795952 -0.026699856 -0.76365644 0.435738 0.77931976 0.14559418 -0.7836907 -0.027088229 -0.33901042 -0.0012624671 -0.27891695 -0.16862383 0.9370019
38 -0.11345766 0.41291863 -0.7990229 -0.0008108778 0.15682766 0.27790684 -0.032429025 0.64187896 -0.35333663 -1.0090077 -0.55212533 -0.22344391 0.31896174 0.7114188 -0.12437193 -0.24456494 -0.5125581 0.2743231 0.109160416 -0.25673458 0.32341385 0.3785369 -0.24575257 0.08431219 0.40169907 0.38873458 -0.36462626 -0.08423961 -0.05829728 -2.9084622e-05 0.1860327 0.57190114 -0.4003446 0.09980419 -0.5304205 -0.025585303 -0.19775763 -0.096738696 0.503633 -0.4437919 0.023606727 -0.7417908 -0.07868692 0.14040506 0.0720425 0.20239809 0.105431855 0.18664114 0.37751004 -0.34826893 0.115343265 0.21894856 -0.27782786 0.03860432 0.37828204 -0.08937315 0.36940068 0.81002027 -0.38226822 0.05670305 -0.14465296 0.24177587 0.4925573 -0.0967632 -0.23922014 0.050084952 0.04655101 0.3856757 0.16344577 0.38807145 -0.035712082 -0.13731307 -0.23565711 -0.044880927 -0.25450805 0.17109796 0.33712986 0.28801247 0.026945237 0.29648504 -0.0869286 -0.016339215 -0.0004803938 0.17710738 -0.48213083 0.65500396 0.044154976 0.38096377 0.29819557 1.1660639 -0.6953872 -0.07669012 -0.2294494 0.85935086 0.2056104 -0.3551138 0.51548326 0.0110260295 0.7408856 0.6991294 -0.19127235 -0.19348383 -0.2797762 -0.43423447 0.10235896 0.38916224 0.38690802 -1.0811428 -0.35234421 -0.00800415 0.5042637 0.38882458 0.678961 -0.10547037 0.12907095 0.07751338 -0.12169744 -0.85002947 0.5683124 0.8164239 0.2026004 -0.8629686 0.05056972 -0.24992092 0.08644321 -0.21829626 -0.09673193 1.0814998
39 -0.2036738 0.42976975 -0.7032235 -0.1625037 0.093501106 0.20824715 -0.010818292 0.67327595 -0.3708767 -0.8743615 -0.5112521 -0.2123994 0.24015775 0.6808515 -0.14345431 -0.24078898 -0.40032566 0.18467665 0.18843006 -0.224071 0.31301716 0.37751096 -0.22110559 -0.057842854 0.42420205 0.3407072 -0.27791876 -0.034947447 0.008839154 0.058104437 0.20200017 0.6249994 -0.31704238 0.11051626 -0.4820355 -0.053599656 -0.2823248 -0.03855086 0.46435714 -0.49248576 0.014598423 -0.68675447 -0.03402953 0.1287216 0.15183678 0.104093276 0.06856593 0.21995616 0.36160892 -0.31051078 0.107127145 0.27476493 -0.30890486 0.121097885 0.4552418 0.029492088 0.31352746 0.77786595 -0.41032067 0.018059056 -0.18807083 0.2239505 0.5147637 -0.040152863 -0.20893958 0.052537117 -0.025716498 0.3288798 0.12370776 0.18263131 0.031126885 -0.2288144 -0.21351038 -0.0834249 -0.2160914 0.2097994 0.38834947 0.3437142 -0.013480807 0.19581011 0.0028090726 -0.0061263647 -0.10110644 0.1684037 -0.50283253 0.6980595 0.0003550857 0.34889996 0.15410243 1.1328669 -0.6181842 -0.108298495 -0.16659787 0.83625853 0.17695048 -0.32215884 0.41664857 -0.0491258 0.75456876 0.60301036 -0.14928463 -0.2394082 -0.29486576 -0.3951366 0.1357065 0.28118378 0.3215101 -1.0127139 -0.30430546 0.039343186 0.56368226 0.34352982 0.6478745 -0.101031885 0.1297916 0.14557241 -0.14852822 -0.824986 0.55539817 0.86340874 0.2557214 -0.866662 0.008912066 -0.2869315 0.13672619 -0.27278736 -0.10608257 0.99242294
40 -0.36614975 0.3625211 -0.44863543 -0.14318472 -0.0038418183 0.048196897 -0.007518541 0.51028633 -0.31124356 -0.8572909 -0.5346415 -0.2510181 0.14196998 0.51317966 -0.14799364 -0.14379793 -0.37553853 0.28032655 0.18696763 -0.15540111 0.2324181 0.41118607 -0.24192876 0.01077999 0.37043276 0.1941472 -0.3301545 -0.086010784 0.00025451265 0.023041116 0.13553675 0.4659087 -0.23953551 0.033237457 -0.377707 -0.083301164 -0.24103057 -0.0011986642 0.2675836 -0.38082075 0.08665632 -0.51419705 -0.13051009 0.21972732 -0.029334074 0.16308628 0.010523253 0.09814419 0.2873479 -0.30346137 0.10723818 0.22777982 -0.20989484 0.11701819 0.46918765 0.15300688 0.40332758 0.6749717 -0.24758926 -0.00089290726 -0.22882427 0.21260847 0.5103405 -0.15111396 -0.23149222 0.17802916 -0.1335769 0.24658263 0.064224035 0.2661418 -0.015822098 -0.046736028 -0.09904365 -0.17011596 -0.08182553 0.048768487 0.2613555 0.24215582 -0.039068386 0.017694054 0.05229774 -0.059112877 -0.057321265 0.06499077 -0.435386 0.53527254 -0.11946632 0.2635683 0.0096133705 1.0686277 -0.53399163 -0.062640876 -0.1571851 0.67671484 0.123904794 -0.23527455 0.27046517 -0.20455119 0.5523922 0.46945444 -0.12634727 -0.022563457 -0.330122 -0.1817924 -0.015170141 0.13432626 0.37155068 -0.75099146 -0.2347858 -0.02700735 0.41762018 0.26708326 0.36705616 -0.05657684 0.17739676 0.19315472 -0.0007413309 -0.6322635 0.4101391 0.8205671 0.19728467 -0.78863585 0.0013676829 -0.27277508 0.06539911 -0.35403723 0.023036852 0.8089807
41 -0.088391975 0.2889505 -0.6373091 -0.09492277 0.08000807 0.04863757 0.048434492 0.5617874 -0.53409314 -0.7664831 -0.28916794 -0.0935986 0.22489311 0.6154537 -0.17335507 -0.2692745 -0.26766735 0.42881915 0.16283709 -0.28258926 0.17191929 0.5381175 -0.3048693 -0.09513183 0.5503844 0.20570397 -0.30200484 -0.11665886 0.10746471 -0.041560337 0.05806022 0.64995414 -0.4149595 0.1639342 -0.18329956 -0.13142726 -0.3627172 -0.08960415 0.42763823 -0.3774785 0.060570452 -0.63930327 -0.020896845 0.09122832 0.31524357 0.098504536 0.10060422 0.2771198 0.3938885 -0.3359161 0.14166181 0.033702385 -0.34468013 -0.03947071 0.21885309 0.08354199 0.45602772 0.701753 -0.20553145 0.0072289524 -0.26641765 0.08507141 0.32332912 -0.08265384 -0.29472682 -0.016944904 -0.013543921 0.3100107 0.09549211 0.38051838 -0.080241404 -0.19219153 -0.08130868 -0.18815842 -0.024705796 0.3190472 0.3359594 0.31325585 -0.06445423 0.18950015 -0.17976911 0.014539359 -0.01066985 0.20075281 -0.46355385 0.4351766 -0.1940283 0.3131267 0.088393465 0.94423443 -0.6813141 -0.19089845 -0.17682083 0.70662016 0.18667355 -0.06601545 0.33963746 -0.062376108 0.586077 0.39120483 -0.061396964 -0.2116974 -0.32265487 -0.33701238 0.1073653 0.24774848 0.2883523 -0.89301395 -0.29446322 -0.05738353 0.34509048 0.35822576 0.5732215 -0.11245664 0.21321568 0.263197 0.022205237 -0.57403135 0.64459276 0.95176977 0.21328627 -0.76743937 0.15430813 -0.15782359 0.19167282 -0.24603127 0.008088838 1.042279
42 -0.24919076 -0.32733625 0.27763894 -0.21135736 -0.038897112 -0.18291634 0.30483308 0.14982036 0.41738093 -0.060868062 0.31733456 0.3998734 -0.0673799 -0.14136674 -0.1782778 -0.17129008 -0.017365785 0.28928494 0.32575932 0.19268978 -0.0576448 -0.05589208 -0.13105 0.07414669 -0.18482547 0.100019135 -0.3399862 0.176119 -0.5331002 -0.58069634 0.077133104 -0.4002406 -0.36528715 -0.21917231 0.23223923 -0.21349776 -0.041713875 0.2225222 -0.7059452 -0.04483926 -0.102757156 -0.005038897 -0.45210066 -0.5596104 -0.34819204 0.953501 -0.38175428 0.21675102 -0.23345917 -0.004720725 -0.0854509 -0.23000054 0.1695981 -0.37553343 -0.30972373 -0.051283967 0.064004 0.47067946 -0.15911527 -0.03166255 0.14158729 0.33610654 0.13796414 -0.03600191 0.20542598 -0.33416358 -0.10942085 0.030938517 -0.14044784 -0.27302906 0.14196853 -0.03925558 0.37998748 0.11231526 -0.4073927 -0.12195652 -0.24525651 0.07662692 -0.061538644 -0.048843052 0.30313635 -0.021990748 -0.22755626 -0.033984978 -0.38791925 0.34785843 -0.0359417 0.2929926 -0.27675754 -0.266687 -0.4487744 0.27525282 0.4589002 -0.2580522 0.037490252 -0.049906462 -0.58116436 0.020313807 -0.3628283 0.5684115 0.14330962 -0.13185258 0.025236076 -0.20769356 0.11750599 -0.5924099 -0.18656744 -0.17365251 0.040544007 -0.41995797 -0.24521951 -0.18196636 0.12609297 -0.09372005 0.28236037 -0.23977488 0.1143216 -0.061316293 0.09503077 0.12658352 -0.16704841 0.251182 0.23382613 -0.51974785 -0.20975746 0.038180485 0.33210555 -0.27873528
43 -0.067336254 0.018971145 0.09321356 -0.08316692 0.07167374 0.011371698 -0.16356055 0.10379815 0.1778581 -0.10058271 -0.19092509 0.20821717 0.07074849 -0.2598099 -0.2423384 0.06735877 -0.1694248 0.22043228 -0.039894167 0.20344286 0.18716402 0.06895934 0.15975821 0.2597183 0.002606839 0.24409434 -0.20237911 0.16066705 -0.19422536 0.052197546 -0.16654761 -0.20236155 0.081743784 -0.07829937 -0.18613462 0.011838307 0.1336841 0.27086207 -0.09374612 -0.1555745 0.11960058 -0.027666999 -0.17637713 0.06877657 -0.22265156 0.45208898 -0.046229266 0.12499528 -0.09416073 -0.08060729 -0.19010332 0.35611942 0.25585744 0.3846268 -0.06304893 -0.19610004 0.06953457 0.26505616 -0.31666902 0.0006821854 -0.07414809 0.37608847 -0.08703292 -0.18041992 0.18439315 -0.16366889 -0.071603306 -0.008282221 -0.0038281863 -0.18049622 0.4953045 0.04852442 0.045753364 0.10258078 -0.25141072 -0.18486892 0.31979242 -0.039727934 -0.10577282 -0.04199021 0.18577766 -0.39125183 -0.006400978 0.07215799 -0.040963326 0.4682603 0.013735043 0.14090109 -0.13262056 0.10148256 -0.14324652 0.11482118 -0.09826642 -0.063068725 0.04572331 -0.32117957 -0.17312072 0.20545287 -0.010650812 0.057598993 0.17015456 -0.18767272 0.19539595 0.06652385 -0.25798643 -0.4279355 0.1297859 0.08470721 -0.08122666 -0.18458979 -0.2153122 0.014555866 0.071542166 0.09370083 0.1858121 0.0597818 0.03596944 -0.08327324 -0.27444762 0.0575262 -0.014982097 -0.14136195 -0.12349914 -0.31625104 -0.21395902 -0.07148899 -0.13469896 -0.116166174
44 -0.1322559 0.16030355 -0.6105569 -0.47690636 -0.33769566 0.15673462 -0.30145732 0.49037847 0.27414954 -0.87582594 -0.8271326 0.58677775 0.28286505 -0.0901743 -0.350326 -0.27617672 -0.3652463 0.3766499 -0.3518438 0.23092353 0.5684449 0.1817965 0.067584954 -0.1442747 0.16545843 0.84647036 0.1614817 0.39612803 -0.62494224 0.34111255 0.034962963 -0.14389774 0.20948689 -0.19280499 -0.44581136 -0.0745936 -0.123013295 0.22706677 0.2819693 0.20003422 0.17867856 -0.027672732 -0.1088194 0.08612706 -0.22170305 0.098958105 -0.089372866 0.14788957 -0.2897917 -0.037011668 -0.26502877 0.4667745 0.36147743 0.4536193 -0.05360938 -0.37072754 0.64736944 0.47593287 -0.8713826 0.1802511 -0.19608697 0.32903254 0.61327446 0.106327705 -0.064718775 -0.05913352 -0.14316398 0.04484771 -0.003842722 0.29970852 0.68261033 0.70193905 0.407966 -0.108583815 -0.8120144 -0.39615783 0.74175304 -0.1105461 -0.0056134164 0.037907224 -0.06740973 -0.17116378 0.04000562 -0.012206245 0.10491434 1.1051632 0.15992236 -0.010118314 0.017622747 0.59811866 -0.49116704 0.38344067 -0.21404341 0.0100009255 -0.5222005 -0.34205782 0.6028205 0.32923952 0.15503027 0.3590844 -0.13327196 -0.08800138 0.09123146 0.09380985 -0.029329503 -0.48830083 0.17206213 -0.52627146 -0.24444304 -0.42184386 0.07712706 0.035169568 0.13546768 -0.28031117 0.078612715 0.15007795 -0.07912096 -0.107188225 -0.29618943 0.0629566 0.13889271 -0.34536138 -0.11528968 -0.39456254 -0.13109194 -0.045544192 0.08974161 0.15332533
45 -0.32214594 0.035034046 -0.57017046 -0.61708474 -0.11077654 -0.29584074 -0.002573803 0.32110775 0.68739665 -0.8896018 -0.67087054 0.54908955 0.27304506 0.11842295 -0.4363687 -0.047954623 -0.45439637 0.51176506 -0.29666114 0.29344887 0.53491783 -0.13428073 -0.18880129 -0.28997213 0.10681541 0.6718025 0.18865111 0.5115552 -0.7453307 0.4688681 -0.08451558 -0.28908342 0.1174392 -0.3977605 -0.44337124 -0.17898178 0.06168035 0.2913304 -0.116802104 0.34685266 0.3715667 -0.01635423 -0.28685156 -0.026029807 -0.5844723 0.30632383 -0.1738605 0.25380117 -0.16466409 -0.15137778 -0.3565414 0.2919571 0.564545 0.2729708 -0.2691249 -0.31449154 0.70536613 0.7971244 -0.61065125 -0.1257131 0.2887339 0.24391702 0.91402394 0.25127852 -0.06986484 0.28164658 -0.050951537 0.1536586 0.058593683 0.2571228 0.56965184 0.8683945 0.7619006 0.0324637 -1.0587724 -0.3889866 0.48655444 -0.254234 -0.3134681 0.018990487 -0.0013705553 0.16324459 -0.04203184 -0.36657175 0.24431385 0.8450182 0.108019896 -0.14292017 0.27921468 0.59886616 -0.7403906 0.80956864 0.004491737 0.026352504 -0.5868143 -0.1508352 0.63059735 0.17509536 -0.029452102 0.4447853 -0.117227376 -0.028800007 0.078986876 0.18616498 0.08131325 -0.33739915 0.17692555 -0.66398305 -0.30086216 -0.45274016 -0.3195207 0.0481381 -0.019042993 -0.40048626 0.02185527 0.18633907 0.20108466 -0.1976355 -0.26419502 -0.15438621 0.15036382 -0.25251368 0.087159194 -0.34622782 -0.004426375 -0.085023955 0.3265341 0.20308362
46 -0.14706269 0.085760444 -0.45795542 -0.46793967 -0.34148768 0.023794413 -0.17905578 0.37969872 0.32425603 -0.566317 -0.693484 0.6111362 0.16699268 -0.13701665 -0.35789725 -0.05921111 -0.22709487 0.42123955 -0.2729344 0.3152821 0.5725583 0.08922711 0.1360205 -0.13843098 0.16062027 0.67127705 0.1454302 0.46577233 -0.5368734 0.3143168 -0.027025681 -0.2618129 0.19755754 -0.1537766 -0.33544683 -0.10377717 -0.09710436 0.32588232 0.11895561 0.141874 0.21423969 0.08524784 -0.103253245 -0.011759177 -0.31836024 0.22236548 -0.036558732 0.18415593 -0.29904053 -0.027513815 -0.39270645 0.37435836 0.47676486 0.43724197 -0.20721583 -0.3754469 0.5673646 0.5000947 -0.8126231 0.065598324 -0.109337695 0.3661602 0.45409882 0.092469335 0.0009842818 -0.073947474 -0.13524093 0.019309787 0.0074029407 0.18716988 0.82598436 0.6709557 0.48873398 -0.024879167 -0.7253832 -0.30452162 0.7732099 -0.167743 -0.15185028 0.0060294834 0.06336173 -0.2766397 -0.0061375056 -0.0038668872 0.13334315 0.8969891 0.14638618 -0.07650425 -0.029812012 0.40386647 -0.3951304 0.40916386 -0.14460391 -0.21197984 -0.47706103 -0.2567443 0.3480044 0.30586132 0.0719682 0.15299362 -0.054908987 -0.2200619 0.12135731 0.07236727 -0.047180146 -0.5288923 0.10125381 -0.3315962 -0.21784821 -0.38070658 -0.13394243 -0.003380218 0.073385 -0.28651327 0.084380545 0.18442464 -0.08523363 -0.04153357 -0.38121113 -0.054100152 0.033262376 -0.26376745 -0.13005327 -0.40220562 -0.028332364 -0.00017663733 0.09953983 0.013798959
47 -0.12697573 0.17469296 -0.63260084 -0.5462146 -0.42879742 0.12652892 -0.32605848 0.48593503 0.34046957 -0.8691702 -0.92026657 0.72067785 0.21844365 -0.1689258 -0.4481521 -0.18287209 -0.34656954 0.4901363 -0.4082748 0.3302779 0.71140486 0.2014767 0.13315454 -0.115065776 0.17850332 0.89583737 0.14304951 0.5237858 -0.685769 0.4118788 -0.021146037 -0.2573842 0.25297827 -0.17164673 -0.44036523 -0.07131816 -0.08658692 0.33726558 0.24882035 0.1863136 0.29163554 0.02196742 -0.12615806 0.067780115 -0.3660922 0.20802473 -0.10308677 0.19084376 -0.35719022 -0.010513951 -0.40728438 0.54311657 0.5076663 0.5578892 -0.1824704 -0.5009151 0.69065183 0.5775306 -1.0263213 0.18226318 -0.21154502 0.43979624 0.56372863 0.08196281 -0.004794146 -0.11268924 -0.120289534 0.024857348 0.028084377 0.28227156 0.94236666 0.7916916 0.49114457 -0.06381831 -0.8968891 -0.388127 0.96385413 -0.15114968 -0.09222615 0.02523758 -0.009765625 -0.31791574 0.0391026 0.026679905 0.12561177 1.213452 0.1694285 -0.041113768 -0.05041947 0.6064849 -0.5267824 0.43504333 -0.27051297 -0.11604503 -0.59176296 -0.39495167 0.5591294 0.40083784 0.1579041 0.27407092 -0.085231565 -0.20585519 0.13595511 0.11329498 -0.099243306 -0.6122195 0.17952187 -0.46133754 -0.2765128 -0.45259875 -0.09068749 0.053018823 0.14547996 -0.31080762 0.120096 0.23410755 -0.121865675 -0.073796086 -0.44691187 -0.008674507 0.05903178 -0.36910442 -0.16546054 -0.47149336 -0.14935866 -0.046262853 0.10542157 0.12052167
48 0.5928192 0.14786367 -0.43726933 -0.26127142 0.11153899 0.24730857 -0.40366548 0.52328897 -0.6732976 -0.12860264 -0.41633213 0.5208872 0.4179693 -0.5047546 -0.50168335 -0.050426386 -0.10109502 0.7354075 -0.4278906 0.20591287 0.45175937 0.64851314 0.6509911 0.3594381 0.52104884 0.37526038 -0.027177786 0.36465856 0.09935896 0.18036021 -0.4380405 0.15803874 0.038598772 0.28412214 -0.2070877 0.055417646 -0.19017291 0.44241896 0.7155346 -0.22129914 -0.0038757934 0.12029222 0.16971812 0.17014644 0.6104756 0.25838497 0.5561841 0.2925069 -0.04355208 -0.09191442 -0.28613943 0.6279788 0.08707178 0.9912351 -0.38814494 -0.35064423 0.37590012 0.3329658 -0.73242396 0.16940139 -0.45333773 0.49396762 -0.7168331 -0.060559426 0.056795247 -0.43231356 0.06506677 -0.15111437 0.060840916 0.09003337 1.2206157 0.5027117 0.017521385 0.04889263 -0.20971644 0.22809471 1.3097652 -0.21379091 -0.10019124 0.111807235 -0.26328692 -0.84098995 0.047404747 0.6143231 0.4791363 0.6738336 0.022425456 0.15315616 -0.0027919763 0.110754475 -0.1929464 -0.345892 -0.5941957 -0.278463 0.02282835 -0.43752122 0.009392362 0.7694477 0.117493786 -0.607327 0.44407856 -0.8314252 0.39680436 0.11307301 -0.51241815 -0.51776457 0.14777088 0.11625793 -0.17343219 -0.04384329 -0.4043807 0.2679834 0.26667878 0.27077723 0.31927425 0.48248997 -0.2717371 0.05804224 -0.254877 0.35775983 0.29037517 -0.55435205 -0.112435274 -0.25334126 0.2314833 0.051303193 -0.44679058 0.28429595
49 0.5075321 0.19722204 -0.4952347 -0.21905744 0.068012685 0.24176723 -0.4608803 0.42063236 -0.56937873 -0.29561418 -0.44518188 0.4976247 0.3597434 -0.3832756 -0.47706386 -0.13403545 -0.1254824 0.64905316 -0.4753785 0.15040511 0.425585 0.5919722 0.47888863 0.35536444 0.44172093 0.4049504 -0.020620657 0.3115603 0.07025967 0.25382176 -0.41102222 0.21846876 0.037392862 0.19744124 -0.24710502 0.04392343 -0.109672524 0.3279597 0.74374735 -0.15538274 0.07063323 0.019286012 0.13265648 0.19591822 0.5234881 0.14578204 0.4186101 0.2466764 -0.006681879 -0.06064796 -0.25987622 0.6247468 0.16728112 0.88950294 -0.31282568 -0.35024607 0.3662545 0.26236075 -0.65980947 0.2002679 -0.47011903 0.4257919 -0.5473091 -0.10075034 0.052555677 -0.36327073 0.11618422 -0.09714209 0.1173597 0.13243514 1.0374157 0.43981397 -0.009220011 -0.020025812 -0.28443298 0.20238273 1.1850493 -0.1496215 -0.0381992 0.08316982 -0.26900822 -0.6666752 0.061609726 0.49028677 0.4271518 0.7081912 -0.00014156054 0.21747759 0.009307794 0.20416404 -0.24043201 -0.32854408 -0.64487135 -0.096376345 -0.1087679 -0.39075482 0.18143673 0.73018104 0.24623118 -0.54897827 0.33137313 -0.70862913 0.33513036 0.10980504 -0.4648323 -0.38223666 0.17415237 -0.013962816 -0.22556695 -0.062486283 -0.29784796 0.3144208 0.2846469 0.26378214 0.21932347 0.47383955 -0.2521516 0.007299931 -0.2202899 0.33533967 0.20418261 -0.5274535 -0.0717415 -0.16400722 0.15337256 0.01774746 -0.45332828 0.4518406
50 0.49091396 0.14630227 -0.55819166 -0.46214795 0.026538257 0.1423387 -0.14537016 0.5149143 -0.63997424 0.22106579 -0.36697268 0.55091834 0.35291433 -0.38028523 -0.46283534 0.00024389099 0.16029704 0.713101 -0.3728535 0.19833414 0.46802422 0.4208924 0.63888943 0.06508467 0.6923251 0.22763018 0.25945243 0.4345471 0.2950126 0.44142893 -0.4287376 0.40306982 0.18382958 0.3163761 -0.20701374 -0.15003671 -0.32477912 0.46657547 0.6661878 -0.21953608 -0.07585117 0.24113709 0.19302934 -0.024986727 0.73976845 -0.12837037 0.74941367 0.3919231 0.017749501 -0.1653577 -0.436345 0.46706718 0.3114493 1.0229533 -0.47807315 -0.17383105 0.4842645 0.3070289 -0.6100092 -0.13561785 -0.27790675 0.34750065 -0.5498422 0.19357246 0.04725174 -0.31297177 0.033287402 -0.16689393 -0.056607317 -0.024857119 1.2178793 0.6155814 0.21475509 -0.05033474 -0.1752647 0.41749775 1.3321228 -0.25057536 -0.28929576 0.14624493 -0.28234172 -0.50212574 -0.10636665 0.38048863 0.63554054 0.52360725 0.075239055 0.0641134 0.030010978 -0.034127105 -0.19640177 -0.3169557 -0.4761141 -0.3902966 -0.16656543 -0.036716197 0.16782998 0.69417864 0.43869475 -0.920629 0.3676085 -0.9752742 0.32010856 0.08269339 -0.32416153 -0.2875922 0.0688189 0.036113176 -0.22513956 0.09014885 -0.28180352 0.2718027 0.1996136 0.110080585 0.12930329 0.6762714 -0.3086171 -8.211451e-05 -0.082310185 0.2981387 0.35864735 -0.5114828 -0.032321665 -0.12568828 0.7606481 0.049509674 -0.49820817 0.39557266
51 0.6452446 0.12394127 -0.518107 -0.005035768 0.40467346 0.076659985 -0.6040632 0.34886461 -0.6063479 -0.41583452 -0.3834875 0.43370792 0.37333614 -0.29689017 -0.43821645 -0.010396444 -0.30461422 0.5626474 -0.6443121 0.0054403986 0.35724637 0.52926755 0.40780377 0.4374184 0.33052862 0.35972628 -0.050006203 0.2764563 0.092321426 0.19721675 -0.49672404 0.15816474 -0.17535882 0.13916628 -0.32817522 0.19323911 0.09009516 0.18464021 0.90120757 0.04563489 0.101414055 -0.13058905 0.22269268 0.4838495 0.5450072 0.2671736 0.48897332 0.17548935 0.16407487 -0.12259997 -0.23168959 0.6403167 0.017532643 0.756715 -0.2773151 -0.47148237 0.31702274 0.1899886 -0.61587065 0.33605766 -0.5056332 0.27632135 -0.75796634 -0.15067129 -0.09732758 -0.08338955 0.37359828 0.02524918 0.3105947 0.3118014 0.80069673 0.37590906 -0.053672064 0.0014631335 -0.17884679 0.12456347 0.99944925 -0.21213895 0.07748882 0.048106574 -0.35374993 -0.5901683 0.052828602 0.5460899 0.46625763 0.48008296 0.043107923 0.10400148 0.36194217 0.20867175 -0.22704023 -0.3723634 -0.82770634 0.030584827 -0.016510535 -0.4735299 0.24320467 0.7141821 0.17163718 -0.46209574 0.34436113 -0.544167 0.34294477 0.13387269 -0.5543594 -0.11193764 0.12832035 -0.03969606 -0.2514648 0.042259853 -0.5136952 0.40607858 0.23423962 0.5476188 0.1605277 0.5221366 -0.18147641 0.11192754 -0.33335316 0.2995365 0.16016018 -0.5708415 0.10702618 0.1022939 0.06643612 0.019073768 -0.4505404 0.55726737
52 0.57207066 0.095714256 -0.45256627 -0.043996222 0.41037232 -0.0138207255 -0.52545327 0.28164244 -0.54929227 -0.34812137 -0.24055699 0.49306288 0.35384867 -0.29785207 -0.47823682 -0.025910122 -0.24907193 0.6621515 -0.56987745 0.020487547 0.30993485 0.53674144 0.3705866 0.4448773 0.33280176 0.29963362 -0.06980836 0.2453434 0.11144227 0.17434204 -0.53595984 0.15298502 -0.18451552 0.11055722 -0.26989326 0.11446778 0.102062754 0.19549549 0.7811379 0.012046521 0.14081885 -0.0912794 0.114557005 0.36916515 0.5110509 0.3304836 0.44353712 0.23308544 0.17422691 -0.12098904 -0.2551904 0.5689481 0.07319796 0.7235461 -0.3829994 -0.43450543 0.30978593 0.24305348 -0.5343166 0.29695842 -0.48600656 0.28934225 -0.72770196 -0.16190547 -0.043106712 -0.15407492 0.34397972 0.02715178 0.29601735 0.27434674 0.7792998 0.33904722 0.0048264964 -0.013722948 -0.17726669 0.1442059 0.9302814 -0.19971634 0.031164218 0.011666955 -0.3471635 -0.5344767 0.041528236 0.4904743 0.47592506 0.45255837 -0.008885439 0.1751864 0.26256862 0.12879497 -0.31120032 -0.3306642 -0.7576182 -0.014889818 -0.06381975 -0.3536551 0.20347144 0.7058146 0.16912486 -0.51407534 0.3884191 -0.5961218 0.3615419 0.109252885 -0.53015345 -0.15908717 0.13202967 -0.07047106 -0.23208918 -0.003440716 -0.6101044 0.42317048 0.20262693 0.5134049 0.13578047 0.5701246 -0.1527696 0.10542157 -0.29446116 0.2967073 0.11844179 -0.49694797 0.15265726 0.09491813 0.08875537 0.014481027 -0.4314418 0.5707351
53 0.52396476 0.15520303 -0.3503662 -0.12593037 0.35567114 0.0570353 -0.5564107 0.3090524 -0.5321726 -0.28678086 -0.3647426 0.49592555 0.3495901 -0.40125927 -0.5290595 0.013006545 -0.26398098 0.6480305 -0.5545177 0.09613972 0.38971773 0.50350654 0.4799324 0.45029205 0.3762721 0.4393328 -0.061379015 0.29218286 0.08529614 0.26612908 -0.5352214 0.119000874 -0.06985564 0.16392398 -0.35285312 0.14884493 0.08346385 0.30803162 0.75620216 -0.086137846 0.14390266 -0.025508853 0.12884103 0.44543973 0.47914124 0.3682295 0.4669348 0.24674684 0.118315965 -0.16532473 -0.33278862 0.72548753 0.11841793 0.8981766 -0.33323133 -0.4613276 0.28832203 0.2773656 -0.68719214 0.24364692 -0.4831736 0.3808071 -0.7508405 -0.19923706 0.053831883 -0.2086025 0.27209902 -0.012061222 0.2644769 0.102147415 0.9687335 0.3367483 -0.028642556 0.01987243 -0.21529222 0.08459501 1.0793262 -0.19950236 -0.035079114 0.024823902 -0.25228497 -0.6885454 0.049300384 0.5245469 0.46366265 0.645007 0.0025826881 0.17606208 0.19495098 0.16721956 -0.24391776 -0.32939264 -0.79019237 -0.064621694 0.002734259 -0.51258284 0.1300878 0.7374947 0.16841185 -0.5287667 0.41674536 -0.65446913 0.42530707 0.15321796 -0.6167065 -0.33084062 0.14213553 0.06360582 -0.2187215 -0.026304618 -0.58985 0.37015253 0.2014728 0.5102914 0.21714023 0.58412087 -0.17338173 0.06723717 -0.38036212 0.2997053 0.16489209 -0.54118866 0.027154984 -0.038843114 0.059873167 -0.037805762 -0.51394695 0.44605494
54 0.49266124 0.17566824 -0.3691981 -0.17625996 0.23605256 0.12251329 -0.47613487 0.36161366 -0.49905592 -0.12661184 -0.4670462 0.47685152 0.3755529 -0.47488207 -0.52026284 0.078086734 -0.17869411 0.68479747 -0.5149192 0.16629086 0.45113683 0.53777176 0.58129525 0.42673096 0.494563 0.37828574 -0.040951736 0.31330222 0.15924568 0.35249856 -0.53554475 0.13714738 0.109957166 0.17235708 -0.36301094 0.064662054 9.382513e-05 0.41695678 0.680712 -0.17075826 0.13026038 0.08127336 0.091189586 0.3390418 0.45319152 0.25703004 0.51983035 0.28051278 0.03987079 -0.17195903 -0.34387383 0.7595878 0.2272793 1.0650157 -0.32510412 -0.3969188 0.3394629 0.30904773 -0.64664084 0.11536682 -0.3986981 0.47268578 -0.68865716 -0.13664776 0.10178364 -0.26872218 0.12899178 -0.07907618 0.09980568 0.034896158 1.142556 0.44660375 -0.0059389384 0.052332327 -0.20212153 0.1308113 1.1893691 -0.22774678 -0.12510872 0.06948299 -0.22331661 -0.77268744 0.05816302 0.47910684 0.5341204 0.6365314 0.045295585 0.1367932 0.066559575 0.15288383 -0.20144522 -0.2979513 -0.6870551 -0.17028376 -0.0317782 -0.46199954 0.09465493 0.7488732 0.21687882 -0.6453383 0.41788882 -0.73114586 0.44833276 0.20993298 -0.5989397 -0.4285789 0.19656585 0.15327515 -0.22034937 -0.03579797 -0.499418 0.32072416 0.19848755 0.37485525 0.23610334 0.5520618 -0.17552707 0.028919786 -0.3641111 0.28524858 0.23600376 -0.57690024 -0.10084786 -0.13437799 0.18633029 -0.042408638 -0.53231335 0.33525503
55 -0.04165785 0.1773799 -0.25359717 0.3109507 -0.18431973 0.5055959 -0.0110296095 0.11491021 0.07129883 -0.49231902 -0.043502 -0.06943307 0.36191732 0.120928995 -0.014918119 -0.43062267 -0.2539902 0.36955875 0.40573633 0.12248738 0.019614777 0.31216303 -0.08791205 0.2616715 0.072833054 0.28204274 -0.5892181 -0.26299357 -0.28239518 -0.2458785 0.28201434 -0.034917265 0.045943554 0.15918101 -0.12351791 -0.11691369 0.114705205 -0.045946684 -0.15560718 -0.6153337 0.12586865 -0.2712198 -0.41212127 -0.29181165 -0.35442215 0.33957604 -0.11040228 0.07908995 -0.14407425 -0.0688674 0.06953653 -0.089926966 -0.015378922 -0.17128019 -0.20189874 -0.2611459 0.17190243 0.44482106 0.05392273 0.034343366 0.2205926 0.44222468 0.34429616 -0.37201172 0.29583713 -0.7464279 -0.38795164 0.2531528 0.26932722 0.39139804 0.0014424312 -0.05460014 -0.22359893 0.19006485 -0.3907354 -0.10179418 0.11569672 0.00038945995 0.0031729548 0.4203797 0.09176138 -0.3414057 0.35389486 -0.02551193 -0.43075132 0.5713178 -0.23470268 0.48127052 -0.2286218 0.43760356 -0.40406975 0.20081556 0.11386709 0.28463122 0.36760023 0.0062183365 0.079828165 0.15325294 -0.1306023 0.49827245 -0.10116926 -0.2726233 0.14795624 -0.41981906 0.025551539 -0.108471274 0.52912635 -0.37507382 0.034064524 -0.37710047 0.16938294 0.16996782 0.44379383 -0.62325376 0.2436776 -0.35156864 0.18142396 -0.5163093 0.40941614 0.039825063 -0.18665273 0.010813488 -0.34025198 -0.5387504 -0.37537462 0.11188527 -0.080232725 0.1752018
56 0.20366937 0.22697018 -0.6772674 0.370312 -0.05613524 0.60256606 0.078643814 0.20319968 -0.19094934 -0.53174037 0.07813936 -0.0947104 0.5554124 0.44449198 0.025570674 -0.5507142 -0.24885207 0.40043503 0.48767558 0.017989388 0.10730972 0.4179806 -0.093757406 0.15516062 0.25743148 0.30415997 -0.6213875 -0.2976607 -0.21991184 -0.42199436 0.5246347 0.16591534 -0.22556917 0.28452784 -0.22026937 -0.12874565 0.043719094 -0.09766357 0.10670423 -0.6817109 -0.013481323 -0.30874845 -0.389518 -0.5053476 -0.038446162 0.3435296 0.06667813 0.18169537 0.005676041 -0.02828052 0.14160973 -0.197738 -0.3148272 -0.50001884 -0.38727656 -0.43426874 0.12258834 0.75571185 0.04790465 0.06148356 0.41772822 0.39376292 0.29752123 -0.2219307 0.30994576 -0.84327984 -0.2551125 0.5292897 0.5477847 0.5372053 -0.10897113 -0.051852822 -0.3196536 0.32999712 -0.49671534 0.1689296 0.15892334 -0.0058654947 0.10847236 0.7430314 -0.008170277 -0.22505684 0.29343656 0.17912747 -0.33712322 0.5123564 -0.12328396 0.59462005 0.16568601 0.43784603 -0.57856125 0.046813615 0.120259404 0.35528517 0.470135 0.054688737 0.23511237 0.37227887 -0.14839008 0.59872174 -0.24297112 -0.6005564 0.2589299 -0.781979 0.21825525 0.19678809 0.45052317 -0.7423202 0.02107184 -0.23151731 0.20018801 0.30538058 0.6689609 -0.6818651 0.13059066 -0.37182438 0.04975947 -0.71023375 0.81794584 0.13754687 -0.2084664 0.014176524 -0.24502227 -0.4269975 -0.121298 0.1807396 -0.1212609 0.47510964
57 0.17200242 0.2489704 -0.6534978 0.29771876 -0.024778642 0.55479854 0.045368306 0.22040655 -0.121740855 -0.48947123 0.07177894 -0.063884415 0.49390426 0.46155196 0.0031250962 -0.49988484 -0.24372669 0.32401606 0.43198135 -0.015126136 0.13720317 0.33471566 -0.106751144 0.11617293 0.20759739 0.34979993 -0.51669234 -0.227892 -0.2105156 -0.2909373 0.41632125 0.2013527 -0.17815973 0.26342705 -0.24693863 -0.10713898 0.062065866 -0.09772992 0.14118706 -0.65151143 0.04107309 -0.39442915 -0.31039107 -0.4432962 -0.048032753 0.27476776 0.015156676 0.2354336 0.046278264 -0.046950325 0.09091363 -0.111005135 -0.23620461 -0.3727048 -0.3101071 -0.4242997 0.07546202 0.69989294 -0.03651971 0.053213794 0.34647256 0.36563635 0.31041595 -0.16879123 0.27977276 -0.77831906 -0.18419255 0.48685336 0.49968818 0.418349 -0.056057822 -0.17982921 -0.31844428 0.30947673 -0.5152175 0.18650578 0.21063104 0.048021626 0.06938313 0.6719228 -0.012762542 -0.19044708 0.23845866 0.14559554 -0.36258867 0.561542 -0.08173374 0.54692864 0.1326019 0.46853238 -0.55941695 0.08369285 0.09102947 0.42101386 0.41150787 0.0071954587 0.2827611 0.35353234 0.015594467 0.5621953 -0.18860975 -0.5898847 0.21965967 -0.7360497 0.2472426 0.20805578 0.41144988 -0.7739707 -0.034382246 -0.20037551 0.21469088 0.30668697 0.70669454 -0.6290784 0.092758045 -0.30519027 -0.00012997669 -0.7156769 0.692953 0.11747112 -0.17414713 -0.051532306 -0.22321846 -0.4061128 -0.14105418 0.17221889 -0.17515326 0.5272039
58 0.20207724 0.23571223 -0.61880195 0.37169307 -0.041980993 0.5803677 0.051261224 0.098740526 -0.147116 -0.45627505 0.13402401 -0.088108584 0.5057794 0.41954768 0.025677072 -0.5283648 -0.21718456 0.33063477 0.48215085 0.016443826 0.09632324 0.33271042 -0.07390798 0.18871836 0.17775713 0.29645538 -0.60675955 -0.30014756 -0.23148672 -0.42159688 0.49367097 0.13915657 -0.20633009 0.27364248 -0.24877796 -0.08987277 0.14249563 -0.08330241 0.09361524 -0.66446996 0.010891986 -0.28334486 -0.3891832 -0.5054013 -0.06987346 0.35463345 0.027003527 0.16272546 0.0010138517 0.010338118 0.083810225 -0.16820526 -0.26102164 -0.49177662 -0.40134022 -0.4547611 0.032625943 0.7074265 0.052332114 0.0792695 0.44552347 0.3848455 0.23855104 -0.22500877 0.37780586 -0.8257883 -0.21328278 0.5438876 0.61847436 0.45108736 -0.115348995 -0.10130266 -0.35974506 0.34408364 -0.507241 0.1663157 0.13551193 -0.03204907 0.15532541 0.7085283 0.022129117 -0.20215979 0.261658 0.17371616 -0.27450785 0.5034826 -0.09683239 0.6038336 0.18204065 0.3484331 -0.53385246 0.03055796 0.0755858 0.3410811 0.44301078 0.04229533 0.21641433 0.39977857 -0.14252561 0.52255076 -0.24097559 -0.6275799 0.31245425 -0.7746863 0.1960623 0.2061109 0.41695023 -0.6947069 0.04526048 -0.17453133 0.15761837 0.30221388 0.6354061 -0.60183686 0.08246991 -0.36090887 0.019048294 -0.69774103 0.7470117 0.052196894 -0.26808226 0.083754465 -0.24058376 -0.38863122 -0.14506301 0.17872392 -0.18915494 0.4479235
59 -0.05785677 0.2622397 -0.31029484 0.30366245 -0.14674683 0.55180216 -0.056652118 0.14333244 0.032884732 -0.566787 -0.06045704 -0.059509274 0.40216386 0.14888442 -0.04864841 -0.5366199 -0.275613 0.38406923 0.38179544 0.0495266 0.0061525335 0.32611787 -0.09889607 0.32220787 0.11660595 0.3888339 -0.6033762 -0.31491864 -0.25934604 -0.2025619 0.26404643 0.112559594 0.022273002 0.15947261 -0.23992546 -0.13207535 0.13135286 -0.06339139 -0.06156279 -0.6626497 0.113583244 -0.34323993 -0.4640278 -0.26515377 -0.26709375 0.31072098 -0.10507752 0.09240882 -0.0957942 -0.12880987 0.051960263 -0.015374392 0.00316809 -0.08952807 -0.15305714 -0.2716914 0.1752306 0.44913173 0.0071057407 0.0666728 0.1493401 0.4372529 0.358471 -0.4077154 0.3241542 -0.7676236 -0.35917535 0.28332514 0.2754228 0.36711293 -0.059400417 -0.107827455 -0.30802608 0.11645675 -0.4004463 -0.084708266 0.098502554 0.045259897 0.06294149 0.43413457 0.019585157 -0.26408097 0.34078524 -0.04335587 -0.43516085 0.74075156 -0.22085896 0.61875296 -0.23238987 0.49667734 -0.5038086 0.12409363 0.014058203 0.4160544 0.3262063 -0.012625629 0.2211841 0.20973207 0.074555434 0.5049356 -0.105215736 -0.32421407 0.15896012 -0.4349567 -0.0077756555 -0.046430025 0.5532444 -0.5187422 -0.006201495 -0.35572514 0.24781282 0.23720244 0.5212718 -0.5428369 0.22446753 -0.27742943 0.1410842 -0.6368388 0.5037375 0.15794493 -0.16890733 -0.065205574 -0.29983693 -0.5109967 -0.33082676 0.04300785 -0.21013106 0.3690636
60 0.09510302 0.09260932 -0.37297153 0.28670955 -0.11270209 0.5673495 0.17765102 0.14587745 0.073233984 -0.28523457 0.08774863 0.010471329 0.41396368 0.21729445 0.035137076 -0.41132584 -0.18982872 0.3110185 0.39313626 0.048600532 0.1044849 0.19435823 -0.00023215277 0.20865126 0.111468785 0.34525633 -0.49859923 -0.23858875 -0.31268528 -0.44254732 0.48807096 -0.07408615 -0.11814707 0.14688168 -0.15524206 -0.14802156 0.042883046 -0.025976293 -0.16586982 -0.50043553 -0.10947412 -0.11523928 -0.47335568 -0.5569858 -0.22523205 0.44206086 -0.042526588 0.15307444 -0.1592422 -0.020295566 0.07564511 -0.1848609 -0.15645371 -0.4117354 -0.36428073 -0.4057416 0.038590714 0.5698847 -0.017041443 0.056866247 0.40036434 0.39030343 0.25822973 -0.14747478 0.3659938 -0.8091877 -0.22857416 0.35546246 0.23570518 0.31144682 -0.060168177 0.01746068 -0.21525311 0.28947297 -0.42821324 -0.046217784 -0.061613087 -0.010259398 0.11456535 0.6249812 0.03586352 -0.16506878 0.29045832 0.1308455 -0.2950652 0.47114223 0.05983198 0.48822796 0.015468839 0.14355977 -0.45264402 0.15880771 0.25942653 0.08276145 0.31909606 -0.047324974 0.10018035 0.31973937 -0.18198991 0.67301077 -0.18592657 -0.4017966 0.2537666 -0.630658 0.19044635 -0.06401862 0.2688673 -0.48670667 0.09516959 -0.31049305 0.1340536 0.09772361 0.4797341 -0.59303707 0.13086954 -0.45078275 0.008728988 -0.541396 0.55295163 -0.016001651 -0.1695505 0.1864911 -0.21545935 -0.45330098 -0.16684675 0.15721947 -0.035793494 0.090238325
61 0.27357945 0.19177452 -0.6357352 0.33645707 -0.019495815 0.6182113 0.08348537 0.124871284 -0.11343247 -0.41953138 0.19800404 0.03020758 0.5205706 0.40151098 0.0012423005 -0.5909403 -0.1739085 0.34390303 0.4380091 0.038346253 0.07203432 0.217712 -0.10874585 0.16747628 0.15158577 0.36794347 -0.5289744 -0.21759127 -0.27775314 -0.3716191 0.41796997 0.18292432 -0.23298678 0.26973492 -0.19172211 -0.123947345 0.11714845 -0.04994729 0.08481953 -0.64822084 -0.012993633 -0.35737503 -0.34971094 -0.60467327 0.0056838673 0.3392138 0.041527256 0.21566822 -0.011181349 -0.030998563 0.038912237 -0.21984094 -0.11493246 -0.45001662 -0.49265152 -0.45684147 0.07116817 0.64760804 0.030701445 0.00046452816 0.47676918 0.35599756 0.23949055 -0.15914153 0.3720769 -0.8817321 -0.1570794 0.50049585 0.55792886 0.38700205 -0.07996924 -0.1058272 -0.28342384 0.33633482 -0.6034642 0.24117474 0.16718896 -0.007365703 0.09183184 0.7405796 -0.031236198 -0.11718432 0.2188317 0.08260903 -0.2933139 0.57043904 -0.11045798 0.658451 0.20847136 0.2631882 -0.5882215 0.0660776 0.09322493 0.35380557 0.42915043 0.11992072 0.2490094 0.4734158 -0.039142255 0.47400698 -0.20329931 -0.69103456 0.30495635 -0.7518417 0.23379074 0.21749322 0.37596446 -0.7388922 -0.02273784 -0.19957186 0.18157208 0.2720051 0.6955296 -0.6204223 0.101335175 -0.35407898 0.026012326 -0.7161485 0.77487594 0.04606311 -0.25221872 0.12851134 -0.16780679 -0.39245534 -0.07549083 0.23955707 -0.22424297 0.49706742
62 0.17090552 0.23749788 -0.6011938 0.31515786 -0.04720857 0.56909525 0.054670177 0.18623312 -0.08875345 -0.36514953 0.16358472 -0.05249122 0.5493645 0.33914793 -0.0015579142 -0.55013955 -0.20420021 0.37266842 0.5136448 0.04838605 0.09328915 0.38889986 -0.008897052 0.15661073 0.21295118 0.30291805 -0.566625 -0.26978448 -0.18225342 -0.30934045 0.43099424 0.15827991 -0.050751522 0.29276446 -0.2528378 -0.14300738 0.114710025 -0.059303388 0.06400087 -0.72900206 0.024801152 -0.2647052 -0.4185092 -0.520858 -0.06615471 0.27418235 0.0391658 0.23911837 -0.021468064 -0.0036908623 0.07614063 -0.109024145 -0.21121183 -0.3279677 -0.4185377 -0.43433183 0.048801854 0.68786 0.030937752 0.05508184 0.41368386 0.42687306 0.27068987 -0.19379216 0.4035119 -0.9245169 -0.3031312 0.46728018 0.5261628 0.40303096 -0.015831582 -0.11140532 -0.33142912 0.32784584 -0.5088989 0.1422954 0.22063254 -0.041937895 0.06570764 0.69251835 0.010974871 -0.256896 0.27137697 0.13894582 -0.28761736 0.5870816 -0.11690272 0.57981306 0.028618326 0.35339087 -0.52236927 0.10793189 0.13987169 0.28530875 0.4423553 0.08795632 0.22038291 0.4003603 -0.09117671 0.45942605 -0.15606391 -0.6878734 0.34272745 -0.7506466 0.19179873 0.13248608 0.4628937 -0.694693 0.055290256 -0.2091065 0.13910277 0.31136978 0.6721171 -0.6892324 0.07924787 -0.2975262 0.0315686 -0.7025871 0.7117221 0.0025312502 -0.20272197 0.05187717 -0.31675342 -0.45292956 -0.1275519 0.19106759 -0.24666564 0.39976186
63 0.20023714 0.23514578 -0.58613396 0.3472271 -0.079064935 0.5750474 0.10170367 0.12990613 -0.19055466 -0.36747763 0.18512706 -0.06541209 0.48463628 0.39016676 0.0050289757 -0.5353722 -0.14581177 0.3436151 0.5146971 0.00016147121 0.07520878 0.3716112 -0.031334046 0.15347038 0.2317485 0.27696475 -0.56604075 -0.29511014 -0.17010514 -0.41609028 0.4888812 0.18211035 -0.18051556 0.32092002 -0.1950179 -0.14065063 0.07698463 -0.0630024 0.0721569 -0.7013367 -0.02039497 -0.25181577 -0.39673203 -0.54986924 -0.002445862 0.3044144 0.031197064 0.18642561 -0.011367289 0.00236156 0.080821484 -0.17202447 -0.2621183 -0.45672107 -0.42548072 -0.40825975 0.025683425 0.6780333 0.07245763 0.05807172 0.40717515 0.37154797 0.19177207 -0.20370221 0.39614874 -0.8828902 -0.24427353 0.5156645 0.56433123 0.3722911 -0.0937188 -0.13808243 -0.3572122 0.3067426 -0.454106 0.22389573 0.1538372 -0.0015117893 0.13530645 0.69831264 0.0020724847 -0.2056039 0.2382961 0.17411077 -0.29279926 0.5189963 -0.115017906 0.6103353 0.07617481 0.2962232 -0.5213577 -0.0033415728 0.111894675 0.3095512 0.44122025 0.087615214 0.17426188 0.39983162 -0.10408587 0.4529135 -0.19858499 -0.680142 0.2905695 -0.76796806 0.20533429 0.16453464 0.38744816 -0.67372936 0.07100934 -0.17296436 0.1656247 0.29306644 0.6609837 -0.6174858 0.109666914 -0.3282558 0.0011930699 -0.68870157 0.7816525 0.08905389 -0.24013816 0.091112606 -0.22848079 -0.40097842 -0.07868196 0.17307417 -0.20389932 0.4377443
64 0.017861342 0.1393436 -0.29630336 0.2431059 -0.18836384 0.48382166 -0.011776274 0.119752675 0.060803268 -0.49280596 -0.031539444 -0.023210134 0.35454422 0.1482521 -0.0015324759 -0.4190594 -0.21963604 0.33471105 0.3810459 0.16101241 0.041677184 0.27071616 -0.12562498 0.15560672 0.0588396 0.2757831 -0.5136752 -0.17752126 -0.32324675 -0.24804807 0.309763 -0.043041106 0.00073482894 0.14067915 -0.064771414 -0.10975613 0.06640664 -0.023695663 -0.12179696 -0.53943497 0.11987164 -0.24887288 -0.33550426 -0.3266732 -0.3013698 0.30085468 -0.104227446 0.09753519 -0.15248644 -0.024332203 0.08501888 -0.14301229 -0.03393235 -0.22628632 -0.2350201 -0.27093473 0.18506472 0.45983437 0.030948449 0.015290005 0.26367542 0.39716768 0.36747134 -0.3010356 0.26228508 -0.7039601 -0.35093892 0.2583701 0.31003356 0.38440803 0.037389264 -0.0020069291 -0.14607744 0.24397072 -0.47316262 -0.043964803 0.1511751 -0.009713082 -0.01472969 0.43893293 0.12069411 -0.30819985 0.3138234 -0.021048505 -0.3832136 0.51834685 -0.23832574 0.4305262 -0.12949944 0.40908375 -0.37521368 0.21392459 0.15332389 0.25540105 0.3412852 0.05067163 0.07931315 0.1757642 -0.20769036 0.4837342 -0.12490455 -0.2888414 0.14170396 -0.41677016 0.083377786 -0.10538114 0.4634031 -0.3836518 0.019540144 -0.3658762 0.16390125 0.12995932 0.411329 -0.6486278 0.22467965 -0.3672682 0.18552446 -0.46938214 0.42202923 0.017625345 -0.19085826 0.057152886 -0.3163254 -0.5149458 -0.3437581 0.15720628 -0.011035839 0.15467343
65 0.11668557 0.30664507 -0.57891595 0.3240061 -0.07847887 0.58154 0.016829042 0.17261359 -0.12488261 -0.48587832 0.007552805 -0.10310345 0.44168285 0.41610476 -0.0026610729 -0.47026926 -0.24353206 0.26498306 0.4051356 -0.05683018 0.121782064 0.32421812 -0.05609896 0.1862505 0.19484937 0.3681024 -0.5335799 -0.28462195 -0.1788119 -0.29551637 0.44966438 0.18705484 -0.14846982 0.2509508 -0.299471 -0.08520887 0.086078465 -0.09506174 0.12457067 -0.6456934 0.014650321 -0.33925417 -0.3526504 -0.39048123 -0.090635955 0.26049954 -0.016295843 0.13737893 0.012899837 -0.041625768 0.08277463 -0.0487091 -0.24237157 -0.33254924 -0.23022665 -0.40757266 0.025433443 0.61455286 -0.044263918 0.105251245 0.29191566 0.35871997 0.27589747 -0.22849679 0.3210137 -0.73647934 -0.19272164 0.47645563 0.47083628 0.3703354 -0.1008061 -0.16714309 -0.40806606 0.24357273 -0.42405072 0.12231416 0.13855822 0.0690613 0.14956267 0.60919666 -0.014702701 -0.18346412 0.27209187 0.15400197 -0.34533757 0.5895537 -0.038086347 0.56437767 0.07113609 0.44849032 -0.49227682 0.015415688 0.03117996 0.41508082 0.36027834 -0.07410572 0.28498477 0.3378137 0.05681617 0.54959947 -0.21630163 -0.5209255 0.21174863 -0.6896007 0.1733919 0.1719425 0.39094192 -0.6968433 0.014181709 -0.16946232 0.25756916 0.28639233 0.6451312 -0.5389557 0.10284964 -0.31756407 -0.041022833 -0.7163115 0.6474396 0.121073276 -0.18558626 -0.044920567 -0.2481921 -0.3827032 -0.16360185 0.095826805 -0.20533213 0.47553173
66 -0.08085275 0.116080664 -0.16860025 0.27974835 -0.14947152 0.43845317 0.076467566 0.07197368 0.21140943 -0.41526622 0.06257748 -0.013460824 0.29895267 0.111420736 -0.032212596 -0.40234166 -0.21565759 0.33240104 0.42825285 0.12989463 -0.003357874 0.1713597 -0.10790326 0.25839597 0.0012188521 0.27584064 -0.5827074 -0.21280518 -0.36605537 -0.3090852 0.27408287 -0.10367563 -0.027559452 0.09763718 -0.09449703 -0.14659193 0.15016426 0.0012116912 -0.31010616 -0.55648506 0.09885065 -0.24539295 -0.47779167 -0.40129837 -0.4380437 0.46047795 -0.19913031 0.10635267 -0.16736457 -0.065427385 0.025736213 -0.14481843 0.06977511 -0.25137627 -0.26990712 -0.27798736 0.10244786 0.4627956 0.05075702 -0.00032233674 0.3020875 0.42629555 0.34791586 -0.3274024 0.33871394 -0.7307434 -0.32405123 0.25887755 0.23942557 0.25068054 -0.021939816 -0.08258437 -0.1592579 0.21381976 -0.4486181 -0.10664337 -0.019053942 0.006954662 -0.011127641 0.38838938 0.13806604 -0.2406208 0.28084832 -0.07364397 -0.44506732 0.55935925 -0.17906952 0.5007034 -0.21870682 0.2890848 -0.43506184 0.2613203 0.19806735 0.22421724 0.31934714 0.013170008 0.01464847 0.1559299 -0.12712601 0.5471824 -0.09482482 -0.2864946 0.15200068 -0.43638608 0.06696806 -0.1458142 0.42344567 -0.38297465 0.031126011 -0.3908603 0.105644085 0.11150349 0.41899776 -0.57997847 0.23825225 -0.39615196 0.16847667 -0.51865184 0.39135826 -0.014602356 -0.22506589 0.12245768 -0.2590769 -0.54448825 -0.35175255 0.11874728 -0.032988418 0.11639346
67 0.09565948 0.32182553 -0.7004789 0.43423 -0.058574487 0.6043447 0.037213717 0.20346211 -0.15521388 -0.700093 -0.102145866 -0.20972207 0.5180078 0.5036198 0.0176148 -0.49327028 -0.35541385 0.37656406 0.42503217 -0.05891092 0.12467218 0.4122829 -0.121451944 0.27703 0.23611367 0.32250682 -0.6713923 -0.3618574 -0.19536449 -0.35754123 0.46575198 0.20133887 -0.20946883 0.25306073 -0.35727626 -0.10517219 0.12447312 -0.14751515 0.14562093 -0.6843759 0.04460906 -0.41817513 -0.42164585 -0.35927644 -0.18284176 0.33285263 0.033869203 0.10473063 0.063557684 -0.109831564 0.120348625 -0.09603618 -0.24544515 -0.4064921 -0.21512452 -0.40465105 0.15886615 0.73070055 0.03761356 0.10626175 0.32791618 0.42108265 0.35986376 -0.295381 0.25049034 -0.69679326 -0.21098621 0.54031646 0.5163402 0.5917501 -0.1659325 -0.058150318 -0.40647948 0.26337668 -0.43046606 0.11092237 0.12004768 0.016099455 0.15320285 0.66900814 -0.027279383 -0.21308428 0.33033973 0.123124 -0.36743352 0.57404244 -0.08386007 0.60063416 0.15463358 0.6287897 -0.6054649 0.04501557 -0.0094542885 0.5005666 0.4367685 -0.05495319 0.3494884 0.2810828 0.071840174 0.6433902 -0.27808514 -0.4675129 0.16385102 -0.72187966 0.14451848 0.2946255 0.53000873 -0.8132546 -0.024174435 -0.20778503 0.26131794 0.37411165 0.67971677 -0.5894416 0.12522642 -0.3462789 0.02864537 -0.8123081 0.7516779 0.19297577 -0.20219088 -0.15567325 -0.22888374 -0.39986208 -0.1640553 0.09573182 -0.16437247 0.6351504
