246 128
0 -0.13782339 0.17832986 -0.29708445 0.039486602 0.0013842352 0.082381725 -0.16137704 0.041153166 0.20634884 0.17476845 0.0715149 -0.17895067 0.04743513 -0.08865762 0.14894818 0.21435691 -0.06651501 -0.15718365 -0.2433045 0.040441733 -0.1568332 0.047755178 0.053641632 0.050991368 -0.045214176 -0.15801494 0.075910576 0.13075687 0.071521565 -0.49189678 -0.020356834 -0.38437322 -0.2198707 0.06633916 -0.015701722 0.0861144 0.38747382 -0.16265404 -0.24838158 0.18437462 -0.12577173 0.27928546 -0.077085294 -0.34645247 0.20510228 -0.018626703 -0.13660757 0.19519782 0.06250739 -0.06689895 0.11933587 -0.27496758 0.11338836 0.03435982 0.108524 0.18217124 -0.08331165 -0.16984172 0.0075204424 -0.39508733 0.03885551 -0.25795084 0.47816068 -0.09053751 -0.27046636 -0.3968394 0.07380762 -0.23793527 0.004047495 -0.20082276 0.11451228 -0.04454815 -0.0131927375 0.0323484 0.17584904 0.18264604 -0.2120554 0.038007118 -0.16259386 0.14830905 -0.18833472 -0.06250985 0.03979197 0.076000564 -0.14086266 0.14967005 -0.06171428 0.05078957 0.16073462 0.10809426 0.041982178 0.10598774 0.09512081 0.27031133 -0.08353422 -0.05506938 -0.056001127 -0.20139286 0.1189015 -0.13623378 0.28390336 0.026650352 -0.08700397 -0.008815382 -0.24951689 -0.12148502 -0.091989465 -0.25361657 0.12638423 0.10533923 0.10497377 -0.12059964 0.07164579 0.03795119 -0.05435219 0.15623069 0.18137054 -0.2229352 0.0779693 -0.058813315 -0.04009558 -0.21365009 0.056749165 0.017589407 -0.19939376 -0.014453606 0.02208507 -0.02264014
1 -0.15579498 0.09994531 -0.25146797 0.01299006 0.01100469 0.07128801 -0.09808983 0.0700942 0.15858856 0.1881651 0.032401133 -0.08989485 0.085992165 -0.07728547 0.08384505 0.24139391 -0.07554866 -0.14309607 -0.17878233 0.027734019 -0.11361626 0.01943343 0.09171031 0.10100886 -0.014426088 -0.16077662 0.055390984 0.11790717 0.02393085 -0.40555006 -0.0481761 -0.37641042 -0.19181934 0.06619054 -0.00840782 0.1138766 0.3190069 -0.12612343 -0.24150807 0.15929538 -0.07562585 0.2461719 -0.07007844 -0.2768319 0.2039008 -0.008886912 -0.09345517 0.1774387 0.062172428 -0.055828393 0.13604844 -0.21638443 0.07630506 0.02905817 0.10386424 0.22881465 -0.035990845 -0.17577483 0.029774824 -0.38761485 0.017446065 -0.20423481 0.4435939 -0.09609082 -0.20656043 -0.39391577 0.03781512 -0.1887868 -0.034701806 -0.2291937 0.10040531 -0.03722375 0.07135677 -0.0351429 0.13015893 0.17030244 -0.18951145 0.04594974 -0.106097445 0.1301 -0.09764665 -0.048219282 0.01968423 0.1295826 -0.15784498 0.1295319 -0.028399741 0.045425832 0.15530048 0.09410656 0.08558406 0.104192846 0.12799437 0.19227913 -0.040903613 -0.016350409 -0.07264604 -0.1560381 0.12301214 -0.108404666 0.19311844 0.011252467 -0.049373306 0.02883388 -0.29208907 -0.10434558 -0.101082005 -0.20084311 0.11918405 0.045853075 0.0796116 -0.1389428 0.017065207 0.031239942 -0.03538377 0.10067483 0.17794 -0.21870546 0.084235 -0.082202524 -0.0418931 -0.15215777 0.03732072 0.048526004 -0.20825784 -0.07212908 0.032968946 -0.023435473
2 -0.11416542 0.11726462 -0.20874617 0.0414809 -0.026507301 0.05191339 -0.116124675 0.026826767 0.15726691 0.13804923 0.044642583 -0.12334443 0.02569603 -0.07157913 0.10370719 0.17451346 -0.038860664 -0.13819446 -0.15967804 0.018971639 -0.11447359 -0.0109054595 0.039705783 0.056236915 -0.003147467 -0.09386584 0.046499435 0.07266641 0.0466432 -0.3569628 -0.026507426 -0.3121751 -0.1705691 0.07359641 -0.00785443 0.07126273 0.30406788 -0.094423264 -0.20732635 0.09810054 -0.07583483 0.20737286 -0.043108974 -0.24315146 0.13717043 -0.013008453 -0.07597685 0.120007776 0.014091251 -0.026558483 0.08604238 -0.2041136 0.06306955 0.014809067 0.08204878 0.14921612 -0.066951826 -0.13654904 0.008932909 -0.32352087 -0.0020401673 -0.18633525 0.3573319 -0.09888474 -0.20107311 -0.29894295 0.032282885 -0.15662614 -0.0075749946 -0.17894025 0.06867175 -0.045583084 -0.0029915636 0.037684754 0.07762549 0.13151588 -0.16077772 0.029441435 -0.13005057 0.10061363 -0.14292534 -0.0281394 0.007958499 0.07590308 -0.12212656 0.1187927 -0.042423364 0.052112322 0.12558112 0.07754075 0.001922847 0.07875097 0.06843185 0.17409492 -0.073574185 -0.021025158 -0.04308414 -0.13058949 0.09854727 -0.08617099 0.19706951 0.049523797 -0.017075747 -0.00045226177 -0.20789884 -0.12151698 -0.08305503 -0.20031543 0.083729215 0.047707234 0.0302249 -0.0783997 0.036139127 0.02646972 -0.028061049 0.09625869 0.13349667 -0.14414991 0.0759179 -0.060505778 -0.020528844 -0.15118322 0.025874676 -0.00068168016 -0.17853025 -0.04298677 0.01211348 -0.019068258
3 -0.17645714 0.14106815 -0.26701632 0.08776583 0.04564972 -0.0035083827 -0.13260455 0.031754438 0.20237227 0.19597925 0.040939495 -0.13144547 0.0077255475 -0.04287225 0.11077497 0.20150921 -0.026783114 -0.1816756 -0.20518585 0.020433718 -0.118030354 -0.045328498 0.0745808 0.045345552 -0.011197111 -0.070398495 0.055955175 0.10082401 0.10568573 -0.43890834 -0.046617646 -0.34981173 -0.23820812 0.06155709 0.05092159 0.11316068 0.3997997 -0.09469882 -0.21597758 0.090369724 -0.13396616 0.20276204 -0.042402886 -0.24070638 0.15947029 -0.012064418 -0.049098436 0.09973921 -0.045854498 0.032010354 0.102217585 -0.3003311 0.027559943 0.006820593 0.05522701 0.16740502 -0.10008432 -0.19382593 -0.019032657 -0.37521607 -0.041680127 -0.2581857 0.49734545 -0.19509299 -0.24997073 -0.36611784 0.009853599 -0.19245474 -0.008430973 -0.25722626 0.112809815 -0.010100107 -0.022629837 0.072030716 0.14425568 0.20586827 -0.21535787 0.05911258 -0.13598134 0.07144534 -0.18028143 -0.060546443 -0.02209674 0.072039485 -0.08636666 0.207201 -0.04702368 0.06196908 0.18152389 0.14142798 -0.004084524 0.08294505 0.08139911 0.24864043 -0.11645668 -0.07134525 -0.094901316 -0.14387457 0.13834709 -0.17810297 0.17523704 -0.009260333 0.02327299 -0.03082496 -0.18114191 -0.107045345 -0.070184916 -0.29268193 0.1039077 0.008058574 0.01160743 -0.053581856 0.045362845 0.06607052 -0.086584985 0.08511701 0.07333889 -0.18856217 0.10077775 -0.040322572 -0.022203634 -0.21563111 0.07915356 0.063006304 -0.22542635 -0.120463304 -0.033539884 -0.054002248
4 -0.17733124 0.1386452 -0.27031857 0.087138295 0.077542126 -0.02578927 -0.14172807 0.042765114 0.20475946 0.19724232 0.03248568 -0.12425999 0.020762336 -0.017615078 0.09974781 0.18647099 -0.023804652 -0.18506521 -0.18599615 0.014540193 -0.10458704 -0.04488669 0.09264233 0.031947095 -0.017312773 -0.06627128 0.060313135 0.11356287 0.12086691 -0.41740996 -0.051060814 -0.3229777 -0.22364126 0.03381106 0.057055376 0.10101107 0.3908698 -0.09589819 -0.19739318 0.076118074 -0.1426049 0.17055425 -0.047270756 -0.20446616 0.16526556 -0.005840544 -0.042189047 0.09042122 -0.051674265 0.04000898 0.09651666 -0.31404218 0.011052013 0.01880412 0.031114085 0.15804633 -0.10229636 -0.19533655 -0.027238665 -0.35097662 -0.04208736 -0.2745964 0.50134766 -0.20873228 -0.24218966 -0.35371098 0.008010855 -0.18402429 -0.013326349 -0.25126106 0.12481993 0.0057856236 -0.017897554 0.07630662 0.1486779 0.21661273 -0.22715643 0.06180209 -0.12550946 0.06091711 -0.16326803 -0.07187474 -0.025877384 0.049210105 -0.0684896 0.2133678 -0.04926282 0.052054048 0.18331902 0.14859593 -0.008591723 0.069213375 0.06935526 0.26403606 -0.10762048 -0.082367964 -0.1143393 -0.14014888 0.13720658 -0.19309556 0.1428937 -0.04273118 0.030817676 -0.0366702 -0.15231813 -0.078328446 -0.05647572 -0.28800014 0.1150633 -0.011937069 0.029964311 -0.041745625 0.052240424 0.077461 -0.08755167 0.06939786 0.035272665 -0.20434278 0.10989522 -0.025938539 -0.027303893 -0.21759254 0.094984256 0.09524596 -0.21080872 -0.1337407 -0.04629766 -0.072496735
5 -0.17470826 0.14808303 -0.27227902 0.09257948 0.06467063 -0.021349452 -0.14311212 0.037784144 0.2004733 0.19841726 0.026362475 -0.12057707 0.014379599 -0.03710275 0.106031895 0.20037664 -0.025181 -0.18021643 -0.19942634 0.028886694 -0.11209139 -0.037905715 0.08398491 0.035442434 -0.015837202 -0.07120102 0.05749371 0.11898946 0.1102653 -0.4305369 -0.052492663 -0.33627337 -0.232655 0.045919284 0.05112679 0.10983945 0.39829487 -0.09736349 -0.2036023 0.07496757 -0.15214758 0.18116286 -0.05089351 -0.22091104 0.16893272 -0.0011140066 -0.041469757 0.087785855 -0.048508354 0.03201244 0.105287015 -0.3073739 0.022663264 0.01626369 0.044670228 0.16123763 -0.10608061 -0.19971655 -0.023532426 -0.3688853 -0.04300914 -0.27175814 0.50779974 -0.20435044 -0.25103915 -0.3671486 0.0069118124 -0.19289932 -0.0069918153 -0.26175326 0.12549327 0.007203864 -0.024092836 0.07923111 0.14967254 0.2191336 -0.22693168 0.068307474 -0.13129354 0.060165614 -0.17442793 -0.061536252 -0.026767386 0.058099475 -0.0733345 0.21360008 -0.045494173 0.05569504 0.18830356 0.14484866 -0.010015668 0.07918137 0.08633986 0.26341793 -0.12029292 -0.07581771 -0.119865395 -0.14916092 0.13181542 -0.19565769 0.15351227 -0.038013317 0.026983866 -0.03970061 -0.1654806 -0.09009055 -0.056198023 -0.29341826 0.11291107 -0.0038301104 0.032153927 -0.037179478 0.057982158 0.07678157 -0.09889334 0.07533832 0.0497198 -0.20601378 0.10868302 -0.024322556 -0.021248912 -0.21951897 0.09375079 0.08528655 -0.22077693 -0.13493353 -0.041772008 -0.061912656
6 -0.18872541 0.15417242 -0.2919 0.08949965 0.06915083 -0.019434629 -0.14633615 0.040760323 0.21736173 0.20750237 0.027432952 -0.13215311 0.01231162 -0.034020532 0.10424958 0.20660295 -0.027076036 -0.19221321 -0.21001546 0.03062025 -0.11861138 -0.04810543 0.092723876 0.03731177 -0.0080213165 -0.07463806 0.06218882 0.12082628 0.11025957 -0.45946732 -0.050229285 -0.34989458 -0.24142727 0.055068363 0.056475006 0.11355306 0.41538474 -0.098304205 -0.21441509 0.09173647 -0.15456249 0.19317608 -0.051468115 -0.24132621 0.18304715 -0.008052084 -0.04852434 0.09541702 -0.049623877 0.036570955 0.10737083 -0.32573614 0.02314402 0.0119996825 0.05110602 0.17040946 -0.10538553 -0.20435838 -0.023246389 -0.38481292 -0.04230779 -0.2886473 0.5312036 -0.21658958 -0.2663508 -0.38448963 0.009913611 -0.20055693 -0.0045238836 -0.27683312 0.12539591 -0.0033831743 -0.024754776 0.079951905 0.15761168 0.22927704 -0.2391443 0.0672321 -0.13884117 0.06820665 -0.18064874 -0.064879164 -0.028621929 0.070118465 -0.08196574 0.2237406 -0.051935613 0.056187358 0.19517402 0.14420956 -0.0022748292 0.08244424 0.08990133 0.27451515 -0.12902068 -0.07173252 -0.12588535 -0.15582094 0.14484364 -0.19863848 0.1559945 -0.030191323 0.023769693 -0.03431099 -0.18148251 -0.09441691 -0.06852648 -0.31295902 0.11057817 -0.0022161999 0.027338397 -0.047413226 0.055437334 0.07590185 -0.09246401 0.082059026 0.06323645 -0.21238598 0.11405139 -0.027293868 -0.02980698 -0.22931823 0.09730571 0.08257765 -0.23002687 -0.13489074 -0.037855804 -0.06705949
7 -0.18180116 0.14254369 -0.27212727 0.09513559 0.056923512 -0.015649375 -0.14168385 0.036587954 0.20481591 0.20117441 0.0362373 -0.1259199 0.00936339 -0.035115503 0.101688996 0.194011 -0.02788604 -0.18170844 -0.19979917 0.028264726 -0.10758959 -0.041311663 0.08477989 0.042154197 -0.01658493 -0.07088002 0.055284232 0.110281065 0.109306574 -0.43586335 -0.04887771 -0.33840114 -0.22994637 0.047288842 0.052897424 0.10882123 0.40183306 -0.08988629 -0.20341723 0.07678581 -0.1416943 0.19276774 -0.0461368 -0.23418148 0.1707241 -0.009925873 -0.05395556 0.096714914 -0.05730871 0.042482898 0.10022094 -0.31336918 0.02590202 0.009241234 0.04674682 0.16247791 -0.108032905 -0.19555789 -0.03076808 -0.37911487 -0.04383739 -0.26474467 0.496383 -0.21152946 -0.24658148 -0.36597452 0.006298359 -0.18856536 -0.012408994 -0.2648553 0.11437379 -0.00026933505 -0.029539252 0.08125386 0.14568229 0.21085478 -0.21934263 0.0617683 -0.1325975 0.06191289 -0.17429739 -0.06311753 -0.02980245 0.06286772 -0.074557565 0.215721 -0.05037144 0.056050684 0.18591467 0.14495924 -0.011124785 0.08306813 0.08259775 0.26260978 -0.12461078 -0.07848257 -0.11650299 -0.14600293 0.14033847 -0.19415434 0.16432136 -0.021896202 0.031561762 -0.029223936 -0.16671671 -0.100072734 -0.06782281 -0.29763505 0.10191862 0.00013226614 0.02111487 -0.04060298 0.051164106 0.07158643 -0.094378985 0.07613871 0.054701332 -0.20072474 0.108664 -0.030182099 -0.023811877 -0.21941017 0.091529995 0.07676576 -0.23105043 -0.13461447 -0.035067108 -0.060364805
8 -0.18021795 0.14972389 -0.28138128 0.09117547 0.058889333 -0.02218794 -0.15299116 0.029201241 0.21472599 0.21035564 0.028276915 -0.1345859 0.012436983 -0.03403273 0.107550666 0.20649171 -0.024032293 -0.19569696 -0.19779646 0.02540997 -0.11774549 -0.04973527 0.09224787 0.036336485 -0.0068727685 -0.06275885 0.06182521 0.107757874 0.10976122 -0.444557 -0.046488572 -0.3536712 -0.24572109 0.05230765 0.053699996 0.11247258 0.41666558 -0.09335067 -0.21299605 0.07695001 -0.15064992 0.19817038 -0.054538622 -0.23179893 0.1771124 -0.008811626 -0.046601158 0.08711226 -0.054806307 0.03705908 0.10090114 -0.32132006 0.022037366 0.016043756 0.05549166 0.16803052 -0.10450257 -0.20276842 -0.028759046 -0.39182898 -0.044256665 -0.28448504 0.5219939 -0.21661437 -0.26081592 -0.38034564 0.012921383 -0.19124658 -0.010235676 -0.27490434 0.12520479 -0.0069487602 -0.02609714 0.08584025 0.14038935 0.22307509 -0.22952537 0.06501635 -0.14468654 0.06322379 -0.18768018 -0.062570654 -0.02395792 0.061375383 -0.082175806 0.21828802 -0.046285298 0.067690566 0.19533053 0.14249934 -0.019324495 0.08262548 0.08525456 0.27125514 -0.12427611 -0.076510325 -0.12288406 -0.16148832 0.14538936 -0.19629148 0.16319905 -0.030071018 0.037534393 -0.03758124 -0.18324058 -0.102170095 -0.05961248 -0.31353465 0.11432956 -0.0108136935 0.021907026 -0.04187568 0.05631174 0.07340746 -0.09765265 0.07626007 0.057278264 -0.20922624 0.117754236 -0.024722302 -0.024408262 -0.22708647 0.08908389 0.073955774 -0.23145306 -0.13967647 -0.03582558 -0.05916085
9 -0.18311186 0.14993799 -0.27748471 0.0931723 0.0683639 -0.02735363 -0.14948942 0.03591073 0.22051804 0.20957156 0.031063559 -0.12845147 0.01326221 -0.032258514 0.1133309 0.19879676 -0.019396726 -0.1925518 -0.20699356 0.025704231 -0.11358311 -0.042461287 0.09291143 0.037665766 -0.01814405 -0.07133031 0.063108735 0.11938845 0.115175545 -0.44090152 -0.04659267 -0.35103807 -0.24366185 0.05263136 0.054602087 0.115389414 0.4121869 -0.09310381 -0.20086767 0.07662739 -0.15368119 0.18617275 -0.049043354 -0.22702627 0.17009546 -0.0023236156 -0.038923327 0.094541706 -0.053635366 0.040617768 0.10253428 -0.32933447 0.019204842 0.018853843 0.044237297 0.16725321 -0.10795584 -0.2082804 -0.030474313 -0.37367418 -0.048818417 -0.2823265 0.516361 -0.21449316 -0.2567248 -0.36477005 0.010778663 -0.19641906 -0.013970922 -0.2701101 0.12703387 0.003211876 -0.02655904 0.077554815 0.1585483 0.22721869 -0.23583572 0.06757353 -0.13940433 0.06317946 -0.18332446 -0.06693003 -0.027836382 0.05994932 -0.0737267 0.2239036 -0.044975284 0.056733895 0.19326568 0.14527658 -0.01422062 0.079029836 0.07791185 0.26885256 -0.120050974 -0.07419198 -0.11557768 -0.1510435 0.14737515 -0.20407382 0.16128267 -0.039931957 0.029466864 -0.040885344 -0.16830826 -0.094314635 -0.0582508 -0.3094727 0.11554336 -0.012212083 0.027464231 -0.032977007 0.052912913 0.078183286 -0.09603824 0.0792382 0.04681054 -0.20830265 0.10810014 -0.030158127 -0.025856417 -0.22279803 0.09761224 0.08648029 -0.2220274 -0.14018948 -0.04205892 -0.074338205
10 -0.17719436 0.14922558 -0.26832604 0.09112766 0.054372124 -0.01926909 -0.13989848 0.03276731 0.20339485 0.19878745 0.02876527 -0.12635575 0.010872664 -0.033954926 0.10656426 0.18788636 -0.025270298 -0.17978424 -0.1988152 0.024978098 -0.11264359 -0.038987607 0.080855615 0.03392317 -0.018418439 -0.07110003 0.0590974 0.110016264 0.10765468 -0.43593955 -0.044450395 -0.33573413 -0.234444 0.04707551 0.05450121 0.109445974 0.40004322 -0.09453421 -0.19623809 0.08066925 -0.14750172 0.18745321 -0.048513737 -0.22270797 0.16230161 -0.0041880137 -0.04615109 0.08776722 -0.052934773 0.0347358 0.10168002 -0.31123656 0.023584729 0.011096505 0.044762254 0.15962507 -0.10658584 -0.1983434 -0.022321297 -0.3634649 -0.04633637 -0.26902285 0.49688601 -0.20193362 -0.24988827 -0.35902172 0.011767657 -0.18692799 -0.008068076 -0.26276478 0.12072694 -0.00085682364 -0.028907692 0.07532523 0.14534016 0.20873064 -0.22596489 0.060796767 -0.13627234 0.06799105 -0.1770203 -0.064065434 -0.023846626 0.056948185 -0.07674652 0.21268669 -0.0493168 0.05396575 0.1870542 0.14097528 -0.008541192 0.07563722 0.07517685 0.25403357 -0.117050946 -0.07659912 -0.10827344 -0.1521936 0.14011872 -0.19125381 0.16317946 -0.024955947 0.029507773 -0.033454064 -0.16469796 -0.09548736 -0.05965907 -0.29632023 0.10790609 0.00028952153 0.019407047 -0.036331654 0.05631199 0.07355722 -0.089452475 0.07531869 0.057941385 -0.1988156 0.10832091 -0.028475786 -0.023225445 -0.21472523 0.083826326 0.068676494 -0.21145937 -0.12376254 -0.044072077 -0.061189
11 -0.17692429 0.14493525 -0.27518997 0.090095766 0.06897942 -0.031046055 -0.14728056 0.04240873 0.20902261 0.20358486 0.022959663 -0.12285044 0.016864065 -0.028102038 0.11171525 0.20543419 -0.025272489 -0.18450364 -0.19179758 0.028858159 -0.10681883 -0.045041032 0.08671967 0.03532603 -0.01352693 -0.06923444 0.05508806 0.11659866 0.113259375 -0.43217903 -0.046268854 -0.33780771 -0.23105197 0.048216052 0.052154843 0.11269738 0.39925537 -0.09506884 -0.19707283 0.07331444 -0.14361979 0.18196702 -0.049140986 -0.2192732 0.17241807 -0.006877095 -0.04118769 0.087997235 -0.056825053 0.0399048 0.101500265 -0.32041234 0.017920148 0.014733635 0.043374274 0.17161623 -0.1018521 -0.19966003 -0.024629697 -0.37049797 -0.050536834 -0.27035683 0.5146599 -0.20800008 -0.2567022 -0.36576378 0.00655246 -0.18580143 -0.009227397 -0.274336 0.12867296 0.002312661 -0.01600836 0.071585916 0.1507588 0.21667965 -0.22489698 0.06265784 -0.12616353 0.06436207 -0.16907361 -0.06434196 -0.026779255 0.06340043 -0.07625125 0.21660356 -0.04753158 0.053082775 0.19062965 0.1488837 -0.0050550373 0.07666562 0.08408493 0.2648644 -0.11677516 -0.07019579 -0.11553901 -0.15166622 0.13573138 -0.19334352 0.15692243 -0.040826097 0.030095238 -0.037074953 -0.16197146 -0.093765944 -0.057819746 -0.2954977 0.11725337 -0.015139263 0.032269347 -0.03156841 0.053499468 0.07838951 -0.08858514 0.07507065 0.046981193 -0.2048974 0.11207673 -0.020458445 -0.02460771 -0.21621706 0.08960422 0.086228274 -0.21614397 -0.1404611 -0.04206771 -0.073895395
12 -0.17769203 0.14851621 -0.2755882 0.09558158 0.06457057 -0.022030583 -0.14761028 0.03167895 0.21231526 0.20536265 0.0313973 -0.12764782 0.010179642 -0.030357208 0.10211902 0.20008877 -0.02682115 -0.18829152 -0.20249619 0.02666659 -0.11060959 -0.05128428 0.08945351 0.03633833 -0.012727997 -0.06756395 0.058207568 0.1192545 0.11595768 -0.44425356 -0.052274875 -0.34636474 -0.24092226 0.04820688 0.057618964 0.114408925 0.40461785 -0.09045287 -0.20542541 0.078649774 -0.14740455 0.1834834 -0.04584009 -0.22851408 0.17041773 -0.0074143712 -0.043684043 0.08656346 -0.05828187 0.03833285 0.101298414 -0.3189689 0.018325526 0.015109621 0.044812255 0.17018966 -0.10290529 -0.20506027 -0.026819546 -0.37221888 -0.045415513 -0.28267476 0.5127171 -0.21529047 -0.25881192 -0.37447587 0.007183276 -0.19171956 -0.007587314 -0.271967 0.12766123 0.0007637108 -0.022334306 0.076775454 0.1552351 0.21644749 -0.23285507 0.06547225 -0.13896032 0.061621755 -0.18191548 -0.06340521 -0.030406749 0.06544183 -0.076732226 0.21708058 -0.045504242 0.059508197 0.19098553 0.1505613 -0.006530599 0.08233524 0.08407973 0.2664812 -0.119812295 -0.07925914 -0.11476333 -0.14880528 0.14350034 -0.19410774 0.1550831 -0.035594042 0.024810594 -0.040081464 -0.16402274 -0.09287368 -0.06335459 -0.30624738 0.10945467 -0.008383917 0.027381074 -0.035286203 0.057906326 0.07788784 -0.09313137 0.07231133 0.048843067 -0.20333703 0.111629955 -0.030135263 -0.02733297 -0.21693756 0.09220279 0.08053593 -0.22812307 -0.1372825 -0.045706853 -0.06462229
13 -0.18125173 0.13952267 -0.27366924 0.09273399 0.07757737 -0.030475589 -0.1402658 0.039937414 0.20578335 0.19936393 0.022895023 -0.11369858 0.015577678 -0.02275783 0.09964142 0.19819297 -0.023943055 -0.17679106 -0.19746444 0.025263812 -0.1044606 -0.048944738 0.089298405 0.031966902 -0.017140318 -0.0667539 0.0572204 0.121310696 0.11651551 -0.4266051 -0.05605287 -0.3274906 -0.22849134 0.038561694 0.06419065 0.111874744 0.39784253 -0.09334874 -0.19731821 0.07248447 -0.14859752 0.17298572 -0.048216946 -0.20708682 0.16879974 -0.00017341139 -0.029265316 0.08413479 -0.055837475 0.04333313 0.10369808 -0.31849056 0.0137093915 0.013148216 0.033294715 0.16701227 -0.108126774 -0.19694433 -0.030531751 -0.3633091 -0.051046137 -0.28027123 0.5139691 -0.2193209 -0.2511311 -0.36633775 0.003469741 -0.18902157 -0.0083669955 -0.26630652 0.12827814 0.008989669 -0.020765213 0.07536828 0.15877116 0.22276694 -0.23127857 0.0661186 -0.12393592 0.058230154 -0.1727956 -0.06912194 -0.032875564 0.059317376 -0.061383996 0.21981487 -0.050342876 0.053970754 0.19349115 0.15298735 -0.0047773905 0.07979034 0.08326671 0.26180106 -0.12118655 -0.07824761 -0.12003809 -0.14415543 0.13816215 -0.19953746 0.14215223 -0.04917331 0.02958009 -0.044942323 -0.14648518 -0.08078889 -0.055781383 -0.30359384 0.11160587 -0.021083904 0.029066596 -0.028852843 0.051260784 0.079955645 -0.101184465 0.065644674 0.034895044 -0.20415655 0.11329241 -0.02339435 -0.026456637 -0.21883623 0.09988706 0.09979304 -0.2216755 -0.14647126 -0.04579278 -0.069251135
14 -0.17420366 0.14670372 -0.26687473 0.08860798 0.045136053 -0.0030833767 -0.13466536 0.03303531 0.20485467 0.19655697 0.046441 -0.12888746 0.007903885 -0.04066331 0.10701442 0.18880041 -0.030843016 -0.18008342 -0.20220058 0.025840396 -0.11381196 -0.035943624 0.079326406 0.04368676 -0.017867068 -0.07261614 0.05791383 0.10433467 0.11281245 -0.43844634 -0.04421984 -0.34277484 -0.23668672 0.0566191 0.055710502 0.10810175 0.4040854 -0.09315624 -0.20826624 0.08857906 -0.13786407 0.19197322 -0.053594656 -0.23461807 0.16061045 -0.0055079786 -0.050238054 0.10006573 -0.05213178 0.042924136 0.10131946 -0.3088107 0.02996436 0.010121412 0.051208723 0.16118401 -0.1033184 -0.20113997 -0.026612995 -0.37483564 -0.04085247 -0.26187357 0.49373153 -0.20237175 -0.24706088 -0.36672968 0.009923989 -0.18899038 -0.008976368 -0.2579092 0.11952489 -0.0106956875 -0.02897599 0.07808485 0.15166983 0.20973688 -0.22563894 0.057562333 -0.12913492 0.07242561 -0.17968543 -0.06420479 -0.025356103 0.06381648 -0.082482204 0.208959 -0.048657045 0.052514922 0.18066122 0.14469814 -0.008655603 0.082191534 0.07282789 0.2526844 -0.12102625 -0.068116345 -0.09813102 -0.1413297 0.13773829 -0.18005782 0.17359625 -0.017257668 0.023670675 -0.034667827 -0.17872792 -0.09958105 -0.07721464 -0.29332155 0.10524904 0.004696546 0.015716309 -0.047417697 0.0553156 0.065361775 -0.088651665 0.07966906 0.062260617 -0.19595231 0.100890644 -0.036261138 -0.028720535 -0.21934496 0.07831052 0.06448741 -0.21844518 -0.12719889 -0.04050943 -0.05535524
15 -0.17345665 0.14925715 -0.27518132 0.08987966 0.056702614 -0.010244489 -0.124222346 0.04203264 0.20757277 0.20295912 0.030771764 -0.1281067 0.014825422 -0.041009594 0.109144695 0.20050433 -0.032524243 -0.16738963 -0.20193315 0.023575053 -0.10691419 -0.03182885 0.07866453 0.041140854 -0.018222176 -0.08059304 0.053522315 0.11018436 0.10626438 -0.4484553 -0.04908676 -0.35557303 -0.2393339 0.05161767 0.056315713 0.11210495 0.40311787 -0.09631236 -0.19802319 0.10271058 -0.14806858 0.20663804 -0.052760046 -0.23958984 0.16484712 -0.0026911984 -0.04866088 0.100201935 -0.04315034 0.02772433 0.10803897 -0.30939162 0.035009157 0.014830965 0.047498725 0.16992576 -0.09960799 -0.19927669 -0.01676595 -0.37184152 -0.03576508 -0.26308385 0.5014877 -0.18865867 -0.25526187 -0.36616105 0.013805838 -0.19256908 -0.0040183314 -0.26780635 0.12049509 -0.0014864337 -0.019162418 0.07422081 0.1545015 0.21759301 -0.22553237 0.06029872 -0.13302867 0.07971655 -0.17502654 -0.0693238 -0.023425438 0.06939873 -0.08506583 0.20211971 -0.04981498 0.056084547 0.18067655 0.1445832 0.0015390926 0.08584152 0.08815798 0.26397315 -0.11305863 -0.079352506 -0.09906195 -0.14982833 0.1385276 -0.19152407 0.17482293 -0.023399584 0.013998505 -0.03754465 -0.18439981 -0.0886494 -0.065239266 -0.2853303 0.10412656 0.012152041 0.0344089 -0.047462385 0.064592324 0.066686764 -0.0949071 0.09060438 0.06611403 -0.20379378 0.10500069 -0.03453962 -0.029903283 -0.2182778 0.08076869 0.07179719 -0.21105486 -0.124171294 -0.043006808 -0.055532448
16 -0.18688059 0.15094689 -0.2803455 0.09759907 0.074985914 -0.031216528 -0.1553077 0.0342612 0.21440639 0.2109464 0.03211897 -0.1314179 0.018107621 -0.03242348 0.111854516 0.20451978 -0.024128284 -0.19774489 -0.20357047 0.030029012 -0.11410851 -0.044664416 0.09528897 0.036734257 -0.015062244 -0.06420437 0.062863536 0.1214964 0.12043717 -0.45414454 -0.054460295 -0.35199195 -0.24382171 0.04639356 0.060883258 0.109714866 0.41892672 -0.09796678 -0.20922185 0.077756375 -0.15915662 0.18809746 -0.04764174 -0.22960667 0.1807297 -0.0007354995 -0.0405655 0.08888248 -0.057087645 0.043406136 0.10042825 -0.3342908 0.018638307 0.015610844 0.043175764 0.16851187 -0.11203137 -0.20542043 -0.03427432 -0.38145047 -0.04892364 -0.29141906 0.5308937 -0.22047876 -0.2650445 -0.37696743 0.013112149 -0.20004871 -0.010410647 -0.2718712 0.1356177 0.00649675 -0.028116662 0.07852321 0.1563849 0.22615923 -0.24088399 0.06895582 -0.14260681 0.058034614 -0.18024556 -0.0659344 -0.029351594 0.055671412 -0.07671363 0.22828011 -0.053283095 0.06080387 0.19741416 0.1544577 -0.012879462 0.07934464 0.07874797 0.2791294 -0.1261788 -0.08289787 -0.12780438 -0.15350479 0.14439093 -0.1997907 0.15836881 -0.035955306 0.035884082 -0.03839518 -0.1685094 -0.09109164 -0.061339937 -0.314499 0.11469833 -0.010977941 0.031280648 -0.03227912 0.058174957 0.08280819 -0.09888908 0.07608007 0.0491689 -0.21388003 0.118581735 -0.026870493 -0.029477365 -0.22353078 0.100200474 0.0930074 -0.22572201 -0.14167464 -0.046941224 -0.07560186
17 -0.17341171 0.14229897 -0.26791322 0.07775046 0.06135299 -0.02010047 -0.14028658 0.039560355 0.20527692 0.19080947 0.027251126 -0.12960255 0.016281758 -0.037410676 0.10501782 0.20614544 -0.023467721 -0.1786185 -0.19147074 0.025714966 -0.112866394 -0.044758063 0.08218819 0.031524256 -0.007307171 -0.07439304 0.05367846 0.104541264 0.10906399 -0.4349726 -0.039270375 -0.3343142 -0.22122614 0.05174036 0.047104456 0.09743063 0.39341664 -0.09670939 -0.20954831 0.07144829 -0.13316517 0.19303851 -0.05027875 -0.22471124 0.16554809 -0.008094717 -0.045805044 0.088559024 -0.044978347 0.03683895 0.09658849 -0.30750516 0.02734372 0.0041466276 0.049461074 0.16529277 -0.099512294 -0.18104233 -0.025873521 -0.3703313 -0.039337788 -0.26729333 0.49708053 -0.19928633 -0.25231153 -0.3550301 0.009114806 -0.1841932 -0.009720432 -0.26168483 0.11878176 -0.006575495 -0.025438908 0.072286196 0.13002014 0.21142177 -0.21942443 0.06374909 -0.13418005 0.06257198 -0.17085564 -0.056121312 -0.031622928 0.06109793 -0.07648959 0.20597243 -0.04991771 0.060357187 0.18268412 0.13190849 -0.009958661 0.076843224 0.0871421 0.25240853 -0.11828633 -0.06414585 -0.11234305 -0.1543811 0.13453366 -0.18076307 0.1562323 -0.023755146 0.03609708 -0.037406594 -0.16804227 -0.10171332 -0.06678048 -0.29401618 0.10986532 -0.0064777294 0.030578958 -0.039770603 0.05267327 0.07177466 -0.08313475 0.07774063 0.061592616 -0.19353475 0.10925414 -0.022792207 -0.023279523 -0.20530072 0.089868784 0.07599832 -0.21640132 -0.13082571 -0.042633817 -0.05765894
18 -0.21231359 0.11707807 -0.25666422 0.09227303 -0.089944534 0.090866864 -0.083016634 0.020427974 0.20889893 0.1919332 0.12731336 -0.10672005 -0.10172755 -0.05681325 0.014824973 0.14314932 -0.08710541 -0.17764926 -0.23140948 0.06521774 -0.12033701 0.01308292 0.05720016 0.09934465 0.007241394 -0.07599224 0.03312879 0.068771765 0.057143833 -0.4138542 -0.012245377 -0.28528222 -0.2222047 0.10337072 0.07230748 0.067037374 0.4323452 -0.013521336 -0.18611638 0.09167601 -0.053530324 0.210059 -0.07125504 -0.31325844 0.14343338 -0.024190797 -0.11560864 0.1791864 -0.08080687 0.08349335 0.12844247 -0.27905643 0.12920937 -0.044155892 0.1057768 0.15913564 -0.15225609 -0.19291699 -0.035474278 -0.4232862 0.0013198467 -0.19512586 0.37400404 -0.23650733 -0.24148244 -0.34200504 -0.006702883 -0.13610417 0.04188661 -0.22798727 0.114125825 -0.026711386 -0.15063308 0.11997057 0.17934285 0.15941839 -0.20613232 0.031684734 -0.09206929 0.10552962 -0.2159067 -0.037003115 -0.032842293 0.04970392 -0.17025645 0.18276452 -0.039241042 0.078064606 0.16575024 0.12595002 0.034242928 0.09570134 0.062450763 0.24397394 -0.2337916 -0.00019972396 -0.08148671 -0.16286814 0.17566536 -0.14021248 0.21947321 0.03157233 0.04371112 0.01653136 -0.24145263 -0.13950132 -0.15328008 -0.23028721 0.045236364 0.07538442 -0.057623643 -0.040291622 -0.013301692 -0.02345434 -0.072305314 0.087679826 0.07875967 -0.14142476 0.08072832 -0.052020475 -0.03690095 -0.23923458 0.09715026 -0.015070888 -0.28576857 -0.08881152 -0.0057077613 -0.027476454
19 -0.22393183 0.11242223 -0.25301686 0.095991 -0.10965209 0.09991435 -0.075633384 0.013521756 0.21450642 0.19225343 0.13201249 -0.10227606 -0.11902883 -0.06311843 -0.0046303747 0.14359954 -0.08964896 -0.17834333 -0.23646885 0.08081206 -0.12106955 0.020220533 0.05129717 0.09993354 0.01969081 -0.06739978 0.03234848 0.069174975 0.043260664 -0.40884745 -0.009100237 -0.28161767 -0.21598493 0.11733877 0.0754533 0.06702026 0.43962687 0.008709074 -0.19059381 0.08684551 -0.04620789 0.21600224 -0.081434 -0.3346104 0.14661987 -0.030440593 -0.12557742 0.18938069 -0.09169716 0.08787111 0.12381866 -0.2737235 0.14440632 -0.06807954 0.12648813 0.16012019 -0.16690978 -0.19288845 -0.038231462 -0.43340585 0.0049139205 -0.19052728 0.3547062 -0.24219261 -0.23878013 -0.34316325 -0.0015726689 -0.12516169 0.04281724 -0.22701548 0.11135367 -0.026910618 -0.17472471 0.13015248 0.17791189 0.15001838 -0.20966473 0.036581825 -0.09193575 0.09816032 -0.22437438 -0.019020371 -0.028688429 0.04427645 -0.18407263 0.17352028 -0.04195567 0.08631433 0.16576058 0.108927935 0.034517165 0.09414933 0.07275375 0.23840944 -0.25479278 0.014300798 -0.0892111 -0.17163418 0.17652355 -0.1322282 0.2261067 0.03843658 0.044377342 0.025374258 -0.2487773 -0.14869125 -0.16715086 -0.23080929 0.035011183 0.08825557 -0.061682943 -0.030018706 -0.023236282 -0.037918415 -0.07809261 0.081797495 0.08161652 -0.12905663 0.07567291 -0.055838313 -0.031962946 -0.24390759 0.09770942 -0.02878502 -0.2994854 -0.08865096 0.0115806125 -0.021260887
20 -0.22668548 0.1231033 -0.26236907 0.09554718 -0.10960273 0.10266987 -0.08663836 0.01008288 0.22647226 0.20087585 0.13359736 -0.11093558 -0.11396553 -0.06601429 0.0073168403 0.16034825 -0.09338023 -0.19376062 -0.24259385 0.07764806 -0.12922712 0.009753466 0.06083486 0.10149983 0.023024943 -0.06929029 0.031913336 0.07243857 0.046518564 -0.42304546 -0.0065002153 -0.2989429 -0.23062606 0.119372465 0.07399312 0.072304934 0.45124587 -0.00019343541 -0.1978115 0.08453963 -0.045953497 0.22412892 -0.078445934 -0.3395488 0.15744174 -0.029288828 -0.12797208 0.18825352 -0.092081666 0.08344177 0.12847175 -0.2824995 0.14766319 -0.059352934 0.12359832 0.16663848 -0.16308907 -0.19088326 -0.03544999 -0.45188233 0.002769576 -0.19935878 0.37739003 -0.25312525 -0.25061765 -0.36215022 -0.0008268393 -0.13473615 0.041427277 -0.24267226 0.11536404 -0.033647742 -0.16772565 0.13171798 0.17832749 0.16359423 -0.21269958 0.035199534 -0.10643926 0.10544703 -0.225881 -0.018986307 -0.029732047 0.047467794 -0.19419909 0.18516405 -0.047585204 0.09200022 0.17272156 0.117596194 0.024388395 0.096322015 0.07933981 0.25179854 -0.25313073 0.016255219 -0.09463501 -0.18256441 0.17805535 -0.14079355 0.22912934 0.0350879 0.044461727 0.022234192 -0.26145944 -0.15183464 -0.16766432 -0.24556613 0.044073015 0.08512312 -0.05677813 -0.032338914 -0.016467659 -0.030754067 -0.07136766 0.086756684 0.085852444 -0.14205077 0.08662283 -0.054324713 -0.030677537 -0.25422534 0.10243206 -0.02454943 -0.30720583 -0.092381 0.010603357 -0.021853924
21 -0.22973618 0.12517439 -0.26742774 0.097963214 -0.09818693 0.09557152 -0.08604028 0.013877114 0.22375104 0.19650872 0.13435794 -0.119435556 -0.10507786 -0.06859669 0.014496989 0.15703051 -0.08590645 -0.18754269 -0.24443819 0.07583633 -0.12624586 0.0077403397 0.056870237 0.1010013 0.017322635 -0.073170096 0.032562833 0.07041918 0.054165352 -0.4389611 -0.010903923 -0.30158266 -0.23774357 0.11510864 0.07620715 0.069830485 0.46082437 -0.0018436211 -0.2025986 0.09086627 -0.05101246 0.23048192 -0.07779462 -0.33835575 0.15451181 -0.032314386 -0.120389275 0.18681966 -0.0945337 0.091918185 0.12626685 -0.29660252 0.1386457 -0.059366096 0.12049927 0.16300857 -0.16201924 -0.20172569 -0.031640884 -0.45200565 0.00060380995 -0.19965522 0.39478967 -0.25135595 -0.25133923 -0.36310795 -0.0012224003 -0.14489985 0.04678283 -0.2455816 0.11829958 -0.03087644 -0.16939859 0.136319 0.18082805 0.16348897 -0.21564393 0.040922195 -0.104315996 0.10793782 -0.22863358 -0.030346746 -0.028647283 0.047178764 -0.1897775 0.19077508 -0.04788066 0.08430043 0.17655249 0.12985039 0.029822357 0.10178092 0.06976313 0.25555515 -0.24729007 0.009661417 -0.082926616 -0.17720012 0.18410386 -0.13989963 0.23843245 0.03583827 0.04934885 0.016855488 -0.25334364 -0.14770876 -0.16681191 -0.24619035 0.044864822 0.084218286 -0.06107141 -0.039364014 -0.009349459 -0.033162586 -0.074487925 0.096579745 0.08609296 -0.14377445 0.085117474 -0.052597985 -0.034832276 -0.25646394 0.09794597 -0.023002563 -0.30563822 -0.09398542 -0.0049841576 -0.020926187
22 -0.22113132 0.11466111 -0.25800258 0.09600105 -0.1010482 0.10049585 -0.087121874 0.013577418 0.22060773 0.19043688 0.13163948 -0.11397387 -0.109772824 -0.06317545 0.0057885787 0.15406756 -0.09086091 -0.1835978 -0.23930222 0.07958103 -0.12894368 0.008541325 0.05994411 0.10089501 0.013223656 -0.07735438 0.029244332 0.069060594 0.04933226 -0.42508823 -0.009164938 -0.29057208 -0.21946362 0.108851515 0.06984334 0.073218815 0.4477416 0.0008239638 -0.19995281 0.08198992 -0.050986473 0.21871918 -0.076888755 -0.3377692 0.14987028 -0.0263581 -0.12684786 0.18993537 -0.0927793 0.09571193 0.12798695 -0.2853084 0.14233452 -0.06361906 0.113315776 0.16232786 -0.16076364 -0.19390371 -0.043680776 -0.44815207 0.009110038 -0.19734253 0.37863064 -0.25190955 -0.24377999 -0.3562242 -0.0010871568 -0.1348255 0.04433831 -0.23031685 0.11223355 -0.030270912 -0.16548869 0.13452214 0.17652759 0.15637156 -0.21434842 0.03657419 -0.09144572 0.10044587 -0.22565685 -0.03009687 -0.029165398 0.041197065 -0.17718081 0.19150548 -0.048623856 0.08096977 0.173993 0.12515862 0.02828817 0.09807609 0.07303673 0.24889989 -0.24518055 0.011999577 -0.08690982 -0.16493304 0.17481834 -0.13852283 0.23283297 0.03951361 0.04643146 0.018830918 -0.24601308 -0.14266717 -0.16409923 -0.24442288 0.045123532 0.07731786 -0.063159496 -0.034524154 -0.023360448 -0.035713073 -0.071308196 0.087858416 0.085195504 -0.13504092 0.08023163 -0.058501758 -0.03463358 -0.25103834 0.10057844 -0.016728697 -0.30901712 -0.095131494 -0.0056028143 -0.02469338
23 -0.24884485 0.13056277 -0.2732281 0.109022595 -0.12922956 0.11538352 -0.08202444 0.009388022 0.24072726 0.22006467 0.13833578 -0.11507769 -0.12961982 -0.062429205 -0.010239451 0.14083219 -0.101061635 -0.19508511 -0.24941917 0.09022184 -0.122929394 0.029523646 0.06728538 0.10962606 0.014501742 -0.073122606 0.03187455 0.07214817 0.04150358 -0.42464712 -0.010093129 -0.2947024 -0.24118017 0.12974042 0.083577074 0.064054064 0.47581246 0.011907699 -0.187932 0.08398118 -0.046746794 0.22869992 -0.099347286 -0.34985325 0.16835278 -0.028434273 -0.13751715 0.20323363 -0.10300061 0.09650487 0.13383903 -0.3059082 0.1531808 -0.055422205 0.1308161 0.17231749 -0.18211837 -0.2112081 -0.03991802 -0.4681529 -0.0010826514 -0.20201236 0.37512413 -0.27852544 -0.2681303 -0.3598108 -0.0004657105 -0.13585423 0.04898786 -0.25788614 0.13700323 -0.030332869 -0.19559082 0.1490615 0.20008226 0.16906576 -0.22764105 0.046345606 -0.104539976 0.110381655 -0.24622932 -0.030019727 -0.02911284 0.048103385 -0.21296977 0.19295375 -0.044602264 0.0971536 0.18294871 0.119927675 0.034720387 0.0978828 0.06907307 0.2684909 -0.28779304 0.024072934 -0.11039954 -0.18752101 0.20460008 -0.15383948 0.23557477 0.025394786 0.057516955 0.023866946 -0.27864233 -0.16504146 -0.177991 -0.2514078 0.043952353 0.09417731 -0.07233669 -0.029828578 -0.01898087 -0.03774787 -0.08458573 0.086658835 0.07146129 -0.13682108 0.08830281 -0.051698674 -0.0390872 -0.27028438 0.11440113 -0.032755673 -0.32028005 -0.1009563 0.018357605 -0.032585375
24 -0.22865859 0.11557292 -0.2666914 0.10049803 -0.11043624 0.105886824 -0.07571887 0.012516836 0.22259349 0.18964554 0.13755152 -0.10920597 -0.12358445 -0.068546526 -0.002068266 0.15020277 -0.0974253 -0.18751314 -0.24198374 0.085375644 -0.12496042 0.014391218 0.057730712 0.0937211 0.021513391 -0.07225266 0.031011537 0.06645547 0.04709658 -0.4282849 -0.007835658 -0.282765 -0.22599429 0.11382363 0.07773651 0.06866285 0.4576648 0.008338296 -0.2014564 0.085956685 -0.041200206 0.21764843 -0.08194199 -0.34447625 0.14855145 -0.034085248 -0.12624705 0.19466837 -0.101511285 0.095431626 0.12454264 -0.281125 0.1520665 -0.072233014 0.12421787 0.16702555 -0.16983128 -0.19353205 -0.039008267 -0.45098418 0.007865008 -0.19422406 0.3763138 -0.2591316 -0.24761145 -0.35777634 0.00359158 -0.12793665 0.046456825 -0.23284079 0.118470386 -0.031253405 -0.18536009 0.13998282 0.17466342 0.15653135 -0.21108106 0.03531644 -0.090954885 0.10576598 -0.23314936 -0.019336984 -0.037662014 0.04491325 -0.19131787 0.17869645 -0.0473281 0.08727672 0.1731269 0.12074643 0.031170705 0.093679786 0.07399181 0.25210696 -0.26714632 0.013495591 -0.09040087 -0.18047798 0.17677462 -0.13445428 0.2323383 0.040924136 0.06180328 0.014685835 -0.25461012 -0.15239376 -0.17156276 -0.23859684 0.037983138 0.08683245 -0.066120915 -0.02906449 -0.021126134 -0.037863366 -0.07179545 0.09286829 0.07503416 -0.13466993 0.08130198 -0.046575647 -0.03174733 -0.25610277 0.10602308 -0.029539384 -0.31265947 -0.09601843 -0.0009989652 -0.019485455
25 -0.22463864 0.11611695 -0.2621385 0.099856704 -0.10453849 0.09780295 -0.07287658 0.011015807 0.22188246 0.1973378 0.13040558 -0.10740118 -0.11393811 -0.06292913 0.0007273094 0.14943355 -0.091798596 -0.17811058 -0.2373484 0.08570619 -0.12270047 0.026981127 0.061286286 0.10784387 0.008034486 -0.079802 0.03187378 0.07459447 0.04464338 -0.41208076 -0.0058647697 -0.28132874 -0.21678388 0.10950521 0.07637957 0.074696645 0.4445516 0.00892341 -0.18437931 0.08763347 -0.052131806 0.21051252 -0.08487558 -0.33367848 0.1543382 -0.029460853 -0.12111141 0.19613089 -0.091877274 0.0897276 0.13227233 -0.2812032 0.14810804 -0.057706576 0.11784411 0.16370225 -0.16622546 -0.20005703 -0.036566164 -0.4347722 -0.0007320025 -0.19074182 0.36890793 -0.2529345 -0.2462101 -0.34729 0.0017151997 -0.13746624 0.044866305 -0.2427896 0.118598245 -0.01997702 -0.17241243 0.13023493 0.18970281 0.16419703 -0.21495102 0.03573298 -0.08429898 0.10406305 -0.22845557 -0.027528217 -0.025252875 0.050834786 -0.18951371 0.18067664 -0.04331662 0.08403353 0.17297134 0.12504184 0.037358727 0.101556405 0.07351133 0.24596918 -0.2528085 0.019611355 -0.09272111 -0.17518207 0.18337618 -0.13612996 0.22978553 0.024861163 0.052457396 0.024326846 -0.2524198 -0.14550617 -0.15863281 -0.23710832 0.04267727 0.087387994 -0.05901888 -0.03057426 -0.024613123 -0.041965928 -0.08019554 0.08130069 0.0787415 -0.13364266 0.078721136 -0.053143628 -0.03062168 -0.25097206 0.10213234 -0.023491347 -0.3015905 -0.08666159 0.010929157 -0.025022158
26 -0.23525548 0.12039094 -0.26529792 0.10791314 -0.122274734 0.10872964 -0.081613205 0.0050953054 0.23277523 0.20107825 0.14156076 -0.111764714 -0.13073637 -0.06730705 0.0007429096 0.15736276 -0.09969484 -0.19914107 -0.25449488 0.08963831 -0.13674255 0.01831083 0.059122164 0.10523425 0.018382754 -0.07321843 0.032133326 0.0724528 0.048847143 -0.43369097 -0.004769431 -0.29715112 -0.2303958 0.12778385 0.08081397 0.073363185 0.4732287 0.015564554 -0.19993979 0.07769275 -0.04940432 0.22531667 -0.08753052 -0.35345545 0.15930441 -0.032556117 -0.13065867 0.20444317 -0.10274501 0.10277956 0.1329995 -0.29054326 0.15692127 -0.07242484 0.13158616 0.175962 -0.18063721 -0.20114705 -0.047048856 -0.46771425 -0.00032977987 -0.20165046 0.3794402 -0.2699127 -0.2567685 -0.37038893 -0.0021526394 -0.13072884 0.051403023 -0.24638125 0.12101769 -0.03190952 -0.19252008 0.14716367 0.19343174 0.1631615 -0.2176746 0.039891098 -0.09521787 0.11000226 -0.24584807 -0.021313004 -0.03917228 0.044985898 -0.20315216 0.19018696 -0.040431738 0.096417055 0.17989035 0.1252767 0.033422552 0.10576794 0.073753245 0.2567711 -0.27977988 0.022724666 -0.0943435 -0.17838955 0.19096038 -0.14223026 0.24532676 0.03493271 0.054059874 0.023662925 -0.25907534 -0.15975568 -0.17668767 -0.24992946 0.036711402 0.08938787 -0.076789446 -0.025379995 -0.022761442 -0.04165675 -0.0827165 0.08273761 0.07712844 -0.1365077 0.08180968 -0.051318582 -0.026947672 -0.26509106 0.11037945 -0.03267233 -0.3224828 -0.09775688 0.00668849 -0.023048444
27 -0.23712648 0.116307706 -0.26338756 0.105793476 -0.10941561 0.10466104 -0.072316855 0.012724556 0.23510715 0.20103408 0.14079218 -0.11148153 -0.1253633 -0.064959936 -0.007173359 0.14499816 -0.09948179 -0.18276367 -0.2536926 0.08471721 -0.12539063 0.025831306 0.064456455 0.105397575 0.010822869 -0.07412766 0.03387931 0.071120664 0.055775404 -0.42257932 -0.0030053984 -0.2844565 -0.23341703 0.11875545 0.07742453 0.06894269 0.45922035 0.012390652 -0.19278066 0.090352476 -0.046134897 0.22375736 -0.09163376 -0.342968 0.14912814 -0.028246233 -0.12830639 0.20517844 -0.10360521 0.10180515 0.13282582 -0.29517284 0.14689857 -0.06481941 0.118484065 0.16258052 -0.17590044 -0.20917445 -0.039060567 -0.4514989 0.008457958 -0.19350982 0.37274674 -0.26449546 -0.2501363 -0.35716486 0.0031493166 -0.13457188 0.05088136 -0.24403603 0.12028481 -0.031436387 -0.18492588 0.14669229 0.19745211 0.16374817 -0.22036953 0.03224306 -0.095118225 0.11220088 -0.23921339 -0.026089977 -0.037836563 0.045603383 -0.19762202 0.18725261 -0.03823248 0.092788115 0.17323121 0.12962125 0.034925595 0.10248708 0.06879005 0.2545106 -0.2754885 0.021548463 -0.087093025 -0.17361334 0.19060917 -0.14168434 0.23992033 0.033763506 0.05335567 0.025919443 -0.26314712 -0.14994188 -0.17518623 -0.24630025 0.038637288 0.0930778 -0.06679011 -0.033089742 -0.026070593 -0.04504477 -0.0777876 0.09230531 0.07316827 -0.13323545 0.07323235 -0.049548686 -0.039580658 -0.25786874 0.10637754 -0.025972942 -0.30608532 -0.08925427 0.0035627794 -0.029472904
28 -0.22338483 0.12531385 -0.26501352 0.09993474 -0.11156096 0.103952274 -0.08912771 0.008097498 0.23128255 0.20389089 0.13478063 -0.11756482 -0.10549799 -0.078844436 0.015373322 0.170071 -0.09230981 -0.1977343 -0.2499464 0.08481555 -0.13688695 0.012380837 0.0640231 0.101980455 0.0201107 -0.07544424 0.031251542 0.074834146 0.0455552 -0.4367862 -0.008945571 -0.31345382 -0.2324744 0.12147405 0.07032872 0.07014124 0.46450597 -0.0017536579 -0.2075195 0.08233731 -0.045458935 0.2334495 -0.08295728 -0.34976435 0.16022263 -0.035547026 -0.1320097 0.19758113 -0.09351627 0.08921218 0.13170281 -0.29040346 0.14962935 -0.060046054 0.12590799 0.18449141 -0.16804013 -0.19664006 -0.03423176 -0.47020134 0.0045385575 -0.20881216 0.3912783 -0.25300017 -0.25989547 -0.3706485 0.0010691048 -0.13802654 0.03446048 -0.25026768 0.12270557 -0.034442615 -0.16901316 0.13315418 0.17288192 0.16771385 -0.21935257 0.03756539 -0.11178372 0.11401449 -0.24046518 -0.01769022 -0.030509612 0.053310372 -0.19997685 0.1951393 -0.04505593 0.09658375 0.17898811 0.120295085 0.02684544 0.101078235 0.081055336 0.25322458 -0.2555349 0.019093271 -0.09441276 -0.186474 0.18672608 -0.13907202 0.24242772 0.040968273 0.048928674 0.025378937 -0.26309568 -0.16181774 -0.16987555 -0.250656 0.045779917 0.084747344 -0.06388618 -0.033915434 -0.01801175 -0.035852395 -0.073822446 0.08684805 0.09822399 -0.14147612 0.08678576 -0.060093608 -0.03006019 -0.24856108 0.09970874 -0.031185126 -0.31725213 -0.09274851 0.0117839305 -0.022977805
29 -0.22422062 0.117009535 -0.26090214 0.09529694 -0.10795316 0.10626471 -0.078777365 0.010589808 0.21913342 0.19202444 0.13837889 -0.106413715 -0.12000662 -0.06677207 -2.6614456e-05 0.15103322 -0.09381716 -0.18459354 -0.23596074 0.087016225 -0.12636158 0.018859565 0.05805134 0.09583544 0.023078429 -0.067403235 0.02847179 0.06525978 0.04777351 -0.41821036 -0.0053193774 -0.28834262 -0.21885751 0.113264635 0.07624637 0.064989574 0.44710854 0.007818188 -0.19028616 0.08375669 -0.04153076 0.21355268 -0.08100032 -0.34262267 0.15142739 -0.027236037 -0.12868044 0.19558062 -0.096783385 0.09507782 0.12824419 -0.27947965 0.15216704 -0.067821376 0.12140343 0.16452034 -0.16857454 -0.19322143 -0.039408393 -0.4509264 0.010443247 -0.19520576 0.3668316 -0.2531137 -0.24152292 -0.35935932 0.0023038303 -0.12834005 0.042336352 -0.23204848 0.11599976 -0.03124867 -0.1831134 0.1377624 0.18044926 0.15661213 -0.2131304 0.035082866 -0.0955979 0.10152128 -0.23126012 -0.015747294 -0.03326723 0.04326895 -0.18818986 0.18393442 -0.04491156 0.09278706 0.1742463 0.11314322 0.034460124 0.09772896 0.07083614 0.24284332 -0.2631402 0.015429087 -0.08963608 -0.17955661 0.18031375 -0.13856672 0.23113795 0.032405734 0.05525227 0.020922087 -0.25377646 -0.15230122 -0.16640456 -0.23815596 0.042502083 0.084681906 -0.066850886 -0.029361162 -0.01973173 -0.04265129 -0.07491943 0.08517631 0.07830881 -0.13460228 0.07998953 -0.052046698 -0.028256785 -0.24992386 0.10695115 -0.025117656 -0.30521584 -0.090364225 0.009694325 -0.024515899
30 -0.21324395 0.11597894 -0.2575704 0.09206844 -0.08797219 0.09358743 -0.07583823 0.013015802 0.21197775 0.18685272 0.12715134 -0.105261125 -0.105128944 -0.06817112 0.011714783 0.15203366 -0.08945292 -0.17269793 -0.22792533 0.07878695 -0.11945546 0.01666797 0.050101943 0.09671941 0.014086804 -0.07918785 0.030712754 0.07092903 0.048167538 -0.41774026 -0.009235102 -0.28352982 -0.22166993 0.10406738 0.073204786 0.07292833 0.4306426 -0.00037715826 -0.1890521 0.092036225 -0.049230576 0.21301675 -0.07005617 -0.32169485 0.14895849 -0.02623624 -0.12316822 0.17907938 -0.08704243 0.08283841 0.12592125 -0.2756804 0.1419728 -0.061515287 0.11310822 0.16084982 -0.1547718 -0.184483 -0.03439283 -0.4249643 0.005416022 -0.18965444 0.37181452 -0.23943539 -0.23850213 -0.35054612 -0.0049645044 -0.13777353 0.043217305 -0.23175775 0.10756587 -0.023369763 -0.15654719 0.11924725 0.17632158 0.15449385 -0.20525867 0.034497477 -0.094280854 0.09908127 -0.21537945 -0.029214067 -0.027000813 0.045719083 -0.17256363 0.1814132 -0.042337682 0.078091934 0.16463268 0.11905077 0.038986094 0.09800021 0.072208695 0.2409489 -0.2408035 0.0038689934 -0.0860596 -0.1683798 0.17376462 -0.13862452 0.22982831 0.03183526 0.045126934 0.012641068 -0.24385247 -0.14291522 -0.15350519 -0.23137419 0.036923923 0.0824027 -0.053131334 -0.035042018 -0.013139574 -0.03188201 -0.07761157 0.08743188 0.07639591 -0.13402402 0.07730783 -0.054115467 -0.03226952 -0.24173622 0.09404443 -0.018597553 -0.29024634 -0.09176716 0.0005339397 -0.01678615
31 -0.21626511 0.12264558 -0.25986472 0.09199392 -0.09902317 0.10020558 -0.08944398 0.0130367875 0.22073574 0.19350292 0.12193743 -0.11355198 -0.101330966 -0.067747414 0.01481621 0.15915832 -0.08710532 -0.1880962 -0.23596714 0.07774749 -0.13018003 0.014296774 0.06139435 0.09605988 0.014525806 -0.07138068 0.03409917 0.0688416 0.04784115 -0.4156815 -0.013656308 -0.2969303 -0.22251402 0.11544044 0.06624328 0.06756698 0.44373757 -0.0074091298 -0.19750023 0.08146079 -0.05576188 0.21889658 -0.08166252 -0.33117396 0.15538208 -0.030610653 -0.12250149 0.18267803 -0.085570626 0.08019069 0.12301168 -0.28006282 0.13178623 -0.049317602 0.123454705 0.16615263 -0.15712509 -0.19351943 -0.038022563 -0.44403544 -0.00068348483 -0.20147204 0.37847346 -0.239092 -0.24549386 -0.35778573 0.004694747 -0.13761105 0.033813674 -0.23767507 0.11517415 -0.033318955 -0.15662456 0.1258225 0.17306417 0.16341217 -0.20683043 0.036123533 -0.101624295 0.100741215 -0.22149587 -0.026340725 -0.028340388 0.04640848 -0.18742576 0.17849226 -0.04195934 0.081307195 0.17182718 0.11094287 0.02699421 0.09556135 0.073884666 0.23840854 -0.23329845 0.013295054 -0.08900218 -0.16969007 0.17301512 -0.1342412 0.23050745 0.03913064 0.048227 0.018848449 -0.24962136 -0.15592538 -0.15800995 -0.2435332 0.046890844 0.07852978 -0.05518831 -0.03577849 -0.015494332 -0.025858304 -0.0679175 0.082705006 0.087964505 -0.13823152 0.07901274 -0.05757507 -0.025951501 -0.23774669 0.09796815 -0.022074299 -0.29443038 -0.09628515 0.011858905 -0.023763832
32 -0.2185961 0.12163633 -0.26301572 0.09829845 -0.09329074 0.099667296 -0.077473804 0.018657066 0.22122577 0.19266184 0.13266362 -0.113886416 -0.11156576 -0.064657316 0.011597318 0.15488912 -0.09135978 -0.1759829 -0.23925379 0.07418186 -0.121196486 0.017065827 0.059258934 0.09970026 0.015854493 -0.073955886 0.032678485 0.069263384 0.05547806 -0.4258625 -0.007849666 -0.29667878 -0.22849557 0.10635938 0.071197815 0.06973744 0.44985816 -0.007933593 -0.19727069 0.0893616 -0.047680445 0.22482216 -0.07849289 -0.33739376 0.14105736 -0.031887915 -0.12829472 0.1904357 -0.094777204 0.09410721 0.12522614 -0.28258607 0.14172556 -0.061483216 0.11977949 0.16708972 -0.16048127 -0.18654005 -0.03405388 -0.4423152 0.0053060493 -0.19655603 0.38561267 -0.24750435 -0.24574505 -0.36110845 -0.0043219975 -0.13708723 0.039186694 -0.24082778 0.113153584 -0.032284494 -0.16604029 0.1277966 0.1823347 0.16079468 -0.21069174 0.034322284 -0.09653988 0.103085265 -0.2248389 -0.02918424 -0.034102395 0.048687834 -0.17780137 0.18774615 -0.046887178 0.08274149 0.17504238 0.12229403 0.03302517 0.10209005 0.07733154 0.24874234 -0.24981932 0.0025163929 -0.08375509 -0.16798085 0.17854498 -0.13720165 0.24173452 0.040358722 0.0455023 0.01039781 -0.24701488 -0.15313688 -0.16942635 -0.23638052 0.039396334 0.080187306 -0.06489551 -0.03613744 -0.009972017 -0.03610503 -0.0785268 0.09093909 0.08249257 -0.13896802 0.07610102 -0.050345495 -0.03253915 -0.24287379 0.101408154 -0.020621711 -0.2996064 -0.09238914 -0.0071386844 -0.017591977
33 -0.22311114 0.112063 -0.25727108 0.09564469 -0.11278155 0.103929326 -0.08009091 0.010306577 0.22220783 0.19027077 0.13546896 -0.10870703 -0.11402192 -0.067723714 0.0011453795 0.14838046 -0.09410404 -0.1833652 -0.23561499 0.08841643 -0.1241483 0.025355352 0.05545911 0.100281335 0.021632038 -0.06913887 0.026962856 0.07317451 0.04444448 -0.41581717 -0.0013323816 -0.28491822 -0.21836205 0.11373476 0.06718231 0.06249239 0.44495898 0.010857617 -0.19226673 0.08027853 -0.040765908 0.21441424 -0.080829255 -0.33306912 0.14894189 -0.03191534 -0.12864058 0.19468668 -0.09933013 0.08941344 0.12539122 -0.27670747 0.15475932 -0.063988134 0.12328974 0.17067337 -0.16896804 -0.19308628 -0.038848337 -0.44594187 0.007843739 -0.19529602 0.35769793 -0.25577208 -0.24650145 -0.35266247 0.0016699306 -0.12670052 0.045782864 -0.24240364 0.11838235 -0.02922805 -0.17868511 0.13284515 0.18061289 0.15413405 -0.20850484 0.03715699 -0.09474688 0.10278867 -0.22668603 -0.014432585 -0.02952596 0.041380722 -0.19402155 0.1794639 -0.04201664 0.08820222 0.16821519 0.11245503 0.034482434 0.099254645 0.073109716 0.24208641 -0.26278585 0.022029212 -0.09979454 -0.17804486 0.18213315 -0.13941184 0.2269501 0.035433814 0.049146775 0.019208446 -0.25013322 -0.14756969 -0.16437884 -0.23694523 0.040616255 0.08749625 -0.06393236 -0.024404107 -0.023689693 -0.043835174 -0.075437926 0.080710925 0.08374451 -0.12920026 0.07810015 -0.048922867 -0.025339885 -0.246563 0.10687404 -0.022875149 -0.3075708 -0.091543965 0.0074632126 -0.028413389
34 -0.16045 0.19206975 -0.3050664 0.0473172 0.01043324 0.08372838 -0.1744858 0.056385603 0.20044193 0.17344925 0.08594195 -0.20115532 0.040500928 -0.10806313 0.1522541 0.22235219 -0.08815669 -0.15073688 -0.27327302 0.050025363 -0.1630072 0.08435732 0.036846664 0.0316541 -0.04362723 -0.18111624 0.096614555 0.16010092 0.049914822 -0.51924187 -0.0006872068 -0.39515603 -0.20305264 0.077325754 -0.07242107 0.09516875 0.39526 -0.16996159 -0.24340086 0.21012837 -0.13855575 0.29533535 -0.09185615 -0.36475408 0.24811831 -0.0036082438 -0.13926189 0.2137548 0.08094393 -0.1206272 0.10608839 -0.3049186 0.1335899 0.02202162 0.11162271 0.16506582 -0.10584186 -0.14525321 0.008388757 -0.3919893 0.054153133 -0.2764358 0.48493385 -0.07690115 -0.31459484 -0.39158025 0.085358575 -0.26156968 0.030523121 -0.19956096 0.12047397 -0.024430482 -0.027793972 0.018871924 0.21528126 0.20585075 -0.22693782 0.027515287 -0.14177415 0.15231806 -0.21015231 -0.07935054 0.04392395 0.062459327 -0.16237569 0.15478292 -0.07690104 0.058168415 0.14995398 0.11207684 0.055088937 0.09582763 0.11472968 0.2964026 -0.085563265 -0.053601854 -0.057506084 -0.23502044 0.10732607 -0.13269429 0.3120104 0.006685263 -0.11931861 -0.010077085 -0.23238382 -0.10276772 -0.080555335 -0.2586373 0.14498498 0.12606925 0.17243342 -0.114774466 0.05505159 0.03672044 -0.062155824 0.18022035 0.21155432 -0.25563142 0.0824265 -0.041535925 -0.049481113 -0.20510058 0.0844964 0.013553349 -0.17745897 0.011058526 0.04300818 -0.03992351
35 -0.17241853 0.19644505 -0.29841286 0.051854677 0.004981975 0.08326716 -0.19100125 0.055485148 0.20947526 0.17714973 0.083102055 -0.21678519 0.0387202 -0.11929988 0.15908015 0.23527537 -0.09651105 -0.15755776 -0.28618136 0.043880027 -0.16071486 0.080052115 0.041705877 0.04235127 -0.030625168 -0.19267668 0.10700909 0.16191415 0.04651968 -0.54045933 0.002635058 -0.41612342 -0.20818627 0.0924604 -0.0928818 0.10183173 0.40600786 -0.1786136 -0.2566029 0.21079423 -0.12996063 0.31520784 -0.09607288 -0.37203747 0.2621075 0.0022585005 -0.14974853 0.21869656 0.079119764 -0.121925764 0.10199174 -0.32862917 0.1265596 0.0204965 0.11570119 0.17265472 -0.12056981 -0.1384126 0.009173683 -0.41276097 0.048356835 -0.29269573 0.5059679 -0.07766432 -0.33252552 -0.39790928 0.0905211 -0.26728895 0.039688546 -0.2105166 0.13540246 -0.030571569 -0.02849295 0.009728435 0.2133058 0.21178669 -0.24536026 0.01634029 -0.14488685 0.15803774 -0.21633519 -0.092506915 0.029701158 0.06253524 -0.18631344 0.16738681 -0.08309423 0.07115876 0.15786755 0.11871487 0.05665805 0.096687905 0.12886435 0.29882726 -0.09236065 -0.05024075 -0.050705384 -0.24454062 0.11000289 -0.12287443 0.33178642 0.008466731 -0.12249063 -0.008302476 -0.2418802 -0.11827344 -0.09319167 -0.2735172 0.15268184 0.1277455 0.18098775 -0.11814399 0.044175845 0.038416207 -0.048848134 0.18602616 0.23539658 -0.2608189 0.076694764 -0.0380008 -0.053252842 -0.20466103 0.09219135 0.006481447 -0.17510921 0.016379489 0.040692434 -0.043281056
36 -0.16069591 0.18705879 -0.27601022 0.050329655 -0.0041359905 0.070801534 -0.17532876 0.04947626 0.19585474 0.16944185 0.078036584 -0.19562158 0.030491216 -0.11260277 0.153126 0.22065705 -0.073717736 -0.1485395 -0.25918987 0.03905195 -0.15645324 0.06173383 0.03829465 0.034967907 -0.017289957 -0.16069666 0.096127644 0.14461379 0.038937557 -0.5031813 -0.0011042848 -0.3982955 -0.19696891 0.08775167 -0.07706606 0.092127755 0.37964675 -0.14790326 -0.23504359 0.18103537 -0.12273713 0.2932796 -0.08600339 -0.3486714 0.23434113 -0.004536888 -0.1372036 0.19600473 0.0636684 -0.10337921 0.093116485 -0.29878795 0.11542365 0.012959445 0.117253505 0.16353767 -0.11153011 -0.13702537 0.003895621 -0.39579982 0.043347005 -0.2702548 0.47279897 -0.07422909 -0.30081922 -0.3721465 0.07588634 -0.24273945 0.03048387 -0.19747262 0.1149429 -0.029782742 -0.027907468 0.017724503 0.18309489 0.18822917 -0.223159 0.01645929 -0.1451531 0.14252871 -0.21128972 -0.06977188 0.023596706 0.06737123 -0.17137909 0.15578951 -0.075405255 0.07511072 0.13995916 0.096810706 0.04542435 0.091570295 0.11849262 0.26890185 -0.09078538 -0.03889835 -0.04791323 -0.22556858 0.09517349 -0.11611902 0.29926696 0.022128442 -0.101289645 -0.0074987756 -0.23515569 -0.12294271 -0.08894859 -0.26139805 0.13250428 0.114339404 0.15250199 -0.10094995 0.045284495 0.036151916 -0.051656075 0.16846633 0.21624517 -0.23510985 0.07442152 -0.037984736 -0.039559063 -0.19096543 0.07799897 0.0023300014 -0.17201453 0.0035701443 0.0353635 -0.028052907
37 -0.17254528 0.17805901 -0.28231502 0.05162292 -0.0019006595 0.07574449 -0.15460588 0.055748347 0.18485712 0.17256866 0.08151707 -0.18050684 0.03397404 -0.10577772 0.13975836 0.21264021 -0.09015273 -0.13916998 -0.2571064 0.04916045 -0.14568733 0.08240536 0.03790523 0.047756504 -0.03767833 -0.18171686 0.084637225 0.15538087 0.03924387 -0.48372418 -0.00093598355 -0.37900266 -0.18724148 0.08088939 -0.06662981 0.09035613 0.36829716 -0.15299335 -0.23152366 0.19361408 -0.11837493 0.2790325 -0.08188986 -0.3380992 0.24006164 0.005472027 -0.1268937 0.19694185 0.072337575 -0.1100783 0.108025454 -0.29346016 0.12120063 0.030538118 0.110542916 0.15918295 -0.10210944 -0.14456813 0.0061448044 -0.37492114 0.042310122 -0.25845504 0.4575455 -0.08129602 -0.2968592 -0.36228678 0.077822946 -0.23956552 0.03138929 -0.20444879 0.11572524 -0.015165839 -0.017350549 0.009606731 0.20703512 0.19636792 -0.22399929 0.01585191 -0.12566641 0.14769708 -0.19381414 -0.08683864 0.031551253 0.070816204 -0.16969357 0.15543921 -0.07323015 0.065337144 0.15082991 0.113467 0.06126397 0.09042439 0.11352686 0.2781643 -0.08609518 -0.04356755 -0.050989453 -0.21988566 0.09885595 -0.11411295 0.29545456 0.0063949693 -0.11223528 0.00035982614 -0.23192479 -0.0965893 -0.08690941 -0.24213804 0.13880949 0.11658128 0.15729557 -0.10278102 0.036683388 0.023754371 -0.057022523 0.16262566 0.2044136 -0.24072474 0.08414648 -0.041186094 -0.045338437 -0.19071084 0.0811299 0.016190017 -0.16538908 0.004150006 0.039959565 -0.048590813
38 -0.16690964 0.1887981 -0.29081336 0.047518738 0.0075460384 0.070092894 -0.17680927 0.053796623 0.20178734 0.17878003 0.08596991 -0.20646754 0.040171217 -0.10620457 0.16017321 0.22007352 -0.08502414 -0.15060201 -0.2714583 0.048303973 -0.1601307 0.07319628 0.044203557 0.03895643 -0.03406156 -0.18002658 0.0928878 0.15420574 0.053877175 -0.52214557 0.000524718 -0.40107405 -0.20355704 0.0899804 -0.07573611 0.09949018 0.39614075 -0.16511655 -0.24287218 0.19942193 -0.12599394 0.29686671 -0.08936448 -0.36086142 0.23639646 -0.00946254 -0.13672902 0.21795447 0.07364568 -0.105862476 0.108283505 -0.31197822 0.118359715 0.016459301 0.11260559 0.16773942 -0.11532847 -0.1490306 -0.00073548424 -0.40082106 0.040035415 -0.28078577 0.49603754 -0.08426735 -0.3153799 -0.3847005 0.087094225 -0.2535133 0.032620903 -0.20434712 0.12897955 -0.027091336 -0.027794559 0.020192234 0.21027844 0.202961 -0.235247 0.014967137 -0.14674993 0.14720026 -0.21110892 -0.084176056 0.032264467 0.06541496 -0.16959701 0.1597488 -0.07920778 0.06744689 0.15462999 0.12087018 0.05333989 0.09984387 0.12119742 0.2844905 -0.094989866 -0.047288623 -0.045690563 -0.23007196 0.113424584 -0.12946993 0.32142907 0.012507976 -0.10621657 -0.013477133 -0.23593059 -0.11546071 -0.08599083 -0.2677683 0.14008285 0.11613535 0.16123271 -0.11917486 0.04819058 0.030043555 -0.058234293 0.17224304 0.21106125 -0.24385653 0.07408129 -0.037362795 -0.04244128 -0.20719303 0.08078387 0.005461008 -0.17447877 0.010562051 0.029586555 -0.04395673
39 -0.15389244 0.18704407 -0.28502712 0.043012258 0.006736614 0.07640907 -0.17258151 0.04865236 0.19546235 0.16155623 0.0829008 -0.20291828 0.03405572 -0.10876013 0.16100998 0.21598405 -0.07979441 -0.13926154 -0.2673309 0.04670199 -0.15657997 0.0710071 0.031719588 0.03348862 -0.035579074 -0.1747836 0.096445836 0.14775524 0.04922537 -0.5031678 -0.00078622316 -0.38004288 -0.19684553 0.0789916 -0.07532199 0.09122744 0.38314834 -0.15967223 -0.23944 0.188793 -0.12964563 0.2895221 -0.08052732 -0.35289186 0.23306055 -0.007234305 -0.13621908 0.21023464 0.0742425 -0.10669203 0.09958232 -0.30276322 0.122520454 0.016506208 0.10997679 0.16279726 -0.10522542 -0.13723934 -4.179978e-05 -0.3774146 0.048864666 -0.270589 0.4748917 -0.065338165 -0.30025113 -0.37534642 0.08567753 -0.25114793 0.03433043 -0.19575532 0.117842756 -0.027354177 -0.02521867 0.015202408 0.20161329 0.19101259 -0.2162675 0.013445211 -0.13709733 0.14628513 -0.2101283 -0.08058124 0.036256123 0.058451537 -0.1557525 0.15418494 -0.075000264 0.06576364 0.14384675 0.11144468 0.046275027 0.09430299 0.12018104 0.27468246 -0.080694005 -0.04535904 -0.04129296 -0.22513238 0.09464446 -0.12297581 0.31391284 0.013158325 -0.10771996 -0.01847413 -0.21989417 -0.10623702 -0.08433603 -0.25923702 0.14154208 0.115642875 0.16123661 -0.1085953 0.04704473 0.0313977 -0.04955705 0.1741501 0.21097106 -0.23433536 0.0757574 -0.0339438 -0.038746744 -0.19322687 0.078138635 0.007927449 -0.17135262 0.01630655 0.025092378 -0.03656272
40 -0.16025017 0.1810663 -0.27793604 0.042658787 0.005996139 0.07298798 -0.16445298 0.050739147 0.18564776 0.17193012 0.08086723 -0.18639645 0.038026623 -0.10276749 0.14181635 0.20949766 -0.08483715 -0.13760345 -0.2555843 0.044485915 -0.14663163 0.07357994 0.044574745 0.041420016 -0.033203457 -0.17359059 0.08500971 0.1561188 0.042993654 -0.48931694 -0.002663992 -0.36993775 -0.18944417 0.078953475 -0.0700779 0.095448315 0.37119073 -0.15481395 -0.22367863 0.19522412 -0.12621251 0.27681783 -0.08318616 -0.33408192 0.23872547 -7.096521e-05 -0.13408513 0.20224543 0.0717233 -0.110309474 0.10186769 -0.2969124 0.11802845 0.025174571 0.10434589 0.16255233 -0.09960597 -0.14335977 0.0026218907 -0.37604356 0.046143074 -0.26009992 0.46224758 -0.074017785 -0.29591584 -0.3649409 0.080391444 -0.23992212 0.032269303 -0.18862657 0.12399092 -0.018657979 -0.018206673 0.010090163 0.20704037 0.19719328 -0.21856005 0.0175095 -0.12684253 0.14383402 -0.191212 -0.080130294 0.030859735 0.060521457 -0.157855 0.15113594 -0.07409276 0.05865861 0.1470009 0.105406746 0.062263 0.09133023 0.11950173 0.2750269 -0.084744915 -0.045582928 -0.049709156 -0.22017819 0.10186892 -0.12400475 0.29525772 0.0018306342 -0.1075582 -0.0032449206 -0.22349449 -0.1000691 -0.082689725 -0.2420371 0.13945976 0.11395345 0.1597457 -0.11082053 0.039359868 0.030653905 -0.056864638 0.16239128 0.19828348 -0.23639685 0.08043383 -0.04132714 -0.04377122 -0.19038965 0.08146144 0.011154016 -0.16333559 0.014920921 0.03313807 -0.04361893
41 -0.16639438 0.1861734 -0.27622062 0.047659624 0.0011524734 0.08018809 -0.17579377 0.051334962 0.19680056 0.16414247 0.081652604 -0.2002132 0.034596525 -0.10439735 0.14912292 0.20775995 -0.08430222 -0.14347422 -0.26515588 0.03986418 -0.1517804 0.08406764 0.033353083 0.039383464 -0.032574415 -0.17965232 0.09394032 0.15284686 0.042785645 -0.49419704 0.0026222502 -0.37629968 -0.18734023 0.08665839 -0.08220478 0.09172435 0.36478353 -0.16563809 -0.22345564 0.20062506 -0.12322106 0.28558064 -0.08495624 -0.34503067 0.2424345 0.0008236235 -0.13910034 0.20596173 0.08011318 -0.117411226 0.097507164 -0.30257478 0.121050104 0.024645617 0.10720446 0.15041178 -0.10828215 -0.13423412 0.003256376 -0.36786893 0.0472956 -0.26844424 0.4545033 -0.06620262 -0.3034474 -0.35564488 0.076153845 -0.2488126 0.039693225 -0.18508412 0.12185131 -0.02908671 -0.026878312 0.01608476 0.2131828 0.19561295 -0.22821066 0.013885492 -0.131387 0.14516933 -0.19719604 -0.08964643 0.0284109 0.054000422 -0.16930783 0.15721092 -0.07266682 0.06192936 0.14420965 0.110082574 0.05757056 0.091498554 0.116674654 0.27839443 -0.0827118 -0.046394393 -0.040929522 -0.22219467 0.09911277 -0.115100354 0.30997762 0.0021943932 -0.12439464 -0.008748288 -0.22231698 -0.104471125 -0.08475193 -0.24953736 0.13828848 0.12301753 0.16961911 -0.11174629 0.04690338 0.028868997 -0.048782445 0.17490608 0.21629435 -0.24320835 0.07514576 -0.039061744 -0.052164845 -0.18685354 0.088864714 0.012364484 -0.15604618 0.022680942 0.03615185 -0.03837134
42 -0.17059496 0.10943322 -0.24470627 0.059697602 -0.009757276 0.06492109 -0.13117963 0.0637886 0.19581959 0.14466967 0.09438043 -0.15884848 -0.012292894 -0.059072737 0.095922366 0.18650372 -0.06379548 -0.19364078 -0.19628406 -0.019124337 -0.10811924 -0.065917164 0.06754369 0.0795839 0.01147364 -0.10218937 0.055851854 0.042481486 0.09634039 -0.4382169 -0.02974956 -0.3428989 -0.23272738 0.0678919 0.037155475 0.07481879 0.3900228 -0.12518783 -0.27466977 0.11927729 -0.046177916 0.2408275 -0.029748928 -0.2997995 0.12705164 -0.021243088 -0.10688623 0.158992 -0.014612497 0.05896194 0.10576375 -0.2790123 0.057459593 0.0064272876 0.08641058 0.15216622 -0.08685026 -0.16623817 -0.009118983 -0.41222888 0.018427668 -0.20647836 0.44578564 -0.14695579 -0.22971669 -0.36718488 -0.03067211 -0.17545512 0.007144971 -0.1935554 0.052313313 -0.0801935 -0.02274461 0.07453059 0.07942789 0.13694514 -0.20803578 0.027670883 -0.1296548 0.10872572 -0.13835338 -0.06829317 -0.041422557 0.049607694 -0.107426435 0.16640149 -0.07036958 0.05745624 0.14615874 0.12800169 -0.01552384 0.08125854 0.061008938 0.20193087 -0.08961524 -0.050656043 -0.0065260646 -0.09626568 0.13173196 -0.08814555 0.23645619 0.09936227 0.005467838 0.0006510606 -0.24835636 -0.14384082 -0.15553446 -0.23871137 0.09582724 0.045763697 -0.027150268 -0.109289564 0.02848122 0.043098085 -0.018589247 0.12294498 0.13609953 -0.16239686 0.07427539 -0.09695196 -0.036589414 -0.2031093 0.032142654 0.0071110697 -0.24752703 -0.0981752 -0.06530767 -0.001499278
43 -0.12649374 0.11338595 -0.19427249 0.05561176 -0.0374259 0.04810087 -0.10690178 0.017332021 0.16092496 0.12838338 0.057013366 -0.1259449 -0.0010277277 -0.08070379 0.10444787 0.15915506 -0.038056437 -0.15640537 -0.16250664 0.0125787845 -0.0993055 -0.02656227 0.0425508 0.061912734 -0.00010243922 -0.07082185 0.045703705 0.051263046 0.069736026 -0.3533231 -0.018592771 -0.31394777 -0.18840985 0.075725764 0.014442638 0.06539626 0.3068261 -0.085223146 -0.2160412 0.09072165 -0.06943284 0.21018402 -0.028495293 -0.24421184 0.10507266 -0.017366355 -0.0799164 0.1125638 -0.008469872 0.006042209 0.081184864 -0.20503043 0.04756701 0.023376066 0.0798203 0.13641888 -0.06773194 -0.14129037 -0.010064584 -0.33154714 -0.0128068235 -0.16415949 0.34959885 -0.11341888 -0.19518799 -0.28821304 -0.0043011457 -0.14589977 -0.012629442 -0.17714176 0.052238155 -0.06260322 -0.012016078 0.059412446 0.060928542 0.123347744 -0.15648344 0.028072922 -0.13855703 0.09652293 -0.14656207 -0.029999446 -0.016948147 0.068256505 -0.11630898 0.13708688 -0.039122175 0.05657383 0.12589018 0.08134076 -0.022869632 0.07956414 0.04624589 0.16746803 -0.07900702 -0.03789741 -0.03776187 -0.11497939 0.10022941 -0.08037282 0.19717358 0.0832768 -0.0009680849 -0.0041165864 -0.21061845 -0.12702937 -0.09433126 -0.20911972 0.06822604 0.046138268 -0.01764093 -0.060734157 0.03450327 0.027361764 -0.020873183 0.10181982 0.12580132 -0.13307017 0.07818383 -0.06890569 -0.02212565 -0.16377726 0.020930994 -0.017078707 -0.18966484 -0.059974164 -0.005872653 -0.0062357388
44 -0.14552978 0.16876438 -0.26122698 0.08165594 -0.023227163 0.057224374 -0.14462826 0.02585163 0.21470225 0.18489946 0.053627957 -0.16332778 -0.001826805 -0.08574174 0.14245 0.21132177 -0.039455976 -0.18936387 -0.21443717 0.02173694 -0.13617161 -0.03763132 0.040686984 0.08021581 0.004882818 -0.08297348 0.069541395 0.07477745 0.07408573 -0.46840823 -0.043428406 -0.4225623 -0.24131997 0.096777424 0.014611623 0.09241605 0.4029332 -0.09099572 -0.24763851 0.12504543 -0.104774885 0.26031494 -0.055325825 -0.29315853 0.15215425 -0.021180313 -0.076378375 0.1368579 -0.024451956 0.0024030202 0.10835138 -0.27462888 0.06212001 0.017067662 0.10455141 0.17736964 -0.09907985 -0.19204995 0.01103093 -0.4245384 -0.017893812 -0.2479773 0.47109228 -0.14561151 -0.26996246 -0.37050897 0.021105673 -0.18628065 -0.012768394 -0.23699851 0.07012499 -0.06841687 -0.01761657 0.06929874 0.11173219 0.17323776 -0.2196532 0.05668029 -0.20193426 0.112503536 -0.20684573 -0.042071324 -0.004649834 0.091464885 -0.14031343 0.1845921 -0.054679174 0.08449683 0.15953599 0.10072935 -0.026603036 0.08823363 0.06926806 0.23170483 -0.096481115 -0.040650234 -0.06601415 -0.16788517 0.12700884 -0.12801509 0.2417762 0.07480749 -0.0150854625 -0.0019666299 -0.25785846 -0.15428711 -0.100382395 -0.28299695 0.09321918 0.05675543 0.0073704533 -0.07232245 0.05590835 0.04722118 -0.04817309 0.12185104 0.1489275 -0.1719176 0.09468359 -0.08628859 -0.028953582 -0.20416573 0.03668473 -0.0015858824 -0.21886533 -0.077094935 -0.012086795 -0.028463783
45 -0.17185111 0.15199667 -0.26232842 0.10859527 0.012384207 0.024663007 -0.099281155 0.044494648 0.21222796 0.19505036 0.055178702 -0.14671683 -0.019751769 -0.059252307 0.112423204 0.18868059 -0.02938423 -0.14621684 -0.22742337 0.011572946 -0.11383645 -0.059059333 0.05309836 0.06137945 0.0066148834 -0.07057015 0.048487507 0.08790454 0.09986755 -0.48015016 -0.045865268 -0.40275377 -0.2744605 0.08071785 0.04283365 0.13207562 0.4129463 -0.08413048 -0.20669802 0.15032072 -0.13543399 0.247546 -0.042896498 -0.27763507 0.12683088 -0.014591532 -0.054276556 0.113809325 -0.052966457 0.040679697 0.10357906 -0.298951 0.031833176 -0.0015894282 0.069901064 0.15692937 -0.10923308 -0.21156353 0.018306116 -0.39149424 -0.03206489 -0.23801173 0.49892843 -0.156641 -0.26641086 -0.3663508 0.0011845577 -0.19540556 0.0060689645 -0.24847758 0.08239134 -0.040031455 -0.03009002 0.099774614 0.1477057 0.20376879 -0.22925936 0.05777108 -0.15411164 0.10130721 -0.20617153 -0.07184849 -0.033545393 0.0813643 -0.110364184 0.1856098 -0.046146896 0.06670221 0.16921121 0.13163954 -0.015269738 0.09347723 0.06278804 0.24235186 -0.1139818 -0.07727388 -0.044843297 -0.14169917 0.12855323 -0.1651429 0.22173613 0.051218912 0.00020412993 -0.020503253 -0.24069627 -0.1151719 -0.097565815 -0.28670514 0.08001242 0.05161866 -0.0087881675 -0.06581421 0.06696131 0.05477789 -0.07643659 0.117834374 0.10922278 -0.18075407 0.07648046 -0.07116114 -0.04755803 -0.21631837 0.059889056 0.015722709 -0.20705576 -0.10579563 -0.056987442 -0.018557075
46 -0.14018092 0.15072228 -0.24792175 0.07521034 -0.020276207 0.050291736 -0.1365297 0.02225343 0.20131963 0.16702414 0.045869306 -0.14631395 0.0034223 -0.086014874 0.13044645 0.19692501 -0.031359892 -0.17883687 -0.19326036 0.02058629 -0.1295085 -0.045278724 0.04079154 0.06707366 0.003023563 -0.0716861 0.060624037 0.065117456 0.06750858 -0.44087622 -0.033479944 -0.39022708 -0.22337629 0.08843448 0.013930236 0.08707887 0.38178828 -0.0851651 -0.22816731 0.10921031 -0.099629246 0.24451827 -0.04574602 -0.27884546 0.14470902 -0.014088334 -0.07115364 0.119819835 -0.027002206 0.0030450968 0.099464506 -0.25784075 0.056948043 0.0133369025 0.097357824 0.16725704 -0.085539244 -0.17844728 0.0071410974 -0.405162 -0.016650587 -0.22536246 0.44633886 -0.13734183 -0.24388373 -0.35199767 0.012094702 -0.17467369 -0.01715107 -0.22431935 0.06558448 -0.063502274 -0.017293166 0.063014485 0.09238745 0.16278787 -0.19463138 0.050621737 -0.1848921 0.10160648 -0.18795113 -0.03735173 -0.0027872894 0.08465554 -0.1337686 0.17266972 -0.04766994 0.07284785 0.15419984 0.09963544 -0.023061119 0.08738363 0.06736035 0.21338202 -0.09505306 -0.039587647 -0.0625438 -0.15619208 0.1240195 -0.117730655 0.22130844 0.073927715 -0.00562143 0.0013947635 -0.2370214 -0.15390332 -0.090759374 -0.26704603 0.08665252 0.05217193 -0.0012950366 -0.06691043 0.04724895 0.05086992 -0.04793785 0.11897904 0.14028351 -0.15910114 0.08730843 -0.07880553 -0.018727679 -0.19544508 0.030196743 -0.0050296136 -0.20715238 -0.080427796 -0.009218045 -0.024062455
47 -0.15218574 0.17687497 -0.27219108 0.083239436 -0.024655879 0.057536863 -0.14655349 0.02309395 0.23209342 0.19557436 0.050082404 -0.17102793 -0.0017108527 -0.09317259 0.15668146 0.23074093 -0.031094937 -0.20182967 -0.22058384 0.021136018 -0.14892714 -0.05480673 0.046549942 0.08956026 -0.0033509368 -0.0878043 0.070746064 0.0809043 0.089677475 -0.4991397 -0.041952867 -0.45718426 -0.26438558 0.113127 0.011372867 0.10732075 0.43042737 -0.096109405 -0.25535095 0.1286729 -0.121956065 0.2795098 -0.061459236 -0.30676353 0.1611579 -0.01817359 -0.07687633 0.13999559 -0.03650547 -0.001917881 0.111768626 -0.29609782 0.062495306 0.022868743 0.11025841 0.19764976 -0.10249734 -0.21030103 0.005016922 -0.46193612 -0.030424297 -0.265331 0.50818187 -0.14759375 -0.28723583 -0.40097168 0.025108894 -0.20212437 -0.017970268 -0.26336607 0.07735895 -0.066674046 -0.012341799 0.0727711 0.118166044 0.18512084 -0.22964747 0.061395243 -0.21444371 0.12462709 -0.21609871 -0.042989004 -0.006863022 0.10123482 -0.1561364 0.19748506 -0.05504674 0.09037225 0.17333479 0.10909768 -0.026155202 0.09748648 0.070243835 0.23588982 -0.10734181 -0.049095664 -0.06542162 -0.17342666 0.14373213 -0.14180236 0.26312244 0.08815281 -0.0057826354 -0.003560554 -0.27652964 -0.17197765 -0.11103456 -0.29931578 0.10367067 0.05780134 -0.0010529505 -0.07337829 0.06228607 0.056433015 -0.05196056 0.13769385 0.1575572 -0.17908567 0.09810327 -0.09921003 -0.02421922 -0.21844058 0.028648289 -0.0050480263 -0.23642707 -0.090640455 -0.015462971 -0.0303899
48 -0.14486456 0.23260292 -0.21524347 0.10185156 -0.17036341 0.04786146 -0.19360639 -0.063895576 0.2766215 0.22336054 0.0016162352 -0.17734002 0.05450291 -0.08821038 0.18518431 0.15667059 0.036038484 -0.2951514 -0.16932227 -0.011448676 -0.16024497 -0.032907885 0.05519133 0.08293838 0.009192952 0.006969945 0.07686451 0.06482261 0.011721657 -0.4160834 -0.059663724 -0.5058412 -0.28323272 0.17044044 -0.024036715 0.05904065 0.3657231 -0.06501144 -0.22872584 0.105855145 -0.101573244 0.3026394 -0.070039734 -0.25929168 0.15215829 -0.011099959 -0.0957673 0.06206681 -0.04636097 -0.084858306 0.03095489 -0.26915428 0.08293211 0.13778353 0.13511421 0.16451383 -0.05691163 -0.26372468 0.025282703 -0.41683525 -0.082811736 -0.26244414 0.39350623 -0.16306259 -0.30244395 -0.31767535 0.053557057 -0.15550251 -0.07613614 -0.23840679 0.042954374 -0.100904986 0.00053542166 0.10617157 0.016955452 0.15871428 -0.2835939 0.1054413 -0.35618255 0.09924375 -0.25840464 0.024538869 0.050881945 0.11168938 -0.22283293 0.16214459 -0.01248363 0.11188258 0.18131882 0.047503155 -0.10804462 0.0883396 0.043028653 0.21121202 -0.08910894 -0.032419525 -0.12532632 -0.2212536 0.147126 -0.13172813 0.1826435 0.099654146 -0.02707753 0.04248559 -0.38145837 -0.21839833 -0.04118487 -0.3244055 0.07322902 0.058544766 -0.022984447 -0.026173778 0.0846829 0.045672126 -0.06660346 0.11456407 0.18213184 -0.16579075 0.18903662 -0.12325789 0.011083696 -0.2275332 0.020750357 -0.09982096 -0.20066762 -0.0491586 0.1614498 0.008102226
49 -0.1373788 0.22470795 -0.21511388 0.10235062 -0.17475179 0.047840193 -0.19643861 -0.057973627 0.28603837 0.21578765 0.0016071142 -0.17921951 0.05761095 -0.083114855 0.19317098 0.14910771 0.034162454 -0.2963034 -0.16238427 -0.009319531 -0.16007553 -0.02972921 0.058895774 0.094499886 0.00012709478 -0.0067059807 0.06950346 0.071195975 0.01851303 -0.4120189 -0.055476032 -0.49921876 -0.28250462 0.17497952 -0.017921008 0.056197006 0.37295368 -0.0693613 -0.22542569 0.106557205 -0.101002544 0.29866445 -0.06809008 -0.25299624 0.15340966 -0.0062982496 -0.09168208 0.06617356 -0.039595157 -0.08101903 0.037435453 -0.27489093 0.08424611 0.15005395 0.13684 0.16900013 -0.05889791 -0.26845863 0.018356206 -0.41060588 -0.09641932 -0.26480922 0.39474446 -0.17281786 -0.30854812 -0.31422064 0.057121065 -0.16212928 -0.07355648 -0.2437246 0.047479372 -0.09815598 -0.0015533922 0.10383284 0.020954985 0.15761244 -0.28670633 0.10130162 -0.34968755 0.11448414 -0.25634763 0.016248694 0.056047358 0.115546614 -0.23023596 0.1621221 -0.010588111 0.11750016 0.1868176 0.05479031 -0.102490686 0.08717877 0.036584727 0.21093464 -0.09252975 -0.020303445 -0.12381288 -0.20817406 0.15565774 -0.12944031 0.19533004 0.09290087 -0.027098611 0.042940073 -0.38390306 -0.21735016 -0.04233084 -0.32018584 0.08265742 0.05741325 -0.028338142 -0.023383692 0.08614085 0.03662976 -0.0721855 0.112080984 0.17307809 -0.16395517 0.18899998 -0.12131096 0.01593431 -0.22999325 0.017100532 -0.09572525 -0.2004421 -0.05116547 0.16045982 -0.005275785
50 -0.1164666 0.23055816 -0.24361922 0.09508046 -0.14820701 0.040985554 -0.173536 -0.064822994 0.23917384 0.19264644 -0.022633078 -0.14847337 0.036398366 -0.10626514 0.17678757 0.20723306 0.046175465 -0.26985803 -0.16314477 0.005155803 -0.19270268 -0.06060443 0.023140425 0.026719982 0.045482963 0.015983554 0.07122173 0.060252894 -0.026161961 -0.44421083 -0.051530175 -0.516889 -0.2726199 0.15905376 -0.038429562 0.06578775 0.36620888 -0.04248369 -0.23151985 0.10476461 -0.105785385 0.31290364 -0.044633105 -0.28619307 0.14619517 -0.014763228 -0.104096144 0.026928527 -0.06336314 -0.101759404 0.024226762 -0.22768974 0.10054938 0.057263914 0.16398118 0.17403385 -0.06579461 -0.20277303 0.038445562 -0.4449495 -0.051623914 -0.27783495 0.40031916 -0.1252596 -0.29745463 -0.35792753 0.055144142 -0.15413937 -0.06615287 -0.23113294 0.022947254 -0.08228909 -0.013481307 0.09522296 -0.026434597 0.15109031 -0.23753195 0.123499885 -0.3620283 0.06785187 -0.2764865 0.07254345 0.049473472 0.11802492 -0.19212887 0.14968117 -0.027116636 0.11897153 0.15601464 0.016510924 -0.10312068 0.09358114 0.09084869 0.19271915 -0.096742205 -0.042386588 -0.14505158 -0.2582163 0.10389023 -0.13711153 0.18114164 0.11749344 -0.024348266 0.035240047 -0.34958285 -0.23162833 -0.037806492 -0.3254997 0.05401082 0.061805464 -0.013849534 -0.005108235 0.08934973 0.05595196 -0.07618958 0.114061 0.20260873 -0.17038149 0.1619946 -0.087612405 0.042074088 -0.19980472 0.013832072 -0.118008964 -0.21769321 -0.049153976 0.14764157 0.039404478
51 -0.15144812 0.2570546 -0.16109033 0.094624996 -0.21950458 0.05275395 -0.20291431 -0.094237946 0.31715518 0.2563403 -0.025912287 -0.17419094 0.0679155 -0.07422106 0.17591214 0.117258996 0.052171674 -0.3012806 -0.15500444 -0.01144627 -0.13493976 -0.017517116 0.09690057 0.11449711 0.0016400585 0.045683123 0.08633372 0.0430754 0.006253534 -0.33835393 -0.075300016 -0.49651414 -0.29518428 0.20500614 -0.019661954 0.055317532 0.3398335 -0.0525853 -0.17449236 0.097544566 -0.10697519 0.29117832 -0.11275681 -0.19918056 0.17309377 -0.012869076 -0.07624791 0.036517818 -0.031901926 -0.092077054 0.01825799 -0.26761076 0.03978955 0.2086182 0.14610931 0.15853293 -0.05602347 -0.30403733 0.02920978 -0.39739943 -0.11522002 -0.2542452 0.3457725 -0.16858359 -0.3050499 -0.25315455 0.0668572 -0.1496513 -0.0898565 -0.24108543 0.07572722 -0.136367 0.007070961 0.11321977 0.006235658 0.1744468 -0.30524027 0.11439186 -0.40337342 0.10193226 -0.26008165 0.017324956 0.061873004 0.10469711 -0.2646509 0.15450163 0.023646582 0.120604895 0.1679923 0.013412966 -0.12680961 0.068477534 -0.0035506806 0.19395024 -0.08927678 -0.018060124 -0.1548874 -0.21441095 0.17580403 -0.13816983 0.13391668 0.0678428 -0.039278988 0.06407472 -0.4210472 -0.2439922 -0.018204257 -0.32202885 0.070811376 0.03348737 -0.046928413 -0.00782768 0.08253505 0.057892524 -0.07876945 0.08455859 0.17034468 -0.147572 0.2052436 -0.1489665 -0.00811342 -0.22829092 0.026619494 -0.116417125 -0.16018301 -0.052153926 0.21380165 -0.006559583
52 -0.15047406 0.2454052 -0.19773072 0.10364313 -0.19190763 0.049125947 -0.20196041 -0.07656616 0.30078617 0.23778844 -0.009812921 -0.18202166 0.061446782 -0.088750675 0.18167537 0.14575958 0.047674228 -0.31280124 -0.1706319 -0.010019804 -0.15978748 -0.034069538 0.07056519 0.08905879 0.016336638 0.029433262 0.0817204 0.053364407 0.00708659 -0.39535996 -0.06522429 -0.51477575 -0.299327 0.18333593 -0.023924481 0.057136286 0.37311655 -0.062441602 -0.2145553 0.10754206 -0.11073918 0.30695474 -0.08916062 -0.2415648 0.16073382 -0.013498798 -0.092095636 0.048576463 -0.045676544 -0.084232345 0.02289803 -0.27722558 0.06873258 0.16038606 0.14564128 0.16703372 -0.061624624 -0.2786332 0.028170457 -0.42714655 -0.09575703 -0.27341244 0.39424667 -0.16645667 -0.31572068 -0.30869716 0.063024014 -0.16095711 -0.0774576 -0.24230203 0.055505313 -0.12159197 -0.006141961 0.11057037 0.001324734 0.16806915 -0.29863295 0.11674708 -0.38997456 0.09739213 -0.27075088 0.02359003 0.05727501 0.10851279 -0.24163793 0.1605568 -0.002989187 0.11753073 0.17884147 0.032647014 -0.12230552 0.077898756 0.025444958 0.21203062 -0.091462836 -0.030838538 -0.13781321 -0.2282105 0.15860559 -0.13980438 0.16263224 0.09505112 -0.031443913 0.05186861 -0.40618938 -0.24300553 -0.039971147 -0.33785564 0.07244309 0.04118912 -0.033371378 -0.017759971 0.089389846 0.0556135 -0.07242656 0.100998625 0.1791692 -0.16382797 0.19051883 -0.12928955 0.008617495 -0.23464945 0.025357265 -0.1093041 -0.19517732 -0.050580982 0.18481602 0.0065536317
53 -0.15103292 0.2511489 -0.2156159 0.09917978 -0.19749516 0.05073113 -0.20317912 -0.07021865 0.30334863 0.2417506 -3.166418e-05 -0.18187883 0.0692751 -0.0898204 0.19234511 0.14936003 0.042822864 -0.3136486 -0.17587021 -0.013683778 -0.162899 -0.02754208 0.06507384 0.10718528 0.0018567577 0.009958004 0.07322903 0.065709904 0.0093074115 -0.42117396 -0.061606854 -0.5344235 -0.29597202 0.18655981 -0.021802118 0.05673393 0.37653926 -0.06387618 -0.22561668 0.111424096 -0.10581698 0.31475267 -0.085145384 -0.25346217 0.16375083 -0.009492827 -0.09057821 0.05778511 -0.03553742 -0.09473519 0.040576484 -0.2822508 0.08099183 0.17361073 0.14816004 0.18128559 -0.052788947 -0.28496155 0.025385719 -0.43693268 -0.10552329 -0.2745574 0.3992927 -0.17833833 -0.31962296 -0.32096696 0.059848227 -0.1668132 -0.07807871 -0.26195505 0.054973394 -0.10987612 0.006815822 0.105882145 0.013834232 0.17446421 -0.29677692 0.10973981 -0.38793114 0.1174396 -0.2767311 0.013780864 0.0573877 0.11981312 -0.24835345 0.17079075 -0.001048977 0.11970934 0.1893778 0.040127672 -0.1159373 0.08788063 0.03070711 0.21944387 -0.091593534 -0.02747647 -0.14518104 -0.2348069 0.16311981 -0.13820751 0.19186978 0.09182831 -0.03666247 0.05517215 -0.42223734 -0.23885213 -0.035601113 -0.3420835 0.08203705 0.055224802 -0.030255226 -0.015624361 0.084883325 0.0498294 -0.07428694 0.116969936 0.18259577 -0.18143252 0.20702972 -0.13439512 0.008903619 -0.24272555 0.02428587 -0.10527686 -0.19878659 -0.051621202 0.18268175 -0.0024229789
54 -0.12804943 0.21681766 -0.21143039 0.0975934 -0.16810681 0.04600949 -0.1820507 -0.061881263 0.2669867 0.2031038 -0.00017922446 -0.16921832 0.051073037 -0.08631778 0.18013163 0.14407985 0.03938907 -0.28711385 -0.15664785 -0.015252758 -0.15656622 -0.0324363 0.047913883 0.07784865 0.007998177 -0.0013225218 0.06596892 0.05832848 0.007768374 -0.39766583 -0.050922453 -0.4808216 -0.2699432 0.16666384 -0.025667526 0.054553267 0.3493277 -0.059245933 -0.22005376 0.10531106 -0.09037141 0.2825337 -0.06600497 -0.24584195 0.13822237 -0.008211756 -0.09522305 0.060985498 -0.042044923 -0.07888639 0.028123133 -0.25758916 0.0832185 0.1392236 0.13004997 0.15699726 -0.04816454 -0.24781169 0.022043036 -0.4013061 -0.08202876 -0.24863365 0.36723644 -0.16113007 -0.2927197 -0.30463868 0.053377863 -0.14964311 -0.07574589 -0.23435293 0.035140224 -0.09246087 -0.0028358125 0.09695702 0.005734675 0.15029281 -0.27154148 0.10538741 -0.34231636 0.09773129 -0.25027716 0.01724233 0.048596445 0.10211841 -0.2097565 0.15409902 -0.017923541 0.10773194 0.17448041 0.046163186 -0.09798725 0.0776403 0.03913307 0.20316142 -0.08144323 -0.027820086 -0.11679599 -0.20423163 0.13566865 -0.12340655 0.1762435 0.09295598 -0.026232986 0.037286595 -0.36550122 -0.20942664 -0.03874514 -0.3130356 0.073076345 0.050376724 -0.023170799 -0.018324886 0.084781535 0.0409066 -0.066788875 0.10644773 0.16575064 -0.16063891 0.18488409 -0.11064014 0.020025218 -0.21944496 0.012595691 -0.09910521 -0.19267754 -0.041902203 0.1541022 0.00614906
55 -0.109493285 0.17046843 -0.28574362 0.0346771 0.022676688 0.080901444 -0.1454808 0.033681765 0.20056209 0.16341457 0.07122396 -0.15134762 0.05599685 -0.06739652 0.1280915 0.1690164 -0.041642316 -0.16113909 -0.1973479 0.02624488 -0.13632895 0.028794585 0.07302066 0.054307144 -0.07129611 -0.12698726 0.04690027 0.0831781 0.113315605 -0.42996225 -0.040176842 -0.3389271 -0.22777504 0.033916187 0.04972826 0.063987724 0.38221663 -0.1621683 -0.23974346 0.15514605 -0.12771055 0.24206613 -0.073977895 -0.32845852 0.15662347 -0.04030344 -0.124815404 0.1700671 0.06855026 -0.0103614805 0.14181907 -0.24691744 0.090851225 0.048610497 0.076016136 0.18876895 -0.056778617 -0.18941775 -0.0076865726 -0.3624526 0.024264589 -0.21464725 0.44221124 -0.10654973 -0.21868165 -0.38056564 0.06118721 -0.21074298 -0.022741511 -0.19678056 0.119145766 -0.06950604 -0.0020591929 0.05093921 0.14619662 0.16831397 -0.18204072 0.059832957 -0.16676755 0.14037769 -0.15446012 -0.05134894 0.03866725 0.073890656 -0.098222815 0.13541329 -0.050868366 0.026290115 0.15403117 0.11941375 0.030855943 0.11130028 0.054338776 0.2515836 -0.0665561 -0.07127381 -0.056236465 -0.14640765 0.13788262 -0.16278177 0.26255354 0.024172809 -0.054363865 -0.026138803 -0.23710464 -0.113314025 -0.088925704 -0.249929 0.10346009 0.08558075 0.035513 -0.13267323 0.09444303 0.038110804 -0.06381981 0.12450864 0.12746039 -0.18640357 0.08199489 -0.07507042 -0.041975126 -0.22728239 0.035790432 0.03206934 -0.21298712 -0.040284205 -0.002978757 -0.0035844059
56 -0.106717505 0.18378116 -0.28715512 0.039167456 0.021136144 0.0796371 -0.1458102 0.017456511 0.20716776 0.16098921 0.060206108 -0.15042809 0.050655976 -0.0655581 0.12578706 0.17809801 -0.031655997 -0.16725318 -0.20132354 0.029225904 -0.14020453 0.0078061237 0.07223297 0.050169908 -0.060659032 -0.10484129 0.044987917 0.07434098 0.10422359 -0.4348662 -0.04128745 -0.3542503 -0.2345252 0.03706988 0.0540796 0.066219434 0.38235244 -0.16349901 -0.25079858 0.14882942 -0.12444895 0.24897614 -0.07167609 -0.33454403 0.15038055 -0.038488917 -0.13030149 0.16736387 0.060556594 0.002754768 0.13292432 -0.23487794 0.088342495 0.039742753 0.09069827 0.19135572 -0.0650319 -0.185112 -0.0031582771 -0.37895578 0.028010933 -0.22708417 0.4473295 -0.10318048 -0.21860181 -0.38257578 0.06655162 -0.20611203 -0.0289131 -0.18588866 0.11376597 -0.07867968 -0.004773555 0.061459694 0.12519494 0.1618047 -0.17450707 0.07001107 -0.17789644 0.12836531 -0.16919534 -0.026633473 0.036022708 0.06873204 -0.102018155 0.13584249 -0.051911883 0.03347713 0.15598445 0.10913415 0.012034924 0.108375356 0.055080295 0.24510933 -0.07194932 -0.07057652 -0.060426395 -0.14520258 0.14117266 -0.1611146 0.25541797 0.034273088 -0.048890408 -0.02013109 -0.23852982 -0.1251244 -0.08716619 -0.25513467 0.10216554 0.08744342 0.024451934 -0.12988628 0.099399745 0.04823806 -0.07232593 0.12897298 0.12731233 -0.18205002 0.08112109 -0.07748858 -0.0311057 -0.23241448 0.035772953 0.022749428 -0.22884828 -0.047079824 -0.00027791114 0.005660845
57 -0.10219592 0.18584956 -0.2801717 0.036491163 0.021354424 0.07583015 -0.1499656 0.01863841 0.20209242 0.15532644 0.064058036 -0.14877212 0.05414131 -0.0725728 0.12825309 0.17434384 -0.031223193 -0.16225767 -0.20092474 0.031987984 -0.14084245 0.014844989 0.073950276 0.04462158 -0.068261385 -0.10418893 0.045532472 0.07604387 0.10909782 -0.4299643 -0.041332856 -0.34608942 -0.23578365 0.033358272 0.05549999 0.06465171 0.38458762 -0.16683455 -0.24861115 0.15317021 -0.13341592 0.24922751 -0.072588846 -0.33355802 0.14694083 -0.0437279 -0.12800398 0.16393882 0.062342264 -0.0018999478 0.13841821 -0.22940338 0.09103073 0.04401917 0.08926522 0.18640245 -0.057301566 -0.18558426 -0.0045435987 -0.36626312 0.024867615 -0.22140184 0.4408765 -0.095517874 -0.22190247 -0.3868078 0.06938623 -0.20291895 -0.026324015 -0.18370777 0.10654496 -0.07594783 -0.0027133992 0.05640038 0.12631631 0.15913896 -0.1686894 0.06684929 -0.18491437 0.12962036 -0.16243273 -0.031090148 0.044247217 0.07216339 -0.09271205 0.13296783 -0.049537014 0.03590728 0.1534 0.10588653 0.012930761 0.114021026 0.052545045 0.246591 -0.060748376 -0.07972531 -0.054589834 -0.15060575 0.13754451 -0.16143014 0.2630777 0.032748856 -0.052638736 -0.025985142 -0.23492016 -0.11961929 -0.08468182 -0.24892773 0.10422632 0.09110795 0.020953447 -0.12952444 0.10197141 0.04735084 -0.07267939 0.12783965 0.12542498 -0.17425074 0.079504296 -0.075059325 -0.036124494 -0.23345195 0.028599923 0.02072842 -0.2197711 -0.04459154 -0.0048287953 0.011227199
58 -0.09952092 0.19079943 -0.2908896 0.029386653 0.02534285 0.08701192 -0.16666333 0.021534432 0.21439461 0.1593306 0.06385445 -0.15513088 0.05610449 -0.07036459 0.1403222 0.18394206 -0.03285847 -0.1766251 -0.20405594 0.034172542 -0.14175592 0.018455183 0.081503235 0.052183162 -0.07518688 -0.10804674 0.051020324 0.07228417 0.11929085 -0.43263927 -0.04400875 -0.35033944 -0.24134164 0.031871963 0.061459035 0.06323956 0.3893894 -0.17509888 -0.25013664 0.15242845 -0.13376461 0.24928315 -0.08013632 -0.34354934 0.14840296 -0.04291991 -0.13739452 0.18069911 0.07051257 0.0029952445 0.13734207 -0.24218854 0.08757909 0.05144794 0.08194544 0.1948481 -0.059220757 -0.1867219 -0.010469006 -0.37557107 0.032015163 -0.22712046 0.4505454 -0.0969948 -0.220924 -0.3898783 0.072507925 -0.20973946 -0.03081783 -0.18863183 0.12325034 -0.089424916 -0.0030983712 0.06178027 0.13209432 0.16103202 -0.17789216 0.07015827 -0.18856761 0.13484849 -0.16664664 -0.0310642 0.04596206 0.062998585 -0.09774225 0.14088738 -0.05086897 0.0333384 0.1585974 0.10583706 0.016341256 0.11841349 0.051452793 0.2540379 -0.06396843 -0.08133013 -0.05594388 -0.14536877 0.14043163 -0.1679445 0.26811725 0.034131333 -0.058834013 -0.025256747 -0.24385531 -0.12855811 -0.087099075 -0.25633442 0.108919114 0.095443346 0.02155614 -0.13571306 0.11091652 0.048076827 -0.067804836 0.13297074 0.12782897 -0.17514613 0.07913199 -0.080630004 -0.035066534 -0.24033733 0.029008424 0.028857103 -0.2319765 -0.040890913 -0.0029011115 0.008855904
59 -0.11217801 0.17370918 -0.2939664 0.035047956 0.025367483 0.085908584 -0.14085367 0.031039681 0.19909391 0.16116871 0.060218032 -0.14167704 0.059032176 -0.07488849 0.1309595 0.18179461 -0.038268805 -0.16900861 -0.20674576 0.030838875 -0.14428894 0.03110544 0.07598887 0.056573108 -0.0720493 -0.13464181 0.04585362 0.08966954 0.1041261 -0.43211052 -0.04496082 -0.35449865 -0.22600164 0.034354232 0.052677143 0.06855498 0.38629282 -0.16909675 -0.25625834 0.1605862 -0.13354157 0.24563685 -0.07030872 -0.3400658 0.16025466 -0.038603887 -0.1224017 0.17974533 0.07119363 -0.015742611 0.14862505 -0.23465429 0.09764346 0.049427137 0.08318737 0.1993753 -0.05678579 -0.19595146 -0.002017898 -0.36618736 0.029570345 -0.2211818 0.45085943 -0.10109755 -0.21510994 -0.3968139 0.06574135 -0.20996407 -0.02964233 -0.20158736 0.11248062 -0.0673466 0.009307157 0.04700253 0.15021251 0.17094965 -0.18013622 0.06158036 -0.1669049 0.14471707 -0.15963092 -0.04098731 0.044402238 0.08149822 -0.103746824 0.13704538 -0.05059537 0.028125893 0.1589918 0.11369126 0.034345157 0.1120572 0.05723099 0.25919202 -0.06264197 -0.07588574 -0.06529036 -0.14641571 0.13594583 -0.16124174 0.26487797 0.025983717 -0.065895975 -0.029918723 -0.2474939 -0.11299731 -0.08766686 -0.25119218 0.103842594 0.09832005 0.04289345 -0.13457838 0.098769344 0.038081028 -0.069557495 0.12682709 0.13271782 -0.19402048 0.090510696 -0.0793179 -0.044065066 -0.23521432 0.034473285 0.036417376 -0.22329654 -0.039791565 0.0080694705 0.0013647737
60 -0.105828054 0.18091531 -0.2891225 0.037793115 0.02185023 0.08083867 -0.15693085 0.02571492 0.21215455 0.16748634 0.06698633 -0.15682873 0.054498795 -0.06682205 0.129254 0.18188642 -0.035546184 -0.17021024 -0.20110334 0.02537575 -0.13595967 0.012624758 0.076114774 0.05433798 -0.06782811 -0.108315594 0.041526146 0.07100333 0.11543125 -0.44111857 -0.03617201 -0.35234055 -0.24109216 0.035735887 0.059701495 0.06464329 0.39637193 -0.16800405 -0.25005856 0.14885284 -0.12370108 0.25428152 -0.07526987 -0.3350393 0.14173801 -0.04395701 -0.1337182 0.17250624 0.05877685 0.00863906 0.14059381 -0.24620658 0.085240744 0.040533442 0.08641083 0.196322 -0.06624704 -0.18981569 -0.005702542 -0.37827432 0.02078497 -0.2277579 0.4518212 -0.10904045 -0.22279842 -0.38464367 0.059828613 -0.21002413 -0.029015955 -0.19338685 0.118004136 -0.078596234 -0.004285074 0.06236568 0.13266848 0.16208565 -0.1767481 0.06275943 -0.18226783 0.13523501 -0.16598265 -0.03792875 0.03660762 0.06742325 -0.100048944 0.14539872 -0.049836524 0.03226705 0.15463383 0.11141303 0.018864634 0.11572527 0.050568614 0.25469086 -0.07750244 -0.075010836 -0.059096504 -0.14457497 0.1409972 -0.16256662 0.26955667 0.033797506 -0.041324325 -0.025858354 -0.23677479 -0.13365197 -0.08973758 -0.2577126 0.10109505 0.084418155 0.01776545 -0.12787244 0.096429326 0.047656145 -0.070368335 0.12621707 0.12866403 -0.18078776 0.085940704 -0.08275116 -0.03561036 -0.23638262 0.034555286 0.023392513 -0.22534484 -0.046606116 -0.009613435 0.0012531753
61 -0.09884058 0.188708 -0.296865 0.025780978 0.019252904 0.08228716 -0.15511823 0.024018902 0.21211258 0.1588062 0.0701914 -0.15867509 0.059171136 -0.069675215 0.13493976 0.17851 -0.032412235 -0.17024736 -0.20842595 0.026315166 -0.14177635 0.012621528 0.07737118 0.051555686 -0.07026631 -0.11615415 0.049252406 0.07623426 0.11752533 -0.44742605 -0.04262484 -0.35438603 -0.2434675 0.030887708 0.06258311 0.062095772 0.38742343 -0.17522857 -0.2532595 0.1599136 -0.12885351 0.25713176 -0.074086525 -0.34662113 0.15267846 -0.050031576 -0.14204396 0.17230761 0.07289111 -0.0071670464 0.14051433 -0.24120057 0.09370888 0.047592063 0.09146784 0.19593738 -0.056162912 -0.18748632 0.0015592905 -0.38058072 0.030645616 -0.2288775 0.44717988 -0.09303398 -0.22316287 -0.38986808 0.06813573 -0.21089563 -0.029637529 -0.18285087 0.114706345 -0.08176637 -0.0029036256 0.055710632 0.12152547 0.16338472 -0.17810105 0.06697945 -0.18743053 0.13325487 -0.16811813 -0.02882753 0.04944483 0.06956885 -0.09865006 0.1259505 -0.05337795 0.031548064 0.14955057 0.10723905 0.016400501 0.11301829 0.04940552 0.25642443 -0.066687904 -0.074549675 -0.053420004 -0.14943157 0.14109448 -0.16500147 0.26572695 0.03302038 -0.061496876 -0.023590654 -0.24527492 -0.12518466 -0.08209536 -0.25439125 0.10518164 0.09411087 0.02399312 -0.13619027 0.10661021 0.045394253 -0.071871765 0.13900708 0.1313368 -0.17817223 0.081879936 -0.078801826 -0.035454642 -0.23883408 0.0285565 0.02036688 -0.22411615 -0.04149445 -0.005331258 0.0092569
62 -0.102078065 0.18424354 -0.2878201 0.029482523 0.022697883 0.081363305 -0.1459316 0.02172312 0.20171699 0.15721038 0.05850555 -0.1453427 0.05541346 -0.061796315 0.12683587 0.1641542 -0.03677154 -0.16809247 -0.1938916 0.031135323 -0.13612099 0.01525854 0.070650734 0.04139761 -0.067272395 -0.102182984 0.03945096 0.06894189 0.10820619 -0.41664374 -0.03982733 -0.3382427 -0.23497123 0.028949438 0.061498314 0.060273394 0.37727034 -0.16555941 -0.24017651 0.15172048 -0.12615621 0.24279162 -0.077148356 -0.32660976 0.1472509 -0.041847717 -0.12325314 0.1589901 0.06297155 0.00041789532 0.13046364 -0.22688776 0.089221574 0.04546861 0.081030324 0.18337512 -0.056328773 -0.18490908 -0.0038922399 -0.359863 0.026987422 -0.21335424 0.43257135 -0.09815889 -0.21687165 -0.3717094 0.065428674 -0.19968 -0.027130201 -0.18320899 0.10919196 -0.07877032 -0.007749522 0.0649844 0.13252486 0.15889402 -0.17548017 0.069916785 -0.17936467 0.1300695 -0.15380368 -0.029675407 0.041839927 0.06844329 -0.08885209 0.13181517 -0.04969816 0.024233213 0.15141466 0.10609659 0.013653377 0.104245014 0.044853497 0.2442076 -0.063916445 -0.07909348 -0.05828547 -0.1383498 0.13645154 -0.15753822 0.2518878 0.028003508 -0.0505165 -0.029247265 -0.23700379 -0.117109776 -0.0802733 -0.24583001 0.099443376 0.087283716 0.020062193 -0.13031428 0.10478547 0.042710077 -0.067810096 0.12291044 0.119341366 -0.17422913 0.08597628 -0.07635365 -0.036106877 -0.23561783 0.030618167 0.031434152 -0.22338358 -0.04454725 -0.0031483653 0.010405098
63 -0.101513386 0.1795191 -0.28037217 0.03494556 0.018661957 0.07677085 -0.15306252 0.0177147 0.19961654 0.15261072 0.061981786 -0.14828083 0.051658206 -0.06903213 0.123786084 0.1686241 -0.0355669 -0.16189523 -0.19261418 0.028846992 -0.13877106 0.010820626 0.0712358 0.04684292 -0.06199444 -0.1002562 0.0433921 0.07071382 0.113956235 -0.41748103 -0.036948442 -0.34072685 -0.23150007 0.03936262 0.05485658 0.057755142 0.37926924 -0.1556747 -0.23890746 0.14323187 -0.124595806 0.24150531 -0.071504384 -0.3238793 0.13814944 -0.04102855 -0.12840101 0.16143306 0.06113751 0.0044979956 0.1328468 -0.23510498 0.0856503 0.039690048 0.08646254 0.17867367 -0.058214646 -0.17906791 -0.006284312 -0.36572027 0.0287362 -0.21910843 0.43299326 -0.09556499 -0.21981975 -0.37352076 0.06573373 -0.2025435 -0.028599089 -0.17771861 0.11376303 -0.08229238 -0.0073558707 0.06388758 0.12451743 0.15683848 -0.16967988 0.059208848 -0.18096778 0.12800324 -0.16027173 -0.034698617 0.040295914 0.065485865 -0.09596119 0.12903905 -0.04514149 0.032664042 0.14913255 0.10600847 0.013875806 0.1081327 0.050990608 0.24647087 -0.066807404 -0.07385584 -0.056495372 -0.14531864 0.13480133 -0.15673682 0.25347412 0.03276036 -0.04993176 -0.021608353 -0.23312865 -0.12650794 -0.08281019 -0.25114176 0.0986198 0.08282479 0.015515052 -0.12698635 0.098755226 0.04484982 -0.06304276 0.12494427 0.11943978 -0.16876379 0.07477258 -0.078353666 -0.02945565 -0.22503366 0.030558296 0.017001314 -0.2146369 -0.041120324 -0.0022301099 0.0060401573
64 -0.11910112 0.17677863 -0.27907673 0.0452052 0.010690314 0.08936785 -0.15117237 0.022499658 0.2116744 0.16093875 0.0831476 -0.16466008 0.037005354 -0.07358308 0.12526439 0.17900425 -0.04003453 -0.17285736 -0.20240155 0.02079125 -0.12968835 0.001677659 0.06405887 0.057935946 -0.05607054 -0.1143766 0.042604968 0.070211425 0.11219864 -0.43831342 -0.03224154 -0.35617334 -0.23300922 0.043516193 0.050652526 0.06483825 0.39091933 -0.15810479 -0.25135157 0.13092104 -0.112470694 0.24939704 -0.054472223 -0.31917784 0.14033163 -0.03707131 -0.12705916 0.16540249 0.043076456 0.007913499 0.13526407 -0.25667503 0.08463567 0.04291815 0.08546726 0.17944308 -0.06829836 -0.18389626 -0.0152910715 -0.37476158 0.010708757 -0.21695188 0.44628796 -0.11702816 -0.23200487 -0.3777245 0.035334513 -0.19952928 -0.02333929 -0.19974878 0.10423484 -0.075775094 -0.0134653775 0.06490214 0.12680526 0.15680812 -0.184581 0.051821385 -0.18158448 0.13296731 -0.1725075 -0.052724216 0.020884724 0.06296188 -0.10073415 0.15011433 -0.054819927 0.039078824 0.15722467 0.11960865 0.011805644 0.10451185 0.048914116 0.2425247 -0.07433547 -0.07312143 -0.04090454 -0.13410142 0.14643212 -0.14601296 0.27051014 0.042556807 -0.046073306 -0.024194568 -0.23997276 -0.13944443 -0.100266635 -0.2562115 0.10424806 0.07690026 0.007724558 -0.11503753 0.089549765 0.034468964 -0.0583444 0.1281431 0.12553757 -0.16872641 0.09016381 -0.08679205 -0.034505263 -0.22935274 0.028909571 0.013261054 -0.22640672 -0.05780642 -0.024029957 -0.004126898
65 -0.09808661 0.18469396 -0.28698197 0.028444767 0.028154954 0.08322876 -0.15286286 0.022124117 0.20054404 0.15434778 0.06645025 -0.15757596 0.060572594 -0.06477011 0.13415043 0.17255218 -0.041930687 -0.16432016 -0.20102619 0.030029375 -0.14254914 0.024371134 0.07076669 0.039036844 -0.070086956 -0.12007196 0.047475442 0.08153753 0.10327113 -0.42747864 -0.040971432 -0.33594248 -0.23150164 0.0326739 0.04964343 0.05863371 0.37581754 -0.17112535 -0.24039195 0.1592488 -0.12573849 0.24883799 -0.07964187 -0.33524737 0.15596305 -0.04472277 -0.13422619 0.17504765 0.0726367 -0.015294762 0.1323788 -0.23791121 0.09353123 0.045913618 0.0806303 0.18498279 -0.05748184 -0.18114156 -0.007174303 -0.3615494 0.03608823 -0.22434334 0.43559414 -0.087766044 -0.2267647 -0.38091904 0.071532466 -0.20563707 -0.027717153 -0.17884184 0.11897866 -0.071686015 -0.007831536 0.04742475 0.14382933 0.158768 -0.17499965 0.06427278 -0.17261632 0.13045451 -0.15868755 -0.030596932 0.049085956 0.061838053 -0.09660247 0.13410218 -0.05227644 0.030510876 0.14603333 0.103633046 0.022133503 0.11111971 0.058372334 0.24641086 -0.061771963 -0.07453978 -0.06007301 -0.15238766 0.13447155 -0.1635827 0.25977033 0.02321399 -0.059936248 -0.024956487 -0.23360384 -0.116998136 -0.081453964 -0.24354579 0.10665785 0.095840134 0.04097702 -0.1291682 0.10225979 0.042023197 -0.06826419 0.12779783 0.12957679 -0.179941 0.07578622 -0.06885503 -0.036307737 -0.23172466 0.036801666 0.031490114 -0.21175072 -0.03732213 0.0042718668 0.0063611576
